

PI_L2 int Decoder_Gru_Bias1[]= {
7955598,4497226,8858524,11817358,841476,18268640,14632770,10359639,4278744,4066145,2699934,6860217,12550263,7516602,13066598,1082130,2269845,11662822,9097868,15459617,9040933,3172430,15142570,4185882,9750520,1750528,5019506,7953154,9705307,8610090,3219782,1856553,2309176,11360823,10416034,6096006,11611022,6174362,11365682,10531009,8337838,14328037,10008710,5484453,7409437,15231252,7317502,9973611,2547750,3229336,3837250,14427300,5071153,3438170,8623531,7626206,11300846,10665449,10053931,11292140,2195617,11295816,3722027,6734266,16239397,10686280,6792951,15713635,4872543,7483537,10980447,622732,8495411,8723510,2929383,6640835,12350767,6934912,10254148,9212199,9224062,12198813,2704945,15497084,6534422,5239627,13588266,10418669,5868442,7849697,10069968,15352260,3962229,10578876,4708121,3599140,5583572,11960682,10239688,5304539,8752547,8291005,3125846,4799671,1616246,8621054,13125928,13178834,8524317,15184562,14150177,3552796,11122374,4493153,7830884,10235271,548771,9454575,6590081,7206765,8003081,10989191,6491132,5454342,12111148,14618642,9781147,4398778,10519267,7565695,3112810,6053853,4182028,1696472,7959454,10906563,12416185,5283238,11385470,11892437,6905039,11123142,-181775,1601647,6950239,14693366,10277219,4027966,11236004,10345667,5897470,3880342,11643023,8625566,7017249,6077733,-304912,10984678,5095388,15171362,14236393,8084290,11720173,14916581,194178,6802467,5012276,5689473,13477832,3640665,8716033,10580109,6675438,4056027,5403646,11378383,7702334,14598130,4403815,11329545,9586884,4883767,5021036,4465089,12146570,3758148,707531,9628003,11638787,6889738,7088602,7841762,5039381,8252644,14874587,9288486,6628741,9351631,5534064,6830461,-1226788,-9630109,-6584666,-3883417,-3774382,-2218238,-3226871,-4296112,-190001,-7381344,-5557151,-7663245,-3267783,-5078139,-4428164,-8662632,-7696437,-707746,-6123534,-5648339,-8107103,-5441589,1874640,-6388432,-9287354,-8874755,-4269551,-5778570,-2027681,-5613218,-10570144,-5544109,-6643098,-7597743,-6352768,-6801841,-1475959,-3077990,-6552539,-4364460,-4759991,-7936975,-6373193,-9525007,-2719493,-3843742,-5312177,-9024233,-1902819,-4895065,-9298111,-5517817,-8092337,-4004366,-2373946,-1613626,-2651508,-3804651,-3091898,-7129897,-5809952,-2546827,-5319061,-10483936,-3489260,-2308795,-3252586,-3310090,-4796693,-6099419,-5933834,-9089948,-5708638,-8940684,-1508875,-5503784,-5376254,-4918868,-3013256,-3622926,-9046244,-8651514,-7148477,-2309583,-5600259,-5313500,-8423249,-4252791,-9862822,-5550029,-7980403,-4272764,-7849965,-7765352,-7678247,-9422588,-4827639,-7769461,-9072565,-5268201,-2192804,-5597205,-5957580,-2294512,-3237051,-7156817,-6682180,-5202668,-6096419,-4352975,-3360240,-7752924,-6141348,-3614861,-4447452,-905559,-1656753,-2286201,-7476678,-2100772,-4550272,-4727270,-7470870,-6850658,-7068620,-4024160,-4502083,-4220452,-4901967,-5888409,-3814825,-2652772,-6262279,-4432393,-4031121,-2616505,-8164527,-6356349,-2834506,-3521449,-3783324,-4738042,-4028881,-5088985,-2636149,-9530987,-2641233,-3689097,-5411190,-6636421,-5567667,-1016086,-1439756,-6791833,-8688866,-5446908,-2791201,-7987813,-2039938,-8448342,-287633,-7159612,-3272017,-4759565,-1388994,-3560816,-4807730,-6068520,-10126199,-8628046,-5280369,-5899798,-2776415,-6487724,-1554853,-3229002,-4479546,-7963186,-8705360,-2158786,-11153690,-6017579,-5203292,-8710989,-9706091,-5298925,-2436761,-2812927,-4112219,-6952636,-8884731,-5804445,-6553766,-4984412,-3102387,-8846069,-7288024,-5757344,-2706802,-4194604,
};

PI_L2 short int Decoder_Gru_Kernel1[]={
261,-78,236,198,389,-245,158,312,-215,-340,234,-37,-407,-392,-341,376,-234,153,-13,-49,285,-240,-83,-258,-112,-196,-99,-213,121,127,-158,-81,152,26,16,-220,-246,233,-175,83,-322,-94,-346,-68,-148,-372,28,-195,172,-84,-293,344,-77,-367,262,-75,-239,-132,178,-111,-61,337,-347,-5,186,-351,200,306,-287,397,-197,210,-82,-90,-54,-243,-344,-392,-376,37,-207,1,-357,-309,164,91,-49,-75,68,-384,-276,-398,-298,274,-46,-201,-242,164,34,203,91,223,-90,400,-315,-300,-320,-314,-223,347,287,257,-111,375,-23,288,373,-114,-325,-286,-121,-402,362,-310,207,-183,-383,400,304,171,405,160,-169,-116,-170,-234,155,289,409,330,317,-142,-259,-224,46,286,-169,270,128,-59,294,332,13,354,255,-88,-287,-384,71,-157,-22,229,38,-61,-47,336,-99,270,7,186,-311,186,-17,310,-90,338,148,263,-255,-319,228,328,-28,-303,-340,-368,-95,238,-345,272,398,-37,-340,-71,-31,291,193,-117,276,284,-115,-198,330,-347,-213,329,142,-7,317,-118,168,-25,246,-41,281,-139,396,-282,-215,-100,44,-338,-214,100,-143,7,-284,383,-303,-289,88,385,-360,-244,-228,-319,-34,51,-195,143,-57,200,-268,-368,395,239,238,-276,-401,294,-401,351,197,168,-372,-263,-390,329,-101,-23,0,218,236,199,-64,-233,-372,386,242,245,-320,-153,-296,154,354,214,-154,-298,-152,-172,-296,201,-116,18,167,81,-66,10,-19,-342,-152,112,-185,180,-210,327,279,219,-335,-320,-233,-362,388,-398,-97,259,56,163,177,267,80,270,133,331,348,77,135,275,-17,396,356,-260,391,128,-166,232,-224,401,69,254,75,-220,-65,336,27,93,-408,-255,246,171,266,-258,130,133,368,371,-57,-182,260,153,-114,-249,-399,173,-92,191,124,235,-213,-113,-47,-294,34,79,-159,-111,-122,29,21,187,389,-198,-385,-181,252,-315,-69,-112,376,-215,-365,254,205,-368,-363,255,-293,-188,174,-333,362,-313,-241,-285,-17,-121,-255,-244,-407,77,
};


PI_L2 int Decoder_Gru_Bias2[]= {
534174,1303524,-478021,-383771,313263,-864186,-518712,99777,-879772,427213,-201662,-255468,166534,-1173637,108577,341585,-982963,240115,-521191,-13361,-489070,703516,127627,732024,-247461,26864,-66984,757722,73462,-329458,120735,273982,800424,463963,38548,-492103,-469194,362918,1196869,53877,-44425,148157,1114829,-447521,-343061,255007,-783959,-44171,-274205,-440498,1108060,-672602,-258187,201793,566417,62596,662127,229525,159468,-224017,-677681,-377120,1333620,431559,-767521,983230,508987,-570344,224717,-560912,154949,574235,-388644,561800,156978,391210,-77643,618365,4598,9109,254155,672412,-657857,-55258,-108497,-1009561,313168,550627,-447034,350048,498653,-601905,405514,-453748,-388864,1550536,228743,36979,938940,165292,370386,669494,-1038201,-27890,972528,-106379,60295,-173692,-265587,1108171,197479,613063,-162129,267970,-467938,-83849,-551234,-333128,-851666,-808229,-192477,873211,125775,46582,120135,792429,-297687,337632,210111,266116,1871941,221282,-24804,-13797,-79146,156496,-428065,382637,360077,1088344,-418507,-251707,-295900,-114090,159242,-778620,171034,-64746,-230874,367646,594835,174726,-219209,-206393,-47086,125333,556922,-871827,857729,-170697,398905,-251015,-308143,-846453,-493826,1582297,-649840,102741,562858,-535371,-640412,-420337,-335545,-251469,782946,298552,376183,-255464,-1363814,359919,-102723,974522,912888,-193174,-610615,-790531,622333,501801,277656,-55732,209659,435264,-141336,-210326,600981,57569,-317878,551158,-571992,827797,
};

PI_L2 short int Decoder_Gru_Kernel2[]={
221,-234,148,152,173,402,-4,-154,279,266,-203,375,212,-78,-94,-39,-387,-161,288,156,-210,243,176,63,146,-7,-288,11,-56,-2,255,-125,-299,-29,354,-17,93,-279,-378,-35,-177,179,246,328,176,29,301,214,-78,-254,-132,-52,-64,355,247,-4,194,-67,-142,167,177,31,-84,-314,-218,348,-35,-376,193,209,115,247,-210,20,251,231,188,262,-34,292,-46,139,-20,287,166,278,-186,22,332,107,-224,-364,36,198,-104,-83,204,-307,0,187,95,3,-156,273,200,-184,-315,-357,367,-16,336,231,-170,-94,199,-92,107,-270,-44,306,95,131,189,10,86,-198,203,-191,191,250,-250,-375,-191,308,-32,292,-147,133,-244,-222,-295,-338,396,-95,65,21,-230,289,-260,-265,-230,-125,-405,-146,53,-92,90,-212,-218,-174,-232,-54,98,254,-90,-205,119,314,-236,115,-369,295,-150,-113,-342,73,-15,159,209,70,-83,315,294,-366,-278,-20,-353,321,-372,-16,-392,181,-222,225,-375,-167,-347,-225,31,-296,
};

PI_L2 int Dense_Bias[]= {
472672,
};

PI_L2 short int Dense_Kernel[]={
66,111,316,-16,-230,-274,-91,75,456,-4,-377,2,-18,67,176,150,-413,-166,-28,-104,-200,-4,-136,-183,-367,68,-3,-99,73,-385,197,323,-9,363,-14,-146,81,-59,232,22,-1,241,298,-115,43,40,-288,-74,-69,-205,-53,-276,76,-327,266,-225,108,-18,80,86,238,-61,188,-288,-186,191,-240,-144,46,-126,232,115,-141,-11,120,-34,-252,-81,-55,-190,31,299,-24,-77,142,-285,232,-11,-378,109,427,-328,-139,-272,-176,99,-40,201,133,-371,102,320,-18,44,-106,-281,-95,12,266,215,211,-45,-45,-223,115,-190,-385,46,-559,-337,102,-145,-124,-117,-271,159,24,289,96,-188,-697,62,-126,207,-246,-50,-95,-18,216,432,-69,-225,-506,-181,257,-272,75,43,-97,11,-131,35,-178,-74,-294,-40,-67,-330,-20,-196,-16,58,-8,-404,-148,199,22,116,345,81,111,150,-64,-189,-139,235,150,-191,-519,-2,-337,-161,133,-1,-310,-38,23,58,67,69,-121,134,-21,179,199,70,39,148,-54,188,
};
