PI_L2 short int Ingressi[]={
1756,1626,1339,1113,941,795,640,471,280,349,748,1009,1335,1714,2090,2363,2266,2070,1948,1823,1547,1331,1162,1016,863,698,506,349,748,1009,1335,1714,2090,2363,2266,2070,1948,1823,1547,1331,1162,1016,863,698,506,436,371,156,10,-90,113,491,863,1207,
};


PI_L2 int Encoder_Gru_Bias1[]= {
2481429,-1163037,6939737,-3854706,-671621,-17601768,-1040161,-14006027,4865781,4867746,2473410,7927213,-5431448,-3044380,2420361,12324741,10795118,-12649971,6192221,437888,-6588492,2217340,-17610458,-5436294,5949540,7384914,3199214,4289381,-10205713,1370515,6944614,7157448,7916586,1604150,13770487,3087439,-13980860,374610,-4087944,2384938,1183510,7626435,1842499,341951,3458122,4327148,-7515446,4692854,9904626,8458073,-1280075,-4044651,7138641,4150944,-9561093,6886505,-5268519,3079707,-3681363,5847895,-6669964,-7334548,7772488,11210222,-843333,-12539536,-1591734,-10247009,9389527,-2644384,-3038569,6370677,4777258,5713521,-8196351,-5104715,4063152,6256852,-7276926,9997729,3362065,11127448,8801359,-2469772,5915701,-768925,7352122,-7387935,6066519,10298726,-1192504,-4011618,-51534,16074907,4035217,8812673,6317482,11065626,7851730,571914,-3836438,-4804891,4111842,-6316588,-4686959,12554928,3734244,-535425,11766456,1627304,-5951504,9769102,2314455,-1132208,6740070,-3972176,-6056785,-4953937,4320530,-1564238,-2841897,5284135,-109534,6746280,4091830,-3630168,7943218,5111087,-4078249,-40307,-775881,-9265336,3088941,1583298,-5722903,-3885696,3699543,630273,5312796,-934123,-2564658,-2095679,-1913574,-5520653,-6065375,7721295,11337468,3323815,545158,-1971522,5923895,-703372,-9707777,2295409,7307372,3616236,6853713,810006,-5306447,6874571,-18556628,2633344,-884501,-8091296,434024,-11212944,11104984,-3709991,19407,3436352,12783282,5426165,-3395356,11560884,-5752113,-1701028,630558,1470876,6952621,-2645211,8239718,3045701,-1012922,3037130,817790,2756976,-2091453,-3505742,1527710,12106559,10074929,6579026,3960596,11691320,-1036973,4251905,1599814,-1623455,-324216,-493118,-7629886,-7307888,-46086,-7143518,-5344705,-3560583,-5221650,-3115874,-942351,-10107123,-11215350,-10237095,-5748757,-7452195,-6144172,-6299201,-3569426,-3341024,-10530985,-6597225,-5739956,-4885886,1609995,-5737977,-8956937,-5306674,-4900409,-7079299,-5543471,-6500678,-3908242,-8282387,-6619541,-5781148,-3541161,-6685275,-2194153,-4725725,-5214468,-4027872,-9615978,-4580007,-8718435,-3076510,-6691713,-7215788,-2889378,-9904499,-8348120,-8738502,-8859315,-3726358,-11561194,-13077596,-4573957,-9595691,-6173883,-1987629,-4355272,-7113857,-8276728,-4111658,-8185714,-9393241,-5642575,-2534304,-6806876,-6300821,-9424188,-7781691,-4341131,-10529214,-9826889,-9117212,-5128914,-6727236,-5929451,-7792240,-5122142,-3095289,-7166771,-7340305,-3133643,-7012332,-4681966,-7339666,-8894902,-3044039,-7273517,-593155,-7038742,-3718261,-11036537,-2563801,-4076581,-9190961,-5859482,-4689018,-5541073,-6287184,-3341631,-6360150,-5235037,-5103060,-5707068,-711836,-6842737,-6372530,-7443666,-7976152,-2362026,-7363724,-10873118,-6696583,-3824024,-3241970,-5316398,-8243642,-8700607,-7058427,-9334579,-6869289,-6518164,-8112912,-10467925,-8593296,-10437379,-9892671,-4992728,-1870390,-8994336,-5761229,-6161293,-8123818,-5787129,-7160384,-8256258,-7996328,-4982246,-3295014,-5069883,-7731916,-7428817,-3314591,-5391728,-7794030,-7538738,-7909953,-5120826,-8386064,-4218682,-2819644,-1488796,-8555785,-8622974,-7658459,-7882126,-4427710,-2692771,-8382119,-2802367,-6412998,-5594156,-8763770,-7535815,-136745,-2091389,-7864774,-7136587,-7770455,-4539456,-5132986,-6813506,-7003326,-3879861,-7054203,-7988481,-8176848,-8054614,-5365883,-3016317,-192201,-4940083,-8819181,-6776361,-7439378,-8853002,2893859,-7658920,-7959386,-11087532,-9281850,-8767015,-3328515,-5465910,-8764316,-8411533,-11047865,-6280321,-7452730,
};

PI_L2 short int Encoder_Gru_Kernel1[]={
-1125,-1463,1650,-428,-1,-1472,-519,-1131,2376,-520,-86,-50,-355,1354,-495,640,-2373,-1021,-874,-482,438,1999,-2500,1924,-563,318,1859,-937,-1389,149,-1287,-1308,-1334,-1245,-810,-608,-893,1169,268,497,-1201,-966,-260,1138,3348,-1993,-1702,-324,-527,-975,-1843,1617,-706,-355,-2167,-585,429,1069,912,-557,-413,-1714,296,-1091,-304,-1761,-332,-2107,-1278,-1729,-573,-283,721,551,-1250,1171,-575,-1191,-415,-635,-891,20,1404,2,-1039,-1183,-203,-817,-466,485,-1697,1241,-711,-759,-744,-1859,965,-1071,885,-695,-279,9,-2658,-1782,-649,204,-880,672,-178,-949,-1153,1115,-306,-1374,208,-232,-1926,-213,-808,-1169,-863,-1022,2356,174,-863,-816,-460,-1279,-503,-2319,-1153,-1549,-672,-556,1299,-452,-124,-1323,-550,-970,3851,-997,77,1081,-1125,344,-120,-1516,756,820,-2303,316,-731,-1078,-109,-388,4098,1298,-82,-1337,-1279,-1734,2626,-571,-1497,-1404,562,-1474,-1214,-1131,-413,-152,-1976,-30,688,-1052,-364,-929,68,213,-330,15,-228,1047,-736,309,-1324,2306,-640,-666,-246,-752,-121,-998,212,1552,-237,1007,-951,-467,-614,-414,1966,-41,-1559,-656,1054,528,378,-405,-1228,-428,-602,124,1717,-237,231,1915,-1201,985,1236,605,402,1628,1625,-73,389,-302,-530,1167,1640,-346,-658,2415,2222,-338,-368,-461,775,1907,-1081,2832,1653,-1870,-1589,584,56,77,-1270,-719,-1239,1344,596,-712,583,-112,1100,1552,-1128,1839,-1054,214,-1344,976,13,945,1087,1863,-447,-264,996,803,-262,-243,482,694,1626,1165,52,2694,-1039,1567,667,452,1073,-261,982,1399,-864,1999,-1204,2049,-1167,2608,2670,-2037,-1300,2300,-1329,-781,469,-220,-1339,-17,-1074,2902,1213,1357,-116,-86,1312,32,-799,-645,1544,1078,-1266,483,1224,454,1485,-363,-351,-1427,-3,-155,-749,-1058,-85,-1511,1032,544,1679,-243,1212,-110,268,-521,1961,1505,-1079,355,-11,243,-306,562,-1422,-2559,2145,1130,-2117,-1374,2106,1119,388,2188,-1643,1002,538,-182,1484,-1693,-380,-920,-509,294,1900,-662,1375,-737,1922,711,-388,-1692,-439,-650,-1261,1155,-82,-924,1368,2227,1967,189,992,-473,-764,-1686,1345,-1013,-1667,-577,783,2053,1403,-838,-848,677,-194,649,
};



PI_L2 int Encoder_Gru_Bias2[]= {
1139272,-122593,-1941907,319045,-628257,-405123,277814,-286191,2160574,-806519,-1049940,282785,566577,468171,-286363,304114,711195,-746125,-1524307,-182879,-173203,-1271144,-831010,-107355,-233229,428283,-507445,-1089606,160946,-202323,-571911,-395819,19658,193741,10625,-960184,341349,-177695,-1293154,473397,-1101408,-514649,434578,884845,-22212,-35131,-399333,-206515,-1055791,-39959,-271340,789462,839226,-2157120,576365,892184,-260969,-989319,-637117,872295,1588566,4565,117162,-711092,60578,-274789,-893732,359995,-1047666,-1308714,-1086127,-1354547,243795,-1073849,309226,682996,-56144,-231217,-298975,-1420802,-803550,-222522,-1257947,137798,1010608,-678165,292634,543207,-1950004,-1194749,358562,995872,-1862880,432686,310154,516800,-208304,-419999,182977,-1018263,315831,1035652,1052986,-269116,184411,1232909,-690441,222733,-810649,316918,-1607093,-224992,364011,-410322,-1095469,-1321705,-282341,-132144,-868171,-263643,-97169,124018,-435470,-160237,-1851301,298296,-10807,-1331160,153970,1563669,-268527,-866238,303399,2117323,-279286,-337681,29075,892027,-148130,240878,-1509063,-778618,344964,1023234,-231880,108340,-288196,1550027,899307,-182969,127501,-1158458,1251739,-813334,-385679,-535689,180661,733699,-1216067,-1317703,-31003,-1064848,-343922,-1107278,-346521,-237441,-775661,1336731,-214008,1033829,289128,-645871,-517938,408169,-452023,563075,237656,-674697,205088,425385,247626,1506544,-670193,-130338,-351792,778029,163934,289363,-1115276,-75008,-1148364,-866183,-252601,-814254,-606974,622032,57688,-218952,-26263,-849350,
};

PI_L2 short int Encoder_Gru_Kernel2[]={
931,-1481,1183,-2161,728,-2896,-1887,2251,-1136,-1183,327,-726,2036,177,1581,-65,-336,2983,380,-1748,980,620,3217,-868,-576,816,-323,-499,2019,-1439,-301,-259,-161,-60,265,-727,-2872,782,1517,-1856,-1441,85,1384,1279,-592,-446,-2402,-1420,543,-102,-1594,-1520,219,140,2261,1090,62,1750,-1692,552,1645,-2318,410,-213,-2167,2832,1436,-2057,-610,1116,2281,24,-1366,-815,-2211,-1616,-394,-91,-2789,160,-1303,609,975,2018,212,-1655,941,-1331,-397,709,-52,-1988,157,-569,-534,-618,-1589,563,-356,1436,2132,1700,103,-2133,1165,-410,-1185,-1409,367,1931,2114,-744,1094,106,593,2662,-1748,583,800,-1800,-1352,-396,1119,572,-891,1556,-111,-717,2173,453,449,1933,180,-749,1290,2373,-1406,-1590,548,1934,-1221,-1578,-1160,-1990,-2367,-1098,-716,-860,-1546,-999,296,-719,-2492,932,-755,-690,-72,-1924,-1207,-28,2684,1139,1587,-2195,-1141,2739,336,1864,316,81,46,609,-1701,315,1994,-1950,1352,-1085,-208,2260,-626,-1012,1515,-648,-1193,-184,-1845,-1233,-152,75,523,-570,324,733,2104,-168,1705,-1090,2021,-1169,
};
