1139272,-122593,-1941907,319045,-628257,-405123,277814,-286191,2160574,-806519,-1049940,282785,566577,468171,-286363,304114,711195,-746125,-1524307,-182879,-173203,-1271144,-831010,-107355,-233229,428283,-507445,-1089606,160946,-202323,-571911,-395819,19658,193741,10625,-960184,341349,-177695,-1293154,473397,-1101408,-514649,434578,884845,-22212,-35131,-399333,-206515,-1055791,-39959,-271340,789462,839226,-2157120,576365,892184,-260969,-989319,-637117,872295,1588566,4565,117162,-711092,60578,-274789,-893732,359995,-1047666,-1308714,-1086127,-1354547,243795,-1073849,309226,682996,-56144,-231217,-298975,-1420802,-803550,-222522,-1257947,137798,1010608,-678165,292634,543207,-1950004,-1194749,358562,995872,-1862880,432686,310154,516800,-208304,-419999,182977,-1018263,315831,1035652,1052986,-269116,184411,1232909,-690441,222733,-810649,316918,-1607093,-224992,364011,-410322,-1095469,-1321705,-282341,-132144,-868171,-263643,-97169,124018,-435470,-160237,-1851301,298296,-10807,-1331160,153970,1563669,-268527,-866238,303399,2117323,-279286,-337681,29075,892027,-148130,240878,-1509063,-778618,344964,1023234,-231880,108340,-288196,1550027,899307,-182969,127501,-1158458,1251739,-813334,-385679,-535689,180661,733699,-1216067,-1317703,-31003,-1064848,-343922,-1107278,-346521,-237441,-775661,1336731,-214008,1033829,289128,-645871,-517938,408169,-452023,563075,237656,-674697,205088,425385,247626,1506544,-670193,-130338,-351792,778029,163934,289363,-1115276,-75008,-1148364,-866183,-252601,-814254,-606974,622032,57688,-218952,-26263,-849350,