-8635048,-8025883,-6855908,-7954806,-9746540,-7500846,-8588281,-7092760,-7565505,-6354196,-8465794,-11600719,-8253254,-9804036,-8666280,-9390124,-6575223,-9564185,-6513662,-8100422,-8746313,-8388877,-8632795,-5194579,-8696171,-6519574,-4065439,-1493962,-9193458,-7965548,-5491618,-8641954,-9042382,-4696499,-7737549,-9707347,-6999568,-5741750,-8325274,-6090593,-7351664,-11088866,-8596969,-7497186,-5650487,-8494001,-8222389,-10337139,-8641561,-6012865,-6952025,-7101576,-7427750,-6387154,-7670549,-5942912,-4941782,-7672069,-12571691,-8094209,5044369,-11018596,1032615,-11118310,-6741444,-10621526,-8785852,-9001801,-8664395,-7832424,-6768938,-8203227,-7247179,-8146077,-9642063,-6425071,-8201668,-10677468,-9686419,-6332618,-8487623,-7946647,-3329870,-9942682,-8322834,-7991653,-6613756,-8798029,-7565262,-6332017,-4671475,-6315937,-6733607,-7708265,-7603786,-6293648,885588,-7733592,-7902511,-7476522,6219030,2799028,2974248,3474971,3144890,-4481574,-787737,-5936640,-1742341,-4315296,5076927,4560843,1448003,5271326,213784,8148028,2820150,6011468,-3198267,2275726,3717712,-9053711,6700223,-350441,6725406,-5138408,-14507767,-5336200,233767,4022914,2728827,7686171,2741504,6410163,4203786,-1462924,-3116415,-4489966,10002797,-5941515,3301810,5527530,-291917,-177122,-378380,3767236,1017398,4270136,7731485,2500990,-1525409,-6925931,-2236229,-1609685,7802403,1850637,-6376755,2884088,4721746,-3215384,-7794618,-7947912,-8804337,7314974,3240001,777204,8343377,5786387,8317353,3796229,276743,4242921,647141,3265196,7074576,-9087591,-890612,4576899,3212733,-4796397,2461650,4758851,-8391440,-81519,2342275,799438,318286,3361105,-4661516,-743245,-5046969,-488294,2225550,3590301,-1654418,565541,-4999681,5488695,1404708,3704744,765511,436030,-2401505,970511,1147478,4126091,20956,6263072,-4220062,-2224947,-210489,152545,2317626,-2366323,-937261,2646638,-317846,-1199830,1199633,-1785552,-429909,6536757,-23941,-357361,-777330,185090,1843638,-5486129,-247942,-129885,-1526286,-630743,-2489092,-3625982,799297,3647873,-4734489,-10957512,-1816870,-1526726,2541309,5417482,-1755033,-1126763,1716756,4055272,-169479,730398,57417,-56193,-2776223,1278768,-1796966,3406547,-1484207,1795355,-2270873,6811638,2637820,-212624,-1286906,-6335523,484144,-764502,679376,-20388,-1369570,-3083368,-476066,721748,-313175,-1855529,1825598,1091698,841835,-2934712,-1977055,102507,897801,4399891,-1286643,271919,335832,-1439560,-1268085,1466073,3111770,992846,-9800180,-814901,19777,1457935,-3000045,-732475,812307,-1356965,-4362436,1004463,419249,1084802,-6406940,-8003201,-6913664,-6231007,-6543813,-7333028,-6410734,-6701060,-7294495,-7777507,-5181303,-2902083,-7378433,-291310,-5749728,782052,-7852201,-6002044,-6564559,-8247409,-7965175,-7383738,-6883123,-6601146,-7931427,-7007177,-11697794,-4237873,-7302470,-4739744,-8919499,-7968042,-6240719,-7221404,-5934600,-7439166,-6710352,-5404247,-7062059,-6093188,-7402768,-7824615,-3838974,-8141080,-8626274,-4698820,-4568061,1826640,-6444081,-5939420,-7195193,-4113951,-7431873,-7504516,-8253404,-6417678,-5454676,-3203489,-5297134,-8301370,-5146373,-5790576,-4258834,-3518543,-6681071,-6098634,3922489,-5605548,-4683694,-1975676,-8453225,-7633505,-6914901,-5518477,-6914151,-8531104,-9367845,-4121416,-6360701,-7294990,-5966249,1922943,-3663159,-5989843,-5688185,-7224332,-7502658,-6763296,-7565463,-6961593,-6244798,-5364302,-6602550,-6017425,-7762317,-8139406,-8221446,-7178874,-4181532,-7479651,