

PI_L2 int Decoder_Gru_Bias1[]= {
7955598,4497226,8858524,11817358,841476,18268640,14632770,10359639,4278744,4066145,2699934,6860217,12550263,7516602,13066598,1082130,2269845,11662822,9097868,15459617,9040933,3172430,15142570,4185882,9750520,1750528,5019506,7953154,9705307,8610090,3219782,1856553,2309176,11360823,10416034,6096006,11611022,6174362,11365682,10531009,8337838,14328037,10008710,5484453,7409437,15231252,7317502,9973611,2547750,3229336,3837250,14427300,5071153,3438170,8623531,7626206,11300846,10665449,10053931,11292140,2195617,11295816,3722027,6734266,16239397,10686280,6792951,15713635,4872543,7483537,10980447,622732,8495411,8723510,2929383,6640835,12350767,6934912,10254148,9212199,9224062,12198813,2704945,15497084,6534422,5239627,13588266,10418669,5868442,7849697,10069968,15352260,3962229,10578876,4708121,3599140,5583572,11960682,10239688,5304539,8752547,8291005,3125846,4799671,1616246,8621054,13125928,13178834,8524317,15184562,14150177,3552796,11122374,4493153,7830884,10235271,548771,9454575,6590081,7206765,8003081,10989191,6491132,5454342,12111148,14618642,9781147,4398778,10519267,7565695,3112810,6053853,4182028,1696472,7959454,10906563,12416185,5283238,11385470,11892437,6905039,11123142,-181775,1601647,6950239,14693366,10277219,4027966,11236004,10345667,5897470,3880342,11643023,8625566,7017249,6077733,-304912,10984678,5095388,15171362,14236393,8084290,11720173,14916581,194178,6802467,5012276,5689473,13477832,3640665,8716033,10580109,6675438,4056027,5403646,11378383,7702334,14598130,4403815,11329545,9586884,4883767,5021036,4465089,12146570,3758148,707531,9628003,11638787,6889738,7088602,7841762,5039381,8252644,14874587,9288486,6628741,9351631,5534064,6830461,-1226788,-9630109,-6584666,-3883417,-3774382,-2218238,-3226871,-4296112,-190001,-7381344,-5557151,-7663245,-3267783,-5078139,-4428164,-8662632,-7696437,-707746,-6123534,-5648339,-8107103,-5441589,1874640,-6388432,-9287354,-8874755,-4269551,-5778570,-2027681,-5613218,-10570144,-5544109,-6643098,-7597743,-6352768,-6801841,-1475959,-3077990,-6552539,-4364460,-4759991,-7936975,-6373193,-9525007,-2719493,-3843742,-5312177,-9024233,-1902819,-4895065,-9298111,-5517817,-8092337,-4004366,-2373946,-1613626,-2651508,-3804651,-3091898,-7129897,-5809952,-2546827,-5319061,-10483936,-3489260,-2308795,-3252586,-3310090,-4796693,-6099419,-5933834,-9089948,-5708638,-8940684,-1508875,-5503784,-5376254,-4918868,-3013256,-3622926,-9046244,-8651514,-7148477,-2309583,-5600259,-5313500,-8423249,-4252791,-9862822,-5550029,-7980403,-4272764,-7849965,-7765352,-7678247,-9422588,-4827639,-7769461,-9072565,-5268201,-2192804,-5597205,-5957580,-2294512,-3237051,-7156817,-6682180,-5202668,-6096419,-4352975,-3360240,-7752924,-6141348,-3614861,-4447452,-905559,-1656753,-2286201,-7476678,-2100772,-4550272,-4727270,-7470870,-6850658,-7068620,-4024160,-4502083,-4220452,-4901967,-5888409,-3814825,-2652772,-6262279,-4432393,-4031121,-2616505,-8164527,-6356349,-2834506,-3521449,-3783324,-4738042,-4028881,-5088985,-2636149,-9530987,-2641233,-3689097,-5411190,-6636421,-5567667,-1016086,-1439756,-6791833,-8688866,-5446908,-2791201,-7987813,-2039938,-8448342,-287633,-7159612,-3272017,-4759565,-1388994,-3560816,-4807730,-6068520,-10126199,-8628046,-5280369,-5899798,-2776415,-6487724,-1554853,-3229002,-4479546,-7963186,-8705360,-2158786,-11153690,-6017579,-5203292,-8710989,-9706091,-5298925,-2436761,-2812927,-4112219,-6952636,-8884731,-5804445,-6553766,-4984412,-3102387,-8846069,-7288024,-5757344,-2706802,-4194604,
};

PI_L2 short int Decoder_Gru_Kernel1[]={
261,-78,236,198,389,-245,158,312,-215,-340,234,-37,-407,-392,-341,376,-234,153,-13,-49,285,-240,-83,-258,-112,-196,-99,-213,121,127,-158,-81,152,26,16,-220,-246,233,-175,83,-322,-94,-346,-68,-148,-372,28,-195,172,-84,-293,344,-77,-367,262,-75,-239,-132,178,-111,-61,337,-347,-5,186,-351,200,306,-287,397,-197,210,-82,-90,-54,-243,-344,-392,-376,37,-207,1,-357,-309,164,91,-49,-75,68,-384,-276,-398,-298,274,-46,-201,-242,164,34,203,91,223,-90,400,-315,-300,-320,-314,-223,347,287,257,-111,375,-23,288,373,-114,-325,-286,-121,-402,362,-310,207,-183,-383,400,304,171,405,160,-169,-116,-170,-234,155,289,409,330,317,-142,-259,-224,46,286,-169,270,128,-59,294,332,13,354,255,-88,-287,-384,71,-157,-22,229,38,-61,-47,336,-99,270,7,186,-311,186,-17,310,-90,338,148,263,-255,-319,228,328,-28,-303,-340,-368,-95,238,-345,272,398,-37,-340,-71,-31,291,193,-117,276,284,-115,-198,330,-347,-213,329,142,-7,317,-118,168,-25,246,-41,281,-139,396,-282,-215,-100,44,-338,-214,100,-143,7,-284,383,-303,-289,88,385,-360,-244,-228,-319,-34,51,-195,143,-57,200,-268,-368,395,239,238,-276,-401,294,-401,351,197,168,-372,-263,-390,329,-101,-23,0,218,236,199,-64,-233,-372,386,242,245,-320,-153,-296,154,354,214,-154,-298,-152,-172,-296,201,-116,18,167,81,-66,10,-19,-342,-152,112,-185,180,-210,327,279,219,-335,-320,-233,-362,388,-398,-97,259,56,163,177,267,80,270,133,331,348,77,135,275,-17,396,356,-260,391,128,-166,232,-224,401,69,254,75,-220,-65,336,27,93,-408,-255,246,171,266,-258,130,133,368,371,-57,-182,260,153,-114,-249,-399,173,-92,191,124,235,-213,-113,-47,-294,34,79,-159,-111,-122,29,21,187,389,-198,-385,-181,252,-315,-69,-112,376,-215,-365,254,205,-368,-363,255,-293,-188,174,-333,362,-313,-241,-285,-17,-121,-255,-244,-407,77,
};

PI_L2 short int Decoder_Gru_Recurrent_Kernel1[]={
-1337,393,-80,-1265,-712,-616,321,-481,95,1252,3,-1055,1653,171,-419,-267,-1881,316,-2618,-1152,-366,-832,1340,414,533,491,-1073,482,2435,-1697,1016,-173,1308,220,-607,-33,492,420,400,186,527,974,84,493,489,-1664,-485,1389,-136,-266,128,815,775,471,-1353,240,-1317,-856,-932,1653,95,-667,-1906,808,-1494,-9,-756,-68,-1470,-80,413,-2049,22,-103,-869,-1032,432,-157,-335,-1016,721,-669,-1181,-20,-543,-1530,553,-96,100,-271,-256,-522,-1483,-337,-35,-313,-1249,1061,636,1067,487,-2219,602,-237,1501,-1092,16,-373,919,145,458,344,361,-1720,-389,-1293,159,-2139,91,-1875,838,-20,665,650,-1861,677,-300,-887,491,-874,-281,-1451,-2599,-913,322,143,644,-267,449,40,-847,-922,-155,-528,-153,-1287,274,-361,-1268,1099,-1850,-1686,371,1357,-2007,1237,-7,-816,3047,294,2164,1436,1252,-863,-99,275,1426,-556,174,54,-1132,240,-537,-683,-1038,-1559,596,138,-1430,1922,103,-380,-1324,-103,-362,-1273,276,-2458,-507,-974,-573,274,244,-1443,-1176,2985,-1186,920,-139,408,-276,889,-565,-765,340,-451,-536,-1505,-1112,-1623,1493,755,-48,306,506,-407,-57,406,-746,-276,573,-739,1505,392,1437,-1011,-836,1873,944,1036,232,190,178,783,1559,-209,1145,-1194,-375,-274,-692,958,-20,3034,299,-816,14,-267,-453,2082,546,-646,-1007,-75,-308,-498,-33,-1046,-473,1294,338,-477,1825,1603,-957,165,-16,-528,-1590,789,685,1048,-87,1482,-1763,-1747,1124,1236,798,-1204,2239,-48,-296,-681,1056,-656,-887,-1232,-546,307,-1273,-419,-455,-1770,332,49,234,-761,-83,1235,-736,-898,1742,-852,-1870,-1354,-1013,-128,686,251,324,440,800,-1595,-128,-1245,-858,-1066,57,-1164,403,437,208,151,552,-1386,899,151,519,620,1281,-1121,607,-152,909,-1574,-1097,720,1435,-335,-1788,91,-1098,187,-2209,59,-262,175,-655,828,-1608,1191,492,134,-100,296,-1461,951,4284,421,-874,-646,1887,-864,-1139,-248,-156,-903,368,1210,-88,-110,-822,-331,-1596,437,-276,347,-948,-1465,572,-1385,-723,-999,1159,-818,-694,-553,530,-209,249,-1365,364,291,-1196,-264,-1083,-67,-618,1007,
139,-1571,1825,-4,1391,1779,3644,1422,979,1165,359,-386,-2039,-1412,841,1287,3726,-510,3101,2255,-2771,2834,-1504,443,2284,360,595,-2242,-2227,2951,1239,139,-1161,718,-9,-231,-2457,428,3732,744,-329,376,2194,136,142,814,-650,1308,2830,-657,125,2958,-1081,-723,2848,532,20,1723,1661,951,-666,1577,-235,178,2600,2013,1713,21,3562,101,1665,2332,1531,375,-15,526,-674,-610,847,641,-2252,1524,551,2287,-1085,1462,900,-321,1989,440,679,3112,-244,1241,488,-906,302,286,755,382,101,2272,-334,361,-2555,1469,455,1368,-501,3805,1926,644,-2576,462,3355,-173,479,855,1474,3977,615,1308,-447,1488,-1322,988,-258,-1667,-462,222,93,314,627,-108,22,-234,1030,390,-2980,568,-57,2999,-71,5,-74,1784,2428,2763,1294,721,691,-460,1101,593,1648,-1387,1389,3357,-3643,31,-247,293,-189,-16,130,80,-1058,121,1132,60,-1459,3345,839,-1742,853,-348,1144,2014,1411,0,2160,-1214,1866,1968,2670,609,-701,2983,447,1560,-1843,504,863,975,3858,-420,1115,429,2675,-3724,-1068,-2455,74,-529,-2534,227,475,-729,-707,907,1074,-573,-2141,-1358,-2155,2069,-1773,-1395,-113,806,-1350,2034,-1914,-815,-2306,-43,-1022,203,-308,-456,-1438,-30,-504,-2516,-2263,20,-2281,1171,112,-890,-82,-2216,53,-2355,-1657,-377,-365,383,-921,910,-942,-1698,691,475,-303,-957,-3201,-312,518,-212,984,-279,-617,-3459,-77,-421,1122,-989,2185,-32,-1250,-130,551,-1034,755,-905,95,57,-366,54,-1102,-265,-557,-26,-821,214,-1432,-1235,-1717,-2740,-1612,-810,-246,-1582,-1993,-2324,208,-1125,-1695,-1356,-893,-1403,-741,-269,207,-150,-2482,-714,-500,458,-187,244,-1349,-1297,396,-659,-3,608,167,653,-424,-1035,1678,736,888,-860,-302,-416,-839,-1232,-1093,876,545,1059,651,-401,-339,-1630,-652,1141,23,-1347,-482,347,-1053,-1545,-1736,910,-1247,-731,2120,-846,-982,-198,-620,741,588,123,-3294,-1400,-991,-502,-1811,-253,-49,-733,557,-27,-1755,-118,-1265,-97,250,-406,1973,-271,1399,-943,1072,40,-2084,1380,561,-1001,192,755,-728,1033,-1484,958,-181,-336,2016,-1827,-5,-2304,259,-1104,837,-160,
-556,-1230,429,-1640,3195,-1655,-1355,-379,3017,-471,-868,-632,-2055,-2764,-1105,-270,-1853,-373,-871,-284,-2637,-900,-1397,-1388,-335,-935,-315,95,-1034,-511,-215,-1047,138,-1058,-898,-1477,-2357,-1108,-1102,-644,-114,-1637,-1232,-860,-1129,-272,-620,-729,-927,-168,-862,-912,-453,-1531,-820,-227,-834,-581,-345,-1163,-457,-728,253,-986,-371,-1359,-1158,-1984,-477,-569,-1291,-170,-700,-1051,-395,-1507,-1678,535,-1223,92,-54,-1215,-61,-1345,184,-601,-607,-2131,-397,-914,-1154,-1202,-1138,78,1967,-146,-1388,-2147,-397,-354,-997,47,-241,-317,-197,-417,-1003,-1461,-482,-869,-517,-767,-1770,-1244,855,776,-450,-1341,-853,-361,-1744,-1713,516,157,-650,-1777,-467,519,-907,217,984,-870,384,-114,-607,-461,-753,-568,-2243,-2529,-1333,-219,-160,-324,-832,-1168,-3346,-694,-76,-1496,-1401,-1740,-987,-438,-446,-720,-151,-1141,-1118,-1856,-3343,-458,-58,-771,-438,-1816,715,-215,-1182,-110,-798,295,-849,-806,-1259,-790,-1062,-1714,-443,-744,-1999,-1179,-500,186,-1065,-17,-10,-586,-121,-195,-941,331,-265,-530,-405,-946,-264,-1175,-744,-1321,790,549,-9,-544,637,-1197,385,480,-105,-451,123,11,-823,36,242,1931,126,9,-525,534,589,2093,34,-167,549,150,-1101,-58,-259,1163,118,687,1098,93,869,225,-823,-81,479,401,26,727,692,1051,-606,367,-416,-442,641,1678,614,108,773,-352,308,-25,189,258,-499,-60,380,520,978,274,206,-429,-486,663,79,322,334,-477,622,734,80,-925,455,297,-823,-630,229,838,1495,114,-66,607,395,-23,-8,361,918,649,1582,81,48,472,119,1834,2063,158,378,471,-611,-1010,74,14,953,236,-337,141,461,21,775,-490,1479,211,770,-769,993,591,-227,-1029,-315,665,-435,-171,296,-124,175,734,691,-566,182,-468,-280,-438,310,446,979,444,1102,171,-813,-343,-1345,1254,294,-105,541,-229,519,1531,690,-111,1336,10,1320,419,1291,541,-125,-434,-404,-634,910,-807,1714,276,291,321,94,851,727,-33,-610,181,-448,1065,547,-666,752,693,2381,1066,1478,299,-31,1143,-415,-351,-109,321,-216,457,1181,1427,639,780,41,11,
-143,1005,425,-577,-704,348,2374,58,-3161,3088,-298,-582,951,-2819,-320,-65,-295,405,1066,1811,715,1526,-2145,96,2949,458,-1276,-1465,1743,3198,-242,695,744,1354,-1460,-735,-185,583,-922,860,151,530,1822,-605,1430,2101,-67,111,-570,4178,-402,55,1414,282,1836,-131,-744,605,1006,135,99,103,-2191,-221,2665,443,869,416,-874,-863,1005,565,2081,601,388,-715,-1858,632,205,1017,256,1428,-427,1637,1312,1287,189,-306,1215,-1584,1351,2283,-270,264,647,1139,-1440,525,304,267,935,2804,371,-144,-1299,983,-1203,302,-61,2498,-87,1104,398,1217,1196,1253,348,666,2243,2240,818,2616,-384,-242,-598,59,1054,724,-3,1313,-2366,932,123,-189,596,-185,886,-676,-1215,-173,1413,2975,139,-179,363,456,1454,491,923,1532,510,-3089,617,576,890,-386,-434,2514,-3937,790,-1413,1455,1876,-735,199,1534,328,174,88,-369,-3078,1568,415,1873,3038,1346,850,3,1563,1023,1428,45,519,1330,1386,1033,-4,105,-1845,1287,-2494,80,491,2148,2678,1749,1929,-752,519,-111,-421,-1468,-555,-165,-38,157,293,568,-1314,649,3131,1763,230,1375,-964,1498,484,-1145,1138,883,-736,968,-976,-1140,-655,234,-1384,518,427,-1327,-702,2398,-273,-694,-3513,-404,-1123,1037,292,126,269,-371,-69,-1406,915,-333,-163,-56,222,839,-377,-1556,697,2451,-1141,497,-2364,-2016,130,-362,474,-1202,3040,1737,495,-1140,-1029,-234,590,778,-1465,-280,-194,1832,1053,173,956,-229,393,-529,-51,457,-113,-371,228,840,-917,-435,-764,-2814,-1766,-1299,-308,738,-2910,-1850,-163,656,-148,610,-489,-1146,1921,-155,5546,829,-1208,218,-1021,332,-1495,-925,1842,1040,-643,-768,151,356,806,-284,1110,-146,-567,-39,1683,-762,894,952,-1603,476,-2129,690,-233,867,-945,60,-947,651,-247,-53,105,820,-31,-853,1669,-102,-142,743,-270,-569,-111,1074,-1268,-125,-605,143,870,-1684,-4517,453,-1688,-1282,371,-207,-919,-200,308,-132,-1157,847,478,39,158,1065,1774,1060,-74,-972,1205,-6,-876,3349,-496,-591,-201,1423,-581,617,-1274,137,1231,-36,985,-573,-273,3031,1286,1988,830,1333,
-608,-3123,-1802,123,-3835,-1798,-2140,-2360,-173,-2253,314,1172,-1241,504,-521,-1749,-2544,-703,-2336,-2813,890,205,-1361,-587,-2524,-947,402,-689,-131,-2535,-392,-799,-1302,-2455,268,-990,2394,-54,-4077,559,-571,-784,-2478,-35,536,-4173,-1625,-57,-1348,2115,-1406,-1345,309,978,-954,680,-757,-1396,-2631,-1689,-575,-2018,1260,-1083,-3803,-688,99,-2461,-2513,886,-1453,-2646,-2687,-2384,-1696,-1303,-366,472,-750,2247,-460,-2453,611,-3013,1318,-1147,-1944,259,-1377,547,-830,-5009,227,-1387,351,-1831,-581,-971,259,-551,-897,-1684,961,-1153,801,-1130,-1340,-1574,2048,-1929,-2406,-887,-1708,-1093,-1343,333,-200,2205,-1517,-1665,435,-1214,1817,-1033,-1857,-2934,305,1007,-1904,441,3391,-2212,1964,-806,-299,-469,-1121,-1427,-900,-2389,-1830,-2313,-335,-587,-1136,-1431,-259,-978,-1484,-540,-1110,2,-1157,855,-664,-168,-2386,-2335,4684,-741,-1681,1240,-1948,-1865,-741,-176,1436,-247,-2264,1263,-310,-1266,-1574,172,-1237,-821,-1438,-2178,-88,-999,-1201,-526,-291,-1212,-1417,-391,-688,-1659,1149,-586,-1016,237,1411,-1207,-3442,-395,-3400,-1705,-2065,1292,-32,1307,1774,1761,3681,1896,1692,774,2804,1209,-516,-1027,1393,2350,2378,1099,762,-462,255,677,1373,723,-1834,2767,1856,2267,2311,908,1156,2465,2944,-1758,1442,3060,2318,983,2486,845,626,183,406,2590,2775,844,2671,930,2254,65,2207,-63,1690,2296,448,379,471,745,640,855,244,599,1415,1115,-1227,1438,1359,2110,1269,-147,994,-688,1883,-860,1566,1057,684,1362,1879,1073,1847,1838,308,2282,306,1230,1515,2252,1589,3154,1774,3328,1581,1575,835,2766,2449,6101,379,1193,3225,-1251,1428,1556,183,1716,-788,2432,1271,968,294,3080,1258,2312,-436,681,1216,-843,2201,270,-343,1560,1056,408,-203,-1018,305,372,1067,-712,2861,223,3142,789,-625,42,-3,238,2647,1030,-157,83,-753,1692,848,3314,-1925,2589,3598,1112,879,2153,-385,1079,417,-487,2961,-604,920,2547,4936,2873,-760,-32,3854,2140,1266,322,1667,2369,2232,-757,1613,2234,1528,1204,1515,-632,1824,962,52,-220,3121,844,2788,405,2888,299,1913,2659,1650,713,1262,829,-235,2208,1114,923,1125,1508,1140,-549,
551,861,234,-809,-1705,-868,1334,-1081,-2568,1683,450,433,-146,-3696,609,-444,1027,1071,-167,812,878,2034,-858,-35,1254,52,-2104,-2177,488,2277,-735,1158,757,412,-1807,-1280,2,1406,-965,445,585,-168,1039,-911,448,210,-437,821,64,1192,-203,654,1010,1541,446,176,-745,244,266,526,-181,-208,-27,476,1320,-433,1974,-212,-928,646,199,352,1791,270,360,190,-385,574,-107,-184,-662,383,670,-35,-658,644,95,251,491,-1706,512,887,478,-14,-1225,1027,98,359,99,1146,721,1816,585,128,-2358,209,-148,405,-233,267,-6,-281,539,1191,-28,272,236,848,2207,3043,-87,592,749,289,-1408,-450,-173,-645,385,1958,-1668,647,-1558,584,47,25,-277,273,-728,88,-174,1987,426,283,-342,-1,528,301,13,116,86,-806,634,578,459,586,-1188,976,-3558,528,378,589,-611,154,626,-229,-1797,756,889,177,-2238,-37,210,1478,2000,213,548,825,1785,850,423,-307,932,756,467,708,248,-66,-1119,276,-1719,1285,279,1339,1782,427,1198,-573,730,717,497,-675,675,-244,-237,524,1593,797,-475,-744,758,628,-169,-215,1341,2158,1086,-100,2682,2021,-698,1018,-613,829,987,964,368,745,-261,328,-654,29,-203,474,-1197,175,-676,3086,1463,122,393,-620,2899,-658,-386,-108,2012,-453,324,404,237,394,681,1917,-139,1111,364,100,463,-284,287,545,932,-162,827,925,212,473,1179,-244,1371,2036,-504,1133,328,2438,509,965,1869,-1098,313,1505,-255,658,1347,1223,1527,-473,0,-42,820,429,624,1727,819,-324,399,1059,217,986,1328,-134,259,587,3001,1988,969,1970,653,1425,276,1340,804,901,-161,-909,740,720,274,537,855,232,157,1482,1405,1487,1803,764,680,500,231,1258,1321,1492,269,350,1570,1112,-10,1192,-349,676,979,940,3207,1235,1420,1235,873,-111,2776,770,406,339,507,160,663,902,-2511,598,815,-903,-630,1661,658,2327,-330,1379,417,1433,645,-601,841,-783,1453,637,870,1599,1149,20,112,2913,1260,241,1434,1242,803,296,313,1516,1701,590,977,-354,624,306,583,-453,1076,-221,
1012,665,-227,997,-1987,625,1428,-1667,-2153,1163,577,-339,356,-2944,591,458,1661,14,279,469,880,1298,-146,293,1214,1327,-1042,-1655,1230,1981,977,515,-935,393,-733,269,-59,1454,-705,352,807,373,909,-689,-235,-42,702,269,584,1224,597,-109,868,2972,682,1437,370,-363,53,183,-195,524,-74,1024,637,887,960,61,279,256,108,108,2012,339,816,1271,70,-489,1256,-365,498,212,180,1077,163,88,229,772,631,-524,216,433,1307,-486,-1960,-329,371,552,212,996,1131,441,22,1082,-388,-343,-338,557,-365,332,64,-352,1300,778,-77,554,53,1915,1770,795,376,614,556,509,-1029,-98,-999,-748,782,773,-259,555,-245,810,-401,-47,414,-14,1045,263,188,1213,229,131,879,-273,952,404,459,226,810,332,303,289,571,858,59,796,-2923,393,-298,1097,-355,-508,189,668,-371,1171,232,915,-1059,30,814,-202,2270,777,922,-477,7,205,388,201,1033,841,574,333,451,1050,-2577,40,161,634,51,2187,417,701,594,-239,1273,275,216,61,-671,2168,-249,1623,993,-74,-168,1235,803,-547,419,-31,-3,1319,529,817,1179,1089,325,501,1237,480,420,311,625,-231,1616,397,-747,688,-522,377,-545,1186,261,1277,692,296,689,-502,1691,-622,-658,306,1552,754,423,905,888,1079,755,703,323,1011,-620,619,287,229,991,533,-1464,-397,805,1152,89,209,1473,-594,358,150,-34,911,955,2717,-2,134,1450,225,399,785,35,823,-153,1594,686,-144,-117,-554,516,-413,955,454,-12,-3,910,217,-227,349,1196,238,-705,1390,3669,155,286,940,1568,1186,-104,-573,-934,-106,-765,593,705,803,144,760,646,274,520,754,931,776,-367,835,574,44,-288,1692,-87,494,387,533,1362,571,173,814,44,631,1406,934,2671,733,381,839,414,672,1903,397,-277,-480,-23,429,54,654,-3368,-165,717,346,-67,1204,492,2090,930,1242,-370,882,-327,-805,1037,39,1943,799,625,699,1769,1365,-237,961,703,-1157,638,887,505,318,-514,956,950,336,248,-538,774,206,990,729,748,387,
-1404,-98,710,799,4138,-1221,-1311,2476,2196,-1291,1161,-87,1864,1245,-69,169,-74,-383,93,-1464,-556,-903,1903,78,-826,-603,1033,1175,-2,-2224,1055,429,2445,-918,2008,-1140,1225,-669,411,-852,384,324,-971,286,-1010,-1295,244,158,-1041,1528,95,284,-689,-640,-257,-1218,-1467,-252,-1838,-72,247,-780,-600,-468,-1633,-747,-1371,878,-415,842,-51,352,-1585,509,-752,-1098,492,782,-885,-1920,997,167,-631,-991,253,-867,-1044,777,-360,1547,654,-528,-390,150,1828,1122,-631,147,1726,-54,-901,-884,616,-526,1640,-8,305,320,72,-1354,40,865,1039,505,87,-252,12,-1681,-965,-2577,576,-54,1766,695,1041,1433,1012,-1838,-244,-1898,1280,-515,141,90,186,1460,564,-150,78,-449,22,-2235,-495,-733,1141,782,-4143,-1030,94,-1929,-980,-116,758,1034,-1348,-341,2345,-1127,3510,-238,495,412,-1130,497,-929,-1255,1320,-289,141,-1200,1069,-515,0,367,-1459,1334,-630,92,-106,-290,-723,1037,393,-29,-1311,-2466,-673,-2871,246,716,964,-2536,-1148,-1539,-1633,145,-1023,626,-1738,770,-325,912,414,201,-389,891,735,2514,1676,-292,12,1150,1806,1221,583,774,-749,-907,1730,340,723,-110,1452,-51,1204,827,-583,813,195,-1249,-1161,11,1912,1467,630,521,-2,240,664,1313,-827,1312,686,2735,-245,865,690,1841,-594,865,771,-610,-1347,-242,-781,-767,-406,-496,-1678,-14,-38,1066,1191,4036,269,1242,-757,1036,-1480,759,1137,245,273,518,-390,-748,221,-610,84,-735,89,1691,1368,106,490,314,721,2038,670,1372,-460,1522,2537,-795,-96,1223,1136,287,1646,942,617,-127,-110,-30,-819,-744,887,1083,-218,896,736,35,1647,-2299,2080,-122,-287,-625,-352,-751,-574,505,-1576,-3729,-629,983,494,141,1608,427,1724,75,429,1297,-954,979,1074,-118,1276,1035,-1086,-392,-604,-1161,-395,1239,65,-1067,814,54,-2046,1424,736,770,1305,-950,-1550,1150,2463,2957,-224,798,-1138,198,-970,-16,-72,953,139,-1947,1102,2561,723,-9,-488,270,-117,817,-1034,22,2559,566,428,-54,1343,-321,455,-1878,331,-1052,-892,-1433,-2044,577,-233,2006,952,1275,347,568,
-804,-1863,-1796,1788,-2954,-1282,-1100,-1247,-3443,-996,183,2886,-368,974,-894,-1796,-1880,1107,-2446,-2278,760,-514,-307,-650,-1615,-1170,-783,-2058,-937,-1254,-218,403,961,-70,59,-1396,2776,-95,-1654,1113,-794,-232,-1029,-780,1325,-1854,-577,-819,481,1241,-857,-1040,108,145,-1076,1696,231,-120,-1583,-198,-895,-977,66,-417,-2461,-597,1940,-65,-1020,2394,-316,1528,-1253,-29,-1699,-357,-185,-703,-1218,951,-199,-1205,2696,-2084,297,-896,-1384,2404,-727,-26,-986,-2093,418,-650,-1204,-1679,130,62,-552,-727,-735,-1558,2500,-1124,1007,-261,-800,-477,459,-1870,-387,-623,758,-427,-842,44,-292,2793,-439,-466,1377,-1542,1469,58,-1187,-924,-1015,1177,-741,-1164,1419,-1075,-315,-381,1333,-106,-668,-378,-124,-1144,-1129,-2526,-288,-513,518,-1161,793,-1659,-109,-1348,1124,1009,320,1609,-609,-410,-3374,-1059,5291,67,675,-578,-1179,-490,-564,110,753,-1504,-708,-499,-563,-1066,-611,761,-1518,-956,-822,-1095,-1025,-30,-907,1290,-53,-976,-1580,387,-957,-1022,706,-438,326,-1047,1796,-1291,-1868,-847,-1388,-945,-1187,932,-498,1485,-765,1699,4242,1209,20,3349,1176,315,2257,-521,409,569,791,496,468,1070,1796,384,2200,445,-79,1089,421,1758,873,381,1086,865,774,1276,2115,1533,19,645,2418,1721,2528,309,382,410,461,782,4197,695,1757,-226,-1490,1802,1525,444,1945,2102,1136,-775,423,-521,192,310,1459,293,-291,1149,744,0,2521,1038,1127,525,867,108,698,-266,-307,1690,621,102,-352,554,-1352,1843,1519,226,680,191,599,1468,1501,-554,4785,904,377,107,1889,1729,392,-497,683,27,-1497,1095,2089,752,-296,-276,940,401,-1070,1197,944,1910,-406,1934,-184,461,285,1968,236,-237,511,-467,287,-674,661,-152,-464,-1268,1568,315,1301,1316,-849,-642,-267,99,1481,834,-92,1304,897,1518,1078,833,-2979,1268,2455,1959,581,1750,1266,2729,745,-674,1460,802,1390,390,5093,1774,479,-1069,3812,1627,-646,-1444,-42,188,935,701,566,1234,379,1086,-214,-1048,3246,50,800,-203,1227,794,1292,1558,2311,1391,-146,1277,1188,642,-143,138,794,1004,288,953,2016,119,800,987,
114,-800,884,-609,868,-1724,1451,1029,68,576,-156,-1869,-716,-1953,-677,-468,2261,-1660,575,1121,-1355,2449,-2331,-32,2226,697,974,-2710,711,3323,278,-1132,-738,-509,-171,97,-1485,630,-585,-1142,-968,-466,1055,-489,-607,1547,-432,-1095,479,1275,98,701,1438,2650,1832,175,326,202,882,-489,160,-314,-2733,-272,2269,770,853,-1542,1800,-352,202,-140,2255,1954,190,-78,-1212,-1342,-367,-250,-104,175,250,354,156,841,-1249,-643,1478,-135,-792,1215,388,717,961,2,-1382,-105,851,952,890,1819,-1089,-184,-1315,247,-1615,-611,-1052,1200,-200,-1082,-693,-304,1815,306,341,902,2237,3277,-321,3216,504,39,-1005,-1105,-385,-566,-1113,528,-717,-372,-194,173,-420,76,-245,222,-2607,-1776,1356,2980,-44,186,624,-529,-649,511,641,191,1184,-2371,131,-122,632,845,1345,2155,-3544,240,-2613,520,-148,-1768,530,858,-624,-1328,-812,926,-1490,1511,322,-1450,1845,-441,88,-751,2325,-1485,1029,-1343,1345,1978,508,1112,50,1112,-607,840,-977,-1030,-219,1761,2130,2050,159,-176,-143,-1448,674,-549,287,1653,-1602,1554,1659,1040,192,1219,1342,764,-10,2152,-242,2479,-1454,-244,1740,1511,32,1514,-968,684,36,910,1373,-49,2243,-81,451,2407,964,-774,-2582,1573,-1154,1636,1698,386,1472,-101,144,-1555,-991,521,1320,1618,514,1478,1804,-1897,1948,274,1049,702,-1037,473,1223,1398,1479,388,-448,658,1189,552,1256,313,2246,-248,-241,54,1540,1516,1402,2775,71,765,1270,-94,1685,908,840,787,-1175,1736,49,414,-238,-1087,23,24,1255,6,-79,-1301,82,1908,-185,-154,746,240,464,356,3990,892,202,135,-633,489,451,1413,413,-55,1851,-114,591,2122,1115,1111,143,350,1389,1354,784,579,290,-34,853,-658,-399,1795,793,1127,548,830,1629,210,183,906,2524,1209,-322,800,2454,890,877,350,-85,-367,885,446,-376,-680,960,1321,1668,456,-5064,-75,-529,-67,-1110,1445,576,1205,2180,606,115,464,18,710,1373,346,2092,991,1195,285,2097,1074,-478,2335,1872,-874,1044,1873,22,347,-335,907,881,1466,1472,-46,982,861,1358,1019,1624,632,
-154,943,-425,-1301,-94,-266,-1208,-1401,-173,280,1920,-96,1051,-591,-317,520,883,-1573,-574,-1180,1059,-2,-870,-187,-1210,1014,-745,-430,1021,-1066,1544,1094,-299,-597,732,844,-867,336,1270,-2226,-1271,-30,-178,-1653,-1040,732,-252,-763,1180,3350,-478,-107,1600,868,506,-1868,674,-488,-547,298,359,-511,-2354,445,-2246,-1291,248,-750,-679,391,-171,-2808,-261,1984,742,-534,1741,-1879,-1250,-1490,795,-661,-757,-1312,129,189,-1458,-443,517,-1101,1790,-1423,484,-258,-2128,698,-172,1326,1547,1833,-1216,137,-2318,-665,1285,284,-1008,-817,307,-1773,-421,1410,-514,990,-268,-854,803,-1576,191,-826,21,-46,1991,-1573,910,-831,-1679,-1267,-982,2066,-1715,-320,-1140,980,234,1064,-159,-183,1945,-861,555,-684,450,1050,1179,102,-1403,433,-905,-1517,-551,-1754,-2,338,-224,684,-168,-986,-182,457,-261,388,-1782,693,288,-5,-573,1071,29,119,-1912,-1635,-256,1116,-178,-684,-228,-860,473,-883,-1598,-1007,203,370,56,-476,829,-1278,-1156,453,265,-1430,-1343,860,-1657,1156,-977,960,-1472,48,349,717,1466,10,1911,658,257,-164,1467,4,1578,1000,22,1739,-139,1349,-417,-976,1084,1038,455,2795,46,1119,1565,1580,313,-8,-222,2124,330,1216,-1160,1194,2776,726,193,2253,-548,-168,-791,820,1833,-465,1271,19,1646,402,1009,1907,1043,-1834,1448,236,735,104,1247,-318,1397,454,89,1449,1698,1281,39,192,565,-785,-18,69,-180,1486,1145,341,-82,2680,-1196,-342,1077,187,3126,-203,1482,252,-1128,482,-349,330,273,2931,487,-227,869,-1377,458,-142,-484,308,975,1299,-355,931,1311,-424,471,-975,-540,140,607,1072,-351,658,2684,-378,704,-956,-443,464,985,1083,-285,1570,-812,708,-497,440,1690,308,286,727,1664,-344,1234,1017,-307,288,583,1388,188,51,1089,203,664,917,1770,-126,834,997,-1140,1630,499,289,-770,-650,1008,107,307,1630,2199,1282,556,125,1262,224,8,2035,461,1191,1779,1211,1853,877,-476,-606,766,-23,-828,982,267,1275,763,394,1465,763,918,1832,1619,335,1390,-620,496,788,-19,209,126,-368,877,-1076,-65,2078,
1045,-993,584,2741,-876,876,264,-1552,-823,1289,185,-1104,363,-1781,-196,100,1663,127,527,981,1507,1350,-2220,-284,-83,-2522,-535,1390,-305,1678,216,1667,-891,-66,213,504,187,1731,-730,1071,733,811,361,356,1671,521,-196,1090,-939,585,-849,-1079,7,-349,2301,-1369,120,248,902,746,188,-605,-751,-1204,-269,-1301,2260,-1559,610,250,-229,-1603,1383,758,1155,853,-23,-90,145,923,958,-220,-1335,27,3609,744,-1014,-772,-13,-618,968,-1318,2393,-266,-1789,-1051,333,697,838,294,-1694,2763,-583,-780,-1576,482,-1160,-903,888,424,-475,-396,312,-456,513,-1052,522,1891,261,1798,2894,2259,1493,-3724,-45,-286,1874,-2353,-298,3196,829,134,838,1191,-74,2242,416,782,1260,-450,1902,387,200,-217,-27,-360,-311,2158,713,307,-1647,-3056,433,3565,-327,-148,-2101,-365,444,1162,-684,1407,-1218,329,255,-1260,221,-735,1283,-26,-487,942,-281,1917,341,-17,-475,-926,281,330,-388,-731,1399,-424,-460,-921,734,589,-117,110,-156,925,1225,745,-79,2617,1308,-658,-288,555,1279,2211,2016,1385,3301,511,754,-628,1374,11,643,1188,6,946,1220,2146,1757,642,1092,318,860,1817,-497,434,1716,1573,723,79,1567,2017,-1911,1411,545,1728,-615,2417,691,2304,-684,871,793,1072,1102,-1657,2101,-386,1244,-154,-453,881,473,1348,-232,1206,386,601,-1010,-1055,512,-1319,386,327,3258,1123,169,-78,765,198,264,1604,-257,678,155,126,446,1596,-309,44,220,1219,-375,1331,2744,493,-1046,689,451,294,786,10,1254,1191,371,1354,-1295,-766,236,-889,74,-2517,-172,1483,3380,-932,309,1868,552,1310,-199,2170,771,907,1235,220,1105,993,930,312,-80,73,967,-347,-184,-82,1141,478,-620,585,1143,-2737,-42,-1054,934,-45,-1104,976,825,-1,270,90,1175,1278,1978,190,-26,1503,761,2048,397,-1122,-62,2148,580,-685,3490,778,1613,2406,2693,1046,595,832,218,328,17,1093,1007,-285,1684,-60,2708,872,352,-997,-329,292,718,1335,946,1514,266,163,886,45,906,288,29,1468,109,1035,-861,365,984,-398,471,669,1067,-1482,-412,1612,
2083,-229,-543,462,930,632,-1118,1614,2525,-2054,-902,-215,799,1612,-862,-264,-673,37,-1464,-1977,-1334,-1041,3236,541,-2194,-1199,1614,2655,840,-2964,-147,-1086,-1200,-1118,865,-771,484,-701,511,-550,12,-113,-952,1468,-51,-550,415,-854,-591,-2436,278,-343,-509,-332,-13,-3045,52,-525,-1251,-2,-88,-73,-836,-376,-3157,955,-603,-608,-1567,1168,-697,-1396,-631,-2205,-520,-164,1691,701,523,-237,1424,-844,-1073,-963,934,-1342,1472,20,-719,838,-1019,-1609,-203,-617,2352,-1850,644,279,814,590,920,-2108,-1215,773,2540,-110,-67,-430,-57,-963,206,-330,986,-1529,-908,-859,-4,4,-1673,-2874,420,-91,1401,-422,1114,361,1139,-724,351,491,1339,-711,-185,427,-679,1018,-982,951,1522,2351,-241,-2041,-154,222,829,29,-1595,-1729,-853,-2102,-1954,-1078,-847,969,-1545,100,1072,-1925,3944,224,1672,230,154,275,-809,-416,851,183,-833,-2628,534,-887,-507,1467,-2037,300,-137,123,-1614,568,-303,254,-394,-972,-1119,-1672,876,-1153,1078,-52,219,-306,-1517,-1041,-3129,-1086,-1372,39,-287,344,-102,1495,-396,-1059,607,81,-684,-553,1474,-1250,502,721,-239,115,-26,-537,-332,307,-649,-1776,-144,-1517,1447,-1000,-324,-1716,474,-1115,-1500,-1046,1348,-1634,222,328,541,-932,1710,-1108,-1215,658,-547,1020,-1050,1215,3,-1623,-53,-1339,-164,-854,-696,212,-2241,-160,-630,622,1678,-452,-322,-2199,-187,-302,635,-65,-201,291,-1549,-1476,-1154,-977,-833,-539,-983,-981,-786,-306,-862,-802,755,1202,1380,-1032,-26,-677,-2760,-972,-220,318,190,2322,-783,834,1286,-586,1004,580,232,-1555,-287,815,64,952,-1110,386,-2576,-1335,-514,-1471,-1003,-732,-355,-1459,57,-855,577,620,-37,-779,129,-1376,-1254,-2629,-2426,-2078,-965,-1937,-209,216,299,-862,794,-731,-642,-1519,-1461,-1048,-1176,14,575,306,569,-1615,596,-644,-1071,400,190,104,9,-1505,-1569,136,-404,-2228,-804,-621,785,672,3549,-689,49,-802,-202,-997,418,-290,706,-291,-806,-1281,428,43,-1528,-870,-1563,305,-743,-987,-1126,-482,40,-2981,-903,-1227,-486,-2671,-336,-579,355,-106,-2089,753,-1312,277,225,-3012,-639,-1222,-191,-749,
-1181,-108,168,1738,-1022,-1194,-1064,-413,-607,-820,50,-1303,-889,-807,12,-1744,-1391,1018,-417,-1675,1001,-312,944,-1220,-660,-233,58,4551,-1464,-1043,902,408,-1635,-146,142,-567,3110,475,-2217,668,-1427,875,-716,-708,571,-622,50,-176,-1801,2062,-939,-1686,2448,420,-1462,-183,3504,-762,-879,-243,-667,-299,-1078,-440,-2936,-198,1474,-689,554,1587,-383,-15,-204,-237,-1193,-960,1211,-574,-788,-42,2705,-803,605,-630,1603,-692,-852,2137,-724,-316,-792,-1813,1156,-636,0,-1429,1023,-365,1230,-489,-398,-1972,161,126,677,-44,-649,-613,1749,-1042,-34,-1065,2121,-1126,-1079,-527,-326,1110,-305,-1135,2023,-1054,1510,-1237,-754,-1491,906,-1312,-599,-2,-520,-1002,-453,-440,892,581,-321,238,2603,-1176,-1176,-1727,-757,-588,672,-1009,-933,-984,-378,-446,-326,-1659,278,1705,-38,294,-2521,-1495,4295,-584,593,-821,-1317,-431,-580,416,919,92,-623,-2033,890,-728,-875,447,-954,-518,-361,-1103,-784,117,-1897,2047,751,-677,-1114,-3127,-1019,-1747,-418,672,-1279,-982,40,-249,-2407,-880,-515,-1828,-310,-1040,-337,1821,551,2219,3075,2733,1476,3392,2145,411,-722,827,778,1320,1300,-1246,276,641,319,1248,1964,28,2064,181,1174,1648,1435,-7,1171,1262,1447,-329,133,1394,1539,-1623,3538,1620,913,1643,745,1471,1028,1060,1955,121,2232,889,838,-503,2109,959,326,-83,-27,-96,1648,-923,1001,390,1643,1105,2985,1564,1568,2182,1491,1382,-52,773,1069,-1152,1168,1904,941,2226,-129,-785,1757,-315,1311,1499,393,1165,148,2229,1517,2030,867,660,696,1370,1847,-187,2273,2542,2331,-486,666,-758,1499,1139,2847,1951,1499,-118,1254,887,-156,2092,456,1007,494,-190,427,-539,1895,2041,-9,693,525,775,225,-1404,318,-381,-1183,-275,2820,-625,1242,2108,268,-181,753,1531,1882,1945,-421,915,688,611,944,585,1404,1045,2072,875,257,982,-803,1156,776,-325,1274,656,-1798,1267,1391,1606,274,777,2222,1391,971,1648,308,912,907,1531,-215,1549,1398,-342,1037,134,1918,818,-824,1133,759,187,2231,988,1102,909,2068,-248,1091,-1015,-688,588,-904,1057,951,71,2932,-640,2166,317,
-1321,-1816,263,-1166,2548,-689,-1043,-231,2483,-475,-505,-317,26,716,-210,-468,-1662,399,-170,4,-1877,-1044,-484,440,-999,-760,378,448,-74,-1258,-849,-992,-4,-754,-251,-846,-704,-972,-654,91,-324,-287,-1196,-223,-1185,-467,-424,-357,-1585,-509,-1232,-70,-978,-2010,-695,-824,-2233,-9,-383,-134,-723,-161,706,-442,-698,-1899,-496,91,273,-291,-437,-451,-846,-373,-421,-1002,-513,267,-724,-130,-881,-379,-339,-862,-662,-401,-6,-1270,-541,386,-475,-404,-1171,319,-94,-588,-1245,-487,-694,-314,-1165,-885,-900,-1128,-305,-125,186,-612,-165,-459,123,616,-837,-1845,-70,410,-536,-1850,-840,-545,-1503,-1093,179,-237,222,-1597,431,316,-326,-472,1395,-620,441,-679,-253,-768,-555,-132,-1254,-1229,-891,-692,-647,-373,-2117,-757,-2426,-291,-281,-654,-1245,855,-335,-539,-505,-135,1293,-1096,171,-781,-1110,-789,467,-285,-428,-1690,-303,-1100,-1535,1027,898,-74,-388,-962,-1439,-1126,-1317,29,-608,-918,-1600,22,-820,481,-826,66,-305,-159,-345,-522,-435,246,725,-832,-680,-187,-704,-372,-821,-250,-733,494,619,-576,-968,-404,-608,-826,692,358,-899,190,-15,-259,-13,-967,-602,243,-1443,168,685,811,-1257,1132,1518,558,-69,1353,-455,-125,1040,493,23,390,30,-595,-815,-596,650,197,225,10,-315,1221,-88,329,-591,-358,-1354,22,78,271,225,-723,1240,-1165,-980,-173,245,1261,-834,-82,-1810,1356,-247,-125,-1163,612,-295,384,937,-2159,807,-92,-274,-1324,519,-149,-945,-165,75,326,-57,-315,-268,732,592,429,478,-448,208,397,-109,371,-488,204,-689,1013,970,-115,-197,980,-1169,-149,-2623,249,508,-257,-459,-274,939,-4,-262,-117,420,632,422,-1226,-247,-375,-1323,-262,117,-35,-415,-128,-192,77,475,512,1295,-349,-512,-883,-718,-210,27,-270,608,834,180,1606,-434,1068,-2733,952,-301,-1302,173,152,-893,61,594,563,-283,94,1070,344,1712,223,-702,-938,604,-190,183,-1806,378,-268,-298,-1042,-349,428,-329,97,-838,-188,362,712,-233,-690,1616,-7,1277,1327,748,-992,-62,545,-679,782,-481,75,-423,330,51,-698,972,951,-626,474,
-997,1069,-1109,1164,-687,2017,653,-550,-725,-278,559,-292,1322,1741,866,84,9,901,-179,-676,1305,-273,1917,400,-1716,-990,-824,-1590,847,-1774,680,-1049,496,-172,121,986,3544,615,-1,233,362,196,639,891,1442,-2200,708,689,149,-1063,-110,-1383,510,-327,1095,976,799,491,-518,-207,-767,706,-1311,-735,-764,1340,871,47,1088,334,1221,221,-113,-332,300,696,1912,-2288,932,-707,252,-92,-1132,131,-1156,74,-664,1426,-847,536,2299,441,-596,-568,-883,-315,2661,432,710,-1140,315,0,-195,-407,967,772,324,1521,-794,612,1227,-1013,340,1313,-192,-46,251,972,-1430,-1632,1199,-398,-614,-818,-2663,377,1172,1890,668,-900,-1168,373,-1476,577,486,416,-788,170,1395,994,898,-1542,-530,75,317,32,2431,513,220,1335,-175,2529,1033,177,-76,-1001,-615,-415,2640,-961,1947,165,-650,-137,-692,1119,29,263,781,-732,1342,-519,725,-1293,-74,-197,363,-338,-1557,551,192,1937,410,-998,255,-1565,-210,-1275,140,463,1920,-510,734,-155,-906,79,600,73,1022,1583,-2020,-94,-2946,-1313,-179,-5,-1713,-2859,-976,-601,-976,-601,-1260,-868,327,-977,32,266,-608,-2099,866,-566,-713,-617,-478,-3259,-532,-639,-1471,-2065,-66,-1225,-847,652,-379,-663,1701,-87,-2534,-54,-898,-992,-1400,530,163,-506,-164,-632,-2149,21,-784,-1970,-506,-209,-1297,-2112,762,-537,-802,-1872,-644,-1922,-4129,-1263,-1420,-800,67,-873,-1494,-145,519,902,-510,-2242,-1213,-1507,-891,-1082,-272,-1547,-498,-492,-1446,-1282,828,-1933,-1017,-75,-575,-537,-731,-793,-2013,-1270,-951,704,-143,-2142,-920,-5,-2073,-339,-1558,-1038,-2587,-2033,-1544,224,-549,-697,68,-549,-2793,-1005,-1612,-443,-719,-604,-945,-3893,333,-154,532,-1644,721,-1298,-2715,-1497,406,-301,37,-681,-1205,-253,-631,-644,-1219,-1834,-629,-856,-567,-1250,-123,155,-1404,-282,-1531,-153,-398,-370,348,-643,225,751,-1198,-1738,-1767,-524,2488,-525,-205,-595,350,-300,-750,-772,-2998,-1382,707,-326,-448,-2115,-2451,-554,-1527,-915,-660,-1681,-2442,-888,136,-1716,-1164,-1460,-958,-1894,-1783,-1261,752,-1083,-2885,-1881,372,-495,-1493,-2891,214,-1792,-987,-1310,
868,-331,-607,-703,-2487,-166,-758,-821,-2346,-760,1605,-122,643,-1357,180,1768,-946,-531,-89,-567,762,1727,1502,2004,148,26,-1855,386,2520,317,1267,116,-1152,535,-1705,-1399,1440,249,-503,394,961,403,-397,-816,360,350,1791,-751,-522,-775,517,-101,-544,1474,1029,-938,-849,-494,-1720,546,1779,1056,246,1977,-1461,621,399,918,-768,-1703,434,1042,2450,-2867,360,316,-684,-695,-355,-228,36,-135,-2045,-1103,209,733,-1514,100,1769,-1004,2069,-361,-1072,-107,-996,247,-1002,514,-1669,1396,975,-447,-811,725,-709,-54,356,479,-949,707,221,24,426,-550,-122,560,1380,1174,1732,698,-553,-673,-159,2573,590,-1335,464,-229,537,-636,758,595,262,1664,537,-287,52,-380,391,873,21,1353,1333,1494,16,334,336,2850,-14,302,-38,-1239,391,-196,364,1377,-1325,-203,-592,373,212,1395,-563,1181,1543,635,-820,732,-401,615,998,-304,1337,801,343,135,-251,255,293,189,-257,-250,1539,1056,406,-1925,1376,-1328,-617,228,-178,-760,-805,1076,-1259,-476,-548,-1401,-1170,-606,-587,2976,37,788,1029,511,963,-131,-323,1588,-1148,289,-46,178,985,-1557,1661,-1369,393,1020,618,-74,335,-1148,1333,1965,-1268,255,1074,900,498,-2149,1819,1019,694,-165,1903,104,-1167,445,1132,237,822,1675,737,224,1263,137,935,1813,303,1045,1526,-655,-1122,-2,-1296,-62,-1277,439,3320,1346,1429,-7,-28,-476,-243,-436,-22,898,-81,-2018,872,1515,-1022,205,1156,-1503,1493,507,775,1383,-544,-50,-1826,2206,1243,2339,751,-637,-1247,615,-922,2190,-482,1101,378,54,1052,-1937,1367,1894,644,-527,-180,859,1385,531,1588,1542,208,-277,279,-1838,-22,-580,956,-341,686,1862,1242,255,1503,-416,301,253,273,84,1106,-630,351,-338,-1564,-154,-996,-480,496,-1460,370,914,-793,1792,1125,-1131,-33,743,920,800,-1,579,-294,-18,-714,-884,1972,114,-753,1157,2443,-55,-1129,1348,526,1437,255,1872,-695,1215,-912,-678,571,1178,1499,819,1928,959,1031,576,-1132,893,105,-944,-161,-1103,891,394,126,925,234,855,1126,6,1198,1813,287,-1806,457,2201,-1133,29,
-636,-984,-187,-23,2601,-1271,-2365,23,4057,-1474,642,99,1799,2667,-842,364,-1429,315,-975,-1171,605,-1462,2057,783,-1866,121,444,1922,1486,-2209,894,-296,135,-1091,349,-484,837,-1161,17,-636,-402,-973,-1033,-765,-1440,-1854,88,-97,-1614,206,-237,-948,-122,26,-383,-3011,-3293,-555,-1073,-1024,-114,102,3,216,-1870,-870,-907,-517,-854,40,-1319,-992,-1194,-1139,-839,-1188,206,1428,146,-575,-455,-1119,-847,-1565,-341,-1167,-181,-1064,-660,482,-104,-1837,-1031,-293,55,-1200,-1472,-802,-491,306,-529,-1019,-15,-31,743,-470,153,-483,-1042,-1878,-781,510,-431,-704,-997,309,-331,-1726,-1308,-1957,-674,-2141,1318,-1390,1258,5,41,-241,190,-207,802,-875,1040,-447,13,799,-669,-54,-794,184,-884,-1452,-620,-300,-1107,-579,-3711,-990,-675,-1471,-1311,603,-1154,-724,-616,-19,2164,-1422,2898,-673,-169,-475,76,730,-732,-1682,696,753,-1515,540,1289,-1110,-181,-146,-2259,-104,-83,-991,-70,596,-1847,-29,-349,-714,-216,-342,-200,-1235,-359,-763,1214,-395,480,-978,-1741,37,-2009,274,-1342,1305,-448,1221,1453,71,-453,-460,-1313,-1506,1578,-194,-1146,-789,817,1155,379,2,-737,548,-1515,-859,1825,-960,696,283,1536,112,-403,1373,817,-999,-372,204,-76,506,1646,-192,1849,-1750,103,457,3,1253,785,2551,-581,-771,386,893,-1008,-477,548,549,-1241,-2064,931,-1041,278,-230,-592,-446,-376,405,-1757,2003,-831,211,-2132,168,-1743,-373,339,-1003,-429,-1025,-562,-1791,-250,-450,644,-127,-123,503,-359,-724,9,-242,597,1328,211,1518,-713,-611,5,-80,-227,-125,-565,-802,1425,679,657,906,-415,405,-1265,-410,58,-679,619,-640,-6,-1208,-375,-1934,398,57,678,-1482,-17,-471,-1030,-544,-700,-664,457,949,1125,362,898,741,2890,-1138,1506,-1785,-717,-646,566,-252,719,1575,554,470,1081,547,-1256,1203,-501,-1542,-89,-110,-3502,-841,378,-379,-1103,-667,593,1597,4986,866,-165,-468,-350,123,385,537,1292,747,-247,-2280,92,470,-702,-133,-968,685,128,744,-1066,326,2363,-82,26,272,935,-2896,109,-1802,271,-870,-3039,44,-1398,-465,-1046,-896,-446,1259,-816,1289,
-3550,-960,-1395,18,-1722,65,-1915,-2252,-839,-1330,-318,-1967,1355,-551,-971,-736,-1195,-1780,-1497,-2334,1841,-1736,73,-964,-463,-3807,-1753,-1136,1093,-1004,-2415,-614,-862,-626,-1268,976,2084,464,-1667,-811,-273,-1078,-1562,-1421,-33,-358,-88,-545,-1642,928,-1045,-1274,2802,-1490,-718,-1062,-589,-1794,-1052,-254,-259,-1167,-427,-1947,-3245,-1181,-1314,-1838,1872,-603,-301,-1673,-840,37,12,-583,1135,-301,-257,-798,46,-1859,-496,-2003,-1757,-104,-2155,-114,-567,-1147,-866,-3420,917,-1257,-1016,808,476,-762,-764,-2368,-1367,-734,192,-181,1018,-631,-1401,-204,-17,-1371,-1827,930,-47,1069,-973,-1406,-402,466,-725,-2765,171,354,77,-1150,-803,-1483,1028,-60,-355,1246,259,-445,52,157,906,-632,-1124,-1075,2813,-948,-1525,-481,-903,-1056,-1925,-1358,472,531,-587,1104,-140,1777,-356,-516,-1323,-618,-575,-1919,3126,1,721,333,-804,206,-1270,-809,407,535,-1128,2548,58,-1050,81,-74,-205,-1744,480,-624,-592,-778,-1299,1192,-822,-412,-266,504,-668,-1933,-1357,-673,2100,825,987,-1193,-3267,2294,-467,104,-1664,2341,-1359,1121,332,828,1274,1056,103,-57,-438,-504,-241,-643,1396,1748,593,-1460,1401,-268,-375,-206,1385,-493,-336,592,1266,-791,7,305,938,7,2733,-1546,-1150,2386,1328,-1404,1889,-216,127,644,421,1169,1466,952,171,657,1072,-570,241,407,320,1310,1121,162,-472,-288,980,-395,-53,707,-1027,22,-2487,1798,-454,202,1267,-69,-1060,138,1054,5,837,-589,-1455,-426,79,415,666,-607,-660,123,-964,490,867,-282,1086,1309,720,869,1428,-455,-680,888,1750,1526,-142,307,1139,-223,-118,-563,1349,41,-724,605,-66,552,-168,949,214,561,332,853,-601,-1694,-704,-178,-369,-571,831,412,-863,-212,-283,653,1162,-58,572,225,715,-1250,-2037,-1243,1029,83,625,366,396,252,-1281,569,-639,892,-386,583,1078,678,-78,-32,-1090,-477,-562,575,404,88,-1944,202,4142,2180,56,-68,2165,1065,-313,1289,-919,703,650,-1222,512,-848,-349,-606,-914,-661,1199,142,-661,1044,918,-1091,-1288,-186,989,-1303,-81,-187,1185,-436,499,-448,-421,451,-1424,311,-426,892,-167,-146,
1266,907,-105,284,-1731,317,1005,-41,-2455,1724,283,585,-363,-2976,-8,686,2553,-737,-479,-2,155,1656,-723,-16,603,1386,-445,-1140,250,1809,592,364,-710,977,-866,327,227,526,-1003,543,1173,96,931,-823,821,8,341,586,765,1689,1203,-752,1306,1673,689,1170,664,-125,244,-84,620,363,-795,239,622,893,1170,-472,-268,-173,-245,910,1577,-221,497,1482,-431,-815,393,-169,191,34,-145,1155,481,1381,-606,-423,740,-886,131,-32,1476,-78,-1120,605,-578,378,1076,745,1183,990,-164,1425,-190,84,-909,14,330,1241,-148,-1245,136,-27,146,-104,292,1601,1922,2238,859,422,175,732,-1841,-513,-1374,-456,298,787,-1052,526,421,12,-596,-166,214,138,571,-616,1180,771,50,491,796,326,2176,-83,296,181,1133,-1379,514,497,1046,634,-789,979,-2920,-154,-782,1640,-1750,-478,518,1746,-1268,917,239,388,-2042,910,1208,371,2367,388,556,-854,717,274,357,-138,923,256,99,-509,169,87,-2197,683,-972,-461,-1191,2500,1340,408,901,-305,889,-1249,99,366,421,1390,778,1279,773,796,-512,551,1384,110,-307,-93,-744,1955,459,25,754,723,635,840,-743,-884,-1034,684,1221,-614,1088,-22,7,1006,-964,-358,-1755,1400,501,861,-171,-167,933,-313,829,-738,-104,-200,1337,237,247,1222,478,204,1144,1308,-736,105,-588,-101,781,-28,1382,298,228,-1402,682,619,804,-217,377,-249,-1122,-273,-52,1823,483,2486,-40,53,1621,314,786,-1,437,233,-21,1215,-370,-709,-1100,-1426,274,-495,561,281,-336,663,993,-446,-671,793,745,-558,354,547,3903,-81,-148,-124,476,681,-453,-316,250,-188,-512,209,456,994,1010,1051,1089,658,1261,-614,1230,-427,-699,1087,-345,-161,11,705,-773,1284,-96,594,608,507,390,98,92,-192,992,82,3266,-590,-106,1467,-539,-162,819,-351,-995,-959,-277,751,391,-58,-4059,-1679,-212,224,-1040,1044,-440,2128,-162,731,308,1589,90,-445,511,269,1583,905,184,-248,1074,641,-2253,1010,617,187,-223,1107,-87,-329,-786,355,1036,973,1091,-70,717,-253,570,899,707,909,
-1273,471,42,-1449,-187,-2639,-3415,-2799,1325,-1182,566,1086,-1078,569,-1307,-768,23,-1135,-1615,-2841,-351,-331,-476,-289,-3894,-566,482,-1025,398,-2682,236,1105,423,-1513,871,-1126,63,73,-2418,-1551,-944,-1306,-2344,-617,529,-948,-393,-1713,-288,1299,-205,-2069,1408,1475,-269,-2249,-725,-1740,-825,-425,-134,-518,-246,-739,-4536,-1199,-820,-1697,-1655,1168,-1429,-2936,-588,27,77,484,246,487,-1061,-484,870,-3173,1293,-2064,907,-1203,-1711,736,-516,553,-849,-5284,687,-571,-1438,32,126,-1739,-675,264,74,-919,-197,504,1226,-650,-1631,-2768,1243,-2985,-1868,-2293,-1821,67,-1295,-194,66,-578,-383,-1510,790,-47,-513,-1706,226,-2886,-1562,-357,-1194,1110,732,304,1400,1342,1499,257,-1105,-148,1488,-2878,368,-1564,262,527,255,-2699,-3050,-1685,-1500,-1104,35,379,-1420,285,-1039,1108,-809,-3663,148,-1126,-786,-1102,-1718,-1224,-391,-66,2205,453,-1884,742,418,-1875,-508,1440,-41,-990,-1184,-2535,164,-691,-2765,381,307,-946,-2048,903,1317,-1418,146,-418,-1262,-242,324,-98,-3133,114,-966,-1328,-1867,4629,387,2168,1985,1004,3243,436,-457,-260,3596,-557,64,-382,1128,1851,1560,1007,242,592,1050,-189,1799,338,321,696,2230,852,1574,-311,1666,1032,-3,341,284,3199,3089,-58,2558,198,481,382,374,2905,-420,559,1326,-631,1540,-117,63,274,1126,1476,-1208,-1504,1820,-55,2251,159,180,30,231,857,834,3921,481,626,-259,1000,-470,-961,714,2131,913,804,528,2650,137,477,885,366,974,1073,1529,184,634,826,1004,1339,2543,2902,1971,623,182,1074,321,1939,136,1169,2726,-253,220,2692,561,1239,1362,901,1284,133,1559,709,471,1396,868,-378,856,459,1434,-549,573,-235,235,1144,-1032,432,198,588,927,-81,1805,-564,3325,-4,2327,-593,-336,488,1102,1660,1694,-61,2143,792,1753,2218,344,1720,1657,814,259,939,-1061,1794,1273,-1471,1989,419,2178,1049,2000,1284,1835,792,1321,861,1350,1699,1483,1340,2991,-636,1364,890,42,-22,-941,-587,9,721,637,1232,2998,230,1874,1908,2800,-172,1203,-73,1041,-304,852,477,-2173,-315,199,1504,678,-601,49,857,
-2048,1283,-193,-1304,1895,-2780,-2597,-1109,2785,-1869,-2163,545,-1346,831,-1022,-1994,-1427,-822,-2236,-1984,-973,-1237,-1591,-1181,-4014,-1921,1390,801,-2463,-3899,-1607,-1341,1550,-1810,-109,-791,-1068,-1388,-2626,-1110,-2515,-1198,-3681,-830,-875,-1547,-1864,-1151,315,-1576,-504,-2249,-1011,-374,-2560,-986,1991,-325,-798,-1624,-1339,-2910,437,-2336,-1479,-1458,-1420,-1336,-451,0,-1441,-292,-2453,162,377,-854,-1032,-1233,-3092,-1580,-66,-3917,-36,-2330,-541,-1394,-2490,-266,-2332,-177,-1971,-2549,-1302,-869,-1361,1773,397,-1683,-315,-1893,-1072,-1506,-1732,-1802,-219,-78,-1455,-879,-1369,-3299,-1146,-2365,-688,-1426,-922,-522,-651,-2222,-3559,-455,-1120,-542,-765,-315,-666,-2408,1514,-579,-1611,-2938,2980,-785,566,433,-263,-553,-1891,-349,51,-2603,-1645,-2996,-551,-287,551,-2092,-1988,-1086,-659,-1381,-874,873,-1129,-1444,-2172,-1090,145,-3474,-675,-1301,-2744,-595,-139,-2833,-626,-461,1071,-2473,-1356,-1314,1237,-1610,-1513,-815,-1683,-720,-2703,-1833,-922,-1842,-2646,-325,-1280,-370,-3737,-430,244,-1229,562,570,-163,-734,-1348,-1791,-1888,-2234,-1222,314,-2232,2278,1494,-893,67,136,567,-1438,-1192,1982,1237,-63,1313,-1076,-892,-7,-18,-1008,-767,-777,-381,-450,449,-630,-1516,3,-665,-18,1676,-391,-1037,-1257,-236,1384,788,654,1642,310,256,-1327,959,378,-676,941,-1038,-339,-538,328,1200,1234,-1793,-835,2416,-1804,-585,-660,-379,-822,3215,439,483,-689,-444,-287,-1095,1011,27,190,462,482,-739,1051,144,1210,-507,-681,250,804,-1186,-440,-1235,-42,718,28,361,-531,557,-2413,178,1464,450,2407,1010,268,958,-605,804,-438,-52,840,1178,779,144,210,-2029,558,-1398,110,206,-449,-700,-1595,-189,1494,1241,-279,688,302,-873,-888,515,-2096,-117,1117,-1980,983,95,30,1576,-883,301,1242,945,-207,2286,-107,254,21,271,892,1601,-352,594,-1904,-359,-688,5,445,-260,-1895,480,-486,1490,-2425,625,2146,-663,-972,1848,-1392,1928,1549,-365,1332,-424,509,50,142,2015,-176,204,78,354,770,-717,1057,-1631,-602,-1428,402,32,-232,1489,-1696,447,1199,840,203,509,293,1281,-681,-872,-707,469,-584,-215,1592,562,514,1331,-1440,
-803,270,1141,115,3783,-736,-2660,2405,5363,-1767,1200,-890,301,3722,-1030,-27,198,-1232,-1014,-2857,434,-1087,2837,1192,-2944,376,1169,3289,896,-2398,2250,260,967,-416,1339,-1357,1135,-1166,1224,-1175,-125,-1124,-1856,-318,-1914,-2935,1545,-2139,-1719,1554,1929,-1118,1298,433,-1216,-785,-1534,-1040,-2059,-1243,1524,-57,644,-377,-3906,317,-1366,-664,-1170,1585,-798,-1407,-2363,-1386,-1130,436,405,772,1164,-2323,253,-2207,-8,-302,771,-858,77,389,-364,866,-1677,-2892,-615,-1425,1840,-71,-756,-939,1138,-82,1008,-2345,755,825,4025,-1631,-605,-1098,715,-2085,-505,-478,-733,-350,119,-490,-165,-3547,-1217,-3695,-381,-1990,-423,21,1670,308,240,-664,309,721,2143,29,-384,-65,503,242,-590,-789,833,703,397,-2429,-171,395,-243,-559,-5576,-2274,-1838,-958,-2571,1,-849,-328,111,-230,2327,-2504,5748,-1112,-435,492,-568,706,-552,-202,2454,1729,-1436,-1495,2355,0,-550,734,-1873,-1062,425,-1433,-766,-1648,-2451,1740,856,-1275,-856,-1454,714,-2134,-283,-1291,2812,-2381,-1842,-1544,-4733,796,-2141,668,-2882,-494,-1340,2299,1966,531,-881,494,-976,1926,-828,340,-90,597,748,886,-646,1316,-151,-285,-2529,-560,2633,-981,1126,1192,969,744,578,550,1795,-905,1257,566,1496,1034,3054,-590,1548,-1275,866,1284,292,1794,-1569,3022,-721,-1017,237,2507,-7,-1039,2161,136,325,-513,184,-81,1082,74,-585,-1605,1622,1051,1229,3491,-427,722,-1688,-702,-3755,-394,-229,-3795,-369,-1498,-1300,-947,-440,594,1139,472,577,45,1988,167,-519,1009,455,1708,153,2729,-470,426,2633,-1085,2450,2139,1887,-2231,2302,3882,623,1304,406,765,-1839,-1893,129,-1727,1077,-249,-124,674,575,-339,1815,703,1266,-909,1231,647,-2797,-933,-1712,-2584,1384,-134,-325,692,259,-276,898,-270,-585,-938,-403,-1140,191,213,1191,-29,1863,440,1944,-573,-2331,647,-495,-2737,-777,982,-4588,-978,182,229,-1255,-348,-1151,1469,2918,485,-1303,621,1496,-582,762,444,3098,599,201,-1795,922,1918,-694,1038,-1519,-714,-147,-234,-1018,-76,2069,-1562,77,133,-669,-2210,-1066,-1555,804,-1426,-2552,724,-2240,105,794,1323,410,1183,-487,2277,
-130,-132,666,808,-338,2294,1506,756,-1737,1465,755,-285,-912,-522,293,760,807,-1621,1249,373,456,285,-233,1174,814,2050,-689,754,156,1329,875,1279,253,605,-418,-851,-438,351,3730,682,1110,-822,1479,3041,776,-304,740,751,1967,-2415,697,1692,-1552,154,952,1097,1196,-164,983,1257,390,348,2641,481,618,934,820,-925,-427,-387,736,598,-979,-310,1000,2984,-261,-586,547,-383,-2898,1427,339,1170,601,1932,279,-1273,961,-1427,1808,1428,488,-490,-1447,1164,2475,1363,-974,418,786,1380,2763,1365,-516,-151,-178,1563,-1424,1816,244,2233,-815,3615,532,-1157,1067,2053,136,398,-375,-2231,725,-800,650,1032,957,-514,226,1169,-912,-100,-615,-831,-1428,-5,1062,494,-1088,2287,22,2709,825,635,-356,111,2595,1385,250,1052,568,1379,-277,-945,2216,-1258,309,558,-2802,817,469,-2427,1025,547,1347,-26,-1208,1798,2078,66,-1137,1054,1182,297,573,-1713,2001,835,1856,-478,912,-216,116,1329,1335,-1045,65,2958,63,-243,1675,395,240,331,1233,-1045,839,606,2889,318,-1768,-193,-712,-1282,-454,-802,623,-1322,-606,615,-290,-1471,-1265,-933,-666,740,2191,-1033,833,-256,-2272,1621,-538,-87,-1390,1208,-1219,-464,-606,1019,135,-1657,-1278,-138,-2120,-1259,-920,282,989,-1678,896,-1409,22,930,987,-634,-144,-1429,393,146,-629,131,1356,1703,-402,-917,200,-199,370,-226,-81,-1084,515,-2210,-529,-613,-1861,-1389,-194,228,603,1329,-443,-868,-244,611,451,-620,-49,-764,-2113,-545,-459,-148,-1461,1959,-935,-2295,-141,-3162,-555,-538,-1034,-628,-2554,-1730,241,-323,-338,-2567,750,358,877,-70,574,618,-2210,-35,-1480,1256,-77,-221,-1792,2876,-338,-412,-59,-281,-434,1058,-920,-1297,-70,1435,-793,-253,1600,-1544,-164,-973,-1194,-533,-2133,1251,-755,-858,-1087,-1601,100,-151,1081,-146,-163,-186,1,192,-1244,2612,-136,-828,655,67,-773,-2166,-974,-728,310,509,-2388,-1969,-617,-626,-739,-722,46,1116,119,1278,701,-1436,-1968,-743,1243,140,1332,-999,392,-1149,535,-651,-2250,-1985,-350,-1491,-122,-564,683,278,-1737,1787,483,-1082,295,-18,-279,-797,65,-593,-336,-57,
-2026,1242,-288,1081,-1817,397,1441,-922,-3136,466,2173,-554,232,-225,-173,-100,1688,390,-373,481,2013,1408,-652,1513,105,497,-975,-3056,117,793,1206,868,1082,57,-1301,519,-85,1259,1098,202,48,-628,403,165,904,1046,1166,40,1334,897,1007,-690,512,2042,975,1459,-8,203,585,-535,1207,706,-153,902,530,1344,363,-211,1239,-237,141,168,575,337,237,1416,-702,-338,875,-196,296,-59,-109,665,-1153,812,433,-699,2016,-103,1156,-391,1409,199,-1217,682,457,-131,-1460,1171,1670,1149,822,1237,-136,-251,-107,-133,-68,399,-369,-1322,-1328,1294,-380,-36,838,61,651,1025,76,-503,-1080,-246,-380,186,-2184,-166,1038,675,-1287,1084,-523,1197,584,650,169,-436,-675,93,640,1293,867,827,631,-448,1780,1048,240,1584,680,2666,-21,-515,465,-57,-1077,297,-2088,260,-573,-82,855,909,935,995,9,1627,-315,1153,592,-623,1323,897,693,-197,1409,119,1330,554,304,435,2284,-257,821,701,990,817,-261,645,1176,191,364,1052,798,-898,348,119,795,1302,1223,-46,-1389,1069,445,-306,398,688,-1977,387,742,384,1147,-713,-443,-583,224,767,560,796,157,743,901,-564,221,512,135,695,-420,-644,-1882,-1151,-1143,-825,358,-411,1241,929,388,-522,706,-461,658,-271,-172,251,439,-57,622,114,529,-462,-225,-699,102,670,-1955,-8,924,-217,-432,488,-890,-356,1115,-89,1656,-319,-276,-612,-330,1053,-460,-277,1123,729,-420,860,218,375,601,-253,-1144,202,1388,430,-115,-147,-178,-682,1686,-716,85,-647,-149,-186,35,-494,158,-397,554,316,-516,707,1717,-529,430,-505,835,135,-788,595,-500,597,-771,130,701,126,1084,948,-161,1193,-508,1085,1037,1250,807,1025,-615,1097,-691,647,-336,1283,75,273,-163,527,-262,-350,138,760,1475,894,1315,-406,-1048,1234,-391,285,551,-1163,-938,-575,-715,-807,-648,580,-1799,289,-656,369,207,90,1238,1038,-1,825,-110,-433,-610,-294,829,170,1299,756,582,353,1253,1430,-667,-19,535,1371,-282,37,519,631,701,1304,865,575,-64,-298,708,193,884,707,803,1329,
-292,-1625,-597,5,2286,271,-1343,820,1088,-1592,-310,742,991,1259,-229,-1478,-3280,591,-101,-733,-934,-2432,768,-357,-1741,-391,-53,319,-241,-2159,-1940,17,-421,-940,-348,-1096,-672,-833,1188,-903,-990,-870,-641,-910,482,-1660,-333,-488,-1385,-597,-589,-585,-1071,608,-1427,-604,219,-198,-578,-466,-1180,-480,507,-949,-806,-160,-641,396,-1125,459,-171,792,-1285,-473,319,-848,559,-828,452,30,259,-1036,88,-1212,-189,273,-80,995,-880,-234,-1330,-261,-1922,-121,2404,-1789,1560,-1462,-894,-2114,99,128,281,648,1773,45,-125,-45,-207,-1208,-346,844,701,-1129,229,-215,-447,985,-2072,-2622,-189,-683,1234,-925,-1535,585,1221,395,-63,169,328,-34,-523,140,1118,805,-1398,-264,-50,678,-1606,-149,38,-97,-802,-832,205,-1361,177,-25,-677,894,-648,-454,-1423,-1026,16,-1343,2897,-925,501,-2501,-501,-787,-525,-419,1564,411,-1273,106,-291,-372,-81,-1231,-1228,-875,491,-44,-1563,-71,-519,1585,-1223,130,1047,-335,240,152,640,-660,1060,-710,541,-2318,-343,-1247,-403,68,211,2749,-1779,-407,-1303,-1157,-509,-363,-1196,-362,-395,-719,-269,-896,-1240,-793,-10,-2185,25,-268,36,-1386,-278,-231,-353,822,-28,-826,-2051,-1161,-878,-648,452,342,-384,-881,-2,-854,-1424,-767,-295,-758,-2567,-928,-609,-278,215,-1002,-983,-1297,164,2176,-2370,-1072,-657,626,-513,-659,1394,-65,-803,-403,-1337,-648,-2767,-393,-562,-275,881,30,-750,-742,-97,-343,652,-1815,-649,-1139,950,-633,-1993,-798,-805,-136,-1735,-392,-191,-1215,-732,-721,326,285,258,-596,85,-511,677,868,241,-616,-59,223,-756,-165,-140,274,-3436,-965,-310,-47,-729,-1087,-163,-365,-567,156,-749,-941,-1107,-1179,-630,-1198,-143,-1149,481,-1181,-2187,-501,-267,-1956,-34,22,-1150,-767,276,-743,988,-411,-1000,-745,681,169,-451,-1506,-2085,212,-2200,-484,-822,-856,150,-304,693,1391,-25,-1299,-327,-999,-727,-1215,4442,103,26,-1169,-119,456,-745,-1259,-542,-1124,-916,-640,615,-579,-848,-57,-1132,-517,-1262,-1265,-745,-938,-184,-245,-313,-1014,-440,-946,-634,-748,265,-1326,-1957,-1107,-941,183,-637,341,-483,-777,254,-872,
771,612,-23,-2363,3003,-1225,-75,1803,1865,1191,656,1176,-1242,961,-1027,2697,1083,-196,2069,675,-679,206,286,101,1017,1091,1360,-830,66,767,256,-55,283,-192,-22,-733,-3295,-658,12,-980,-58,-1477,756,1012,-2137,-647,-295,-532,-325,-1449,166,1529,-1302,-542,143,-1251,-806,-104,811,233,-237,423,-677,616,1748,309,-485,154,454,-701,-596,633,644,567,490,-194,-1665,1259,313,24,-756,562,-352,-441,615,27,64,-1404,780,966,-725,2868,-823,-446,1232,192,-1026,-766,709,559,587,1578,-1377,477,-827,-644,-308,-561,-1485,31,45,612,960,-411,-749,-310,-434,-1831,484,1085,-1783,1213,877,-182,400,495,-863,-1182,1107,-199,-1543,645,1483,403,-927,-413,-244,1086,-2365,401,565,1695,-83,126,-568,286,-1121,624,-895,-734,-658,-1158,-1037,-2076,-122,458,2967,812,-5779,150,-161,-163,-337,98,-165,160,-1045,767,-577,-746,-915,324,428,-1226,469,292,209,536,1106,15,346,-1493,-211,988,348,1590,-311,1593,-650,89,-436,334,-1121,414,2033,301,715,860,680,-408,-1444,-1442,1058,-2478,-2309,-274,-61,-1744,-1420,-317,-160,-13,-918,97,-840,830,-1383,-73,-1633,496,-1113,-1023,161,-766,245,-140,57,-2263,-1082,477,302,1254,-2327,-1571,-1432,-1629,-2752,-1298,371,-824,-31,-390,-1488,-546,-4065,-673,-1178,-1136,-312,447,-2188,357,921,298,29,-1471,-472,-424,-1134,22,-1627,26,328,-290,-192,739,-730,-579,-100,-951,-1044,-546,51,514,-69,-713,292,-70,-717,429,186,79,-564,154,-1207,748,51,-1658,-1385,-268,-2402,-1190,121,-5,-1443,-2658,-689,412,-97,-467,947,-455,-2595,948,1672,1137,-658,-1042,481,-964,-1008,-1743,-612,-1419,-865,249,-323,-1836,-95,126,-1127,-727,0,-240,45,-645,-386,1394,-601,423,40,516,1305,964,254,329,-1028,-181,847,229,1379,42,-504,-1247,2046,-130,-994,-1385,-933,-3389,-676,-546,-731,-909,-1099,782,-425,74,-3768,-1424,-555,-1125,-2789,-1175,-166,87,1159,72,-2029,-553,116,-1224,-174,1576,828,1558,-468,-1194,902,-330,-39,556,-517,-232,-203,-684,670,-6,-2069,455,-578,464,811,-257,431,-1619,-236,709,572,394,
1576,603,1262,1351,1132,3202,1618,984,272,78,410,-60,-799,-197,1258,640,2037,1030,915,928,-521,571,426,-67,7,1517,697,1528,-1760,251,419,978,470,1645,885,-700,859,-804,1829,-173,-1337,322,1600,-140,566,-312,1518,-1125,785,-1151,1618,464,-1940,508,228,1076,1578,890,6,909,362,1627,1425,147,1280,2389,-1561,2457,-733,1148,1198,1684,712,-241,340,1006,2335,-698,706,217,-934,2121,-520,1026,697,794,1836,1379,73,-861,1577,781,632,1360,156,96,1224,147,641,-1492,1703,828,17,735,1403,1076,1708,1856,118,1102,987,-1117,-2161,1320,729,-416,1084,-484,141,481,174,-145,-582,566,370,788,-696,742,1878,-15,-1064,1276,0,-29,1328,543,1221,49,1865,2390,-92,-808,827,1186,1227,2408,921,440,1603,-906,741,1352,294,-608,1733,-157,-19,1567,-488,-216,1953,-2065,-128,2084,1007,2602,795,1226,3050,-2428,698,304,1194,1263,-561,1250,633,1060,458,95,1384,73,363,-768,1089,553,781,2123,995,650,1109,-277,-2178,62,1035,-2516,755,566,1386,-16,-878,-1374,-2045,-516,-931,-1376,-1212,-1270,142,-638,-871,-783,-2549,-4144,-1229,-779,-466,-1384,-889,-644,-1155,-840,-1967,-897,-2201,-1851,-421,-1512,-2401,-1138,-1350,-2069,-763,-2061,-591,-2418,-523,-1042,-2779,-875,-639,-2133,-1540,-1976,173,-1636,-1821,-1239,-174,-2816,-1400,-247,-1147,470,-1721,-331,11,330,373,-1443,-882,-1596,-1757,-2042,-103,-2589,54,-869,-1761,-453,-1440,-1347,-259,-4047,-397,-570,-3360,-286,-1712,1011,576,-1607,-555,-860,-408,-2073,-2278,-979,-36,-528,-1499,-867,1056,-1129,-2276,-2382,478,-1613,-1577,-309,-2067,583,506,-1365,-851,-1231,-1116,-690,-606,-1395,-970,-2,-1493,-845,-197,-1279,-501,-143,-370,-2381,-581,-538,-188,81,-876,-1670,-1840,-3209,-1740,-152,-3176,-855,-2486,-909,-901,-1053,-1050,-1782,-3398,-780,-642,-2210,143,-1364,600,-1956,-1866,-1427,-104,388,-1065,-3007,-1330,373,-2239,-898,-517,-1655,-3956,-1390,-129,-56,-1091,-500,-185,100,-852,-905,-744,361,-2071,404,-1937,-442,-1131,-132,-1700,-1742,-1717,24,-2668,-1727,-1056,917,-1736,-768,-101,961,-538,-1443,-490,737,1545,-1360,-522,-813,486,-3033,-1329,-2093,
1713,-616,-989,-886,1257,-1118,-2549,1137,2021,-2841,-898,91,385,957,-925,340,-2581,-316,-1923,-3077,-489,-679,3630,-331,-714,-1878,390,2707,1864,-1179,-930,-1300,-1239,-202,432,155,1366,-222,-1568,-1093,375,390,-440,462,-1302,-811,376,-2035,-491,173,-591,-810,1398,-592,-833,-2119,91,-1486,-1855,-189,-173,174,-3220,-1182,-3649,-161,-1006,245,-1428,1001,-391,-1678,-839,-1977,-1276,-1965,1868,527,1255,-1095,-347,-846,-388,-963,1893,-2078,576,1067,-1511,-418,-1422,-567,-1175,-1090,1322,-1397,808,-570,210,-1345,823,-1821,-193,-536,2062,-575,-280,-1312,-401,-1233,-987,-930,1273,-2401,-1451,-1619,-908,167,-446,-2892,-250,566,1629,-1468,-45,-255,2061,-86,189,-1108,824,-317,135,199,665,54,-1819,570,1322,991,-1010,-1905,-562,-127,1152,-1463,-2823,-2189,-961,-936,-2266,-2574,-143,474,-1984,407,1163,-733,3802,-194,671,618,-325,-105,-1042,781,1647,-450,-723,-2564,11,-1626,-921,187,-1824,420,-273,-744,-2783,765,-1288,1227,-507,-1660,-1012,-2007,40,-2246,302,-846,276,-785,-2585,-538,-3368,2481,-2124,-1312,-2105,969,-531,986,-981,94,547,375,-1886,-475,28,-1226,415,-100,-778,987,209,-867,-117,1312,-504,-1560,1548,-1721,1726,1538,-194,-2587,1289,61,948,-1751,1000,-224,-1151,379,-709,-661,1684,-1695,-561,1671,-616,558,-1591,1546,-886,-726,68,-87,-979,-1445,-361,-1326,-1933,803,-276,334,1818,-265,404,-1531,-329,-384,-511,778,-250,520,-949,436,-2295,350,-103,-579,-411,-970,-1387,-2084,-1398,544,1446,-303,1148,-1300,217,-407,-1672,-2494,58,129,-360,1376,-400,1048,1044,-1957,46,358,404,-151,-50,1222,-1220,275,-476,514,-1239,-3000,164,-963,-622,-638,-365,-798,183,-334,-400,220,-1080,-52,-72,-2557,-766,-2198,-1035,-269,490,-1053,-1169,1006,866,-393,90,-757,1063,-2542,527,-716,187,1200,-299,-265,-669,-412,376,-1493,-243,-118,-256,-1598,4,-1222,-2322,557,-305,-1502,-534,-236,1469,-909,2049,-907,88,232,190,-136,-958,-191,-58,-188,-212,-1104,-190,-1426,-2248,-711,-3238,192,-1184,-1509,244,-350,-322,-1143,-741,-593,129,-960,-591,-1967,-373,-1687,-2051,745,-1466,113,166,-891,-515,-2295,-737,-192,
299,545,-1209,707,-1812,-542,821,-1675,-3030,481,2395,-99,-274,-474,-618,553,2053,-77,-574,227,1366,2574,-390,745,-628,890,-186,-1595,-838,-38,2556,2042,883,-571,-707,743,-308,1275,181,446,287,-1327,72,250,1354,391,744,532,648,-198,691,-1040,190,4338,2281,60,990,-443,53,-611,817,698,-443,558,-88,1968,821,-459,54,298,-645,-19,394,-580,709,1190,-286,-708,1541,-433,716,13,696,-212,-770,464,159,109,1419,-180,1189,-977,1244,-729,-1303,74,1337,-701,-1050,1571,1512,902,522,2844,-215,-507,-849,-382,-635,313,-848,98,-912,1145,-636,-276,1149,2200,70,1609,219,-1370,-721,-1184,-637,-896,-1776,157,793,274,-662,921,-367,1160,341,702,-284,-4,-333,-470,359,552,1293,1234,449,-1019,1848,764,-500,-170,364,1076,-635,-223,648,-228,-2339,-114,-2224,-764,-370,-696,117,30,1161,787,-298,1902,-1026,776,-620,-674,1116,1249,344,211,2042,-756,1407,987,127,-220,1988,-1010,343,1460,1090,229,541,-757,-398,-57,75,1127,192,-2396,822,-1350,1143,787,155,-164,-536,931,614,1539,698,1015,-255,250,-272,771,711,385,-136,199,707,520,1386,486,102,1845,392,-499,1144,488,1597,339,-342,600,-1770,-1291,1,-452,-9,1398,593,1226,520,-376,732,-129,1663,-1095,1729,92,1372,-735,899,-595,309,1983,-1,-772,667,770,-47,542,970,-430,320,1129,-355,351,1470,715,2035,166,246,-489,317,2225,-8,352,1081,2103,-58,579,580,460,-173,1225,-969,509,1527,1120,558,-87,270,-347,767,528,664,498,15,89,171,-322,298,-721,722,1169,-284,563,2266,446,396,530,1050,1315,-320,1163,-1041,398,-145,74,1090,-112,188,994,804,1351,427,1510,1402,476,-179,1659,643,494,193,1080,-131,1810,295,697,699,565,-840,469,999,339,660,904,879,977,266,2002,86,389,1529,372,-383,-646,530,-1029,169,1526,-1764,899,542,-5,432,1128,1108,1401,-19,982,162,-223,-1158,-7,1274,218,1147,113,1481,885,1146,1409,498,-132,1255,534,435,-37,1540,1414,305,1197,1878,789,-261,-345,1486,816,840,356,722,681,
-1761,-41,451,-1396,2796,-1463,-1161,498,1827,-1651,-1642,-274,-613,-1209,249,-580,-653,24,372,223,-246,-177,-1149,-656,-505,-2767,-257,-1764,-2780,-22,-2171,-112,-572,426,-768,-1773,-2440,-792,-2063,-307,-1387,-1615,-1554,-1224,-572,-1562,-1639,-334,-1040,-3123,-1923,-1087,-2098,-2048,-41,-1457,-1108,426,345,-1427,-888,-1635,-1442,-2365,-790,-770,275,-1753,1226,-1016,-1421,189,-196,-495,-539,-611,-1691,-223,-1580,-105,-2698,-578,-81,-1822,613,-1126,-2560,-270,-2033,710,-2353,-723,-1225,-364,1160,-2382,-2093,-1542,-792,-1638,-1765,-1071,-1831,-1988,-1690,-650,-1210,-1070,-727,-1255,-586,-147,-2122,-676,1078,-832,-339,-1523,-776,141,-669,562,-844,-2600,-504,-1585,-105,684,-1572,753,1009,-169,2728,-705,-374,-914,-207,715,-3004,-1711,-926,-526,-315,-111,-820,-44,-2338,-491,-26,236,-152,-1971,-152,-2,-2599,-2421,486,-532,-349,173,-1144,-984,53,-2221,-583,-693,-314,-2480,62,625,-22,581,-627,-2119,-1120,-1607,-2501,-1211,-2140,-1465,-532,-5,-984,-58,-1406,-1790,250,273,-683,404,-732,-238,2604,-1298,-430,-1032,-851,-1967,-2041,-3817,414,-262,324,-163,-1070,-906,-731,661,-473,408,722,272,-137,-824,770,-568,-107,1322,1039,246,2054,-656,-701,944,803,1066,-1701,633,-552,-203,600,2928,1483,535,-368,1191,-510,663,-1103,610,103,700,-1395,-659,-25,206,423,917,-1245,1174,361,-985,846,290,1050,-94,-941,483,332,1015,-963,-352,2357,1300,-144,917,1221,-11,848,1257,385,1205,-396,-569,-63,-27,972,332,187,-581,-1314,-527,1578,-29,352,329,935,1307,1015,-1179,466,-32,-166,61,-1935,909,-484,746,93,266,-200,-889,561,-13,-1507,-256,715,229,72,-1272,741,778,-187,99,720,847,85,382,-931,-795,732,660,98,2519,-236,804,198,-357,701,-1231,-216,771,-1254,-141,673,49,160,-1633,1961,-448,386,489,-75,2622,-501,935,-662,-988,586,1451,2002,1898,1171,1608,1367,0,1104,-901,110,1114,396,-666,-1182,-668,-77,-1417,797,177,877,2000,-866,807,-287,953,-938,77,476,743,871,-161,2810,-12,488,-866,856,895,-1426,1586,572,1776,-252,141,305,-751,-71,682,-22,-247,684,2932,
-2825,223,998,-248,-1275,431,2149,1335,-1439,229,-1014,195,-970,262,446,-689,202,1241,-307,732,-1568,2520,821,475,280,120,-377,-1721,-105,-204,2112,-1863,-723,609,767,1618,-105,878,1963,1488,976,938,849,296,445,2055,-437,870,735,-1694,1986,1176,-1267,-73,866,929,-1564,864,1486,216,122,-721,2211,-848,1513,1610,-873,784,2556,-695,874,1720,386,-285,-1560,-328,1761,-357,1671,1679,2092,1439,377,1272,-3474,-412,912,-2159,-1486,743,309,1748,-1246,151,1921,895,1092,43,-742,-2813,725,-1218,1600,543,404,828,2021,1045,312,931,1023,584,1925,515,1489,1077,-495,-1908,-33,1348,-335,-1916,-1465,2009,-1228,535,246,2223,45,-895,53,-745,-902,-1643,-1360,-1326,-261,-653,-228,1177,-1317,-781,-1018,-961,987,307,1643,2071,1073,539,357,3605,1470,-636,-540,-1563,988,1456,1293,-1111,663,989,1790,191,-573,1133,-128,129,806,1846,2882,1335,337,-2012,-1207,110,635,1222,-764,1588,1882,471,1476,337,436,398,-1342,99,1997,52,1417,2148,2332,898,995,-2485,173,-528,1251,685,-1227,-58,-2679,-1733,-2176,-1902,319,15,-2666,259,-1746,201,690,-1319,-616,-2246,159,194,-86,-1047,-856,-1494,866,-1998,-64,-159,-1393,1367,-288,-1645,451,-2831,205,-1108,-289,-1604,-888,-2482,877,-258,265,126,639,2586,-283,602,-1471,967,505,-1018,-403,772,-212,-1929,-1324,783,-1428,545,-631,824,875,-833,-3558,-2021,-583,-835,-1281,236,314,-437,445,-1386,-1065,-971,-627,-2777,2096,1344,-1101,166,397,-235,-565,106,2923,-1104,-148,-839,28,-3034,-1262,98,-412,203,167,99,302,65,-603,-89,-664,-1379,-2270,-1455,-1651,608,-699,-512,-492,-468,793,-269,-125,-1476,-663,726,-853,-185,-1025,660,-626,-2076,1977,-675,-173,-106,-145,49,-1047,-7,-769,-960,-1920,-1261,1258,-1343,-878,-75,477,217,-351,312,-1360,-779,-2209,-897,-1267,-342,217,144,-713,-303,-207,1611,-1843,-2602,-2703,-896,2296,-426,-829,3,1334,560,659,-1567,-958,560,-967,-988,-389,-1664,99,397,-736,-19,976,88,-1469,-900,-2116,-1712,-2881,-315,-1142,-1072,-1806,239,555,260,-1309,-934,-133,174,-972,-1400,-518,-320,-204,-1273,
858,2185,-2077,976,81,2835,2266,683,-57,675,368,94,1630,2947,1786,31,1716,574,1397,904,774,973,1791,941,221,493,1238,955,1207,71,37,53,1774,421,-721,531,2061,882,1381,1656,282,120,1111,3015,1177,-1296,711,889,1038,515,178,552,446,-214,774,410,200,1242,-519,121,455,604,-1327,395,1686,1851,802,1104,1120,52,919,596,1467,271,1561,474,208,-1859,1657,-253,-503,1468,-753,1825,-255,1186,1440,1141,264,668,920,1834,-821,342,-2655,-473,521,1200,217,-34,148,723,1219,589,-116,141,569,1406,-597,1013,1174,1080,-1014,510,-112,-752,494,281,346,1396,1447,1793,-327,-1713,616,2890,1068,291,1210,-930,-2398,1103,415,324,-209,434,811,-37,1523,3264,1439,475,515,735,-200,2065,1276,1124,763,2245,473,-210,917,89,1085,268,618,800,-695,747,1413,851,1225,459,176,1730,-1013,194,765,-373,-1172,101,1389,-972,2142,483,875,1757,71,480,1884,556,649,-764,1420,-710,850,134,-789,452,-144,3,138,130,1827,1138,1413,1164,531,1018,-918,-1508,-650,-277,-1026,657,-755,-1730,191,15,140,-1982,-372,181,-688,-818,230,232,-1910,-435,365,-1304,-353,-464,-595,-916,-606,-942,-1321,-897,-665,150,-589,-849,-1089,-403,-368,-608,-1348,-499,-1210,-1546,-966,874,-853,628,-772,276,-1595,-1102,-1292,-1494,-1282,-471,-389,-508,-444,366,-981,-556,-1273,-1021,-1105,-2176,-1074,-84,704,77,-817,442,-342,1008,-748,-932,-880,-275,-2022,-1465,111,486,-721,-1665,-1346,-1035,-924,-911,-1059,-154,-1408,-768,-1984,-1265,-1193,-221,-1044,-1150,239,-1707,-3571,-216,-675,-3041,89,1294,-645,307,-1657,-472,270,-858,-299,-960,-1484,-165,-964,-193,-886,-735,-588,-1199,384,1336,9,-604,-140,-292,418,356,-487,-2169,-1242,-120,-1984,277,1191,-98,-1242,-1089,-1470,-899,-608,-1159,-172,-1309,528,-1740,-2248,-495,-442,-385,-544,-1149,-514,320,-3012,-884,-1439,-1528,-4043,-2296,489,249,-819,-709,-1079,279,-683,-357,-1133,-44,-1337,-870,-1130,-955,-411,-506,-1211,-460,-76,-548,-837,-1186,-1134,-302,-1794,-990,-431,-2324,-584,421,86,-772,-203,-1010,-1507,-2435,-860,-420,-978,347,
1098,-1702,458,-504,1656,-617,811,867,1703,546,-1700,800,-1018,-62,40,399,-1088,215,948,822,-925,-653,-613,-820,272,702,128,1368,-1548,249,-654,-1061,-489,329,-1071,-243,-661,-790,320,123,-55,8,34,-181,-1043,-125,-1543,360,-1281,-1375,-449,324,-463,-1448,-988,3,-610,168,-432,-420,-1001,-918,996,-431,1293,-457,-347,66,535,-750,462,760,83,-491,-1027,-1336,465,137,-843,292,-1045,735,-151,-165,654,-116,119,-657,-46,-379,-761,689,-911,134,388,-875,-1060,441,338,-434,-1122,-776,-469,-795,-1265,-105,744,-112,12,663,241,13,1105,-897,521,567,-671,-453,-621,11,-409,75,-518,424,300,-283,1358,1348,-1259,-605,1476,-1508,410,-1821,-414,-528,336,955,461,-987,-867,-36,-1167,-1046,-1000,443,-187,440,108,-263,-585,-1180,-88,-393,638,-294,1236,324,225,-466,-629,-173,709,-737,-148,-804,-332,-1078,1032,-682,18,627,-514,-744,-1204,-1051,-514,641,-606,-631,358,-286,-1403,897,-271,-1882,-1067,54,-799,-276,-1749,268,504,-624,551,248,-395,-720,-970,-2179,-1576,-316,2163,-220,-1980,-1289,-11,8,554,827,-254,-408,182,-708,475,-86,-882,386,-1400,-216,-953,210,-374,1456,411,-244,-174,796,-319,231,780,146,535,246,-8,-513,-982,-1295,213,525,-645,-48,320,328,-2170,-90,-1280,1704,-440,-443,96,-99,291,-124,-45,235,-1174,77,-888,1030,-604,-863,326,202,-225,-638,-722,242,578,-110,529,-1336,196,-108,-678,-2860,340,-511,-1635,243,-266,250,616,-390,-405,-512,-22,-1075,-63,-582,-1247,298,-388,665,-467,-1315,-320,949,-893,190,-1504,-295,-213,-649,-1866,540,177,-5,-500,-394,1154,-957,-39,-530,161,312,-1067,290,23,-570,-154,-371,1223,228,183,-1064,-1183,-38,-845,-1052,276,-842,-255,-1048,-760,368,-172,-377,832,578,-1250,-278,-588,-793,-1680,204,-274,-1621,264,704,-35,801,813,856,212,1072,684,-35,1095,-609,-264,-448,-420,-621,-1310,-2217,209,-858,-683,573,-287,824,-671,-926,-517,-359,336,162,52,-1368,378,460,-480,-208,168,174,-536,-441,-666,-549,-386,314,827,516,-425,-930,-227,-87,364,-626,
-1744,-153,39,1274,-2878,152,-759,-1093,-2094,-1137,-322,906,1748,-421,-100,-2315,-1258,-84,-1574,-1139,147,260,-45,-129,-971,-1471,-1642,698,120,-1384,395,-203,646,1224,-414,-14,2623,745,-64,86,-537,869,-645,-480,1759,-633,-107,-957,1144,1053,-3,-2114,821,50,-513,1249,1081,385,-1005,37,102,60,-85,-981,-1274,-548,615,731,-326,173,635,-425,27,-311,342,508,1145,519,-270,-248,83,-748,397,-465,104,-886,-157,1690,-524,-216,-1135,-1807,-217,-376,-314,309,122,384,-265,-295,-74,-1783,-43,-63,2151,447,648,542,702,-927,199,-386,29,-505,-238,-403,-457,402,693,-1267,1815,152,-1743,661,-1086,-585,-492,2058,-625,435,-1314,634,-542,846,1725,405,-291,-462,2967,-458,-354,-2411,188,247,1190,516,864,-1302,993,-537,1154,1786,1318,346,-908,-46,-2000,-738,3024,2,1140,172,-421,-686,-23,1295,105,-988,197,-385,1185,42,-556,-12,-509,171,-991,-268,-581,733,-773,1013,411,-2279,-669,159,229,-612,808,-798,587,-212,-234,-330,-1550,-295,122,-60,-503,470,-536,563,-40,1478,2587,1202,-44,230,876,557,-304,4,2689,448,834,-120,277,830,1096,-285,1372,972,1936,740,1037,695,-199,385,2467,104,823,-346,1443,136,-800,1049,2453,944,-571,874,881,191,-242,2055,1980,111,2357,236,770,774,1227,-234,1386,659,286,-603,1561,-232,-411,615,1724,262,188,1615,658,925,2138,561,1214,-264,165,890,1298,77,-415,1862,38,855,1459,-666,978,897,340,497,2460,423,692,965,1551,432,1213,675,325,-465,847,1223,1081,582,298,-215,145,477,-274,-112,434,-1309,879,762,164,1376,-113,-152,20,-197,573,3,383,335,-767,-1297,1638,472,376,-156,1000,616,-633,-116,1943,1051,217,1155,506,715,316,740,1115,1040,398,966,171,1464,1109,1748,685,1297,264,1372,-464,2790,870,165,-91,213,505,962,-69,-124,4212,1730,877,1221,2933,1619,-929,2196,-1068,667,532,82,587,1120,304,1388,364,56,1003,402,73,1318,1654,-409,1581,307,874,-491,747,316,1227,-303,1238,-496,-397,696,163,995,380,158,551,-450,
-1294,-1934,-633,405,-449,-1483,-2633,-1608,-209,-1979,-1006,126,-2049,-2734,-1520,-684,-2629,-2071,-2967,-1589,-424,-2351,-2608,-1333,-772,-1252,-1835,-23,-3081,130,-990,-1292,-657,-496,-565,-1482,1222,-531,-2385,-1786,-1059,-53,-1896,-3976,-1116,884,-1017,-2071,-40,-1553,-1278,-212,-1043,-434,-1998,-138,1119,-1533,-2603,610,-716,-667,938,-209,-1264,-1093,330,-334,-1316,-714,-1915,-678,-1590,-24,-1514,-1938,-389,35,-2362,580,-308,-589,69,-1925,1914,-1704,-1406,-708,-529,-1074,-1827,-2035,642,-1126,269,-1226,-758,44,-1852,835,-884,-1446,-1002,-1690,1198,-750,-674,-2268,-71,-2549,-2020,-1264,-2081,-561,-1075,-373,-301,459,-722,-3043,-240,-1349,828,976,-493,-1225,-2002,-566,-1213,265,2427,-2293,-1224,-605,814,-174,-597,-1210,-488,-2999,-2216,-1003,-377,-821,965,-687,-1170,-2514,-909,-3046,1463,-948,-1135,385,-568,-298,-1842,-1989,1645,-369,-1540,-1256,-2107,-147,-138,-1042,-1213,-1379,-641,-1026,1014,-1489,-2261,216,-1333,-945,-1583,-1180,-1371,-1332,-1355,-993,-2705,434,-2548,-324,-872,5,577,-11,-935,602,-792,-317,-2765,-2580,-2164,-806,-1816,-1313,226,382,-620,883,883,-1223,-488,744,-298,-199,403,1019,-474,511,903,-26,479,-959,-20,-788,-866,1505,-1640,-132,-1025,-815,222,-2327,1222,63,-14,205,730,624,730,-265,899,-93,1243,-538,310,702,-118,-3397,-191,204,603,-1235,1229,-116,1686,1015,902,29,-410,1052,1580,-38,-701,152,751,249,-789,2078,-31,-634,1559,-610,160,-191,360,-400,-311,1650,89,782,738,-335,-1486,-731,-1950,1066,1838,471,-82,-1084,-137,655,640,333,2798,202,361,652,33,-325,-1821,1224,1236,-40,-679,398,-503,-1155,-1203,-478,1270,216,333,178,80,1814,-362,1743,763,68,-31,419,-669,-300,430,-139,-1222,417,-213,-391,-166,160,141,2037,-206,-425,283,-26,256,259,548,-727,38,-57,717,158,126,-28,-1037,836,2835,-3,-182,-15,1229,1164,-410,-872,1941,870,681,-14,2992,857,-424,1017,-391,-296,143,-1085,-2163,-551,1661,1095,600,830,-531,-437,-1514,-527,579,1233,-731,701,11,-157,572,1896,197,2165,-166,2183,1005,-1345,1270,338,-396,-120,-17,2030,-16,-1108,-151,-1835,
-497,478,856,1777,-546,2702,3454,2607,-4482,2123,-845,-487,278,-2791,1355,303,858,-123,2988,3073,-606,1494,-114,-361,3975,868,-1343,-1716,-1485,2613,-1734,662,119,1894,466,1182,956,1476,2578,1766,91,1918,2839,416,2234,3238,-455,1595,2483,182,46,2327,-1307,-1283,1122,1023,463,1761,1187,1331,-774,1257,-1467,438,3807,775,2228,2236,1786,-740,2115,2049,1076,1764,1284,-178,-1069,-1215,-273,855,1555,2811,276,1927,-1374,1372,1835,-28,594,-287,855,4484,1462,1925,393,1770,1729,1747,470,-991,818,1960,-994,298,-3060,2073,1162,2710,172,2543,1687,1597,1793,779,2168,-246,357,2693,306,2648,1578,894,-1404,1665,-289,3062,953,-846,815,-2300,-1894,2014,-1452,-283,298,679,1848,681,-2258,1193,216,3508,3,197,1190,1460,3143,2388,2345,934,2257,-148,1796,691,787,-689,-314,3562,-3710,883,1594,-670,962,770,802,1686,-1393,-29,1279,-76,-1801,2347,1321,-658,2096,1202,1172,2384,1692,988,3838,255,-247,1609,1483,602,-450,1731,641,3152,120,-400,229,1325,3781,-1521,2341,1532,2555,-2488,166,-3182,-1885,-1407,-1645,666,907,27,-3282,-202,1385,909,-1563,-1241,-2283,390,57,-2564,520,656,-2776,67,-1495,-433,-2390,593,-2038,4,-576,-1298,-1365,1088,206,-2767,-2993,-1098,-2212,547,-138,-1352,-156,-3355,-1317,-1274,-575,598,-1083,-781,-111,427,-1062,-1748,1818,1183,-975,-621,-2789,-449,121,2111,343,-665,-564,-3296,-44,-484,682,-453,-637,1799,-1224,351,-314,-111,-51,-319,-1561,-1748,-980,-706,-410,-351,-1104,146,-35,-304,-1131,-1518,-2693,-3386,-897,-1037,-1093,-1064,-1857,-3560,-1031,58,-3276,-1303,151,-2652,893,-650,105,-130,-1400,45,-1373,-348,-894,-353,-971,1637,-281,-1259,-1505,77,96,-437,974,611,-48,627,-848,115,-428,-1447,-612,-174,-3369,863,-1264,639,451,704,-656,-1574,-2287,19,-319,-301,-1154,-461,1021,-1519,-2304,316,-226,-741,1486,-4169,-1369,1253,-1478,637,-3220,-1983,-4152,-1418,-754,-829,-1898,409,-1292,-407,-2470,-841,-2873,1382,-2408,-264,145,-1444,663,643,-177,-625,156,-818,-1617,-178,-785,-2029,-829,1787,-229,374,-568,889,242,-1564,2383,-555,-264,-22,-782,-299,723,-521,
-1403,995,1634,-1804,2737,-2612,-1507,-70,3337,-1010,-216,-440,-952,1232,-618,-707,-142,-1770,-1104,-1667,65,204,-688,-621,-2663,-2513,1507,1100,-1228,-2579,-420,-503,2034,-990,1008,-499,-2098,-844,-649,-569,-571,-1637,-3341,-535,-334,396,-615,-1193,319,1924,-780,-1626,-602,698,-655,-1381,559,-909,-1345,-339,-161,-2222,-1063,-1672,-1231,-975,-1901,-833,-1072,-254,-1845,-530,-1729,-403,1208,384,-1852,1966,-2051,-1186,-1083,-4282,470,-2359,669,-182,-950,698,-1429,-72,-435,-3665,505,-24,1506,400,-3007,-1804,-1798,-1999,-141,-951,-2094,-1183,-113,-981,-1783,-1868,1347,-2446,-1614,-2810,-957,311,542,901,51,-151,-1954,-1313,-1099,-739,-1968,-2021,1105,-1785,1132,-1448,-1513,-295,1096,362,1062,2688,-662,-825,-1396,-1092,-1316,-2627,-822,-2457,619,379,-672,-1868,-1944,-1456,-710,782,595,-377,-1235,-577,-1330,-2439,-1059,-2972,-557,-535,-3385,-1157,-1338,-1223,-75,156,2488,-1518,-724,-769,817,-165,-990,830,-1044,-833,-1051,-1826,106,-1724,-790,-821,141,-1788,-2527,-351,1316,584,1340,1474,-821,-606,-901,-1677,-2768,-2473,-606,-978,-1868,2217,1345,-1183,1416,1252,-873,-2624,-1151,2086,944,-1553,2298,597,-263,-127,144,107,3,-1150,-505,-1939,1111,409,-874,-1291,-729,-961,-528,-230,-1124,191,-1094,2192,1408,1524,1142,588,-350,-202,364,-550,-296,2155,-2017,-606,171,92,-1363,-648,1017,-184,634,-1276,-438,580,-1783,896,-792,365,-1492,905,392,-300,114,1956,-168,-2525,-34,-202,1088,-792,-811,-464,-482,152,1143,459,360,1154,-2660,210,263,-196,570,-1209,-181,-1265,924,370,699,2406,1897,1114,2218,773,1925,-434,-252,1887,-77,143,-719,139,-233,-1203,-1112,535,541,-97,812,-2789,90,-366,621,121,938,220,711,-844,1279,-1838,-557,297,-1820,504,-1534,-274,887,-64,-929,-696,-19,-442,1101,540,-906,-665,-925,-21,991,-2823,-19,-1813,371,-872,-2840,107,67,-201,206,283,1985,-1416,-200,-1580,686,888,1933,-2652,1261,1351,-734,104,-2247,-656,1213,-2461,3488,-1469,1555,74,745,851,360,809,-1071,-202,-2098,302,898,-567,2073,-1169,909,1456,-473,77,1011,1014,1753,608,-341,974,-854,-536,-1667,2424,246,1585,-289,-1418,
-711,1227,482,873,3012,-800,-995,1082,1707,-1179,-949,594,1444,-616,401,-2128,-2284,895,-1087,-576,-1385,-1936,-268,-1716,84,-56,930,8,-1234,-570,-1051,-627,-184,-512,493,137,389,-2384,-2634,38,-1326,-224,-430,-3202,-1195,-696,-1350,-255,951,1352,452,38,1317,-2618,-2337,-1743,-203,304,-1280,-1313,-1480,-1145,-194,-745,303,-2077,-420,723,624,673,58,-181,-2555,696,-1363,-1887,1113,-242,-1183,-376,679,237,665,-1838,-1617,-1336,581,-582,-523,-135,-2156,196,-936,123,-103,2495,-92,-421,366,-576,-2001,-681,-1199,-1257,485,163,166,-378,1130,-1696,-245,-164,-949,-389,392,1159,-1056,-3353,-743,-2373,-13,-1366,762,-1600,-369,-255,-1974,2016,-947,875,1332,-1256,-2662,-1653,468,-364,397,-229,1805,161,-2165,-1446,-1423,-1480,-855,174,-474,-807,314,-1478,-1597,1544,481,74,-343,-1405,-844,-5,5180,336,-95,-182,-350,-919,-1369,-1983,1346,-1106,-310,-884,-422,116,-2021,152,-1545,-359,-741,-114,-1787,-752,-257,731,-1243,-1602,108,204,-1518,-1250,525,-559,1552,-179,-582,-2069,-216,-855,-1326,781,-1618,-734,-1199,-1857,588,970,228,-1222,-758,14,-207,-553,-587,-1190,826,37,-310,393,-1178,-986,-1548,-471,7,244,-819,-141,-215,-717,824,357,818,-540,-195,205,1384,276,94,-602,-770,-1610,-876,763,-1022,735,-541,-1286,-1086,9,-1335,-230,16,170,346,276,679,1574,-358,-132,465,-453,-482,246,-55,-925,-496,1185,-84,-1361,-25,-110,-1668,-1442,197,-1918,-808,-1645,-871,325,-918,-610,-1840,77,-494,-307,-212,-683,255,-877,-525,210,632,321,669,489,2751,-645,842,-604,-754,66,-347,1271,-985,-762,543,-1126,-2687,-829,24,-423,-686,-1147,-274,810,56,360,1503,-1881,-1009,-467,-999,-74,-201,451,-1758,-363,-244,-336,-1430,711,-985,579,-341,-355,1667,305,-475,-630,535,697,-719,465,-2551,-781,-474,-726,-201,-854,-372,-1903,-148,562,90,41,-302,903,-473,41,952,-1095,1705,952,-245,769,1292,-935,-1039,-1652,989,-756,-765,233,-727,93,-1085,-1772,-869,-576,-953,-453,-86,-1011,516,608,-520,971,-257,-371,-778,46,-443,-1527,282,-1265,14,202,-338,2187,-675,-913,-812,367,
888,991,100,18,-1693,256,1441,21,-3062,619,-557,722,-122,-1306,329,-235,1743,33,202,432,756,1757,-482,-508,779,1055,154,-2099,-297,1690,1244,402,647,627,-740,964,-279,1508,606,479,840,910,1619,447,1043,837,179,81,1569,386,1432,36,752,1938,1155,2742,3133,697,1223,58,106,405,-1062,-98,551,1487,1273,-801,201,-498,983,710,1097,828,1072,984,307,-554,748,244,7,584,-37,567,221,373,95,343,-29,-315,-407,867,371,236,150,1039,421,978,1641,-265,1004,849,415,776,-973,207,-458,-61,702,1497,377,-180,67,397,612,-255,66,774,1082,1267,755,2091,31,1456,-938,899,-345,78,-19,587,-1152,778,128,569,145,-22,608,308,-170,496,1182,639,730,-113,1460,42,2242,1138,452,2428,-375,-2158,884,560,329,7,-825,1665,-952,636,-477,1636,431,-435,123,1310,266,130,1047,-419,-641,862,512,-183,1343,-98,333,-34,340,-131,1858,128,1283,204,701,198,449,153,-53,24,-662,-245,-1117,1204,1124,764,534,-422,626,-813,-41,-510,-685,484,-83,1396,1027,-75,-1070,1814,2386,838,73,107,-379,1308,-476,-36,1429,385,269,763,-837,-504,-416,34,-233,531,342,644,-225,847,396,275,-1834,-43,799,1057,157,-165,155,-269,-66,-1207,330,625,306,669,672,702,659,-985,1522,732,-481,-236,-448,73,-15,570,999,830,1484,-78,163,784,2086,-327,495,355,-1209,1402,42,1379,1444,696,17,1269,1270,482,825,-327,554,594,1305,1227,-402,812,-266,-1524,-361,-581,454,-555,-820,659,825,886,-903,996,161,-1366,400,341,2937,202,-771,241,-29,959,-60,1122,1337,888,238,14,545,826,623,-149,1482,953,1417,663,2005,-790,-214,-1053,464,-270,-780,1972,-1664,2258,1272,632,120,-55,986,-631,-35,526,185,84,989,-133,560,1043,272,-830,1504,-712,-583,327,877,269,-240,-699,-3423,-391,307,0,606,929,75,1218,-335,712,347,2429,225,335,1048,726,615,-994,555,-445,139,908,-1211,-479,467,-890,24,1663,-1250,-575,-1046,-567,1761,-302,420,-199,242,2047,202,562,1197,530,
-465,598,-136,-1088,-143,-1317,462,-22,-1363,1847,-968,-881,-1424,-487,-690,-602,-1683,-1270,589,1021,-378,1563,-2884,-410,370,1130,-1086,-2159,-1080,1206,-1351,-701,404,-1198,387,920,-1316,363,-61,88,-877,-473,-100,-2190,823,672,-721,7,1146,1203,614,506,-254,905,-358,-397,260,-345,1148,-622,-561,-1149,741,-781,1769,-547,912,-583,1417,-1125,193,1281,-722,584,818,-119,-1048,349,-794,308,175,-196,-181,566,24,934,-1489,-1084,-75,-165,-1789,1214,450,-347,820,1934,-127,-54,-87,125,-855,758,-95,280,-1370,-218,-526,-1498,-216,-110,-344,658,-1712,1865,355,513,-191,-705,429,2020,-851,-198,-46,-847,-175,-162,-399,-233,-1699,-185,-1251,-111,60,-418,-694,-336,-264,-207,-1969,-1580,733,1894,-150,-302,-457,-606,454,663,-478,324,979,1522,-165,-393,-28,-63,301,437,-4028,-445,-2335,180,557,-1401,304,-25,-1011,-1296,-1603,1872,-986,-25,-309,269,1672,-684,-118,-881,90,-584,266,-495,-836,1319,-976,1643,-483,1193,5,856,452,600,1453,-8,1953,-1658,633,253,743,569,611,-797,655,639,613,11,956,1486,-858,973,258,1240,186,854,-776,1000,1253,-1231,1003,1085,-583,1618,-1622,-408,315,1988,976,-276,-165,535,-1312,1450,989,37,-414,422,-1210,1733,1556,-494,1019,-125,488,-1228,798,-40,-89,653,719,-72,646,1382,959,1501,306,368,-323,251,1092,1547,587,138,-1212,230,338,39,1237,210,659,1180,208,-245,12,99,1090,1662,813,361,-372,263,624,1268,500,339,807,775,300,-45,-68,-14,57,467,312,2068,943,-358,-1496,1538,976,-316,514,-305,-618,-3,2224,1950,-341,-321,-1217,942,-243,1703,1025,1443,1021,-328,170,285,-45,1923,518,242,692,1805,1426,1352,142,370,-1076,231,-957,987,733,1293,1873,377,618,249,263,302,2529,1012,157,892,763,727,-78,370,-107,432,1737,-953,-532,726,694,655,1052,241,-3158,120,-270,177,1172,688,170,-235,985,260,441,547,832,695,1132,580,1452,-493,664,1409,1290,214,-136,1059,1266,1260,508,1222,355,-59,-636,1021,1166,97,598,-916,131,1634,221,469,1321,476,
-407,-1351,213,-342,2689,-835,-376,-224,1428,-152,-1040,-247,-958,-743,179,67,-535,39,124,284,-340,-438,-1545,-596,-300,-164,938,-263,-2169,55,-1621,-555,-317,-681,-227,-522,-950,-1167,-893,193,-58,-726,-366,-318,-532,-1001,-535,-161,-1392,-728,-1074,-60,-916,-1500,-815,-681,-1273,411,-1020,-1090,-128,-586,1058,-706,40,-444,-388,-637,597,-368,-108,-104,-430,-867,-469,-474,-652,18,-916,121,-527,-229,-280,-915,45,-116,-871,-1236,-714,139,-607,-33,-696,325,52,-705,-711,-175,-955,-619,-1022,-35,371,-469,-1540,-147,-682,-497,129,-588,258,237,-150,-279,-317,478,-578,-118,-1000,-186,-600,-768,-586,-1336,-290,-1440,579,220,-758,-583,1006,-1393,928,-1074,-264,-1095,-365,-213,-1541,-1436,-897,-44,-690,-434,-1213,-595,-1359,-607,155,-830,-537,-1150,102,-605,216,-955,1238,60,-1509,-1029,-1025,-1200,-358,-1134,-391,-1008,-563,-468,-518,516,220,-264,-95,-675,-785,-1864,-773,-424,-397,-1304,-378,556,-731,884,-377,-19,-963,-358,-486,97,-871,116,611,-695,243,-462,37,-504,-146,-1165,-836,-330,759,-180,-1515,-738,-393,-361,602,406,-952,282,-467,-971,562,-252,-503,169,-906,516,-85,864,-2136,791,827,285,237,224,-454,-133,892,1131,357,544,223,-155,-1440,-247,-73,839,116,249,-135,288,-506,-183,-852,-282,-594,510,-392,-57,249,-72,428,-104,-1422,335,506,506,-823,-945,196,670,-219,-741,-112,431,271,533,227,-983,-107,329,-322,-939,555,-131,-1267,562,-636,531,489,-283,-524,79,46,-71,-193,-619,-396,431,-758,657,-938,-770,-950,808,-224,-201,-731,-779,597,-143,-580,287,17,350,-1031,-295,932,-151,-201,-153,110,380,-278,-322,-112,-262,-485,-421,1269,164,-278,-442,-642,620,-339,-595,474,-640,-323,-1010,-829,-74,-144,-810,304,-155,-248,113,-96,197,-820,409,-202,-583,690,-829,-191,-710,652,1115,168,1160,181,-86,-604,-42,-807,-1502,-409,-970,-589,-2100,187,-382,221,147,-93,330,67,-792,-28,-337,157,336,625,-651,671,1264,320,386,436,-65,76,1094,-558,992,-285,158,891,797,30,-889,824,469,223,-67,
708,-1633,239,-518,1786,-909,-864,1715,2530,-263,-2192,337,34,933,31,-578,-1500,-123,158,317,-1951,-1773,-875,-1054,11,-860,1076,1945,-1078,-115,-884,-1205,-354,-217,544,-871,-629,-2011,-1967,3,173,318,12,524,-587,142,-643,-106,-1016,-1053,-597,90,-987,-3172,-1932,755,-144,169,-364,74,-486,-449,86,-457,-130,-1616,-877,123,-360,-745,130,-235,-1853,-125,-885,-1447,-777,786,-1307,-401,-575,492,-123,-1141,499,-502,495,-657,-540,614,-1721,478,-1692,-157,2485,497,-1099,127,187,-811,-1515,-976,-1317,-2257,486,-126,387,-512,348,-531,32,938,-807,-1451,-280,685,-860,-1232,-619,-1436,-394,938,-39,1056,-234,-128,-269,-552,-732,-383,2247,-889,1158,-1215,-622,-851,-46,94,-384,-457,147,-916,-857,-676,-920,549,-952,-1045,-181,-950,-574,-749,-427,97,579,-348,1509,-257,2173,102,-667,-53,533,-433,-843,-602,344,-977,483,-601,-179,403,-532,-395,-2165,-90,-633,-51,-581,-420,162,-87,-2598,847,164,-341,-971,-377,-78,71,-968,831,-290,-1103,-392,605,-1043,-29,-1369,-2494,-890,-706,1251,-62,376,-1636,-802,-110,1087,526,455,-142,457,-709,-219,-151,-143,-752,-1526,-380,-780,-558,-1037,732,-787,-955,-389,-215,-418,-543,1888,148,250,260,-349,-1000,-900,-1402,-404,304,517,105,-705,-198,-597,3,-1384,165,-686,-153,-364,-799,765,1639,-815,-1160,-1715,-2,-653,555,673,-798,930,47,-957,-871,-894,-68,406,-193,-366,-1158,-399,274,-617,-1770,671,-121,-1718,-14,-94,-619,478,-609,-534,-1202,-464,-832,301,167,-638,233,-735,402,520,-70,-1567,299,-471,293,-1158,-809,-394,-846,-2731,-350,-104,-795,-854,-983,-23,-996,-535,930,177,269,-943,-719,-481,-884,-185,-917,404,-573,-575,-1306,-1202,-1190,-918,495,94,-897,-614,-1479,-181,-631,-796,-402,672,-264,456,-399,-1029,-758,-2626,-83,-843,-1237,-192,360,-655,-179,-49,1074,-192,810,90,-949,883,-136,-887,-461,-719,-252,-1475,-2373,736,-657,190,566,1065,-32,-732,423,-1517,-953,-1405,-814,-349,-1526,77,134,-864,1323,-367,839,-1412,-423,-1093,-827,-89,-282,-214,619,-1215,243,-512,-25,-951,-304,
-747,-1071,-619,2360,438,367,-2044,1169,237,-135,2292,738,1460,867,1131,2005,-1039,450,39,240,1578,-296,1191,-655,-771,46,-237,1277,1740,-1929,-287,955,847,-1735,-682,-146,3395,1347,-692,1049,899,-1622,-1934,552,2168,-3110,2017,449,-2651,2575,-1330,-1313,-891,-396,379,-118,-3114,-741,-2380,-1029,2009,-321,1453,1301,-1323,-2348,673,-426,-2788,-282,-594,2116,-696,-1457,-1252,-1731,589,-362,-261,-1546,1151,-890,-430,-1855,356,21,-1034,-635,844,-1942,3200,-1311,548,-1738,-417,2236,622,-604,-1122,811,-2052,-1584,2230,-363,2017,-1416,1794,146,-462,-878,-958,3233,667,1273,-129,819,848,788,420,-3247,432,-366,943,437,4020,-2014,3493,141,1315,-1465,-1444,-181,-1879,90,-774,2060,-1347,-355,1744,1071,1137,-1376,141,838,-1413,667,145,833,-913,1455,-1652,1418,-1327,462,940,463,677,-2079,816,-1732,1038,280,16,1101,1097,-1343,121,698,-1877,246,234,-910,55,2184,570,1292,1667,-1620,1624,1436,-266,2632,986,-234,2077,12,787,688,-752,-1543,2026,-1341,-126,-127,-1108,-697,-681,357,-1536,140,-1043,1293,753,2039,86,1288,1117,1591,1591,1730,-942,276,1247,452,807,-957,1989,650,-369,1960,406,-554,2694,-505,-1021,1525,762,660,1398,707,2168,-1739,1261,1110,1881,-1747,184,913,1629,1498,867,406,337,2876,1547,-424,814,2465,966,176,1885,30,793,-920,-806,1897,-2531,-14,-16,189,1178,312,937,54,1653,281,-1087,422,1320,-578,764,-2054,1913,776,1130,372,397,-308,2409,-564,646,2921,-791,586,1012,2502,1114,1160,453,499,-217,167,-165,1743,1071,1397,2880,-130,2267,251,1629,1485,1374,-126,931,1181,2768,323,310,1664,-668,-757,518,169,559,953,2106,603,1112,2312,183,-247,112,878,55,-750,1762,1554,1568,801,-35,1995,-44,-1952,-1128,2561,583,1913,-1037,406,1344,849,2498,1340,1730,1567,1670,393,686,1160,252,2166,-1415,1147,569,-309,871,440,4051,1211,473,1387,797,1226,1158,442,-617,1393,-479,86,519,769,1995,-359,495,859,1729,517,11,947,2583,659,-682,1242,1248,875,805,1961,152,256,1816,1699,-415,2229,1203,-1408,1258,2727,623,-954,
174,-662,1072,1406,-726,1046,662,-679,-1644,1127,-308,69,1417,-1537,1165,768,-133,905,1587,2838,-1281,-484,596,1066,4000,352,-2184,-736,1438,2678,-650,1439,-1787,1441,-1052,539,-58,-494,1412,883,634,899,2863,-146,697,2359,525,2275,-39,1017,838,2097,686,-248,328,536,-1012,1395,1450,905,381,1240,327,1365,2351,876,1005,1238,842,-849,1080,1045,1521,2132,-409,515,2387,268,1688,1048,960,3308,-1142,2057,1319,1123,1751,-1338,1546,-193,605,3441,-296,954,268,2060,-101,1811,266,965,695,1520,-137,398,774,1235,1493,1930,441,1683,1736,2711,248,1247,1185,-556,301,-277,1618,1117,1388,1114,1864,-1014,-13,2649,486,-60,1101,1397,-2273,-30,-1928,-1175,716,373,1842,91,1131,1779,1655,2405,-307,-658,15,1887,883,1254,1899,462,482,1064,1129,579,1626,380,1815,2957,1056,1322,2466,1441,112,1337,24,730,-1173,1053,1035,2411,277,2156,232,-1023,188,1375,1074,1737,-204,1778,1354,1252,51,-644,1393,-302,-593,-820,-2070,-569,-757,1026,960,975,2813,1189,751,1122,2112,-2954,-1495,-138,-969,322,-2846,1065,396,-2105,-2783,-304,-1038,999,-279,311,-912,-265,458,826,515,668,-1194,-752,253,-678,-294,-25,-1725,195,917,-560,-1209,-721,-1243,-2185,-2153,-98,-396,-253,-635,70,400,-2542,1466,-1395,356,334,-233,823,612,673,520,1166,278,-179,-1327,-820,-688,16,510,-340,865,-642,355,-1463,-722,519,1005,-1354,-2624,-406,-389,-135,456,890,-1982,-398,-362,1622,820,-500,945,50,972,559,2278,775,-496,-1848,-2631,-3195,-1445,-874,-947,-80,-2489,-109,-617,-1352,-2151,-144,1321,-2776,-498,301,-241,-1058,-521,172,1984,587,350,-359,-349,-680,-12,-555,-1496,-1145,-1247,325,-466,617,-238,-584,1567,1149,378,1393,-119,-551,-3608,-315,-1365,-879,1305,278,282,-971,-1423,1829,614,660,-1080,315,2283,-367,-2065,-38,13,-1094,-1916,-2493,-1429,1269,50,-116,-1917,1684,-3674,-1845,-511,683,858,971,-2027,2861,-3392,-453,-1576,811,-337,-1453,-1251,-1797,1286,717,-200,-201,-263,876,-2552,817,-807,155,-378,-2110,-2035,-1739,-1666,-969,134,635,-625,230,155,-2026,-1682,-1741,338,272,
1644,994,367,47,-2299,1454,979,-169,-1747,996,272,1299,627,614,717,601,1654,1770,104,667,273,814,2859,332,1202,2736,-732,817,1927,464,354,19,1052,937,-933,1886,771,505,1654,259,1355,1018,1551,1375,-220,1146,1345,1060,626,-1745,2097,871,-46,1478,1055,1160,-177,269,984,-88,1393,699,1333,1716,895,1917,142,1025,-458,112,1091,-58,895,592,511,726,1404,987,1965,-152,1765,828,206,1151,73,499,2747,-587,860,-945,-375,827,112,428,-1561,-78,427,1219,-521,1224,2121,513,896,1682,837,541,1604,1116,750,1432,774,779,2387,-408,-78,283,580,-1637,872,1273,261,1140,254,1354,218,933,-767,767,1974,82,-2055,757,-11,5,-144,967,974,1083,2006,2798,169,812,602,1060,2348,1300,95,1077,125,-201,179,715,487,-50,676,2004,-765,1243,-528,977,1271,848,2607,135,973,2450,727,1502,1358,-865,-341,534,778,434,212,1871,1695,542,417,1424,1455,455,809,-996,1582,-732,838,869,-116,-313,1279,145,-379,1238,1097,142,344,1141,1079,-443,1269,1184,-1507,-1277,767,511,569,313,225,-236,-687,-736,1038,-299,-1019,-279,-126,443,-471,-1106,333,-523,2027,671,197,1366,-340,419,185,204,-1235,63,-1056,-748,486,-704,541,-1569,385,-264,768,-727,891,2507,24,-352,-53,1079,920,294,-18,-365,-2010,556,847,652,-267,45,548,-212,1773,-12,-108,-1858,335,1787,129,507,199,728,-354,220,-546,-39,198,317,-811,503,1884,49,2006,-1608,-863,958,882,598,849,-568,652,-286,-630,-1188,307,-355,-404,613,1086,-791,418,828,1048,1116,416,1541,990,-724,244,-437,573,288,-532,-2046,945,191,-1426,344,1052,-760,773,950,-436,356,-771,938,-588,244,380,-58,337,681,-582,-121,663,-561,241,-382,373,1079,-474,1117,179,1303,963,581,924,-456,-64,727,-474,656,-862,763,21,327,-1896,-508,-632,-601,-1188,-489,911,1087,1226,203,1005,1308,604,1173,-936,-727,-37,-2106,652,-31,-24,620,522,690,210,456,-1170,-663,-873,1014,-35,-1129,94,-392,236,-365,483,489,-1099,-764,-338,-406,-334,-876,1972,896,
609,607,211,-720,-2232,636,161,-1875,-2437,968,1274,405,-893,-2340,179,-555,2116,-218,17,354,342,922,-1576,300,1100,746,-1826,-252,-904,2100,-459,1657,1023,1061,-1300,1295,-1728,-129,795,230,-233,54,1052,137,263,724,-645,808,239,-1331,668,494,1588,2037,1978,-1445,-1146,146,50,1420,-155,304,521,784,419,226,1949,-593,-515,-33,1144,519,1605,212,95,1058,813,-484,251,303,-526,594,545,511,127,732,808,201,1157,-1276,-68,-126,772,59,-4004,-3,2833,602,-849,839,537,1803,1064,748,-2172,386,-54,631,-852,-39,-279,426,-649,690,216,-1432,642,-385,2056,2961,370,413,-430,-634,-1573,206,-582,-618,-36,1203,-1130,864,-556,-577,52,-355,616,1114,251,792,-559,1339,566,943,-189,49,387,139,-160,-1174,1399,-711,870,-193,1183,1126,-1547,1194,-3231,482,447,-348,138,-438,656,65,-701,1015,1079,581,-1506,553,-264,-586,1095,276,1094,737,1367,583,67,144,647,219,1228,1741,233,554,-1434,101,-470,1747,501,1555,1300,-816,952,-389,1289,1252,-311,478,413,-759,-197,1230,861,-770,526,-651,-82,-148,265,524,271,2073,442,-414,1581,1167,183,454,-399,-586,569,848,135,-671,72,981,-585,-650,-724,1411,-182,691,-830,1678,732,-240,-68,-2,2750,157,1202,309,1986,-959,257,-314,-124,817,206,47,945,761,202,-37,299,627,89,671,986,-1011,552,1079,-185,692,164,164,1603,1051,1082,-328,122,1712,-33,287,1397,-705,-496,1150,-440,680,782,1150,804,-53,1170,-243,73,229,64,1948,-11,110,1465,452,-365,-293,792,1011,913,806,2287,1564,342,1150,481,1401,862,753,995,781,-410,-1141,282,649,-832,1194,1237,993,62,1757,1523,527,1196,75,863,12,180,600,195,752,-110,384,1050,120,-398,1666,-180,865,1138,757,2392,779,511,523,431,-132,3219,753,1232,713,-179,-39,537,1255,-1523,496,1575,285,756,1769,668,2083,-680,2387,856,-484,396,-825,594,-1242,522,674,1045,1390,1656,1241,290,557,1066,119,1739,340,1038,685,397,1041,856,44,600,-136,728,679,-119,-1500,535,-413,
68,1405,-400,-1238,-528,-1025,1254,229,-1418,1483,-557,-1148,-1819,-2056,-358,-171,1304,-1818,88,914,974,2912,-2402,-722,2206,732,-411,-2741,-881,2932,-27,-222,-488,-43,-258,1597,-791,1463,-1134,-163,-293,96,1165,-103,781,1810,-950,-504,536,1132,-133,-404,1509,1539,-50,640,1050,-181,1135,-878,-32,-640,-1975,-370,1134,211,885,-1189,240,-1450,-35,861,1576,938,617,708,-1233,-210,-450,13,625,-139,128,665,-219,845,-909,-140,949,-440,-1055,1187,727,-530,359,1196,-978,0,368,12,283,1022,-2177,-247,-2385,264,-1615,-589,158,751,-571,-1022,-241,-8,411,274,44,89,2093,2324,182,1567,-909,427,-2476,-163,-255,1118,-1326,708,-786,-343,-445,-280,-601,-1844,-411,-551,-1614,-651,1441,2225,115,-265,-53,-345,1227,626,-131,1728,1459,68,221,240,29,490,-823,1959,-3865,120,-1437,1620,190,-1406,67,954,-906,-689,-62,412,-861,744,-357,-313,2582,-1450,-65,-1102,60,-1221,1435,-781,-39,1254,544,-277,3,-56,-1164,933,-2073,584,1095,1084,1878,2466,589,-1247,-291,-1480,-326,-40,544,770,-358,49,620,-556,-1084,2015,1627,1751,494,1105,-164,499,685,-1000,1182,339,186,1661,-2541,-370,-101,729,1497,973,833,-198,283,1689,1640,-79,-1785,1419,-188,1803,1259,19,1436,123,510,-1596,516,198,189,280,-93,1624,47,-201,2288,1787,-675,607,-27,-59,1093,1168,580,76,-138,507,-479,-258,1217,222,1412,682,-198,225,-292,1627,1085,2191,238,644,498,451,2104,186,-151,365,-309,826,-54,926,281,-1386,180,27,-470,504,-420,-572,-883,1018,-126,1153,-370,-688,-201,-412,2868,1015,-184,323,-813,701,68,993,1150,1461,439,-58,454,2113,1043,297,982,1530,1506,869,1468,525,-717,-563,-799,-296,-1108,555,415,2075,941,567,547,214,218,-241,1099,748,-197,494,1617,811,965,815,244,-74,1672,503,-290,664,840,1481,2162,-550,-6535,-606,-889,-186,-374,-233,867,-733,393,494,1354,2430,-360,20,723,806,1629,-110,1389,673,506,951,-838,392,146,-508,-375,2533,-500,-812,-1253,1484,196,434,1416,-1290,434,1903,843,1180,695,445,
-1589,832,974,563,38,745,-811,2275,-1613,1770,97,-545,482,-461,262,677,-1285,-768,717,-45,-525,-2630,216,444,-1721,1752,-1223,593,917,-2363,-14,-381,615,-444,384,-1294,-830,-825,3660,219,-703,534,-189,-1343,-607,389,157,-556,2114,2038,2442,1470,-450,1330,-933,-793,-512,-18,-47,335,257,24,-398,-385,-256,2084,-804,603,-1000,-635,-319,987,-2750,173,-157,1729,1245,-949,1616,-428,768,-815,-961,-258,-1268,-25,636,-2097,-968,22,1508,705,262,486,3684,2429,1093,434,714,-807,1851,-795,-135,2363,1478,21,590,-243,1083,-714,728,1941,395,1323,606,-626,349,-455,-2425,-851,-851,-3916,379,-103,1187,1431,-869,-1735,-300,-2079,-2893,-437,-612,-30,-74,478,95,-3,376,909,-1055,-221,-174,-94,-66,793,-196,519,339,825,-155,-166,447,-299,-417,-1355,-418,-764,1772,1319,149,-473,-49,746,-247,-34,-251,1868,-217,831,-191,-677,-330,188,-569,805,976,-109,-998,-106,-262,97,-1162,36,323,-726,-69,-921,1580,-833,1810,-2541,0,-2482,-587,-3853,-776,3692,3194,-1347,-539,-785,-1801,-1388,-502,-699,-630,342,-3814,-1119,-9,70,-1618,-1590,-2090,390,-345,-1817,-734,-295,-949,-1416,151,-1830,-1704,1546,-1362,-253,-869,-11,67,-169,-74,-864,-69,-1997,-923,-1723,-268,-1266,-655,-302,-962,2571,-340,-237,-631,-125,420,934,-26,-881,2495,-482,-1667,-308,-966,-764,-335,260,848,-187,-6,-1208,-974,-655,-1228,-1356,-1462,-413,-915,-333,-897,1077,-1272,-1281,-347,-649,-241,-806,2386,-1726,583,-630,-926,-275,-543,-446,-1344,-1506,-1718,-896,368,-1790,1161,62,642,-1214,-854,1000,125,-1095,204,-458,-956,-725,-862,-824,955,-767,-609,179,1279,-1052,-193,-2060,-1219,-931,829,-357,-1464,-527,-864,234,-2839,-392,640,-743,-843,1337,-1517,-696,-632,-431,314,-2151,-1728,547,-763,-998,-244,-1313,-1509,-1607,-247,-1844,-918,-153,-995,749,273,-1784,-1064,-243,-981,-344,-1886,-1475,-469,-157,-419,814,40,-232,-409,-461,-262,-83,-290,1876,-1701,92,-520,-415,-33,-603,-472,-657,-2159,-1350,-2023,-1204,-1563,-153,-1233,123,-190,135,24,-1458,237,-618,1039,448,-802,-1397,-1186,299,-918,-581,
