534174,1303524,-478021,-383771,313263,-864186,-518712,99777,-879772,427213,-201662,-255468,166534,-1173637,108577,341585,-982963,240115,-521191,-13361,-489070,703516,127627,732024,-247461,26864,-66984,757722,73462,-329458,120735,273982,800424,463963,38548,-492103,-469194,362918,1196869,53877,-44425,148157,1114829,-447521,-343061,255007,-783959,-44171,-274205,-440498,1108060,-672602,-258187,201793,566417,62596,662127,229525,159468,-224017,-677681,-377120,1333620,431559,-767521,983230,508987,-570344,224717,-560912,154949,574235,-388644,561800,156978,391210,-77643,618365,4598,9109,254155,672412,-657857,-55258,-108497,-1009561,313168,550627,-447034,350048,498653,-601905,405514,-453748,-388864,1550536,228743,36979,938940,165292,370386,669494,-1038201,-27890,972528,-106379,60295,-173692,-265587,1108171,197479,613063,-162129,267970,-467938,-83849,-551234,-333128,-851666,-808229,-192477,873211,125775,46582,120135,792429,-297687,337632,210111,266116,1871941,221282,-24804,-13797,-79146,156496,-428065,382637,360077,1088344,-418507,-251707,-295900,-114090,159242,-778620,171034,-64746,-230874,367646,594835,174726,-219209,-206393,-47086,125333,556922,-871827,857729,-170697,398905,-251015,-308143,-846453,-493826,1582297,-649840,102741,562858,-535371,-640412,-420337,-335545,-251469,782946,298552,376183,-255464,-1363814,359919,-102723,974522,912888,-193174,-610615,-790531,622333,501801,277656,-55732,209659,435264,-141336,-210326,600981,57569,-317878,551158,-571992,827797,