-1169538,-1803250,-4576609,-717096,-2540186,-1708059,-3114207,-2601322,-1692033,-2831613,-3469350,-3339915,-3778593,-2789890,-3620029,-3257865,-3938487,-2155370,-3980258,-1402315,-2862789,-1847244,-3004578,-2915275,-2025096,-2717457,-2736016,-1874556,-875717,-3573120,-3645147,-4027875,-1363226,-1392660,-2492094,-3022696,-3462831,-2337194,-2841089,-2140493,-4221597,-2220734,-3879573,-2773619,-1715470,-1050012,-2788831,-2330236,-1850369,-1528069,278307,-3080730,-1228087,-1788717,-3247507,-3878771,-2960734,-1726653,-2048988,-4588414,-1642310,-3878654,-2736176,-2925348,-3415422,-2176655,-2571826,-4201292,-2059433,-1845944,-3557946,-1931122,-2404853,-1347394,-2047804,-2161501,-3492258,-3469201,-4610173,-3565280,-3938612,-2046067,-3076615,-3838056,-1804759,-2711622,-4196135,-2637365,-3989307,-2074178,-3677606,-3860771,-1045048,-2358115,-1796559,-2570180,-5091896,-2175308,-1499928,-2519929,-720139,-4917650,-1961214,-3247821,-3127579,-3819552,-3296729,-2460976,-3686620,-3047994,-528592,-1879880,-2463935,-2402266,-1981239,-5284213,-3455225,-2647559,-2688693,-3676304,366529,-4456148,-1490873,-1548034,-2493665,-4809178,-3928980,-3878630,-4208585,-799555,-3543617,-3903401,-368824,-4390293,-5232619,-3088953,-2113848,-5013976,-3592758,-2836136,-3466567,-1410701,-1768673,-2860442,-1721166,-4007671,-2296926,-2776559,-2999967,-4018506,-2525604,-4093835,394699,-3153501,-4035115,-2959762,-3172688,-4329788,-1303356,-2066442,-2484334,-1705982,-1425776,-1554400,-4257463,-1411999,-3127286,-4039305,-2406073,-3275168,-1327756,-1397305,-407219,-1104433,-2908017,-3498950,-1975673,-2877703,-2527635,-3428935,-3778345,-5067054,-1598321,-3764761,-1442396,-4009651,-3566461,-1364301,-3521455,-3969802,-1326101,-2775362,-1883941,-3221549,-4044174,-3469896,-2568857,-3546663,-3141218,-2658733,4999401,3925666,4991512,3155875,3935269,3729639,3280829,5006422,3162318,3995413,4319719,5102541,4438854,3099594,5504831,5075712,3452171,5088356,5246035,4193310,4667013,3668574,4069749,5277904,2960939,4673617,4762163,4682994,4480960,3997851,4753900,4986159,4801461,4078902,2974939,4305802,5372476,3886405,4071379,3908391,4190725,3345712,4519550,4126953,2341215,5853600,4521200,3513972,2873084,3142688,3247364,5051671,6095059,3279187,4645217,3753704,4998436,5073747,3701559,5444617,4587076,4494275,4702205,5026877,5489755,4696320,4617383,4936051,5250983,3254751,4538830,4237258,5235932,4984565,4023979,5083376,3914779,5656282,5254356,4200652,4717744,4052747,3360558,4948301,5345793,4222068,3023072,3536656,4691707,3609378,4621858,4583852,3757311,2898925,3980550,2739368,6247086,3172258,3860935,3229427,3533199,4984983,4389612,4605906,5115072,4040840,3966092,4704136,4373396,4293713,3547458,4218312,4764633,4590657,5012567,6365229,4974761,4626249,5343325,5089072,3816828,4494741,4051642,2269511,4410885,5580373,3916136,4086036,4561626,1128677,5059495,4680993,4978465,6272947,5267388,4179714,4114295,4969660,5407533,4185783,6174647,4263200,1683687,3721147,2513114,3954401,3726876,5081768,5102327,5360229,3556212,5089517,4458028,5609852,4201704,5014237,4243415,4394074,3171394,3352126,3927637,4478190,5714359,4795827,4351984,5783950,6511482,5754501,4549889,3941780,1978349,398742,3723380,3816663,4852284,1201350,3491130,5629903,3605657,4689032,4627138,5248450,4172777,4122769,3719370,4344881,5285771,4316634,4969412,4070275,2973392,4161921,5124698,5377746,3996913,4037836,4338801,4221903,4501593,4126482,674707,-596728,138289,332285,-226056,-41689,41266,315357,358532,450726,151891,508561,49617,696949,-1048989,-257434,-286461,689616,-533006,-541200,201550,58550,438033,68645,689234,-527660,-1023551,-12722,-1099840,130626,362152,-452281,898260,-260857,307400,269658,-632952,-445271,1145056,-96551,-506040,413409,31767,-46647,-414345,-217983,129217,-1039112,753100,393585,-1523210,-580289,-47387,-498656,-76979,27468,-569505,-649973,-30809,-467212,-1133611,28224,785477,-1003256,854376,-85291,749923,-35290,-968954,-1127553,-647229,-211501,593708,737815,-1088491,-577007,-475572,-173281,411804,-102917,142312,-649164,55212,-529323,-618015,-969298,546363,-380113,29757,401786,379795,179145,-581445,-326652,-227458,166735,-390891,-985577,645510,163062,223031,157773,408457,-226319,-171204,189786,530136,585657,389487,209367,-957675,77773,89206,1217257,1173489,-270482,464510,-677400,-172943,-140875,-234290,395252,-220540,-676655,-196276,-485916,-62562,786871,-592305,-956763,213868,232229,125657,-221722,-292968,644377,154450,81491,599870,142607,-66316,645844,-34075,582960,-674063,-47694,-278941,72296,-159334,-103478,-558938,-984543,1492617,1098626,-60626,-1108888,29200,296768,-615487,1025916,-1580,883113,897519,-1659047,-999882,-367271,302042,767990,130209,-25193,156598,1110355,275647,-930129,52888,1503527,314459,309488,-932354,325600,211370,97150,998471,-107538,-816984,686773,390484,-444655,-115718,-368570,712151,-1078805,-502671,524085,-583076,-879542,297069,-414618,-270338,538275,-161649,-1417711,-237719,-952059,-1640142,-1832687,-1878551,-94923,-2986532,-2468662,-2240634,-1425575,-1323745,-2917274,-1167209,-203366,-2299927,-905833,-1233456,-1249367,-1657961,-1417784,-2145833,-614571,-2071544,-547436,-834731,-668032,-1790670,-1838261,575191,-983137,-1705816,-1474169,-2201285,-940413,98329,-1236426,-1300605,-628509,-875806,-1732351,-1360440,-929309,-2447988,-735612,191799,-402297,-3009207,-1868296,363251,-1702646,-516369,-1360123,-665867,-1790796,-1247698,-760191,-2426195,-490990,-1283062,-1843898,-983887,-2228141,-838588,-978126,-893493,-759096,-1238947,-2976061,-2219444,-1789641,-1113689,-814023,-1667382,-1836547,-1256740,-916430,-751837,-1601236,-1871193,-1078240,-1846375,-1868566,34334,-1102732,-2166564,-935048,-1242261,-1573448,-1326922,-1473947,-882333,-1587794,-441239,-2030045,853481,-2634734,-974911,-2366155,-1329558,-322259,-1106053,-1535007,-263482,-1653220,-2629187,-611652,-927676,-844403,-856048,-1422737,-1397473,-573028,-644707,138580,-1771418,-2258424,-658878,-1802624,-1265509,-219054,-1640390,-1398970,-1866140,-380876,-1244640,-3053286,-2052556,-2789719,-917159,-1480018,-814146,1659539,-1296865,-1279078,-691176,-721714,-404509,-1150913,97136,-1286068,-1379331,-1614527,-3567812,-2716354,-704979,-1032855,-213895,-1436383,-1411253,-1307797,540278,-1021156,-1490936,-1410570,-1951046,-2067211,-1457772,-2275497,-1263576,-790762,-1392147,-504159,-2147044,-583619,-910635,-852284,-664920,-1157877,-1987458,-1803781,-997699,-1533049,-1849523,-1494541,-2200979,-848171,-1534083,-1360279,-1218814,-1147653,-363147,-2188947,-1378632,-1199536,-678380,-1151241,-769583,-2091688,-1620713,-1247432,-306025,-37168,-301259,-859778,-1415536,-988886,-1334343,-2094335,