30212812,8087261,18000266,18275164,18640342,22536722,9688851,6956540,28454802,27580826,22110820,21642818,30374224,17057486,14427129,12426763,7634369,27318602,2032547,9437321,28359680,16727257,2457175,22473736,25601264,13527368,18272624,19849272,30002136,24851232,14753922,9955953,25725204,19699736,26048496,19845624,19293980,22391538,18898352,30413204,18132818,11201039,19576914,17899478,-602947,23231004,16075378,29005628,13979169,16134819,3426834,25127872,20778206,29950030,26988524,22393100,11992967,28142114,25442578,12420710,-22438566,-28867256,-14434620,-6385516,-8710254,-9030761,-22699158,-24734836,-27028640,-20068840,-25562672,-17477092,-26007308,-29462630,-18839158,-20422246,-32909150,-32904658,-18647546,-10968926,-10151203,-23776088,-24228776,-19047298,-19497088,-22404154,-20828578,-20839156,-14337248,-19141268,-19318592,-11527967,-16656563,-19750550,-21319752,-11498004,-18797742,-19671124,-21515652,-23383152,-15410806,-19009996,-17292800,-18113614,-29633474,-20748150,-20164004,-20061328,-17120008,-11609759,-17114518,-17180236,-12924300,-23499956,-20240716,-9293374,-22352228,-14805877,-13477019,-19705196,