4476894,6961082,-22039682,-3193627,-1244851,24208186,9239237,20013094,21317804,-2619170,20715832,3454554,8647274,19028174,-1342039,6765466,14305213,4909440,15038245,21317512,10856857,22949162,28954798,16780100,-6986225,20710706,4046018,3180882,15706976,3335410,9986607,-4394726,13698923,14671738,-9188073,18123976,10133492,16055166,270080,419879,-1627295,-2566645,10796395,21875582,1318633,-6481813,-2041867,1431674,10956993,-566412,11081678,-825532,-2847776,-24577546,7900294,-1618337,4030669,-7479384,18306202,9056326,-18029752,-21557348,-7078538,-11621858,-20336196,-7078497,-18881774,-21556254,-19583482,-18861370,-8430367,-18212610,-20631704,-20550964,-17807460,-24168004,-6932472,-27824424,-15912130,15327,-23098192,-20047910,-17043084,-17321532,-14516870,-18812196,-13038419,-19955668,-25257516,-23214814,-19872080,-12753491,-16418755,-4401344,-18054140,-4707929,-13827636,-22187292,-16914874,-13991368,-18594930,-18514356,-8735606,-15920556,-24000308,-14398551,-12089496,-26346012,-20999566,-19198686,-16780482,-9643482,-17896194,-15368417,-17007224,-24163524,-24720086,-20493548,-22889166,-19417046,