-8571317,-8776589,-5893812,-9127052,-9136643,-9757962,-9059403,-7813569,-8714654,-7661937,-6702501,-5135372,-7336983,-6728673,-8813518,-6810956,-10151645,-4958376,-4206656,-8549320,-6887991,-10035125,-7942352,-10604617,-7818187,-6085305,-5787803,-5175555,-5109220,-7245034,-9020039,-8257314,-7277902,-5318663,-5053187,-6659807,-9303115,-10668671,-6681492,-6539047,-7214697,-9543128,-9608732,-6969810,-9767739,-10643986,-4957734,-8814113,-7874073,-5600758,-9181124,-5151135,-3965569,-6403826,-9436804,-6416963,-9785397,-5850338,-4397996,-7963127,8012058,2596295,-3201247,4434711,7560253,4902089,5567514,4877940,2552961,1175264,1302082,722196,1664259,-1343472,6283337,1245113,1152305,4576449,6646595,5038305,2413939,2767788,4013610,7953460,3704488,2526076,3998341,3146486,7689899,4725994,5077586,7554706,7302862,3198068,-391078,4447038,1900521,3849902,4467418,6876127,4751952,6057478,6028658,6103042,8033742,4457599,2471211,9050166,4355116,658511,5606262,1196865,-5665738,6264179,4364982,3818586,6212274,1035696,-2109329,2854699,462336,2441571,-1294581,1914489,-2552513,-245893,-916822,-847711,-880160,1216329,-1032013,70609,-2218354,-271208,-2347107,667411,781062,-1925572,-2038185,529770,-352578,-1926,-906073,-2988345,-1162010,1302273,-657223,-524064,475424,1695908,-381282,-2253786,201438,-34023,-34875,577820,108505,1817841,-2170320,-3000277,528023,-1575268,-1224956,2038877,3147713,261539,2264185,2448471,-2301890,-295278,2265366,2848051,-520103,-854296,1832984,322381,-471167,-527024,2050696,-73403,-5584110,-7744772,-6356069,-6079120,-4855251,-2285432,-5675977,-5226584,-5551914,-4127341,-6569431,-5628355,-3866455,-6208023,-4703537,-4405795,-4162099,-6879962,-4000305,-5047507,-3209452,-6672509,-3722549,962968,-6437548,-5949905,-4274119,-7063648,-5327972,-6905266,-4510937,-3627444,-5649414,-6513974,-7498284,-7182745,-5320258,1363995,-4917428,-5421728,-6187980,-2182515,-5060159,-5284919,-4552623,-4312663,-8792650,-6567616,-3666000,-5910135,-1960048,-4382006,-6428066,-6572454,-3674814,-5186634,-2059427,-6915700,-7808333,-3835387,