

PI_L2 int Decoder_Gru_Bias1[]= {
8750662,5428605,11761185,18131958,7994682,18656162,8312692,14823537,12493317,17644552,22950564,20285796,20113582,10193797,4779309,13355213,12436408,16549832,16891252,9529622,23832026,10208900,26291140,16925820,-2537533,6335256,20478292,8024036,12946370,10244850,15064189,19184086,10446390,11577486,13739331,16271200,17112190,9449633,14163186,20357930,11299391,12877426,9904359,13472440,16374643,19934274,15924841,21401436,20838362,11401086,6639925,8712669,5147617,21592576,9240110,23099246,18746686,17621038,8046854,24833064,14171067,6848646,11078506,15687332,15651922,9242566,14247306,12851555,19937854,18774304,22711600,15419185,20889274,26992514,15729617,18593480,13832845,19214680,6214405,11088633,15208234,15389365,16214510,-324343,10792609,7263470,13613249,14580009,9597088,9813898,14286277,11401603,5953652,5103777,21105458,13990004,-2039760,19387198,5872762,15984527,5738189,17157944,10788272,12720637,18353672,7100329,21638506,12984709,15975701,17989030,10910744,18894230,15221128,8736104,5281602,14096684,14326115,15015000,11741849,19216626,9048319,21514402,15445431,18665876,15073493,9502443,11987018,9099247,15792037,1436537,12995819,16624794,19883820,10180697,8759552,1364258,15064559,20889252,22119764,7606859,17441756,14208040,18483828,11404835,18163752,13532691,11350962,15017279,10864708,5884548,-16802458,-12722787,-9468355,-16097783,-15434136,-12271216,-11931229,-11557638,-11350282,-13441724,-13732655,-10430873,-13791274,-17772330,-11726367,-16899534,-10013175,-18759540,-18170380,-17197676,-10390209,-14885847,-14509756,-6544803,-9293308,-15163317,-12403745,-15696941,-13895670,-7980728,-14015366,-7423296,-16728279,-18694132,-17899008,-13092668,-6397083,-16171182,-14143393,-10809481,-12731878,-11233752,-16652100,-16353950,-17210526,-10219117,-14646275,-18266392,-23166598,-11912945,-13994949,-11367082,-13563811,-8756515,-9484799,-14126658,-14163930,-12812756,-15769103,-15690227,-10502142,-11367009,-14199012,-11242993,-5730051,-13681879,-9777439,-10378513,-9201117,-11683409,-9920774,-15439808,-13331655,-15446363,-12329059,-13915342,-16828054,-13365594,-6325284,-9161776,-11696231,-17322062,-15164255,-15229283,-18147916,-6527962,-8338297,-10975010,-13803371,-15001553,-8785325,-12069522,-9860980,-12306404,-17996158,-10099943,-20367746,-17163254,-10640341,-14156726,-9310566,-18792974,-24941794,-15861892,-17328600,-17026358,-2341125,-9343116,-15814444,-13627251,-7927436,-14612140,-15197973,-15487621,-21765634,-14477877,-5276959,-15609097,-14149172,-12876752,-14228376,-8903455,-4465038,-12747437,-13835829,-15580407,-10981988,-9219497,-18362440,-12248507,-17407408,-10003298,-14927797,-16587628,-10444427,-16193107,-18683124,-17242916,-16061542,-16320467,-18215108,-7339220,-11328103,-9086413,-12547367,-13395847,-12933572,-13235470,-16006136,-14073624,
};

PI_L2 short int Decoder_Gru_Kernel1[]={
-383,320,-233,422,252,152,288,-75,-311,344,-163,312,-338,-297,-133,208,422,72,-472,189,110,-281,251,94,-429,-128,33,55,-405,-349,-298,426,326,344,-345,183,-470,-51,-227,145,201,-310,-449,-19,-253,42,134,431,314,-49,-295,-51,-41,-185,190,28,-213,-64,332,380,-467,337,9,141,-139,291,418,252,-121,-419,1,26,-409,11,-95,287,-294,-356,210,-77,426,-359,-185,-22,343,299,-68,-386,-186,102,456,406,223,-421,195,115,384,-126,128,-133,77,-192,334,-192,217,-86,-469,-169,409,381,32,-8,2,-451,14,351,-298,87,124,440,-61,-275,-277,-195,35,-66,-92,-25,346,244,38,37,-172,-40,-46,-90,22,375,190,169,36,-50,132,253,124,99,-175,17,-303,-425,-149,-150,-352,-294,-231,-395,70,145,-299,-53,-328,25,-354,436,-71,353,106,332,5,118,-134,-82,-377,-404,110,273,245,-382,157,-322,433,-148,-165,294,230,182,446,-342,424,260,-35,190,-145,176,-204,132,40,407,-111,174,-36,-214,-58,451,-431,144,-213,456,-150,-385,345,-101,253,25,441,-220,88,-98,1,313,445,231,467,-312,-109,-306,-307,182,-461,-211,338,-1,-286,409,-433,-39,333,257,359,-84,-62,-12,427,317,77,273,-210,-174,408,171,-27,-312,137,75,-213,289,-332,-461,259,-224,257,188,434,-154,-416,271,-249,107,92,437,-262,118,7,328,-252,400,-251,115,448,-423,303,4,-161,136,-369,-446,299,-251,398,-375,415,34,470,282,-127,31,232,333,80,-184,
};

PI_L2 short int Decoder_Gru_Recurrent_Kernel1[]={
-202,-886,-2089,-566,-3988,-311,-110,-3258,-4362,176,-2983,1298,2195,282,-1262,-1695,2094,1311,-764,-1189,88,-2268,-575,1119,3856,-1757,243,1540,-3711,-974,-551,-3013,-1957,-1312,-995,-390,881,-2536,-1120,-1958,-2030,-1498,-721,-1692,-2256,-1689,-1493,-377,-1641,5680,-1350,-3309,1296,2026,-2945,873,-3082,-970,52,-1613,-1702,-2603,-2831,-2568,-1606,-2109,-174,213,503,172,-299,-610,-1904,-546,-2019,-3425,-714,350,-1901,-1727,938,-279,4305,2913,3485,-1416,725,-1725,-1487,-2528,-2584,-902,-1144,-635,308,-2012,-581,70,-911,1590,-426,-1839,302,-1148,-3557,145,-1729,-2587,-2467,-1604,299,395,-1275,-3727,-783,-13,-2115,-3562,1404,669,-587,-1917,-53,-10,991,7065,836,1058,290,-1126,-1014,-1567,1145,-1014,492,-298,-1149,-2173,-581,-794,-253,-516,-1505,-2554,-2476,-1279,-1757,-706,-1052,-882,3045,2735,-377,-605,-1671,-1395,-197,2983,-1408,1068,2026,2399,514,1392,1136,-520,1044,-540,-222,740,761,1359,1002,923,3477,1939,1765,-99,514,1980,-521,-626,35,331,426,-1056,1874,401,300,-223,-643,526,1126,-319,527,1005,1446,1566,2424,3434,-785,752,-1255,474,574,-635,1026,1327,1419,963,1253,313,-474,-1269,1181,905,1862,2520,-224,1803,-444,-1143,1051,1602,-70,-593,951,2120,2023,585,-333,378,-487,6087,3546,-1555,2533,-1833,402,-165,433,740,-2534,-191,8,-2966,548,519,2217,-1820,1551,1840,2455,-88,412,606,-2120,-123,-969,-1080,-2192,2492,-40,1306,-1072,-530,-586,-1398,237,-513,-32,-1250,1257,1323,-1660,933,1877,592,-484,21,2416,1819,2334,-437,1138,-618,-349,536,187,760,-1907,-551,66,-3266,-268,540,658,-1050,614,435,
-620,-2347,-520,-1249,-1394,-802,-1206,-3161,-1353,1757,328,317,-612,-1105,-2042,-1520,-287,-1190,52,-3616,-742,-3188,333,1080,2501,-1309,-365,2231,-2920,1354,473,-278,-1789,-31,-1536,-2094,1094,-1533,-609,-1075,681,-3271,-1576,-764,-3237,-1323,-3492,-2083,-2484,1950,-2058,-3241,711,-956,-832,-748,-3676,-747,671,-1766,-2729,-981,96,-3594,-2943,-2905,792,-1784,1025,-433,-2844,-580,-4404,-1854,-2208,1832,978,-2192,-2837,2996,691,-689,506,5745,5056,-3566,896,617,-751,-751,-1241,-1416,-572,-725,956,362,-1570,-3108,-1382,278,-1032,-2306,-2190,-1374,2119,-1016,-1696,-2366,-2959,-3116,2031,43,-1513,-2620,-796,-1101,-5089,-1263,-499,1161,-1491,579,-1812,198,1191,5092,-1204,1806,-2270,-2269,-325,-3023,-188,961,650,-1784,-4148,11,-1433,-674,-465,-371,-1400,-3964,-1655,251,-2582,-23,-5480,-1298,1092,2962,-307,-1986,1069,-4251,1377,1132,-5371,993,7,-986,44,-1163,1796,-496,606,3789,-115,4056,-630,-277,-1276,1099,3860,2122,-27,968,378,507,-155,463,-460,3729,2419,2663,1478,3617,-231,-1420,-3172,808,3368,-437,-811,-1477,-1105,2596,-1249,139,780,285,2297,3904,557,1912,-2874,-1605,-963,1279,-1077,-826,155,1446,-1011,1249,-2442,688,120,2108,-729,2745,-1204,-1755,-356,-1467,365,1277,801,-945,120,95,-533,1446,1965,28,-2664,-858,-1684,2012,644,2100,-2187,917,1088,-1392,-1771,1625,-2016,494,1968,2774,-750,-1312,-114,-614,-3168,2977,-1438,-1279,-3030,262,681,1972,2243,-297,-1660,-457,-1026,3600,-1613,-2428,-1372,-552,1816,-2,1209,-2966,-2144,255,2355,181,-1899,992,1325,1824,-942,889,1274,-610,2847,-1113,-364,-3247,-1204,-1500,-1018,-2202,2563,-1486,
-3341,-1846,-5040,-430,-3249,-2868,-838,-443,-1661,-3001,102,-2770,-1832,-1682,-1195,-4145,-2406,-1567,-1229,-2860,-3450,-1177,-1104,-1297,6140,1281,-4237,-738,-177,2564,-2413,-2087,-1121,-2214,-2618,-1172,-1580,-1223,-742,-2344,212,-1177,-455,193,-2829,-2898,-1397,-4718,-2093,717,-3248,-2076,-2129,925,-1956,1085,-2070,-1502,-1874,994,160,-960,-817,1146,-5412,-908,3212,-4338,-399,812,-3347,176,-787,-2189,538,-3285,-1472,640,-1924,-2619,1517,-2247,-3838,-1414,-192,1401,-3156,1244,89,-2784,480,-2104,-286,-2135,-1541,1764,1046,-4719,-2788,-1238,2962,-586,-5353,-417,218,-1831,514,-4040,2577,-3115,-1171,-890,2000,-3513,-114,-671,-221,1138,-2788,793,-1192,-2410,-3608,-338,-1725,-3597,-1312,-1912,-328,-247,1851,-3767,-307,-1041,-1657,-37,-3243,414,680,-1320,-3748,2030,-900,-3892,-3422,587,-1761,1182,-191,-1454,1288,926,3339,-2056,-2280,-2298,-608,2020,643,-675,1060,-128,-1351,1968,222,-1709,1440,-520,1671,175,-313,-1330,-2356,63,-1207,-453,-1442,-1093,-308,860,727,-39,1428,1609,6987,1305,-2338,2224,-329,-1893,1806,-3,433,1043,2981,45,695,-1805,1912,243,-434,-1183,-661,1302,-3826,-2497,-1200,-1656,-392,-853,1368,-792,-2753,1753,944,-1103,-1307,1182,4503,-1928,1663,1294,-1062,661,585,-1374,228,-1353,41,955,774,496,591,641,-530,-3798,-1462,3116,-3425,-3555,-4,1322,2168,-745,159,233,705,259,-664,987,-1224,-1734,3445,-3056,879,1971,-1136,867,1629,-2465,1219,-2373,-1726,1237,2911,2653,-502,-1971,-365,-833,-202,-833,750,-738,-984,-716,1175,-253,1181,1488,-2786,140,602,3627,1579,1069,1145,1424,-1130,2406,1235,209,-102,-3447,174,1516,3086,-170,-550,73,
-795,1122,-1498,-1348,1050,1692,-1155,-1423,-1070,-2360,-622,-229,-1347,64,-512,-1341,963,-1511,-1203,-1998,-1461,-741,711,-1336,-1940,-1688,-851,-2864,-2291,881,-2492,-387,-1928,-1590,-1169,1842,-491,54,-1365,-1253,7092,-256,-1480,-2253,-3918,-4129,-1526,-4368,-4793,-1784,892,-683,-1906,-3168,1018,640,267,-3525,1364,-2138,-1967,1807,-879,-3074,-2892,-16,1668,-3000,3233,4653,-4649,-1103,919,-1482,-734,-1916,1368,1351,2152,2674,-1164,-2837,-4786,-2626,-1738,-3040,-1318,1392,1186,2232,914,-407,1515,157,-2502,1494,4188,-2756,-2566,21,1342,-1143,2861,-2355,-1254,-1981,6,-189,1374,-4082,1259,-1468,-1213,1707,2270,1055,8,364,-249,-55,-132,-282,-3216,-677,812,16,1596,-539,420,960,1081,-2734,-18,-1040,-349,-496,1448,3486,86,-1235,-3617,-256,-3166,-2293,-452,-739,144,-398,-2940,-865,3427,2156,3292,3574,2095,1479,2878,1764,-159,2456,2986,1533,-249,3436,2599,3228,1329,-1308,-1489,1500,2005,2940,1070,-3827,444,2958,349,1363,5001,420,1823,3095,-1035,2349,3288,3982,-3210,3212,2656,-911,429,951,2746,-588,3757,-784,-2088,382,445,4032,2977,-874,224,2115,-470,2061,-500,-2371,-1578,1724,857,753,-1119,1115,854,739,530,2392,2684,-140,2500,1351,2191,3355,238,1908,4118,1608,4050,587,216,1059,1105,3030,3170,1066,-4827,-2188,2276,573,1670,3017,-432,3707,2367,2181,-65,3928,3232,1195,-1325,2676,217,482,943,-191,856,5753,9,-517,680,-498,1049,2238,5242,1135,363,570,-2732,-390,716,-1312,490,-362,184,2292,1325,-1938,960,5154,2784,1250,-1784,2270,1113,10,1321,-145,1700,-1633,211,1193,1269,-1432,2238,1109,11,1844,1652,2477,
-601,-2415,-174,612,858,-1444,467,5512,-1643,-3484,-3393,3202,-330,350,-4003,3626,1214,-259,961,247,487,-3052,-293,2144,1032,754,341,-3312,-593,-2650,-38,-3002,-1609,670,1321,-1175,1768,4169,-1842,-4274,-1193,-1248,-4710,-1524,-3340,-1860,-917,2085,438,-330,1614,-1743,-3320,1600,248,4219,-4415,-663,-5695,-551,2304,2855,-2073,-1384,2185,-96,3136,2452,2244,-1241,-3732,2116,-1589,-1475,1448,-3617,-1427,136,-912,-3824,2877,3587,-1772,-1081,1234,1236,1116,2894,1306,-2290,-43,-3676,-3753,-1709,1854,-2757,117,213,59,5843,403,1554,3915,1556,-4637,-1390,-2665,-1153,2131,-1490,2936,4314,2536,-3943,-683,2461,-263,733,1431,1254,4618,1488,925,220,-2797,2912,1408,1296,600,-1857,-3236,884,-860,-961,-1475,-4375,-1183,2915,781,-1200,265,1343,-967,-266,-1150,606,1493,2846,-4381,-2669,1592,-3472,2935,2219,-615,150,2984,4665,489,-614,179,970,339,3289,387,3660,4855,-1984,906,-934,-252,1180,2013,1639,30,-636,2757,2388,2605,-511,3326,-2325,274,1335,62,-1208,460,325,133,583,-106,-2894,3241,1966,-494,349,-99,1896,-947,2900,-211,1110,4440,-208,-503,-4171,-1907,28,2911,1828,-1764,-1446,2713,-1300,-313,-932,85,-1239,3309,-2238,-1847,305,1913,1951,1574,2257,-1594,1769,1738,5265,1324,1000,2259,-1703,2572,-66,-161,-223,-1281,2375,-2383,197,649,1478,4333,-1877,122,1145,4509,-1350,534,37,5366,594,3498,-1334,-3897,-2548,-437,-2768,2369,-2365,3053,3008,2522,248,4991,3510,3632,-2510,3610,-3179,1412,1118,-1883,3315,821,723,2110,-801,-1977,1566,2185,1569,-5561,1118,3600,-2637,3721,339,3018,570,1854,4708,2187,772,5467,-878,2157,1040,
-2641,-847,1259,468,-2919,4637,-630,6854,113,-3257,-224,-310,-3120,-4059,-887,748,-180,-3733,-927,-1468,-2458,-478,-7070,-1485,2052,2273,-6835,-3450,-336,-236,-2013,-2849,1422,-4047,-1078,1910,-2083,1373,175,-5947,1702,150,-1974,-3024,3520,-1022,159,-6733,525,-1365,-859,-1633,122,2106,-3192,-3168,1764,4897,-1916,-1426,-2397,-196,602,-43,-647,-1320,-1489,-4278,1130,2394,-3515,3596,-1023,-8004,59,-5011,-2128,-6030,-1081,2462,4189,-791,-5623,-1734,-3960,-1470,616,2523,2094,-1180,-1394,1261,-2998,1194,-82,-997,186,-182,1388,-2070,-3749,-2485,-5382,-1484,2830,-1052,2137,-2196,-1942,-2345,2401,2865,-4368,946,266,-3422,-864,-1002,1628,-1341,-1203,1083,-4651,-2281,-625,-4167,-874,-1925,-5486,-452,5748,-5581,-1069,-49,-4215,-473,2477,766,-506,-2803,-1410,1703,43,-2381,525,-800,-6312,2613,1280,2639,3252,3641,504,-439,2146,5648,956,973,727,3322,7143,3115,5841,2370,920,3438,-430,378,6366,598,2715,3730,1967,840,1253,1349,811,5875,1594,158,-238,225,1190,-1516,5754,925,-1768,-2536,1669,983,1580,2090,249,1603,-356,570,689,3972,2312,6536,2584,-970,3931,-1037,-2405,3661,2051,3788,-407,4622,1742,548,1327,-283,-1221,841,6982,723,5539,4633,55,1648,1685,1921,1107,4810,-1317,2248,589,174,2271,5053,-119,2154,3462,-353,1386,-640,-628,2061,1526,2631,4828,-1519,1787,8077,2407,4121,5126,526,2062,3304,2203,3003,797,-62,4275,2167,2138,3609,1566,2609,4394,1702,-1720,1378,1062,5036,-883,2439,3110,7069,729,2658,4329,6238,1286,1211,-28,2400,5009,3346,2153,-1008,1438,2991,6411,5944,1731,-93,3050,3453,2035,2558,3462,4199,206,2270,-771,417,
609,111,-465,-876,143,704,1058,-3825,-2317,-2293,-1879,1004,-1241,2412,-1892,988,762,1019,-1623,-5042,487,-588,-4716,27,-1799,-1196,1013,-496,-673,-2735,-3381,-2723,-771,1232,-887,541,915,1291,-3608,-3375,-580,-3184,-1613,-3415,-2674,-2046,-1823,-2202,-1946,181,-885,-605,-3181,2959,-663,1804,-978,-3452,2625,-138,-885,709,-1598,2151,-150,263,2419,-639,253,876,-2847,473,-2167,-470,-1282,289,-1315,-748,-265,-1166,61,-995,250,-1271,1127,-1754,251,-2775,1775,436,-728,-2518,917,1803,-1855,-720,505,225,756,2938,-1495,-2331,95,-350,-2294,-1908,-93,-2344,634,-2001,-493,-888,-435,-373,1608,2974,1304,-3350,-839,507,-1307,-2274,-243,-147,-388,-2286,-2104,3485,-415,-692,-1293,-1282,450,813,-2125,-1916,-918,1599,-898,-483,-316,-438,-1899,-1173,-34,-1327,-1084,1005,-1770,734,1980,-864,977,3959,584,2926,4647,1040,1561,1864,3600,3364,1500,2880,1129,1218,2392,591,-615,2264,1201,4755,1480,1403,3222,1577,1639,1941,2522,2486,2081,1641,572,169,2982,1970,-1908,-1948,487,1365,202,189,3896,-1352,711,-603,514,1596,1192,4523,1477,861,3482,3267,374,2793,-678,2219,2416,1573,-1660,-1270,1206,-3,860,2554,-1451,3115,3600,-2080,3091,-2781,2721,2161,1125,3962,2579,2907,1105,4048,1345,3136,2084,-67,2570,-398,-1057,1643,984,2821,497,1047,1087,-965,1080,-2304,1823,2793,1004,2842,-1277,3282,2432,2036,1886,1625,-1323,1367,-1285,-164,1988,-3270,-342,2934,3021,2960,937,3867,147,2260,1184,912,2585,2097,-2609,5494,2031,-428,-1693,236,-535,2326,3280,212,-695,4077,4168,3937,879,1511,1597,1451,1773,130,2951,550,3040,-149,-1093,1624,
1183,-85,815,3725,331,1435,68,2285,-552,1202,619,2817,178,-1419,1103,1248,-509,-406,2912,2353,-2398,3102,-222,-294,-962,-1372,-117,142,-2898,1995,1256,5964,1199,-2420,-922,1264,731,-2110,169,2719,2435,-393,2285,965,1916,-539,1672,-1936,2442,-1799,1154,1961,2714,-7610,2263,-1802,3047,3690,1428,1833,735,-1058,300,-1553,-948,1760,905,-425,-1713,-458,-1918,-1496,81,-3165,1082,620,3605,2545,-1318,1688,-1042,-904,-5899,1559,2266,3340,-1821,3064,-924,1528,2999,-158,-1634,-1574,124,1546,-1356,723,-1220,-7892,454,3083,-2119,1932,-3711,1788,28,-481,-635,2118,2859,-423,1459,2503,-2523,-2198,1562,3966,-1921,2190,4179,-1127,-236,632,-613,-188,-555,55,123,233,-129,-511,-457,-2718,2328,1449,-1549,-1045,2016,733,-68,2067,-33,49,2860,-366,1604,-533,-963,1601,185,545,-1018,210,3415,1337,1677,-5537,946,3004,-2613,1326,-1018,-666,-1147,-1097,-1022,-252,-487,-192,-998,1835,-1133,-412,435,-2591,-62,1252,163,-1005,163,-37,2276,2740,-48,4608,898,-2101,-2641,-311,-985,897,911,-526,32,-1005,-981,654,-1537,-4569,178,8,-650,-1914,-513,-1078,1042,-1468,-2774,-40,-1299,-1667,2187,-287,1227,1867,333,1109,-2785,-416,-1653,2093,1245,-2213,-604,-497,-183,1613,177,-2832,-270,-5396,-176,-786,-1764,-2679,1293,746,-1762,675,1387,-2380,-196,-690,1428,2683,-1262,-1651,501,-863,695,-198,2564,-537,2382,88,-2159,578,-1035,2355,-692,341,-872,-4454,-3197,3817,-402,-483,76,-352,-1667,2791,-1633,253,-1396,-4547,-1432,2237,1381,640,1725,3135,820,-610,-1712,-375,269,-1842,3398,-2066,-1618,1668,-2929,-1217,-91,744,-689,2851,3416,-4142,
2126,-1127,-860,-1403,-3199,2005,1762,1694,1380,4770,2636,1551,-525,1555,2040,-88,-620,2346,1727,1542,-938,-471,335,2534,-1139,-1004,3055,794,845,2710,2708,1077,2772,126,-1796,-240,3481,1649,429,1358,1054,1812,1270,-1805,1986,-1050,-1354,2765,305,2458,-1923,-1651,-113,1683,1799,5674,3956,255,-957,1002,-491,1271,-601,-2556,-3021,1502,2930,-1214,479,968,-3658,438,2815,-2130,4158,4112,1419,2664,-1711,907,178,-486,-1980,1401,2670,-1060,1360,144,2319,461,2541,3709,-2551,1092,851,4105,-2069,2700,2567,484,1682,211,-960,2661,8374,2258,353,-1103,1929,687,1843,1466,4739,-2211,433,-864,-622,-813,-3108,2393,-2391,1214,432,3065,-262,400,4280,2684,-201,-1553,2527,1478,-1786,-4121,3663,753,617,-1122,-433,1044,-329,3827,1700,-770,3073,1107,1554,363,-2392,2363,1093,-263,-4022,-2433,-4717,-2073,294,-3204,-2155,729,1999,-3072,-844,-4522,2854,1683,-966,4804,-6,-1011,-1233,-2972,-477,917,770,466,927,720,1360,3278,-3040,-2207,-4712,-839,-191,-1328,3361,-1053,929,-454,-1608,2027,-838,-2253,-2528,-2731,-4222,-2945,-3822,-1967,294,-440,-2115,-556,-3604,-893,-1013,347,-1397,-2085,-5255,1295,-1064,573,-3606,-1866,-1728,-101,699,1433,1295,-2379,1253,-7064,-3286,-2300,-2217,-128,-109,-1140,-3717,1177,-6594,726,-4848,1915,-711,-2742,-3143,202,-301,609,2005,-914,-3369,-147,-3083,-1209,-752,-730,-671,1397,-3455,-1390,-297,-1098,-2043,1782,-2702,-2278,-1440,-1577,-2474,-1791,-1784,-405,-1140,-610,1004,-1458,-5295,709,-2187,865,-463,-2467,5833,689,-3405,-247,-3389,2340,-2224,-954,1169,-3047,-2063,-3402,-1188,-4170,-2405,-547,830,-1013,-2126,482,-1548,-1099,-1006,-628,
2934,2578,1495,-639,1340,1275,218,3913,5125,-309,7091,-1443,-1630,3591,1206,3313,-495,19,2048,1210,-232,4622,228,-759,-7693,1434,540,-1069,1906,262,851,1408,1708,-365,4493,2059,-733,2094,675,1631,2537,3193,594,3083,1391,1504,545,233,2279,-10324,2999,4161,-1020,-1440,3628,-528,1301,367,501,-74,1262,2520,4989,2513,1375,3872,1300,543,1659,-815,-531,1856,-882,452,1666,5076,-32,775,3009,-615,47,3670,-3018,-499,-2112,-1724,-150,65,662,5338,2359,188,746,2821,-383,-358,1047,270,1631,-2185,568,1078,1170,2013,3652,3413,832,2520,1558,421,373,550,2120,3072,2115,440,-187,3072,-410,988,762,3201,1012,650,-489,-5215,-205,-386,439,1019,232,1659,704,479,-2605,115,267,2665,188,-852,523,538,1651,2977,4223,1197,1232,1910,326,829,397,-632,1236,-799,730,2000,1044,-87,3377,-1067,-200,-2233,-760,-1214,-396,-101,-1286,974,-1928,399,1106,-1820,33,-1666,-484,-1611,105,752,1143,317,-784,-621,-1712,-1568,-906,900,-490,-811,1329,857,-1008,1669,-4,-563,-936,-524,-1687,1453,-2743,-1083,-224,88,415,-71,2010,-391,-1175,-2993,-754,-633,198,84,384,-906,1245,265,-1346,281,658,-314,488,135,-305,-479,573,-835,766,-875,-683,979,-1377,-1141,1731,-1464,-203,420,-2565,755,1075,1001,299,712,-299,834,364,-86,2022,501,1743,-83,-431,-1263,-2277,1316,-38,-3208,2329,1909,-423,1451,3711,-1651,606,-1756,-1186,895,-1674,476,1095,1003,684,-602,1662,-1025,-229,-688,-1855,-3245,1507,1090,626,803,-1797,1075,-3450,605,364,1404,-1214,-968,-469,2526,1338,3256,364,-2237,753,-590,383,1222,
1315,1312,4126,939,-610,-522,-2854,-2080,255,4258,932,-1318,1523,2863,517,520,-56,-6864,1870,3158,4460,4461,3964,-1540,6322,1975,808,-2723,2220,-1394,4645,3806,2206,1337,865,-2270,-1895,1296,1526,3499,3,3010,4503,-58,2374,5053,523,1968,-3759,2275,2531,-660,-1640,-5076,2200,-2376,-2579,-1158,4987,2363,-1915,-491,2535,414,2192,3084,-2549,990,-2325,-528,5477,-2532,459,5431,814,3999,-2741,2786,502,1008,-463,808,-2780,2431,-301,5290,-1142,-1227,-120,2864,2933,-1241,2113,-1410,3331,-422,56,1211,848,-3127,1622,2063,-2811,1654,339,2280,-996,2670,963,6143,-2699,-713,1622,763,-215,-1227,964,503,-940,-1053,2604,-15,1873,1481,1719,-1347,-3841,1213,-1964,966,-1177,3416,-1323,1160,-1833,468,2247,-4086,2624,-1086,2380,-52,330,3963,3603,-2725,376,-3044,-383,-2704,-7952,-2023,-773,-584,2189,-2939,-3498,-617,-826,-3929,-940,-1639,-3195,-2315,-2856,-3475,-1801,1117,-4325,-1577,-2700,-3818,-2637,-1448,-4192,-3681,-2850,3133,-2089,-3065,-3093,-2127,4328,-759,-5673,-1973,-3193,-777,-3598,-1001,-2401,-2096,-2966,-3638,3498,-1299,-2156,-3621,-4212,-2664,-3319,907,-411,-1830,1831,1753,-641,-4684,-2427,-3770,2801,298,-824,-2890,-1580,-2176,-3719,-3174,-2829,-2536,-2533,-455,-2868,-913,-2493,-1795,-1817,-1714,-3515,-2506,-124,-5391,2334,-3301,-1490,-683,-2156,-2127,-5621,-4046,-3457,-3670,-3891,448,-2742,-926,-1620,-5803,-2542,-5734,-463,-4111,-6367,-1634,-2986,-5238,-3552,-4510,-1482,-1086,-256,-2073,-2295,-1863,-4180,1767,-2417,-978,970,-133,-2806,-1650,-1806,-2601,874,-5605,-5249,-2586,-1526,-5316,1086,-2632,-3545,-1281,-4659,-2384,-4560,-3801,-1542,2582,-831,-3790,-1967,-494,-635,-3242,-1655,404,364,-2485,
-1640,-1192,-3319,1150,-1226,-5686,637,-914,4299,-4370,4370,-707,-2253,-1164,1222,-3262,-1548,5504,480,1243,-144,-3970,2226,1140,-3066,1126,397,-1067,420,-128,-5221,-928,-5672,1869,-3864,42,5843,-125,1229,-157,-2738,2706,1214,-626,-239,1333,-295,-391,1414,-316,-2334,-358,-942,-1028,-1393,-5677,2091,-1594,-749,1358,-153,-931,-3136,1296,-1974,-2731,-1638,364,-2154,-1940,-105,-1432,1953,393,1768,3,4395,-1642,-395,3618,758,-1451,8224,7989,905,-3557,2189,196,-1845,-4567,-167,-212,-2114,-1791,-5648,-955,230,-1733,-693,1406,1742,-1202,-3524,2964,-3782,-2264,1358,672,-1126,3820,2594,-3206,-569,1535,1056,-1219,2639,-1269,740,-2078,-1842,-1523,-213,-371,2616,2281,-1792,-4062,-1288,1006,-1476,1526,158,2600,1261,1081,3117,-1138,2285,-145,-290,-1240,2666,-1245,-5279,1373,584,-2121,219,184,703,1177,3014,1807,-1772,4810,1169,1609,1349,995,4091,1933,204,565,1513,-1396,2523,-4002,1038,2745,-1445,2280,4429,755,4436,1877,3541,-3984,661,1792,-1828,331,1931,-282,-7622,1047,6013,3585,1487,3152,2853,2254,-777,2938,2282,-734,-883,1007,2442,3772,1889,-1661,718,2602,221,-284,-1599,-515,1125,636,1962,-1706,-1235,-909,3322,-2287,2818,1325,4158,-458,1766,4816,426,-752,2125,524,-2190,-2519,-205,-705,3024,-2043,2545,3836,2445,3688,2113,1938,690,1483,-153,1916,1714,4484,-445,-16,1385,1237,-1970,3923,-564,1024,2168,2095,1100,2052,-343,-1053,1827,2912,-1060,-1372,-1429,4473,-890,-2863,4568,-484,-1137,-324,1343,105,1303,2950,-797,5237,-44,7078,-3042,-3060,-2083,1933,1366,-2522,5143,-2449,2128,-2911,1824,-48,2872,-2548,11,-455,715,-1233,2142,547,4533,2532,
2450,4335,-1245,-5783,-3071,-2386,1695,2893,470,4348,-253,-5515,-2570,3733,-181,-3313,2026,-1963,2506,-60,-3302,771,-2371,-1417,257,-245,4006,2505,559,-5635,1236,5284,2796,95,-646,-2474,300,-2823,-3464,2206,-2500,-49,-2232,4716,-4466,-1889,1262,1479,-4674,552,-212,-1644,1149,696,-568,-265,286,-296,1877,-1015,-907,-150,2766,-2366,-1083,-716,2104,-569,319,-773,651,1324,476,-1332,-597,1455,-2188,1087,3735,-4807,2453,3914,-3251,-2508,-3252,-1381,-1636,817,-3465,2309,3671,-2429,-183,2667,135,-1231,-1178,-4721,1321,-1309,-229,-2106,4185,-3848,2487,3065,-2346,-3582,-197,-2324,-1746,1483,3645,-3594,546,-501,-2880,3265,-966,-2558,393,-5368,325,2856,-1092,-1668,164,1359,-3210,-1912,270,685,-760,258,-4024,-729,1416,-688,2323,-1802,2527,304,-3613,-3653,1200,-757,2288,-1404,1762,-1363,-1293,-19,193,-494,7091,-2771,-2179,1315,1375,-4190,-1833,-6359,-1801,-1815,-4452,-440,-52,-930,-1124,203,-627,-1504,-3619,-3116,-3361,173,-1451,-183,-1486,-2623,504,1334,1883,-1474,2902,-1503,-2084,158,-2119,-250,669,160,-3215,-3355,-4487,-1153,-1870,-2040,-1888,4967,2178,-4699,-1621,2161,1023,589,-3772,-2740,-1945,-3716,1919,2468,21,-2915,778,2271,2635,645,1269,-2526,-1645,-1638,-2354,-1504,-126,-4072,1811,-5033,-2736,1217,1822,-1324,-4355,-1514,1736,-3929,-1427,-961,1580,-1375,2426,-1403,-3434,382,-508,597,-470,1239,28,513,-933,-1301,-2187,1109,836,-2757,-2013,374,376,-840,5042,1445,5005,-3902,552,-1911,87,1746,-3388,2395,-942,-5791,629,3791,552,-2648,-3028,-6963,-319,-81,-1193,1108,-4664,-1,-2814,553,1564,-851,-3647,-7,-1421,-3861,-3598,1281,1205,1012,472,2354,-1650,2349,
-2129,-2161,-2454,21,1857,-2208,1913,-771,-3901,-1113,-1758,1859,386,125,-8,-594,407,617,-1716,-2879,-1514,-656,-14,-249,1669,-457,-176,3285,569,-324,-3234,-1180,2574,-200,1083,902,-97,-139,-1691,-1261,331,-1617,-753,-3009,-3953,-2066,-2494,-447,-2141,848,-3596,2951,2145,-410,-2616,1181,-1260,-149,760,327,-1930,-954,-1221,954,-470,-2818,-1400,366,1779,-306,-993,713,-1693,-3803,-4510,-2023,-720,132,-1416,-397,-2300,-2198,-511,188,-3820,1832,206,297,-388,-1329,-1919,-1192,-1825,-1370,471,-1263,-804,-785,-602,1552,-1267,-422,-1618,-1141,-2066,-1689,486,-136,873,-1816,1070,-602,-1582,-534,-800,2663,298,-1461,109,-480,-2059,-3456,-1290,-97,1309,-885,604,-1306,518,-477,878,-698,1610,-993,-1049,-1088,-1134,598,302,-1028,-144,-2307,-1251,-2268,-2649,-1030,-866,-770,271,-1663,960,919,3072,2116,-1409,1571,-987,2526,-420,1783,3100,2954,2268,3745,1553,-752,558,-2040,668,-143,1239,1089,1848,-1791,956,-647,1162,-1776,49,1703,925,1271,936,32,290,-913,315,3221,-458,929,1462,1150,2127,2195,3226,51,709,1891,2461,2415,1804,-831,213,3347,695,-2613,-2278,1497,-15,376,549,-876,96,-1069,2287,-1219,-620,-198,6564,2116,3409,2132,618,4337,2536,1914,-422,-406,44,1964,601,2016,862,4201,1713,1316,120,1250,1287,1330,1028,1006,528,883,1813,-2806,370,3637,-1002,7,1575,-721,1779,-249,3333,4442,577,1732,3523,2232,392,2758,114,528,1578,-2741,1186,2154,1539,1208,551,-721,2034,954,-1806,-1041,119,680,1293,1499,42,903,3607,569,1305,3702,2647,2978,-477,908,2453,-479,-410,-1652,3109,412,1240,-436,3331,-141,
-312,-1184,-5021,-1984,1501,-4720,-289,347,-1784,-3640,-7632,-2629,-375,-3938,-782,-722,1909,-464,-1596,-1702,-2722,-2047,-97,-69,10538,288,-2657,2330,482,57,-1561,-938,330,-380,-653,-1587,-193,-2542,-3053,-4044,-741,-1499,-170,-224,-2447,73,-1855,-1598,-1023,6375,-2598,-3202,-2315,63,-3349,1521,-3368,-1628,-5408,-1733,10,-2133,-685,633,-1591,-2536,3644,-1508,458,1246,679,-488,32,757,-888,-3368,-2451,-434,582,-2861,2153,-2327,3357,1492,-2472,2032,1226,-329,424,-1042,1157,-768,4992,33,-3292,1444,410,-4403,-527,-1562,1893,-1687,-448,-5785,-1897,-2619,1053,-655,-1214,-1780,-2415,1803,674,-3369,-1531,892,-1336,-3444,-68,-3359,1223,-256,-2799,-294,-467,3220,-854,-144,-1387,-921,2206,-1798,-387,-291,-4679,1353,78,736,-1861,-2122,-5714,-1110,-2879,-2837,-2546,-1411,-3107,1847,-3041,-1219,677,1046,847,-2389,-1162,244,281,1116,-3577,-444,860,-719,3167,479,2297,1234,578,1115,983,1241,2038,1615,-83,-75,-1788,614,376,-1481,-78,-960,1188,-939,729,-2602,1018,1027,1000,469,-435,-1539,-596,-2063,-132,-572,-613,-33,-392,1825,10,4413,-467,-871,216,5832,-624,1400,-1208,1219,819,-1100,128,-537,-410,2241,-565,-165,872,-224,1454,-76,2205,-833,-1342,1334,3615,827,-1782,3,-3360,1716,1930,1020,-1104,300,4409,-80,-1874,-745,-290,1144,-140,423,1121,339,726,235,701,1115,1801,420,-3566,545,4950,-2694,-3048,379,423,847,476,146,-2445,-2442,-1758,1179,4282,-1266,352,449,676,207,1564,-1212,-2201,1353,496,2202,616,986,911,826,-943,1128,237,-620,2209,-3397,-914,-153,1096,-3522,729,524,664,-1217,-261,-3779,1096,-1455,1780,2795,
-334,1876,-3019,776,887,-4959,539,-1492,-2455,61,-5573,991,-931,-571,-3312,-1155,-2644,-281,-914,2455,-1878,-615,-3003,1004,942,3715,1735,-3580,-38,2149,-1407,-1471,-2196,2037,277,676,-1922,-4412,-2158,-4034,-2732,-371,-6470,-1490,-432,-2313,-3595,389,-1478,1941,-366,503,-830,-1260,-601,-3476,990,-576,-3955,-432,-2122,-222,-3934,709,519,-5150,-2448,1240,-5889,-543,-2797,3947,-428,-2706,-878,-4693,-2568,-1961,2818,-2375,-1301,-1157,384,-497,-4925,-146,-1170,-521,686,-1396,-4073,-3209,3292,-456,-339,-181,-2023,-1437,629,2079,2898,-79,1005,1001,-2843,-851,-3127,-183,-2268,-2352,-623,-1725,-1648,-3374,-3075,-1818,-40,-3200,1858,2164,-1179,-2080,3269,2273,379,2309,1097,1408,4026,-2950,1284,1471,-447,2270,-6460,63,1782,-4051,-2258,4797,2670,-1440,-250,-2873,-4880,73,-2813,950,3886,544,-1918,-3554,795,4845,-1833,-2089,-404,2536,1848,-1872,-1770,3199,3997,-925,1102,1853,1926,-1041,81,-328,-3256,-627,1548,-1567,-2292,-77,-158,-1029,1483,1120,3690,280,1665,2169,628,-290,-2485,-1806,-317,-2052,4513,-682,-3185,3297,492,-1839,5509,-2876,2556,2282,611,1315,2794,-326,-1688,-3341,-1840,2995,3100,958,550,-999,-288,-936,-1336,-650,1361,-2235,-5129,-1128,-2735,-165,429,1490,-3635,-428,3421,1653,1264,41,-2799,3255,969,-2784,2824,215,-1600,2022,-1901,-1426,-5289,-709,-3173,2081,4349,-3324,484,-753,2550,-399,-842,3857,-668,-559,1059,839,-3344,-4289,757,-2962,-335,2704,-312,3159,857,-318,1955,1839,1882,875,2707,-3109,-1148,-3786,562,1721,-1555,605,4649,405,966,-1813,680,867,-4521,-2733,-704,-41,3737,-1016,3461,-2027,574,-1623,-3013,-1727,-2818,-2224,504,2656,
1823,706,1075,375,3937,4585,-807,1336,525,5905,2835,-2139,-1262,2369,139,1385,-43,304,1010,4693,-1479,1477,587,1292,-345,386,1525,-3480,123,610,6055,1468,1649,3615,2079,817,480,369,1877,844,2761,1686,-567,1533,4168,1627,-35,-277,1388,-4174,1117,987,-947,-1444,1244,2220,1164,1258,2061,-1961,-752,2836,1527,1354,1718,-950,298,1300,761,2525,-565,3541,-140,2126,720,200,2150,641,-562,-560,-1119,1544,-1282,1890,-2428,2275,1315,2724,1600,1498,540,539,2237,-399,1869,2056,192,-242,-74,-663,455,916,676,1318,2610,746,461,3394,2366,-1398,-1534,276,-343,-47,-1468,568,-206,1840,-2070,627,2985,-193,238,1698,805,-2838,-1448,2109,877,-496,335,12,2054,-190,-455,40,3219,965,-739,162,2520,1859,-39,-860,2112,968,-1334,2463,-2948,-3370,-2505,-1912,-2417,1991,-1128,1459,-1117,-767,5724,-4115,-3080,-3363,-2030,-316,-385,1267,-3296,2162,-2726,-2571,-152,-1615,-2283,1058,-771,-1879,-1840,-889,-800,-2950,1778,-1786,-341,173,2606,-2291,-531,-2367,-622,-3922,-3407,-1136,-3880,-156,-1309,-263,3481,-863,-1362,-2082,-1395,3148,-390,-3374,-17,-207,3319,-940,-514,-753,3320,-338,-177,687,-1784,-738,-2343,-3298,-3274,-1313,-4481,-1713,-529,-452,-2654,-613,-1478,-259,-2960,-1348,-2018,-986,-420,-4186,-1446,-4255,-1448,-2599,-49,283,-1385,-3651,-3094,-2155,-614,-359,-309,-88,-620,-1425,-732,1337,554,-1841,-3856,191,-1177,760,-1287,-3215,1826,-3374,-159,-2354,-483,428,-1161,282,1064,-838,-1133,-3080,-1579,-1400,-1035,-5095,-2643,-1806,2749,-1144,-1199,-2893,-4025,-1085,-2560,-7,501,-515,244,-3317,-1985,1134,-1008,-1057,-1178,-696,-2225,475,-1885,1763,
-1080,2903,3568,72,-7469,-6579,1266,472,838,-3859,2689,-2466,-4553,183,1457,-464,-913,1971,109,-898,-636,2023,1494,188,-2808,3726,-256,-41,3312,1597,-5228,-1091,-1610,412,2742,-16,-312,-2590,-241,3814,-6062,775,3604,2430,-2933,574,-126,-517,2207,-1121,1236,1840,-837,-4861,-129,1345,6164,-3149,-2502,-144,931,2033,2005,2041,-2601,1037,-3366,-361,-3424,-814,454,-1530,2131,629,798,-1385,166,3370,5185,-1098,-1019,-2429,6451,-11044,2633,-502,-1952,-3900,-3270,2339,28,86,1405,1222,-2743,-1056,2998,-217,1142,7359,2947,473,4936,-716,-3363,-4929,-137,-2261,-2423,-1354,-651,-6260,2923,-2741,1887,-1958,-1808,-954,-877,-30,-3069,-1150,108,-1020,-1596,2241,1968,-5354,1416,2530,-1682,88,-2014,2314,3723,3148,1796,-956,-1491,739,-2406,-3835,2065,-530,1827,3163,3045,3008,4175,1167,2022,-3640,2787,-3004,-5696,-3412,108,833,5982,-3941,2694,-1425,-169,-716,-1303,550,933,-4807,2189,334,-851,2055,1023,-1606,2260,-3462,-412,-7383,-1126,2109,-948,-554,-1394,1948,-2725,1152,1100,4532,91,386,4732,-2161,1592,-1998,95,1767,3411,-1020,2200,1140,1232,-5777,-2320,739,1138,-1320,636,3904,-513,-1215,-962,-2086,-1228,218,2021,-1175,2888,508,885,-1824,468,-1425,596,2,-556,-186,-929,956,1310,2421,-1116,3893,-4258,573,-2971,-1411,1062,-407,3215,-148,-888,-224,1114,-391,-1055,-1239,3289,-478,2971,805,1275,-13,-2251,1694,-2759,4850,-324,-1780,-1766,-2392,-4327,2521,2613,150,2493,-213,1003,-3407,-534,-1189,3824,-763,433,-2693,-673,709,1077,1989,2081,1648,-3315,-2364,-26,1179,-5250,-1714,2471,997,-1720,456,-3094,-2951,-216,162,2266,2859,3020,-2163,-2583,4055,
-157,899,-2066,1624,-3125,-3246,-458,-2626,-1374,3165,-2704,-1185,-210,13,-255,-341,-627,-996,-721,1444,-720,-668,-1406,1439,4904,-162,972,224,1039,-991,2085,-855,-620,-1564,132,-126,518,-3159,131,-920,-3950,-1148,-485,1896,-1037,1131,-214,268,-15,1406,-2914,-318,640,-1772,-3526,-5663,-36,96,708,-133,729,-2605,129,-815,-262,-2264,-133,2557,-4548,-3895,993,-1808,-601,-1606,-3677,-1364,-970,234,766,-3306,-284,-709,1517,4139,559,3079,6,747,-2378,-1076,-775,-1101,436,-439,1244,-1640,-1012,-2126,-2277,-2802,-1326,-125,999,-700,-107,1163,-950,-2308,253,1317,-2924,-2853,-251,-755,-1478,-3083,-1071,-1527,1753,1865,-2472,-4364,2048,325,-1404,1009,-464,-574,1596,-489,-78,1976,-48,650,-205,564,-73,-3785,547,-335,2139,61,-1052,645,-2601,-1927,-825,-3405,4089,799,-2273,-3983,287,103,-1349,-4022,-1649,-893,46,691,-3230,827,-1895,-683,-1342,-127,-131,-3201,-852,-2737,-2052,-892,989,-360,-218,-1072,-1670,571,-1296,-1601,-1070,-13,2854,-559,-1759,77,1481,-1278,-2897,-647,-412,304,-543,-2133,-683,-531,584,-989,3410,-543,-1845,-474,-69,-1623,-2043,-2087,1906,-239,-1256,-747,1513,-1455,-1306,-3450,948,-2001,-2003,-1185,-3034,-2986,-3378,-522,-2268,-736,-3267,-1794,-2314,-401,-1370,-2073,-1871,-2110,3095,-2072,-491,-3669,2250,489,-370,-2086,359,-3189,-2191,-2741,-1602,-1877,-2891,-2270,-1614,-3175,-1151,-2307,-1556,-1421,1034,-324,-1547,-1849,-1434,1665,-1325,1653,-155,-2185,-3691,-1780,-407,-2690,-333,-1038,-598,-693,533,-2473,-2404,-3354,-2064,1609,-560,-1975,1244,348,-410,-2435,-2235,-2444,-1180,-702,116,323,-844,-3232,-3252,-2859,-963,-1354,-733,-864,-1621,-2604,
482,4980,152,313,-3899,1272,-3073,-3430,1670,649,799,-794,144,2071,5516,-3971,-2341,42,598,530,-624,6703,866,-573,22,455,-30,105,2654,1500,567,1234,-5817,-2363,2249,-3159,-1286,-4796,1690,3654,1239,2597,5539,1687,-1194,9,1994,-1778,1088,-733,-78,-207,2159,-2569,1379,-3225,4840,-1930,3645,525,-406,-560,5413,4048,-2583,-880,2609,-1601,775,1283,264,-574,3070,4777,-1094,3622,2129,5694,6606,485,-1859,-6906,-1037,1196,1262,486,-2417,536,310,5087,1363,1424,3652,3549,892,170,4045,-1118,-2594,-5975,426,237,1334,-2306,1752,-1959,7567,1015,2560,568,-5668,-2430,1326,2128,-1515,-836,-3129,521,-3106,-1984,-1197,-2480,1579,-983,-2812,-2253,-1075,359,1121,4878,2426,1928,67,-1426,2438,3180,3362,-4080,-999,-2078,-261,2178,42,299,3392,2945,877,-4235,1467,-1093,-6381,-1267,264,-705,171,1074,-3797,-4568,1856,-1791,-1644,-1678,-1401,-5522,-625,-1264,-4187,-639,2158,-3903,-2980,-1047,-2002,-2485,3671,-5058,-2512,-1303,-2390,-1451,-4796,148,-2456,175,-6314,2070,-1534,1151,-1128,941,-4162,-3950,-2494,-1884,2088,-1734,-1174,-1706,-772,-2718,-409,-3307,-2963,-1968,1055,2359,-4058,-4090,-2996,-4406,2371,-1582,-1165,-4256,-1808,-2584,2908,-1032,-2228,-376,-976,-1470,-4823,163,-217,-1732,-3639,-881,-5391,-3063,-242,-1528,-1570,1230,-1656,170,-3260,488,-2644,-764,-1515,-683,98,-889,-6190,-110,-1037,-1804,-441,1404,-1230,-2940,-1105,-2548,-4577,-472,-368,-1206,-2097,-801,-1290,564,-586,-5466,-1653,435,-3223,-1876,-5504,-1072,-1196,480,-2809,-1344,-1414,-4296,-3264,-328,-984,-1090,-2673,-4301,-572,-838,1122,-4391,973,-4123,-6998,229,-2161,-1653,-3446,-1591,-171,-3324,-645,3255,-1916,-574,
-3124,-3850,-2411,948,-1501,946,137,-1743,-2131,-2117,-1943,-2492,-1655,-230,-1862,-593,-908,2161,-875,-1037,-4537,-367,-1388,-1623,5129,-1538,-2297,1257,-97,2276,1515,-1202,-1018,1230,-1909,-195,-784,-814,-275,-2378,1816,-1316,-2234,-1116,-1377,-1725,87,-3500,269,3579,-4263,-2942,176,-534,-2738,3616,-2156,660,1119,-2331,-792,-308,-1357,822,-5319,-1294,825,-3821,3799,1982,-632,1758,-1319,508,-465,-3469,2248,-74,-1450,0,1256,-3283,2053,3896,266,3107,18,943,3774,-1611,244,266,-1020,-647,699,2768,-2416,-3439,-2862,716,502,646,-4651,-153,-1012,-778,789,-1556,1651,-5724,1273,1517,-1091,-3221,-709,-174,-573,1438,-138,-528,-1978,317,-5553,704,-401,1461,-683,-824,32,-1656,2816,-4356,-1903,1358,827,-1057,-1428,1073,-1897,-1055,-2267,2437,-1135,-8132,-861,-383,-2382,715,292,-764,866,-427,-271,-2959,1476,-2844,834,817,-4284,-1326,-865,-1878,-3735,857,254,-1673,-441,-1034,489,862,-1563,-752,-1296,686,-902,-1527,-995,-494,6,-1693,1938,590,-1998,-764,2520,-1162,-281,-1273,-1060,-2592,1060,-302,-703,55,-1073,-682,1007,1194,-10,305,-1310,722,-2983,-700,-2988,-493,1711,-319,-1237,-657,-192,-403,-433,1157,-1021,-923,-359,512,1664,-1871,524,584,314,1575,926,-431,350,153,-2289,-590,1337,-1080,866,3067,67,-1275,731,-553,-2248,-2654,964,-925,1313,-1829,855,459,-48,-649,-1772,1253,-2177,1046,1828,-2635,-2189,-1000,-477,-799,823,-1548,-290,-2927,-1896,-488,-259,-1575,-3596,-458,-22,-810,-1371,-959,1966,1947,-1014,762,1313,2925,2326,-724,-1295,1090,80,-366,1012,-1092,-29,-510,-707,-1942,-688,351,-816,-2016,-1236,1743,-1205,-1507,-804,-3303,
2579,1964,2590,-1817,5819,-3737,-879,3051,2010,2679,275,-1646,4025,1149,337,824,1083,-1086,1458,1933,4047,3298,4870,973,-9720,1753,3859,-510,1587,-2001,1434,1526,-465,-1577,3983,2163,2956,-891,2272,6294,-2200,2647,1200,4557,3654,3388,-516,5326,1621,-2486,3563,671,1924,-690,2665,-887,2383,342,-1011,599,645,569,2894,-6,4456,1941,-2188,4396,-45,-901,5028,-1539,2898,2835,396,3852,767,2442,1799,-2136,275,417,1549,-373,-103,1004,799,-771,-4079,2740,1640,-167,1121,2762,200,-496,971,740,78,-2589,-1321,2117,5331,425,10,1699,41,4270,-1934,3153,-1269,-2728,2080,1438,1280,-613,506,1716,1051,-801,1016,3524,4832,837,862,1202,1022,-2159,487,510,211,3600,1667,2037,-293,377,5345,-1014,1075,3221,2087,-481,2330,4482,588,812,1553,-2620,-494,631,-4824,1015,2469,-948,-732,-1562,264,816,2616,1040,-2399,1071,-1083,-2467,-1457,-3806,902,-2034,954,-6626,-470,-778,110,-2715,-932,132,-694,-85,1989,1996,-997,-517,634,-2010,-5859,2731,738,1922,-588,1014,1123,1035,1201,-371,474,681,-1514,-366,-1271,590,-1433,219,364,-1859,657,-1410,-1704,-1931,661,-1003,2902,832,-91,243,3124,49,-16,-1283,-131,-246,-1475,-1707,-1837,1751,1277,390,-3114,-405,1459,-1191,744,-2037,-315,445,-1539,-2297,517,342,2825,-349,2474,-861,-1587,309,-21,105,-2428,-603,-4176,-1841,-857,-2845,-2334,841,-55,-327,969,-90,541,2106,-2208,2145,-2111,-619,-2401,216,43,-1064,-2203,-921,-216,-2517,-87,-415,1539,-180,-1253,-55,1104,-1301,-710,-2674,-150,-2332,161,-574,-437,-1150,-1199,394,-148,-6,653,6403,-384,1235,-1294,-141,1778,2025,
-227,1739,3206,-544,1648,125,-416,5639,4063,128,8127,158,627,-520,302,1982,-566,-278,309,1903,2960,2715,2921,-89,-7391,320,-395,-1390,1019,-1133,1676,3992,1405,-101,2096,499,-925,438,2638,4102,189,2519,519,1947,1636,1261,1735,1106,1936,-11330,2139,3048,-15,2015,2364,-1232,1275,2305,69,1324,1048,3012,2042,992,2356,3315,139,693,-1655,-142,2241,880,729,3213,1045,659,219,605,1099,-850,325,2401,-2856,-4623,-334,-937,-42,-234,-551,3178,32,796,835,2280,315,-175,922,1728,822,-771,-207,1635,1286,1441,1763,1550,737,548,883,1492,-1228,-541,1095,2880,447,-684,1277,3392,412,-598,-122,1262,441,348,-571,-7202,-488,-1139,817,956,-1713,465,-396,-349,-1679,814,1573,1199,1007,528,397,-195,2050,6592,2813,623,711,-33,1604,268,-2270,-1244,714,-1861,843,97,-466,-1068,3809,-58,-1674,-384,-1879,-1100,-277,-716,-798,-477,1088,-473,-396,-2945,-1437,-2356,-1066,-760,-1306,902,749,-1361,-99,1030,-566,-726,-2695,2301,-64,1020,-1022,148,-1355,-329,-750,-1597,-1135,453,-625,-2159,-2449,-71,-2276,1283,1916,-1376,2744,-957,-978,-798,-871,-2857,1039,-314,567,21,-1958,2165,1939,-1650,-2858,-941,-1595,-673,-1251,-2456,-1373,208,-2277,-127,-1082,-19,-1297,-590,231,-1317,-1094,-45,-2105,278,360,286,81,-1717,498,-195,1041,1628,-1153,-772,59,-647,389,-1403,588,-556,-463,-2390,1774,-362,-952,-972,3499,1354,-524,-900,-1196,1166,-492,147,219,204,-508,-170,-1208,-139,-461,498,-1665,-1376,-467,-345,-926,-1718,-2354,1352,-1767,-198,-2641,-372,-1560,-1012,-651,-780,-624,4441,-889,-154,-343,1451,729,1627,
-1307,-988,-2121,362,-6384,-1596,284,522,-3867,-2045,-2088,1534,-1521,-497,87,-3228,224,-625,-2126,-2119,-2415,-340,-4978,-264,7592,1836,-875,974,1125,-913,-6040,-2358,-2245,-2423,212,-72,1191,-805,-1310,-875,-3626,775,-283,-804,-3101,769,-1614,-2180,-1695,4119,-3393,-780,-347,-466,-2872,-1923,3051,-1335,-1506,1153,-236,-3589,-857,131,-918,-2955,-35,307,1333,-275,703,-1850,442,-4289,-756,-3883,-1822,-377,-67,964,1399,-2992,2132,1418,116,-2080,-1,-1372,-2202,-1592,-1668,-1295,-748,-1970,-2759,-2119,622,253,-314,1218,-207,-306,-592,-1211,-3004,-4589,2191,-2990,-2040,-465,64,-5356,-1769,786,-620,-4046,-1101,-1585,1825,-3901,-1329,-1396,278,-3008,-2413,-706,-258,-2593,-794,754,4659,-138,-1247,-1668,2447,288,-618,-1858,-504,-1126,476,-802,-904,-2569,-511,-321,-2351,-1355,374,-1609,2886,1179,1436,405,-3119,-1076,532,1629,-2206,1056,755,1580,1316,757,726,-3325,2123,-508,2908,3006,29,1183,3068,673,2815,1005,1355,-1524,-2500,679,-991,-426,182,-1128,-675,903,1705,-311,-68,2047,2317,794,-1050,2462,1337,3009,1313,1066,4640,-1596,2598,-3372,-1436,1469,-1714,-687,-302,2134,-680,1419,-1233,-1708,-222,2892,3286,-720,3970,3314,1736,1458,1790,1798,383,1943,-319,3248,29,1706,1903,-1562,1304,3326,-2611,75,2890,2125,2027,2590,-796,-1272,-986,337,2202,-1639,-892,631,-20,312,3695,-1727,1985,782,1556,3316,1120,4625,-1121,1246,1195,455,-6018,3145,-1152,-310,2419,-76,-1001,-2402,1176,-2980,-65,3774,3398,-549,-2332,2647,844,3576,-2181,3221,548,777,2179,-222,2103,-363,-808,2043,1522,2885,-3304,264,1284,-2710,1049,-1942,1251,-4207,361,-3143,
680,-382,-1772,-12094,0,2176,-334,-2516,-974,2619,7509,-2510,-46,-49,961,-2514,-1288,-107,1051,-476,-950,-1874,2495,-2549,-1522,160,1861,218,2759,-3101,4243,2397,1659,2276,-1175,2602,-840,-617,-1282,1396,-1529,-1351,1569,-2594,2119,2773,-1289,485,-2001,-3903,-838,2759,-4777,-2916,-1871,1055,4151,-2661,-6874,-2669,38,740,1533,3435,-2212,2999,1907,338,276,-135,3314,-1269,-1131,2847,-756,-320,-2934,1902,-874,-3063,1762,1827,-1312,1361,2140,1011,-2285,-150,-832,-234,3900,654,2326,-1196,3084,1416,3974,-5090,164,-2088,390,-2592,4220,-1217,1419,150,2498,-890,-1471,-1997,165,916,-3676,1179,2781,-1596,-584,886,-1070,-2655,3948,1984,-987,-2213,358,670,1627,478,2437,124,-968,391,1718,-552,-1829,439,5103,-1254,732,712,-37,963,-1524,-1563,1971,6373,-624,-2160,1257,4163,-154,-1612,-1128,-1862,-2145,1517,-2191,4712,2607,-311,-1179,-1533,2824,-3224,-2532,3995,-1821,-3250,-3651,-7789,-3532,-6977,-3878,-3962,-3048,-3719,-2298,-4939,-203,-2339,-4901,-1017,-1184,163,3412,1094,-3862,161,-8342,-4941,-1407,-4807,-1308,-5556,1741,729,-3331,-7584,-4275,-1515,-2409,667,-1007,-1346,-959,241,6179,-1337,916,-5364,3958,-154,-6791,-147,-131,1530,-1611,-6136,-717,-117,699,1980,-3306,-1637,-611,-7438,2688,-1748,-1181,-1757,2334,3126,1545,2186,4978,-865,-2248,-2983,1303,-7427,-207,-5608,-2874,3574,-1615,309,-498,-3841,1387,-805,-3318,-758,-2174,-6914,-3457,-3368,4369,2217,-2706,-5773,3001,818,-496,-656,1071,-906,417,-4443,1290,-1572,-3538,-4723,-1645,-1220,192,-2177,-2097,-2475,2606,2145,-1071,-3663,-668,-296,-5439,-6526,2425,-2654,-873,-4914,-4778,-1963,-5080,-9201,676,5501,-886,269,1551,2015,
2633,440,-121,-3499,3100,2061,1786,-1259,849,-266,829,-165,-2003,2056,754,834,346,450,-1075,3973,104,1186,-1479,-2178,-1967,932,90,-2136,1732,408,-770,1201,-1147,1032,676,-282,876,2795,-57,-1930,110,938,-2009,-3250,-603,-273,114,1839,-2253,-1075,-39,-1854,1126,-307,2726,1534,-451,-2524,-4254,1431,-1439,-1403,629,1377,1293,2144,2754,890,-2264,1828,-941,-1297,1337,-902,617,464,-3304,-905,1166,-3549,823,-482,-4282,-2246,291,-955,414,-1719,3544,260,-234,-275,1730,806,303,324,523,718,3388,80,1238,2609,2347,-473,865,3134,762,719,1893,232,-1805,1016,1929,3625,2237,3714,821,1535,-2479,125,894,-1500,1187,308,-242,-144,620,-83,-184,609,-655,1183,1257,-2301,2231,1225,507,-2350,1903,2107,2015,776,-109,564,1306,-647,935,-1031,794,1567,1927,211,-9,24,-955,1287,-779,902,752,1201,2054,479,762,3413,1803,1136,2015,-510,-1332,-1783,1283,1387,811,1129,-2581,1387,1812,1460,1358,1605,202,787,2381,324,613,-465,-21,369,2078,1294,2030,-302,-1595,3028,1032,2179,285,2182,697,2584,1966,1800,1506,-1228,1434,972,2777,1137,4067,1424,-1985,1917,2325,2060,37,148,1035,959,-281,2988,2266,155,894,1607,7,3084,354,1932,521,2256,2100,-510,-2121,449,254,184,713,-1128,-885,-44,-1291,1667,2917,44,1204,1276,498,1467,367,2665,-2274,1536,247,2789,-941,2128,1167,1112,-673,2675,-536,-733,114,175,3222,1442,3074,2216,2104,1508,2552,649,224,-1047,3262,750,1312,-514,-8,4029,1129,1525,1099,1012,-505,1861,1260,718,1348,-146,652,1948,1547,1649,2487,-563,516,909,-851,1423,
1473,2061,2911,-886,3671,1789,-375,4098,4294,-670,5673,158,494,1256,648,3327,-109,767,2075,1648,2093,272,80,284,-3446,-188,28,-2114,-288,-899,3611,2329,683,478,194,1325,-775,2421,2089,306,335,1341,193,1413,2419,694,1567,1331,1734,-6906,2125,519,-452,647,1177,894,1349,910,714,1522,2357,3607,318,1185,3489,1102,-109,1467,1453,-151,765,1918,1090,1060,378,4507,848,600,1082,-173,151,2880,-1377,-6553,-921,-1725,987,1255,104,1359,1357,2526,164,1327,-599,-84,1160,1092,1474,-1054,103,1433,1737,2267,1413,1916,290,2756,2486,2007,338,2645,263,1720,1709,686,1554,970,-1922,-402,782,1212,804,-477,-864,-4852,-967,918,346,721,-2342,2271,-70,635,531,-100,1466,2805,-214,1368,2395,764,1651,3501,1912,370,1452,139,470,1306,-835,-4,-1152,-1527,1373,1677,38,-1048,2351,-980,-1131,185,535,-518,397,168,-1262,2318,-73,-693,1412,-80,-1000,-764,497,564,-612,1894,1340,-367,1706,944,1273,-785,682,1065,-1378,-1606,1538,207,1320,-1202,1514,-1556,-3484,303,-1479,890,-3625,-5,-479,1469,-115,652,1566,293,1403,-1830,-198,-27,170,-474,1954,1048,-1240,376,-255,-283,1892,1361,1413,1096,-292,-1377,-1143,623,-450,229,280,2016,-845,284,312,-3269,-1685,2024,-1603,530,1863,1967,566,478,2000,1304,-472,990,1391,446,731,639,-180,339,-1674,1256,-790,-3825,1855,547,-850,838,5292,-665,849,-257,-998,1911,954,360,183,1464,1368,1083,-1311,437,1148,-2369,358,-1852,229,95,-1043,286,-1541,1306,-2416,1462,405,476,-842,-536,-311,729,1124,4113,490,869,-366,1089,-1652,1908,
2828,-2683,-3486,-1456,1924,-1773,2574,-1579,-2812,2649,-2452,-2090,-413,2062,-1670,2127,1343,2618,312,3263,1185,-1796,-50,196,-853,-2266,2215,161,-2497,-1522,1558,-1005,-989,-1467,-1620,-1112,-661,379,724,-2177,1104,638,-1906,1848,90,-2812,-1098,2776,-3461,2742,-250,-508,1366,2172,-1943,509,-973,-607,162,-1768,1501,829,-2043,-3645,1426,-1444,-3220,1097,-1169,-1073,-2203,-2074,-848,1813,-993,-3137,1208,1612,-2251,-2174,-2088,-274,1776,9443,-2768,-299,1915,-1228,-6448,-756,-2730,-1129,745,465,486,-45,-5108,323,318,-4838,-996,-96,-84,-205,5298,2462,-2879,-2172,-2933,585,-1184,-2060,1102,-1262,-165,-3120,-4612,967,3947,782,756,523,869,-743,-2269,3850,-337,1584,2272,-1365,2688,536,-171,1916,-637,-2308,-2847,2299,767,1042,692,-1020,-800,1800,-2934,2673,-2306,201,-763,2078,1476,3645,-396,-1839,662,-6616,997,-2697,-2569,-633,-2059,-1719,-4278,-2642,-382,493,-5141,4194,-2426,1843,-1664,-4303,311,-923,-2412,-264,1144,-920,1088,996,90,1028,-569,-1089,-143,-2299,-951,716,856,-182,-5758,2131,-2848,582,629,-191,-1466,-905,1826,-1612,-2064,1443,2559,1135,215,-1912,-3820,1072,-1468,-350,-1228,109,-989,350,2670,580,-256,3983,-2243,-121,-2158,2642,935,-4614,-2692,-2560,2138,-3620,3748,-1510,-3447,-837,1001,1341,-821,-1133,-1798,-583,-4625,-2278,-2164,2476,-884,-104,1783,-3663,-2096,-2485,-3965,-293,-2111,-2216,-928,-1142,4245,-2825,-2854,-1876,-847,-1161,-7850,-1428,-4797,-1096,280,-35,4622,-2748,609,404,-271,3763,2051,-2717,1399,-1825,-665,-4146,-108,-3474,-411,1684,2086,1170,896,2408,-3115,-2201,-4160,-792,-329,-75,-1413,317,-4670,-1770,-4832,-5834,-334,-1393,
-196,3889,-369,465,4992,-2518,-1511,470,-2959,-1676,-5369,-3738,-1705,-1177,2198,3077,2668,-2575,-109,-11,1872,293,2818,-1529,-1494,-432,-726,-2479,2634,-4128,442,-1575,-3724,2531,-152,-892,-1145,2152,112,-480,-1591,-906,174,234,-1603,-138,-1522,203,1595,1372,2010,-1074,-1068,-1122,517,-1740,-3645,-1325,-4712,-2785,-3609,-28,2275,1493,2480,-597,254,-1649,-187,-1596,-57,-983,1856,918,1596,-572,-1339,2746,4175,-2065,-490,-769,1234,148,837,-757,1087,-2659,-37,2183,-46,2562,1604,5123,2569,-705,3529,-1247,2835,319,-5676,254,4058,-2449,302,388,-1240,1783,-2294,-2945,943,2346,2404,-2535,2232,227,1200,-554,-2032,-2493,-641,10,118,-862,-3546,3521,-1122,-525,-56,3635,-2434,-319,-1938,1994,-3314,3821,1217,-1387,-1383,-1387,-748,-964,619,-422,-1466,-713,1100,-919,-1398,1813,-877,1932,1208,-1880,-2038,413,-864,796,1008,-6338,503,-921,548,904,-1265,1816,270,-207,1843,102,2132,695,-2894,-104,348,1567,-852,-1135,1023,2062,823,-117,-1136,-907,-1413,-268,77,-2219,-286,-63,-771,-77,-1104,296,357,624,-380,1654,-395,2759,-575,999,4040,-2229,1609,-1045,-2140,108,3693,-727,378,1822,996,2595,-1531,140,-160,4,-1215,-140,-2045,-429,-1720,1626,2484,1700,1485,2461,-3579,1026,336,-3668,-2097,713,5229,-215,-1150,-1300,-157,438,-1123,-2064,1314,-1711,1850,284,-1160,-526,666,-2601,-790,931,3223,1341,-6004,-926,-513,636,-1836,-912,1362,-3286,2242,1836,3142,-1383,2137,685,-357,237,1818,-3693,-2872,1683,1388,3270,1532,-3816,72,-446,-529,-1608,213,-403,33,-5087,-933,-2747,665,-818,2901,1714,762,1593,-289,479,2117,-513,1854,2754,
-1060,-1131,522,2654,4603,6385,-300,-1095,1108,-3967,5868,704,3284,222,-68,1625,-119,2368,2019,-1591,1857,447,632,610,-1601,-1884,-213,-604,-303,1482,381,2909,2545,1489,1810,1202,-174,-651,782,1826,7077,-545,438,-906,3093,325,1825,-626,907,184,1739,761,-352,-2085,2928,4982,1265,919,3373,3099,2848,-743,135,2916,-333,3034,4597,-944,4342,1572,-147,1185,1728,1173,2349,2318,2205,1239,-345,3324,3040,1978,-2146,-5344,1393,1812,1373,3219,3869,438,1274,1637,-2705,-141,1416,1779,2720,-184,-1111,1596,-1449,-392,-1930,1119,-4191,-1106,2027,3930,4010,-670,2125,3200,96,1560,551,3830,2333,1066,-1654,1260,3767,3826,-2731,1181,-131,-1308,226,2012,-1223,1403,611,-2619,1566,-1509,-2163,-45,1632,6534,793,31,-2345,3567,991,-536,3123,5847,1995,1848,-3474,2650,-1915,-554,-1554,-238,799,3343,2612,3319,978,-2494,1500,299,921,322,-3,-1248,729,37,-251,1487,1729,961,-1594,-453,925,-2098,19,817,1295,-1659,-553,92,-3440,2533,2157,-1082,-2179,-1282,148,2528,2555,-823,672,-1378,1598,-2065,371,-2861,-4093,-236,2121,902,1172,-249,169,-2227,598,300,2674,-963,-1439,3498,1172,246,-2987,-203,-2431,-754,-2183,-477,781,4641,-428,73,5597,1498,1117,589,458,1159,1937,-2247,33,1442,4002,3150,-2575,929,719,71,-738,-544,457,7005,-825,2116,1604,1372,4411,1836,-925,1339,-1757,206,-2599,1609,-683,88,-992,-1812,6042,-3073,2673,798,-195,1796,882,2661,231,2555,998,-697,-508,-237,-2410,1385,657,1291,-779,-1699,2641,-2660,-358,932,134,909,1324,-755,329,482,1802,1891,1627,2871,1215,1573,4215,2930,4834,1669,
-70,2144,13,-818,-372,1411,-3189,-1501,2896,-1554,2143,-2954,-1568,-122,639,472,-571,-1090,-1371,493,-549,2609,-695,155,-3434,1745,-1948,-2165,-1273,431,1782,-1590,268,-2580,853,-3375,-376,-137,660,1457,2765,687,2668,-468,-893,178,645,-3248,-1273,-4441,1316,3855,-3262,-4319,4894,-4031,3602,484,1971,126,-2026,-823,1560,1787,-2486,4715,1649,-2991,-1675,-2471,-3870,1984,1340,-647,5204,2772,-817,-3500,2448,-494,-1147,-1317,-2983,545,1483,-3223,-1306,1570,2769,2225,-1248,355,-323,-1777,-356,-145,2275,-476,-15,-5110,3959,-2206,-3273,1698,3403,-389,-264,1377,-437,-506,211,-1311,-470,5212,692,-1446,1910,99,1481,1884,1936,-266,-813,-401,-2386,-3652,-3222,-919,-51,1388,-1688,-563,203,-440,140,2898,1685,-2687,-119,124,-2459,1396,449,244,1890,1246,-446,888,-366,-49,-312,-1516,-663,3714,-188,2355,1259,-1726,2925,-1279,-143,677,-977,-1466,1127,476,-311,2863,-1016,-2119,-1187,2631,2292,1004,317,431,1445,2981,-1315,952,-1092,-3991,-2169,2945,-329,-880,686,562,1687,3102,-1932,533,2611,2082,-72,-515,-312,967,-2816,-5833,-1378,-703,-1681,-2787,1184,864,-13,548,1033,1786,-53,791,3888,2020,-3625,367,-1199,-1653,-4256,-786,983,-2429,657,917,-63,560,1937,-1925,-3548,-706,-1476,-592,5363,50,-751,3329,-574,1613,-2861,2147,-3345,1288,2650,-3202,2069,-656,2687,-843,1541,615,26,3149,-1671,1272,-1175,508,-2950,972,-2033,196,-351,-400,148,1419,1969,1425,-1934,1220,66,912,-1106,2014,-904,2156,946,-1132,430,-885,-390,1719,2087,164,680,2426,-226,606,-334,-738,2060,-190,-1615,-243,723,-673,591,-1927,-939,671,1114,-145,
-552,-897,-2961,3173,-119,-1350,-427,2819,-839,1015,-4036,234,-889,471,30,-2600,-896,-4673,-56,-1033,-3317,-125,-163,-551,3045,367,-1710,3724,216,2292,-563,-2529,860,1823,-3313,-2285,-907,1345,-1443,-1603,421,-296,922,-2142,-2206,-2166,649,-6464,-2323,4003,955,-2590,-2417,620,-3641,946,636,-1755,259,1147,108,722,1884,-683,-4608,-900,3904,-3445,3647,-880,-1597,2608,1279,-1112,-1726,-4795,-1375,1329,-1689,2088,-1421,33,-3244,3337,3431,1406,-1241,-744,-115,11,868,-1315,1837,1099,4871,134,-332,-3372,-126,-2425,491,-1087,-3269,159,938,115,1796,-2474,2469,-226,2681,1114,3317,-2158,157,-2312,1891,2123,-348,1178,1093,1886,-4494,640,-1067,166,-1839,1783,-1829,750,3528,-4081,-1517,-5,-4878,-555,-1740,-1722,804,-1096,-1108,1373,-563,-3727,-3644,73,-1635,161,-58,-2288,1387,1383,790,528,895,-1002,1403,674,-1002,317,-717,1252,-1087,451,1287,-2130,-799,1508,209,-859,-1521,-1533,-671,-1322,-111,-1677,-1914,2948,815,-2479,-1584,-277,-2094,1276,3073,-2781,-2218,-362,-1990,280,316,-2350,-125,755,547,-437,3350,-3525,-3084,1511,-1448,1006,-902,1054,-313,-2707,-1191,-5708,-4393,-1141,2913,145,-2666,-1115,-32,-1216,-4780,-1040,3261,516,-3922,1060,-3165,-252,-676,-703,-1705,2207,-2418,-40,-538,-715,1617,-670,-2857,-1032,-1194,136,-3061,-2493,-2156,208,-1420,-893,-2249,669,-2238,-3438,1080,-3176,-609,815,-1106,-1547,2150,-2446,-2165,723,-720,-2008,-1669,-2336,-4244,48,-1857,-1802,-2290,-1693,-4004,-355,-1716,-2930,-2552,-1343,-1171,1870,-3097,-2717,595,-333,82,-268,-1430,-1216,386,-316,2701,1600,165,1437,-1239,60,-1848,-3373,209,3553,2750,-1108,381,-603,
-1559,486,-164,-3111,732,-1207,-202,1226,966,780,1974,-2200,622,-2031,-1541,-3376,1335,-5240,170,288,329,-2425,-337,-2071,-1878,1769,-921,-3125,-3527,586,2546,-3637,2089,-396,-304,1719,-1,833,531,559,926,-295,-1150,-2963,4127,-1352,-2325,-1636,748,-783,1706,-249,2331,3087,-1491,-3763,-1303,1894,286,-1983,-3146,-2494,-645,-465,381,-2290,-2692,-1918,1317,-6431,-1693,820,-2401,1746,-1325,444,-954,-3441,-2544,-382,652,4955,1221,-426,-600,-2251,846,344,903,-609,-1358,-42,-710,-584,1907,-2305,-336,-1904,-81,2315,-5923,-4233,-2358,933,-916,714,-1588,1855,-859,-417,2900,1480,-5954,-1504,2271,-117,-1161,-2916,872,833,-771,65,-1358,976,-46,2119,-133,1750,711,148,-2709,-2034,2780,2662,-1604,-796,-1917,301,354,-3495,1477,-1079,186,1925,-3503,1172,-880,-901,504,2582,-1202,1734,2226,-702,-851,4649,-73,3451,-426,4152,6302,364,3451,-1173,518,1497,-1737,-3345,3555,4407,1104,4200,1990,-277,-928,-913,-247,604,-1969,2577,1548,-945,3022,-469,2774,-1370,-421,2146,-339,1498,2782,2886,3057,532,-1712,-338,-1555,128,-2437,4298,1128,938,5685,-3165,1348,-3239,2691,-977,1058,1158,3485,1661,711,1157,631,4532,-2352,-1269,1608,-1009,1193,-73,-1054,4879,3435,2230,980,-2406,756,5432,-2153,597,-352,2044,1634,-1618,2715,518,953,1492,2129,1304,-618,-1147,-102,774,500,3032,-1677,-1555,2803,846,-3094,-348,4464,90,-31,3549,2206,1440,2303,-303,-4,5530,-2252,-1309,6359,1448,626,301,3893,-1568,185,1324,-2781,4308,564,-2278,2053,2128,385,781,3016,-5843,1140,1699,3671,2292,1202,-2331,3305,-188,2970,-688,2549,440,347,1955,2331,2020,
-661,-2164,2157,-1294,-1271,-29,948,2185,488,850,1020,3867,2578,-1004,-1188,-66,-187,4768,1377,2053,1455,-3246,-3644,3947,696,1835,-288,-395,-1680,-1103,2986,7,4164,-2235,-1523,3675,497,-2466,375,-2170,-4129,-1600,-2030,550,244,2841,-536,1652,3508,288,-1689,-1598,-1609,1848,663,2597,-726,604,-40,1958,2605,-1473,-4441,479,877,-327,1501,-43,-805,726,1321,3877,-565,-1737,2180,-1491,-3691,-2168,-2447,1045,1417,1206,-658,369,-1345,197,1989,2543,462,-3576,1139,609,-3122,808,-1895,1712,34,1875,17,1140,-3090,210,2020,622,-357,1909,1042,1065,1289,2657,213,-295,531,-4613,-4290,1896,1333,-2500,-445,-838,3273,-1372,936,-868,-127,-2141,330,164,-411,-1815,-571,-335,1029,-2214,4168,-940,574,507,-84,-742,2731,1161,-575,-199,491,1009,985,-322,822,-861,-2927,-1171,-4207,-2456,-2014,3558,-3816,816,-712,1373,-2584,189,2608,173,-1923,2888,-1385,121,-1055,-1416,1602,-880,-819,785,2025,-1841,-96,2347,-1493,532,-376,-1030,630,-3158,-793,4605,-721,-4034,-1513,-369,-406,-1366,-152,-2315,215,873,-2613,1504,1442,617,560,-72,1701,-1485,-1087,516,309,276,-1118,418,773,807,1491,-2377,538,-1612,2360,-772,-981,-118,-1065,-600,-2612,-2371,-141,-860,-3499,-1169,-3035,-484,819,3299,-1616,-5084,-1476,-2505,701,-2808,-2898,2450,-2051,-3657,2308,-1116,-2493,-526,-4067,333,1817,-299,1608,-1553,-829,1426,156,-2046,202,-554,-833,1980,1703,1953,1558,213,-3777,-528,1791,460,-300,-2803,1583,1475,-1975,-796,617,-2015,-1856,-131,-622,-3295,-1140,-1804,1202,-1967,-2009,-2634,92,-994,116,1581,-1157,81,-73,292,307,-859,681,400,-3733,-1713,
1833,5359,2321,1517,5021,1425,-247,1342,2530,710,2394,-873,273,524,-432,2878,1625,60,921,4742,1788,3304,-1562,-229,36,4721,1445,-4408,804,-513,2202,-1948,-2282,-2159,3747,774,288,-2302,3609,1562,547,3664,-1987,1606,2618,4037,-479,2203,5329,-5145,1080,4235,213,-4389,247,-4760,2521,2153,-2500,-1335,-2032,-1048,-192,3038,4232,-1550,-1768,4234,486,-1932,1911,-1843,3829,-575,241,-815,2116,316,6304,2200,2480,893,-2360,-3009,-3366,-1542,1635,3603,-356,1843,-1032,1893,3869,203,-1656,3048,651,1517,1476,-2872,-1757,2446,-993,41,-76,-420,1244,4122,2450,4669,4551,351,-2913,-723,298,-1853,-2176,-2369,260,-1668,1212,219,4536,1678,-379,1125,-1431,-553,112,1117,814,4497,30,6750,-3913,1753,7544,-1912,-1753,-231,3074,62,3001,3497,-177,-1148,2857,-234,2264,969,-2932,1587,1401,-2127,-2440,3694,-260,-2495,3086,-2896,747,4159,106,-1949,-165,-975,-285,-1981,-324,-2885,1244,564,-28,-1087,-60,-518,-241,3102,-1844,903,-501,-519,-103,932,-1370,1852,-743,-356,920,2310,2073,80,-1190,1934,2,-496,757,2251,-2546,2084,-1513,-1631,-158,-7746,2127,-1416,-762,-915,-152,-146,4425,-2010,3334,2453,226,430,4311,-1393,-117,1810,-1697,-358,-1823,404,-1707,1043,-2502,-2223,-931,-1670,3166,-5372,1666,1177,-175,-1031,99,2311,-1590,1415,-2080,-69,1796,1695,884,-2,-1772,-1577,-2028,-3178,623,647,-1497,-637,-162,500,356,-3196,3899,-925,301,-585,-2180,3887,730,-1544,2271,1423,-532,139,4681,-2099,-1677,-212,2658,2066,-2932,-1592,3494,-4311,385,-1692,265,-1872,-1190,-1944,-42,-71,2493,-114,-105,-862,693,3283,1829,933,-4697,574,3736,3167,
3021,3491,916,3988,2140,438,717,-1989,6220,4380,1245,-114,2913,-132,-401,-1757,-1501,-1659,2435,2962,1674,1288,5342,2080,931,44,3931,-2545,1993,582,5844,-496,1512,4491,1213,-292,1555,-2124,2364,631,958,1912,442,1499,4195,2358,1111,4756,-472,-4386,90,2390,5286,242,889,725,334,1229,702,893,-2052,1051,-77,586,4391,-862,-5771,4393,-2361,4441,723,944,1571,2823,-489,882,2896,2818,2526,-404,-2113,3039,6424,-375,-4096,1118,1314,-2286,-1444,-12,-710,580,3426,-2773,163,5153,543,847,-1669,-555,-1529,2427,-1899,486,5509,-220,252,671,-3951,4023,703,-452,-1660,1288,-411,-2049,-1789,-1749,918,4508,-3884,2079,4006,1955,3205,-1169,-28,2242,2229,661,1483,4456,1881,3904,-2819,3558,2416,-3535,321,3430,1490,-924,2039,5350,-737,2195,-733,-676,1132,1355,-3757,456,342,-3775,-2215,-3722,-2347,-3788,2005,369,-378,-2151,533,-2333,1052,102,-1220,-495,-4560,-2666,-2818,388,1410,706,-3899,646,846,-3214,-3551,-963,-1486,-3136,2860,-1711,-2649,-4050,3299,-54,1046,-3369,-275,-1044,-6014,821,-2837,280,1469,-3376,-2563,-4320,-3299,-1231,-2663,-4028,-2557,-1892,1987,-3485,-2876,-2687,3696,-2576,-975,-1736,-733,-3159,-2375,71,-2604,-648,-4909,-2308,841,-2218,-5479,-2739,-328,-705,1092,-715,-1482,-1853,2778,-4265,-3708,-4540,271,1294,-2441,-642,-764,-330,-4391,-2225,-1668,-1495,-433,-2993,-977,-1478,4253,838,807,-2525,810,607,-963,-4113,796,-1595,-421,-2329,-4761,-2359,-4186,-275,167,1553,824,776,-216,2488,-463,-7387,-1943,173,-298,-658,2620,-2185,-1550,502,-1387,-2910,-4767,-1924,-4043,-483,-186,-4637,-3333,-1608,-2504,-3240,-3924,-2164,-5596,-1042,819,3566,
1889,-476,1558,-2008,6198,1519,-927,2503,4941,4203,6973,598,3368,2961,-484,1465,-372,1108,3451,3161,2005,1128,2577,226,-7975,-1650,405,-2307,0,725,5456,2847,1362,2925,1194,-703,-422,1601,1391,2297,1447,1464,391,-109,5646,958,2733,1110,2201,-8435,2461,1994,29,1570,1996,1924,-1422,1550,2370,1711,1402,594,1014,562,3101,525,1103,1351,394,1519,920,3079,-912,3143,567,2322,597,381,-1334,51,356,1951,-5657,-6543,498,2712,321,5708,2303,1195,1598,463,-45,457,2889,1204,-1117,1086,200,-803,1442,571,-410,1664,1635,2513,514,3322,4574,2384,-630,3091,350,2948,1591,3271,471,2448,-1515,2848,2148,-1446,370,1993,2090,-4410,173,1316,1906,-687,-1602,1256,2558,1944,-1490,-323,1130,4204,1970,109,1515,1370,1067,4549,947,332,64,1269,1392,-1154,-3535,656,-83,-497,1074,-235,-841,2437,3975,-135,-2502,942,-320,-642,-409,1476,-770,358,-1714,-1125,-1403,-2009,-1846,-1882,-2088,-1540,-1848,1278,2508,-3065,1428,131,1487,-354,-656,-612,-1603,1439,-1202,-2837,299,-2436,1624,-2191,-3235,-1911,-193,-2882,-3870,-1644,-2731,1727,2987,3288,244,829,-993,-1444,2044,-3376,-181,-68,-2602,-3973,-1894,-1841,-3478,-3041,-891,-651,-463,1084,-1090,-468,-161,-2524,-617,-687,-1514,2897,-1151,-1984,3042,-1835,-3363,-2057,-591,1393,-272,172,2616,-1206,-3503,3392,-138,4,-1694,-2694,-4126,1495,-357,-1697,-740,-3590,-730,-3078,1855,2231,-1739,-937,9249,-1982,140,-1101,-1808,1216,291,793,-2928,3598,-389,-3721,-2529,-42,1032,-3476,-1040,-1539,2003,-3220,-1775,-1745,-2255,804,-3216,1429,-116,1121,-1472,1754,587,142,-2286,2711,-1179,-259,-318,3259,-1792,1467,
-580,1347,-814,654,-1372,1138,-2420,-1279,590,-2179,-1557,-166,-3409,-55,1258,-1774,-2909,-4376,-2350,-615,-1840,957,1333,-4020,2768,1887,-2188,675,-141,176,-1103,-580,160,1930,1562,-2120,-1742,84,155,-85,1361,396,807,-808,-811,-2146,-2259,-3387,-4599,-1494,778,-1209,-855,-6135,649,-1604,-2588,-1887,-2276,-1091,-3131,988,1790,-1959,-1959,-1597,-3178,-1046,76,-451,-2886,-4316,1101,-1683,-452,126,1514,359,1045,726,-3099,-3157,-825,-3232,-2494,-79,-3765,53,1493,1728,-187,-331,547,-1909,-1435,-378,1892,-1622,-53,-1526,2483,30,-1564,-830,3909,-1922,-2360,-2294,719,-182,983,-2351,-182,1913,2425,-1705,-1310,3383,-2398,385,-1295,-1417,-2645,-1711,-1974,-2529,792,-3422,-3469,1895,979,594,-3273,3346,-733,2347,205,32,-951,-2712,-4115,1,-11,-50,-536,998,135,-1422,-201,-1385,343,387,1714,1391,1196,-3853,4613,-1276,1768,-265,696,-538,586,2840,44,1801,2403,1129,401,1219,710,1309,-677,-1404,-3679,-173,-272,-1308,-505,1334,2814,12,682,3692,1443,116,-2359,4126,-638,-1525,-1245,-526,962,1739,1662,-45,1420,-572,850,-69,-1570,1122,1363,1396,-187,508,-502,-703,-250,-609,-520,-504,-667,540,-1687,-75,-1154,621,1415,-190,1085,1156,-6,2330,260,1277,1383,3115,588,515,-1966,-1139,2024,3089,665,-527,-1478,2147,1597,-664,2458,1879,-1281,-1766,3674,1011,880,1514,119,985,772,-217,2918,-1071,1098,1093,476,1389,2210,-946,-2089,-744,664,-1480,5687,114,-1111,-1987,676,1145,-2005,890,-1494,-1494,-1104,412,1857,-1982,-154,1674,657,-395,14,3241,4184,-1064,-300,2214,1460,1890,328,404,-934,447,1438,-896,1106,-1280,-4,1132,
-1206,1029,4202,-1895,193,1402,1507,918,3593,1227,212,1309,1534,-65,1531,3292,-1192,1225,1098,6724,2862,1335,-254,478,-6387,-1320,2477,919,435,-1077,990,1757,2886,96,-318,3010,829,1984,2603,3104,1979,-435,491,-812,2297,318,54,3240,2519,-2484,3264,2995,1055,-1105,2365,-31,927,480,2189,1713,2472,1540,-782,444,2607,4196,507,1137,-3168,1312,1392,2857,355,-2158,4200,3204,160,534,528,-345,-1078,714,-1328,75,46,-3744,817,-528,285,945,717,1387,-1723,-1648,151,674,488,3268,925,-511,122,1093,2152,1947,424,3617,143,1585,2481,1240,277,-969,725,1375,1670,2147,3004,640,-1124,1633,933,556,1894,783,-113,-4489,1463,98,320,814,-3970,1657,1192,-3081,4303,127,-831,-3152,1481,1979,2503,-15,76,4340,1580,-113,4650,-1116,2434,877,722,169,-303,44,148,1062,-1087,-3082,26,1899,-309,2532,111,-56,-568,2271,558,-1102,-382,-2567,846,1318,1475,877,1603,1200,454,-352,3018,3599,-997,27,299,-1555,-3995,25,-191,-2936,786,2306,1242,2168,2078,902,-743,1976,-350,787,-4958,-153,380,2253,589,-5505,1686,-2457,-415,290,1516,431,-701,1270,3012,87,71,-7,-513,499,-1354,1259,912,476,905,-339,-291,1803,2161,-124,2053,2348,-985,-1048,1306,-2899,-82,-1914,695,-727,1847,1747,339,-125,1420,1084,-1890,1075,2018,-176,1231,-2184,-1204,477,-1610,4021,712,-2426,2548,-1352,-517,2565,-661,-3290,-528,-3948,-3055,3936,1602,1534,-233,-1582,561,242,34,-2702,1519,1008,1871,684,-109,808,339,1426,1974,322,-3929,1544,766,-1922,66,1241,100,1026,101,4506,632,-1217,-1001,3850,-2481,-807,
-2675,-1057,-1887,873,-3317,2121,-1818,-3246,-1724,2131,-1826,1882,77,-1681,-1179,-2152,487,-437,-397,795,-1657,-1436,532,-1394,4305,-2443,-278,-3430,-3369,-401,470,-1946,-14,1426,-3717,-1096,-906,98,-1417,-3223,738,-1354,332,-3088,-992,-668,-1224,285,-1748,5971,-3497,-4292,-2943,-911,-1960,1061,-1520,415,-376,-117,655,494,-1942,502,-2940,-711,603,-2408,15,1032,1440,-369,-117,2738,1600,1171,229,663,-1928,2126,-66,-1816,-1833,586,233,3690,167,1570,2871,-3311,-254,936,1102,-246,746,262,-1617,-2292,-961,199,-2804,-789,-1985,-2800,200,-1327,1141,-2635,2147,-1780,-517,3435,595,-2979,-837,1250,-2320,-581,-1491,-1771,1212,-316,-2883,297,-1924,2353,79,2158,-4252,-591,225,-1572,-42,953,2413,-1922,-1743,1526,-2286,-2740,-1044,-1269,-1843,-5751,379,337,-4099,2517,-1115,-1017,-3506,-1370,-1857,-388,690,-951,-195,-1246,-2517,-2763,560,-3029,81,137,-1822,-2120,-1753,561,-436,593,-631,-1446,-2383,1020,557,-1980,-1930,-1218,-1687,-3574,-1320,-1089,-2054,-2455,1034,529,-1982,-2862,-872,-1797,-1280,-2964,-2184,-984,-1360,-1449,-1520,-2274,-3166,-1291,-1354,73,-1717,-438,-1224,3294,-6,24,-164,-1083,-2265,-912,-1161,-1567,-543,-1601,292,225,1288,1084,-229,-658,-1229,-623,-898,-800,-18,-506,-1230,-1922,1343,-1859,-1134,-3730,-3044,-1213,-877,-2683,-4625,-1068,-213,-2121,-257,-2580,-2336,1803,1213,-3357,2,-3752,-402,-664,-1647,-2097,-1394,366,764,-1870,-1428,-2702,-463,-4788,326,-1300,-3373,459,-3780,427,-1620,221,-1085,-1747,641,-529,1113,-3096,-1464,-1577,-3239,-2793,1021,-1344,85,-1963,-2805,-1011,-983,-422,318,991,-1056,-739,-1478,-2996,81,475,194,-1022,-2375,-3681,
-2204,2422,-1720,-1248,379,2442,-2054,-241,-1125,380,3992,1519,-892,1458,1786,861,-438,8517,1029,-1395,2107,1998,2173,-855,-1894,-505,4196,6242,-1234,3542,190,4229,-813,-2161,143,-1857,1424,-5701,3493,3364,-1166,-327,-703,186,2303,2266,3659,1934,-3767,-224,-1609,-2386,-1477,-1405,4930,403,-2297,-3549,4609,3260,5954,271,-926,-1787,-1737,3633,1368,2418,-529,4381,2899,1970,848,3963,1981,7496,1854,1718,2349,2396,-3025,-2114,5571,2393,3821,1446,-1198,-980,-2929,-139,433,3326,2585,-6197,-5904,2846,-3223,1848,-2550,-194,1995,2874,3876,2627,-1279,223,-2824,1444,888,2533,-1272,-6576,1308,3860,-3027,2708,-1153,904,-899,1515,1262,-981,3283,-529,224,-286,772,-2440,-1157,1149,434,3930,-1857,-4659,9893,1354,87,-228,642,2010,-1128,115,3209,-11,4542,-413,2821,-903,848,-4857,-1235,-2053,-2891,-1536,-1554,-4417,-2256,-5978,-2744,-2602,-6643,-880,-4819,-2121,-2161,-4748,-861,-445,-5097,-4043,-5214,-3632,-5069,-2207,-1842,252,-706,-4068,-999,-3100,-134,-1232,234,-283,-3591,1677,-3371,923,-1953,-1860,-1778,-1797,-512,-4408,-1558,-3954,-1942,-4229,-2549,-9603,-5420,-1546,-6959,2917,-846,-420,-4321,89,-3821,-5190,-3607,-715,-2874,-2878,-2226,-1767,-2508,-1126,-2462,-512,-2528,-3403,-953,-2851,-3280,-5082,-1128,-3046,-496,-1593,-2269,2359,-931,-5686,-6770,-1645,-3485,-965,160,-3497,-3065,-1582,-4584,1816,-1367,-1826,-1416,-5347,-828,1100,1732,-3303,-2315,-5065,-2613,-395,-1343,-2563,-1639,-4657,-3360,-1102,-2808,-1616,-5,-1463,-5033,-9623,1682,-1011,-5278,-2758,-3077,-806,-2609,-7097,155,-954,-3426,-288,-5754,-1007,-1633,1850,-4637,-3614,-3697,-2097,-3138,-1824,-3598,-4465,-3751,-1120,-4474,-4655,-4666,-325,-2288,-1726,
1059,1807,39,-2516,2386,4785,2699,2628,4718,1501,2095,524,-328,619,37,2862,602,-1055,409,4329,-1751,-51,-2332,1095,-5693,603,1064,-2965,1377,-1226,3045,188,1554,144,304,549,-819,1338,276,630,2750,616,73,-319,3391,568,-715,2999,-374,-1489,1708,155,360,-88,485,-1802,-908,296,364,-501,4,680,-623,-139,3392,2768,-397,1850,-3369,984,-79,3642,330,-457,2118,2126,429,294,981,939,-363,-357,-6866,948,1962,-3801,1539,118,473,828,-19,1983,2102,2509,309,-571,637,-806,3659,-373,37,645,844,889,3060,3527,2508,2776,2935,2243,1737,807,419,1539,2231,1850,1478,657,-1721,91,195,-758,1836,-109,-561,-4206,718,388,2431,306,-2383,2754,327,-1797,2532,-1496,1621,-1697,180,2413,2937,991,839,2343,1903,1317,1649,150,2733,2650,1253,148,-1845,255,3714,2109,945,-2737,-591,-972,-78,996,-771,709,-280,2682,-227,1711,1183,2088,2351,-440,1544,340,-691,145,948,1985,2185,1035,-746,1358,-2428,-1362,-978,2924,-67,-4325,2084,2767,-1174,-542,2373,1843,-1964,1481,395,-61,-2397,-622,193,2697,-286,-1745,3862,-2328,1842,712,2175,947,-2404,2890,2734,1035,-376,1752,-635,-108,-3042,2706,1088,-860,422,569,470,2476,-166,1321,1117,392,-1610,61,2453,-939,-201,1811,-1059,586,-769,1721,-195,291,1884,1770,-1289,1656,2972,-458,2402,594,-781,1322,1474,3607,117,-104,2211,262,-1278,1329,989,-2362,1741,-237,1085,-24,2484,1178,-920,-665,-712,543,48,-2269,1128,3769,126,376,1051,179,2246,941,292,827,741,1329,-547,-1738,796,1292,-1011,1581,1764,3141,1718,1352,649,-107,-1247,2126,
-496,826,1233,-142,1742,-30,373,-426,1471,-2188,2234,128,2776,-1893,-2048,260,129,3424,1413,-1611,-1538,-1295,-2869,3225,4385,139,-1416,-977,-1693,315,1386,-294,2663,-2906,39,1652,-894,-1812,-1018,-954,-681,-52,651,874,1774,864,-1300,1583,1699,947,-53,-370,763,-1702,129,-3073,2970,880,717,-1129,1831,-504,-1167,-1038,439,-2267,-868,1037,-1943,1697,-490,3780,368,1726,-1003,2025,837,-4675,36,-1038,-413,1144,3135,1794,-2420,921,1020,-636,-112,-690,-455,-1116,257,888,-3478,-487,-1533,-856,-689,-1969,749,-873,-858,-474,-2493,1749,-29,1575,-2596,-370,573,1426,-3593,-322,-2334,823,-896,45,49,-3373,1996,-1679,579,-1026,500,190,-3917,1049,-2855,-1945,-2069,-401,284,-440,289,-5086,1819,-1306,-1526,288,-2437,-1109,-1745,-1841,-68,-1040,-2014,-232,-6,-67,1928,-443,-2732,-104,2226,5264,-2541,-1688,-539,-111,-1215,1770,-1212,-1529,-924,1188,-1367,-519,343,2301,1956,-500,-599,735,402,-795,552,-1481,-1653,-3774,-1166,-435,465,-1692,-680,3284,718,-2103,1953,-290,557,-350,-176,-1866,-1923,-13,-1888,1570,1694,-305,-2761,-1992,-3234,1091,-1934,1502,3866,756,-2005,1405,-1423,-3199,364,-1737,-282,-1010,1387,-3,-1429,1663,969,589,729,-591,-979,295,-1196,-1453,550,-2303,1345,3273,-1439,-2681,-72,-511,1106,-1578,2119,1142,1689,-1457,-841,-510,-1913,950,-245,-610,-2592,576,225,-302,-2131,-1067,-596,112,960,-1194,-621,1092,-70,-190,1721,982,-1340,-1811,-3248,-881,403,1210,760,319,141,1463,3147,-1486,-2222,1200,-2007,-2078,225,-157,-2051,-2053,-113,-2656,-249,654,-504,-2691,-1818,38,-3552,-1412,-623,1008,-3407,1277,-1982,-762,
606,-297,-4005,284,-975,511,611,-1217,-11,-3665,-2257,-1674,-2441,1192,1156,-4772,-2741,2209,-1766,-1516,-4597,1355,-615,727,1428,2579,-1505,-2539,-508,746,-4930,-2692,-4469,-1193,2235,-1161,1267,-1749,-592,-236,-113,202,-1106,-1279,-963,-1694,-1514,-4859,-744,-3408,-1188,666,-1605,-331,-1420,-2119,-623,344,-1209,72,-2079,-1686,-2371,1318,-1721,-3060,-177,96,1295,1905,-3021,-976,-369,-2089,-2022,-2138,-1456,-1830,-712,1666,978,-4169,-1301,-682,-3631,-811,-501,2994,2301,-1231,-3487,77,-1385,-753,-3266,465,1958,-2683,45,-1004,-319,-2877,-4181,-866,1323,-4925,1998,-598,1467,839,357,-3365,-1712,3505,2249,-3479,-630,-1451,-890,-865,-3243,-2979,-1926,-1230,-145,-3228,-2369,-2334,-715,1310,7209,-2598,104,649,-2237,726,1056,-414,-634,-4114,-2087,2840,863,-3377,-2582,77,-3108,-13,997,61,1511,2751,3339,3009,-890,1376,4011,2228,-455,3149,1052,1932,1156,1573,1643,1748,1797,947,1922,417,1388,1403,4411,1332,2518,1280,2202,1197,-1762,2470,1649,1140,979,1401,863,476,2928,2784,1348,1991,2611,2956,-136,3709,-1463,881,4463,480,1495,1795,2215,-780,753,2675,-2416,126,2158,-511,-1227,1121,1084,-1102,1599,1453,308,-259,6216,564,2114,194,-263,-111,1022,2870,2016,518,434,1758,-1152,-556,1603,2547,1453,33,3383,28,1454,3980,-3001,420,-617,3191,1919,1910,35,208,1683,2655,1671,2865,1614,4103,4170,351,1354,4801,-1501,3424,112,741,792,-1203,-1362,3230,5379,1283,-3097,1172,238,1235,285,772,1608,1571,-29,3040,2313,2680,-1601,2207,443,1308,-1031,1264,1861,-23,3854,1871,2008,-3148,1476,-1213,-525,-941,-340,-287,1733,139,1233,-420,
-1363,-231,-2404,1792,1918,1150,-3706,-2385,390,271,-910,-1058,1964,453,-2956,-1723,201,-1733,1306,1042,-2000,-347,-4229,1592,6572,-1296,-986,-3536,-926,783,3031,-1334,-623,-3267,-2534,1602,-1966,-2348,-1803,-1010,1040,-2901,1137,2394,3485,-3984,-2539,-1792,113,803,2545,-546,-1531,-690,-122,-3213,-284,-2842,922,-499,251,1342,844,789,-3119,693,-316,-3241,-1150,-3155,-1294,98,-39,-789,2195,923,-1184,-5975,1565,178,-208,2559,-422,6067,-1621,-445,-1374,270,3356,1059,-4535,-2296,-1255,-509,-5092,-4774,-1640,-2058,2158,-5010,-3844,-1918,-1790,-688,-3852,-1690,-3890,1190,845,1388,5056,162,-5102,-1778,-652,552,1838,1240,3053,-1853,1791,-4809,1224,-227,-4130,1014,-4506,4217,-3626,-3339,-3467,515,-1066,-1810,-3090,-6612,1828,-3344,-1941,-3860,-874,233,-2019,-291,-506,-2484,-3434,1192,-4674,161,-137,-94,206,4278,1663,3936,3038,-4340,-622,-987,163,2489,480,3384,-1318,480,-1537,2565,588,5,-1189,350,-266,1041,230,229,513,1618,-2563,-2615,2438,249,-2273,-822,986,4817,-1707,-255,1476,-946,-1263,77,726,-1021,1527,-1872,-362,980,1362,-1809,-768,-4298,3088,-3991,-419,2679,1949,-3653,-512,561,1149,-1789,-642,891,-2103,375,2454,-1024,-740,-2340,-824,-1405,3028,2648,2922,-44,1488,-2157,813,-1837,3154,117,3856,1739,-1480,1883,1426,-796,-4433,-1262,2609,1211,3091,-81,1544,250,3011,435,-2662,-4311,-3049,967,-5411,237,3535,1355,-2064,-2762,672,2210,25,858,1032,2973,349,468,609,1355,856,3292,3765,-295,3869,4468,4400,-437,-2303,-1039,-140,124,1014,1419,441,-119,-1153,-668,1584,-1482,3734,-1145,4539,-831,-2969,-2094,897,-132,1149,703,1339,-2257,
1604,2758,4088,-1515,3637,2041,853,647,2182,3034,1545,1193,2075,-361,377,2718,988,-1218,1942,3347,2278,215,1375,-2019,-2946,-1059,2291,1637,537,458,2620,3164,1468,1044,-2846,2120,-684,2776,612,1291,-2027,697,2330,-1797,-22,1290,755,6097,82,-448,2876,1793,2216,2329,1678,1529,-1668,-569,-280,-299,1085,-260,1466,-369,4487,1102,-2049,4827,307,1463,1303,1467,-484,439,1266,-534,85,-1167,3733,2466,-1804,3579,-852,-1193,-1157,-2737,-583,-1481,-2620,1846,-17,-1483,-222,1400,-2099,-1933,1356,2658,1374,500,2371,-942,4014,-185,1315,4352,-1733,2232,-2452,3359,-43,-725,2018,1739,399,171,-349,1759,-1125,-918,-103,1627,3682,-161,2046,-1192,1506,641,1858,-92,-5695,3861,162,-1224,-583,262,1321,-841,539,2611,2974,-787,222,4119,40,450,1124,373,309,-341,1382,1597,-1285,1136,185,2856,-1359,-1549,2044,-174,1807,-863,-597,1359,756,-382,587,733,664,-188,843,-441,-1206,-364,81,1311,70,578,2777,-2144,1281,451,2217,2718,882,827,151,344,2525,2573,2113,1011,4382,167,-576,1588,402,2869,2888,-749,1667,-449,1812,1731,1865,957,-278,1854,780,1475,-2586,2123,137,-252,1401,274,2429,-395,2573,3140,1479,1276,2575,1139,493,934,1672,-645,940,-1703,405,645,-539,-815,1330,2884,2256,-722,5676,2085,-916,-1131,-1886,325,630,77,2280,1738,1633,2610,1252,2378,3214,1543,413,663,1554,1702,613,1554,2917,1775,2993,-277,-346,1107,55,1284,383,789,-1477,1399,-1175,163,2699,-2399,-312,-1047,1682,1097,489,1145,-1555,-231,749,2300,-803,2169,1268,435,1208,1986,1532,2166,2975,1034,-974,2588,820,1022,
2399,-342,290,-1520,-1870,-1621,1681,-2954,-27,5964,523,2697,3267,1676,-1232,1540,1832,713,-916,-2022,3643,-1618,-1306,-105,-425,-482,1431,4495,-986,-3592,4584,1112,2196,119,-2842,1559,-120,310,-1431,-1180,-3809,-1223,-2627,2285,1812,2189,-20,4601,-894,211,-840,-4233,373,739,-1276,1285,-4174,-3035,-1659,2955,-811,-995,555,-2171,4666,-2062,-291,4780,534,1222,3296,2893,-1171,-1581,-1609,1726,-2214,-951,-1686,181,2176,3640,-3412,-2169,86,-1120,-1190,-856,-4127,-2238,984,-1612,-904,659,1626,-1747,-3102,1663,-408,496,2727,-320,5960,-2789,-909,2011,-2126,458,232,4089,978,-187,603,-894,-620,2069,-398,1836,658,-1748,2034,-580,3959,703,595,-1603,-428,2351,718,-1753,1825,5003,1049,-874,2294,-1694,-2531,927,2469,-440,2923,-448,-738,2556,810,-2529,227,-2078,2272,292,-1815,-45,-1461,-364,-115,-3255,-2310,866,531,1409,-4156,-153,3064,1418,-3338,-2446,1053,941,-2992,621,1127,-239,-1985,849,-2102,2900,-1692,2166,-767,-4001,1382,549,3305,-3697,-586,3414,-2501,4199,-1997,-1835,-1937,-1699,1794,-1959,-83,2029,-2800,1703,2293,193,58,-1336,-413,4611,-393,263,-1960,-2740,-1156,490,-1673,-286,-255,-3362,1077,-153,-436,-619,262,-309,718,1843,-1632,180,-2247,-2472,-3359,-708,935,-510,585,1450,-2133,-5844,-2161,-4054,2290,-674,-390,-1201,792,147,-2265,-88,233,-4083,-3968,794,-2123,97,824,-2561,-722,-2034,641,1262,1836,1152,1296,-567,-11,2533,136,-4083,2745,-731,1812,-1933,-1998,139,552,-1277,-879,-3567,1842,-2799,-2866,-3370,-87,125,-2447,-2429,672,724,-1040,2626,-2589,1196,-365,3437,-197,202,323,2587,1060,-3740,-1063,-18,-1316,255,
-1884,-2793,-2798,3094,-2869,-456,695,-2083,-4814,-528,-2765,1548,-1567,-692,-322,-912,184,-11,-2365,508,-3650,7,-453,1037,3537,-1961,-588,-1527,-3327,-42,-1216,-4191,-1593,1244,-2357,-2071,879,-2839,-2595,-1620,1261,-2019,-1387,-1917,-129,-1931,341,-2316,-3141,4698,-1917,-3048,584,-2969,-937,-1835,1741,817,753,-172,-3665,-1604,-1627,-1670,-4432,-1250,2994,-3069,-2399,-1130,-2937,-228,-540,-12,-1188,52,1431,660,-2475,-716,1319,-3486,88,4956,-1893,2832,324,2649,3547,-1608,-1263,-368,-2113,-760,1311,721,-2335,-271,-1319,-1691,-2435,-797,-4185,-3186,-294,-1508,340,-1777,1655,-2828,1398,3283,-1572,-2121,-498,2002,-2128,-518,1377,1524,-304,-4173,-2531,575,1158,695,147,344,-3224,-419,2653,-2454,79,1081,-221,-1188,-2558,-880,418,212,-735,2619,-1070,-3438,-449,-1172,-1326,1123,-914,420,-2585,-852,-542,1176,-932,-2647,1550,-380,-2776,614,-1420,2019,137,-73,-1744,-609,319,-1596,297,-1323,-1130,-858,105,25,-395,-196,1052,207,-419,-34,-1592,-24,-2413,-873,1143,699,653,-695,-1938,-2228,-2723,2047,-1678,396,2146,-2189,629,-2381,-1068,-523,-1222,87,-2643,-2356,-1355,-710,1191,-1318,-1077,-530,101,-943,-990,1367,-811,-2159,-2757,1001,-2499,227,-1687,-93,-860,496,1306,214,-904,928,-1832,-705,-118,-4319,228,2270,-154,-3034,-662,93,-4320,-1885,1570,193,-1166,-816,-665,807,-1701,-1081,-988,-1295,-1071,-641,510,-1874,195,-1768,-2474,-512,-1702,-1234,-2693,-532,-582,1018,235,102,-1501,704,-551,-888,-1186,-1503,2017,-2158,-2370,31,-415,-765,-2293,-2136,1132,-1214,-288,-3144,-333,-1379,566,-3936,777,271,586,-590,-1692,-2506,-1215,536,2338,-971,-32,-1701,
1761,-2411,-43,4279,1539,-612,-38,-377,-1897,889,637,326,2682,2793,-977,-3193,-1139,-210,1249,3830,989,-2476,-1038,1319,3870,1480,-1345,1526,834,52,651,1338,1244,-380,-1196,-1121,-643,1449,120,-2718,4467,611,3001,-3074,1522,-1736,7,-1894,-460,349,-2763,1088,407,-3819,355,-1925,1004,842,1378,836,-1453,-1277,-2102,-2204,-3415,-896,-1502,-2131,665,1641,-2743,-1341,-21,1496,1154,894,1269,-2160,-3954,2432,2170,-1852,-1766,2973,-6099,678,-795,376,4111,-2833,610,-3052,745,-5808,-1105,4386,312,960,-610,-5388,-998,1831,-5840,1225,1416,-2648,1912,354,2040,2792,2820,-1020,-776,1699,1737,-2855,168,1492,1878,1593,-2306,370,-1228,-371,-976,-1199,-1920,-1306,-3731,-536,2984,-1634,683,-1545,2413,-63,-1609,-1781,1672,-2287,1796,2758,-1665,1496,-1854,196,-1380,-1112,-461,-503,-2708,2997,2179,255,-1453,-680,1679,303,1767,884,-868,-899,1279,-857,1294,-3673,-54,1599,-992,-1674,-1340,3356,1193,1261,-606,1344,1206,2905,-2830,-855,712,-1885,106,1072,1614,-2373,717,2146,-645,-641,-1418,2533,-1884,3771,2813,-766,-1016,987,-462,-1861,1094,2044,-3440,-1015,-645,-504,1979,-508,-1659,857,838,-218,1586,4434,-97,413,-3349,817,1115,2009,377,-2926,-7,2559,-314,465,895,2792,-155,-2299,1118,-3165,33,1442,-907,-2206,2205,2420,-5406,-199,1376,-55,2191,11,-496,2032,-1926,459,-3184,-1879,-1708,1474,-323,-46,-1645,-1346,283,2742,541,1298,868,-1819,-2842,581,1580,126,-2645,-21,353,-192,260,2792,1213,-2828,-1561,-3500,2413,2128,392,-406,510,734,-820,1699,2123,2148,-2349,-1719,2543,1845,2011,1545,-1245,-362,492,-425,-1265,2243,2272,-1113,
-2208,2431,-2880,1863,123,-1097,632,-1696,-1678,-434,133,-2493,1244,-749,-859,-2137,-3753,752,-2119,254,-2042,-1061,-7564,2188,5194,2242,948,-4970,684,2689,-760,-1755,-3795,1202,-2123,4196,768,-1406,-553,-4424,3209,1351,-1748,-3442,2635,43,-944,-911,-1910,-2060,-2905,-2154,-1400,1608,-2666,1451,-2590,-2358,1137,-1030,-2502,-574,-1336,3995,577,-2755,-2188,1335,-1476,-589,-2840,4071,-76,-3671,493,-2828,1207,-3684,1274,999,84,-2116,-4071,1894,-2915,1785,1593,4746,481,-3001,-825,-6,-2067,-979,284,-181,-316,-925,-1698,-1085,-2972,105,-507,-560,-1958,-1402,-344,516,2458,-1750,-2233,-4371,-3922,1329,-2122,-2322,2753,-2035,-1864,3599,287,-4098,-2058,-189,1537,-1713,-3563,440,2369,-333,1622,-2608,3265,-1813,-725,-211,587,725,416,3234,990,1647,-1481,-3567,-1246,-828,-416,2644,207,2003,80,-1532,2806,311,172,1758,1962,1108,256,1835,2617,654,-412,1437,2840,125,-2601,3604,1102,-2221,3940,4114,3083,2724,161,1053,3514,1485,3203,-2501,1813,1584,794,896,2937,349,-776,-3167,2161,2693,3995,6490,920,3328,-1693,4805,5487,4313,2296,3314,1513,3216,-1793,1617,-738,-432,3848,1020,-1921,6014,2555,2386,3222,2914,2755,-346,-1472,2620,1162,1131,3785,1891,2381,6659,3321,5358,109,984,82,3746,2011,-259,4953,532,1549,3677,-368,3615,453,-718,808,2081,2794,1930,-1006,471,3270,437,2158,3086,6335,817,5412,1889,2150,255,652,-1216,4853,2511,620,-2246,2531,5492,393,3892,386,1011,2360,549,2047,-4263,3680,-922,1813,-1145,-1254,4759,4432,-768,-312,1515,-1607,-665,1976,3832,1730,5607,2654,2805,3950,2830,3194,-695,3313,2044,1202,1092,-5172,-1924,
3748,-1175,762,-2242,2272,-1002,1789,1347,1154,3566,433,-978,4080,3810,-1455,580,-565,1502,1493,2483,525,-854,1338,259,-3264,-1013,3097,1401,1849,-3004,965,-1007,2342,342,632,-516,801,873,-1360,2195,-813,12,-91,2162,-312,23,1688,7054,2016,-26,2560,1390,2486,-1474,1931,1354,-2566,-107,145,1956,-710,-287,840,-1367,3923,1679,-1034,4895,-1469,1747,636,-1982,-2128,-121,-2704,2085,165,76,-865,-1708,40,1771,-3221,3119,-2760,-933,305,503,-1519,-606,1990,-3341,1139,-873,1268,1894,-587,-622,2755,1478,2573,665,2517,-190,1480,3835,-761,825,-46,2653,738,-2802,2098,2799,452,-650,684,454,-2311,2068,-1384,1158,5234,800,3015,-3141,-4,-957,55,-1301,80,5603,732,-722,2539,-1379,734,-257,824,5735,3023,491,-135,3348,-498,-394,3902,-1310,1110,-1080,410,2923,2203,-1363,2356,-379,-2171,2639,2628,467,269,240,-1515,1190,-494,-93,3301,-691,-3214,-1756,-645,1219,4201,1286,-1599,1398,1352,38,2778,873,1239,-573,-831,1490,-745,1473,2669,2508,84,1287,2214,1060,1116,944,2682,2179,-2343,620,703,3549,1500,-107,-3101,1266,1455,346,-1701,-3465,1382,-792,1316,859,-73,-1317,5003,485,-463,1190,-981,3972,2091,1913,17,2829,546,-60,259,-432,967,-986,-313,4143,-1479,-381,451,300,2829,1340,-331,280,1502,1346,155,2846,-2280,-70,-2540,1092,1105,-1510,320,50,-1294,1118,1969,595,1730,1681,454,1615,-2467,-1240,938,-1432,2304,1257,-439,-522,-1269,-636,-2152,-1034,3366,-424,1995,-2674,-481,2189,3544,2390,-47,1280,-17,2054,-2832,3668,-2234,-960,-1310,1797,-2666,2149,2551,6373,451,-25,-1073,18,-1040,1324,
-1729,-2022,-2250,-1673,-1138,-39,-844,-4368,-1693,-53,1197,166,818,321,-1948,-2066,-508,3722,-1335,-2618,-312,-2423,-3381,1124,5244,-1920,-706,-1190,-4434,2445,-965,-957,-1689,-2004,38,-2818,215,-2638,-855,-1526,1270,-1667,-1311,-1537,449,-1527,-749,-695,-838,882,-1439,-2429,-4135,456,202,2226,3118,-1539,-43,-177,-1332,-377,-3053,587,-1977,-1011,2026,-1411,2066,2196,-3524,951,-398,-1663,-202,2137,2938,-1831,-3190,997,344,-1499,5800,2082,-695,211,1099,1986,1729,-2512,-989,664,-882,-3338,-5431,1218,-2391,-365,-1989,-1968,1525,-2509,-862,632,-898,-993,-2540,-941,50,1031,-514,30,-2737,1360,791,-623,-1189,-2707,-369,665,750,-2605,-711,-55,-1194,2878,-1420,1064,-710,-1318,81,-1502,-322,-1086,1179,-3297,-897,-716,-1529,-805,-2242,-158,-1965,-1485,-1734,-2455,186,242,-4264,-1462,5487,-808,-1010,-653,2060,54,2364,-370,-1303,892,1568,3689,988,-288,1424,238,1877,-283,-608,1679,-1197,1185,1614,3482,2921,2334,981,607,-942,-422,-566,-812,1921,1011,2911,1538,729,-1170,1551,-1068,-1147,2292,1330,383,-4151,-2418,-185,358,714,1196,-434,-18,-435,362,-2568,1096,2395,-113,-1498,2162,-2372,-4766,116,951,-2647,-72,2540,677,4177,252,-959,1161,3332,-3004,-1236,-938,2076,336,1129,1502,1261,2972,966,508,-642,-93,-1209,338,45,-522,1095,2235,2705,12,-2651,125,2551,1035,-304,2804,-661,1709,-31,-760,1759,1468,-1780,649,695,-1213,-608,-645,1352,2737,484,3398,-281,1495,-223,1065,1398,168,2694,3839,1806,-1386,2232,1692,3325,930,1002,2983,-1816,400,1382,5742,1414,3708,-715,-1112,-191,-865,2007,-4724,-1580,-834,-587,1341,-1189,-596,
-5174,1012,3234,3903,3491,-2930,563,-441,-1823,-1750,2429,1034,316,337,1370,-717,1314,-3830,-799,3244,826,3046,-1294,-2919,-2323,-1248,-3568,1368,1931,761,-1962,1046,5561,882,2209,2594,-3776,-277,1564,73,699,-691,2398,-1972,3138,1495,998,-1292,3711,1697,3005,1509,1826,3219,581,-1697,-296,3905,5705,-378,2249,-348,930,1988,-718,2275,-1016,117,-1142,-2012,1100,-771,1187,1710,312,-857,1691,1661,1776,3508,-1640,-300,1650,-289,1548,251,-2690,-59,2685,14,-591,593,-1860,-2648,2558,2464,27,1799,-1560,3873,-500,3351,-7797,435,-2575,-1900,1290,718,1202,-437,-183,2293,2512,-1240,-670,213,3085,453,1373,792,153,-1070,38,541,2864,1034,-237,-3145,2743,326,160,797,-1186,349,-1905,142,1677,-2457,-1245,2075,-505,-1954,2299,3026,-1310,-2581,1505,1674,1800,-739,-1141,-327,-2196,-1478,-2904,4195,-2008,-898,373,1000,-1480,4175,362,-1928,-1018,-1830,859,-2051,-125,2425,-1143,456,-792,-2009,-423,-2489,271,2177,609,1366,-2318,-847,859,-477,-627,-3349,162,510,885,198,3309,-1697,2517,-98,-1047,-984,-731,2186,1866,-167,-1194,-523,-726,-886,-1782,-1386,1155,3010,2783,495,718,245,-730,-531,-1311,-3384,-2986,14,-573,1085,-702,5,1018,-2522,676,-130,-718,-1735,1542,-2810,896,1710,1218,1817,-2183,-1027,1274,92,-371,-939,-461,-968,1674,2850,-2024,1195,-1199,-888,-1000,1245,-554,-922,-1600,485,30,1795,-1439,-2292,-2031,2452,44,-1269,-4134,1620,-983,-4032,-224,-2125,-2884,853,3358,2972,885,510,-682,852,1924,2150,1087,-1361,-1169,-763,2769,-1750,-2418,-94,-2635,-109,261,2788,422,363,-2195,1332,-2614,1120,-1017,3821,2929,-234,
2236,1432,1388,1948,1004,474,-314,-442,-2612,1617,1057,-3274,-1199,1100,2382,1700,593,-3748,2862,2067,2353,3566,2495,110,-1141,-1010,1617,-3733,348,-854,2184,1749,499,-3985,5501,-73,-693,-1225,2211,5643,5106,873,1599,2798,-2901,-1354,2114,1941,2213,534,3208,2898,1670,-964,3749,-4867,1398,913,-356,286,-749,1648,4640,-1553,512,4244,6,-553,1080,-381,-340,-6336,909,1076,3278,620,5069,4550,3199,-2045,44,3083,-259,1155,-55,2590,-1095,2665,3005,4113,-1264,1460,811,3127,1429,602,38,2671,-212,-2348,-1378,3411,2215,970,34,186,-2163,-980,768,-1011,250,3419,2655,-302,-2685,-2061,-3357,3358,-1300,1494,643,366,1965,4166,-3473,2399,1948,1233,5000,1425,-325,-1667,246,-3913,-4181,-102,-71,1421,2466,-2483,80,1600,-334,2858,2476,1718,198,1146,-2346,1882,-1841,1248,1023,-2182,-3661,-1278,816,-3291,-116,-1475,1519,-3882,-3489,-143,-2128,-98,2911,-3210,-871,-2802,742,-3323,-1474,-1300,-2553,-1790,383,-4134,-1098,4538,2117,523,-1479,1823,-2562,-2276,-391,1043,283,-2973,-2661,-1998,-1414,-483,-523,-2356,-3964,-2823,-5537,1116,528,-1559,-502,-4694,371,-3651,-133,-1796,-2592,-3613,2467,-2013,-2977,120,-1000,-3493,3321,-223,-4637,-2871,-1803,-859,-62,-2348,1137,-1945,-1183,954,2866,91,-2591,-4214,-628,2899,-1224,-1568,-2328,-1889,-2824,-4056,215,-1839,-785,-1127,-3514,-1256,-274,802,1223,-4151,-435,-1308,-3491,-1675,3042,-1591,-5502,-3805,-3261,-229,-937,-691,460,1588,-2207,-877,197,-1384,-2883,-2552,-1327,0,3424,-805,-229,-4617,297,957,5215,1361,-1842,-1309,-1810,-31,-3076,1594,-2692,-6532,-595,-2448,-2410,-34,-3242,-2974,-1056,-1240,-3710,971,830,-204,
1770,190,2635,-2498,1701,-535,-918,-985,2328,862,2740,-913,1010,-102,-1766,-286,1184,1317,-827,1896,4357,-405,1338,608,-2631,2244,2492,-2640,1559,-1771,1729,-574,1476,-97,2868,962,1494,859,2159,3290,-5192,428,1690,3179,-690,3241,348,5634,2726,-1416,1488,-532,708,-1644,6098,-915,33,-3553,-425,-1401,-3095,-2020,-1612,-700,4472,3283,-454,3827,-3123,-442,3162,-3360,81,1916,1271,4428,-244,-1822,-67,-2794,-2021,1897,816,2381,206,-674,2093,-1406,-2607,77,693,-1963,-710,-4386,-2833,1995,2037,2809,796,758,3307,3135,1952,2607,-1793,1243,-3753,3284,-1800,2370,-631,-1906,3019,1488,776,-129,632,516,-2195,186,619,1635,3921,-340,83,-481,-931,-1505,273,-140,-3413,3153,-593,-2276,3892,102,2552,-1018,281,-285,1120,-2158,798,6166,931,397,3826,-2222,-257,1703,1964,4878,1573,-1280,774,-787,-3709,2094,1459,2478,2034,2607,631,365,1536,1291,3307,146,-810,3212,2579,2325,4271,3566,644,2794,1959,2073,407,3126,12,722,962,1035,-2090,1458,1988,806,2841,1644,100,1175,711,1441,1557,1861,-139,2562,475,3936,1107,383,-1238,-103,2243,-149,1358,65,-72,2637,2365,1679,2268,4598,2651,1579,340,2142,-2242,3071,2374,-747,1268,3489,0,1798,1412,1328,3528,-1009,-961,2223,-435,1026,1379,406,1746,1415,1119,2194,-235,2102,605,722,1707,-1329,-1832,3070,300,-1920,621,396,-717,1990,549,838,-790,1660,335,2054,-1638,1124,1600,3390,1790,553,1727,-1293,2231,863,2918,434,1110,-1730,459,2159,1839,354,838,2094,1004,3237,962,1936,-1282,1542,-1508,-1369,1655,1339,-1304,284,2707,3773,2707,484,-4,808,-394,2249,
-3745,-998,-408,-827,-36,4958,1517,190,668,-472,3477,1726,2583,21,235,1280,-2036,5569,-1677,-1490,-133,982,31,-484,-1230,-2083,-2512,2779,309,1831,542,-475,-2270,966,77,5729,271,2560,1195,-761,1082,-594,-281,-297,180,-833,-2141,-834,-706,-3234,-1189,622,-9,2602,-1982,2271,-57,0,1502,-875,2372,572,140,168,757,-1905,-2197,1344,3031,5486,1049,664,115,-184,-1166,-156,-2719,1569,49,6553,1453,-2513,-3549,-2447,-1108,-1760,-1535,-314,581,29,1047,4937,-235,-290,-1081,3659,1027,306,-1024,-1276,1593,-1946,-262,-2014,884,2365,2033,2092,-615,-49,-2,1709,958,2503,-790,1802,3557,-1681,859,-113,-784,-236,279,-588,2177,-4039,148,-754,-106,-285,2913,1409,1263,-681,-343,-1209,26,3728,-293,263,-4152,516,-15,480,1999,580,-2776,-372,150,-3294,766,1184,205,3210,-1076,3946,2044,2630,-653,3537,-2249,1595,-732,428,-1155,-1104,-4085,1005,3264,2178,1560,-484,-419,-2602,4004,1422,-620,-2920,-800,-1950,-1233,1008,4006,-1059,4321,2144,-54,223,-740,174,-857,-2389,1186,-10,1977,927,2166,336,3156,-1461,1375,206,477,4266,-772,1506,1218,-468,1328,1174,169,-944,-151,280,1684,-1546,985,1432,6089,851,885,854,-629,706,-108,865,-3402,-862,-624,-2240,1913,1545,-1828,-2316,-616,1578,1824,-357,2197,-415,-297,-692,2091,-9,211,2055,915,-1018,660,3586,-1146,-511,1823,-2030,813,2095,6601,2571,4226,1862,2829,1552,-2387,-604,118,892,20,1422,-994,-2894,1620,5349,840,1925,433,2345,-684,10,-2194,728,-1416,-782,-2023,1280,7384,1022,1491,6453,-1674,3019,-1233,1587,1500,-1868,-1447,222,-516,-461,1435,-1301,
-2041,-79,-142,-776,-3504,3703,39,2982,1573,1450,7075,5280,2972,-296,190,2684,-1860,-750,2057,1099,714,958,-2560,2388,-3652,809,236,-2638,1936,-1603,972,-916,6730,1585,1354,5189,2023,2972,1643,888,-44,505,-359,3179,1882,1770,2488,-1392,4834,-2262,-1535,2519,528,3719,-601,-96,936,4749,1763,3534,1394,-855,3414,3421,1135,1302,-1442,533,2297,3214,-1198,-755,-1481,-494,2892,-802,-2045,671,-3344,-2865,2090,-7,-8759,-1776,-3924,-2410,3285,2749,3116,1664,1830,1806,-1728,-3175,5292,568,88,2363,21,2507,2624,1145,527,4809,990,-1092,3806,937,922,714,-2775,980,-177,3145,2636,2076,3651,-643,-1088,3175,-530,2777,-1104,2210,435,-8397,2575,12,-3038,784,2275,-1183,585,-900,-552,-573,1437,7595,1118,-231,5090,2818,2339,-1043,2263,3236,-277,-663,-1545,867,-1939,-2210,-2319,1350,248,-3915,1372,2112,1100,1641,-950,2956,2480,129,-987,1298,-563,-688,2946,-339,-1260,-1849,-1132,-109,4179,-1348,-476,4201,2933,738,2133,-3130,-874,121,-1921,-209,-204,-2152,-1317,116,-2144,-469,218,2490,434,636,2032,-1307,115,-633,-892,1204,728,14,-707,-3806,588,936,-2158,1204,4777,1183,1573,-2083,289,-1172,4370,-2557,985,2062,-980,2105,-4113,-3084,-774,-2879,-2427,133,-2499,1814,-834,21,-3356,-2086,1447,635,1538,4737,-1063,-1113,-2417,1297,3154,3706,-1396,-548,-2513,-2530,2375,-47,489,1185,1729,-1074,3219,-1316,502,-53,223,2241,3218,4774,965,-2181,-3101,-545,-461,45,-3226,-2395,-698,1965,355,1382,-49,-879,-48,3263,-7014,1192,1326,-297,-2605,200,-430,-464,-1350,-1454,884,4055,948,1709,-264,219,-691,44,-1835,-2342,2247,795,
-97,2307,-1502,-813,-1577,-2786,-690,-1665,-676,-677,693,37,-275,-2168,-1160,-3667,1799,190,1065,-1098,-2036,-2568,-3082,1678,3525,1812,1411,-957,-3573,1084,-3248,1052,-216,-502,-3639,2393,-372,-2269,-466,-3221,-1178,-239,-559,-1881,1790,-1062,-1850,-372,1091,2902,-1528,-1935,-696,3634,-2523,-2147,-802,1422,-2033,1173,-330,-882,-1843,258,-556,-2144,-2793,819,-628,-1157,78,-492,-696,-3760,3501,-1001,2124,-1273,356,-3155,343,1309,7019,2856,1103,-1189,614,-2027,581,-1580,2709,-1974,1908,-3151,-3027,450,-477,-835,695,5159,-35,-3213,-1086,1529,-2225,-541,-1584,-443,-3743,718,-710,-2220,-251,-3006,200,273,-3264,-2735,4559,3790,-3263,-2631,1921,1380,-421,4237,479,632,2352,-2028,-2048,411,1403,-187,-536,-2714,508,-1950,254,60,803,862,-747,-1420,-3463,-570,-2086,1582,828,749,3383,1971,1664,5767,229,1417,86,3183,-1478,3032,1502,3802,4665,1641,815,3672,23,-298,1772,4630,1294,2637,2846,870,6094,1456,2683,11,-2472,1379,312,-2238,1449,1692,7137,1536,1086,-656,646,3497,2235,3258,3594,-314,-604,1120,788,3291,5483,393,2520,385,346,-1015,128,-797,2169,-2027,1111,1451,1980,-1825,3819,211,2044,-267,-936,-466,2524,-748,1597,-32,3957,-534,3696,277,2249,21,3513,1467,900,-164,2938,2941,141,396,3270,4342,1285,1129,753,350,1840,-175,586,299,383,2248,1284,1681,-1232,2485,-1804,1434,2861,6069,982,863,-287,4341,1336,4486,-2582,297,-1679,-1075,-508,3531,-885,288,5039,1823,2979,2840,-3378,487,2598,3698,-1377,664,2771,2916,1014,-895,1437,679,46,2586,1891,731,3780,352,-177,-641,-30,1959,3311,2796,4299,113,
-2960,-2317,1387,-2574,4508,-3347,-2571,-3492,-1624,-3983,-4175,1078,353,-3170,-985,1182,2212,-6398,-1832,4012,1345,-2144,-655,-2561,803,50,-3227,-6643,-2885,-78,-2198,-1730,678,-285,1667,614,-2727,-1345,773,25,1469,-3975,1416,-888,-2397,-1117,-1003,227,374,-527,3086,-1403,865,-1482,429,-1167,-1149,1215,-1026,-3473,-1638,518,-2027,2810,1513,790,3071,-2407,788,-4837,-2604,-4527,-1025,439,1279,-167,-1702,2468,162,1106,324,4608,-197,982,4445,-1040,59,2555,1511,-459,56,-801,-2049,-2167,-1095,-1177,2102,-330,892,3818,-2763,1424,-430,1281,-4197,-1875,-3990,2273,553,-3797,3332,3712,405,-4459,197,2225,1708,-640,-330,-4395,3042,1923,-2747,-746,-775,7504,-1855,554,1253,1498,-6155,-2118,-2141,-2712,-2742,767,-1117,941,-281,-1118,-1297,-2471,-1907,4372,-3727,-1843,992,757,-2628,232,4031,4468,996,-269,1367,2958,-2068,5100,-1379,130,2787,184,1488,84,1897,1828,-888,789,3306,3083,1360,5859,1725,422,-1112,-1876,-206,1628,1929,1429,3599,-45,1226,3313,1657,3717,-267,3301,2409,50,10,920,3586,-1100,2740,784,1092,1762,-1471,1545,2149,-1390,3492,-3759,2062,-110,535,-521,3875,913,3724,3551,1100,3849,2197,2072,-4250,2326,-2944,-3470,106,2511,4139,-90,5370,2801,3427,4101,2092,2475,-428,748,-1328,5802,1661,1341,-613,-394,-99,3679,-776,3291,13,3583,2933,466,1562,4524,1081,-4153,-1859,344,-2299,3427,1893,-1481,-1971,2037,763,68,141,-36,938,5731,2427,1077,5127,3060,5809,-1278,5280,-744,852,3920,-8,1852,657,-1313,2337,3366,78,3940,1700,1395,-657,1558,2072,-1237,1424,2363,3838,-405,2811,55,-119,1186,3841,-794,2538,1176,
-1024,-3674,-890,1729,-566,2347,1189,-3184,-834,15,-2167,668,-1572,-2836,-1083,-1744,96,2118,115,-2337,-2759,-2752,-3728,-426,9046,-2739,-596,355,-3205,1014,-873,-1708,-1214,1440,-3614,-344,-477,-639,-1862,-3408,479,-1726,-828,-1530,1224,-1385,-1695,-1621,-209,5239,-1968,-2941,702,-360,-2178,940,-1027,1597,-1425,-1848,513,-903,-2691,-2292,-2178,-1989,2059,-2587,-771,2077,-1571,-1052,-1661,-2456,-391,-244,-156,-2625,-4643,75,216,-2068,2493,3583,-1018,44,1660,482,2627,-2371,26,424,-1417,-3295,931,374,-3133,-2623,-1140,592,-3829,-1845,-3898,-2111,840,-1670,0,-2055,-1027,-750,-1312,2433,-3204,-3551,533,1887,-2644,-914,682,-101,-681,-272,-2182,-105,670,2428,52,-709,-1463,-1737,2744,-2249,-537,352,916,-2303,-2258,85,-1950,620,-1382,-864,-802,-4219,-2747,-1865,-1461,2564,1285,-880,1289,1696,-657,-2403,983,120,-87,745,-2327,1769,-1297,621,983,1180,-509,-1,-1272,-2140,-424,621,213,-611,1674,929,49,-1757,1842,200,-1449,387,781,1829,-716,-529,1375,-230,451,-1582,618,-1329,1569,551,-1997,122,-1119,-947,516,982,1309,2076,-1984,1708,-2118,325,269,2254,2307,68,-10,1006,-581,514,-265,1041,-122,-956,-1503,568,-1637,918,1306,1340,2356,-1291,-362,480,-1156,1061,1574,-1090,904,-161,-920,-1277,787,-1507,506,-1833,-495,1356,2072,232,-1931,1785,-1432,132,-329,-476,-201,-758,-65,62,1240,-315,381,-671,1529,-1214,-341,377,-3724,-1936,-239,-1948,-2705,-2498,-3192,-223,-1584,-135,-151,905,2062,-480,881,778,1111,1947,257,-1014,1084,2530,829,-3288,596,-1717,90,-408,522,-1437,-382,217,234,-2465,-795,-405,833,-499,-1313,-2895,
-3888,486,1281,1865,-710,1444,2473,-1009,772,-130,6251,4070,1875,-478,718,140,-1180,1349,-687,-1914,279,748,2295,2540,765,99,1343,1399,2002,2940,-3108,-836,1632,562,2182,5184,3207,583,2183,107,416,2179,3282,160,-59,303,-231,1397,-1778,-1389,-461,1658,2184,4581,186,2070,1695,-64,1724,-268,-185,1570,200,2147,-1296,-2137,611,3341,2093,2475,490,2268,782,2353,2685,4875,1334,619,284,2263,-119,421,2733,-4320,-1858,-3589,2437,-2363,377,275,1914,901,-551,-1781,-1636,-379,793,715,-2663,7481,1398,1247,650,734,-3337,-820,537,813,-815,203,-1951,290,-1066,1166,1462,-1052,-1244,1070,1860,-496,-3372,2607,616,247,3149,-988,2293,-386,2744,2262,2166,2776,1620,1232,-84,-129,1211,-763,65,-150,828,212,1866,674,2902,2438,-1727,-721,1142,812,970,-1491,1109,4382,-6617,1222,496,771,983,2723,1840,2515,-466,1978,769,414,1078,-4487,161,48,842,2875,2450,742,7054,257,4935,-4666,-487,4826,-625,1809,439,-1446,1485,1134,4452,807,1007,1459,2716,4798,2099,975,955,747,44,-791,644,2767,4115,1787,1982,787,1870,1935,2615,0,2522,31,2945,-609,2321,-2151,835,2520,3633,169,4796,-137,1850,1343,415,1851,1600,1674,-1874,-44,307,108,502,523,-3230,218,2087,4991,3398,-153,1532,3079,1666,1103,3042,2058,1358,-1774,-1001,2715,-43,1382,5296,-864,-1526,518,958,960,4265,2547,2353,2723,445,294,-440,-85,-1287,-1275,1577,236,-661,1145,1645,3432,1025,1807,1836,3866,2946,4027,1092,2778,-1339,-1444,628,-452,2632,384,1357,794,-1403,894,3093,266,56,810,1840,-933,-1458,607,-1907,-1887,
153,137,-694,944,-3025,-138,-1111,-1046,-978,-826,1361,-384,-506,-111,697,-3350,-202,4486,258,-2641,-1216,-1355,-1297,-126,715,710,-344,950,-2157,1359,-5006,-1471,-1985,-3386,942,1226,-97,-3412,1092,736,-304,1608,-1589,2329,-2873,-501,-1694,-619,1080,1488,-2660,864,1054,715,-702,-1308,4771,-857,1852,-1934,-855,-2995,-1442,2713,-1075,-3913,1081,-323,1653,-2495,1178,-3509,-914,2034,-709,2019,2589,1818,-1069,413,1682,-1118,4393,2440,976,3812,-758,1967,-389,-1346,-2888,-280,978,-673,-3942,1487,244,-820,-1410,481,-629,171,853,220,-1959,-3307,620,-855,-1235,618,1717,915,445,-1032,-649,889,-1655,-2811,-1389,1134,-267,-2271,-1441,510,2407,2276,-701,-1119,2434,229,1066,-513,635,-752,1269,-75,499,649,723,-2318,-2932,-2618,613,-1218,-343,217,188,665,-2396,-936,-498,2793,1741,1611,1147,452,2616,-302,-982,339,469,2527,-2884,-897,-1277,-323,-2875,1410,-683,1210,-117,691,1919,-597,-442,-1065,1765,-2305,-3734,243,-697,-36,789,1101,-2466,517,759,543,-128,-543,2008,2042,-1631,404,968,-2086,1861,-1230,-161,-1954,-257,-1659,-1129,2959,-998,-2622,-1070,2004,-2081,-1845,411,-1401,-1101,3525,-1199,1702,2804,457,1424,-2647,-713,-999,618,-413,-360,187,709,54,-489,-314,1276,490,2884,42,1947,-57,311,2190,-2270,-1267,-241,-18,-2180,1239,1123,-315,-2154,-1323,-377,217,2799,177,2821,-1283,295,1382,-1178,-805,-588,-1832,885,-1086,-1216,1243,-772,-4582,-1317,-1620,2641,-152,732,837,-1118,3121,-1668,-3436,-1017,569,-310,-552,-1229,798,-1123,-790,-290,-81,-751,1970,-114,1210,-1668,-2836,-2121,-4745,-734,-2264,60,-24,2607,630,
