8750662,5428605,11761185,18131958,7994682,18656162,8312692,14823537,12493317,17644552,22950564,20285796,20113582,10193797,4779309,13355213,12436408,16549832,16891252,9529622,23832026,10208900,26291140,16925820,-2537533,6335256,20478292,8024036,12946370,10244850,15064189,19184086,10446390,11577486,13739331,16271200,17112190,9449633,14163186,20357930,11299391,12877426,9904359,13472440,16374643,19934274,15924841,21401436,20838362,11401086,6639925,8712669,5147617,21592576,9240110,23099246,18746686,17621038,8046854,24833064,14171067,6848646,11078506,15687332,15651922,9242566,14247306,12851555,19937854,18774304,22711600,15419185,20889274,26992514,15729617,18593480,13832845,19214680,6214405,11088633,15208234,15389365,16214510,-324343,10792609,7263470,13613249,14580009,9597088,9813898,14286277,11401603,5953652,5103777,21105458,13990004,-2039760,19387198,5872762,15984527,5738189,17157944,10788272,12720637,18353672,7100329,21638506,12984709,15975701,17989030,10910744,18894230,15221128,8736104,5281602,14096684,14326115,15015000,11741849,19216626,9048319,21514402,15445431,18665876,15073493,9502443,11987018,9099247,15792037,1436537,12995819,16624794,19883820,10180697,8759552,1364258,15064559,20889252,22119764,7606859,17441756,14208040,18483828,11404835,18163752,13532691,11350962,15017279,10864708,5884548,-16802458,-12722787,-9468355,-16097783,-15434136,-12271216,-11931229,-11557638,-11350282,-13441724,-13732655,-10430873,-13791274,-17772330,-11726367,-16899534,-10013175,-18759540,-18170380,-17197676,-10390209,-14885847,-14509756,-6544803,-9293308,-15163317,-12403745,-15696941,-13895670,-7980728,-14015366,-7423296,-16728279,-18694132,-17899008,-13092668,-6397083,-16171182,-14143393,-10809481,-12731878,-11233752,-16652100,-16353950,-17210526,-10219117,-14646275,-18266392,-23166598,-11912945,-13994949,-11367082,-13563811,-8756515,-9484799,-14126658,-14163930,-12812756,-15769103,-15690227,-10502142,-11367009,-14199012,-11242993,-5730051,-13681879,-9777439,-10378513,-9201117,-11683409,-9920774,-15439808,-13331655,-15446363,-12329059,-13915342,-16828054,-13365594,-6325284,-9161776,-11696231,-17322062,-15164255,-15229283,-18147916,-6527962,-8338297,-10975010,-13803371,-15001553,-8785325,-12069522,-9860980,-12306404,-17996158,-10099943,-20367746,-17163254,-10640341,-14156726,-9310566,-18792974,-24941794,-15861892,-17328600,-17026358,-2341125,-9343116,-15814444,-13627251,-7927436,-14612140,-15197973,-15487621,-21765634,-14477877,-5276959,-15609097,-14149172,-12876752,-14228376,-8903455,-4465038,-12747437,-13835829,-15580407,-10981988,-9219497,-18362440,-12248507,-17407408,-10003298,-14927797,-16587628,-10444427,-16193107,-18683124,-17242916,-16061542,-16320467,-18215108,-7339220,-11328103,-9086413,-12547367,-13395847,-12933572,-13235470,-16006136,-14073624,