-1900572,126575,-866296,-3739058,163094,1101999,470818,-438682,715077,1052540,-2063220,758830,-1394261,157974,-1594762,-1268099,957292,952380,-266417,-1230766,1906015,-508761,2789735,-1307763,-1444057,-1743704,1166974,-1655608,-1230111,1279844,-2560714,-56078,3133285,1682261,1659037,40848,3063687,-3840583,-476843,1893560,-463176,55570,1547668,-746049,-81398,-767979,-708990,-229479,-761198,1141416,-599038,286922,1908122,-527000,-2371006,1085426,4072158,-178572,-179801,1766447,2377183,1367278,2246093,466754,-1470249,1197337,-3145229,1435796,-517537,1092278,-222850,-401813,-931160,-912109,1735066,827504,-209851,455278,-5140745,923744,165913,10394,2337544,-377143,-103783,291103,-183973,168883,1014971,-1317899,-1675226,333410,-3134564,72421,3956000,68837,752954,651738,-283773,1004034,1556896,-287042,-1511348,-1589958,1557727,-246481,-1194030,1120130,-2006199,879485,-89464,-689167,1005116,558971,-7173555,51652,3826811,1117832,1797458,-1726095,177652,559455,-340825,-958849,521075,-1854831,-6956140,-1031527,-1293151,865917,-4372535,2366270,302728,5107812,-1741503,-1348970,-125648,21273,1284561,126714,-3344241,-2145849,318383,2024752,-702636,127476,-259232,-598474,-1332567,1902326,