-1302598,2634902,9816174,8177734,7320134,-2233395,-868675,11351679,14424220,-8159554,5239368,12962287,14079668,9891440,-1814459,14798753,3218495,13207730,16690112,4715194,8786020,9752227,-22792518,-472957,6105868,4938820,-5526318,17427998,9906403,12630624,4037167,1751133,12706746,15153989,14266031,15173985,-19023018,17046142,-4369536,13010269,8726128,-9248165,14657700,5759969,15785075,2829558,2748126,3778121,11757854,-6395315,-367630,8022573,19917662,12531950,2946922,7702690,16581088,14074760,11881797,-3750143,13981554,-163383,11176210,-1382582,-6999437,108721,19907188,-2975358,-9702157,7564249,7384496,12017872,-7172597,1854206,5540504,1997033,14488611,-5792405,4862932,-2252468,15077614,14374686,13048844,17313006,14385967,7404490,-4589866,11989335,-2982847,11377909,16655704,-10272664,10225917,12266172,5189066,9645749,15251074,1487694,-452205,8188771,14976296,15456252,22460688,-714324,-2341132,15770321,4813755,-2008591,-1480591,12559715,5738851,22107522,-3489356,13554263,14152543,-971806,22364250,813341,13198808,9395177,1994022,15780855,-20603408,12363900,19072238,21293042,6236710,2138499,23916066,-4313727,-5239435,-5048795,-9099307,12442731,4467521,-2329021,14756477,5540519,4133984,19184202,13957331,2058202,-6138315,-3570275,-179183,13797960,4325489,2574462,6095185,16021328,-13149137,-10375028,-11313523,-16776447,-15752013,-7924577,-17712176,-19517676,-16229287,-9858720,-14374461,-8365479,-16408828,-15106301,-11634380,-8811176,-12324775,-14041993,-8546574,-16737692,-12832442,-13315047,-13183183,-2470591,-4290258,-16227098,-8739728,-4871351,-16805540,-5992205,-15713561,-7372917,-18513156,-15641663,-11708574,-10256400,-7646636,-15548378,-15561503,-17769034,-14353863,-10628517,-18985150,-9698122,-17096026,-12370676,-13047168,-17113052,-14837037,-14461147,-12468015,-15606474,-18997796,-14376070,-17267748,-15294775,-14457805,-9757655,-14094343,-11210161,-16136964,-15819282,-16979876,-15449219,-10873571,-15183513,-10111941,-8909159,-18292044,-14945536,-15820126,-17887598,-12703634,-11794526,-15676302,-9025157,-15439258,-14246273,-14156110,-18403012,-11824632,-18885510,-10350504,-12765680,-13325412,-18959364,-2950223,-11464962,-17998338,-15275763,-15066808,-11523743,-14883195,-19540876,-16610155,-16143689,-11949636,-13013199,-12276738,-19596312,-6349014,-16979050,-13585639,-9676677,-1970686,-20481904,-13405592,-18733444,-19709240,-15250576,-18712674,-10738805,-10122418,-18611466,-14987457,-17081100,-9255784,-16627017,-16771719,-18122964,-11621671,-14446173,-6464101,-119108,-12395643,-8690398,-13960937,-7567233,3677839,-10574551,-15881987,-11135072,-3469668,-15326920,-16301221,-14472275,-14153268,-15276552,-11652892,-15928996,-18143042,-12908011,-17633238,-8667382,-14548411,-11900996,-17751418,-9958264,-13535146,-12605518,