PI_L2 short int Ingressi[]={
1756,1626,1339,1113,941,795,640,471,280,349,748,1009,1335,1714,2090,2363,2266,2070,1948,1823,1547,1331,1162,1016,863,698,506,349,748,1009,1335,1714,2090,2363,2266,2070,1948,1823,1547,1331,1162,1016,863,698,506,436,371,156,10,-90,113,491,863,1207,
};


PI_L2 int Encoder_Gru_Bias1[]= {
11647223,10016889,9505648,5187142,10708814,8703097,7641112,11805021,12112074,-2011087,10822433,11975797,-230076,4140879,11966818,5541606,-6466198,-8356040,16207120,3673962,-3294790,6304792,9278096,6531730,6040427,2263344,10977457,7250958,10412509,11287021,11998834,4618710,-1287699,-214243,6436320,8116946,7887847,9713955,12320830,11539332,5225284,16857612,16326175,13957098,7537760,2570872,11602012,13988611,8330245,-4156629,10974367,11668911,7194846,1359725,13607508,20579168,7906779,5705229,12237377,10785895,-506369,580801,14396430,3866420,12687834,16859030,1961920,12456088,7065742,12133391,11728935,3471332,12052960,6463382,1537336,9103457,11414243,18829868,4221392,9088977,5238281,8390749,4105515,11629895,4116916,4628601,1943771,8420408,11746462,13601285,-11071264,-2880308,22753020,9128946,9198690,4342967,6817215,17723136,-5835331,-4041152,11724940,12037681,-1618568,1484376,12093001,12134771,13064416,13526108,16524300,8841257,9796118,1957985,6529802,6108342,19186758,6990874,-2044416,12626214,3997325,8628941,12521164,-454815,4386274,11178813,14333897,11367506,1136234,2672581,16409666,9961459,2034443,18674482,10065594,3210553,3481813,14857662,16205494,10135795,1028156,4036619,-3478911,10953888,4924152,16642365,1414448,10052690,8986826,19786960,-2442571,19356384,15788589,9977829,10082881,12536150,11881397,16645257,8466487,5171763,7689396,13828559,-1918073,6845917,14401598,11019530,13405733,-3833516,17035270,2337349,7208302,15153677,9075857,15145180,13384300,10527871,12722780,3429994,5799107,10224529,11395248,6331528,2769129,4264283,14361401,3002367,5439694,9124920,13835120,4901478,10724099,2908862,2956421,7736291,9707529,13310179,16437406,14814760,10383469,12262871,7420125,5852159,7705170,11569828,5567793,5928973,3722188,8394470,8350527,7902836,-6055739,13977380,5706844,10272647,10207092,9052563,18282772,15145678,9612457,8278716,3875707,2546447,2922651,-405713,-3066194,14159637,10423242,15847490,5067554,8602406,4043197,2572437,6596085,18069432,611595,3834267,102208,10902969,4541991,5978712,7677626,-7512348,12646927,17649008,6677355,11089331,12400668,5948482,5920552,13016199,7107674,9059870,-13309592,-12209530,-1750477,-11396022,-13219644,-12966122,-11801765,-10047785,-13811223,-10258417,-10755107,-13863270,-12141916,-7334436,-9092035,-9661928,-3268476,-4680454,-15126052,-8363459,-9683430,-12530845,-10335056,-11230279,-11521675,-14392245,-12653521,-10267091,848115,-13502440,-15418561,-11075081,-10927091,-11426578,-8039227,-8573954,-12949756,-2447177,-10795612,-8660052,-7063541,-598128,-11681104,-13825885,-13383057,-5068836,-7672512,-1414914,-10666527,-10473620,-11555484,-5924312,-13206249,-11729466,-12246930,-3678420,-9068500,-9224643,-6600158,-7449859,-8776245,-1355347,-14993733,-1057518,-1559106,-156188,-9932719,-12171117,-9957666,-12487174,-12005330,-11607815,-13924110,-11858901,-10967366,-11042249,-6461098,-9469708,-9347227,-16526907,-11067203,-8285801,-12218187,-9759435,-13641143,-11409246,-11740359,-13088040,-10096021,-12098543,-9065798,-9927494,-8897262,-8491451,-13879125,-13666042,-11596689,-1668712,-8007973,-9153109,-5616050,-14962919,-7899007,-11462796,-14445223,-11632864,-11015243,-11037039,-13703353,-8537680,-8090295,-10266628,-14120760,-13079988,-4692280,-11842202,-7364765,-15367480,-15324823,-8113868,-4810536,-12815123,-8651042,-15926259,-15319161,-12861932,-10472980,-11026758,-10230772,-13741033,-11454533,-6139202,-10110210,-15719582,-7669738,-9791640,1537444,-9887596,-7063535,-12244069,-11505828,-12457399,-10330104,-14116613,-12071491,-10771916,-10786971,-8115689,-10795388,-13336690,-12044644,-15187486,-11950867,-10195690,-7324241,-10687230,-14901676,-15084469,-13971427,-16240927,-8601343,-13471625,-12460098,-14745606,-1182928,-7818718,-9506751,-6927528,-14171592,-14080978,-11563247,-6921107,-13096234,-8808705,-15036012,-12076902,-13135118,-7980136,-11203109,-8802471,-12595862,-10611549,-12100684,-5294553,-14357407,-10651502,-13098988,-12149677,-12316405,-12660113,-8180652,-11636299,-12925764,-14025071,-14417612,-1939562,-1486387,-15475946,-11529795,-11879321,-12664147,-7012434,-7925812,-10073081,-12902838,-12659198,-11091064,-8965163,-5296071,-6350015,-8527978,-9911794,-9449379,-12433414,-14558486,-2481976,-12993413,-15538759,-12245398,-13451603,-11479681,-14116507,-9369400,-10064724,-9447260,-11020526,-7523443,-6345576,-12096344,-12446047,-15500294,-2653173,-7680200,-13839814,-9977414,-12821847,-10166743,-3639169,-10276164,-8939890,-12461977,-9788173,-14416992,-10805250,-12219897,-12183166,-9759528,-1878631,-10782077,-13489044,
};

PI_L2 short int Encoder_Gru_Kernel1[]={
-388,-402,3977,89,-472,272,-970,-239,-673,-2107,-3544,1127,-2540,1625,5055,2,2718,1693,-484,3349,-142,911,5544,2533,-1328,-100,-648,-355,398,-812,612,964,-937,-2212,2391,-2948,-2356,869,-728,3146,-1220,-483,-828,4230,-1672,100,-940,1673,2546,2068,-149,3109,2125,1382,-215,-441,3711,4717,175,1437,-487,7053,716,-2919,-111,-1304,-3172,211,-888,-299,1100,328,-600,-645,-211,5172,-1971,-131,6744,-62,-86,5220,-606,-204,-1994,6116,1178,1982,3257,-6111,1109,-1055,-1285,2554,1929,-1157,-1742,-793,-1831,698,-952,-880,-3437,158,-1175,-3976,-448,358,-273,-1325,2823,3632,-3440,-1187,527,4191,1227,-1491,-2151,1058,1274,-4020,4020,-1498,-1053,3340,-1748,-1352,-134,-1319,626,611,-3279,-3183,5648,1655,797,-999,5241,-22,2514,189,-660,177,-1328,1781,-2203,-1256,-2388,-289,-257,-923,2074,2765,-913,-662,-57,-467,197,-1796,-2381,-1347,-1182,-1082,-1316,-1735,-648,589,-260,-5521,-1070,-210,499,2979,-1048,-514,-1242,977,-642,7752,-1373,2526,345,891,2154,4609,-1555,-1355,1334,828,1866,-599,-517,253,1175,139,344,-1644,-763,-2234,-1971,-730,-1442,4301,1137,-1354,-168,-142,-2092,136,3549,-1120,7879,-221,-802,-661,1931,-1043,957,-1174,-331,-540,-1741,34,-4164,-3196,6415,6748,-601,44,-769,-1105,2960,-350,-2816,-142,-1496,1254,7228,-897,664,-8538,-2368,2464,-281,-1982,474,-1147,1901,-1897,-837,3113,4380,-7656,1676,32,-1904,-619,3257,-2140,850,2004,-2657,1387,1228,-2474,2110,1699,-105,2949,-935,1616,-1242,1841,310,-182,396,2548,4918,517,1824,1431,774,-3422,2557,1225,476,5344,1149,1239,2527,4268,2853,1960,1372,-7027,2433,4781,261,-4248,-467,3568,-5743,2938,2064,5085,-652,-4262,4529,1050,-1208,3478,-1497,-10232,3502,4231,-2176,-1743,1455,2203,-327,-1326,1809,-3575,1306,-210,4367,3473,-2525,593,157,3134,-5175,2069,-2115,3079,360,842,-18,-2206,1688,-2680,2494,3799,1237,-510,1269,4482,169,-756,1767,984,-1287,-3036,1082,131,2395,1163,-407,-451,2173,372,-211,-22,1529,-357,624,-327,855,3171,2992,-1277,1311,-2593,469,-828,-585,420,3934,4867,5,3808,1930,-682,1694,2532,4208,-4030,1368,-3581,878,3415,3438,2555,443,-630,-238,2785,-755,1902,792,-388,489,-2672,1104,-5016,1397,907,260,-1243,19,1033,2376,1440,4970,661,2532,1979,9,448,1384,3604,189,1399,2289,857,-697,1113,1432,-1645,412,2292,77,3171,1194,-61,-293,337,-382,-561,-1918,-1688,1707,1332,-466,4166,3131,558,-3372,-4090,-760,3715,-345,3242,1078,1305,-2054,1265,-6465,3052,1330,1476,2121,-2320,2689,4628,2006,2454,-1285,-551,1814,-618,-5261,1054,-2326,-3174,2362,-2120,278,593,-2196,3971,3712,-2839,-1311,2779,1307,2680,-2329,-3059,655,-392,4148,626,1996,182,-850,4401,830,1283,
};

PI_L2 int Encoder_Gru_Bias2[]= {
1452061,-601367,405082,-3768060,488414,453113,-2998255,-2409719,-583476,5028968,477941,-737677,4602660,-1087318,441542,4992584,2424490,-4409523,2478227,-88938,-4225314,154574,-456664,-162429,1346773,2255543,506894,664200,608026,159819,804166,848775,2882619,-3790781,1237220,1358915,-2758291,1320530,-1472329,231079,-2774671,-381145,-1488885,-844967,-1484044,-5045180,232643,-811515,-80365,-1056116,1220302,681273,-3191320,1779359,-159879,-247530,-102062,-3847330,-555528,604517,-25468,687235,374760,-2930303,209434,648284,-4115245,705097,-2537849,-642344,-2358207,1775732,-473514,3627771,1147629,263169,1024712,-473675,843596,2525414,833422,-313477,4271342,806179,522301,-290213,-2043033,-689585,65630,279446,-4397181,-4979498,373915,-471790,716487,-1045107,1599767,435875,5486969,-3065012,-164341,1377541,3819658,-4312662,-2049302,369193,-1422782,-517898,-756778,3297941,562096,-862457,2325490,-386096,-119578,1037793,-1310096,1873075,-3186875,-536078,215216,-3500913,50876,-304952,205618,692733,3552868,817377,-1214292,-1590001,-1899317,179298,836607,-2457923,1922466,1080921,-277872,2007328,-424107,5297038,304183,676374,-2894878,-1834769,34371,443812,-3576261,-1526615,5049595,394104,-33227,2387101,-957910,1845358,-1256429,-498430,-565278,1277555,-2801783,-1489109,-3795100,-1791856,1301919,641794,1668560,-3653918,-16076,-1709165,4667061,722102,-2108667,1323531,-688894,1331038,2591790,-3590727,-3516725,-372313,-245563,-1280321,-3032471,-145688,1107767,376246,17125,93113,-2568261,757813,734000,-1796340,3196798,517424,-2119839,-894145,2384103,-33060,703676,1007116,2738511,-4907765,-1243752,-258676,3551609,64609,-472516,-2907433,-884916,-1932905,3261047,1530255,-754170,-1194481,732897,-288815,-208413,341608,123262,1024694,533698,-754677,-3725284,4218791,5462797,691711,-494138,1104339,-20760,-544342,-1547250,-3868893,1759500,304804,976331,-3946178,5245446,1583420,-2026081,-911528,-98686,-4364418,-758270,138680,-3806831,1250028,18097,-819780,102589,-55946,2227933,-1674896,
};

PI_L2 short int Encoder_Gru_Kernel2[]={
745,-367,702,-1663,425,501,-1177,-1245,-419,2212,-23,-316,2507,2183,242,2476,-3922,4301,1249,-734,-2369,0,21,196,655,1660,295,159,-441,83,262,500,1265,-1445,702,80,-1313,812,-611,612,-2152,953,-1192,-512,-509,-2657,-135,-1038,38,-601,755,750,-1537,1221,71,-1008,-386,-1792,-1540,200,606,687,416,-2239,-628,-478,-2484,901,-1329,-401,-1780,916,-593,1684,510,-469,-151,324,599,1888,-119,-218,1801,841,424,-51,-1797,-568,595,-98,4397,-2577,-192,-656,526,-957,877,628,3008,-1933,441,748,2217,-2682,-1506,-232,-820,-170,-413,1407,661,-1229,1781,12,-1133,961,-3409,1323,-1570,-526,450,-2127,-270,-104,308,5,1340,456,-944,-222,-1231,679,-12,-1315,1330,699,-1267,1339,-473,2474,-372,498,-1362,-1189,-24,-215,-689,1349,2465,272,-114,1331,-812,826,-452,-608,-500,703,-1665,-1252,-2171,-1396,1086,230,-777,-1873,456,-3167,2450,357,-1297,1425,-93,282,1307,-1998,-1884,528,-451,57,-1798,-393,588,338,664,991,-1559,752,406,-914,1354,127,-1237,-223,1406,-447,2286,777,1294,-2731,0,-342,2384,-20,-409,-1866,378,-1175,1703,1200,-20,-462,176,354,-322,-416,563,828,-313,-139,-1525,1809,2777,565,-407,633,511,623,-675,-1589,474,-483,1239,-1991,2741,1347,-1143,1685,-117,-2532,-431,-102,-1639,374,-41,-482,-692,-290,1764,-258,
};

PI_L2 int Decoder_Gru_Bias1[]= {
14145053,13352301,16242340,9998187,11380736,8310710,12883606,13875308,17204140,11202206,16240488,14341801,8644463,3699921,10864127,8345902,18880752,10290324,10931118,17431332,15373791,18374236,10982475,10330038,18225364,17336998,15541049,15386492,14785580,14784329,10310186,15575240,7848895,9904785,16495696,13836768,17582826,18881618,16019544,5625490,17043424,17900734,18815140,14522668,9142326,12099006,3127966,18138480,11386372,6972919,12808117,17201846,8279914,17515892,12202789,18266846,15999657,11971456,17304606,13080790,11231484,16017907,16787076,14026127,13939963,22359016,11493591,15831584,15348885,12310251,9328002,16320180,15266153,13915395,11586652,15663165,16246573,16110409,19052138,12367734,15586793,19929102,8528909,19013110,10355511,9102045,15439159,18422184,18534758,12461495,16744750,15858644,18235268,19060054,10826630,8968663,7782892,16296128,14401821,16513728,14380390,4380312,10404211,14117496,10939308,4875529,16216428,9565310,14399988,16127815,13887159,14168372,10298363,5864451,11886140,7671394,19234210,12869812,12824685,7959979,17750272,16779456,13107007,11568808,15918577,15946752,12834234,10236699,18824738,6280063,16524884,19502424,13771097,13058547,13365515,17109832,16860944,14034472,5038283,10179379,9814376,15588000,11604780,17143224,11131878,8842635,9539464,13048605,11834241,21564692,9878691,14848036,17014146,10605941,3889894,12766652,21093032,11869371,15798800,6502139,15570200,14691864,16403757,11212187,10908146,18394636,15696502,10770057,11631065,9024779,7700737,21018948,10657053,18075816,18767076,14887466,10667561,7703809,15026477,17176882,17469956,15529559,16530951,3491128,14085253,11318398,7162529,14203656,9325268,18573018,15267280,9433718,20324594,12342045,13810584,16135912,22709490,15302303,13184330,11762850,11604097,16221421,9329774,5048735,12784882,21151468,14954276,15385289,13264027,18850710,18885652,13548038,13276714,13388668,19151042,13146611,14139553,15502163,18709804,3662824,15589472,14066095,17218568,10464160,12272838,11365897,19561766,15169307,8120988,11430160,3147004,16880374,8536861,15249047,12301305,15021942,18452086,6399885,14345744,16651588,15097294,12542223,11357182,12590096,9443897,12287622,15269982,18570828,19680392,13327639,-11466520,-9709276,-4451253,-10190312,-10381422,-10756609,-7855657,-6872466,-5923592,-8798220,-6124395,-10880398,-5462993,746028,-9061794,-7212568,-1983161,-8494319,-15139986,-9623434,-9400666,-9252384,-6851397,-8204625,-16503855,-10955931,-13291140,-8079328,-3648965,-15254664,-12105650,-13810115,-3799418,-10694503,-7152659,-12669398,-15213628,-6459103,-11188500,-12976630,-7153026,-3314048,-13869141,-11903377,-12466802,-2978865,-10947596,-9477586,-14398634,-11428997,-9920187,-10036846,-10133402,-7138338,-18344852,-9772573,-8108695,-10929225,-12224926,-10515328,-11095208,-2646434,-10666077,-7877256,-10869196,-12771126,-5185521,-18364262,-8317749,-12276328,-12870978,-10740656,-6659018,-13890480,-10471881,-7527654,-10241255,-9424145,-6138404,-14887269,-12298231,-9987899,-5141848,-12571087,-13177984,-11603564,-10090458,-8870663,-8735096,-4816880,-4088705,-5665494,-10051566,-11523840,-11334096,-8819556,-10094032,-11179666,-7181072,-9439184,-10902025,-11633253,-12866193,-10320749,-13308832,-11354893,-12151518,-9223873,-12724929,-17360010,-8540203,-10745985,-8990625,-8068459,-11443729,-9754638,-3365319,-14373571,-11974995,-5291128,-3979600,-9744600,-10595877,-13434814,-8665713,-12964890,-13846772,-8605969,-12398985,-7531678,-13093834,-7815696,-12042918,-8735618,-8509344,-10667975,-3526774,-11410992,-6739048,-13727032,-11845678,-7397526,-11042516,-8241630,-7584333,-10821469,-14708941,-2787907,-13686069,-13415965,-10632049,-10521296,-12966549,-9945494,-11040035,-8590781,-11592155,-16006971,-10221759,-8371467,-8044113,-10589228,-9058660,-11411579,-8373306,-9926610,-12877862,-10683761,-9395443,-14308289,-11058654,-9541066,-14080748,-8548257,-10086217,-11869744,-8586250,-2868459,-9694090,-7793556,-7684489,-8322281,-10382489,-12873654,-12862309,-9935105,-11055118,-8155823,-10884881,-9802676,-12111063,-8891585,-16008200,-12126090,-10332576,-4250169,-1931357,-6612558,-11099012,-7217345,-6270387,-5228465,-7376948,-12551637,-8923215,-10264256,-12003853,-10860072,-4402380,-9737932,-6804193,-13747055,-9443896,-10505477,-10399785,-8189777,-11653426,-9212361,-11832555,-13834948,-12171910,-12569020,-2630958,-9846612,-11428396,-5349679,-6915532,-8136688,-12124013,-11295212,1901452,-11439301,-6222051,-8483274,-8204883,-11721673,-9853682,191770,-8858600,-7780637,-11465328,-9571179,-10921991,-12901093,-12062741,-7595061,-11690349,-11446780,-8143158,-12430332,
};

PI_L2 short int Decoder_Gru_Kernel1[]={
-267,250,33,-336,348,-146,-331,-232,248,53,152,177,-363,258,123,-27,1,85,-275,208,-135,256,290,-138,257,283,178,-288,127,-67,64,-119,287,-308,156,-278,-239,79,64,184,-184,185,-365,-362,308,358,297,26,215,-293,143,362,-124,343,120,102,22,75,-288,79,-308,-87,163,183,27,-74,-203,-169,236,14,264,-17,-332,-292,104,310,-152,-27,195,-197,49,-101,41,1,324,273,177,-211,203,313,-202,-264,-357,-37,304,-270,-358,-10,-23,-191,307,283,49,357,7,62,270,-49,-43,132,85,-306,111,148,234,347,123,42,-169,296,-260,207,-226,-114,-309,183,328,2,335,350,-204,21,-133,59,76,303,249,85,-16,174,154,-233,68,-346,267,-121,294,25,203,99,-288,-113,-238,105,-290,-101,-113,-334,-21,-15,-291,-334,67,272,-265,-102,-54,-296,258,-253,282,308,329,68,-22,-192,265,36,146,125,156,155,247,-244,-160,122,334,-99,73,92,95,-310,225,8,-146,165,-169,-358,28,364,0,89,-217,-44,-56,8,-100,55,241,114,131,274,-51,-161,133,-212,293,-47,-233,47,-190,118,56,263,209,-39,171,-123,-102,-179,357,-13,328,283,324,-105,-4,-178,249,-317,46,-149,-234,-1,311,117,-315,97,-125,-5,334,53,253,-347,333,71,352,185,150,16,-215,335,-80,-247,-320,314,-192,-332,-26,344,-138,-62,-345,213,-160,308,243,-15,258,126,-111,-68,-26,-131,-194,-338,78,-17,3,-227,-338,61,148,-324,326,-353,68,-142,297,-275,-22,-181,0,-213,-10,52,-92,230,-131,139,-220,271,-307,-341,-30,-61,-244,-229,364,282,-274,-261,101,-258,-19,-205,-52,-21,-181,-310,-280,75,33,44,135,-348,-114,202,128,218,335,284,-73,-14,-56,-259,343,195,-118,-267,-281,-212,-272,-211,171,172,38,-211,78,-281,236,102,-335,-72,-260,307,-59,20,41,277,-341,192,-330,281,-190,-28,-164,-35,241,-283,256,-49,-165,101,-199,-356,364,-21,260,-216,94,257,-140,278,-99,-17,143,-194,98,267,-243,-73,-213,238,88,-273,-96,-4,118,251,88,-190,251,266,-92,-67,62,28,219,-289,164,111,-74,278,359,349,-27,60,-332,-312,174,-39,205,73,83,364,-248,-292,-133,-335,-158,-125,154,89,88,15,179,311,362,163,107,-108,61,45,-352,-247,-55,81,-127,268,242,339,-364,326,290,-67,262,-54,-105,-275,150,-355,47,-318,231,-165,148,70,85,139,165,-164,-347,-66,221,354,319,133,244,-260,-294,126,-238,124,-287,44,-35,326,-130,-353,    
};

PI_L2 int Decoder_Gru_Bias2[]= {
-682935,274370,-4917,-160924,-192640,48433,-265919,137787,604424,-828789,-122729,-386835,73529,843029,-296761,283666,-455384,78388,-130872,-270551,-215933,-196544,-54885,-56778,-1268828,51309,-200532,-249568,-119204,-148416,-113014,267066,960898,-12333,-116354,51130,124385,-284935,-48463,728292,-912672,-116613,-412167,-256529,285308,-41279,-421404,507629,-209952,-262453,-45859,-192928,-580001,1415119,31880,-125869,-336482,-399154,-429923,-299263,-260912,580311,193574,-981006,-265622,479799,377476,-755895,-230158,66883,295811,-982293,245720,-203157,180603,-104756,-430305,168955,-109132,-219357,245475,-341017,-310651,-1894607,484121,141793,-1025769,-628826,134333,280439,-284383,-418039,4585,-100058,-588061,-258365,29629,498394,698031,-275141,511718,20263,204694,-159731,-673046,109007,331468,-37127,-129376,-327343,177639,-151796,-243542,-552522,-73492,220231,-399841,-203526,-187033,-1412994,410272,157321,174226,373827,214941,-191580,43340,-93360,679304,-205463,-114995,415516,143098,-446988,-210686,-675458,156867,557585,-243776,835363,47952,425084,247424,266501,54056,-211121,-437512,-243992,914240,1124951,-517077,1110630,-423990,-405735,-113285,-125289,241493,-400331,344325,-220596,-1169714,-1520659,-421380,-328472,35522,-82056,-42978,1240618,91492,442954,-303521,342901,-328831,-188336,-142188,-244108,-3486043,329262,498930,527173,1094380,-375346,-248765,-417002,207680,-75413,-386127,454372,-271224,-3053,105875,-326923,417969,-23410,1049751,21955,-218020,126358,-728713,-669147,110423,-135362,98742,98,22945,-4539,144994,482947,903691,-12964,248090,231037,-299651,775194,771223,-46687,326256,-1837921,290696,97511,80439,-365652,856298,207890,-613603,-393662,-44740,408615,1141419,-452582,46737,-223762,596904,51049,670763,1423233,2021,874934,154804,-247004,154770,98600,580191,-341095,271176,-50713,-294583,129062,366303,-341710,
};

PI_L2 short int Decoder_Gru_Kernel2[]={
-2,-360,-132,325,305,-173,233,289,-237,-311,-295,-365,181,199,-219,-177,-262,-281,-356,-363,-364,330,-97,89,-277,-97,227,-274,114,-359,-25,-7,16,258,252,364,-153,-202,25,322,189,-347,-279,-51,-133,363,-163,-313,230,311,-129,358,-126,-167,-185,194,249,-15,246,-20,-275,-33,83,91,129,106,-312,82,143,18,-249,238,73,-216,238,263,176,-318,157,279,-192,-20,276,-88,237,-345,-314,-232,189,54,-137,-91,250,255,-59,-89,135,242,180,312,-333,321,-131,-45,-82,5,-148,-331,-226,169,-52,-252,68,-299,247,199,-6,-121,184,-264,-209,-262,69,262,-73,-315,-163,275,-325,151,23,112,172,-359,56,82,-48,131,-328,-50,-241,-157,-242,243,-65,136,198,-189,-161,-30,-241,104,317,-248,334,361,-322,44,-218,69,173,261,335,82,-200,-296,302,301,-123,-351,225,345,-25,-253,281,-222,-53,184,322,34,-12,126,-254,102,-173,71,-1,344,-22,7,104,-54,-201,240,-30,-26,-271,147,244,-155,-76,-207,-43,-100,126,-202,270,258,234,-365,323,-20,72,-205,112,69,-346,361,95,187,214,11,-206,-282,15,112,-302,345,-210,-64,64,-200,-299,359,-360,212,117,-100,-312,241,312,-225,216,-347,247,5,38,356,-309,44,
};

PI_L2 int Dense_Bias[]={
-259215,
};

PI_L2 short int Dense_Kernel[]={
-308,-354,195,28,-200,-105,181,71,-362,543,-232,108,-81,452,50,3,-219,125,-534,-101,-99,26,-95,-25,429,145,129,319,-205,-229,285,-98,204,109,206,-374,5,405,-162,-44,-393,-63,-116,40,150,-183,-24,-458,248,-84,-8,-41,-134,552,-100,-300,-166,-202,80,-189,-171,349,-78,106,278,-493,21,-154,-131,539,-21,347,-261,-72,-80,-44,-360,183,-247,-334,-148,0,-320,777,323,-167,-249,-236,269,-227,420,-212,-287,-280,-74,79,-23,348,97,-225,117,99,50,-420,23,68,23,307,304,-25,-19,-9,205,-315,-15,-246,-622,-124,-19,-289,203,-139,-253,6,-486,-48,81,-40,42,483,-116,327,-228,62,256,326,-150,-58,-83,383,59,-2,58,-179,21,248,8,65,301,-505,-214,341,-18,-87,-233,-182,-94,-6,53,87,-302,-433,296,-244,-381,-362,160,167,-154,127,-61,260,-14,156,-256,-87,-433,108,-61,23,-276,-258,282,82,-63,-217,79,183,290,-261,278,-161,228,255,209,-188,317,338,15,-239,-107,-32,-34,-166,-18,-402,-17,5,341,28,297,41,29,229,-445,-206,13,672,-78,-67,245,99,419,-192,-80,279,-94,115,435,-20,-179,-298,-81,-208,185,278,-194,531,139,-315,-3,97,-33,12,70,-100,38,-125,9,-35,
}; 

