-682935,274370,-4917,-160924,-192640,48433,-265919,137787,604424,-828789,-122729,-386835,73529,843029,-296761,283666,-455384,78388,-130872,-270551,-215933,-196544,-54885,-56778,-1268828,51309,-200532,-249568,-119204,-148416,-113014,267066,960898,-12333,-116354,51130,124385,-284935,-48463,728292,-912672,-116613,-412167,-256529,285308,-41279,-421404,507629,-209952,-262453,-45859,-192928,-580001,1415119,31880,-125869,-336482,-399154,-429923,-299263,-260912,580311,193574,-981006,-265622,479799,377476,-755895,-230158,66883,295811,-982293,245720,-203157,180603,-104756,-430305,168955,-109132,-219357,245475,-341017,-310651,-1894607,484121,141793,-1025769,-628826,134333,280439,-284383,-418039,4585,-100058,-588061,-258365,29629,498394,698031,-275141,511718,20263,204694,-159731,-673046,109007,331468,-37127,-129376,-327343,177639,-151796,-243542,-552522,-73492,220231,-399841,-203526,-187033,-1412994,410272,157321,174226,373827,214941,-191580,43340,-93360,679304,-205463,-114995,415516,143098,-446988,-210686,-675458,156867,557585,-243776,835363,47952,425084,247424,266501,54056,-211121,-437512,-243992,914240,1124951,-517077,1110630,-423990,-405735,-113285,-125289,241493,-400331,344325,-220596,-1169714,-1520659,-421380,-328472,35522,-82056,-42978,1240618,91492,442954,-303521,342901,-328831,-188336,-142188,-244108,-3486043,329262,498930,527173,1094380,-375346,-248765,-417002,207680,-75413,-386127,454372,-271224,-3053,105875,-326923,417969,-23410,1049751,21955,-218020,126358,-728713,-669147,110423,-135362,98742,98,22945,-4539,144994,482947,903691,-12964,248090,231037,-299651,775194,771223,-46687,326256,-1837921,290696,97511,80439,-365652,856298,207890,-613603,-393662,-44740,408615,1141419,-452582,46737,-223762,596904,51049,670763,1423233,2021,874934,154804,-247004,154770,98600,580191,-341095,271176,-50713,-294583,129062,366303,-341710,