//scale=2^22(for the bias) int  scale=2^11(others) short int

PI_L2 short int Ingressi[]={
878,813,669,556,470,397,320,235,140,174,374,504,667,857,1045,1181,1133,1035,974,911,773,665,581,508,431,349,253,174,374,504,667,857,1045,1181,1133,1035,974,911,773,665,581,508,431,349,253,218,185,78,5,-45,56,245,431,603,
};

PI_L2 int Encoder_Lstm_Bias[]= {
-8635048,-8025883,-6855908,-7954806,-9746540,-7500846,-8588281,-7092760,-7565505,-6354196,-8465794,-11600719,-8253254,-9804036,-8666280,-9390124,-6575223,-9564185,-6513662,-8100422,-8746313,-8388877,-8632795,-5194579,-8696171,-6519574,-4065439,-1493962,-9193458,-7965548,-5491618,-8641954,-9042382,-4696499,-7737549,-9707347,-6999568,-5741750,-8325274,-6090593,-7351664,-11088866,-8596969,-7497186,-5650487,-8494001,-8222389,-10337139,-8641561,-6012865,-6952025,-7101576,-7427750,-6387154,-7670549,-5942912,-4941782,-7672069,-12571691,-8094209,5044369,-11018596,1032615,-11118310,-6741444,-10621526,-8785852,-9001801,-8664395,-7832424,-6768938,-8203227,-7247179,-8146077,-9642063,-6425071,-8201668,-10677468,-9686419,-6332618,-8487623,-7946647,-3329870,-9942682,-8322834,-7991653,-6613756,-8798029,-7565262,-6332017,-4671475,-6315937,-6733607,-7708265,-7603786,-6293648,885588,-7733592,-7902511,-7476522,6219030,2799028,2974248,3474971,3144890,-4481574,-787737,-5936640,-1742341,-4315296,5076927,4560843,1448003,5271326,213784,8148028,2820150,6011468,-3198267,2275726,3717712,-9053711,6700223,-350441,6725406,-5138408,-14507767,-5336200,233767,4022914,2728827,7686171,2741504,6410163,4203786,-1462924,-3116415,-4489966,10002797,-5941515,3301810,5527530,-291917,-177122,-378380,3767236,1017398,4270136,7731485,2500990,-1525409,-6925931,-2236229,-1609685,7802403,1850637,-6376755,2884088,4721746,-3215384,-7794618,-7947912,-8804337,7314974,3240001,777204,8343377,5786387,8317353,3796229,276743,4242921,647141,3265196,7074576,-9087591,-890612,4576899,3212733,-4796397,2461650,4758851,-8391440,-81519,2342275,799438,318286,3361105,-4661516,-743245,-5046969,-488294,2225550,3590301,-1654418,565541,-4999681,5488695,1404708,3704744,765511,436030,-2401505,970511,1147478,4126091,20956,6263072,-4220062,-2224947,-210489,152545,2317626,-2366323,-937261,2646638,-317846,-1199830,1199633,-1785552,-429909,6536757,-23941,-357361,-777330,185090,1843638,-5486129,-247942,-129885,-1526286,-630743,-2489092,-3625982,799297,3647873,-4734489,-10957512,-1816870,-1526726,2541309,5417482,-1755033,-1126763,1716756,4055272,-169479,730398,57417,-56193,-2776223,1278768,-1796966,3406547,-1484207,1795355,-2270873,6811638,2637820,-212624,-1286906,-6335523,484144,-764502,679376,-20388,-1369570,-3083368,-476066,721748,-313175,-1855529,1825598,1091698,841835,-2934712,-1977055,102507,897801,4399891,-1286643,271919,335832,-1439560,-1268085,1466073,3111770,992846,-9800180,-814901,19777,1457935,-3000045,-732475,812307,-1356965,-4362436,1004463,419249,1084802,-6406940,-8003201,-6913664,-6231007,-6543813,-7333028,-6410734,-6701060,-7294495,-7777507,-5181303,-2902083,-7378433,-291310,-5749728,782052,-7852201,-6002044,-6564559,-8247409,-7965175,-7383738,-6883123,-6601146,-7931427,-7007177,-11697794,-4237873,-7302470,-4739744,-8919499,-7968042,-6240719,-7221404,-5934600,-7439166,-6710352,-5404247,-7062059,-6093188,-7402768,-7824615,-3838974,-8141080,-8626274,-4698820,-4568061,1826640,-6444081,-5939420,-7195193,-4113951,-7431873,-7504516,-8253404,-6417678,-5454676,-3203489,-5297134,-8301370,-5146373,-5790576,-4258834,-3518543,-6681071,-6098634,3922489,-5605548,-4683694,-1975676,-8453225,-7633505,-6914901,-5518477,-6914151,-8531104,-9367845,-4121416,-6360701,-7294990,-5966249,1922943,-3663159,-5989843,-5688185,-7224332,-7502658,-6763296,-7565463,-6961593,-6244798,-5364302,-6602550,-6017425,-7762317,-8139406,-8221446,-7178874,-4181532,-7479651,
};

PI_L2 short int Encoder_Lstm_Kernel[]={
57,-326,883,1233,-624,146,-919,2367,-730,-126,883,1659,572,-861,716,1642,532,-61,-7415,64,-383,-5532,378,400,-289,-1444,926,2619,1354,916,189,626,-925,-1940,12,477,-91,-1552,650,-1241,394,-90,-341,-329,2910,177,1018,168,-1165,889,-212,-718,-690,102,-221,-523,1501,-2998,581,-381,1038,8745,-764,952,189,-171,3470,-2088,-378,43,-65,-161,910,54,499,332,-1149,-569,-1004,2155,-749,395,897,551,-107,-441,-4086,-1368,1306,-185,427,615,35,-575,-942,-439,-2931,-37,469,944,32,743,-674,-146,-1039,3154,-186,5947,1168,-460,434,649,2195,-408,-1009,483,849,-795,-3138,-876,-1542,-10385,-662,-155,-1060,1102,17877,-2291,951,-98,737,309,367,-1995,-231,47,938,7032,-1536,-1598,13,225,-662,320,2551,247,532,-8303,143,408,5,-896,1558,1245,1239,-592,-1349,-5568,262,-5,197,5412,2276,478,-75,-241,2037,-1523,-617,1078,-168,-1543,827,932,825,2893,-1280,421,-1856,328,308,-263,-1016,-439,269,-1062,-2004,-792,10669,598,2128,331,-1563,-352,-830,1234,-3733,224,-1105,727,-748,273,7375,356,641,3698,1720,2689,-2671,-5422,-1887,-1482,-1098,1920,1248,-3209,4706,-745,1776,1472,2978,-1376,696,1218,-1604,2482,6874,11250,-3513,668,1888,-866,1169,9202,-1336,-3151,-319,-6795,2425,6583,-847,-3297,-329,-1449,-7130,-1371,295,1185,-3068,1145,-458,-8353,5943,-5743,509,-1290,10173,-3527,-2102,5878,6127,-3857,5892,148,3475,-987,77,-1805,-438,895,2985,3027,3339,-2205,-1561,5498,1041,-1933,-2188,-6680,3317,990,-6092,3265,-67,-2299,4886,-1192,-5843,1076,-4482,-6548,450,3716,3134,-751,8403,1468,463,-1943,308,161,-2206,257,-573,-213,-213,952,56,-540,2186,1089,-738,-5289,-2888,7063,394,269,-555,-616,3392,-4191,-863,531,-978,-1345,9105,-2471,829,807,-4516,804,1005,4251,-1649,2135,1189,-405,2451,-1178,-224,608,956,-1821,19,218,2542,3765,342,673,-43,151,445,2035,81,263,-1243,-9125,103,152,975,5139,-646,-4878,3189,-538,7686,-10243,1836,2563,1417,-756,1255,-2556,617,1834,-2228,616,-179,-431,1032,5066,587,11,39,-2251,1382,1025,2381,-1211,3178,-1089,-883,590,-2152,48,1366,-221,-2683,2273,
};


PI_L2 short int Encoder_Lstm_Recurrent_Kernel[]={
-6098,-445,-2061,-2033,-4558,4781,188,2408,-1992,1335,-333,-10306,-4357,-2021,669,1822,-1323,612,-5268,-973,746,-6568,514,-31,-252,2365,-897,-7311,-154,2152,703,893,235,-1159,-1518,-3874,-4598,9719,1354,-50,-1959,1471,649,1158,-3454,457,-7481,47,366,-3739,167,-309,-4931,-2788,2206,-1155,-957,-10849,2771,-941,740,983,-1309,1595,-1784,137,3962,-9393,710,-1837,3332,-2500,3354,-8049,-424,724,1678,774,3036,-995,7187,1901,-136,334,-3888,467,-739,4459,5621,1584,-513,-3943,-8637,-2842,1999,1295,1192,-1577,1085,-2284,-1618,-3876,255,673,-2636,-3838,262,-3875,-6995,-478,-3706,-8952,-5475,6208,-524,1008,-3066,3720,-10453,-554,-1425,-11868,840,-3439,4944,-4132,6232,-4695,-5577,226,-178,1383,1712,-223,1523,-2228,-7397,-4116,3186,1316,-2141,-1937,2217,-728,1866,488,-836,1747,-1296,-5963,780,-2615,-5286,-2100,-384,-327,-3942,-2206,3410,-2791,-3754,2348,-1906,-596,-3881,1748,-1035,-3342,3806,-1619,182,-6119,2383,506,2386,-383,3296,1097,2120,-5907,2032,347,-725,-6150,1014,871,-2391,1696,589,-941,-589,-3313,-1892,-1489,1587,-795,-3771,351,-478,-7039,-3986,-4306,-3719,-2989,-3116,1007,-397,1110,-1210,-401,-2549,7940,177,1536,-3897,-299,-4891,764,3231,-553,-1646,-2330,3179,-1829,-533,1589,745,-2555,-5926,-3247,-1865,-4126,300,-3094,-3612,-1570,2600,-826,-867,3134,-3273,-4370,-1891,2280,971,-2344,4663,-1362,1273,1431,-413,-6815,8426,6249,-249,-2967,-897,-2145,694,2209,10381,322,7091,4455,3077,754,1527,3395,-2309,5754,-3800,-780,1050,-7275,-596,-2644,-1552,-1957,-3181,2966,-1873,7716,-8352,1151,273,1000,-3047,2328,1113,166,-3930,343,8971,4251,-1482,719,-211,1774,-2062,-3673,-3622,-578,-2240,727,-3053,2895,154,846,-2487,983,-3254,2532,-4309,2023,-1186,1429,184,1072,-1345,-172,535,-4912,1051,171,1566,331,5207,-8534,-1288,-3419,-3531,-1614,-1628,-3908,-761,-7009,-2564,5066,-2587,-2415,-104,-4705,-802,1335,-1390,1901,-1220,-2062,-3555,-1074,1929,-164,-3750,-1352,-1498,-1974,-1001,5220,289,-645,-1299,546,-1050,3980,-1858,-203,110,-6113,803,-1298,-1364,-1590,1135,-207,4244,389,-574,-767,-4,1119,-498,-1134,1918,-5048,1403,1514,-3547,174,4413,1471,-1070,4676,-326,-815,1075,1632,-5245,-39,-674,2234,
3113,5834,2781,2452,219,-3591,18,-801,-1137,2104,-4755,4496,254,-963,-924,-334,4840,-202,-344,-2318,-2514,1739,-2597,9899,-1074,-232,-1892,-3350,8059,520,-386,10543,1040,-3767,2591,1673,382,4221,2718,-202,4953,5384,5666,5390,-5717,5873,6547,2419,-3052,-766,4035,3134,-6887,-216,6775,1684,2333,-1638,8383,-2483,-2355,1158,-4396,2141,-5196,3900,2535,3098,-112,-3168,-1254,3612,1119,885,5825,-5442,672,3157,-1245,-3161,-1387,4079,-3386,-2888,3987,-4737,3046,2843,3530,550,-3126,7283,1069,4073,3262,5404,1687,-2783,1506,1002,1366,-521,-108,-7338,-4537,-2849,553,1359,-1756,4079,4448,2423,2811,1298,-1731,-3798,936,-978,33,-1189,-566,4769,3543,-1735,-3633,-4314,5067,3988,-1502,5788,-1470,-1018,-4065,4511,113,-2564,-1160,-1475,1180,-2317,-503,845,1508,1335,-4195,1367,-645,-8809,6030,-1300,-778,153,-4138,-5257,838,-2324,-1494,-1458,1388,-1025,-7089,-1664,-3003,-801,-11109,2335,4563,3516,873,-337,427,2361,-1627,-2084,3605,-5473,-1535,1833,-3624,-2403,-4000,7114,-7343,-3435,661,-3547,3154,-2389,3538,2026,-3494,-197,-5927,6076,1300,-1063,1059,2722,2984,-1527,3249,-959,1564,1269,-1203,-4472,-6984,3549,-255,-329,-2168,847,-57,-537,1958,3256,-3261,-2644,-2288,2915,1720,-2550,4393,644,-991,486,3746,-1431,-3363,110,703,3718,-1185,176,4286,-80,-5539,1923,4860,465,-703,-5018,145,2890,47,1111,-2405,-148,3443,-2,218,-658,2885,334,-2104,-4696,4035,217,-1201,2516,835,1301,2263,841,-5855,10,-744,-2559,-2540,-656,-5221,1123,1906,-6779,1829,-356,717,-4745,920,4300,3661,1146,563,-3561,-790,-2360,2462,4807,-185,910,-363,-1606,-3048,-1622,-2797,2764,-978,2368,421,-2479,-1184,-2273,-1685,1487,-1379,-67,3288,4511,1725,2572,3689,-1908,327,2603,-2122,-2595,3537,-1300,-1406,832,1077,114,792,4866,-777,-874,-654,-7062,1745,2013,-320,1085,-428,-1450,4093,-1064,1642,2587,2818,-877,2856,-610,2716,3222,1862,1060,2455,1114,-6,3093,-1763,1461,-7392,1841,435,1354,2063,5025,-2528,-1399,-287,4469,-296,-1152,-2495,-2570,-2152,1062,-1281,1540,3783,-1985,2177,-2064,-935,-1993,-58,745,-1595,-523,-195,4774,-2143,-4544,570,-2494,3357,-3886,4395,560,-4438,1947,1376,3233,372,933,-1614,1046,4553,4618,
510,-248,-216,-2852,1629,-555,1067,-2203,-2359,-5016,-3362,-6004,-2814,1464,326,-4291,472,1743,-2857,-2338,1032,-8,-1620,-669,4717,-5861,-428,4938,-516,-4707,449,-1703,-1602,-4464,1040,-2635,-1892,-2493,-4112,-1352,698,-703,-1089,967,4846,-5014,-2165,850,1636,-1436,-1657,-1043,-2081,-19,-762,1739,2136,4921,388,-1433,-3045,-1566,-2083,-764,-2098,2473,-4282,-2748,-2510,-2782,1267,-1016,-4064,1187,-4221,-628,-2907,1436,-455,3656,-539,1419,69,-4486,2098,-4528,-2133,-4942,-1247,-441,6,-3987,288,-675,-38,-2145,-4480,2060,-1711,2585,-5070,-2830,-241,1521,1645,239,779,1869,2787,253,-62,697,693,1471,991,788,-2283,2511,652,-3097,-3153,-203,-1750,3764,415,-2246,-8258,-1166,3426,-2024,-315,1287,-1615,-608,4561,-1146,-105,3631,1164,-4135,-2663,1445,-552,-756,-4488,-392,-425,1740,-4768,-1901,-698,-1093,153,-194,5494,-4138,-757,-2657,-384,1933,2533,-1591,-2668,-1866,884,851,-2855,-1356,1965,5545,2499,2379,-3207,71,-2283,2229,3976,2018,4937,1475,3967,-1830,-1056,-1084,245,-2103,-3011,-485,-3982,-243,-2274,-546,-6095,618,-981,320,-3136,-2430,974,-1939,-1781,-2387,-492,4560,-2951,-2581,-3372,-2043,-2051,-127,4593,1815,-2976,4564,1657,186,10652,662,-3813,-1174,-1573,-4327,-3706,-1954,-2285,1300,-1981,-2019,566,1898,3668,7900,-1402,-866,5177,1821,817,-4918,3097,-4085,-987,-165,-1516,3875,-6046,2295,2005,-1759,877,-2859,1323,2159,-2017,970,-5439,541,-1798,496,481,-3451,-2884,-4253,-3356,-628,-171,3829,887,2410,1317,1446,-4866,1866,-5194,-1727,229,1764,7955,1729,1713,-2362,-2622,-1132,2436,-5292,1490,-1274,-1415,-2851,-453,814,4030,4889,3488,-1255,2614,541,-1030,1334,627,-3300,-2579,-1014,1879,817,-19,-434,4864,-1386,851,541,-177,2279,3018,-2227,2994,5286,-3878,-3222,-3621,596,-736,889,-1834,416,1608,-1565,-2763,4892,3190,-3447,1318,2669,1034,4083,1221,-3466,-1138,-1157,-4485,-2170,-1619,1672,4935,477,-2665,920,1528,180,-601,-2805,-931,394,-3052,-2400,-50,-1686,860,2806,-682,-1664,-276,2320,-1674,-901,-1563,3389,10061,2996,-1373,5166,-1937,-1076,-116,-1045,345,-3679,-1186,-91,2141,-2489,-3077,113,98,-468,-1063,-612,-3643,-213,-1891,1432,-1324,-89,539,670,1660,3193,1760,-1205,3748,-1582,
2769,194,1829,5021,3653,7286,4294,423,2038,2606,-144,-1600,7717,3666,-3151,-719,841,-2505,-3402,-1187,-3990,-1605,631,4580,4338,-259,-2424,-516,-1327,8009,2234,-3225,2776,6721,804,-4056,-2134,860,-1741,2219,-2072,-188,-1535,1869,2680,4889,1796,9714,6003,4020,-545,-1323,-5766,-426,2336,285,7775,2342,1900,550,-7175,4805,1043,3622,8116,-368,3781,7385,7242,2180,4611,-1483,-2742,1511,-3298,-1583,8701,6332,6207,406,-2209,3342,-1201,99,1674,-4275,907,3121,61,10135,2329,2574,4523,396,554,3751,-1484,134,1381,287,2361,5288,4327,561,-3984,2652,6461,-3087,1305,606,-7334,1503,6998,-621,-2957,-2018,-6992,-2663,929,-1685,-514,-1602,-6606,9503,4415,1782,5535,-378,-965,-3294,1193,-4937,224,-2172,2882,890,-3438,5021,4659,5063,-501,3668,-823,844,1981,-4599,452,516,-1346,-1421,-3827,3766,-5854,8120,1718,8622,14527,-3644,11820,-830,11996,202,10916,1042,4222,-8056,3373,6243,4473,302,6190,-6124,-2720,-1050,-29,-7179,8503,5431,330,2714,-4593,-2474,9569,-4272,4794,412,-4007,-1769,-304,7048,5364,2933,552,-402,-780,-1585,1094,-6170,-1039,2885,-308,-7530,-3736,-1555,-820,8055,1013,1405,3821,2719,3827,1252,4947,2249,-1917,1949,-3010,1626,5846,-4979,-2944,2056,-2534,205,-338,-354,1940,258,2773,-5922,-9052,1954,-5662,-1266,-4500,874,-361,-5387,-8227,-398,-1204,-646,1397,14,-3955,5063,522,-1699,2631,1973,-33,-5139,-2158,-346,2493,2995,-1596,3966,-2379,2076,1892,926,-279,987,-3280,-3159,1754,-5306,-1578,255,-2203,-4410,1839,3581,1533,-5214,-2833,-4068,1549,-1919,-83,1249,2032,-526,2374,1121,-5941,1447,-6684,2000,-3631,196,-116,1649,-2644,-1536,2646,-1067,-1507,996,3377,997,-409,3063,-4381,4031,2342,-2288,1138,-2279,1442,3790,525,-792,641,848,1491,-2753,1592,2896,263,3641,107,1974,-744,-5227,1076,1731,3103,-3964,1627,-1600,-3169,-1402,-2519,-919,5176,3240,1886,1215,2754,-1965,3230,711,-2421,2962,-875,9399,1112,1314,-37,-1554,-3898,-2511,5278,-1350,6313,1190,113,-1574,2620,-7735,2952,-2505,2798,-2971,2597,72,2341,1904,3145,-5293,-4186,-4440,-2119,-3886,-1019,-54,3544,-404,697,-3324,-785,-3508,2421,-52,-1115,-3384,-614,3027,5341,2782,2429,-2198,-337,-6668,1504,-84,1372,1623,
10523,3959,1433,3287,4967,-2699,3567,-1912,3542,-2738,2602,3815,-991,-1820,-2318,982,1506,1623,-1487,3511,1345,1556,447,5592,2197,4663,-2427,823,2285,5636,5454,2004,2612,2331,1466,-8400,-1616,2999,409,1009,4328,12043,5576,267,373,4749,8952,5800,4060,3157,3912,1900,-1691,972,-1513,1659,1137,475,1803,-2848,-4885,2849,3326,1738,3311,-869,3228,2861,70,-2516,1431,-4619,5582,-1770,6910,-621,1139,-1492,4045,-1337,2128,7810,12,1571,1672,-4607,2262,3624,1015,-1135,2777,2963,-675,5078,1618,6364,-2552,1950,824,5723,-1107,-857,-1485,-472,3584,3457,-4279,-871,-2774,7271,-5114,1159,-508,590,-1317,2077,4110,5564,-1019,3633,-1144,-1669,-6334,6276,5261,3515,1818,1389,-1238,1631,245,-1504,5154,8004,3635,2204,-1765,-1999,-7312,2580,398,-1214,3432,3481,7386,-4265,1597,-4765,6037,716,-556,4796,-2144,476,2326,-1039,2210,-1106,-1762,-1810,5958,99,6120,-4002,-7371,654,1699,623,305,-2984,-6231,-5769,3247,-4846,-825,743,-1945,-1750,-565,-2440,1152,-631,4920,-53,4341,-1857,-2789,812,91,1352,2682,2510,-3400,3892,3389,-445,1645,2110,5114,4215,3936,3777,-1932,-771,-10100,-273,-2924,-573,-1540,-3969,1418,-3506,8170,-182,757,572,-5760,1612,172,2621,953,3418,-3714,-51,767,6174,-2127,529,-781,-3391,-6198,-2004,-5942,984,4690,-1082,1322,-2576,-4929,-2487,6421,-9073,1161,924,1917,2367,-7353,-688,4374,-12229,-1524,-3348,-884,987,409,-8992,6491,686,-5176,-324,1100,2435,2133,1458,-3254,-5311,-2052,-1704,-6943,-2123,-66,1598,5354,1835,-379,-962,-1822,-1281,4184,-436,592,750,-1109,-727,-8366,-46,780,773,153,10307,-1369,-2867,-3324,-4727,-2201,2153,1292,6471,-1137,947,-172,1732,-2746,-2874,2930,-1807,1960,469,2681,891,-403,2520,-37,883,-1398,2750,2261,20,-718,2067,2496,-289,3184,9186,-370,3580,1576,1145,648,-2620,-359,1279,6278,-160,4605,-4869,-2494,3451,3819,65,-1159,2540,-1050,4522,1212,288,8010,-1635,-2240,1158,2516,1750,-51,-2044,-1130,66,2366,1387,1392,683,1962,1184,4476,-1358,-1414,1975,1326,190,-375,2323,-1892,-65,-292,-647,825,-1448,-2919,-436,369,-908,-612,1118,2296,485,4586,-199,-1871,-1243,-3061,281,4108,2215,3550,6460,-595,-2116,228,314,4199,3041,
-1907,3104,268,1443,1742,1248,632,3612,5090,1828,3901,979,-3738,-3244,-116,-1085,1919,-4448,-5402,-398,-5941,-117,2085,0,-3110,-1666,-2481,-107,-614,-2498,1581,2511,-3150,-3804,1398,-3332,2927,-8288,-143,-1067,-1952,514,-1749,2674,-1935,2032,-2608,-8234,-2144,-3161,341,-2132,1499,-4309,316,-8944,2762,-1121,-110,1606,4371,-1710,-1038,1640,-1074,-3408,3048,1018,-4501,-561,-992,-358,-4447,-1717,831,3035,-2884,-3355,-4989,-688,-4946,-3747,-1063,6162,-691,-86,-3346,-3800,361,-3015,1088,-2134,-2798,71,-2231,-4206,-2841,226,272,-4244,-3447,-428,8190,-1674,-6050,-2147,-1797,7540,3132,-813,4098,-1330,988,-4282,2708,-3474,3666,-8878,6193,-6345,-6332,2111,-2019,1441,-13749,-2849,7012,-9324,-1812,8468,-273,1668,-2823,-1501,580,742,4570,1547,4378,-1635,-4829,-8449,-1063,2130,2968,1226,-3720,751,7537,6214,-402,168,-2102,-2810,4837,-1546,2205,1588,-1833,-7338,-2638,-1014,4180,-443,1818,280,-5065,2380,-683,2300,7365,4327,-3602,1824,-612,3331,-4332,-950,-3423,-893,-871,-3211,-657,-2168,-6520,2226,-932,3150,6231,1693,-3696,4492,5649,-5616,-4495,-4595,-980,-7636,-2318,-942,-679,-1198,-474,-3652,-3418,-5158,-385,633,-183,-1898,580,-3300,-1139,-4806,-3214,-914,-1775,-1811,-3231,-1461,1415,3898,1064,1524,-1001,2180,1224,2809,-2740,2626,-2718,2456,662,4740,6492,-241,-3295,696,3243,140,-3125,-3060,2458,1758,-2273,1167,1294,333,259,-4138,-1014,1181,1732,-4458,228,-2692,2335,-1072,-4739,-813,-814,2459,-3078,1261,211,377,-315,3769,751,6547,-1783,-1647,-1669,-1427,349,-10,505,-2162,-3478,-5389,464,-3344,-1685,4673,1498,1241,1720,1294,-672,6134,-3402,-597,1341,3714,-900,1169,3797,569,-2429,403,-1317,2341,645,-766,2888,1348,-287,1823,-1121,-2557,3003,1021,-595,3651,4344,-1155,8126,-18,-449,-1033,-4780,6184,-1158,-3283,-1133,-170,226,1489,510,2523,1496,-415,-2286,2088,-2441,1426,2009,-10598,-3016,-2459,-3810,-2244,3162,2600,3078,-611,-2238,1336,-521,2979,2288,-849,-302,841,2020,-2789,4444,-515,1199,-901,-1647,1601,-1496,-1449,-21,-476,-1146,1291,1482,329,2938,-3436,-2441,464,-4533,1023,-1074,-710,-530,1356,1336,623,-1221,1320,-8603,4382,-1398,1775,-3913,6891,-5341,2076,-6526,-9074,-1408,-5574,-3246,-6882,-1411,-4957,
-1805,94,-1027,4465,4451,-763,7515,-677,2748,8619,6979,-1377,7329,1759,-1507,4312,3099,-2652,1242,6823,2038,2387,-2283,4608,1959,881,-1997,2832,-1023,2149,3646,-4724,3341,2531,3105,-3504,-2294,823,59,2931,4350,-1843,2806,1654,1424,1309,12563,-4456,2479,-488,3430,-1662,7829,-35,-210,-3953,1616,-1061,1614,1791,2528,7564,922,-30,7797,-2614,1936,910,-62,6272,-587,1135,-613,2711,449,5097,-1363,482,-745,1258,-2292,-893,-51,-356,3159,-1530,805,289,-1824,5760,3725,3064,8662,9110,-442,-531,4364,5317,4444,848,-2722,4935,9527,-3156,567,7932,374,2908,-955,2713,-128,-1172,1537,-6003,-1003,6589,7684,-3635,1614,3886,-1079,3107,-2206,5114,-5594,3459,5372,-248,-8475,8081,3464,-511,4437,-395,-889,2916,2173,2003,-4091,5644,3588,-7720,-74,271,9944,-746,2144,-603,9850,8752,3982,3052,2203,-1811,-718,3945,-170,3848,-1605,-355,-957,-390,2105,-864,5683,-7217,350,1395,2504,2672,-6246,2351,2401,1871,2082,87,-8,-287,500,-2167,-3836,3717,3193,-351,4483,1580,3629,4810,593,366,3959,-1870,-941,3614,1815,-3670,9264,-6580,1394,1454,-386,2873,2595,-4238,-228,1346,-1800,-1375,-3779,2169,-453,4761,1927,-4613,-1661,4688,818,-4720,-554,-6379,-2857,354,-2160,84,-1816,3385,5670,990,253,-919,-2117,-7345,757,5148,-2197,-1948,366,-213,-1113,1611,10558,459,462,-1358,-5642,-583,-4790,5307,-6736,-9168,-6218,147,-739,2075,2589,2178,2102,13,6076,-300,1152,-551,-210,-4048,3730,-3210,-1907,1188,-2977,2549,7456,2083,-3535,3605,2768,-2309,1998,-2124,-879,613,902,2133,-886,-3969,-2328,-3809,5490,1954,2783,5917,-5596,3836,-7302,-3416,553,-7787,775,-8932,-1118,4981,525,390,761,-901,-986,-681,2089,1985,3912,722,-2802,1464,179,-1025,1214,-1160,4115,1118,-3250,-200,956,-1110,728,-99,-1502,3441,86,853,-118,-1419,-246,1174,372,-1355,-4472,1853,4910,-4,4795,3844,2237,-273,-1224,-789,478,1387,2278,1400,3068,1408,3624,854,5762,3549,3980,1729,1728,-158,111,1042,2199,3288,2699,-1358,1539,-1428,-373,-507,1491,1182,5463,29,243,1369,-1043,841,-2337,-88,2000,-1550,1489,-333,2176,1419,-2948,3662,3647,1834,-5077,2548,1773,3210,2889,-3360,688,-1124,1613,-3411,743,-32,
-3783,-5737,-1635,-3324,-1551,153,-7758,-607,5253,-655,-3536,-1964,-1626,-3217,2581,-5797,-3641,-5267,-2655,3925,-1977,983,761,3171,-5396,-5062,299,-1111,-12060,-5843,-76,4146,56,284,-3046,-2136,-4994,-826,-3734,-969,-4489,-989,-3269,1145,246,4991,-851,-4562,-5579,-7585,-3182,5088,3604,-2807,449,1447,1473,-4065,-6136,4126,8806,1819,5943,284,-5392,-5019,-1221,-3278,2327,-7171,-3157,3154,-716,-3074,-834,-357,-2164,2111,-2571,2130,1284,-321,3222,2587,-2155,-2084,-3465,-4121,-368,-1464,3100,-3975,3114,2443,1659,-315,4264,-1435,-1250,-8406,-5582,-7735,5308,-805,-7172,-2769,-6425,-2155,6449,-1402,2615,1503,4378,6469,2757,-2383,3204,2338,-6878,6273,-9759,-2556,2718,-4620,436,-5442,160,-5242,-4702,-15,-280,7970,-5418,1272,896,237,-5803,-8917,5387,-4465,-727,1002,1792,-6573,344,7263,-3258,551,3779,-558,4337,-7587,-3616,-1595,1178,1681,-4967,-1449,1894,-1027,-8705,2036,-1215,4362,5841,-728,-3428,-3144,-1485,-1274,2780,3532,14,5021,4844,3722,-2322,1208,-3,5030,-984,-4194,-5114,4468,-2211,-745,6450,-4621,-1210,-1226,-4439,2065,9984,1802,466,248,1292,-4192,1021,2791,-7817,-378,942,-9241,-3615,-565,289,-4457,-5373,557,1592,974,-3579,-425,3094,-231,-2319,-7131,1452,-4058,6450,2135,4271,-7075,-6599,5242,2640,-536,6102,2019,2864,2681,-3339,834,-7982,-3729,2124,-639,3073,-587,-223,209,-1291,-3557,1054,3225,-1444,447,256,-6362,-3952,1769,-2380,-5774,-1536,5951,-1254,-990,2177,-465,1237,-1265,91,2906,256,-5931,2228,2060,3767,3274,2300,-2101,-1872,1082,-4696,2244,445,-2412,1210,-4356,1523,-1331,1240,1481,-8719,-1546,638,7173,-1152,701,-5426,2138,-13981,-1761,235,-4689,-3330,2729,201,-4801,1297,-2925,-1054,605,-74,3237,-2211,-2687,3768,-6757,2656,-1663,-1720,759,2020,-1380,190,-1510,-9356,2770,-1364,-4199,-4699,-4905,1026,-2416,-2583,-2679,-6336,-4385,-1783,-3430,-4593,-156,-692,939,377,1629,-1978,-468,1933,-2096,-890,-3367,-2094,-1320,-2663,-2190,-3072,-4971,907,1069,-4054,503,3079,3551,696,470,-2678,2698,1238,5744,-11,-1599,4311,-1224,228,-1771,-619,-1048,-819,1291,976,2878,4456,-709,-3287,-1874,665,639,-447,2331,-1470,-1428,-1347,847,-1574,-1013,245,-2,-920,-4098,2401,-5487,-884,-2071,-55,4496,-6377,-1259,
-52,-5503,5061,-38,3136,4179,1530,5780,2631,985,1693,-1939,7455,835,486,-2056,1669,1683,1325,7741,128,-1712,-2736,264,2049,-699,-3703,-3893,5539,2294,-2710,-2299,1565,3944,-885,1598,3825,7579,4876,-2310,696,1245,-1351,3779,756,2503,-3365,2336,1557,-1559,1441,-1399,-279,2168,1888,4252,1297,1956,-647,1647,-2194,395,-2732,-1496,3004,1449,7378,934,6723,1480,6209,896,245,377,-480,-918,967,-3754,5320,-1052,1039,901,-570,1253,2325,251,8369,2735,3672,5081,5275,5015,-2166,-1232,-550,5758,1338,3379,-406,4894,1647,2019,-10935,3329,2218,9764,-2703,2942,1473,-293,-1957,-2725,4597,5358,2829,638,-6386,2723,-6549,4586,-876,-3490,-3520,1716,9124,289,-3053,1726,8573,-2138,-385,-8435,5587,1081,-263,6448,2427,2291,7520,1005,52,-7459,805,-2318,-5880,598,-1493,3178,-7755,-1377,-9621,2044,1968,-3965,4738,-1104,1641,-3098,-1065,4838,4632,4986,1476,-5774,2082,-3237,-370,261,3145,3496,-1372,-3116,-3994,-2472,3505,-4639,5045,2458,1491,-8483,2019,4351,6946,-4913,6650,2464,-1374,-852,-1812,-3977,4719,-2304,2519,3537,728,3436,5148,-764,-953,644,1400,1284,-2046,-1084,2190,1656,3445,5387,-10020,-942,-3695,2130,-890,1113,-1085,1369,4261,4728,3670,6448,2489,-1098,-10913,6527,-866,390,1009,-1940,-3048,-4061,-6234,475,-1066,-2822,1904,-452,-3183,-2019,1847,491,-1383,462,-526,1165,-1803,-343,6919,-3653,-4114,11457,5710,-1369,-553,2492,-496,7087,-1044,779,4564,2258,-270,-501,812,-5826,2418,2650,-1864,745,2914,8532,713,4532,2438,-1048,-2368,-2685,1149,-265,-727,952,231,1471,552,1146,4254,1118,-5699,-1630,-2099,-6663,-471,-4122,2827,5874,1659,3450,-2385,-5147,41,2183,-1090,42,2034,-2527,-2877,2364,5123,3235,-960,4111,1787,-2415,579,25,2365,2237,2808,338,2573,99,1157,511,3970,1588,-1171,-5469,-869,3170,5097,103,-3741,44,3312,2089,-1534,287,1499,8614,2141,-3626,4363,-6257,-1151,2560,280,-2009,400,-1777,-294,-408,2406,-1274,-1713,2251,1394,1443,1649,2692,1576,4024,-375,1199,4445,924,3310,1583,587,-1756,-2126,-3587,-687,4304,2676,-2214,-1318,-2392,578,-181,1284,-1971,-1177,-2844,561,1249,4261,3816,-356,776,3193,3864,7259,2805,1052,-2247,1684,2961,1174,4389,2942,-1361,
4721,2851,-1765,-2230,-3026,-2119,-273,5338,-2147,4173,2004,2458,2670,-489,-18,-1013,297,213,6398,-944,2246,-2252,-93,-990,-3493,-261,-1101,-3318,-3290,5172,1107,3927,3682,2402,-164,783,7211,7613,3240,-543,3347,1220,-369,-5798,-3328,260,1174,-704,557,3446,-500,1862,-2729,3470,3874,-2301,1192,-3367,5757,793,-193,-493,2574,467,-1732,-1996,4283,-4568,926,5402,1159,5631,3475,-1512,5668,-734,202,778,2218,-5925,4288,2382,1289,1375,-2525,7982,2172,-893,4645,1222,1310,-2686,-3910,3309,3257,-1541,-2185,1307,-1657,-161,5415,-645,-1541,-3377,-2207,-1858,707,-4055,1781,1973,1831,613,2381,1912,-990,560,-2706,882,-4151,3334,-3842,-3653,7206,-344,9265,1512,8779,4152,-3157,-5309,3278,-2832,2548,-7377,-2604,-2895,-5571,-5768,-1773,652,4694,-610,-2868,-1723,-1492,-3754,1426,-4577,7510,566,-1113,-3470,-1385,328,-4916,2623,3820,-2794,5003,1947,558,1125,-2389,-506,1282,-2710,6384,-5822,1278,-4221,1255,-3869,-1922,539,4933,449,-3289,-1642,2462,-1012,-54,321,-1568,-2141,3041,2634,-2567,-1887,889,-1481,2992,-2992,4518,2780,2113,-2329,-1045,1123,-1414,-1204,670,992,-2556,2250,5731,1535,4262,6068,-46,-4146,270,-2012,860,2491,-628,937,-4155,-1961,4131,1442,1615,-1837,2015,754,-3004,423,3334,-2686,2224,-2818,-941,-86,980,-3131,-1008,3686,-3188,822,-2610,2819,-2958,1561,191,-4161,1683,-4182,-1566,-2803,544,2305,2256,397,2546,-2997,3104,2658,-4222,221,-2151,1823,4538,5653,4209,2725,-6095,-1953,2481,2646,863,-1347,-348,-2229,-1315,-1659,647,2101,2955,-3997,747,-899,1214,-829,-5666,-36,-3294,2936,-2014,2836,1258,-3370,-1060,-45,1406,-3367,-1824,1555,-649,995,-841,1168,-315,-345,-682,-874,2230,-1758,-2245,-941,-1629,1691,-3834,-36,220,4796,671,1339,168,1928,-523,-3721,-900,-7069,2372,238,2712,2395,4789,-568,55,-1940,-1413,-3066,-2408,-6030,462,298,2836,6124,-1206,-21,-2487,-5023,-733,-1839,-480,-2726,696,886,842,501,-4799,505,814,-1330,-1730,1607,-1001,1376,-114,2105,3988,955,1968,851,-1561,870,61,144,463,1169,-246,2660,-606,-115,3916,3778,-1699,-660,-362,1064,528,-1200,-1082,-637,8773,1612,1599,732,2709,-2070,1917,1232,-956,2060,-721,3341,-5458,-252,-3065,1525,
1248,1224,2884,2021,873,3238,6394,2310,366,-400,8874,-1191,1176,-1719,704,901,3300,3452,2167,369,1550,2208,2209,-1326,-295,-171,-983,3512,-1889,5938,7526,-582,1837,1196,1418,-1957,1563,2651,2275,4026,-851,-360,1932,-1406,3456,-5181,3775,9866,5349,2229,2326,-8057,2841,9515,5429,1623,2337,-3256,-923,1963,-8185,5762,875,-762,2902,-2764,377,293,-314,1918,2167,-1457,933,-1145,-1473,-1371,5898,-2936,-5087,1833,-1798,4464,5858,2851,2299,6611,3754,1154,2509,-1216,-1034,-1218,2317,-2139,-748,-1549,-3260,1828,748,3763,1163,1529,-7547,-210,-2281,10853,2072,855,535,-97,978,-346,-6245,-3289,1052,3012,-5960,3001,-643,-1920,3976,-2641,-3326,-2186,1805,2088,4052,6821,2675,-152,1053,-5024,1369,1787,879,1606,-643,5665,4690,3118,-1528,-4692,-1765,254,-4399,-1260,-3004,4474,-2338,-4525,-3016,5135,5034,21925,-442,1023,1959,-3101,-2310,-1392,2003,2330,7536,-3720,-2457,-2583,3103,7159,11786,1616,136,-1572,3780,-4948,907,109,2295,-35,2908,2508,1797,2493,762,-4865,222,5735,-207,-132,3769,-4686,5023,3082,-7496,3586,-753,-4626,-1624,-120,755,5228,-927,20,-7770,-1205,1804,127,3122,2969,5677,4667,-7561,-112,-838,1091,-400,-299,-6120,-986,5892,-1096,131,7127,-1476,1775,1438,-729,-2586,2174,2437,-6769,-2135,-435,3236,-5282,2418,2190,-1629,-5644,-270,3765,1520,617,-1103,-1175,-296,267,-3057,781,1322,466,2883,-3381,3144,-4748,3590,2868,5307,-748,822,-1055,1259,-2452,2159,-1300,-2704,-2118,-758,-464,-5139,-112,-2630,233,-1678,2203,-2057,765,5159,1420,-2684,3489,-519,1285,828,-2639,3731,-1874,-7496,-827,-7610,136,-447,3609,-1284,3369,785,935,1169,-5103,548,964,2425,5814,3072,1026,-934,2861,4193,244,-4287,-1213,3155,1721,-1427,-525,-3111,3083,-3394,424,-108,791,-1875,4568,118,5012,3378,-1382,2754,3274,548,404,-113,1891,-2661,1912,643,1193,-2493,1335,-279,3957,-3570,-1020,3663,-2188,-1013,1907,-1280,2258,2881,1439,-663,-1300,1243,3594,4381,3155,3993,-2129,-1123,-1400,-1844,98,-884,608,512,-285,2712,-1782,5395,918,-397,88,-1945,-1577,814,456,1177,659,3685,-537,1733,11,5708,-6476,6855,4513,3182,-1051,-1239,570,1182,135,1290,-3378,-681,239,-1331,2053,-2442,-153,
1919,-103,-1090,2159,-529,3675,223,3046,6892,1447,3833,4679,1939,-4408,-2796,4230,3992,-484,2530,-1934,-2368,1940,131,1824,-95,-429,584,9018,5101,8884,-2286,233,-1625,1747,4498,-2546,633,8846,-1306,-262,-2868,-1965,1763,-755,3696,2627,750,5096,4963,862,2044,590,3139,740,5917,-3584,5790,-7608,-749,-736,320,5340,-2607,552,2685,-402,8230,-3938,2535,1317,3327,1834,2006,-59,-2974,1070,-4520,-786,-3524,2219,-2169,3306,3013,27,-2508,-1863,4515,9907,6984,1343,-25,3849,2384,-596,-1497,-567,680,211,-1496,-47,9500,-2239,3792,1232,-3462,5354,-324,5364,1627,1985,2177,2735,1515,-2131,-984,3335,2240,2384,2862,-5236,3889,8926,170,-2487,1944,-1903,5367,6551,-525,828,-972,-2517,-4670,2266,3566,-1313,24,8119,1502,-828,-657,-3406,-673,747,895,-1393,168,3210,-1832,165,1180,1775,-1014,718,-846,2750,10569,-2857,-1409,-1541,3743,3297,3748,-2143,3638,-1987,3755,-1070,5330,-171,4523,3491,905,-869,-1063,3377,3875,203,-8080,2639,-937,3385,3898,-341,-906,272,-4164,4676,1781,3203,4357,6596,-2778,-1436,-804,-544,6455,8946,1203,1966,-2341,5035,-1672,-2232,7329,8152,821,3662,-8247,2677,-2534,-3010,-2158,-4128,-1309,-1622,-13614,1385,3667,2015,2828,2391,2333,5114,567,13932,161,5551,1735,3226,-2833,-1455,2931,3564,1488,-1031,-1434,-4809,2339,7587,3158,1423,-904,-3773,6349,2302,308,-365,9625,871,-1394,-5159,4579,-3261,-2191,-1891,8851,-2012,1581,222,2786,-5040,5454,-1114,-1218,-708,-5939,3895,-6046,1885,723,2279,2290,4481,-3319,-1725,-3073,-1068,-4247,577,2444,-2338,-4391,-580,1882,-6604,-8483,4487,-5181,2695,-1879,7174,-1205,7695,-3247,-2449,3200,1004,-229,-3932,6643,-376,1172,1972,646,7785,1553,3395,673,-1026,3530,3127,1634,-431,-1782,3738,2612,3643,5258,-261,1632,5092,1337,808,1151,-3845,148,2408,2011,964,-393,2816,-825,2795,-1675,-92,1286,7675,2006,-431,-1076,121,2538,-1646,1341,1165,-523,3132,914,3586,455,816,1924,3210,1657,2920,3548,-3840,-810,-1816,152,5925,-2171,-1354,4832,-1090,1298,-6081,2703,8976,3687,-2796,1552,294,-116,2305,5737,1825,6354,1422,1421,4443,1180,-811,-157,-234,4825,-1004,5258,-1860,-740,1134,185,962,-1201,-1442,952,-1981,-3520,3520,
3333,-990,-2009,-3665,7631,-8165,-2411,-883,-7309,-6025,-7325,-1887,-1694,-534,-2807,-2885,1753,-487,-4118,-1718,2211,1503,-3706,-2735,609,-1550,-931,781,2397,-9193,261,-1106,-2857,292,401,210,8,-2149,-483,2781,3851,-112,-4200,2371,-4151,-1304,-8663,-3388,-11558,-257,-974,680,3593,2815,248,2174,4239,4304,-1624,890,1277,1503,2461,-5872,-917,2486,-1711,1832,538,-6738,3207,3120,-1084,-2228,-2126,-3257,-1070,-6029,-4192,-2979,153,-6717,1531,-4992,3502,-3012,1121,-1264,1106,2709,543,-964,1598,-2664,923,-1256,-586,1887,-4073,481,-2402,-5129,-6994,5112,4818,-4349,-2575,3590,-3414,-623,698,-872,386,1354,-792,5560,-5539,-2847,-3721,5511,-4201,-1556,4762,-41,-4038,534,123,-3269,2595,-980,2746,-6365,-2962,-2152,911,-1232,-202,-1876,6216,-2080,-3990,-2692,616,1436,-6510,218,-2301,-2872,4540,-1458,-2252,-5912,2520,1573,-7040,1228,886,1444,3362,3380,-5255,-4347,-7138,2007,-3740,-8801,864,2337,4062,1425,-5724,1233,-3333,-8561,-1646,-2081,2580,3140,-6552,444,-2090,2133,-3551,-2906,208,1763,-1527,5885,-866,2925,-3206,-5003,-289,-633,-119,6379,-1396,1400,2212,2126,427,-4478,1970,-3036,-1667,-5781,-1954,191,3762,-828,-759,-277,-925,621,-355,1001,6955,65,-3452,5359,2043,-2232,-5622,764,-2528,4663,-1809,-1585,1848,7827,4087,369,1227,-5770,5459,319,-523,706,1207,-571,-6235,1933,1337,243,52,473,2094,2757,810,-3696,544,-1231,663,-1392,670,15,3054,-1098,-1177,2283,-166,2509,-3132,-1572,-5247,6016,-44,2118,3570,-3545,-4987,2620,-3635,-1873,-2713,-519,3998,5805,-648,404,0,-6431,1616,1159,2118,1058,2688,207,1637,1488,-577,1538,863,2716,605,2664,-819,-4387,224,-3496,-4471,-2832,-2294,90,-316,-4571,3231,996,-151,-1939,4365,403,835,289,2037,-165,-4642,-413,-684,-937,-1187,1576,117,2342,-826,3518,-1920,3330,-1313,-2170,588,866,-2428,513,1301,2270,-3326,-489,3931,1324,-1703,-3637,1370,3536,-691,813,-759,1702,-2151,1672,-877,2720,-2087,987,-3928,-342,588,1636,-826,-8,-1932,-3863,1293,-577,-1787,-1203,783,458,-2536,-1230,2640,648,-1233,-4219,-2637,384,-2673,3832,668,-2007,55,2281,852,-1169,-1664,-466,563,-303,1437,2737,-311,-4340,-1336,-4105,-1379,1858,-3509,-1810,3859,-768,
-648,642,1230,-1189,-723,-3021,1538,-2372,-7759,-2473,-4619,-4069,-3611,-1365,40,-5603,1725,-1309,-3091,-1619,4282,4453,-2372,-1196,-1503,-1111,-2930,4971,-5097,692,975,-5854,927,-1164,-2006,1134,1008,-5630,2553,5425,-1436,-1791,-459,1807,-564,-895,246,-7820,-3342,-1437,-2628,5589,-2815,-273,471,1500,3073,3814,-2743,-1480,2493,-4581,900,-4930,26,882,-7202,2508,72,1141,-1229,4435,-3341,486,-4520,1602,4411,-221,-43,-212,-5049,-1706,4801,-3328,-479,542,-1057,-3124,-6649,294,-2275,1079,2503,773,2004,-2456,-469,1208,-2076,3618,2180,1378,-3991,-3343,1597,466,1180,-3412,6765,4224,27,-221,2958,-1244,-1404,901,-1311,-8273,6971,4820,6317,8465,-2757,-1156,-878,8400,-3845,-1109,-1577,548,2457,-1791,2628,-2712,-1998,3314,-1365,3803,-2285,3558,2527,2663,-179,2189,-3364,649,1103,-5756,-2239,-6434,-37,4352,-5216,2201,3748,1684,1515,2338,770,-4471,6107,1242,2093,361,5954,677,-8452,3161,-2705,-1275,9492,-7964,-2991,-951,-800,-310,1475,-142,5469,-768,1635,275,4638,1679,-6312,-4485,-1358,8533,-4561,215,-1572,-2457,-2222,3425,955,-2267,-77,-212,-2863,-4799,635,-4504,-2104,6168,1492,-3142,1129,1293,2918,7508,3035,5642,3184,890,-1086,-3977,5813,-3464,-5145,-4829,-4075,-3228,-6503,-948,1829,-5360,-2637,-1145,-146,-1645,3766,5470,2788,-604,-2793,4070,-448,1291,-3187,-5074,-4013,2405,-1610,2037,-4137,3320,1704,6721,-17079,547,2931,4984,-3816,1154,-3548,2410,-4665,-3921,2631,-3079,-4676,1567,-7034,-1607,1343,-77,3213,2693,-162,-1584,1358,-6891,-6628,1234,2752,-1929,-324,3815,2999,-1909,-799,643,6621,-2047,2038,1228,-3968,2488,1546,-4229,5626,-28,-1491,-5252,-1375,2067,-1094,-969,2198,5364,438,3464,-693,-4321,349,-4541,1870,-2904,-187,1777,4248,1712,-57,-7061,686,-1023,649,217,5735,146,3671,507,-3206,-261,7218,-2485,-5280,2315,2974,998,1795,-1446,1667,1707,-3628,1559,1060,-7835,-3454,2658,-660,193,1560,-91,-909,1755,-1993,3210,4981,-524,-1280,1881,-3132,2478,2000,-658,1746,2510,2321,-3834,183,-3451,1023,-649,-1309,2489,-515,1278,-609,-738,-1144,-52,-2874,-734,-2492,-1010,109,-248,-1051,-1477,1501,-359,1594,-2698,2131,-2919,2456,302,-5387,-1511,-3174,-3078,-2263,2350,2122,2502,123,-3681,-2036,-2744,
-507,-1943,-2658,-2857,-127,-1827,-76,-3152,-7822,-2870,-4695,-6278,-444,3000,3187,1446,-2977,5073,-3636,-3567,1138,-2106,1403,1700,409,-5164,-3109,-1791,-2405,-6628,705,-1108,2810,-2497,-1648,659,-760,-8684,-3476,501,894,-652,-2338,-1956,3980,-1296,-2509,-1025,-2282,-581,-2292,2359,-1468,-172,-1273,2419,215,-479,-109,-2581,309,-4366,-2390,-747,-5561,1490,-1383,-1929,-1382,-5667,375,-3522,-3930,-861,-2271,-989,4103,2771,-3475,3860,49,-1725,-382,-2886,1976,4538,-436,-4387,-2184,-94,-1731,-6526,84,2674,412,-434,-2129,-3723,-1939,1413,-42,-365,-3862,-677,-590,-4416,1225,-4531,1223,-2537,-365,-12,5505,3008,1058,2955,-7560,400,-2326,2357,-8108,-3916,661,1109,875,-1377,-7360,1561,312,2821,1702,-584,-1649,-3555,-1383,-928,-3186,2994,-2179,-1512,-1540,4218,-3,2000,-4347,2112,-2297,-108,-1055,-3024,-1202,1078,3094,118,2658,-3416,-4453,10,1223,165,-653,-5421,-5290,2509,-6159,1237,-1349,3741,-214,-2290,-600,-5263,-6984,1967,-2468,-901,2032,-129,-1351,3059,1009,-2803,-2185,1165,1113,-719,6673,2647,-133,-2102,-7433,-7062,489,199,-1181,-1145,-6171,-3483,-2363,-2799,-1615,-5384,5670,5403,-2267,-1087,-919,448,2597,559,-1397,3512,-1722,4350,3551,4316,10280,1472,4317,-1120,-2117,1360,-1487,-1404,892,-1572,2154,-4354,822,802,5600,5040,-1656,-5487,-2752,-1248,-656,-4026,2197,-3121,-1835,-1363,589,2021,-7350,2282,-1778,-4238,-3464,2481,393,2044,-2527,-62,-1374,2750,-1876,1603,89,-1094,-498,-1572,-837,930,-1543,1501,-7607,-1914,3588,-557,-3570,-2336,-236,181,1055,183,-952,-1309,-2033,-2072,-2587,-675,-351,-2941,3294,4360,-2145,-3227,-3108,-1956,3242,3045,-316,-5129,2000,-612,-2479,-2534,2298,415,-2554,604,816,-2996,1674,-4984,180,676,-1080,1031,1950,-983,444,-1217,299,-3973,-3862,-4016,-1415,1207,-3124,-673,492,943,-2082,-4709,-4249,-637,774,3843,1518,-1099,-3400,3489,-144,-1498,-1001,-5444,-2912,1249,-1217,506,-911,955,-2109,1412,-2402,1782,4335,-3862,-1219,323,-2385,-295,1830,267,-350,698,511,-3190,-591,-458,-5972,866,-3031,2857,12448,2271,-2233,-3398,-636,-471,-3537,-236,-1507,-1040,-3437,-2060,-7219,674,-858,-1504,107,168,1667,-1417,2313,2844,-1097,1802,-3075,-446,2131,-435,-1664,2634,1612,-1023,-2639,-605,
-5653,-715,248,1437,2570,-546,-112,781,596,282,730,549,473,318,872,1053,290,-9884,558,1060,261,3229,533,923,-8583,54,1485,-3879,74,1166,-5955,991,-964,-4634,1447,778,161,608,205,-1299,-661,-6104,478,-453,584,-330,393,-6226,-747,-568,1042,-3997,-69,-452,393,-26,-1414,4108,-200,1640,-560,1161,-6582,1169,602,-1252,-1085,40,2315,857,-179,226,962,-218,-602,466,-10200,-163,-2454,-1967,-1722,-1373,698,1040,-1815,-1926,199,-249,1209,1898,898,-2132,-671,-581,-362,177,-6452,-2698,2265,885,-4769,-2759,1815,380,628,-8699,-188,-62,-49,-741,790,974,1164,-984,234,2108,2252,-7280,5228,870,-353,-3395,-80,1101,-3695,-1371,-1308,-2819,848,1366,-10074,-482,-3217,-2089,-643,-1184,13,1388,-349,-5975,3841,-11726,-1139,-1340,868,-198,139,721,1032,1595,930,-2409,-489,577,780,114,-866,1013,863,837,-4553,2842,-731,674,-768,223,-421,6286,-60,342,-27,251,-635,692,-309,456,-10092,313,-1806,1922,90,1812,-7378,455,-1523,-2663,-252,896,4465,78,-1008,-2450,755,754,1681,-881,207,-3454,401,-991,-336,1819,2820,145,-37,4666,2340,7404,-3772,-1869,-168,-1227,340,2500,2319,670,1021,-5477,-15442,1569,1331,5549,-583,995,-6072,5664,6143,80,-2051,-1379,4944,-512,2707,2433,-1555,-1828,-2578,898,-457,4964,-355,2608,-2185,-837,-2845,-2144,-1346,3672,-2539,-984,-1882,-3135,3121,-5001,488,189,3065,5883,-2729,3899,2694,-614,661,13,4074,-1276,-2386,-5625,-164,402,906,815,3380,-1348,-2282,4351,5582,-2260,1315,-5087,507,-351,-3596,2595,-605,-1501,691,-2127,2028,1951,-2570,-1782,-201,1946,1942,-491,-1728,2892,-1245,-1130,-122,749,-114,-626,-804,-1870,-1675,907,-333,-405,978,18,645,-502,10,-7578,2041,-3666,482,822,631,-599,-1047,-158,-732,-1410,2867,-6206,-165,2828,-7197,-254,-2149,640,291,2552,2029,661,587,-1306,874,-2433,581,49,-381,-497,-187,2468,861,345,2338,-3626,-2345,138,-200,751,-1464,112,-421,953,-2324,3824,-5992,-1069,937,-554,2351,767,64,-3200,2320,588,-652,-739,-1695,-1502,-4826,318,2204,766,-277,3550,-216,1014,-568,-934,3840,1051,1026,-1325,-560,445,393,-1417,362,-1216,-2494,-1751,781,831,
-371,1708,-2736,-514,-1152,249,-3200,1295,4500,3413,-3588,-4037,-2268,-3813,-2543,276,-1731,-31,355,-1353,5082,1273,808,-22,1402,-2696,469,1080,-212,3409,-2739,-5396,-4565,-431,-2937,-2822,127,-3927,-4193,4326,-1763,-1305,-1040,2038,1131,-3394,-55,7081,3291,2521,-394,4557,3537,3899,-5171,5379,-1745,5208,-10554,-1043,-2176,6341,831,2333,6489,-2550,-627,1524,-1138,-5622,1964,658,-715,2243,-3616,675,-946,1947,-2415,2702,2899,4374,-2712,-1733,-1029,3036,-4381,900,-779,-3570,-3951,-5083,1913,-3234,-753,1112,-7076,658,3453,894,-1826,2036,-25,2827,-1339,4860,-6643,2075,6076,-1108,-7508,-3831,-2331,-2791,2847,4568,2126,1563,3082,433,1247,889,-483,7138,-3917,1989,1780,-1179,-38,1587,129,-2318,2884,1041,4249,547,4624,5108,2674,2485,68,3217,-2982,1734,2029,-3627,-8054,3515,-6832,1639,-1085,1289,31,2619,-2917,2129,4476,189,-6394,-4199,1615,6447,1337,1206,7535,-2177,-1943,617,5985,5935,1465,5202,-158,744,-4806,474,1210,-1386,1754,5861,-1074,-1549,769,-3356,895,1980,-3423,1580,-682,3039,-1059,-853,2174,-2599,-705,-1611,-2274,411,-3382,6923,293,-5306,747,-1983,685,8527,1836,1627,-2168,3209,2388,2403,1704,-4663,-1328,-2026,-1563,238,1211,-1147,-2163,-2295,-2563,-4989,-754,417,205,3635,-406,-3006,858,4919,2893,3449,-1183,3805,1338,-4448,-1673,-4181,-614,-2482,1311,-978,2269,1813,-460,-2646,5061,2760,-2059,1729,556,37,-1540,3323,-438,1729,2334,-302,-1955,-7400,-2389,4840,1193,-2669,-713,-4527,-704,2552,-1263,-3023,-2200,2052,-1231,-1219,1014,-2067,-328,-2399,-3373,-718,1464,-3771,-570,3132,-3440,367,-6538,944,1059,4377,-3120,3035,-346,-3358,-476,1032,678,1912,-888,190,4483,-3316,-4779,-1415,436,1521,-58,-854,-1167,734,1097,-4492,5091,2028,-3378,-5779,2404,-3182,-1964,2802,-2236,2419,-4330,-3846,122,3963,-1216,-2237,-53,2135,-1343,-188,-2703,-5016,4152,-4597,-3747,2927,-456,2855,2509,1647,96,4289,-2280,4597,-1182,2879,1459,3361,2883,907,2148,1942,3027,-2577,2305,-1630,188,-1462,-417,-2012,5748,1784,4733,66,3858,2393,-3684,-475,-894,-1007,-730,4842,606,1516,1498,1139,109,2712,-1250,527,-1339,-777,-1184,2421,-615,-83,-3010,-1101,1124,-3067,-1441,3128,74,-1152,3403,-1069,
1772,713,-4880,-1216,-4762,3461,-1419,5662,152,-493,1163,-2571,841,-4227,809,7329,-4678,-4520,417,460,3106,-5436,904,331,-2217,3575,1063,-8222,4207,523,-2803,6169,1601,899,-441,2216,-989,7642,2691,-1607,-4576,3503,2478,-635,1080,3311,-1831,7230,955,4160,234,1998,1364,-3424,696,-112,-5329,-6712,-2024,-3501,219,771,-2933,1522,-165,3389,7736,-7409,281,2138,2130,-3401,1437,-5325,-2929,-1384,-1743,1721,98,-1726,9688,4310,-2827,-2164,816,-280,-4078,-1180,1237,-2368,-1026,-3492,-8177,-1783,-321,1832,-2354,-3996,189,1628,80,-936,1529,-1051,-1882,2021,-144,660,-5310,-4174,-4377,-1688,-1720,6197,3664,4736,2467,4556,-2307,3277,-322,-12013,8160,1112,1182,-2303,5090,3434,4250,-1799,-6812,4026,-3496,-1262,-969,-2591,-3487,-3138,2167,-285,3021,-1668,1665,-248,6956,4034,-326,975,-3737,297,-4058,63,1659,-3108,-3929,752,-347,-5303,-130,-254,3377,-131,2690,2605,2151,3037,2961,-4668,1923,65,770,338,3945,684,-4099,2294,43,-504,-1838,2271,285,3644,2961,975,6804,4569,-2844,-4005,1060,-3875,508,-1477,5707,-2595,61,2024,-6005,447,486,1414,240,-775,450,-338,1699,231,3835,-793,649,-2855,759,-2802,-1399,-449,3968,3842,1594,-4754,1923,-5093,1057,-426,1866,-391,-1336,2422,-318,-832,-4301,2835,978,-1513,-42,253,-1793,3836,3341,-1393,5213,1641,-290,2124,1195,-1358,2506,-2816,84,-2991,1468,612,991,-1132,-743,-942,-523,1270,-2481,-979,-1748,8218,7910,-3393,6829,-377,1238,189,-1946,1023,2576,2859,218,-420,2836,-3995,-2363,1173,679,-1251,-850,-308,-2320,2573,-6599,2362,-747,590,-4123,-2053,-1529,359,-4686,-798,-1598,-4319,1388,667,-2865,993,3162,-710,1689,-1384,-192,4309,6473,752,-319,2231,458,-799,1654,-131,772,3430,-3643,1337,-292,-735,-1676,-295,1249,-3856,-712,2358,530,896,2128,-5337,606,-3505,-2285,899,447,4440,-849,743,-1073,6255,6643,-4395,2247,470,-1471,-73,-2019,3548,-2402,-3433,-3674,-515,-2675,-1873,3209,-1167,-658,259,-574,-849,706,-2426,1178,5102,-207,346,794,-371,1457,-5502,-2588,-2694,-2257,-1259,528,3119,215,3533,1608,471,22,2064,1946,495,547,-88,3938,-2830,638,-4786,3380,-2012,5718,-3839,1926,2204,84,-41,-1194,3204,176,2828,
-2337,-2139,-4901,4405,-1500,1270,-2976,-1425,-2012,-3563,-2149,-693,-1230,5742,-1194,2193,630,-3618,2932,3180,-690,1896,19891,3687,-1832,704,-4020,652,-979,-561,1904,5488,2190,6301,2076,-3721,-576,-2088,1968,-2294,-1267,-5941,642,-710,2698,2206,551,2426,14885,32,-2443,-2433,1903,3363,-2566,-294,1591,2635,-5398,-1743,1612,2551,2695,2129,2748,-790,-3376,1625,4588,2269,1280,538,2340,-1047,-2229,-1921,1381,1802,-444,4325,1511,376,-594,3099,-3780,-1388,728,3915,2813,-2695,-1126,-4883,4639,6098,137,1728,-5391,7901,5052,-1723,-4110,1822,-3155,-1112,1711,-791,-4322,1206,868,-6478,-104,-2482,-4533,-1461,4046,2818,3572,-3250,7050,501,-94,2851,-1123,698,-3662,-1802,-17182,3192,363,3610,1878,1017,866,-4808,1313,-3597,-1057,1482,1333,-5890,-863,187,-5169,-3078,4221,-1157,-6670,-2810,3832,907,-2587,-1138,5810,560,1950,-617,-807,646,-3754,-1501,-212,-5431,3089,1884,1827,-3540,-6247,-2497,2477,2634,-628,8269,108,384,-2062,2473,1688,-1717,-243,8360,60,113,-2307,-570,3536,-730,4315,5077,-3566,2522,350,-1943,2254,-410,271,-3841,-806,-2279,-5105,2148,-4012,-4783,2027,-3292,-2292,-1773,3401,-5565,-1574,-1546,3747,6229,-5229,9080,223,1517,4873,-2141,-4123,-1136,1704,-1841,16162,-2875,-1278,847,-915,3003,2736,-2161,2536,-1835,-2794,7364,5686,6859,3892,-38,1099,-2417,2246,-4174,-1462,2115,-3582,6105,598,-3136,7296,185,-1147,-2274,-2964,-3141,-1788,6325,10240,113,38,-42,-146,-4057,-429,5710,5942,988,-1502,-762,-1844,3698,5630,38,-1421,768,-562,-1263,-669,64,629,-3801,-1283,-336,1378,2321,-2238,-3140,1993,2402,165,-491,-1253,2269,-641,4541,805,-4703,5052,-5920,-1604,-1180,117,667,1458,52,2416,-1068,-779,-5132,-279,-2498,-1739,4614,2078,552,3657,455,-981,224,1345,1123,-1565,-1192,-440,2303,-129,3403,-3691,5841,-1437,3788,1817,2193,-852,2937,758,-1638,-777,-277,38,-1725,-413,4952,-3063,727,590,-478,-428,1016,-338,-433,989,1011,4394,2159,3682,6190,4389,-3302,2262,-1548,-2750,-4411,-1196,4092,6203,987,421,3805,-4058,747,-2843,4396,-974,-1172,-157,663,-1135,-376,-207,1080,-365,640,1379,4609,4318,-1370,-2809,2109,-1237,2681,-385,-2677,-2629,-1607,1008,-148,1420,919,45,-188,
3009,2170,1734,-2180,5978,631,4613,5724,949,390,561,3448,37,6883,247,454,1783,5172,-2449,6393,-1316,2197,-453,921,2120,1003,-3700,-2808,7292,-3138,-2274,5509,-70,5145,1584,4141,7951,-2848,2693,-116,-2993,3075,3026,7479,-1014,5031,-4200,-1747,-857,1085,-574,4738,-2210,-2126,189,727,1775,6998,847,-398,-8900,-159,-11268,1252,1085,9598,2300,1759,6725,-208,7948,5948,2920,2781,4053,-567,-3285,2750,1250,77,2030,3330,-6754,2217,-1185,5169,152,4793,3019,-222,-2285,1917,1345,-1521,653,3229,875,-1193,294,670,-2062,-410,1224,5091,7015,3333,3627,4468,1733,3224,767,402,5648,2108,2423,-3344,2073,314,284,5335,-1031,1638,-642,-59,4299,377,2357,1,2365,-927,154,921,-2931,250,4451,-180,6882,6986,-1133,3993,-4223,-825,1500,-3336,-2401,2899,-2354,-2629,-5247,513,341,1775,-660,-6087,1797,2196,3220,2113,-809,4486,2763,5906,7606,-2845,1049,927,-8013,-414,-2282,1710,354,4109,-5853,1159,3161,-1936,760,2310,-843,-1759,-178,5328,9039,2811,2150,2876,-2908,2294,-3760,1088,-557,-1695,3634,-2362,-662,4410,1772,4379,-1712,608,1434,-1249,-1443,1604,-2841,-1672,2766,-2224,3925,3097,-319,-2781,-6045,2849,-365,-3013,2322,4106,876,-1168,1499,101,843,12519,-862,1658,-1977,-617,-2642,852,27,-4875,5696,-475,-3246,-1607,-7495,143,631,196,-8920,-1542,-4382,-659,1683,277,8961,4079,2403,15734,-622,2349,-4003,-358,-5071,7275,-3887,617,-3138,2148,405,-1228,-804,3367,-6002,7100,526,-2622,5160,5492,-850,-1342,1877,-2738,2125,-3391,-1698,1200,12,1973,2640,2400,458,337,-1669,8602,-352,-264,-50,-7527,2475,-2467,-845,6053,777,903,-3154,1166,823,-9615,-2738,1711,18,-513,3502,2270,5390,5510,-3710,2194,-2031,444,2408,566,193,-343,1727,-2799,5523,-1351,-2391,3684,1067,1866,-2419,2519,427,850,3246,-1542,754,4127,91,4461,3755,2182,4727,-855,2462,-1571,2414,-218,3232,-111,-1043,5703,-1484,1248,-3410,878,2046,3607,-215,-2196,4788,-1821,2188,-514,-970,3129,-714,1060,187,2172,1257,-358,725,-430,-283,255,402,6129,375,453,-758,-1204,439,-704,1300,-2751,-1484,607,-669,4863,1933,5715,390,5950,-1023,-1240,-87,3805,1062,-1269,1623,651,3601,2042,2153,942,
-1767,3550,-1952,-572,2099,-2623,-569,-2580,-992,-4250,-879,2558,-701,5639,-3467,7276,-1763,733,2290,1235,4441,-3225,-1494,4993,-83,5338,-594,2384,-984,-5104,427,-1453,461,687,9172,844,-3433,-7123,-2202,3595,3433,-1822,-2809,-283,-1621,6872,-1169,882,3656,-297,-3507,5410,3857,373,-2374,6662,3738,2985,-3412,-1405,1571,1514,1552,776,-4320,-4220,3627,1196,-975,-710,-694,1205,-3136,-425,-4193,-2124,1470,1302,718,5968,1982,5218,4257,-2678,142,5811,3814,-4620,-4120,-1144,3100,-2240,5241,-163,3017,699,2049,-3053,-4797,-2416,-2652,2083,3282,4278,237,-674,-2286,159,3939,-279,-1814,2383,-1675,645,-3980,2179,-650,1415,-2456,2956,1145,-3296,-2954,3479,1907,2413,-7615,3045,-3690,5054,-4221,-5573,-984,-3785,2835,2822,1900,128,-105,4710,-401,-7275,-2013,1474,-1210,5467,-3354,-344,4184,7776,-567,-5553,1654,-2291,-5574,-5700,-4088,-210,3158,-2970,-140,2438,-5349,2600,-4358,-8754,14639,460,-1524,10824,851,3251,-3017,-377,-1056,3295,686,8044,-3886,8956,-3447,10767,-3204,3471,-3553,-1761,11106,1007,399,-4902,-49,-1286,-2583,545,-1541,1050,-655,-3762,2197,-1252,-1265,-2718,4962,-143,-1362,-3340,-726,-2522,-2780,-1806,2687,-1,3780,-1754,-792,5002,3311,-100,1220,1064,-2999,1910,-6,-3974,-178,-1450,-830,-1355,5773,2456,69,2231,-2482,-832,1656,171,5494,-692,2590,-5210,931,-694,-659,-3580,-2861,1041,1320,-1102,3490,398,1926,4065,2715,-3677,-6866,535,1609,3272,3284,-1889,-2479,550,-166,1487,-3119,-419,-468,-924,2732,-1999,402,-2859,2099,-1782,-326,2592,-2038,846,-898,-2933,-1444,-546,3226,-3003,-1484,3530,4052,-5293,1440,-1701,1547,546,-629,136,957,-3907,-1121,3815,5983,-10537,1871,1034,2806,458,-1286,-3657,-7430,-3846,4172,166,5245,-1977,677,3422,-1138,5864,-2820,1891,-3684,-784,2345,-5293,-1452,2467,-1555,5319,687,2797,-3806,1542,1039,2238,-2421,1256,-857,-1792,-1987,-3962,1297,1923,-830,409,-541,-4352,-1367,-2654,5205,10049,1729,2173,-1486,3203,4701,582,839,5807,13,358,-965,-959,4089,2262,709,1239,59,-4359,8238,2617,-2495,8159,799,-1519,-787,1655,1255,-1708,-1780,-1267,-1466,-1514,-1263,10799,-256,-87,-4669,-167,4425,254,-2606,217,24,558,-1336,-1832,-170,360,1862,2222,-5677,536,
1063,145,-1246,-3065,540,-5310,3061,1543,-2608,2315,-2903,-2235,-1693,-8814,2121,2590,-443,2695,-3689,-1528,-521,-5343,-6666,1045,106,1663,-6516,-1079,-1406,475,250,-4084,1126,7383,-6117,618,-5532,-2896,-2392,2307,4644,2879,1376,-3281,-800,-6830,2667,728,3455,-664,-245,2,215,813,1619,-910,420,-841,4437,635,-4305,-8871,4110,-3990,1216,-2458,2180,-1364,208,208,3257,-939,-1913,-3163,1558,1033,1013,-898,-180,-2622,1215,-641,2855,-4382,1369,-240,-906,-2397,-2903,1780,-1458,941,-4296,-1642,1299,441,4395,1060,-1080,1099,6201,283,2775,-5499,-1595,-5604,5254,-1633,-4607,-225,-3720,-12001,-4697,2141,-3703,1637,-1356,1625,-4520,220,5408,-2177,1464,3613,5214,-4940,8828,57,-2454,-1508,813,-3238,1901,7429,88,-910,-5185,-4451,943,-1056,2433,-1929,5198,-545,342,-3150,1156,2227,714,-1036,-2363,-421,-1244,-2285,-5036,-147,-2151,-1817,6103,-1183,-4573,-9283,-3011,-843,-237,1331,7700,1851,3979,-1676,2428,-2021,-5738,863,563,-1857,3088,640,831,-3011,2686,1900,-4815,-5715,3141,525,-6359,-3046,-75,-2077,-5014,3325,-817,631,1480,1140,-1712,1586,-745,1568,1012,555,-7798,-2467,2129,-3145,-1130,1000,2984,4531,1969,305,2555,-2350,-7487,4695,-6672,4478,-907,724,-5444,5796,-2221,-1795,3160,-5307,10844,6349,-4822,-915,-3368,-8510,-1548,-1155,-824,-4534,3496,-725,-3282,-409,2051,-1204,2421,-1039,12818,-2286,-3546,-3817,4492,-751,664,-2133,-812,3489,1888,169,3244,-339,-218,-2320,1143,-2673,-762,4165,1911,-2133,-8639,-2601,-3132,-1539,-1675,1175,4639,121,-1960,-208,-5395,1985,909,1761,-3768,6243,3202,1935,2888,2218,-5459,-2679,-395,-1170,-5304,638,2118,-3741,-4180,417,-2125,-3220,1423,6778,1701,2312,-567,-5918,-445,-2213,1576,4132,185,2283,-3501,-4505,-6363,-2233,-1208,595,-1523,2301,615,2220,531,4871,1903,1840,-2898,-1392,-6761,2502,-23,-2440,-974,-4789,-69,-679,-1149,-2020,-4525,-4798,-104,1936,-317,-4020,-112,-1114,6325,-3154,-340,-1227,-1408,-1634,-4715,652,-22,-315,-6302,926,-1138,4624,-1664,213,-1212,-8442,-1262,-5605,-2294,1053,-638,-7078,-1376,-1353,217,372,-3131,164,1435,683,1859,-3179,218,2131,-937,-342,-2536,-2756,-731,-618,-4476,-3072,3099,-2094,-2045,700,2552,1213,-909,402,-2210,-278,-3433,1504,
-1800,-528,-4230,-1005,-863,2201,-1990,-2206,-918,1785,368,-3870,293,-3698,-4487,1046,-6774,2866,5845,330,-1327,-2150,-7055,2909,268,-32,-2323,3079,2400,-4699,546,3885,-509,-5096,-2876,-1293,-2919,3755,-1970,2525,-2080,-2210,2577,-918,608,-2509,2040,-7417,5845,112,4267,-690,4197,1921,2761,-8844,582,-1210,-250,-998,-325,-1611,-2889,1800,1649,-1702,1005,2189,-2771,791,-1254,-470,-6013,-675,4230,2199,2253,-3837,-584,-4008,4280,-2334,-4108,2528,-2481,1275,-3275,-1267,21,-710,-1171,-3982,1538,-2120,-717,-4819,2947,-1145,1181,502,361,-3483,141,-4708,4268,-7263,-4518,6016,-804,5999,-236,-6875,-651,3852,-3265,-1353,-10026,-3015,-2039,3699,-1759,-1274,-366,3713,-154,-7316,6678,-5229,2276,3101,1368,8819,4803,-407,-5049,-3117,-4920,-6122,2110,-125,6534,-2037,532,-627,-992,-817,651,-940,18091,790,2102,1406,2472,-1205,1934,-3326,-3116,1414,-4093,1603,-4338,-2300,-293,-1197,-5205,818,1756,1368,1718,626,-106,952,2143,-3,1151,3507,795,-1019,3052,-3071,-478,-469,2179,913,-2564,-186,-4858,-1809,-3878,-9132,-1662,-2316,370,7674,-1338,-3559,2080,-5658,1981,-4441,-1480,-5967,99,-4578,-5262,2232,4059,2413,-880,-954,-1150,3425,1673,296,-329,-2098,540,2029,-1799,1554,-1890,2478,-8602,-6361,-2131,-1835,-651,-765,86,2777,-71,1572,610,691,-189,1390,3733,1,2524,2246,-2187,2672,2459,5255,-2436,-1504,-4430,2147,2390,-1985,-3640,1288,1088,-385,-1439,5420,733,-2453,-3666,-1668,479,-1561,-1422,-41,5506,-1352,-498,-181,-1073,-725,-1536,1989,-5958,-992,586,1515,53,616,-2362,-4215,80,-1169,-2671,1164,32,2467,3834,-3675,984,-684,4343,-1107,1353,-418,3015,-553,-542,-1071,-567,1252,2472,-2550,1012,-254,206,1403,-4456,-4489,-1651,4036,759,446,3039,3384,-3147,358,2495,-814,-4839,1233,-2737,-1057,-2348,-1385,-1664,-1054,-1176,-778,-1694,-3982,-295,-1211,726,-1087,-8552,4451,-3641,376,-636,731,2175,3445,-2730,-997,1705,-1240,1551,3426,-616,-1175,1055,-2608,2650,-1317,577,-5679,1643,-2118,-2778,303,-4477,-879,-1531,4045,435,-2890,112,-1895,-659,1402,33,897,-4680,2823,-519,-2933,535,273,2134,-1929,-2338,201,1291,-4051,5231,-1980,-3123,-2189,1514,4947,2865,-1669,3860,1557,0,416,-2263,-1317,628,-154,
2314,-1593,1177,837,2431,-3009,552,7637,5235,1301,-418,-3139,-1795,-843,4793,1966,-1337,-1390,-1208,-1155,2825,3705,1760,5270,102,3344,454,-2550,36,-2710,-6316,9175,-954,5212,300,-2962,1495,408,9161,-2170,-2411,277,-1745,-34,-2316,6698,1065,-2012,-6115,3400,-1047,9308,-2799,-2693,7703,-2990,5309,1445,2692,-1792,-143,3470,-5383,806,-1903,8557,1855,-1422,1847,-164,1127,3649,-2844,1771,-1837,-2775,-1918,5971,1269,4322,-2054,2092,-2296,-159,958,2090,-683,470,533,2932,4421,6259,1940,2773,-13,2575,-331,-4605,-3220,1222,-1201,-272,200,838,6916,-4775,4740,2361,830,195,-3456,-1242,-2493,143,1608,-1140,418,-5139,28,3920,-6526,3005,2684,229,-412,681,4998,4487,-3019,-1285,-4732,-829,-4103,-1018,853,-2262,-2311,-3502,-2631,4288,2197,-619,-1255,700,-2898,3319,-871,-15134,1164,3952,850,-6269,-6524,508,-891,-2845,-2075,2993,877,330,1514,5584,1918,78,813,-4248,4567,-1482,-5162,-400,4541,3462,-6937,-1381,-3823,-2132,-4264,-3476,-2421,1721,-2174,3933,-654,8692,-2890,3426,4060,5670,2512,3974,-2150,-627,6493,586,-859,-534,-1389,-519,266,3911,3321,2531,-2298,-2227,-2154,-1717,-2341,2155,981,4613,1858,2656,-5460,-2346,1261,2146,-2472,173,1326,1879,3334,-3474,6224,-436,2341,2083,-522,1892,2510,-707,190,1404,3299,3428,1807,2165,-3102,1845,179,-1507,-3968,1674,2083,-5444,8194,7687,703,4227,3747,6475,-2965,2985,-1085,492,-11240,6872,-179,-963,-3986,5358,558,907,2347,9320,-2243,5475,618,712,6881,789,4502,-4429,1461,3932,3476,-2553,-426,1302,1447,553,1511,1326,-1804,-1952,-2199,6697,1190,-1714,-3845,-7385,1942,-3844,-2757,231,1968,-3868,-754,4147,4727,-4658,39,220,-1827,449,9252,517,5573,4929,-73,2152,3410,1156,1835,-2406,2304,-1104,839,2845,3223,963,1307,-670,4410,2646,2255,5443,-1420,-4109,4166,536,-1557,500,-1897,1063,8567,1356,3976,1679,-374,-3810,2638,-49,1697,-1897,695,2349,410,-1664,5184,268,-97,1069,-1417,2028,1799,-1573,3383,-1397,-441,-492,461,5577,1893,-1316,2557,5548,-2067,-4843,1618,292,4363,382,-1588,522,-2553,360,-600,305,-1861,584,685,1514,-3083,1672,-217,271,3082,-5389,-3911,2109,2606,1709,3472,-5559,-2794,-141,2380,2791,641,715,
-414,898,-7039,1194,-332,2906,1924,4355,2119,1909,-5277,-3546,-3282,-2528,-1469,3731,-5170,1345,7063,-1870,499,-5826,1229,788,-7495,-1291,1529,-18093,3588,-2303,-89,3043,-772,47,-2505,245,-554,13570,-7499,-1445,-2029,2423,2738,1939,-3054,4467,-4544,3273,1369,42,1238,1613,-1789,-6168,329,0,-5474,-242,-1274,-3150,526,4552,-70,-536,-3768,3760,1759,-3593,3720,-2411,3009,1783,1951,-302,-510,-1231,377,907,2549,-2584,14107,4810,-2837,-252,-1193,1748,2834,-2930,2100,-735,-2608,-5238,-2584,-1628,2143,652,-850,-3149,-2280,-1204,-120,-3694,3544,1666,3052,-6026,1943,-452,-4471,-2856,-478,-2724,-7081,11961,576,-129,-3013,6389,-7889,-848,-3338,-8046,10159,-431,4271,-6458,3092,-885,2921,-2527,-3287,4316,-2421,1853,-3113,-2976,1150,-218,-1931,-2945,74,-1479,2250,714,3339,712,-2442,4558,-4972,-3128,934,-4266,-2769,-5225,-1711,-860,13,-4179,-602,-1982,-4217,5188,-184,3511,-5123,2707,48,-3387,-820,703,4380,2331,303,3283,-4490,-6098,130,680,1292,-70,503,2341,-1816,-2581,3049,-2054,-781,-7453,2048,-2205,-3577,-2066,1291,32,801,536,-4736,437,2577,-7278,-766,-251,1150,1788,-3402,312,425,-2528,625,-3379,-1081,999,-4221,2055,95,1780,-3119,1469,1145,1174,-187,-474,1971,-806,-6335,3810,2908,-3600,-7092,1432,-2253,-92,1025,-1323,6881,-1490,1380,-1380,7363,1648,-3557,1400,-1891,1107,1218,-147,-1672,-3858,1266,496,-3552,-1998,5966,3237,-3702,-1448,1335,2798,-1975,3604,7533,-3340,7095,-433,2148,1312,394,-1756,-2993,6431,-1411,2676,2843,-4595,-3507,-1043,-975,1400,-154,4900,-1418,3732,-3816,7488,34,-99,-7413,-3625,-1425,13,-4201,-2666,-1457,1547,632,1810,-2976,2258,524,-2177,2079,-4428,3590,4016,-318,968,1024,1087,-1210,-276,-3057,-4564,685,3885,-901,1240,-2493,-941,195,-224,-940,-2780,54,631,18,-4519,3360,-12148,-2510,-4875,-1394,1574,315,-2736,-861,-3892,913,9585,-1770,-1689,1338,-270,-1609,595,-890,5064,2483,-1848,-972,-3094,3595,-544,-1771,-8408,-4153,-2216,-6114,2842,-2331,-1534,1806,2339,2648,1091,1691,262,1053,1043,-68,-3090,-3600,584,1014,3977,1241,-3029,890,797,2170,-660,1601,-446,-153,-4628,1569,-1313,-3382,-7114,3086,208,1027,4294,2840,881,1681,216,-4903,2489,-905,-3366,
-2300,4752,1532,662,2787,2062,1585,134,3660,1385,-2394,910,-1364,-1233,5275,-4771,1090,-2201,-109,3570,-4305,2505,5548,3272,-2263,-2410,-1017,3915,1173,-569,2780,6916,-2492,647,4537,4022,-5571,3901,-480,6132,-1445,-671,-5904,3392,-517,8314,1504,-2944,-13073,-2333,-2598,-1389,1395,-3153,856,-871,-4298,1432,-2636,4234,7634,-826,2966,1338,-6705,2304,-4136,-1333,-59,-1206,-1915,4580,-298,-574,716,-2703,350,-4632,-1834,539,-2715,-5399,2530,3939,10415,-5069,-1115,1685,-2050,-1419,-3555,3528,2502,-180,-42,928,-7448,-7674,-3661,-5239,-4402,-1109,2786,-938,4383,-1089,-321,6013,767,2190,3166,3914,-3430,270,1821,-4343,5241,-4559,4555,-4834,3416,2338,1340,-438,-7689,-2572,-5339,-1275,-241,1684,3655,5942,-6366,2072,-3785,-4106,-3273,-1371,8034,974,-3517,3822,530,7031,-3218,2154,8501,325,7006,4107,-130,-792,-1349,1349,-2845,1239,-4816,4309,-5277,2980,-137,-3704,-241,2843,-3744,-1958,-8114,-504,-1450,1264,3721,12350,-4,3656,-3155,-1520,-2644,-2672,-2626,1342,-1796,-931,-474,5594,-7559,-2838,665,2744,3652,3894,-7456,1513,2084,-726,-1229,7189,-2426,-2504,3971,-3930,-1211,-2254,2115,-4664,-6721,-718,-1474,1214,-2134,-45,586,-318,-4194,-3059,264,-2000,-1558,-1912,1850,-4107,346,-672,5251,-494,-2313,-956,-58,-605,-2379,6308,2529,-6574,-499,5820,4532,802,3919,149,3132,-1043,-5918,-3561,3803,6681,6309,1485,-5021,1585,-311,-7971,-1928,-5832,2740,-3400,647,-6537,6575,1483,-3861,-3750,2366,4200,797,1948,-1851,3628,849,131,7398,3485,109,-2261,-3091,2954,1125,3872,2862,-3480,107,2903,295,-2914,1461,1551,8692,-3405,3481,9,342,5009,-5082,-3313,-1129,-4023,-526,3096,529,4663,5036,-3010,1220,-4533,-478,2419,919,2463,1754,-454,2866,-2885,-1348,-901,39,-310,-7209,-1049,2625,-1320,1033,4498,4056,1364,2619,2042,1386,-1427,-5306,-510,-156,1602,3828,-3511,-409,-135,-1814,1523,-5473,495,152,2586,-1422,1545,1575,5302,2050,6455,-255,545,2639,-2245,845,-1225,-911,-159,-3078,-3059,-4972,2463,-4497,3186,-520,7487,1306,189,-1974,-2601,-493,3301,-328,411,2586,1506,-2184,-922,-155,-729,515,2411,1013,-4303,648,2319,1647,-2198,-4209,-3005,4005,1713,-6021,7817,-5116,1034,-312,1561,1124,168,-4416,432,2603,-1799,
-440,-1886,1429,1298,1160,-1611,4606,580,-1455,-482,-3778,3083,1446,5910,4567,3890,-1891,1505,-7160,1446,-3014,-106,-1937,-1249,-42,-5831,1860,-3274,238,-2772,-5025,1516,-6999,-4375,1549,-2975,-796,-7219,948,-792,1408,2072,821,4193,-4066,2393,-201,-5042,-8917,-3639,832,-5495,-3731,-77,-3826,-1079,461,10152,4032,-1340,-613,-3957,-1334,3265,243,-1075,-6001,15075,178,-5998,-2495,-2688,-499,3489,877,1275,-251,2864,-2366,3643,-636,503,367,-524,-653,-677,-5816,-2843,1019,1605,112,3668,232,-3564,626,2369,-5244,726,1870,1713,-4335,1197,3657,-1078,-172,-917,1144,-3728,428,270,1502,2017,3469,2449,2518,8008,-1149,-3926,5392,2461,-1856,-369,614,-1015,-5111,-253,-7368,-11144,531,2566,3162,1744,-6665,-5202,-1939,-211,78,603,-4951,-4073,723,3659,-313,-287,709,-794,-1962,-6005,-4526,-2126,2220,-202,599,1977,6709,-2035,-3262,-1694,2305,-1266,-5799,-2585,1929,95,-4465,3380,-1077,10064,-2116,-1121,-3147,-3837,-1438,1069,-1414,2803,154,849,-1430,4168,-1343,-237,-1356,1376,-3203,-3094,-853,-2822,-819,2265,-2715,-995,-6188,-3267,577,-1982,-3106,-1391,2530,-1451,-3762,4684,11823,2475,-2997,-2920,-2703,-2418,1894,297,-496,-3347,-620,3662,3700,3862,9269,453,-7504,613,6289,-3986,-202,-295,-4422,-757,3969,-2513,-1019,2375,-2032,1862,-558,6322,-3363,-4864,-209,-471,356,1512,603,-969,-868,1674,-11145,-1019,-1120,665,-9372,-1061,-2406,-1596,3103,-2592,-2358,-4611,5846,8747,-1048,3024,378,1761,-4842,794,1145,1009,3346,-11992,543,5081,-2445,2581,5257,-7750,-1307,158,988,-2670,459,-3089,1765,-2508,-156,2184,-2528,1623,7215,-2924,1844,2284,-4649,-4900,-1294,1380,6216,3107,-1602,3820,-3057,-1999,-2841,-4119,1106,364,-2906,765,2622,578,2624,-885,2154,-642,1807,-1529,1925,-567,-3112,-669,-1333,2256,-3465,-5647,-1846,-2938,-753,-5076,-1027,-821,525,1048,1845,-1185,-2672,1089,850,-319,667,-4821,-458,-337,-92,-357,2018,877,-1220,-2483,-2209,8199,1528,574,3610,-948,1065,4,1003,-705,1101,2933,-1536,774,-2296,-6588,-1809,967,-923,317,1799,1681,-590,724,-724,322,-1012,-1698,-924,1152,-2201,-1268,424,-1322,-652,351,466,2524,-2853,531,993,895,-2808,1794,1123,-2872,-1178,-2554,-1333,-3671,812,-4645,4786,-261,
380,-2688,-1558,-297,2298,388,8305,5344,-808,-788,-3943,1986,3619,3773,392,-2360,-3286,5817,659,2524,1512,-2164,3936,3389,5353,-1170,-3915,-4010,1353,557,5991,1158,-879,2145,4376,2059,-3356,-2899,-86,-1472,-2361,2158,5899,3852,-3910,4291,839,-1758,-4284,-914,4713,-219,-2456,-162,-3995,-2746,-2823,-1613,4202,-1444,-4046,590,-5002,2843,-10,-3252,-2822,-2736,6129,-2702,-2875,685,2329,-3398,-854,127,2743,3117,1467,3576,8048,1157,-2380,4951,-4824,4148,-2322,1431,1120,2725,-1525,-3894,-292,-3587,1921,3458,706,1637,3742,873,-696,-4918,2182,1291,2027,-1901,-331,220,2862,347,1780,6259,11653,3574,2820,-3522,2129,-1527,-2912,-1904,-10911,-174,2926,-8444,-1593,1181,-5635,1265,2179,6831,2157,863,-4879,-3828,-1149,2555,-945,99,-5370,-4422,-1381,2016,499,-4691,-1215,1124,-1555,3612,-3222,-2279,3448,-1239,-2554,3138,11836,-1203,736,-2477,6691,2716,-2723,-5823,-1474,-1411,-5357,2507,-9767,-1804,-1182,1909,863,-7944,255,4929,-547,574,691,2394,-735,4846,1405,-5474,-1440,837,-3148,-3367,-4612,797,-1980,1290,-723,654,-11227,1255,-1430,215,-1090,-549,3263,-848,-3399,313,9513,-3057,-1216,4054,-2403,4368,-4385,-1856,297,-860,1724,6609,5816,-1480,506,6281,4845,-563,5997,-5171,703,-4301,1037,991,-64,-4313,3181,-4157,2885,6006,-453,5342,-3797,-5451,-2508,-5351,-2824,2564,2280,-1948,-867,599,-4969,-2292,-1960,-2361,408,-3383,-5836,-1092,642,-2219,-2183,-1312,932,-491,-2009,-850,-616,4634,-437,1798,3040,-4555,-1270,1145,-55,6816,-6415,1663,3608,-5651,-2022,-436,788,-5054,3537,-3197,3454,-166,-600,-1912,-1134,2648,-6659,-3600,-4786,2926,-1563,2411,-4186,-987,102,-1193,-2926,3196,-3789,-3138,903,-4152,2613,3890,-4166,3996,-837,4359,3704,6256,2648,1352,1623,-582,-911,6017,-1170,-100,991,-2654,-4737,-1366,-578,-231,-2496,-1247,2148,4274,2299,2740,-856,-1448,-1535,4468,-2345,3752,638,-3107,-1104,-13,674,-958,-178,-1512,-3219,-2096,910,-3255,1469,2697,4109,3466,-1640,-338,2804,1747,457,3258,-231,2102,155,2185,212,418,4214,344,2526,846,-3490,7927,5982,-376,109,865,2538,1712,-2100,-1260,2186,175,-948,-6860,-75,1017,-3034,1373,-1822,-849,2502,-577,89,173,-422,-1250,1024,-2739,6025,-1030,-486,4102,
1680,10592,1119,1834,7358,-2438,-246,-798,-2225,98,-2886,-4520,279,2304,-3890,2195,-1205,749,4885,2081,413,7520,5344,6558,4437,425,1172,2736,3845,1926,-2646,-1307,2340,-778,778,5754,-4217,841,2913,-403,-297,945,6432,4070,-635,4295,8280,6140,4945,-1906,4144,-3068,-653,1269,-342,1911,3813,4001,225,-1313,-1001,5421,-867,-2191,9920,11213,3277,5583,3712,-2461,-1175,6171,-134,2894,161,-620,-6365,-5205,3122,-4673,-2523,6613,-220,12714,421,-1401,2706,12434,1908,-1184,-2579,-430,4605,-302,92,2369,-4432,-1458,1415,403,5373,7019,1223,-3845,-540,-4309,-2704,-1826,-4521,9539,-3942,837,-6094,950,-917,3075,-4344,2326,851,-3002,-1281,5629,-8170,-2156,6403,-3042,3298,5960,1218,-3071,-4280,-10145,-1094,1850,-3929,4111,-4316,-1203,-3273,-401,2465,-244,130,2950,1001,4036,2316,6297,1007,-3463,-265,8123,-642,2049,-7200,1239,4370,-64,-1756,-1382,7663,-5068,1607,-5184,1386,-1690,5043,4131,3144,-2264,4915,329,-3318,3698,-1429,2776,-6112,-1393,-548,-8478,-1126,395,2005,2499,1246,558,386,5279,122,1248,1944,162,4766,2089,4882,-222,5604,3023,939,380,1546,-439,-3918,4586,-6465,2142,-3444,1884,-485,-1856,137,3482,9474,-115,1596,-1651,1762,1690,1011,-2365,-4505,5063,-3865,-6929,2819,-63,-986,1095,1312,-6806,1012,-4172,-5525,-663,-91,623,2044,-3369,-5238,841,1517,1447,-2411,4630,1417,-84,-8159,2591,7023,-2621,-3439,-2741,-4267,2094,1881,-4213,6262,-826,657,3837,1015,-123,568,-7489,1759,5880,1673,-4786,-1185,-6157,-2150,-5304,650,1381,1250,390,-571,2278,2239,967,-86,6762,245,1522,-1717,191,1300,4941,-3961,7294,-1821,300,-3003,-1998,-675,-4478,969,2105,-6810,2483,2055,5357,-143,1171,-3116,-1928,-45,434,4017,-172,-367,429,3817,955,-600,3292,-1473,3839,851,1253,1046,1725,613,6281,1456,-1515,2132,1089,3279,-2794,-3212,-1335,2796,2817,35,2264,-403,1114,2327,1504,2088,-3036,3420,-91,548,3421,1844,779,2056,59,2293,-534,-967,494,-1988,1362,2138,-1387,112,-1242,892,232,-1407,-1284,-1959,-2566,4725,568,6267,1084,-199,2906,1292,-1593,103,-327,-2543,-563,1626,1625,1811,-1502,-2074,1030,1970,-41,-1305,-875,2269,-1923,-1892,1682,2375,-1352,1779,854,1027,3330,1502,546,
489,201,5075,2099,3109,356,976,2574,-309,3615,58,-2165,-2579,5835,1996,132,2803,1552,3349,3270,-5476,4067,218,-1603,170,-2059,336,5903,360,8378,-189,4105,11240,-4794,-1166,1815,-2205,121,-2175,-3533,-4217,-5179,1777,-941,2535,-1607,-1402,2423,4246,875,3398,5317,365,2515,-254,7097,2052,-506,315,-2837,-1438,1786,-2954,-3824,4196,-1901,-1351,2109,476,2274,4091,-2431,-123,6423,111,1059,1479,2136,746,1632,-3172,1080,361,-1607,-1174,-1188,-2059,-3161,3631,1255,-2030,4342,29,5286,-734,-876,-57,12532,1587,1724,729,1308,-2149,-1268,-1241,8960,1908,-2106,-8173,4405,366,481,405,3704,2943,783,411,5575,5135,-5412,3433,9397,-11996,1532,2506,5566,4323,3725,-1616,-5287,2794,1494,1697,3529,2624,1165,-4725,-1051,3409,-44,-1014,4863,1988,-144,7355,5560,272,1581,-8703,4264,229,6718,236,2701,124,9908,12544,-988,-1065,1148,9157,-1984,16875,-4370,1665,-126,4894,-1065,189,4545,-1631,-469,-3213,4809,-138,-162,3945,3187,-282,6551,-315,2954,-556,31,648,3604,4620,-3399,6621,1859,3229,6068,-3194,3212,2796,-2244,5150,-2615,-614,-2016,-1569,1263,2608,4360,4235,-3022,819,-353,2611,-868,1266,1112,-987,3192,-1535,5016,-4926,109,252,-2497,-138,2385,-2978,-2510,-2940,-3511,363,2724,7036,-11921,-3789,3183,-6915,840,-1627,-3562,689,-2448,-5469,-378,2841,5185,-130,-5490,-8659,1428,5772,895,763,-1586,5963,400,-876,-2165,1254,-4436,-971,-2382,-1162,1617,755,-2889,-945,-3734,-3114,-4658,1154,-3198,2289,995,-868,1138,-2132,-2123,1671,-589,-1034,-1865,465,-2317,-404,-3330,-439,-2929,-5140,335,2295,-5738,-1714,-5671,-2221,-1075,4286,-4324,-1768,-1784,1334,-5939,-1223,3078,577,-2909,163,1239,101,720,7757,-265,-3166,5064,445,1036,-1653,-3500,909,2044,-52,-3088,1607,814,694,2313,-1969,954,2208,1158,4524,-885,-637,2289,536,1242,1535,2784,-2519,770,-1441,-1279,640,-1865,-1092,-3435,2214,-1380,-3405,3666,-338,-440,717,-824,-1962,-334,-2016,4761,687,562,1423,-1597,-1668,-3025,2209,2152,2009,1560,1343,-1022,594,-1643,-4841,-1454,-2718,1303,-915,509,-1771,-5240,-2704,937,-708,2154,-378,804,677,-44,756,1736,2092,-894,2688,-1194,-507,5960,-47,1250,32,-1107,1277,-849,419,719,
-1037,2083,5501,92,478,-1028,-2134,-2928,468,458,2308,1583,-411,975,3902,-9457,3037,-1251,-2606,49,4071,3934,4856,2062,-2246,-1682,6143,6830,-251,-2677,-875,1622,-1506,-1051,732,6010,142,-424,1617,2368,-2684,-1672,-1963,2735,473,713,1012,187,-2081,1992,-772,782,-839,-621,52,1400,1558,205,-1462,-1946,4731,271,3180,3634,1405,2612,-10056,-10063,-55,2280,-958,2132,2751,-2510,593,-1020,-1820,-2563,-1814,2249,-8644,-2721,1785,3246,221,1269,1252,748,-4039,861,2553,1502,2134,-592,-543,-918,-5319,-561,-1677,1,-1754,2727,-3312,3059,-1049,2199,397,5107,2048,2261,1005,-137,-1567,-1235,3210,-13782,7203,-4413,3889,3800,4420,4441,-2158,2568,-6542,2630,-3260,4052,706,2906,955,2704,-1467,1340,-2560,-964,-1669,4007,-164,-64,-531,457,-2049,2083,-1412,3648,-819,-5768,-343,1890,1003,4162,2697,1245,3475,5305,487,1444,-123,4151,5663,-239,3863,3175,5236,-404,-24294,-6475,680,4972,1970,5034,1958,-4136,-1898,7278,-1455,348,584,4,-2999,413,5409,3799,-2119,1420,5764,1254,2082,442,964,4103,4106,1202,-1023,1357,-3676,-332,-943,4970,-831,1160,407,225,1051,1263,446,3198,1443,374,1725,-1386,-1849,-593,-517,-8347,3904,-1836,2349,-1612,-1080,-2923,2886,369,-1649,5148,-10494,237,-1432,1098,10182,-4875,-288,410,-784,83,-1451,680,663,-950,-3209,-827,-254,1984,727,-701,-1369,1325,-5486,-869,-30,533,-2089,-1427,1118,655,-507,-2077,-189,-679,-1143,3004,-2340,6115,-1475,2287,8445,9219,1282,6,2339,304,-2115,6435,1228,1625,2075,455,-367,-1979,2500,-3815,1533,-3276,-1089,-1188,6952,6839,-767,-1693,6264,-1145,237,1885,-1098,2051,2927,195,-848,-1655,30,-1048,-3628,-1653,1894,-2109,2964,128,1777,2325,-272,4148,-28,-8349,-5387,-1871,2311,-1032,3485,450,3709,2603,-2076,1746,1117,-2429,1453,8660,4512,3983,-1741,2926,-2433,3717,-1987,5212,1037,594,2236,2014,-684,964,-179,1633,2299,331,1086,2202,1738,685,-689,3328,1625,4665,-480,406,4224,488,1184,-2163,2964,5013,2865,-7198,1151,1616,-85,5904,-1001,1369,1204,482,-1532,-7072,-1486,3513,827,3019,784,-367,1666,1935,1289,823,1091,-1322,3651,-852,-2675,-542,3017,118,-1031,102,-408,337,10372,640,-1590,3872,
1576,-1102,-2476,2206,-6389,-4279,-1493,-1317,597,4304,1092,-2013,650,4851,158,-2127,382,6445,-488,-2575,3426,602,-682,-373,5035,2195,-2038,3036,-6790,-956,-3633,1091,-155,-532,-236,-2253,1277,-4477,652,-707,684,-3419,-2333,-1172,1743,-5567,-657,1539,-1025,-148,-2052,-4558,1547,870,689,2970,-1759,-1262,-263,-660,-941,-2156,5806,-250,-1562,-76,-2992,602,-1095,-2067,1986,592,-1412,2846,1007,170,718,996,-866,-2075,721,520,1661,1572,-3820,-1706,4874,2342,-668,3800,-1593,-5938,2741,-3579,-1469,610,-2055,732,1060,-918,-24,3674,-4917,906,-5079,-6092,-1000,-9650,7383,7787,12,3576,1785,-3256,3352,49,-1099,2634,195,-5571,36,-3514,-3122,-5693,2134,7243,-1595,3774,-6634,-2726,-2653,-5557,1505,-5814,-1491,681,6414,-398,734,-147,433,521,-113,-7,-3759,-5145,1307,1234,-7306,2117,-1414,-1449,342,2259,1770,891,-926,-93,-326,-948,-1394,-2394,-3586,-2981,-2763,-7884,-1928,4552,-100,130,3811,-2564,1625,-2425,1349,1392,236,1546,-562,-254,3165,-9230,-6547,2028,1537,691,-975,1875,-6577,5236,175,590,-3447,3121,3266,-479,264,2385,1736,1533,-1477,2928,-2850,2560,1192,-8281,-2634,-4244,-11,1063,-3269,5339,786,2134,-1383,-2279,300,504,2104,-1945,-942,-2666,-1553,1553,580,-117,-2806,-477,7809,-4934,2140,-6580,-2422,-2639,-1822,2551,-1531,-3304,-3442,36,3852,-2577,-1144,692,1067,-2483,-824,1593,-2859,5697,-2647,-653,-4372,-693,2001,-660,-669,1079,4436,-1578,-465,477,-1332,633,2048,739,4361,-2579,-2241,-2060,1545,-909,104,3490,337,-774,-1893,-1110,-2906,808,105,-2873,-208,-131,230,-2638,1159,3326,-2751,3212,82,781,2718,5647,1518,-1425,1566,-2257,-45,-1775,-2197,1094,2471,2323,-5361,-511,-2675,-3033,-781,-1551,-641,1564,652,-2072,2965,220,-4521,2036,-1598,-1458,406,-2963,-1211,-5401,-98,2576,-1714,4921,-4991,-2495,1011,1751,-901,413,3887,-3665,-390,-712,-253,-1497,2518,-785,351,-5175,2163,-3173,-1650,-2232,-193,88,1223,-388,1166,-974,5732,4254,-1768,-625,1908,-1543,-1143,-4642,-1730,-2342,198,1798,-1431,2636,-682,-1152,28,-2988,397,-400,1449,-956,-89,-1264,1635,-740,3134,-7107,89,-3481,913,-1606,-2010,-386,-3771,-2466,-1073,-4137,185,850,1260,-512,7725,-1126,-2006,565,
-2002,6598,6703,445,2023,-1329,-430,3932,6278,3603,3590,-3188,956,6119,-657,989,3012,-2573,3840,8866,-2581,-337,4682,3783,-2623,5037,5638,1473,7281,-2022,-1121,3975,2991,10770,8111,1816,3021,-938,3800,3346,-525,-1188,-4326,366,2424,16578,-1190,-176,-3253,3560,-6155,7609,275,842,-1318,4065,8737,4254,-2404,1103,2115,10989,-1337,2028,194,5325,-1843,3665,2260,2192,-1625,5685,4528,1140,9590,-2074,720,-1123,577,-2011,-4701,1024,9,-3329,8397,7959,3804,1194,-1333,1743,703,3451,8355,8777,190,4325,-3790,-1534,-3368,-864,-3928,6351,3431,5990,5212,-2915,-948,829,5586,4975,1355,1092,766,-1103,4333,-5646,-670,-7874,1913,2858,-3322,3406,1060,4519,523,2734,-1238,5066,-802,1786,76,-1858,944,8524,-740,-283,2115,2109,-1979,4664,-779,-6019,-3342,1107,6423,5896,-1825,-4554,-233,4488,669,1076,1463,40,955,7097,5353,4764,675,3255,3136,10849,638,285,-1210,2441,3639,2786,-1753,6914,4876,3080,2239,-4021,2682,3464,-601,35,-2635,5725,-2759,1494,3978,3877,528,8292,4779,1302,2263,7557,2619,513,-319,2352,-1869,5241,-1546,-6898,-52,2416,-23,-3932,6562,1799,502,100,3156,697,2246,3261,-1171,2486,-5915,958,1549,3804,-1518,-525,4387,-5511,522,-2109,4165,-103,-1488,-2263,-3984,2470,-2589,7571,-4619,4304,-2374,2565,2397,761,-1016,305,1779,1496,-6972,-1640,1421,-2481,-638,11216,12096,2230,324,5414,-1273,626,2162,-9,-8937,2677,-6762,-757,-5639,154,-1960,4427,210,6956,-3600,4040,-45,-2694,9388,2830,-905,-3079,-749,3813,9355,1502,-343,-1445,984,97,-3320,-5022,840,-2510,-4102,7992,1553,2124,295,-9378,2325,-5799,-1427,-4146,746,-325,-102,359,8456,-9106,261,2957,-863,3050,5415,1115,462,2170,2340,5716,6124,-1327,1955,461,-1518,-541,-158,429,47,3053,14,-1954,1518,2416,-495,3983,5552,-5277,2638,3010,2059,1935,-1028,3592,3975,1938,2087,-787,1765,4875,39,181,-1123,-59,-1891,2528,964,1128,866,-421,-1084,3452,4223,2466,1259,2032,4515,2407,-465,2429,1506,5693,1137,-677,875,7976,-46,1918,-546,995,2120,4089,3616,-1359,1112,2038,212,229,-83,-1128,1028,7,-745,-2726,2919,6537,6642,8302,-3769,3686,3388,-1109,955,-2534,-211,3160,5788,1460,-930,392,
745,4292,2177,-314,-4025,-150,-152,-1618,-4032,-4706,-3261,-1784,-2909,-1347,1790,117,1272,1435,-1420,1146,-2433,-2265,-4461,2116,4190,-468,942,284,85,-4142,1196,-3021,971,-6435,493,290,-4442,-3336,-706,757,546,-808,-119,3332,-231,89,-818,2152,-3872,-2076,-1754,2571,-784,1179,-911,1099,3635,-1954,-1216,-1584,1538,386,3541,1696,-1553,-4304,-2550,-1117,13,-1703,-2256,-2127,2025,-5044,1191,-831,-4756,10,87,2839,-3073,-704,503,-6546,71,-444,-5961,-6609,-2050,3909,-298,-1059,-1872,1417,-55,3028,3432,-45,1128,1550,-1689,-1205,-3268,2754,-3820,3723,-2792,-2198,-68,1919,-1265,1926,294,1093,2686,-4219,-6527,-241,-1821,6051,-8068,-7375,22,1552,3342,524,-4839,-9120,5248,-298,-1761,3216,-2931,-880,1153,2341,-3110,-5005,34,-5016,-2620,-106,-935,4717,7363,1771,-1526,-4300,-1891,-2386,-1109,-2439,2744,3058,2524,-2183,-1385,-4203,1052,-3957,-394,-3859,-7358,1482,3639,1012,3863,-1285,-2278,581,-4470,-6271,745,-2621,-1197,230,-6508,2914,-2432,5472,1462,-4730,-1148,-5135,-5736,-354,-4739,-1921,-9723,926,-8333,-526,-6121,2871,-4058,-3074,-1518,-5675,88,-2070,-2171,-4968,1430,3608,3641,-3832,1505,-1014,-1573,-3060,4092,-196,6187,-617,1694,-828,-1773,1421,3616,-1153,1298,-10624,-2740,-2986,471,-4705,-4003,-1044,-5361,3777,2066,8572,-2606,-3944,-280,3566,1128,-4350,-3404,525,3445,-912,311,149,-6985,-1136,-1621,-2752,-2975,-1916,-246,2847,-2002,-2721,-3308,-633,-811,-1358,1210,-81,-1244,2654,-1456,595,5961,-3745,1307,-646,3818,2944,-7068,-2,1803,-2306,307,1375,5744,-1825,-143,-3619,-1329,3338,659,-2294,-886,2541,1568,-1248,-1736,1585,3796,187,-702,-2783,2833,936,-1025,3689,351,-1055,-1800,703,915,-3288,-2348,427,-230,-4168,2240,5348,739,-1296,732,-2512,523,1361,-2219,2831,927,-512,-173,-11161,1605,-1680,2091,-2104,-1340,4524,290,-594,-748,3322,-3881,3262,2011,-1394,-1537,2113,1503,-542,1909,3771,-2798,1459,-888,-328,-2092,-708,-999,-4722,-2821,1984,168,528,300,1276,2085,-987,113,3211,-1559,1980,1581,1093,-220,-571,-1731,1707,-2430,2743,3159,-82,1379,556,5021,2123,-6981,-2355,-1679,-1203,700,-6214,-10,-4119,-4710,2137,1261,2221,-2263,-110,-5456,-2892,-315,2509,2511,-1333,3063,-2117,381,864,
-3541,-5719,2518,8896,-2246,-10239,-2284,-1877,-1283,2616,-8793,895,-6119,-5140,-2284,-4381,-1574,-2283,2220,1185,-5698,4972,-8774,-2232,-2950,375,1069,5629,-2754,143,-1492,2503,-1907,-1126,-6446,-2173,701,-3425,1327,-1172,115,-10338,-802,-3133,-1086,-1686,-1000,-2009,-1557,-2082,-2401,235,444,1766,2001,1312,1839,-764,-818,96,-2688,-3271,-5639,-2140,-6248,1842,-482,-2654,-537,-1855,3420,-1594,-5060,-965,-2609,-894,-2735,-5987,-3066,4839,-4892,-6890,-736,-4355,-3228,47,355,2462,-956,-2913,-150,177,-4693,-1284,-1675,-2566,-1948,4678,-3181,-3335,-1720,-407,-7233,6721,3291,-10312,2730,-1543,-5199,-2291,-4032,-1820,-2200,-1744,1686,-2199,-544,-1166,-6377,-7231,-3541,-2830,-3081,-3578,570,1635,-667,5085,-5578,-4069,-6473,-5741,-8678,-2368,399,-962,-293,-4817,2461,-2611,-2012,-837,-322,-823,-11515,-4884,-1356,4927,-2472,2686,-2235,-4046,3324,2929,-2106,331,-2360,1955,-2034,-1635,-1439,3281,-2610,-5197,-6641,-1009,5501,6524,3655,3142,4579,1262,-1660,-464,1586,3709,-1199,2194,-2741,5277,237,-1740,-4246,4165,2042,387,5152,2286,-2,403,-1134,-4244,-1009,-2677,-357,-876,-1851,5669,2420,4804,-178,2649,-2265,-7401,-1225,-9249,-474,-6284,3537,80,4300,-376,-10102,688,-819,-795,6098,6251,3678,1556,897,178,6091,3406,-1888,-1527,-1931,469,3556,424,2756,-3243,-1990,-195,-77,-3188,-2436,-885,-1778,-502,-866,4749,-1315,-2526,4853,-3701,3795,-2164,9217,5038,-2221,798,1747,-1906,-3481,3696,-1058,-8,-3368,-708,-340,1005,-5798,2362,-5660,1717,3842,-2720,2383,1186,1,-3550,-4896,3812,468,2159,5385,710,-1692,620,2100,-1778,1668,1469,900,396,6733,4288,1688,-4521,839,106,2433,6002,2394,3522,3004,3293,770,-6619,-2478,-4606,-190,1320,5565,-6373,2512,-2072,-3283,-818,-581,1361,-617,-1593,376,-4180,905,654,-1877,-1756,-338,2531,-163,335,-697,496,-2288,293,-8252,2479,-327,-3852,1841,-900,2439,-638,545,-3012,-466,-504,-1054,-184,2994,-2325,-2563,-2430,3417,-2156,-3072,-203,-3252,-908,1537,1733,-1654,-816,-4308,-3779,-1761,-61,-1847,-2532,-3010,-4856,-6118,2519,-3995,-954,-5112,-5612,-1373,2481,-3591,-1980,-1082,-2319,-779,2783,3300,1659,2321,-1161,-3498,4911,-617,-1249,2535,1650,-5983,-4630,-2398,1773,-3886,1020,1950,-1409,-3459,1798,3946,-618,
36,2546,340,2418,-5917,-67,-1161,-649,-3371,4105,4685,-5184,1946,-4784,-3441,693,3774,-4879,-1004,-1672,582,701,309,-3895,-1921,-4261,3567,1835,-2742,-4490,-4079,-5675,867,-1113,877,-4953,3345,2886,-612,-515,-6489,-52,3384,223,2868,-6037,1548,-7810,-2642,-93,-1948,-3603,2146,-1044,4355,-3652,4469,-656,-2074,-3086,10224,720,-528,2436,1861,-6653,-1793,-2246,1768,5412,-1686,-838,2857,-3899,-3940,852,-5992,-4002,-466,-1432,-4930,2683,1046,686,-79,314,-1152,4490,-2703,2884,-102,7298,-408,-863,-1576,2669,-120,2535,-928,-380,3279,7326,831,1993,-8824,2058,-726,-2763,2165,959,-2315,-2991,4007,-2223,-366,6071,642,-1462,3237,6566,2760,2199,1662,-330,-269,4541,6328,-1773,-2618,-6888,822,-712,1874,-1414,-5723,2310,-347,2896,6372,2987,8661,-1273,-1287,490,-210,-1822,5107,-1241,7309,932,-605,5507,-216,-391,-4920,7809,4042,1720,-6043,-3281,3002,2255,4179,6413,12256,-4643,-128,3113,-3338,6045,4161,-1012,3425,-4238,1315,-1998,-4242,-1800,1874,-3516,-1654,-476,3081,-4958,-29,3649,-1778,2677,5650,2012,-374,-2610,4322,4767,2713,-3086,4366,-2048,-2238,-663,1418,647,249,-1813,7339,5474,12742,-347,2682,2294,-1010,3128,-176,619,651,3789,3954,502,1033,-4248,-2034,1405,-1706,2027,-2600,3120,2142,663,-311,3307,-471,2938,3839,-14,-10684,-4787,-3847,5599,-4042,2618,1440,-126,-3389,-5370,-204,-5414,30,6593,-2794,2931,800,1703,-2143,882,-1174,6614,-4214,-2418,5297,628,1537,846,-1286,-1170,-2063,-5497,-399,1824,2413,2251,7731,-1041,-2358,1986,4545,-1166,4328,1918,-579,1623,-1866,-259,77,-1682,-449,600,7339,-1256,5584,-6570,1140,-2955,-650,707,2642,-4016,-68,-6730,-1334,9935,-2758,3716,-2135,-4686,380,-4160,-4368,-629,-7087,-82,-392,1112,20,-696,-1179,-6425,2179,-643,-514,-3750,431,-2107,1058,-1183,3108,-4011,1762,-5303,407,-1185,210,2039,579,984,-2861,1621,3824,1416,2793,-743,970,1864,-501,-4596,1834,3195,-4381,2045,180,-5327,-617,-4248,-1309,1350,3456,2504,4069,-3267,-192,-331,143,-2165,534,-49,-2715,503,-3667,157,1148,-5592,2812,-2660,-1836,-479,-2681,-2426,-2181,987,955,440,1075,4734,-820,-2867,2151,-694,3648,5646,1679,-3689,-1493,1236,797,-1970,1318,-3962,-2880,1584,-4565,-3234,
2753,2597,-290,3296,-3232,2637,-6016,-2922,-5908,39,3543,-1714,5778,27,-4750,4200,-314,-1313,1730,-2005,-331,360,-2950,7785,-155,1253,-2224,-3375,2565,3893,2187,-540,682,-4051,3392,7369,4892,-41,1009,1901,9010,714,3992,-477,-1087,-4000,1369,3952,2359,13961,3299,-4314,-450,3219,919,-1167,-1902,2235,2523,-81,-13243,-3438,472,72,-1538,7975,4036,3380,-2923,11283,-1247,-4078,-3785,-3551,1626,-582,4965,1232,1654,-5648,1181,-640,-754,265,4488,4740,2951,-399,-3049,4274,966,-590,-5123,5268,2123,-955,834,-2983,-1157,475,-1198,2814,-2436,3024,13439,-2311,-1935,-610,-6493,2952,160,1807,1476,2023,-2950,-3480,1923,7097,-5954,-8689,1791,-905,-6439,2490,3179,-1461,-3139,1554,9917,3168,2722,-3948,-4960,619,2341,938,3972,3599,-3821,3778,-2483,96,3062,9955,1900,-3438,-242,3472,-3138,-177,-1941,3405,-2521,-836,544,-4040,640,3108,-1901,-1509,5628,-7715,4181,-3421,-11373,6489,3529,1841,2071,2891,-4653,-8804,-4531,-1286,-5987,-4793,1334,91,-5493,-3242,-1145,4961,6371,8503,7673,1360,318,3842,884,3441,-876,557,-9500,3632,1070,3558,3536,1669,6778,-3278,-688,-96,61,6865,-3966,-119,-2317,1728,2428,-3797,-1023,2718,3758,2410,-655,1961,1715,4898,-442,7712,-2298,-320,-5481,-182,-3563,-6065,-1057,-1426,-6176,-309,1244,2337,1032,-2076,10226,1922,-2674,-1547,1034,-3143,-553,-382,1406,9060,-2578,-2936,-1004,-1648,1960,-691,5355,-1401,145,2545,-1156,-9205,2511,220,-171,-687,-263,-1631,2525,-344,-1842,6888,-2312,154,-1706,-3976,-4660,2308,1282,-4136,2734,-1905,-2042,1466,-634,1381,-285,1160,-1477,-3073,7844,5205,-1292,-4777,-1087,2272,2487,-204,7551,-2183,1133,11043,-1102,1665,-1940,1168,-843,1098,2115,5691,5910,3791,-1627,-109,-930,3908,-2034,229,177,-809,-124,4579,685,2746,-917,1025,4222,-838,4331,7770,1734,1797,923,2383,8009,9550,1555,585,4984,-467,4276,1665,-1804,-726,1602,371,-3908,1770,2915,7062,-427,303,6153,352,1356,6087,2076,852,-3282,-1853,-3641,-5063,-760,3486,-750,-754,-2768,1677,-2660,2440,-1202,4877,362,2106,1323,3165,-1834,-1633,-1043,509,802,-1742,2918,-802,3305,-3590,-1294,-319,-1272,3225,6118,348,1123,948,1738,261,4895,-1877,-3458,11281,-477,3531,-322,354,3662,2266,
3515,2242,-5991,-4097,-7512,-2145,4857,-479,-5464,-3570,-1685,-230,-7285,5516,-4324,-3479,-1555,5932,8905,-2235,6383,-2100,-2376,3151,2495,68,468,-2127,-6695,568,1366,-6356,4219,-1287,-1673,-198,1926,3534,2468,-1615,560,-1599,-4390,-5991,261,-8464,-1234,1955,3492,928,-1609,2289,-2644,1182,-3049,-217,-427,-1558,-3013,-3033,-2117,1231,5819,1073,-746,5873,-2474,-6899,-6239,208,72,-2809,2520,-5584,3293,-2957,773,1885,3524,585,7340,-2787,-2354,-4714,10072,4526,818,-5300,1985,2129,250,-7952,-3150,3218,-500,-345,-3081,2850,-11609,997,10893,-4299,-9030,-1191,3270,-2390,-6513,-4115,-6966,-4746,-6246,6346,-560,6093,-2571,-356,-4316,10309,-5537,1804,2426,1326,-1481,-1019,8565,-2285,-9980,-1081,-5868,-1125,2212,-7639,3988,-5622,4410,1727,3803,-1188,2870,412,-1973,-6415,-290,-1667,-676,4235,-6992,3600,-9089,-3232,-6885,2524,5222,830,6,225,-369,-3085,60,4019,-2733,-1342,-9143,-904,-628,5301,-3256,-9406,-194,-3634,-3333,-2516,1515,-3085,2321,7375,1038,6264,7226,-615,2637,-2512,3136,-185,3063,3614,-2891,1403,-5942,-1151,4664,-5335,-1127,-531,1091,-260,-3281,3207,1562,2290,6076,-5188,791,788,4233,-2698,4618,-1522,140,-9,3120,-743,5607,2243,3414,-1979,2918,6686,7354,2097,-6155,-694,-1714,-7019,3352,-2235,-1676,-5494,3417,1024,-387,3199,-3482,-261,3431,7954,-3367,-2267,-1020,-3028,-1663,2651,4529,-3857,-9908,-6474,3005,-8222,-960,6218,6925,4239,-1804,2136,-4403,472,-1407,-2067,88,-1964,1472,1759,3761,-386,-822,5679,2784,2408,1457,-1595,-3058,411,-1701,-1358,-757,-1062,-1958,2733,2920,-11639,-2455,586,2359,-6522,9767,7190,-2759,-2557,2027,355,3113,4509,4294,-1787,-1041,4768,-3705,-4462,8848,-6280,554,-755,-26,-3102,-945,398,1033,-3822,-111,-240,-4477,431,-5662,-75,2889,774,-1304,1254,1097,-1338,1904,-3630,-1817,2237,750,-238,2657,-1961,-4760,-871,139,-2871,-1102,-3629,1641,-993,-2369,6371,-4369,-582,-2839,-1210,-173,831,-3579,-3954,-3341,-775,-1955,-2057,-5726,3011,4139,-7697,311,2608,-2574,-937,-106,495,3153,1535,3459,-4621,-4666,872,-302,2569,578,1071,-2498,693,1929,3738,-668,4150,322,924,2,1465,-557,-551,298,-382,279,1776,-1515,-40,1521,2514,-573,2626,-2632,3471,-1282,6644,5511,3670,1504,-27,
-161,-978,-2478,-2495,-2870,810,3581,339,-1350,853,-4245,-4415,-959,3538,-1720,-843,-3027,2810,3564,-3694,-1876,2988,3845,4175,-258,939,2082,-2468,1734,-1069,4791,483,1573,1242,-1501,-2372,5830,-4607,2006,1446,878,-583,-4164,-1163,2076,524,1789,1193,6140,-1431,668,3120,698,-223,229,221,447,6353,1912,-1411,-8404,-1253,42,2672,3017,-1396,-661,3233,1098,-2210,6164,1701,1671,2145,177,-1221,3571,6376,-405,781,2991,2929,1340,-5264,-2984,722,-2712,-4542,-562,393,-98,-2490,2953,1844,1549,-2023,-1439,-5,-226,5518,-38,-5015,1109,-1159,-863,3423,1196,-4245,1878,-1448,3846,587,5652,1425,2857,-1987,-2731,3103,125,2936,-801,5183,8904,2158,1875,-2952,-602,1939,-526,671,-654,2640,-4063,3419,-515,-1424,3286,99,1668,66,5651,-4137,-956,-1772,-6404,-5613,-1717,-4203,1515,-3640,579,-7097,1629,-1616,2871,-5008,-5603,2533,5961,-1706,-2540,1922,-590,-988,-617,-1073,-907,1140,955,-3732,3957,-1819,-937,1403,-311,-2193,-3216,5028,746,2981,576,6842,2693,-477,1178,-56,-4164,-1052,-6753,-4500,-528,811,126,-152,-812,-3431,-4925,-2661,-2864,-377,334,-5337,158,5423,1840,-1867,3725,-2265,2046,2152,4172,900,-990,4448,-3437,1951,275,-3512,2345,3798,-3405,1604,-106,-1036,-3092,-2819,1661,248,-1967,-914,-3714,4258,1994,2807,-2434,1747,-2848,-2596,-5877,303,2001,-385,2860,915,-1995,59,-1842,-4145,10212,4229,-1696,3274,1997,1198,-5860,5373,-2158,4753,-1053,-1220,-1056,1648,-121,3748,-175,-1935,-448,-2275,-646,-1567,-1999,-3225,76,-2990,930,-1463,-1180,-363,-770,-1624,240,1226,2295,-5013,355,-1992,-3657,-7917,-2248,-4975,3585,1813,-4291,2068,-565,-3218,-1634,-150,2015,12,-1545,4578,3836,-2465,1225,-2158,-65,-3124,-584,911,1508,-1098,-2518,677,2598,4652,-977,-2476,-788,-338,469,3251,-1089,-5358,-5973,-2396,-1627,4060,-475,-731,-132,1728,-1661,-275,1082,14,439,-3632,-83,1306,-926,-296,-613,-584,-1020,-1716,-1806,3744,-2794,-558,-1084,492,-712,-3353,3722,-512,-855,1168,-1141,-196,674,-593,-1262,2272,-3521,-45,3619,593,347,5487,-389,889,-2724,38,778,1201,2200,-4417,-1421,2164,-1105,-320,-214,-2459,1065,-1451,817,-1436,-2692,-3011,-1966,2215,1512,2100,2267,1716,1682,-681,-2512,-146,
2976,1957,1568,7004,8250,-1077,7425,4274,6656,522,-1677,1672,5919,4368,3702,296,2521,1499,-2012,5571,-1680,3520,6834,2252,4005,1273,-7085,1806,7083,1968,2507,4532,1678,1050,9283,-5252,-721,-346,2598,1241,-1565,4238,2889,10396,329,5303,2744,479,-3490,-5788,4862,-71,-2101,-1597,3689,-482,-4962,4637,7474,1360,-33,3257,-1701,7868,2067,3069,-2032,4104,2122,-2023,-698,1859,235,3213,138,309,3390,1497,1220,-79,581,4216,2006,3641,2676,-5580,-2525,8085,1463,606,-2126,2965,3259,-862,671,7621,-2584,-3645,3438,4745,-3712,614,903,-1403,-3166,3866,3352,8010,4934,4367,15258,2154,4474,-1341,-702,-3386,4570,1832,4127,3971,1063,6095,1519,1047,-3031,660,-2263,880,1909,6989,233,5931,-4391,3299,-676,-3739,-1019,-1091,-4207,-1204,-3886,-5508,3357,2109,-866,-4819,-1136,-7164,-41,-5610,3535,-1114,-2973,-339,8704,-3433,1660,1810,-2254,776,-18,629,2970,-2617,-5606,2204,-11402,5059,-190,1851,-2539,111,1403,-650,-4237,1006,2191,4243,-1795,1290,255,-1164,749,8446,-927,-1975,963,-1245,-599,3628,-924,1480,-5053,-1608,509,4169,-596,2267,5879,-2752,2121,1269,6876,-5367,-4011,-3329,-7092,-2706,-6130,-1115,-2342,-60,-5493,2393,791,-3907,8214,616,-1537,-2117,5324,-1124,2546,-1865,1392,4701,851,126,1746,2556,-1303,2442,-3544,7751,3742,-4206,2178,-212,1944,-2181,2079,-2519,-354,5027,-2150,396,3339,194,2732,-4025,-4514,1003,-413,-2397,-3601,-957,1214,-1576,-4767,-130,-3068,-698,-2640,5598,1952,3090,-774,-1866,3032,3353,-3828,5865,2789,-2824,-3407,-1514,-1694,192,214,-273,-1089,-179,2372,951,-743,-4545,1035,3127,-361,3877,-4341,-1329,-5482,313,-2623,-3565,-471,1774,780,-11067,-734,1377,-54,1780,-2962,2926,4114,2776,3445,14,2362,-500,3016,251,65,-1193,2159,-765,2526,4414,563,3503,-1148,-4851,597,-870,-479,1253,330,2064,2121,1061,1688,4272,-641,-609,-1281,-862,1431,-160,-148,305,3411,1914,644,-771,42,-1120,1104,-1327,6603,-2613,-118,-526,1737,536,-344,-20,-555,389,3621,1795,3311,-405,7891,-2883,813,738,625,672,2239,-80,-473,2418,-3016,-553,1332,2245,-1579,1357,-1008,1944,6096,2161,-5615,-147,3210,-742,-2660,3464,-2749,1119,598,772,1081,-1358,-865,-1819,6932,5711,
4447,2317,-23,1917,4602,245,-1744,-2350,1431,1153,-1219,821,207,-3631,825,1279,-2231,-766,-4659,-5346,-2166,-780,-9557,-2526,2770,1686,-1547,-6044,4353,1869,-623,-1201,-3413,-1721,-6168,-1308,-4355,284,-1420,-4372,78,1359,3117,3992,-1497,-3415,2246,-4243,-486,-2559,2915,-7010,-648,763,-283,149,-2724,-2828,2597,-1340,-2722,664,5049,518,-4747,-2994,4965,60,-2198,-2439,8348,-186,1207,1186,1886,2826,2306,-15,-1611,166,1984,3233,-2226,3013,-2656,-2721,690,2076,2385,1008,-843,-2936,-7724,-4785,-1797,-1953,366,-4341,1944,-4796,2074,-3818,1655,-871,-4550,-2520,-104,889,-6607,4533,3709,453,-16556,-1783,48,3007,-1533,4435,-6782,-7832,3990,-3481,-2518,1739,4517,-2903,419,-2506,1177,776,26,-7166,-423,6679,1688,-4951,1613,-900,-1216,-9272,-1450,-10360,1970,3809,2353,2004,-465,5721,-5348,-1666,2786,-2101,-562,-783,7677,1760,1669,-107,-4419,-978,-2248,-1961,802,-3360,-854,445,6641,2331,-823,-7245,1131,-7310,815,2772,1720,-2494,1160,-2296,-2067,3660,2892,-3086,3217,-623,2963,-5721,-4868,-1880,-709,-340,-5833,2923,-2644,-1214,-958,-1041,1500,2563,6004,211,4626,-3242,-6329,2547,-2897,800,-4112,-893,1435,2684,1392,-2573,-2038,901,-208,-2657,-1561,966,-2673,3365,-1746,2350,1302,33,1042,2001,2147,80,-2620,-1282,-7481,-14149,-1170,4459,5447,-1498,2799,724,70,-568,-4357,-1004,-2425,9368,3226,-1516,-1641,1415,508,-3839,-3459,-5704,2313,1917,6142,-13383,5350,1845,1917,3447,-693,-519,-1599,-379,-2602,-1533,-1407,-1920,-4063,889,-3847,6087,2565,-4037,1148,-916,-807,-1516,4,2384,-431,4010,2984,4075,2928,-6413,-211,782,-718,5520,-657,-1749,8348,2806,-1523,8588,3042,4329,-1565,-3441,-1301,-1387,-2063,-2409,-3888,-259,145,-164,-1158,-3959,-858,-581,-15,2505,822,290,-680,-2035,-2852,-749,1180,-1699,-234,1778,-671,-1388,-1133,-1586,68,2434,-1313,4219,1593,-380,5143,-529,-2998,566,312,-3632,-2032,775,2113,547,728,2737,-2599,-1501,-693,4346,2798,-1472,-2748,-2028,-1969,-3919,-1380,-1470,-1807,1036,1631,-1185,2990,-849,-65,-1932,-86,156,4354,-1656,3210,-730,439,1264,-67,-1403,-855,-1747,-520,414,1237,-594,-2945,-810,-9967,-1281,-38,-3240,-876,-321,-281,1981,870,1423,117,-1677,-5136,-1587,697,3626,
1410,1004,2101,-2089,-360,10915,-1642,-4331,6781,5015,1691,-7,-380,27,-2659,6208,420,-2388,-399,-692,-2839,-4935,-2661,1742,-237,-3667,1737,-3422,6416,5483,-1357,7804,-841,1451,-2849,346,-1913,-23,-2790,307,2697,-1212,126,-909,2063,1533,360,-1060,2522,-4873,2362,3319,2458,592,-1291,-662,4213,-2231,-1409,631,-4057,3908,116,5703,-887,1778,9079,-1261,1757,-935,4987,-886,2666,-2063,-567,-2517,3712,595,4319,2743,641,4647,6322,-1169,1145,71,-3299,-2359,3145,-970,940,2775,232,-1112,1175,1430,1183,-4246,1293,-1934,2059,-1405,6027,-1143,1333,10566,-3522,3469,-676,-1184,2246,79,-3423,-545,1648,4683,-1002,-969,-5955,-4098,2670,-3814,1546,725,2032,-5245,6795,-2201,-220,3003,-5610,143,619,9075,82,-311,-5887,10634,914,-1685,-3184,425,1122,198,4231,593,-791,1234,-7834,-645,1026,4788,-1672,-3225,3522,3563,5936,3989,-1983,-4353,3834,2682,5231,-715,-1911,365,8103,3965,1339,-2604,4940,277,-1328,52,92,4391,2285,2202,217,5224,-1499,2285,-1220,3590,-776,-40,-1237,-3489,6805,-641,1644,6019,-2493,-1407,4225,-1881,2728,2097,849,3613,3737,-3770,2487,918,-460,5751,-883,164,118,-581,8563,-3977,-6992,3054,611,-31,-3011,18,2878,2433,4569,3176,4800,4403,1264,225,7320,1503,-3597,3024,-12643,5405,-570,2781,-2141,-4433,5848,1989,3635,1957,2093,-4774,-1518,-2162,1310,-157,4244,-810,9249,2769,5105,-1950,3219,-1713,4037,-3621,4121,1942,-2317,1859,3099,-3808,4672,4374,-3685,-348,-6440,-2345,-1280,-1572,4761,4454,1901,305,-192,-315,-1374,1476,1441,-2553,755,4425,-3020,1246,-2658,-861,-4629,-6311,815,499,-4455,-1066,2444,3498,-170,-3026,1188,1373,802,-5352,677,1252,-632,-1432,1104,14259,-771,-667,-6288,1479,114,-2376,-1223,-947,-2492,4370,-122,604,-1297,578,2156,4693,1977,-1323,1762,-1218,3500,-3141,3496,6127,-1749,3636,3559,5668,295,2774,-2551,1260,960,918,656,5069,-965,63,1858,1572,9,-174,2439,84,-4100,3793,364,-539,-1319,3332,1336,-1307,-529,3855,124,2654,671,2355,1366,-3352,1437,-2752,1741,2840,6549,249,2705,-1718,1915,1147,9063,-544,3896,-784,-228,-393,5399,5579,1516,6,1293,-4490,-99,-1490,1697,-416,-4313,1190,518,-1397,3467,1077,-2770,2934,
1593,-2648,-93,-1590,-4522,1215,691,5194,4020,3090,5597,2165,4051,2491,2583,4234,5599,-1458,3981,2159,80,2059,-2226,9982,-1646,-318,-1573,2858,-2445,7950,4369,2902,7485,6566,4369,-3683,5672,2347,-1572,-671,5968,-2386,4834,-3106,-1924,3737,11983,-6041,3958,8282,2114,-1499,4261,1680,-85,-1653,5676,3144,1539,141,-3408,2617,3821,4903,6922,-6082,4079,90,5518,3597,-2314,2260,1845,2857,-124,1165,-1890,-68,2459,2128,-3422,2284,-7,878,74,1038,-3495,220,-114,3538,-62,5523,4819,19550,623,3843,-315,8552,8606,3422,2416,1489,4632,-423,-5221,3137,-1171,10741,3691,-574,27,782,3855,-873,642,1197,2188,339,3829,3135,3606,3923,-1724,2936,1398,6171,342,6165,-3614,-4798,3390,-1111,4194,-3054,1398,-1324,1306,2663,5560,2773,7942,-3261,-70,-2103,-714,955,1898,-2156,2687,3075,1179,1360,-1034,3598,-1012,-2147,6295,2800,-145,1274,3759,-1043,4009,1480,789,-8394,6023,-2305,-4620,210,-351,-945,1415,-866,5451,-352,-1305,-2483,980,1604,101,-3414,2030,-1400,940,-955,1123,3150,5091,-723,3534,1395,1214,4118,243,-7681,6210,-4525,1158,3536,1029,3066,2004,3202,3498,-1254,6477,-1915,-7086,1956,4850,-733,1066,-1288,760,563,-6613,-830,1975,-986,-1454,4120,-468,-4579,-1193,1951,1265,996,566,-5775,-2457,1793,-6487,305,-8389,1467,-10086,-410,-1837,278,818,326,-6852,-5002,267,-1314,-9460,3804,-2017,-392,-1168,981,2132,-2248,-5289,7607,-150,-612,2821,1177,671,4008,5361,2705,-4299,-3361,-1544,-1145,-252,-4320,1257,-4723,-3633,4181,1257,499,-253,-2153,1401,-1063,-943,1301,-2283,-2014,-11798,1082,3599,322,1027,-5949,964,-2499,-9573,-8764,-1153,-8072,-615,-9494,-3997,5275,-139,-909,-1052,3931,426,1296,-1448,7159,6442,1448,-682,273,345,-446,634,-725,2810,-1229,-2348,656,711,-728,1542,1212,-1303,-288,947,-395,3228,-1265,-334,-2154,2428,-3734,1171,-598,9328,893,2418,926,5088,-1335,511,-2657,-2299,-537,1013,1764,784,2758,-2868,2204,2495,-14,621,8140,7268,78,-9,1195,2001,2683,3071,-1591,-3315,-738,-321,-1699,-633,-1126,3269,3331,-48,726,1456,-550,-766,-277,1175,753,1331,-388,1550,-2159,2344,3889,2354,4068,545,-1251,-853,2298,4860,3098,2093,668,3738,148,14,3473,
-4535,1052,-1569,-3653,-9278,3752,132,-995,-6820,-2654,-477,-6246,79,-1267,-1048,-2571,-3440,387,1726,-5187,-37,-2626,-3713,-8307,-17,-2209,1821,-3535,5442,-4993,-1442,-934,-6857,-1079,377,3667,-3602,-1782,1299,3295,1913,-3413,-7376,-8635,251,-8416,-14463,1055,-5029,-4097,-2652,504,-1939,165,404,-9625,-2520,-5784,2868,1557,-920,-5284,-10028,-96,-10366,2962,-660,-2849,-4542,356,-2174,581,-710,-1486,-823,-934,-1430,1787,-1353,-14,1495,-809,577,-7647,3232,3981,2404,-1386,561,-6316,2923,-3398,-8429,-8216,-234,-3040,1028,-5510,-14232,-126,-3027,-34,635,2948,8590,-6372,1104,-8771,1615,-2542,1609,-174,-3190,690,2589,951,-4154,-1343,-4777,-3600,-6501,-7435,4074,-1719,-546,-2573,-129,-2998,4576,388,1402,2492,-3707,-1618,-1655,1622,-3846,-2530,1017,5688,-2607,7121,-2707,-1265,-5775,-2892,-795,3782,-110,-11035,-4101,-11433,3794,-295,56,3785,-4386,266,2544,-1645,5256,88,1914,1447,-7820,4452,-136,1261,-2137,-1496,3616,-61,-2966,-1381,-4321,1896,-341,237,66,969,-713,-34,5696,-2532,991,1787,-5489,-901,-357,-3761,-1322,-3584,-1761,-6968,431,888,-2457,685,-2820,-10114,-1742,-3827,-2054,-6205,4360,-15,-1079,1793,2948,4149,96,3522,-2871,26,-421,51,1106,165,-2275,7282,-3018,-3643,-1349,9951,344,-2588,100,-143,-798,2625,-1163,3336,5983,-1176,5201,1057,3116,258,3062,-2075,-8726,3727,10070,-4658,-731,-2465,3408,-480,-2410,8510,687,4160,1062,1511,1865,-5220,-3546,-2841,-5925,255,1565,3363,2335,-241,-670,2881,-1922,-105,6058,4007,-1250,-772,-932,-642,-562,733,3759,-695,-1759,928,804,1095,-502,-2688,12571,1523,-2950,1850,-165,-1150,-730,3838,14022,-2551,-1378,14419,-1049,13413,7799,-5301,-1055,-446,1799,-1180,2099,1166,3808,-3921,52,-1099,-248,-288,-556,2,-110,37,-5758,1901,-508,-3747,-3886,-3451,-2403,1129,-964,-1783,-1084,2598,2815,-1761,289,1228,-2342,782,-2819,-1053,-5058,-1406,-2439,2454,-2761,1487,1081,267,366,-1822,-244,-3,-21,-1850,-1704,-3735,-767,333,555,-7440,-4949,-112,-528,-2245,-4628,-2081,-5070,2057,-421,812,-610,-442,2022,-870,-1319,-3023,-803,-660,714,-595,261,-203,732,-85,28,-484,716,-2226,1434,-4493,1244,338,750,-3919,2459,-203,-1796,1667,-724,1951,-2029,0,-1426,-3070,
-3177,2985,800,-190,516,652,-2315,5798,685,456,1011,3931,2679,-2037,4031,789,-1449,1001,6967,-2500,1807,-2489,-799,5242,-2994,2705,1865,-5635,5336,813,1824,6973,-965,4373,-2115,1111,2885,896,-3457,-910,121,-557,-1195,-2985,-626,2482,1914,806,-261,4112,857,920,4584,1934,3916,-789,-4147,-3469,280,4910,-6084,726,-2115,2093,254,2800,5579,-1211,-1050,1619,-638,225,-1384,270,-2072,3224,-5963,471,-3702,-4019,1572,2246,-1912,25,-1111,561,578,726,3445,-3694,-1083,1581,-689,3258,-1169,280,2688,-3404,-575,-3429,4723,-1978,4406,-2582,-2924,-4983,-690,5444,-2954,-5314,4152,-637,-1959,180,1973,1910,6831,-2458,5461,-5216,1250,1340,5715,-735,317,-100,5786,892,3583,-3714,1495,1901,-2807,1138,-3361,-3919,-4178,-2660,3631,-1024,-374,-1076,9,-1074,2403,852,1087,4763,7630,6765,2190,-6871,-842,-1056,-3684,-2823,-3183,410,852,4641,-1670,500,-798,2142,-1526,2032,249,-863,-3153,-3736,2045,6084,-3371,2314,-1212,3643,-5320,-916,-5725,4529,-894,7202,-1789,3665,-2275,-1548,5871,1326,7235,-2184,-1527,-1328,7518,-2801,2878,3234,5093,8461,-526,-2296,1083,4129,2364,-208,-3330,4897,-619,5536,-927,2598,-1379,-2138,-3344,1124,397,1511,-7565,-3839,-7821,1719,1580,-2107,4302,2262,212,7555,2544,-294,-3910,1130,855,-4683,3632,2298,-763,167,-943,6072,1415,-776,-1402,-259,-700,618,4507,-825,-2165,1899,4962,-897,2250,-3061,5934,-1920,2600,1196,-527,240,-1885,-744,959,1504,2220,7053,-2381,-5292,-2799,1048,4527,-831,305,1529,1602,921,-1303,1554,-3260,-4905,-6899,-343,242,-1012,72,-1731,-3057,2946,1002,-723,2763,-320,-1662,-571,-3636,-3008,2275,-4096,-961,7299,1127,-175,3780,-1510,365,1918,1007,1732,-5364,2658,-822,-2608,-3438,-2502,2097,1717,-2614,1495,947,1395,4486,-1485,-152,-2722,-750,3515,-845,3757,-247,-1101,2052,1456,-2223,350,-1488,-205,2603,1827,1526,1705,-1073,-1301,-2499,-257,-1551,-287,3420,1739,-1005,-3226,-1174,1569,1217,-4668,-568,-847,1013,397,-3935,1330,-3772,4216,-324,2166,-651,3679,1918,1134,-1480,-2327,-1011,-879,1304,61,-2573,1660,924,1746,1644,-1211,-279,1987,-2833,7507,-3044,656,1475,-1345,3162,481,6092,-417,1154,-256,2533,-1641,-3222,2003,-5323,3936,0,185,
