-6872170,-9152212,-8169069,-4381904,-6694830,-9896332,-7202890,-9456376,-10388733,-8622428,-10040212,-10506106,-9924670,-8775385,-9059069,-6850253,-8352516,-5661978,-8715472,-10262310,-10297516,-8357097,-7909903,-10371031,-8372145,-9793540,-9473791,-10485811,-8136396,-10784669,-8755535,-6169590,-8266201,-7300405,-8544243,-6117077,-8183875,-7023477,-9658380,-8821581,-8785096,-10503168,-5917774,-8468905,-6493706,-6613718,-4719819,-4001137,-8821776,-10212717,-7797986,-10842346,-10728455,-8975962,-10496198,-7977389,-7609989,-9115957,-8511701,-8879735,-11559804,-8415025,-9778416,-8009985,-6993214,-7866822,-6242393,-5597688,-7731002,-9343666,-8175642,-6415364,-9964390,-9638273,-10048414,-9850333,-9191527,-10195513,-8000018,-7491579,-7413207,-4525196,-9837153,-8275335,-7575702,-6901835,-8209458,-8966219,-10393494,-7776534,-6447108,-9845549,-6593334,-10904300,-10003967,-7659381,-8688976,-9442875,-6711676,-7987919,780766,6288503,4947629,1881422,4998809,6474976,5593399,5665241,2532331,3292873,824003,3951444,5578369,4413597,4621875,-3737297,4686934,2900955,5703904,30183,-3779682,5686467,4839606,2346080,1146500,922817,5223362,2990233,-594686,4266030,1720975,5742349,2305802,2386533,4901533,2579064,4231255,5901508,6427655,1162741,8049851,7272944,2795214,1031062,5940094,-1008329,-5743114,1936346,7554732,3239471,1058190,6647022,7512790,9763205,9376988,2762155,-1500005,3661954,8871459,3679011,4037046,1560021,5351592,2983099,984698,-877074,3935189,-3706744,8468346,5283462,5021630,-1134429,6526448,3656821,-1404351,7521028,4907656,1296431,5854819,7096470,6069340,-488896,4668955,5192373,2262782,1583394,7121405,1441774,3309526,512432,1379689,6780869,-3353417,2210945,5317986,6758150,6277283,6552271,2109798,3761032,-1268235,267575,-196357,667336,1298759,326758,-1458700,-28896,688642,-1656846,-1005629,-1619243,-3060500,-1981173,836133,1422554,-1002460,-2923919,1554171,858520,-1043395,-1463980,-1613344,-1136510,-323813,851817,-2213863,969364,535983,-827020,-2447448,1744914,388445,744772,779442,617554,1327272,422522,-548855,570684,60901,-1430756,4331189,-1077269,1979719,600326,-376694,973913,-645184,1796855,1888962,-1669068,3174228,-1617864,-286968,1767336,-1097006,-671480,1492448,1822592,520544,-1013036,1792851,-1153571,-1349998,-2245083,-1682664,2099242,-1078991,995713,368279,-1884714,-577845,734499,-3406471,1170804,1418052,-1458065,1479079,231222,2524841,-177943,-1177389,-39173,-755694,776147,-497462,-730726,1515554,1069127,725928,656776,656287,-378724,-1053061,739933,-1285781,-419254,2241258,2337706,-9309314,-4174044,-5611271,-5774848,-5577942,-4057869,-4675564,-6088842,-4694014,-4620816,-7885883,-3775986,-6007501,-6048311,-5347633,-9522552,-6347281,-5585961,-6977707,-4488911,-5320550,-7014592,-7823380,-4761698,-7099754,-4860657,-3667191,-1098675,-2931555,-3542050,-7063199,-7501840,-5434719,-5459553,-4129558,-8442914,-5541254,-6371289,-5970189,-4533165,-3967443,-6745585,-6369913,-6383183,-5660915,-8052799,-6488240,-7959520,-3238974,-3456894,-4814210,-4343373,-4768017,-4700952,-5624117,-6246890,-7336877,-7952760,-7548762,-6910625,-4787159,-3569836,-7022179,-6281306,-7697079,-7106188,-9667359,-8063413,-6353858,-4058584,-6836641,-6858331,-4645286,-4892175,-4475934,-4007009,-5266644,-3446007,-2909983,-5630086,-4001442,-9845485,-6317151,-6805148,-5172661,-6854720,-5144490,-4698446,-4089397,-6514132,-5739034,-5664454,-5696865,-4824456,-1999877,-5430363,-3191111,-4487493,-7855843,-6044292,