1452061,-601367,405082,-3768060,488414,453113,-2998255,-2409719,-583476,5028968,477941,-737677,4602660,-1087318,441542,4992584,2424490,-4409523,2478227,-88938,-4225314,154574,-456664,-162429,1346773,2255543,506894,664200,608026,159819,804166,848775,2882619,-3790781,1237220,1358915,-2758291,1320530,-1472329,231079,-2774671,-381145,-1488885,-844967,-1484044,-5045180,232643,-811515,-80365,-1056116,1220302,681273,-3191320,1779359,-159879,-247530,-102062,-3847330,-555528,604517,-25468,687235,374760,-2930303,209434,648284,-4115245,705097,-2537849,-642344,-2358207,1775732,-473514,3627771,1147629,263169,1024712,-473675,843596,2525414,833422,-313477,4271342,806179,522301,-290213,-2043033,-689585,65630,279446,-4397181,-4979498,373915,-471790,716487,-1045107,1599767,435875,5486969,-3065012,-164341,1377541,3819658,-4312662,-2049302,369193,-1422782,-517898,-756778,3297941,562096,-862457,2325490,-386096,-119578,1037793,-1310096,1873075,-3186875,-536078,215216,-3500913,50876,-304952,205618,692733,3552868,817377,-1214292,-1590001,-1899317,179298,836607,-2457923,1922466,1080921,-277872,2007328,-424107,5297038,304183,676374,-2894878,-1834769,34371,443812,-3576261,-1526615,5049595,394104,-33227,2387101,-957910,1845358,-1256429,-498430,-565278,1277555,-2801783,-1489109,-3795100,-1791856,1301919,641794,1668560,-3653918,-16076,-1709165,4667061,722102,-2108667,1323531,-688894,1331038,2591790,-3590727,-3516725,-372313,-245563,-1280321,-3032471,-145688,1107767,376246,17125,93113,-2568261,757813,734000,-1796340,3196798,517424,-2119839,-894145,2384103,-33060,703676,1007116,2738511,-4907765,-1243752,-258676,3551609,64609,-472516,-2907433,-884916,-1932905,3261047,1530255,-754170,-1194481,732897,-288815,-208413,341608,123262,1024694,533698,-754677,-3725284,4218791,5462797,691711,-494138,1104339,-20760,-544342,-1547250,-3868893,1759500,304804,976331,-3946178,5245446,1583420,-2026081,-911528,-98686,-4364418,-758270,138680,-3806831,1250028,18097,-819780,102589,-55946,2227933,-1674896,