

PI_L2 int Decoder_Gru_Bias1[]= {
30212812,8087261,18000266,18275164,18640342,22536722,9688851,6956540,28454802,27580826,22110820,21642818,30374224,17057486,14427129,12426763,7634369,27318602,2032547,9437321,28359680,16727257,2457175,22473736,25601264,13527368,18272624,19849272,30002136,24851232,14753922,9955953,25725204,19699736,26048496,19845624,19293980,22391538,18898352,30413204,18132818,11201039,19576914,17899478,-602947,23231004,16075378,29005628,13979169,16134819,3426834,25127872,20778206,29950030,26988524,22393100,11992967,28142114,25442578,12420710,-22438566,-28867256,-14434620,-6385516,-8710254,-9030761,-22699158,-24734836,-27028640,-20068840,-25562672,-17477092,-26007308,-29462630,-18839158,-20422246,-32909150,-32904658,-18647546,-10968926,-10151203,-23776088,-24228776,-19047298,-19497088,-22404154,-20828578,-20839156,-14337248,-19141268,-19318592,-11527967,-16656563,-19750550,-21319752,-11498004,-18797742,-19671124,-21515652,-23383152,-15410806,-19009996,-17292800,-18113614,-29633474,-20748150,-20164004,-20061328,-17120008,-11609759,-17114518,-17180236,-12924300,-23499956,-20240716,-9293374,-22352228,-14805877,-13477019,-19705196,
};

PI_L2 short int Decoder_Gru_Kernel1[]={
390,404,489,583,-288,398,-677,-548,288,233,-658,168,-678,37,-540,-473,-689,-510,302,-8,290,261,481,-190,196,-214,203,504,39,-591,-568,-297,-541,79,18,-186,683,407,359,738,656,124,-541,6,-237,713,-381,-130,-47,-290,-30,299,-606,409,173,24,611,-730,-548,-243,165,81,-363,139,650,531,-302,383,69,200,-658,208,737,-301,458,-414,-568,-74,155,-225,-434,-681,623,451,16,-238,-465,-8,531,-128,401,-314,139,-687,161,-230,735,-682,-650,680,698,254,-427,574,297,-689,472,-163,522,562,-255,64,-643,-303,53,-225,571,30,-515,566,   
};

PI_L2 short int Decoder_Gru_Recurrent_Kernel1[]={
-628,1799,-1456,4837,1437,2014,2145,4237,2387,-713,349,-695,876,-927,2072,2887,7733,1724,-3963,-274,5142,96,371,3585,-1720,-652,3119,-4489,-1731,-3010,2712,1468,-1975,-726,-1225,-2467,9688,-1582,-2766,-821,3080,1753,190,5215,1180,3883,-1957,-2585,-2215,4802,3284,1838,-1379,2050,-482,611,1571,360,-3353,1841,-2471,4336,55,6266,1484,1995,4123,1151,2163,-427,-644,2777,1139,942,-529,5003,1186,-1872,-2060,4199,2803,5914,757,-492,1641,7299,-2295,-1136,2012,-661,718,921,1728,-460,2756,1528,2048,819,3252,1784,-465,422,-4436,5288,5392,1778,-5243,-352,-552,2004,3172,1876,-4251,807,-494,858,-1658,469,5465,-3774,
-3889,-9249,3434,-8640,1076,-4844,-370,-6404,949,786,82,-178,914,6694,-2018,-6171,-7435,-3599,-5458,-2495,-361,-4593,1393,-880,529,-4211,-3723,-1940,-2398,-1451,-1300,-3610,1473,-1927,-86,4986,-5934,-955,3770,-320,3044,-4658,-349,-3403,-3288,-6492,-248,2609,6670,414,-164,-3115,2906,-1248,5661,-2731,-5559,-302,4011,874,-742,-2198,-426,-7039,759,3714,-248,1432,6290,2283,2649,-1225,7622,4782,1631,4098,5444,6434,812,-6769,-2281,1239,4911,3930,-3159,-2734,-723,4428,-3050,-4751,4576,-1271,4271,121,-722,2505,-3281,269,-3794,-807,-1257,2393,2187,-74,2591,-3201,4839,2680,3498,4622,-7,2013,3372,166,45,-2482,1920,2474,1074,2134,
7099,-406,944,593,4521,1340,2138,-1560,-282,858,5965,3219,397,-1259,1013,1570,2385,-59,-8669,-1562,6555,1989,-156,3450,852,266,-837,5477,45,-1358,1188,385,3971,2129,2929,-102,7878,3429,2501,-2051,6502,-1844,-4351,-121,-502,7163,-13375,-850,-63,6322,8129,1173,918,3171,5862,-1025,2280,479,-1396,-677,-2076,-320,-3726,2305,5620,-267,6766,-5714,424,9787,-1681,-2962,-337,2207,-2871,-217,-1393,-275,-4721,-2509,7848,1075,8050,2904,2711,4899,-2464,-1106,186,-1901,2641,-526,-434,-157,-1031,2049,372,-3076,3717,-2691,591,931,-2962,-598,4702,1662,-3852,-1130,2371,-2894,2938,-152,2635,-6217,1170,-602,3429,1224,4685,1949,
8713,492,2678,1135,-992,-395,7261,-2662,972,515,416,2655,8159,-5338,1802,1227,8471,-138,-4609,2824,4301,-3224,-1503,-1742,2748,-2452,458,3982,8650,193,-2023,-1761,2058,6135,-805,3682,5411,-2002,-2436,3593,4320,3909,746,7660,-3112,-539,-5101,256,-983,-2910,5127,7552,-1957,1484,9757,-5499,-1562,3577,-3170,1580,4410,6538,-1742,2799,-1924,2734,1210,-2824,-4033,3341,-3315,-3216,-3616,-663,2706,835,-5284,-3560,-3363,1346,-1118,602,1216,-7681,3606,2694,-4308,-11245,6890,7006,-4432,-5472,-6178,-6994,789,-3838,-1298,-882,-565,5352,-420,2167,3020,2968,-390,1488,-5894,-6363,-58,1192,-1830,-902,-2989,-5853,-5386,285,-6229,-2260,5884,1850,
-5784,-4586,-1322,-2849,4228,-4854,-2554,-3617,939,-5885,-119,-4700,-3651,2429,617,-4202,-3240,-1979,2332,455,2451,2234,-2317,6698,232,471,-1756,4027,3607,-3186,2291,-9670,-3708,835,1559,-474,-2166,1231,5015,-3365,-3204,-1465,-797,-4216,-2489,-2462,-438,-2049,1470,311,-1318,-326,2809,-276,1634,-2500,-2653,-2746,-931,-3280,2312,552,-5020,9941,3380,80,-3174,18,1057,2119,911,1236,-4547,1885,859,819,3520,3031,-1849,-1384,5544,336,-1994,662,-756,-221,-788,-586,2073,-602,-3571,1865,4686,-37,-142,4534,6734,946,3122,-2707,3845,-5938,281,1006,-2853,3085,5526,2706,-2371,-1371,-209,4888,3897,2188,-721,3320,2768,4155,-1605,2719,
-3506,-3526,808,-7626,-3024,-1228,-887,-1181,-4971,-2566,1592,-2536,-2488,-714,-1030,-553,-4973,-3828,-8311,1140,1014,-3971,-7049,-3340,-504,-1592,-8507,-5121,-1128,-5248,-216,-634,-171,114,450,1282,-8621,-3232,1787,-5336,-3104,-2495,7575,962,-1766,-5050,-4760,-824,-1688,-1119,-1257,236,1577,-1793,1299,-3491,-2359,-3097,818,656,-2184,2357,-3680,-4783,-1389,1102,3472,1576,-983,-3250,64,-1883,3469,3882,31,2507,2120,5985,3264,2710,1767,-3533,6383,7976,3417,2407,-1346,2965,-1624,0,871,13,-2329,-4157,-2108,-164,-744,414,8848,3660,5427,-5200,2840,-3741,-3581,2651,10902,5250,2391,1539,-207,4145,-1730,-699,2476,580,5003,-1819,-3309,5382,
-3226,-1131,1776,-1260,246,-2251,156,1954,235,-7815,39,-7357,417,1613,-1239,-4592,2729,-1085,825,-725,3901,541,1800,3308,-589,93,-4187,-2058,76,-2004,10868,-1295,-6199,5903,-233,-5369,-4595,3179,-3176,-43,-3755,3989,723,-1063,476,-5089,2338,1916,-1081,-614,-3172,-535,-1116,-2741,-6060,-520,-8011,2742,-1784,-1681,-6802,73,1729,502,1175,5894,2838,626,-3296,-5730,-924,-2867,3827,-4343,-675,-10807,342,-1148,-6166,2402,-1015,2937,2780,2749,-3636,-1579,1546,-2485,-1425,-4244,908,-7959,-3549,840,-2222,4436,-3196,-7536,146,-4109,6468,-678,2955,1327,-906,-3544,3418,-525,-5345,364,-2054,3395,-872,-3132,-5803,-3301,-6032,-3273,6067,-650,
-7684,1342,-2119,690,-4648,2150,-4650,1402,-3136,-3725,-2088,-2328,-3908,6463,2222,4541,-2076,3261,332,893,570,508,-2820,-2419,-6404,-2206,1227,-3033,-3761,-4335,-162,4569,-2156,-8210,-1497,-2408,1633,-2228,1599,2153,-6073,-7069,1875,-1581,14131,1041,-456,-2311,-6628,-1236,27,248,-2697,-5459,-3383,-224,2614,-1529,1776,2109,2474,4294,-1268,3961,-1644,-1444,1394,1952,2849,2096,9043,3447,5506,-5697,-676,-4374,-3481,-501,-4579,-1549,-1433,1054,1637,-1989,-1846,-770,3893,253,-888,1600,-887,-5441,-1479,2621,1561,-1141,-2873,-785,132,5104,1258,-1939,2823,-2565,-6601,188,1269,3909,5950,-303,1429,104,1904,1449,-2,-24,2471,2332,2731,-215,
-1403,571,2441,3618,2010,-1220,-3354,-3201,248,4395,-1379,1542,4509,5823,-1036,-1104,1028,-1606,-5397,2781,-2078,-4335,-248,236,-641,1294,4123,-4187,773,1139,-530,-2791,6031,787,-145,1778,-2240,900,-1035,-1696,2071,-1452,-3466,2627,-2023,-2543,-3288,4727,4576,2336,2005,-2768,3359,-1022,1020,2248,243,-527,-42,237,1345,1752,1993,6473,320,2889,2602,5772,4006,3498,7593,-598,597,-3274,-247,7315,2678,882,4150,-1251,1928,1180,-5193,787,1166,-3911,151,2087,-3147,557,2570,521,1857,2734,1013,2205,1106,3630,-2884,3079,-2772,2614,1127,-1369,-2023,-1084,6004,-1006,2435,-1326,3815,2857,-132,-2158,-3901,2293,417,-913,-716,2348,
4354,1787,1007,7328,-2715,41,807,44,1918,5819,-346,4157,6945,-3691,1503,24,7226,2475,-7883,1112,-1276,470,-755,3481,-1506,-793,3933,-1070,-1625,1771,-2559,614,1749,1688,-1227,2497,6485,-769,-4397,2403,-2716,2019,2113,8746,-2643,-490,-1626,365,-3489,4319,6235,3806,-2795,3115,1022,-2866,-2459,1037,-3465,2686,1786,1525,5754,-3543,5197,-1138,8551,905,-7890,1938,1639,-3648,-340,-756,834,-646,368,1621,-1381,1488,-2442,4082,-8533,-5549,469,-2182,-1447,1698,-1387,-187,2512,28,867,-704,-3281,978,-1991,-1789,-3677,4777,-764,4981,-2584,92,-2242,-661,-10400,-7889,-86,1475,1548,-1639,-890,-2369,-4000,1369,-1056,-2221,1814,1795,
-4351,9807,-741,1981,-2737,685,-1649,4654,-947,-914,1225,2644,-1788,2016,1303,11165,1894,2741,1745,-1723,57,121,450,-1527,-259,346,2013,670,-5425,4322,-162,8801,855,-438,-885,-1233,1325,-953,-900,1101,2648,-1186,683,-470,2216,2312,-3105,-13,-753,-1005,-3117,1147,-428,-163,1095,2198,3212,-240,1686,2617,-191,-3077,1959,2802,1549,-2547,-300,2224,108,1286,543,2919,-1612,-377,210,-3562,-5285,-5270,-1587,-5475,-766,3460,-946,-4674,-2017,-2194,208,-1467,-3217,165,-707,-3127,-1432,1734,-2740,-2838,2240,-1092,-1585,1572,2160,199,4209,-3638,3852,-920,-528,2201,-104,394,1019,-2771,1379,874,1011,920,-761,-2550,1462,825,
11843,4590,4037,2967,-2459,3021,1056,6393,-1649,3544,-1401,5561,7022,-855,3688,436,5691,2356,-12295,1446,-1421,-1942,4571,5686,-891,-6034,1605,2599,-813,230,-2243,3546,1653,3208,-226,902,3821,1143,-1640,469,-2347,4166,-1380,12121,7,-1767,-1189,1730,-2635,3180,2066,7482,1008,4034,-159,-4391,-2238,-2729,1096,2535,752,1057,3091,2142,-899,1555,7645,-856,-6817,6059,-3317,-1969,2716,-885,3919,780,320,4746,4662,6756,-1332,8000,-1241,-3146,1480,-514,1225,8792,4800,1391,5154,-1629,-1582,-1166,-2317,4407,2973,-446,1532,5127,372,1726,183,-730,1229,2732,533,-6264,3760,3011,-187,245,4196,2323,1243,-2485,2943,1166,4554,-3674,
-1842,667,-3013,-1528,-4603,30,66,-1035,797,-2249,243,-76,1584,556,862,1814,750,-1557,-2502,3239,-1101,3129,-868,-427,540,2502,-1405,-1907,1188,122,-411,212,-2036,1820,660,2506,-655,208,3091,-1542,874,2063,-1406,-2999,2550,-6593,-3692,348,-3044,2027,3492,-2155,-1876,-157,6344,-582,-1119,371,944,-545,251,-1433,-772,1643,2542,-1425,649,163,3380,1332,1946,-3026,3376,-578,-259,5093,-2930,2768,-290,123,1509,-1081,191,4241,-3255,1798,-3294,4570,-4196,400,7545,1531,1369,-2635,-1107,-2957,7271,1035,-898,784,2319,-3644,-244,-355,1589,629,495,-2995,-904,-537,933,1789,2898,423,4228,-1834,5166,-635,5837,3039,
-1118,-1352,-3587,-5228,109,-2035,-2488,996,7106,-1915,7615,480,-5105,-1446,1098,4537,-882,438,-2366,-471,-1210,2123,3764,81,-270,-197,-1882,2864,-3378,1254,-5578,1906,3896,-450,1945,-3428,757,1703,3338,3251,-382,-8114,-8112,-1050,581,3227,-3390,-2091,-5093,-3938,-2195,-2570,-902,2422,4352,-1079,8493,2719,-2141,8542,-6776,-3737,-4289,589,-8831,-9503,-1979,-4123,-5405,-7425,1734,-4585,-585,-525,-4458,-2581,-6130,-3627,-1564,-5947,-2739,-1655,2967,-6945,-9249,-1707,-3695,-3545,-2969,-935,-973,-3464,537,852,290,-2387,-4971,-8165,-10170,-4130,-4823,-1725,-268,-1838,-5291,-7205,-1422,-1213,-85,-8617,-1415,2961,-4211,1140,-8886,-7797,-3674,-1972,-2428,968,
-2431,-80,2608,-2759,-1655,-1347,-7067,-1956,1131,2149,652,-2193,921,-1818,2509,-1376,-1973,-797,3849,-2040,-3478,226,3250,-391,-2949,1430,-797,1468,-1720,-1695,4307,-2024,-1022,-1261,1134,2046,-7125,815,-2168,2877,-4258,-3350,-771,-7069,-297,-4448,1070,-2284,-410,2090,7811,-3731,14,-2359,-1726,-54,53,-2784,-733,2378,-703,-4721,2341,-3545,-5744,-1552,-3500,1524,2501,1232,2472,932,2964,-5803,1935,-2083,654,-3114,3777,-5227,463,-2819,-2463,-3428,-1550,-2462,-3154,-1643,-727,-4522,-3030,1184,-1626,2059,1687,458,737,-4102,-1156,-5974,-11598,-7055,-3074,1911,-4290,-995,-1876,-1866,-7622,-1849,-2451,-813,1289,-468,7215,3165,2232,-4414,-3570,276,
2279,2198,1807,161,-3314,1907,626,2106,-43,-1015,434,-1189,4346,-1546,1876,4539,7582,4429,-3822,629,2509,-3190,2915,3752,1849,-2838,-2548,5341,1075,-4029,4774,5883,-1874,725,-1100,-3206,-1060,101,-1585,-2773,-1494,5157,-504,2263,5980,-4791,-3491,-1066,-2390,2069,-1890,5736,1379,-164,3115,2056,189,2474,-2628,-537,4027,2440,-2096,6878,1321,1637,2674,2559,2773,1261,586,3252,-970,-5196,176,-2201,-2196,-27,2517,2719,-743,3102,-1628,2864,5019,1445,3845,571,1640,746,476,-6372,127,-1609,663,-1989,1016,2638,2520,-1782,5305,-4136,6860,-1141,-1967,4476,10091,-2679,923,1937,-676,-2993,-2734,2001,-236,2278,1018,1502,1011,564,
-1216,-3655,-600,-2564,1784,-2716,-411,629,-3034,3338,-77,-379,-1995,-4425,609,-573,-1870,10,1031,-815,-342,2557,-10417,-3631,-2631,2317,-2853,-1236,-3742,-3571,-3058,-3221,-2044,-3333,-467,2595,-4245,-2567,6918,87,140,-2696,3711,-2300,-1325,-1289,5987,1217,-2165,920,629,678,-1441,-129,621,9,-1793,410,4311,-478,2906,-3111,554,-3479,1466,-2331,3001,4736,1222,-747,1120,741,-482,3187,-1915,4652,-3297,3382,3329,2969,2580,-4806,1067,2375,2731,5194,145,834,-258,1133,461,3129,-4204,586,-564,-2880,-2458,762,2163,28,-3791,2539,53,-1811,-2759,-910,-2120,2754,2341,-1118,713,-4138,2662,1416,2006,920,2214,-1524,-4364,-179,
120,5035,-890,2399,-274,1606,-605,3239,-604,792,-1452,2044,2207,423,989,4656,4860,2252,-8828,-857,1953,-190,6332,1570,-1146,1171,-974,3977,2664,947,1926,3585,-719,235,-136,-1237,6220,197,-2211,2682,3371,469,-5502,2191,2125,513,-6720,-49,2351,1825,858,1343,-910,-553,-116,872,659,993,-1606,2332,1330,1504,-1058,3989,-377,-2764,964,7061,1907,1246,555,1387,-1356,-1308,-406,1104,-823,1284,704,-682,1708,5401,1412,-1581,-2769,1224,379,930,2747,365,1926,-2925,-24,-1078,-1639,-1462,3250,2046,904,2306,-1282,821,113,4077,4270,-243,-86,921,1546,-633,565,-1968,-601,-1433,995,3816,1465,2283,3861,2436,
700,2039,1637,4732,1389,919,2630,4660,-2875,742,2246,-3763,-21,2875,296,2071,3263,-1189,5490,-615,141,-2749,3809,-1389,4664,-3529,1092,-955,-1312,872,-735,2521,882,-3414,484,2199,-1046,-3821,-2528,1758,2090,1565,-1365,-530,12,-3767,-693,-5059,1870,400,-2541,-164,4546,-171,2480,-3365,5767,-4004,1662,1919,-3076,2609,1709,-1785,-4864,-2922,-7057,-2908,-3484,960,-3439,4684,-2144,961,-734,-3386,-4250,-3025,-3769,496,-4683,-4400,1854,4913,2937,-3924,-240,-3916,-4025,2450,-2535,193,-3524,1258,79,-56,5191,2521,-3598,1774,-5737,-323,-3047,602,8234,10245,-2390,-2865,1803,-3337,-4468,295,4049,1459,-428,-747,894,93,469,-26,
-13,-3841,-1844,-3788,-2175,-247,-122,-1932,-148,898,-256,-7932,796,-3237,-229,-1558,-411,-1797,-4176,-2249,-7176,-7163,-5231,291,-2370,678,-3637,-2020,1104,-4584,-2476,-1302,-2096,-2114,-839,-978,-2451,-4261,-1763,1426,-2822,-668,1610,665,-866,570,6451,1643,-508,-153,175,610,-870,-1625,-1264,649,2349,-430,-1599,1604,7808,2682,-1434,5993,-1961,-251,3444,6291,-709,747,1217,-1257,3765,2761,945,3055,4520,53,5913,2569,-3573,310,-3606,3036,6895,-2586,225,4246,3918,2009,-7,6745,1648,-1529,1728,1708,106,1816,5956,4126,389,542,-854,3589,-2301,1021,3333,1179,250,622,1176,-797,-1555,4470,-961,1644,-1156,1437,-1644,3892,
2632,7485,1372,-2120,-3693,4371,3321,-33,-3358,6998,-247,2118,3868,-3082,4155,4662,2552,2083,-2393,1800,362,21,-945,534,-860,4988,-3056,2079,5433,5333,-2304,5759,2586,-4818,161,2225,145,-2482,-2369,1887,-3469,1997,-4970,4350,1420,653,-3825,-867,529,-4383,91,3314,-516,-77,6145,664,1537,-2427,-978,-2940,5157,-8536,6144,-441,-1841,340,786,112,196,-646,-451,-1723,-4549,1575,-993,-2975,-1924,2796,704,5224,-8108,-3051,-556,463,-2815,1403,463,7367,307,-1681,662,1845,3798,-2734,309,-7909,6980,-2369,1483,1856,-4846,1753,-138,2858,4502,1083,-1570,-409,-1857,2103,1586,5386,-575,1479,1471,51,-479,4456,-1367,-1704,
-162,479,2249,1140,-2167,2149,-3274,5379,-3605,-855,-334,-2624,33,427,821,385,-933,2422,5134,1453,-2195,-711,2075,1490,1519,-760,1447,-178,-4128,-1575,-2753,7771,-439,3047,1243,2504,2266,-1154,4018,-949,944,-7613,2054,-3331,-2290,3704,-1479,-5121,-115,-514,-409,-89,78,-1401,-1333,-4345,-1612,-7334,979,1540,-262,-3632,3764,-3997,1370,-4671,-895,-6761,-1073,2034,-3960,-3330,-9618,-603,-2222,-1870,-1077,1635,-72,-5455,-2207,1731,3246,401,-4051,4341,-2932,-164,-4436,-3890,-14,1405,-201,-2031,1961,2178,3510,-160,-229,-360,-8180,2296,-1114,469,-4192,4464,-6447,856,-1428,-2514,-2332,951,1098,-2659,4757,-4377,-2352,1115,1506,1546,
-852,-2501,18,-797,-1909,-1528,5978,6834,478,-907,-7678,-579,-5353,-1283,-2178,1948,-4191,273,-1417,783,-1649,2279,4720,-1127,-5221,2017,-3608,-1395,207,-6758,-1304,140,-3920,2611,-711,-2048,244,6473,-1545,1806,625,4551,2120,-881,-6235,1098,249,-1165,-2886,-2369,-4297,-915,-1860,-4744,-2437,-6692,-12328,-5247,-2117,2715,4977,5122,-12564,2906,1058,1299,-2511,4047,5460,6140,1424,4358,6912,10204,3370,4232,-318,1077,1510,3840,9003,5519,2410,6533,4178,1170,1595,512,8196,4168,-659,4980,-2308,2623,-2559,-2018,9071,1512,4242,5855,6717,-6578,-5454,4497,4924,6249,-1677,-740,5828,941,-1837,-2203,3713,-6442,8633,2065,2059,-1340,947,2860,
379,607,-387,-3981,2704,4032,-2403,-1954,395,-4950,-6169,-613,1849,1211,3338,-654,-4682,-1896,-846,702,-650,1573,1629,-5625,-3732,-6262,-4125,1864,-922,1244,2548,705,-3489,-525,2899,-1308,-2498,-4149,-4249,881,1682,-4580,-1385,818,-355,168,5196,-7358,4486,-1574,-5897,-280,4314,-359,-7424,-4917,-2478,1831,-1107,2701,-4535,-3619,-3351,-3923,-4955,-1147,1178,-689,5031,-4193,-4145,-3264,566,762,2927,-10907,-1467,2731,4859,-2125,-1514,1434,4214,647,1950,62,-1437,-458,-1250,-862,768,-1393,1971,1960,7154,8243,-2194,-1348,-882,-1066,187,-3901,-1004,-3363,1490,-2971,3076,3450,1119,-1997,-96,-1222,-2856,2186,4032,-4462,-25,868,1857,-9427,
7429,-465,3410,4140,-4086,2514,1438,-3307,336,-1543,-3545,715,466,-2951,-140,892,3280,-815,-12659,2296,1103,-3133,-1844,2405,2517,-3435,1289,-3206,490,1098,4902,521,-3697,5037,442,-1989,8805,586,2282,849,-1275,2314,2528,5936,-1827,-3026,-1277,1749,-943,-1498,471,3672,-899,2742,2109,-6547,3048,-3673,2471,1897,-1502,1230,12136,1048,603,1916,6190,-967,-744,1505,-7494,3392,4060,1961,-3792,3711,-998,4024,3105,6197,2333,-2978,3738,1494,-673,4110,-107,2654,5124,-1659,4850,4344,2626,2189,1573,3643,-224,-5169,2643,1424,718,4149,-2308,6612,6064,-3525,-1370,888,-2687,2723,3514,4690,2910,3159,-2145,-8850,3818,-1589,5397,343,
-5634,1535,-1586,-1564,2204,244,-3243,-1441,-602,564,5842,2031,-2628,7564,-2152,463,-4482,-1337,-1075,-716,5340,2004,4812,8295,5829,3459,895,-993,3674,3062,3268,419,-3069,-2080,533,-249,-6658,8140,4913,-6904,-2886,-7210,-4070,-1992,-5019,-5424,-2634,2068,-889,-2763,-2327,-3582,6724,-1472,1348,2810,-2292,1332,-3027,-1759,48,-622,-2940,-1113,4331,-1248,449,1423,-7762,-1446,1424,-734,4511,-638,3500,5369,-509,3172,1069,-1232,4532,-9710,3102,9043,-573,2650,-1464,-1066,2390,-8084,-1605,9060,3798,-773,210,7689,2021,-1749,-552,-1315,9373,-2335,1141,92,6994,659,4930,-395,926,-3479,-2306,5366,1805,-472,1770,1912,-751,5736,-2283,596,
5544,1766,-1464,6366,610,403,2480,441,2115,1744,-2466,2257,6229,-4395,3581,640,4728,4434,725,0,1819,2215,-491,852,-224,1864,6874,2408,6678,3076,549,91,2528,436,15,189,5064,938,-667,5623,-1234,2835,-3477,772,946,2918,-4731,-1973,-558,372,3483,2112,-6177,1716,3319,622,-313,698,-2906,-2689,2179,-950,-2391,303,2034,-372,2291,-3223,-3318,2312,679,-2269,-11229,1082,982,-4206,-3318,-95,-1195,-912,-3604,1613,-3545,-4289,-1122,-852,-1422,-7727,-2825,883,-1776,-473,-2207,-554,-2125,-3237,4547,-2419,-788,379,-3486,4274,-2282,2425,-599,2183,-13661,-5922,-1245,1023,-2490,-1164,-146,-4595,-1899,-1752,-3894,-2699,1560,-2565,
-5,-1875,-1628,3070,370,-782,-4167,1503,-1483,1866,1489,1230,-961,290,-1050,-4615,-225,1230,4917,-4408,-5309,873,6952,772,764,1519,159,355,982,363,-5142,-4113,1731,-2371,-584,2786,-2217,843,-464,1051,-801,1471,1244,-4899,-755,3651,5955,-723,787,-2101,-1559,-4796,-2821,-942,-3817,4043,-1128,-3353,2585,1412,3176,-7417,-1539,-5730,-1226,-5243,-4121,-3492,-2093,1877,-324,-360,-898,-3016,1049,-2486,-1555,-3050,-3788,-7784,-3021,-2607,1590,878,-1518,-155,-4678,-2184,-1059,-1556,4354,3108,-2163,3125,-1017,43,-872,3032,-6583,-3470,-5895,-1255,-2101,-3568,-1096,815,-930,-2338,-566,-1566,-1766,-1865,2344,-4188,1305,1629,206,-5927,-3796,1311,
5062,5704,-634,1605,-1247,505,5396,2908,883,-1226,-5147,2254,3374,-4834,1573,4373,4248,4806,-10318,601,-4203,708,-1920,2320,-7349,3043,-830,-2173,3142,771,76,1752,-2738,446,-776,-745,5853,-2296,-5517,1787,-3287,282,-2732,6523,-180,8574,90,2155,-4897,987,-1732,7533,2476,2661,-3022,-2274,826,2155,-2561,743,-1213,4718,965,10837,-3164,-109,-240,1651,-5870,-584,-6605,-2577,-686,-4931,-2208,-5171,4053,4819,25,3606,1535,-3862,621,-7955,1754,4245,-495,-4602,1450,211,-1041,2368,1049,-4067,707,-341,-1369,-1645,-1305,3759,-841,-1760,-6242,4050,1950,-525,-1390,2961,604,1421,4131,-1201,909,2265,-3300,-1960,1037,-2776,1129,-2176,
7054,1563,-2035,2521,-1194,3486,6200,3545,739,-1081,1837,231,2632,-509,-956,1839,8877,250,-4469,2423,3121,3838,-531,1252,-826,-3033,1993,1797,4103,3659,-904,-940,870,4476,-393,-491,6897,949,-384,75,2550,5371,-1463,6188,4,-375,-2967,-2444,-5689,-772,3964,6925,3278,2170,3922,-5399,211,-400,-1048,-2705,455,4395,-2533,7169,852,1547,5428,-4131,-4870,-646,-4954,-2488,-5045,1596,3126,5532,-1383,2429,-2007,2246,647,-989,761,3534,1714,1689,882,-1093,3694,1834,894,1370,-1548,-3637,-2022,-2636,5337,-4726,1411,4245,3339,2123,445,4269,789,709,3250,53,-3514,-1846,89,4888,-4046,2640,62,-2811,235,4787,6391,-67,
1443,2963,5567,4123,-1973,598,1095,-752,-1669,6304,3557,1436,-1831,-4088,2413,2412,7074,-377,2929,4454,779,-464,-4879,1381,2934,3392,2850,1211,1377,6800,-582,1623,1753,4,-383,2650,-105,-3793,5543,445,-3101,4335,2095,7116,1274,1113,-1687,2308,-3605,469,1939,3597,-2734,2156,7843,-1303,5376,1967,665,-5827,-1339,-2464,9938,672,2753,-3415,-7629,-153,-8224,-6273,3416,239,-7249,4350,-5050,7081,-3821,-2355,-35,-1320,-7763,-1351,-5652,-4952,766,-325,5092,-3106,-1422,2460,-78,-303,4123,-1680,-5338,-2564,-1042,383,511,1022,-9966,700,-1296,9573,-504,-4275,-2088,2176,-1555,-2737,1367,299,-1020,2028,1173,3892,-2525,4189,-6365,-2922,
1677,6017,-2647,-1589,-1910,5300,2227,8044,2529,399,-328,3272,1198,-3891,2781,8148,753,4897,558,-2901,2810,1760,4113,-3380,3892,3007,-3323,9969,3259,4880,230,8729,1499,-84,38,-3669,-1482,-736,386,1751,-186,195,-8648,1150,2657,1765,-7018,-1687,-618,-473,3127,1769,-450,-478,2585,1299,1880,-608,657,5000,77,-732,-2169,2420,3791,-2331,-2094,6918,-656,443,-1705,-191,-576,731,-2889,-1789,-5941,-1966,-2395,3009,-6174,-3945,1098,-197,1626,3156,-1819,-2025,2089,2725,2204,-2362,-4095,617,128,-2835,8558,135,-814,-3723,-3320,-4938,398,2167,6676,1970,-114,-466,-1319,-2704,-2939,-10230,1407,235,1503,-701,2308,-2770,9083,7372,
-460,4531,781,8013,498,-1259,-5016,1010,1749,4468,4307,2955,624,2128,2167,2785,5791,785,554,-4658,-2867,-172,1643,1433,5287,5419,10588,-4280,2197,3465,849,1781,2740,550,-921,-2446,-1357,-42,373,-2943,-1261,690,-2919,2655,843,3486,-5321,3554,-1791,854,-39,-150,-2962,756,2791,4113,4114,412,-5427,2408,816,-800,2790,5874,-3813,-6443,-1989,2193,-6242,1382,1435,4355,-161,2718,245,3577,-3472,-1360,648,-5107,3290,3037,-2452,-2569,-1241,124,-1930,907,-3996,254,57,573,3609,-112,1693,-1745,1724,-180,-1160,-385,-4269,4495,-290,3260,5463,541,-3782,3021,373,-498,4716,6407,-2541,-829,3854,1864,-3142,3782,-6074,5147,
2228,4117,-206,3879,892,80,5753,1942,3460,4852,384,5845,217,2659,1730,1944,898,-767,1029,-1103,3417,3500,224,4584,3341,4464,4547,914,960,3828,96,379,3912,-1764,-1576,-2183,-246,3267,1854,839,7576,2405,5142,1472,3080,3747,-4582,4305,3141,7268,3297,1620,-397,4438,3318,3733,-3036,2675,-1302,-1511,1953,3354,2052,6989,2239,4323,-5,7170,1288,5169,-3003,8119,2239,-2747,5593,5001,-5955,-1534,-2353,2751,4289,674,5955,4596,3184,2586,8375,-742,6652,8311,399,1002,2058,-39,1857,400,5019,4290,-799,2787,2675,-1574,-1403,5286,11036,2477,-2636,3493,3340,-955,5057,-978,3747,-945,3145,8281,965,205,731,5884,
-1650,-3399,1740,-5201,258,-365,-1776,-2066,-1844,-348,-3883,-4071,-1488,736,-726,-3596,-2856,-1584,7586,1283,-1992,-367,1434,-2111,-2319,-1047,-4791,-523,793,-2256,-601,-2006,-1843,1802,-230,784,-9752,699,1446,-5117,-2099,1132,-1064,-2342,-2341,-4407,5742,-546,2461,-4677,-4012,-797,-1025,-2153,-2818,630,-3253,-3195,173,-1556,-3,-3146,1271,-5563,955,-683,-1634,-4578,2507,-1279,-358,-1096,1168,-588,739,-1349,3235,3503,796,0,-2361,-1524,1456,5512,-356,-438,1285,1455,1207,-1459,598,357,644,3069,-1129,3277,2116,902,-1248,-2856,-220,1879,-1086,-834,-2516,-552,4663,5480,2559,1978,-772,808,-2566,-634,1508,-3715,-1454,130,-4082,-7230,
-859,-1903,1389,-15476,784,-2203,1566,-11583,-2413,-3801,192,-2864,3475,-106,-2450,-1227,-1716,-4241,-4224,-1318,-3960,-6447,-2963,4876,-1193,2605,-11377,-224,709,-1353,886,-5241,-2009,-3118,-366,857,-3648,-4400,191,-3218,129,2360,9456,3795,-1440,-4573,5474,5575,1725,2344,-2449,378,-303,568,-381,-1566,-2467,-1058,390,-5003,7669,7276,1696,3521,3324,2866,2450,7058,593,3730,-2153,-126,519,-4971,5402,9985,3749,8874,4679,8932,370,-1789,-2666,10032,740,2819,4092,8767,-258,-503,2771,3228,5315,-1030,3848,1480,763,-809,2737,1406,5698,325,4939,4766,4113,-2826,3707,-2010,-157,2518,4596,16922,5414,2575,4166,-795,6519,3643,-884,6307,
6421,2599,-1080,4511,-10,-318,7425,2964,-5792,-945,847,-2487,5069,-1983,-415,329,11516,-197,-4089,4354,-2296,933,2259,-2761,1267,-2463,814,-1606,173,-1924,2608,-2035,-1107,4526,667,686,7833,2998,-1079,2765,4017,4454,-5677,7447,-6056,-3280,-2670,-2554,-3265,-2616,-1784,5125,4299,2546,-4150,-9222,-833,1232,-2805,-1264,590,6467,6042,1841,910,-790,1268,1673,-776,1771,-1804,-336,2405,-2025,-1903,1956,-880,1795,39,5851,5878,8053,-2948,825,669,2979,1004,-675,324,1854,2747,-648,-4250,-683,-2250,-1788,1895,-3794,2122,4676,1433,3464,2797,5870,1230,359,1586,728,-5928,2489,654,4708,1525,129,159,-2753,-484,593,8267,-5354,
-7284,-2044,3048,-453,2809,-4240,-1106,-2302,-345,336,-4649,-2603,-3122,5533,-2142,-2020,-4053,-966,5507,2232,3483,-4299,3482,5736,2650,8153,-890,5103,3672,1165,-549,-1952,-1400,265,2180,1175,-4147,621,1217,1564,-1088,847,2468,-7328,-1507,-3007,-1882,-3494,-95,246,-3817,-5254,3265,-5688,2423,-4288,-2411,-2429,509,-3637,-1016,-5013,3359,-1455,6208,4282,-6449,108,2031,-3484,3542,4272,-119,574,-889,2841,-1379,1207,1124,-4263,1718,733,-3145,6706,1886,-32,119,-386,114,-794,-3893,7548,-1144,764,764,4672,4258,3555,-2637,887,873,745,4821,-1911,1622,-1468,7569,-1830,494,2035,-1062,-1041,204,4958,223,-448,1363,5182,-2447,-1240,
-2294,-354,-3891,777,5938,318,-8020,-2472,-358,-3576,2053,-3500,-2882,3989,-2310,-440,-3136,-702,6817,-1840,2106,1847,6805,2212,-3869,-638,2367,-4970,2061,-3672,-4618,-1162,-1613,-1130,2081,1435,-5241,4195,277,-5550,2084,-5626,-9670,-5359,-2837,1395,-3059,-1423,434,741,1687,-1884,2507,-390,-2021,6310,759,-4455,704,2391,117,1060,-3015,-235,7042,4833,-1759,1752,435,5714,4656,7904,4863,-376,793,3727,1367,-1438,-1783,-3870,1797,-1519,-3282,1285,-2166,-1948,1263,-3045,451,850,961,2422,1101,-2293,2212,3403,8066,7684,310,-209,842,5000,719,3251,2658,1915,2680,318,1026,-4863,-1370,-7491,-3168,1226,1275,9967,-268,318,-2903,1425,
-1296,-4017,-269,-4504,-701,376,-2293,-337,-17,38,4216,-2432,-3776,-769,-1961,666,-3727,-3053,3484,-4109,-3941,-3228,3944,-1757,1057,-3649,-1284,-2490,-1179,-3785,-2701,-164,3966,-3688,484,-1938,-5083,-468,2760,-4258,-927,-2512,2787,-343,-1380,-3030,6974,3269,-791,-2519,966,-3658,1331,1264,-3658,2075,4162,-242,-259,1634,2236,-569,-1895,-2674,-73,985,-1952,-3024,3526,-3806,-1714,822,-1206,2407,-4232,944,-977,-3982,-1156,-601,-1676,-5121,-813,-4213,-2702,-4522,-709,4099,1586,-163,787,-208,7463,-545,2495,-1318,-3678,-2565,-1392,-2948,1675,-4306,-1963,-1193,-1928,266,1505,-3275,2336,-893,-2610,-1175,-4110,1320,1853,-3175,-172,-2411,-6884,1028,
5592,3363,1951,2408,-150,4274,1829,6812,-81,8946,-433,1258,2145,-395,4885,2806,-2438,2179,-4528,2990,195,-2002,1610,-3777,2645,-1863,1289,-1110,1537,644,-4314,6178,2600,-2484,502,1342,1829,-4949,-1351,528,-2829,-4505,-880,3856,2524,427,-2883,-1749,-4546,845,2765,871,1181,1146,9366,-3946,5121,195,-1280,5039,4607,-3598,3297,-387,-1942,-3612,5369,2712,-7948,-110,-1867,-2000,2226,2384,-597,-3788,-538,291,-1119,-6884,-1484,-1072,-3594,-1410,2066,1620,-2610,1464,-1651,-108,647,877,1240,-51,2384,-1579,2787,-1297,-9400,504,-6490,1268,-416,2333,6129,4952,-4321,-3156,4400,914,-2799,-4786,-1509,2051,5815,1225,-949,-2362,-4766,757,
-2020,6757,2361,1252,-2802,3413,-2365,2081,2876,-3175,-11971,-222,-525,878,-380,-446,249,1810,5956,3242,1197,1912,-3741,822,-1018,3767,603,-3630,-877,3299,1839,2354,-7620,-1162,-3838,-2745,-6001,-650,-3079,1162,-1617,3598,5913,1170,1458,-1994,2486,1749,-1373,-523,-3379,204,-445,-1087,-3438,-538,-5946,2837,3539,-1807,-3091,2341,5140,2393,881,2674,-3381,13605,-1075,-5727,3882,3364,4180,-3678,373,-1911,311,-865,-1533,160,-2577,1598,-7094,-1790,2022,3189,6225,-4830,-3717,1749,-669,248,3244,5001,699,2132,1310,426,1854,1008,4991,-2143,-243,9995,3337,-2687,3501,-1175,-1653,3541,-2293,-2741,637,7260,-2454,-1457,-3170,3125,2889,-1787,
-2217,-340,-3597,2531,-4518,239,-4341,2093,2007,2265,5745,-819,-1973,-2152,-1058,2963,-2308,-1006,2853,-1904,1980,2751,-3953,-4616,5561,-1099,3243,-2904,-1324,3018,-1203,366,-925,-4173,-1142,-1515,-3274,-547,-310,-888,-1329,-4321,-171,1023,-1346,-2012,3615,-3993,-498,-4586,-587,257,-463,-510,-1493,1445,1713,7177,1879,4854,3174,-5931,-902,-337,-7154,-6249,-2231,3790,-5186,-9046,1594,143,-864,894,753,-676,-6939,-1990,-14108,-4943,-8895,-3810,-6265,-5393,-2650,1397,2958,-11326,-4097,-901,-2681,142,-2444,-1594,-924,-290,-4330,-4517,-3702,-2512,-1123,1177,-1856,1154,-3941,-4213,-7014,-10138,97,2469,-4792,-3504,307,-1088,-5237,1073,-2184,-1874,-86,-1,
3990,4832,2123,3930,1502,5029,-1422,6065,53,2343,-2960,593,339,-367,102,2788,5128,1887,247,3166,660,5330,-511,-1293,-1010,-3890,3856,-293,-2043,-1546,-1530,4523,-2624,6515,-2502,3782,4362,8610,6876,-607,4375,9358,245,1535,3864,822,-2789,-4056,-1118,-1213,-1046,5571,-3066,1289,-192,1979,-9668,-3586,-5167,-1459,4734,2855,-3075,-2813,7203,2068,-638,-1117,5621,5085,-3843,4480,3475,1505,1141,5633,-2339,-229,9333,2781,3291,2101,-1335,4358,2017,7728,-112,10432,2924,2045,-2084,767,206,601,-469,2693,6237,7090,8609,2984,1814,271,2247,60,6670,4042,-3764,3299,-1174,4752,6244,3373,-600,-2137,7437,3510,942,965,-1857,782,
4870,-166,-4277,5555,590,-391,3265,4134,2811,7450,3474,2303,3935,-731,-1652,1771,1216,128,-5054,-5988,2478,1055,2871,-3925,2363,2580,1522,-3408,2939,2613,-253,137,5231,4253,212,1326,4514,-1292,-2249,-1855,5563,2358,-10644,5946,1066,5280,-1983,-7390,1565,3551,-1540,867,419,205,1871,-6113,2850,-4688,-1065,2264,5856,2275,-2574,5431,-775,1054,-908,-3304,908,4394,-1578,1556,2733,3353,2054,2822,-5944,1100,1805,-1376,4544,2358,2222,-1601,5189,842,444,-1715,2360,2081,1844,7256,2694,-1257,152,45,7189,161,2685,3247,-2406,6807,-3971,5004,8377,4894,371,2999,440,4189,-1444,1171,914,-1292,7685,3249,4778,3520,1783,-2426,
4827,2574,3936,1349,-2998,872,465,54,-17,-319,210,-600,-188,-6998,7508,4439,-2305,531,2120,-235,3391,-1615,-3794,-5079,5103,-4486,509,-1100,1623,1479,2615,-337,-2985,3631,3092,3152,552,251,579,-3318,-4348,-361,997,2502,853,2425,-5704,-3229,-8275,769,1708,6982,1018,96,5296,-4827,4308,2426,-537,3931,-1225,1349,-6250,809,-1795,260,1696,-1248,-3017,134,-4185,-3325,1132,443,-262,-5980,-3142,403,-2881,-392,-2525,-4787,2878,-1482,2558,-662,-5996,3423,-3141,418,-5327,-1746,-1649,-3398,4241,1835,-1728,-2969,321,85,-610,-2323,-3248,-3135,1288,-656,-4796,-3836,5629,-4138,-2057,1174,2473,2212,5988,618,1904,394,-1927,5495,
-3393,1299,-213,-2187,-1773,-1344,-2351,1074,6733,-4415,-2079,2220,395,-445,1510,1370,-4705,993,-12630,-2729,2505,1490,-7171,-4532,-947,-298,-302,-2167,3997,746,-261,582,-914,-3551,-817,-1528,-851,1582,3085,-1030,-4738,-97,2861,198,1859,5959,6817,1433,-2526,-3364,4418,-1250,-2999,-1121,1622,-1039,-264,1095,-1299,2462,-1226,-4705,33,-2734,-1865,-3267,-1199,7279,-3790,-7418,1261,-7336,1409,1720,871,618,-2217,2626,4716,2372,6229,-7307,1729,2173,-1293,-1718,-8427,1940,3023,-5315,-791,-3525,2202,-3939,2374,-946,-12780,-2803,2029,-10803,-2296,653,-4088,-460,-12729,-6795,-56,-194,-3717,-3324,800,1548,-254,-1355,4094,-8022,-7341,-3586,-1173,-6027,
2118,3069,4255,3451,-2548,-1881,3116,1430,-456,2385,-3547,1303,969,-4379,87,3005,2164,2733,-4309,2047,-667,-1963,-272,-3562,-1329,353,1524,2794,-759,2460,3818,2935,-3736,2468,-888,-5026,4569,-953,-6515,3867,-3384,2145,5825,-265,2733,4963,1201,2093,-1932,1420,1412,5305,-4378,-1358,-2612,-2927,-160,747,-849,3115,-1901,-3676,129,2688,-5222,-943,-1925,-57,-1918,-1639,176,-3342,-658,-4198,-2773,-8334,-2789,-2038,-5112,-1596,-3046,2311,3011,-2169,5579,2938,-3047,-4602,-690,2573,-433,-2541,-6867,61,-4053,-3871,-1971,-2109,-102,-603,-2893,1698,416,-2397,-2631,-1021,-6031,-2666,-706,-607,224,-1534,-1752,-3517,-1663,-5094,-1660,71,-3329,1988,
2050,1814,-2619,3701,-1845,-1334,3552,2210,-815,-2684,4110,3393,-935,-268,-2635,3267,4933,757,2834,1358,3792,4444,1375,1279,-2443,5114,708,2765,105,3335,3620,2365,1690,267,-247,-113,6751,-1940,528,2844,-432,169,-820,6301,108,7050,955,-1598,660,3004,2151,4585,-3696,1294,1263,-6098,592,3774,854,-4563,-2773,-1074,3111,4429,347,-2685,-5435,-2933,-585,-4030,2743,-6814,-3257,-2919,2185,-3213,-8314,-2980,-3072,3849,-4909,-3877,-2099,-5914,621,1697,705,-6901,-1834,-1129,-3632,-247,2819,-3096,-5228,-1955,-1537,-1543,6444,1420,4961,-3473,1097,7269,964,-5455,-7968,-2912,-6380,-152,-2393,1962,394,-493,-1708,472,-3420,6070,2352,-881,
-4012,-7768,-3246,-4060,3544,-300,-1088,-3770,1297,547,-7429,-5323,-2915,2005,807,-7972,-1459,-2051,-6271,248,-59,-7024,2611,5232,-3049,-3774,-3936,-1573,1506,-5534,3122,-7330,-2681,-2927,-398,-1385,-8115,-3549,1420,-453,-610,-2656,5156,-2386,-1506,-5474,135,3872,-3708,-3758,1477,-3505,757,-590,1075,3202,-3775,3439,1328,-2731,-8357,2658,4074,3396,-1228,3379,167,-1408,2254,5024,5740,5036,1873,-1850,3155,6008,8110,3053,4420,1255,-2593,2105,-452,2480,-214,-5134,3608,-500,1430,3457,-1652,4765,1677,6627,1190,4510,-2306,-4321,-5900,1138,3677,1589,2022,4467,-905,3470,7886,-459,-36,3934,8395,2204,1104,2901,-821,-1190,3067,1031,715,-4249,
-3684,6769,-2332,2160,-659,-126,-3118,575,-1641,-2306,-555,1166,-3847,2140,2015,9054,-201,1455,985,-780,473,2412,2202,-536,-2015,-97,200,-138,1115,3174,191,6652,-1915,-3991,-2104,-3376,731,-2161,-2115,814,-2527,-3277,2304,-561,1477,614,-1091,-903,-2565,-2281,2238,1873,-4406,-2466,-1223,-314,184,-42,-234,3112,1826,2901,-1012,934,450,-3135,597,-663,-208,-626,1199,386,6605,-5607,488,-3995,-45,-5737,-4580,-1737,-63,174,1350,-109,-2365,-1061,-2439,-1468,-263,2809,-983,-1805,1458,569,2405,131,5264,623,-3768,1674,1899,-703,3035,-313,1446,-411,-4246,-584,2615,599,1098,-134,2325,-660,1362,798,1548,1433,2482,1650,
364,7370,-890,3096,262,2314,728,3614,1526,-410,-1197,3334,1605,423,3743,5458,2975,1713,-4394,-49,4874,-108,1759,-255,1042,3240,261,2067,2947,3235,1883,3061,137,345,-165,-1273,4455,-101,139,3872,3244,543,-1525,1745,2622,2545,-8462,1698,613,460,3304,1757,-428,-58,2219,879,989,2092,256,2644,-344,1054,-1216,2264,-189,-3395,-171,6756,569,1486,-798,2081,-801,-1368,837,-1708,-2623,-558,-831,-1861,246,-1955,2094,-1422,-530,5944,-29,-1113,2384,1933,3366,-2477,-1179,534,-1164,-5480,6187,1680,-345,1426,-1933,-1708,-3304,307,3509,1245,-1384,3544,784,-1871,-121,-2666,1090,47,802,2996,-836,119,1905,5685,
-2458,-323,1833,-2880,3248,-1375,-3316,-596,-3062,-748,688,-2242,-4765,-1526,-291,332,-3442,-2067,2617,-2643,-1107,-768,1860,1564,62,-913,-1204,-2435,-367,119,410,670,220,409,-605,-3599,-1614,-1739,523,-2023,-634,185,-93,-3505,-1208,617,3661,1337,6665,-3137,-6782,-3696,1830,-2835,-11239,-614,-1804,-1327,3430,386,740,4306,1500,-1546,-3387,391,-3617,-1640,8830,1825,-801,1466,2390,650,364,-322,597,-3709,11210,1544,4771,2895,5238,2162,2789,-341,731,2307,1049,-1542,-4196,2243,-657,1436,1178,4996,3266,-912,5175,3375,1518,-2790,5070,595,-287,278,9761,5391,-936,2821,859,2946,-632,4363,3626,-19,-5245,5075,452,-1935,
-1165,-2212,1674,-3300,-436,-938,-897,-1610,-2094,-1807,-2111,-3053,-2799,-495,-825,-3319,-3599,364,7921,1505,-2320,-861,-588,-3490,-1870,168,-3701,-86,-2011,-1926,-964,-203,-4533,909,-153,880,-5998,142,998,-1593,-2976,-246,8088,-1621,-1217,-4351,21230,1374,820,-4170,-3100,-744,731,-256,-2202,-1070,-3853,-2257,-472,-1806,-1479,-620,2969,-4119,-879,737,-196,-2836,862,-1405,207,-13,-1773,-199,-311,-1606,3734,2563,-185,357,-614,-978,13,185,1159,-639,2470,367,-1785,-111,654,1042,-636,1519,-1056,1120,-2309,39,-459,-447,1704,1574,3400,-1100,-632,-3526,1361,2073,-338,1421,455,837,-511,1342,-1038,-3292,-345,-1860,-3295,-6156,
1559,4331,-1181,2275,32,3185,5517,-360,-3309,6127,118,2873,4801,-1036,-47,2326,3148,1302,-5603,2449,5324,-361,-858,2607,-1432,-3922,-3631,-1638,-4423,-1041,2984,2494,-2948,1159,-1484,1745,2783,3641,-2502,-1942,6340,1333,4882,8348,-662,2406,-604,-2132,-124,-3273,-2516,6008,1488,2580,-4,2236,-157,550,-141,2464,-2687,-1840,2078,7038,-896,2460,3695,2150,-5931,-1301,-5389,-297,7100,3834,-1315,549,-620,576,-4424,2092,2370,3472,2089,4509,-110,2983,-2183,2166,-1146,396,952,1944,-3500,2190,-225,4547,-2447,-4281,-1519,3525,4144,4753,-2241,-2359,4034,3725,1758,-3898,4724,4477,567,3076,5650,-3109,-810,-2791,1963,19,999,561,
10123,-1118,748,4838,-2617,-464,4236,-2538,3564,-2274,-1309,-1272,1783,-9338,-843,-3041,3687,-700,-7888,-4248,1018,3590,1376,6341,-4642,-2665,-3080,2096,672,-3609,-2803,-1493,-1078,6794,1811,-2485,4362,-361,-5124,988,1029,-1009,3252,7023,-4359,-196,184,3784,-2241,-1534,4368,10794,553,1077,3410,1227,2496,485,-2589,-255,-900,3827,114,7455,-6107,-721,-443,-3723,-6482,-1521,-11402,-2532,221,-4974,-950,588,1678,-1278,-4390,-3382,1106,2263,-2693,-6846,-6080,-388,-2925,-5157,-1507,4458,-428,-231,653,-5134,170,1477,-1266,-2062,-2116,-1632,-2435,-2382,-3586,-3081,1469,1896,-5480,-988,-254,-2992,1405,-3739,515,-1952,-538,-245,-961,-3371,-3495,-2094,
-3326,3146,-2091,5565,-630,-17,-4433,421,-1,-2333,2671,2902,-1782,2412,1819,1151,-4294,1085,7537,-1574,1367,-163,5579,429,3991,2028,3053,3141,2430,1583,4396,869,2616,-1583,1436,-1454,2825,2234,-6564,2347,2171,-2593,21,-8422,267,-613,-839,-6887,-1730,-2914,-2520,-4908,1422,-3712,-4765,2002,-201,1410,-1248,-739,1284,1761,-1901,1148,-2350,-3130,-10699,-2301,2260,-5418,2036,3160,-2272,-2274,1202,-4794,-90,-4698,2112,-5778,-348,1567,6043,4187,1244,-2337,-505,6752,4836,1021,-2103,-2036,-4174,-437,586,3444,1887,3322,-1167,-2369,1289,-8388,2885,665,6297,5259,3776,3237,-1159,-554,-2630,706,-5393,-495,1523,3128,-1517,3409,-1138,-3672,
-2613,2154,1520,585,146,-585,-1250,2285,-1861,1412,930,3994,1167,5442,893,709,1552,-869,-3397,1727,-140,-1223,-177,-393,-620,-2165,1481,-3101,446,1150,-978,1679,763,2449,789,671,2630,-269,-1743,-213,2024,771,-2745,2195,2622,1013,-7639,621,1645,-843,920,566,1550,-1574,2045,1212,3938,655,-1948,-888,1543,3714,2369,2840,4132,958,1408,472,1427,1804,2288,3439,-410,1733,28,4002,-2016,3046,2497,2031,1113,4593,225,2235,135,2032,1765,4892,557,-85,-205,662,-152,-2138,-477,-2027,2418,1815,2239,1491,42,-478,894,981,792,46,8723,2417,507,929,1422,2562,681,1064,1262,-152,2507,3201,-1485,324,
-4762,-2200,-1295,4556,1013,-2856,-3258,1283,1328,-7536,3817,-2140,-4930,478,3142,1631,-2622,696,3840,-2382,2209,2072,1496,-988,-9181,723,2584,1008,1338,-162,4107,-1734,695,-1809,1545,1984,1958,3373,-2961,453,-4371,-5162,-7274,-6768,161,2091,-1222,-4192,-1659,-4602,7230,-5455,-128,-1662,-3414,-4719,3447,232,1531,2475,-9513,359,-2082,892,-418,-2524,-8135,-4428,-156,-9842,2638,-3504,-4246,874,827,-1450,3869,-6103,-8035,-1992,1919,-3603,1546,-2629,-10175,2059,-4822,-7536,-177,-2468,-1512,-811,-3599,-2490,-5508,3569,-4267,-1266,-3699,184,-3668,-1070,-3759,-1600,-3313,-1292,-5268,-2711,-759,2725,-4330,-6282,-2898,-3237,547,3999,-3054,-68,1062,-4613,
-3956,-838,-3547,1375,-3900,-1651,-3397,604,-4640,-829,3018,-3185,-7440,2104,656,6158,302,1381,703,-3557,-1111,-848,-2413,-1148,-1316,-1060,905,-2283,-4801,-3981,-800,1046,-2067,-5854,-309,-4222,2441,-2699,-826,623,-3280,-3298,567,847,3235,1615,-1315,-958,-3093,-2252,1597,1679,-1747,-3940,-3117,-1588,5151,1223,688,1415,5477,4807,-2126,4331,473,-2391,-1170,1748,2499,1457,3754,234,3920,1569,-1402,2614,-3165,-3347,-3069,843,1396,2381,143,390,-1046,95,2773,-179,1005,3081,-2928,929,770,-3494,-11,2880,2126,-392,3499,1546,2937,-351,1089,-800,-5683,2600,-65,1084,3451,1192,2189,66,2750,1837,501,2740,462,3381,1867,1942,
};

PI_L2 int Decoder_Gru_Bias2[]= {
-2291436,245612,18267,-3390756,1367097,2417088,-1674585,3209573,-2795361,-716492,1503558,2147943,-4967048,-1764840,-1054252,702056,3931369,-3579275,-4022276,611348,2536440,-683452,2152237,1022827,1161985,-1232909,-2072098,999557,173219,421391,-311871,-1108730,475426,949884,-1336505,-242636,-2950152,628707,546143,1326590,182626,329498,-1540057,2063552,1428775,4048550,-3672523,-313831,-864138,789114,952987,-2627948,363745,3613669,2617139,-806404,-1724807,-2450968,-1936386,2177564,    
};

PI_L2 short int Decoder_Gru_Kernel2[]={
-272,-464,-544,-72,-326,58,720,-656,-529,283,47,640,-461,523,-672,-50,527,164,-93,-282,9,686,-304,-438,628,445,-52,369,561,-588,159,256,166,153,-178,-658,-264,607,78,-116,372,-516,347,-280,544,618,597,-712,173,679,-526,-642,-363,-91,328,693,-689,-140,-744,-342,
};

PI_L2 short int Decoder_Gru_Recurrent_Kernel2[]={
-321,-3831,-112,-3195,469,-1156,-3151,-747,885,-1074,-1061,2637,-3351,3110,-3862,1454,3302,1953,2612,1541,558,-2784,3367,1856,-1631,1229,-1722,90,-288,867,504,-503,3122,1887,-3157,1089,-2298,839,-1902,32,3675,1963,-1270,4823,3468,1647,3442,-1694,-4551,-1226,2024,504,491,-1843,54,847,-1119,1832,1649,-1420,
221,275,139,2290,300,1663,-3457,1988,-364,-2055,806,452,1311,-2517,754,847,-456,-3199,-1733,-624,-200,2354,3923,-1145,-115,-97,2031,4561,1437,448,-136,-1081,-1646,-484,1495,-25,4222,-1217,3944,1593,-2640,-3673,-1792,2921,-103,-2004,-2332,-1696,1228,515,-487,-2,3459,3242,2771,-2457,-2340,275,2084,372,
-358,-231,54,-3089,1480,1365,-1108,1612,2335,-5,3038,5419,-2878,-204,-484,7614,-564,1540,3564,455,3463,-1249,-507,54,672,-1298,-785,-4879,3499,-117,-432,-904,5220,-925,-2685,778,-564,2736,1407,-3612,2335,-169,1243,-94,-1578,1484,367,-1878,-533,1038,-3253,-203,2024,2393,5507,-3234,-3054,896,3798,2592,
1884,-5715,3697,-3553,1178,44,-421,567,-2320,-24,-592,2885,549,1425,2502,3153,6192,3596,-1436,54,1664,-93,1139,226,1909,54,-903,-1884,1537,4608,4090,685,-1518,1138,-209,2402,-4016,-2640,-3483,-4109,32,1266,-1829,4243,-662,6803,2242,3294,5041,-849,2452,76,-2592,-1514,1667,-1485,-5872,695,-713,624,
4470,-1855,-2740,-1287,-1754,-1039,860,-2234,1334,1281,1965,-4933,267,14,2575,705,-831,-4044,3235,-2341,-805,-413,1715,-359,-2876,-822,-4108,413,-882,-1350,1642,1515,298,616,1648,97,-4005,1422,5001,4654,-1545,3495,630,436,-445,1062,910,762,1478,-611,1014,-2399,2808,-2163,-1304,-675,556,-1315,6391,1662,
617,5743,-69,5342,773,4172,867,721,-91,-4046,-3642,-2821,1957,-2610,-2010,468,-3587,-3437,1057,-748,-890,-1540,176,-4494,-1646,2384,1585,-1078,-138,-3067,-122,3438,-247,-104,3117,-2115,-1924,2429,851,4307,-2140,1398,784,-106,1216,575,-1789,-932,1294,3593,-3701,-90,-287,1062,778,-1406,-2723,-2352,-1735,214,
4914,263,849,-130,-2326,1710,-577,-106,-1339,-886,1376,-579,-3479,-1633,205,-213,-543,-2628,563,1365,-1004,813,6250,2197,1897,126,-2857,2056,-988,-2553,-6915,-1515,948,207,2320,-2721,-504,1175,1381,4019,-2226,-1327,-3588,-2217,2774,780,-2368,2743,-2111,908,3299,-5093,4087,1641,1315,780,1729,-1798,725,-1443,
18,3539,-3163,-2309,1021,-3241,4082,-5937,2147,2458,-1221,-3164,4955,-2265,-1010,-12,-4663,432,343,-525,-202,3842,-973,-1117,-1108,1606,2145,1008,410,337,-651,2651,114,-6225,3594,215,78,4478,1827,-943,-554,-875,4239,-1092,-639,-897,5023,2113,-1319,1149,-2811,-591,-1467,-578,-1594,-3303,-1119,467,2872,306,
-2213,3469,1558,-2382,2066,622,-4570,-640,204,-2410,1147,-669,602,-2470,-1495,931,674,3607,950,-2503,3473,100,-1532,961,1346,2092,-5822,3218,-3751,398,2518,-350,-913,1848,284,3711,2971,1549,3184,597,1062,-4039,2023,-922,171,-2,2406,-3416,1807,-413,-1355,1609,552,1005,-943,-2669,-171,5067,-751,321,
-1583,-2307,583,-3321,325,803,959,1086,592,-1227,970,543,425,1072,-726,3740,1357,1933,1830,342,824,-610,-2250,-277,1447,378,-2025,-2244,-580,2145,2360,442,392,815,-2443,324,2918,-242,198,-4739,-4890,835,371,4797,-55,-1331,844,3012,4677,-370,-1449,-313,1422,206,3619,-4677,-2251,-119,-1394,-1174,
697,1936,-1209,1360,-2631,2585,1511,1706,666,925,3477,173,-143,-2056,2171,-352,-3302,266,4039,222,-2082,72,-586,118,-1069,705,-939,2703,-161,-1872,-214,-994,-1,-1958,1250,-1713,2979,955,-1151,4126,-1735,-1466,1631,-3287,1178,1817,4006,2518,103,-247,1348,1337,1312,-451,-1520,195,461,-882,1110,-559,
-442,1384,1316,-1015,3876,763,-1934,-1287,-1753,-908,2618,-1021,-2046,-1131,-4229,482,4142,2422,568,-334,169,1361,-1770,-4584,-369,-1186,-1067,2,-938,1618,-324,1361,2448,966,-4481,362,-2382,1130,-3699,-1011,-3129,-1979,-1025,6646,894,-1744,316,1893,3993,702,-976,-1360,-2292,-1341,931,-3824,913,679,506,1510,
330,-585,-1781,-948,3712,3559,4477,3205,1715,-2288,3251,-1273,-1115,-2638,-1468,2640,516,867,-258,254,-4179,-1435,2974,486,-201,3947,611,-273,-848,1907,-470,-1240,545,-473,-178,1991,-1693,2323,2291,676,-3223,1281,-3371,-645,666,-3100,200,241,3481,2794,1601,-803,2210,-334,3018,-1889,375,-516,-2652,3892,
3262,522,-434,5074,2821,2290,695,-567,2049,2356,2331,2544,-2542,-1643,738,1440,-3472,1972,4537,-2316,3118,6,-1121,-1051,1364,369,1199,-561,2935,2188,-2207,-2240,-977,-2816,13,-2620,895,2941,-291,763,3404,625,-320,-201,1301,2143,2932,2342,-1347,-2766,1389,-20,1899,-794,-213,-1943,-567,218,-1910,-3602,
-148,-1612,-532,647,1849,-1219,769,604,69,-3456,-291,-191,2449,-1058,-1691,-2849,-898,351,-3158,1067,-828,1610,-3370,1083,-719,-2099,4687,253,511,-1594,551,909,1535,-1067,1652,646,1809,-1296,-2594,-2752,-3854,572,1785,-2350,-765,-1734,1691,2948,4767,1785,-162,-343,-1966,786,-210,1147,-2180,-5481,-3281,460,
-118,2573,713,-90,3442,399,1541,-2801,-1052,-1469,-22,394,-651,-2593,-3629,-7805,1871,3924,2511,1959,-941,624,-2469,-585,-645,-2730,-2666,-5769,-740,2256,-144,2647,2480,-1196,-1041,-3468,-114,3209,8,555,711,681,-220,336,5400,2288,-2513,2972,1174,-1738,646,1196,-2926,-383,2505,2708,739,663,843,-819,
2545,-1305,2677,2648,-2165,-1063,-59,738,2671,-88,-1563,-1739,-165,1221,2476,471,1331,268,-1844,-617,849,1659,584,-3701,-2427,614,1998,833,-1502,109,715,386,-3130,313,-744,1755,937,2071,-3358,-5307,-1188,2621,457,-2043,1832,638,5430,711,350,-1120,-1808,-534,-1291,767,-135,-372,-2528,-1698,4877,3505,
-265,3819,-1151,-4478,3105,2095,-1537,1088,-3342,3776,1166,2077,-2256,2003,-2826,795,952,-1416,-651,2950,1873,-1998,-745,1638,2505,1116,-1769,2279,826,-1076,2929,-228,4999,-1693,-1807,-1798,-1150,769,286,2103,2581,781,2266,-2600,-1278,-1397,1327,-5004,-2041,2286,666,-2439,350,964,-1043,-148,-3534,498,-2398,2845,
-289,1147,70,434,110,454,-450,51,-3757,-3139,-4956,-1764,-645,-1706,1550,1992,-1235,-414,-7003,-3208,1641,1981,-1385,827,-1207,-2135,-254,3197,-1173,711,103,423,-2757,-1304,3519,294,-2256,583,-1482,7,225,19,226,-206,2223,2850,1556,2166,-768,3021,2473,-1733,3717,-1512,-2332,1395,-1025,-4950,-3352,237,
728,-1805,313,3421,1663,-3147,-301,1231,-138,477,-4135,-657,2380,2523,-904,-978,-1408,-2083,4577,-9186,-3233,-1379,-3052,-1490,605,3438,3343,840,-3445,-1194,1335,2384,-1034,2905,367,-696,-156,-3023,-1326,-3285,-1628,1720,-2360,1102,-2737,-466,413,-2434,2179,-1331,2426,3895,862,-1101,2674,-851,-205,2526,-2324,661,
-4141,372,34,852,541,1980,3125,3832,2657,-89,7202,1826,-668,-1413,-3115,1267,-1152,-1121,591,-169,-416,2276,-291,-6143,-761,2140,4853,-1556,-697,696,606,-267,4055,-1764,435,3267,-1279,-1148,-699,-1783,-1159,1428,1787,-96,1936,-3437,1393,2299,2299,2885,-1813,-858,-2646,2985,1186,-3131,1083,4775,-772,656,
-300,-769,-144,1934,-3297,1501,-1588,-3215,1969,453,2455,3079,-1260,-750,-2621,2921,-2246,546,1165,2065,2126,-1448,-1397,650,2600,-1057,3274,50,-249,2795,308,6816,1430,3020,-1808,-75,3531,1185,231,-1206,-1888,-1114,785,1859,-1533,-3636,1811,3314,1981,-2709,206,-1725,-2172,-395,4456,870,1085,-508,-1903,-1551,
4642,-389,1709,1471,-559,497,2443,-3052,-3959,2719,1829,-542,1570,335,-427,-121,578,-3678,1567,1888,688,-687,-5453,-1099,-499,99,2933,1545,4352,191,-39,1011,-487,3,-1310,-960,-1764,-1747,-2031,4150,-368,-348,-1790,-2261,-1113,1208,3182,1438,-172,-115,-1032,-1234,-730,-2790,2859,1747,694,-2834,-3283,-693,
-165,2466,-1425,1795,-4155,654,-1939,1086,473,2950,-1763,2565,-1679,837,-460,18,522,1770,-7509,-1400,-2398,-6537,-665,3392,872,-209,-398,-2986,2043,1132,1179,1929,1278,30,-1576,-2372,-2900,-3128,-6739,1296,883,1482,296,-3555,-840,-3825,2303,1234,1,-954,-1684,-1852,2306,-1930,28,1170,-1029,-1923,-1780,-563,
5910,1713,641,2344,1772,1328,2828,1161,691,-426,53,-2726,12,1647,-1860,-297,163,1114,2975,-961,2264,-1324,745,-1049,-3143,711,346,93,-1844,556,200,618,1300,22,-1970,775,416,873,1911,-2601,769,-667,-3876,983,-2341,-2312,-1239,-1029,-570,39,-347,1976,1182,-1377,1456,-1792,-2425,3702,-2313,-283,
-1188,2656,-809,-2893,-2004,2596,-4948,8,469,-84,1017,1350,-2605,192,1151,908,-1504,-339,539,2483,637,-1561,3277,3281,-186,-2971,-6404,24,-742,835,-2504,-4306,493,138,-156,-2500,10,822,2886,3957,2138,1116,3925,-567,4000,-1981,166,-3331,341,-854,1489,6,2324,3478,-3580,898,195,880,1173,2425,
541,-3863,2005,-5655,447,1466,1498,-1136,1189,1366,3010,1261,-972,2701,-3740,-43,1242,2470,-617,2438,143,874,-1480,-1094,1925,2644,-2021,-2571,22,4363,-432,513,2513,-1201,-2211,619,-2456,-1452,1979,-3524,-2565,3364,479,-3371,-281,-425,2288,2750,3503,3598,2397,-915,-646,-654,1933,2766,1903,-331,2823,594,
-2122,-1994,-1208,3143,-3975,-2896,-4610,-838,469,173,127,329,-129,-1645,1733,676,629,-632,-5298,-3012,1392,-1134,-900,2582,545,-3905,553,-4676,2491,-224,3890,3038,-156,-832,-546,-148,2619,-1799,-1652,-3057,-290,-187,1868,-717,-2743,1453,-205,1451,714,-464,1464,-667,735,1675,-3745,604,2143,-379,1012,834,
4303,-625,1993,-982,602,-1153,2286,2750,595,154,-735,-240,-2705,5046,-1346,-1451,-179,3920,2734,-2318,-2894,-314,-1882,1048,-2193,2373,2767,3613,57,-182,362,-1722,1352,1214,-3652,-625,-2704,-1904,-2168,-2507,86,-828,-2666,1729,-596,-1354,-2548,-2389,-1740,375,-801,1506,-1351,-2218,-920,-3325,545,82,-1421,-993,
1917,294,749,-3687,-2487,-1041,-958,1795,2706,-1392,1329,-1390,-2567,-132,-2315,469,-82,891,1588,-1583,-354,-1347,-3395,1786,-2151,1816,-4651,-593,-617,-745,-756,489,5252,2218,-803,-512,-2621,-1421,-265,1894,1068,1876,2050,5923,843,370,457,-372,1009,-655,739,430,3469,-1766,1009,-2023,1301,2139,770,-286,
-985,-3118,474,-453,159,1082,2688,73,-346,-1416,595,-1066,199,-2356,1000,1457,-1528,-4503,-461,-3553,-1525,2644,-1571,1148,907,3615,3608,-341,-3409,-1837,1027,-2008,-703,-4641,1736,2400,-1578,-1239,-94,-778,-3693,-262,-1015,66,444,-2921,-3705,602,2238,1127,-1480,-1233,-541,133,-285,-2623,3555,205,3597,1422,
2718,1764,1570,1446,-5436,3746,1601,4002,-3389,1280,-103,451,-1491,547,-1502,-1865,746,-225,-685,-1016,792,1474,1161,-1022,1179,1230,1975,-759,2057,-2612,684,-3188,-1053,1476,-2626,-1972,2915,-1138,1250,44,-449,830,-1523,-2997,4077,-2451,681,3623,-243,-1394,1969,1432,-1296,44,554,2146,-1366,-1919,-1644,-262,
-2785,-1380,-1474,-1713,-4272,2833,758,1747,867,-572,1728,168,1272,-623,2248,3298,1128,-628,1168,-2114,228,1718,749,-3250,-1756,1603,-2751,921,-1458,3166,1562,-1861,-1003,-128,-268,402,-3016,2963,1612,1704,6078,-657,2995,-857,2572,3058,1089,-42,-802,-1335,377,-866,-1485,-2420,-7836,-3474,1089,2409,582,-1317,
-3201,3065,-383,2223,2138,2548,-578,-445,-514,-1709,3522,1489,-922,-226,11,3649,1401,-1888,538,34,1827,-512,111,788,-357,-1388,358,-1069,-1234,-1032,1397,-1176,-1260,-822,-1506,818,1891,1815,1332,-1139,728,-265,-717,-4630,2895,3696,-291,-4486,-2230,472,-362,-1420,-2013,37,1375,1273,1612,2398,2545,2276,
1085,1895,1600,4025,-1323,-1499,877,-1390,-2958,1720,-2132,-3102,1628,85,-585,-3300,-1078,-245,-3097,-371,-2044,935,1796,-2413,969,-273,1303,1505,1084,638,-2027,2506,-1330,197,3709,1423,-80,-1604,870,-1423,1776,-2417,-1407,-278,-2774,-4908,-1334,1031,-717,-1824,1913,1180,-722,2628,-1107,884,1810,-1153,-1406,-2021,
-486,3784,-50,665,669,-698,1216,3223,3463,-3190,2726,-711,163,1973,534,-293,2171,-1858,-3825,-381,-6418,-9362,268,514,228,1427,-1207,-256,-2126,-822,1662,-1369,-2507,1275,-7,1184,2936,3210,30,914,-4844,93,-3025,-545,31,-4074,-3677,-2943,1452,529,4471,-2469,13,-286,2830,-3600,308,-884,-1133,2510,
1672,-3665,2006,-3510,-1106,2755,-413,-359,-698,392,1000,4296,-2827,292,636,4870,781,3421,-241,-2016,2121,92,1061,-1642,2947,1336,1479,529,1149,3586,-315,-499,1607,3658,-1380,1676,-811,-1383,-3923,-3307,1552,-2131,-2261,3403,731,2474,-2,2847,2757,-1509,1390,-1262,-1079,-2849,3236,-1426,-2551,-949,-647,-577,
4673,2345,-1639,16,233,604,2435,-1536,709,-143,2503,-1215,1186,-4088,4167,-2009,-3112,-3699,814,-2460,445,1341,1151,137,1583,-790,639,3460,1417,-2321,-608,275,-1039,-1473,3201,-92,2332,-1562,4330,2018,1530,-803,1946,-2867,-1415,2213,1946,631,1954,624,3607,-1636,5188,-609,2040,-750,2581,771,-787,-254,
-585,-1255,422,-3539,-245,2231,-7401,3124,-1972,-1358,1569,-1451,-669,-3427,543,790,1628,1725,-2410,-2419,3346,1256,2385,-1431,-293,-2578,142,1556,16,-807,576,899,1613,2427,138,-239,-4243,661,-1414,2327,588,1080,443,1221,6859,1373,-295,2024,-47,-1775,-518,732,-3395,2926,-4435,-1478,83,-1893,548,-694,
1378,1870,-1093,4742,-535,-1635,-763,-2019,-728,-1165,-1719,-3077,-1415,-339,1169,-3784,1674,-3072,-1088,-1080,3531,-166,-1055,-3979,-1459,1308,5147,-7,-910,-2519,2871,-3054,1822,1093,-339,1415,153,997,-1286,2998,3463,616,-817,-2540,-1290,2111,-1279,-968,-1097,2045,-2686,876,-1340,-400,-3903,1627,-416,-1388,1361,-885,
233,1844,2283,-2459,4033,1417,-1454,2206,-1590,973,1931,2041,1220,-4127,-1934,-1019,5766,3544,-1333,1284,2687,4631,2929,-1911,2531,-1509,2128,1217,-195,1861,478,-1431,-1193,-619,-4220,4885,-484,563,-1412,-1946,728,-964,410,700,3512,2007,2118,-3159,1343,4757,-1033,-72,-3051,-1485,1711,-1900,-4182,2756,-4041,1886,
1841,2639,2465,332,-1480,2516,-196,3304,790,2001,1265,2566,-1814,-768,-3991,-3809,863,-1442,-810,-2841,-2800,-2198,41,-946,1704,1567,-2535,4655,-1718,-434,-4637,1338,-214,-1275,-893,-2729,-1796,-3558,-984,2373,-3312,-4949,-4105,-2486,1841,-792,-1846,2004,-1113,-1785,1446,-243,1605,81,3689,-846,5634,9,-1322,-1527,
356,-3143,1664,1308,374,-1793,2174,-4343,-5481,2647,-699,792,1173,-461,715,-1990,-1628,-1246,-1652,-1792,-6065,-1069,-741,-3954,1003,4554,667,783,2420,622,1696,1399,-2157,-1309,3013,-1877,1067,-3463,-4076,1582,714,-920,224,-1458,-2349,865,-1165,4269,4165,-1834,1603,-669,-1261,-1213,-12,2736,-1457,-4521,1640,-587,
-700,370,-709,-4040,-2516,2701,-2165,-1474,2856,-3910,4518,-1062,-578,-719,181,868,3053,1,1650,-299,2317,412,-1360,2623,2171,-1109,-1270,-2414,1273,-415,1698,791,421,-1222,-3416,1231,-4904,-499,-1177,-71,1383,977,1910,475,2296,1528,855,-474,1535,769,82,-2061,788,-1674,-4367,2707,6340,2101,3142,-1428,
-1978,-1564,914,3508,-2140,3500,-204,3951,-1914,684,1134,2382,-4328,1247,1357,1802,5092,-674,164,-1624,1027,1396,794,-966,-3071,1824,1657,-1163,-362,136,3230,-4060,630,2995,-2792,-784,812,-1978,-1957,3167,-1482,1042,1615,93,-3688,1912,2141,2208,471,-700,3144,-324,-955,-485,2576,444,-1538,-2442,-436,108,
2422,-1085,232,-1842,-1326,-2083,754,-75,-1200,1853,-1907,-3765,446,4149,2083,-2027,264,-1108,-2881,-469,-5170,1183,-3132,-242,2703,-1840,-2851,1576,2394,-1561,1509,-2,71,-1401,-1222,1374,-1019,149,-3925,190,-1236,1338,46,471,-2123,-946,-184,302,1113,-1612,-90,-1407,-2119,-1561,-1376,-1042,-753,-5021,1013,-1640,
2375,-1807,1996,2606,-504,306,-1839,-1612,1234,4410,958,754,-17,936,-2409,-2342,932,3300,-2739,243,-3353,-765,3411,-662,6451,-489,1601,-1852,1684,1909,-2286,148,-448,1162,-3552,-2226,-1497,-6445,-6869,-2223,2171,300,-3813,1651,743,3321,-3020,-2238,3674,-948,838,714,-2288,-1373,-173,3474,-1136,1595,2234,-1157,
644,753,566,821,-3306,-2024,-68,-147,-1196,1462,-3874,-61,-1721,568,-944,-103,1675,1543,3198,2924,-1117,-1060,975,-199,-218,-3601,834,593,2545,542,-3318,-797,-1508,-1198,-3064,1497,724,-2604,-2277,-1147,-143,-412,-5282,-303,-595,-171,-4292,-1915,-870,593,-2496,690,-2250,-1094,-185,417,2576,-771,4100,-3857,
1129,-1925,-1057,-2843,526,1403,2531,2083,-562,-1145,-1955,-747,-1466,-93,-2202,1442,-2892,-1330,714,1866,-4301,-1182,4171,3012,971,2450,-2357,1542,1993,-249,-5960,-1845,-334,936,-199,-2234,-583,-1555,2824,1055,-4736,1550,-296,3321,-1027,-2821,1512,-681,-1014,-1871,3727,-774,3251,-284,3604,-561,1904,-1243,1361,2250,
1578,-1576,-2551,-1553,2429,-2394,1579,-1056,2334,-6364,1641,-3164,655,1603,-2916,-910,3,1207,2115,-1694,-4864,-1590,-857,1534,-1298,838,48,-888,-2341,1820,-2611,2387,-64,81,-437,-1417,400,3185,2342,64,-6522,1182,185,681,-1708,-4534,-1972,-924,3694,-4598,937,-314,-51,2784,2886,-5042,-1098,1332,83,-2146,
79,-1514,1429,-1163,-1637,1743,-2742,3043,-2657,3501,-2133,2036,-4384,-3116,1797,267,309,-904,-3439,0,2938,803,2544,1468,1846,-619,-1540,1708,670,-88,452,-392,-815,-1052,524,-3751,2114,-488,290,202,1628,1788,260,-3761,3059,1928,1035,2358,-1339,-331,-1183,-3043,-927,2997,-3851,-1331,850,-4080,1340,-961,
822,402,-553,-1441,-1833,4298,1057,3370,-1470,4071,2395,4983,1745,335,646,2924,2006,636,3929,1178,1783,-310,941,-51,2252,-561,1062,5025,1284,305,-387,-5537,1965,-1292,-1607,-1348,-2051,1352,1137,-2214,-688,392,117,-1959,-226,-2704,5749,789,873,2148,-2637,345,339,-1464,507,-768,-3870,-1829,-36,1912,
-1336,4131,-575,1022,-3687,-1660,-1865,-18,2356,782,-531,135,356,241,2226,-3408,265,-1715,-1598,-856,211,874,2831,2264,-789,-348,-1480,3709,-461,-3494,-4371,201,384,1965,1744,-3923,113,-926,-803,1241,3364,-2799,-246,-377,433,1028,-1215,1435,-5787,-2514,610,854,-960,-1017,-3149,3768,3048,-911,-1969,-626,
1057,-701,2454,5462,-854,-2171,-723,-2042,414,-897,-2356,-3648,3283,389,857,-2825,-620,-1024,-2309,219,-4237,1248,405,2837,3665,870,1441,2286,-1017,-422,-1397,603,-5498,770,699,1181,247,-1368,41,-1676,134,-685,-2360,-819,-4247,-3433,-1835,-941,-113,928,817,-731,-351,3663,656,165,1157,-387,-763,277,
-2580,2065,418,144,-3649,-430,-3631,-1544,673,1808,1345,889,-2626,1782,-2902,3817,1230,2872,5375,1390,-55,586,-646,1020,-12,1328,-3575,2840,-449,557,-1560,-371,2947,1854,-5308,-4066,666,262,2879,735,3195,-297,-2404,1610,2090,-948,1480,-2345,-4464,-1175,-554,-828,-866,-128,-340,-985,-1070,2295,-187,-434,
519,-426,3789,-813,2701,-1906,-2582,-817,-1634,-1247,-3311,-1610,-1685,6718,-1111,2092,4005,3025,664,-654,-2551,-3234,-491,-704,2497,-228,2283,-315,2931,1721,2226,440,3235,374,-3187,1653,-1716,114,-4422,-3513,-1399,1646,-5036,1420,-1361,-2100,-3865,905,1382,-122,-2312,62,-3285,-24,4163,-2822,-2732,-2838,311,1013,
-2318,-2964,-64,-1420,-723,737,-2476,1855,-780,1862,-1916,3436,-796,-3870,-197,-1018,1367,887,-1284,581,2275,292,3947,1115,1941,-4022,-2563,142,754,-627,1031,-1533,-1661,1702,921,-213,55,-623,-960,55,5306,2248,1031,-1527,966,3853,2264,2493,-971,-812,1028,-120,-2258,-943,-3701,2196,-539,-2461,-419,-1283,
-3350,227,58,-3144,-1302,454,1205,2054,-919,168,2523,455,2189,-1932,-1129,1306,1671,2941,4377,345,1931,-70,-2302,-3966,-5105,-836,-3143,3253,-5392,-1289,2964,-1373,-800,1367,-542,1408,-841,921,-2625,2751,101,3134,2960,-1086,613,-1187,2826,3230,1380,797,495,-394,-2729,-1681,-915,-1138,-103,-155,599,-234,
-472,-5792,-283,-1175,-3706,-848,-1971,2069,2484,2035,1,3645,875,-1697,1466,-1571,-1924,6252,-477,-241,-193,2424,2498,510,-2858,-2598,3057,1371,3850,2230,-575,-2503,-1129,-691,1309,873,-57,-1783,-2834,-2533,1510,-1048,2257,-1695,-1156,-295,2915,1067,1292,-2980,1036,170,1365,-2576,1716,1383,-2090,-3709,-122,102,
-235,-2173,315,1502,237,-1199,1622,-767,713,2199,-1103,-173,-1708,2397,-526,-2478,-3856,158,685,-1205,-2538,1861,879,608,-386,-1044,1259,1376,-1979,1278,-3456,2518,-462,-4317,3877,-2104,-579,1627,-1411,988,-702,2849,-238,-1701,1243,2187,1163,-533,222,-2718,283,-1014,1263,-3394,-2422,-277,1001,-704,-39,-1498,
};

PI_L2 int Dense_Bias[]= {
1513911,
};

PI_L2 short int Dense_Kernel[]={
-127,26,241,-398,-217,458,-233,-64,-446,-186,-672,-13,-396,78,-23,-655,1094,-951,606,68,44,56,-365,217,352,-376,-12,390,187,138,-201,-613,-14,-125,1157,139,-339,-366,11,339,-85,-415,146,-463,-65,302,-92,54,-25,0,-399,-936,-97,1450,119,20,-461,-697,-377,-250,
};
