-1438669,-2529710,-2161495,-2365613,-1337766,345639,-2118067,-2240113,-1619100,-1692998,-1115161,-382439,-914065,-1968960,-2923388,-835259,-2762211,-1880190,-1335139,-62192,-2965917,-1486784,-2150840,-947759,-2271793,-1494943,-2162857,-1290885,-2237604,-2032196,-743670,-1470066,-2277529,-2386762,-2538830,-2465715,-2358321,-2657264,-959970,-1736728,-2512428,-3015124,-1807248,-620170,-2441183,-2808798,-1265421,-2305804,-1879337,-1994096,-1142490,-1349876,-2184007,-1321709,-997264,-1932164,-2481520,-2390703,-3221470,-341070,2878001,-1796003,-1112690,-969013,-2781936,-2419345,-2290910,-1520826,-107112,-1811642,1095894,-2465926,-502036,-1845443,-787065,-2160988,-2912155,-2224686,158044,1062454,-2337786,-551816,-1512162,-2648828,-1633526,-2861198,2706841,-2575890,-1555239,-1778658,-1938922,-2337523,-2280195,-2853823,-536241,957030,-2312285,-539968,-3206178,-1215162,-2928719,-3634061,-2253303,-2504840,-2973706,-1287307,-2201332,-2355194,-25151,-2426760,2531479,-1768770,-1679291,-1763007,-2604460,-2334265,-2123822,-1271056,-2158462,-792487,1293634,-2306206,-317335,-1495115,2907145,-1682350,-2951469,-3069007,-1358637,-1820412,-3159196,-3121348,-1132274,-737307,100101,-2335254,-2107210,-692975,-2586783,-409541,-2791398,-1394482,-3238348,-2546799,-1948727,-641393,-1527290,-2346713,-2292543,-706698,-1064458,-1698990,1177964,-1798553,2990755,-2014522,414204,-662447,1298957,-702912,-2772749,2898880,-2615123,-1212755,-2153686,-2132563,-2430852,-2690973,-1307095,-2178575,-1958983,-2579287,-2805573,-2578156,-1646956,-2348259,-1367360,-1890011,-1170703,-3305279,-1740269,-2153761,-2133403,-1478532,-1617981,-2485743,-1937287,-2703755,-1122678,-2241132,-2544513,-1302547,-479175,-2103624,-1619796,2296220,-1749131,-1486326,-1475133,-1101704,-2711434,-1555861,-2486842,-2441276,-1657384,-1553393,-2526723,-3387160,-2848502,2293710,-2360278,-686625,-2849514,-2072963,-1277911,-2152074,-3495515,-1973885,-1932662,-1878496,-2418396,-1280879,-2401541,-932170,-1187367,-983245,-866323,-1416808,-3012017,-1716066,-1905327,-2022859,-1563735,-1271258,-2597081,-2314925,-2539606,-1714288,-2570708,-1802191,-701329,-2635712,-2458606,-2777457,-1337854,-880403,-2938304,-2456701,-1491882,-1085369,3304305,4307859,2696189,4042259,4531761,4733890,5283848,3287494,2841928,2601507,4683106,2805132,3866521,4260065,4535542,4410139,3326017,3721853,2746088,2502682,4006475,3955057,4095509,4350024,3231049,4158653,1777945,1974480,3551624,2959651,3544406,4890187,3907420,3854105,1341252,2550992,4750229,4146727,4581675,4916799,3541556,3713049,2428097,4876208,3421631,3971256,3254300,4713780,4101868,2619686,3906771,2868640,4130139,3688924,3631947,3648660,4275677,4926581,1051701,3738803,1349068,4617206,3434029,3088836,3457685,3597283,3029779,2572464,3997879,3228763,2388920,2558329,1633186,3478275,4808718,3654439,4466788,2050929,1465098,2388674,1771052,1830742,3916543,3978195,2818586,3822257,1844582,2861860,3614944,1842534,3786598,3610099,3384481,3464350,2965569,2347062,3742141,4332251,2759209,2169916,3537875,1747556,4069224,3258015,4470914,3522604,3602117,2202242,2609712,1755868,1638555,2818702,3723407,3158526,3965675,5044370,2754175,2681939,5398360,2666927,1049981,4265757,2425085,2602797,1461725,2497590,3787713,3868467,2443393,2308782,3437564,4078074,5222377,1511243,2705559,4037077,3386727,4396241,4713691,4480075,3384983,4156275,2937530,1891506,3025530,4847041,3898855,3978166,2985227,5129223,3861931,2050572,1415035,4493265,1158207,3826851,1721493,2504054,2221593,3757800,3643523,1697641,3106831,4622777,4486325,2067520,3144348,2811040,3948858,4943748,3518678,3149655,1367366,3578391,1617902,4266043,4178380,4039574,2147092,3006863,4824804,3813198,2701021,2860856,2443098,4341595,3487307,3055141,3457362,3617128,4279398,2485153,2855174,2874250,2787583,2024210,2209408,3544911,2778171,2734811,1985576,5555806,3569268,4119642,3922411,3022485,3135051,2895013,2663657,1711571,4860238,3191140,1626376,4136217,2229435,2534571,3432161,4237221,4838568,1782205,4172463,2533835,2929390,5276097,3678786,2049193,4045249,3505804,3215040,3904255,3395150,3539255,4024969,3775806,3404146,4000331,3506050,3299988,4608071,2598595,2350450,4603259,4321988,3736469,5506524,2593364,4293348,4414385,3443194,4547213,-184147,33223,-59040,-208392,-407488,-822730,118623,-141631,-441884,-614521,647223,-482735,186317,-225656,10289,-456548,277814,260258,603579,-963501,53029,-278763,-510961,769857,-556384,590083,520364,-391410,86171,-793265,149936,171711,271908,330524,-517020,-232705,-102515,35679,-326844,-448773,417435,529773,-476689,-527868,-38780,77004,-249499,307902,-161889,274854,-496947,573715,-70769,-322989,-75916,102372,295289,83900,-196685,75867,655606,314525,663498,517616,150567,177405,-544945,-351259,-941497,1134500,223324,-638048,-775348,-754568,-603541,460107,-882386,-85412,570396,456755,181038,-503390,-28394,-103166,231961,-763465,-471944,746799,-130918,392828,357719,-167487,-1056392,422190,-759374,-654846,703515,359359,-204157,-301313,-44547,788614,61513,455733,403327,-149440,600937,392293,928176,50155,-885218,-349429,-628196,442216,-20060,416973,-560067,-561764,141711,834856,426380,-99952,575839,-351018,-747553,387447,-25287,69304,-419680,445718,378590,490100,76501,201375,382270,470087,559480,1315871,-350937,-127932,109465,53546,120436,-1165492,-434413,-112631,-714420,-561842,-474183,-270560,-156511,215524,858713,-372223,-431743,110189,-177718,281856,-412520,-862850,162353,-728361,182711,1386962,775604,-497255,379531,399316,-1000312,628329,-388858,6745,-219564,193960,-480536,485100,-1188766,671312,113148,-263127,1065774,681326,-687019,-541030,391315,530403,-341720,-105389,-124540,411277,-649256,85950,-271276,-320393,151186,-159062,112742,246230,826486,-402905,-369916,-163456,106787,-729045,203081,-606672,394191,-129373,-366455,-514523,-118744,610004,618810,687212,1027185,32493,103569,519807,-404133,171865,-498729,391253,-436652,140604,899464,-653001,1035443,611333,-323397,849121,-189088,434417,-290650,791864,299952,472055,-559181,-623583,-331698,585470,-838829,-136450,76211,652453,525677,72350,159867,-145165,159276,-438146,-1251248,-1929099,-2539879,-1985427,-1605659,-712291,-1749261,-2517462,-2148591,-2053992,-1603933,-1376116,-953714,-1642010,-892074,-1312752,-2469146,-2466995,-2032265,-822364,-1804896,-2160132,-2417798,-1121512,-2312813,-1341984,-2579631,-1434338,-3215313,-2661210,-1387497,-1474932,-2109898,-2384531,-2781751,-3494269,-1797624,-1476367,-1507235,-1484029,-2799212,-2442816,-1994216,-947646,-2091663,-1939647,-2071138,-2808963,-1705265,-2129764,-1321130,-2084867,-2655097,-970890,-1178520,-2086085,-2400935,-1627410,-3429568,-509435,2301273,-221183,-1346798,-1524046,-1604441,-2175923,-2818334,-2493702,-708563,-1881862,597797,-3249711,-1628580,-1868162,-1813046,-1855276,-1621274,-2693466,-1391898,54454,-3657511,-1423742,-1909425,-1241982,-1316527,-2708601,2251202,-2439592,-1093863,-2760011,-1087843,-1201375,-1637395,-2343974,-1463935,345257,-2496119,-1100849,-3225588,-1653952,-2256336,-3209242,-1603837,-2499450,-1625389,-1855343,-1826069,-3412167,-1014475,-3249201,1984581,-1492278,-2099414,-2248906,-918161,-1700161,-2345107,-2233547,-2402019,-1450133,940641,-1854808,-921642,-1845791,3062594,-2470606,-2317135,-2110251,-2480459,-1802947,-3042790,-2032702,-1606684,-895600,-1164636,-2401733,-2725713,-657448,-925463,-420880,-1903394,-1448435,-3198680,-2065375,-2652817,-1854187,-1707131,-1780769,-2243259,-817470,-1209250,-2372943,1327791,-1462044,2556093,-2174495,-1405140,-829371,720031,-1764886,-2806856,2269400,-3210624,-1028083,-724671,-3067186,-1435097,-2747380,-1300392,-2012054,-2198573,-2829543,-3222171,-1665612,-2397098,-2225269,-1270658,-1265952,-1579695,-2874036,-1541171,-2308995,-1955908,-2137058,-2651708,-1392455,-2324612,-2234745,-1834260,-2175607,-1400432,-1662262,-1460994,-2435063,-2306124,1591397,-2960920,-2161018,-2083756,-1601991,-2974589,-1473589,-2982322,-1659905,-2332413,-1849064,-2725498,-3142016,-2686004,1498795,-2039876,-1844178,-3427028,-1846927,-1224269,-2838987,-2367524,-1337581,-1313423,-3593920,-2372102,-2239167,-2385901,-1852784,-901469,-945402,-1182859,-1037857,-2471733,-2143227,-1536012,-1928621,-1571466,-1978338,-2360238,-1985896,-2187051,-1281646,-1565807,-2330373,-1781475,-1633750,-1998132,-2376402,-1050868,-2745022,-2360151,-966387,-1984020,-705415,