//scale=2^22(for the bias) int  scale=2^11(others) short int

PI_L2 short int Ingressi[]={
878,813,669,556,470,397,320,235,140,174,374,504,667,857,1045,1181,1133,1035,974,911,773,665,581,508,431,349,253,174,374,504,667,857,1045,1181,1133,1035,974,911,773,665,581,508,431,349,253,218,185,78,5,-45,56,245,431,603,
};

PI_L2 int Encoder_Lstm_Bias[]= {
-1438669,-2529710,-2161495,-2365613,-1337766,345639,-2118067,-2240113,-1619100,-1692998,-1115161,-382439,-914065,-1968960,-2923388,-835259,-2762211,-1880190,-1335139,-62192,-2965917,-1486784,-2150840,-947759,-2271793,-1494943,-2162857,-1290885,-2237604,-2032196,-743670,-1470066,-2277529,-2386762,-2538830,-2465715,-2358321,-2657264,-959970,-1736728,-2512428,-3015124,-1807248,-620170,-2441183,-2808798,-1265421,-2305804,-1879337,-1994096,-1142490,-1349876,-2184007,-1321709,-997264,-1932164,-2481520,-2390703,-3221470,-341070,2878001,-1796003,-1112690,-969013,-2781936,-2419345,-2290910,-1520826,-107112,-1811642,1095894,-2465926,-502036,-1845443,-787065,-2160988,-2912155,-2224686,158044,1062454,-2337786,-551816,-1512162,-2648828,-1633526,-2861198,2706841,-2575890,-1555239,-1778658,-1938922,-2337523,-2280195,-2853823,-536241,957030,-2312285,-539968,-3206178,-1215162,-2928719,-3634061,-2253303,-2504840,-2973706,-1287307,-2201332,-2355194,-25151,-2426760,2531479,-1768770,-1679291,-1763007,-2604460,-2334265,-2123822,-1271056,-2158462,-792487,1293634,-2306206,-317335,-1495115,2907145,-1682350,-2951469,-3069007,-1358637,-1820412,-3159196,-3121348,-1132274,-737307,100101,-2335254,-2107210,-692975,-2586783,-409541,-2791398,-1394482,-3238348,-2546799,-1948727,-641393,-1527290,-2346713,-2292543,-706698,-1064458,-1698990,1177964,-1798553,2990755,-2014522,414204,-662447,1298957,-702912,-2772749,2898880,-2615123,-1212755,-2153686,-2132563,-2430852,-2690973,-1307095,-2178575,-1958983,-2579287,-2805573,-2578156,-1646956,-2348259,-1367360,-1890011,-1170703,-3305279,-1740269,-2153761,-2133403,-1478532,-1617981,-2485743,-1937287,-2703755,-1122678,-2241132,-2544513,-1302547,-479175,-2103624,-1619796,2296220,-1749131,-1486326,-1475133,-1101704,-2711434,-1555861,-2486842,-2441276,-1657384,-1553393,-2526723,-3387160,-2848502,2293710,-2360278,-686625,-2849514,-2072963,-1277911,-2152074,-3495515,-1973885,-1932662,-1878496,-2418396,-1280879,-2401541,-932170,-1187367,-983245,-866323,-1416808,-3012017,-1716066,-1905327,-2022859,-1563735,-1271258,-2597081,-2314925,-2539606,-1714288,-2570708,-1802191,-701329,-2635712,-2458606,-2777457,-1337854,-880403,-2938304,-2456701,-1491882,-1085369,3304305,4307859,2696189,4042259,4531761,4733890,5283848,3287494,2841928,2601507,4683106,2805132,3866521,4260065,4535542,4410139,3326017,3721853,2746088,2502682,4006475,3955057,4095509,4350024,3231049,4158653,1777945,1974480,3551624,2959651,3544406,4890187,3907420,3854105,1341252,2550992,4750229,4146727,4581675,4916799,3541556,3713049,2428097,4876208,3421631,3971256,3254300,4713780,4101868,2619686,3906771,2868640,4130139,3688924,3631947,3648660,4275677,4926581,1051701,3738803,1349068,4617206,3434029,3088836,3457685,3597283,3029779,2572464,3997879,3228763,2388920,2558329,1633186,3478275,4808718,3654439,4466788,2050929,1465098,2388674,1771052,1830742,3916543,3978195,2818586,3822257,1844582,2861860,3614944,1842534,3786598,3610099,3384481,3464350,2965569,2347062,3742141,4332251,2759209,2169916,3537875,1747556,4069224,3258015,4470914,3522604,3602117,2202242,2609712,1755868,1638555,2818702,3723407,3158526,3965675,5044370,2754175,2681939,5398360,2666927,1049981,4265757,2425085,2602797,1461725,2497590,3787713,3868467,2443393,2308782,3437564,4078074,5222377,1511243,2705559,4037077,3386727,4396241,4713691,4480075,3384983,4156275,2937530,1891506,3025530,4847041,3898855,3978166,2985227,5129223,3861931,2050572,1415035,4493265,1158207,3826851,1721493,2504054,2221593,3757800,3643523,1697641,3106831,4622777,4486325,2067520,3144348,2811040,3948858,4943748,3518678,3149655,1367366,3578391,1617902,4266043,4178380,4039574,2147092,3006863,4824804,3813198,2701021,2860856,2443098,4341595,3487307,3055141,3457362,3617128,4279398,2485153,2855174,2874250,2787583,2024210,2209408,3544911,2778171,2734811,1985576,5555806,3569268,4119642,3922411,3022485,3135051,2895013,2663657,1711571,4860238,3191140,1626376,4136217,2229435,2534571,3432161,4237221,4838568,1782205,4172463,2533835,2929390,5276097,3678786,2049193,4045249,3505804,3215040,3904255,3395150,3539255,4024969,3775806,3404146,4000331,3506050,3299988,4608071,2598595,2350450,4603259,4321988,3736469,5506524,2593364,4293348,4414385,3443194,4547213,-184147,33223,-59040,-208392,-407488,-822730,118623,-141631,-441884,-614521,647223,-482735,186317,-225656,10289,-456548,277814,260258,603579,-963501,53029,-278763,-510961,769857,-556384,590083,520364,-391410,86171,-793265,149936,171711,271908,330524,-517020,-232705,-102515,35679,-326844,-448773,417435,529773,-476689,-527868,-38780,77004,-249499,307902,-161889,274854,-496947,573715,-70769,-322989,-75916,102372,295289,83900,-196685,75867,655606,314525,663498,517616,150567,177405,-544945,-351259,-941497,1134500,223324,-638048,-775348,-754568,-603541,460107,-882386,-85412,570396,456755,181038,-503390,-28394,-103166,231961,-763465,-471944,746799,-130918,392828,357719,-167487,-1056392,422190,-759374,-654846,703515,359359,-204157,-301313,-44547,788614,61513,455733,403327,-149440,600937,392293,928176,50155,-885218,-349429,-628196,442216,-20060,416973,-560067,-561764,141711,834856,426380,-99952,575839,-351018,-747553,387447,-25287,69304,-419680,445718,378590,490100,76501,201375,382270,470087,559480,1315871,-350937,-127932,109465,53546,120436,-1165492,-434413,-112631,-714420,-561842,-474183,-270560,-156511,215524,858713,-372223,-431743,110189,-177718,281856,-412520,-862850,162353,-728361,182711,1386962,775604,-497255,379531,399316,-1000312,628329,-388858,6745,-219564,193960,-480536,485100,-1188766,671312,113148,-263127,1065774,681326,-687019,-541030,391315,530403,-341720,-105389,-124540,411277,-649256,85950,-271276,-320393,151186,-159062,112742,246230,826486,-402905,-369916,-163456,106787,-729045,203081,-606672,394191,-129373,-366455,-514523,-118744,610004,618810,687212,1027185,32493,103569,519807,-404133,171865,-498729,391253,-436652,140604,899464,-653001,1035443,611333,-323397,849121,-189088,434417,-290650,791864,299952,472055,-559181,-623583,-331698,585470,-838829,-136450,76211,652453,525677,72350,159867,-145165,159276,-438146,-1251248,-1929099,-2539879,-1985427,-1605659,-712291,-1749261,-2517462,-2148591,-2053992,-1603933,-1376116,-953714,-1642010,-892074,-1312752,-2469146,-2466995,-2032265,-822364,-1804896,-2160132,-2417798,-1121512,-2312813,-1341984,-2579631,-1434338,-3215313,-2661210,-1387497,-1474932,-2109898,-2384531,-2781751,-3494269,-1797624,-1476367,-1507235,-1484029,-2799212,-2442816,-1994216,-947646,-2091663,-1939647,-2071138,-2808963,-1705265,-2129764,-1321130,-2084867,-2655097,-970890,-1178520,-2086085,-2400935,-1627410,-3429568,-509435,2301273,-221183,-1346798,-1524046,-1604441,-2175923,-2818334,-2493702,-708563,-1881862,597797,-3249711,-1628580,-1868162,-1813046,-1855276,-1621274,-2693466,-1391898,54454,-3657511,-1423742,-1909425,-1241982,-1316527,-2708601,2251202,-2439592,-1093863,-2760011,-1087843,-1201375,-1637395,-2343974,-1463935,345257,-2496119,-1100849,-3225588,-1653952,-2256336,-3209242,-1603837,-2499450,-1625389,-1855343,-1826069,-3412167,-1014475,-3249201,1984581,-1492278,-2099414,-2248906,-918161,-1700161,-2345107,-2233547,-2402019,-1450133,940641,-1854808,-921642,-1845791,3062594,-2470606,-2317135,-2110251,-2480459,-1802947,-3042790,-2032702,-1606684,-895600,-1164636,-2401733,-2725713,-657448,-925463,-420880,-1903394,-1448435,-3198680,-2065375,-2652817,-1854187,-1707131,-1780769,-2243259,-817470,-1209250,-2372943,1327791,-1462044,2556093,-2174495,-1405140,-829371,720031,-1764886,-2806856,2269400,-3210624,-1028083,-724671,-3067186,-1435097,-2747380,-1300392,-2012054,-2198573,-2829543,-3222171,-1665612,-2397098,-2225269,-1270658,-1265952,-1579695,-2874036,-1541171,-2308995,-1955908,-2137058,-2651708,-1392455,-2324612,-2234745,-1834260,-2175607,-1400432,-1662262,-1460994,-2435063,-2306124,1591397,-2960920,-2161018,-2083756,-1601991,-2974589,-1473589,-2982322,-1659905,-2332413,-1849064,-2725498,-3142016,-2686004,1498795,-2039876,-1844178,-3427028,-1846927,-1224269,-2838987,-2367524,-1337581,-1313423,-3593920,-2372102,-2239167,-2385901,-1852784,-901469,-945402,-1182859,-1037857,-2471733,-2143227,-1536012,-1928621,-1571466,-1978338,-2360238,-1985896,-2187051,-1281646,-1565807,-2330373,-1781475,-1633750,-1998132,-2376402,-1050868,-2745022,-2360151,-966387,-1984020,-705415,
};

PI_L2 short int Encoder_Lstm_Kernel[]={
-607,418,302,-208,1011,652,-511,-210,923,270,1266,-512,1525,755,638,1287,-141,676,-579,-661,477,-779,477,286,-41,833,649,919,-10,865,-1449,912,240,641,356,-86,957,181,-98,1045,-400,206,-490,-381,649,167,-174,-535,112,521,-165,155,-64,556,461,-270,848,-12,463,779,157,747,847,-427,667,454,-283,-408,1302,746,-251,507,-665,617,1455,1099,241,-368,390,-616,21,816,514,-37,-424,-5,400,465,494,-706,873,-292,187,814,-467,-159,-323,142,688,1347,-231,133,747,-245,464,233,-236,234,-681,129,537,834,-652,66,465,556,466,-148,-90,-544,33,-25,-147,-461,-16,601,-530,832,-123,-394,-289,12,150,894,-418,371,-477,32,516,1130,225,-903,-225,820,-233,378,722,972,760,885,-623,933,20,1179,270,-32,25,-863,233,-886,-175,20,-244,102,793,-391,78,577,1084,993,-27,357,-140,-13,-494,422,892,239,77,416,655,742,862,-703,120,1242,558,151,649,86,292,-330,-480,195,-445,1198,43,695,365,-485,502,579,365,970,660,-417,359,411,444,187,-110,776,-33,1215,1328,718,493,114,961,107,867,-423,211,442,414,-17,194,1356,665,687,1002,514,-553,-264,88,256,-338,-391,561,-245,-699,630,702,896,617,705,717,794,346,496,-391,-308,569,-653,473,772,-1309,429,294,280,632,-53,1612,212,154,1611,-694,701,-447,232,-473,-684,708,264,-82,1163,982,673,814,31,-619,-269,191,99,304,-344,664,-125,337,-22,-741,-489,33,778,-554,-34,-474,-892,358,70,-194,-226,-102,-49,-311,124,1440,-863,238,-747,692,-506,1084,-760,1104,592,377,-208,1256,1032,432,349,-178,545,916,1593,-175,-53,472,-69,82,451,763,90,-231,-586,-32,-251,-916,64,77,-204,697,134,-393,0,-663,333,135,1151,-24,632,699,-641,-161,-211,-494,402,-390,-133,1125,503,-807,599,-230,32,48,-245,-718,-210,1383,-550,-433,-293,713,344,-146,236,-370,-541,-547,-417,508,467,2,-392,-595,692,-558,1553,-235,-449,-123,1106,-119,-85,274,481,-290,-25,122,982,685,472,345,-314,-316,-590,901,-644,618,217,-105,657,-762,-162,-222,383,1276,327,-594,739,595,-228,-244,107,786,693,-239,28,639,925,673,-567,-41,486,-357,485,1545,168,-327,-52,-784,271,178,1004,209,-167,369,68,-175,-340,44,557,-62,-59,146,406,135,860,-915,240,-26,910,807,334,147,-429,995,434,474,-428,980,-437,-138,79,132,1173,-158,-480,1227,-500,-467,-696,150,245,-481,-363,42,-477,-334,-509,-144,580,-22,705,348,81,649,840,707,900,-740,-1019,178,1351,-474,-1134,-1072,-220,-418,-1485,-1644,-194,-54,407,705,-1169,1266,-1340,-158,-837,-250,-1286,456,185,865,-1431,668,360,-1056,-346,413,619,-540,-788,107,404,1315,-205,707,664,-1196,515,187,-905,-666,556,-258,-657,-1083,934,751,-895,863,196,414,-394,-656,320,1829,-531,-1657,1174,780,-1121,316,-783,851,793,1874,-681,-1312,553,345,257,113,-841,1309,1714,-688,-1418,87,-301,-241,-486,-2003,-24,-819,931,1104,-55,106,23,-1291,-1595,560,-1255,-116,-1353,452,189,446,749,-236,-981,42,661,1330,-790,-1593,-1240,-1071,259,549,288,-626,-1054,-510,1296,1747,781,1470,-1394,-1778,1058,396,88,-797,744,830,711,700,1408,1503,-759,842,-784,-285,887,-342,743,375,-752,-561,670,815,243,-495,-306,-339,1401,1557,642,-1849,715,-1314,1294,-1743,-1156,627,-1676,-848,-208,-651,-717,259,-396,-975,-170,762,-737,722,933,-1038,-34,81,-569,1340,-397,234,720,-798,-1252,-618,-9,-621,-450,374,-203,138,1162,-1234,1044,-1120,-2395,-905,807,946,1199,-282,942,224,-253,633,-505,529,517,-160,-1797,-379,1014,252,997,1053,800,-431,-532,372,707,-604,880,-408,333,430,-1278,-1292,-1081,63,-533,172,338,-411,1057,16,-664,-729,970,-751,845,-1177,2,-242,278,270,-1248,-305,-184,774,944,685,-974,-168,-681,-657,1265,961,690,367,-198,648,-713,1517,284,-774,118,-289,655,-340,-345,942,-798,844,1178,818,643,1654,1330,361,617,-1350,18,-1595,869,63,-167,230,-1219,1265,968,-687,17,-335,1541,-809,-1104,55,-596,634,220,-235,119,925,-333,-1170,615,1140,92,467,-892,212,357,803,-778,430,757,336,278,1115,1036,-815,221,-686,543,710,1209,-162,-761,198,-329,200,724,514,148,867,-347,13,-169,-916,-187,1389,942,825,-318,-1199,-468,-832,1173,291,1381,733,448,-1483,-94,-294,-526,425,642,-1095,284,796,943,-1188,692,1400,442,-666,-152,514,-467,-125,-213,-175,-792,-74,929,80,-534,-87,-95,-237,-94,862,1290,-490,-279,-908,1299,1003,-766,612,909,349,943,-13,481,-324,-499,278,-611,429,802,90,113,511,57,36,-1045,-290,-1313,169,-543,-24,1436,-868,-238,-800,-418,-477,259,-1165,356,902,-521,-253,-1285,1156,979,-310,-302,1245,876,1328,-588,-89,675,-372,588,-530,509,-5,-573,-916,-295,185,1229,-32,638,781,-612,655,997,215,142,-24,-276,83,217,-743,207,-63,444,701,2021,1428,839,-301,-1013,-20,500,124,87,312,-392,1018,99,1100,-1716,353,-68,-512,-367,284,-1075,44,-558,-338,-1401,-1789,-64,-631,853,-1258,954,404,647,-375,-1689,229,-2357,
};



PI_L2 int Decoder_Lstm_Bias[]= {
-499367,-1837617,-2608841,-1581094,-2375746,-1226950,-1833974,-2676334,-1325340,-2797619,-2145916,-2903547,-1459524,-1604066,-2141087,-808373,-1781167,-3179588,-3649785,-2184066,-2915814,-2803734,-1862032,-1567421,-3405945,-1210741,-2597242,-2489245,-2480395,-181564,-1984462,-2753667,-1279453,-2256835,-2419554,-3722239,-2459803,-2367636,-1526134,-2512609,-2144480,-3167990,-2502429,-1765036,-1636445,-3025840,-2055032,-1959539,-2289455,-2596181,-1919019,-2670773,-3254512,-1357342,-1788005,-1863898,-2632846,-2267291,-2983560,-336496,-2040502,-2874537,-2989991,-2092584,-1906480,-3576155,-1802645,-2571178,-602902,-2422977,-2565048,-2657624,-3440575,-2488244,-1661038,-1429771,-3222959,-2665924,-3437810,-3951976,-2261748,-2942351,-1672355,-2064491,-525094,-3080903,-3219994,-2481911,-2130865,-3594161,-2715075,-797235,-1052230,-3125656,-2533913,-2724013,-1788900,-2529104,-1600380,-2685942,-2852944,-1632042,-1572586,-2550112,-3127006,-1906084,-1163421,-2722066,-1948526,-3006646,-2932365,-2194558,-2890762,-826966,-1094387,-1637322,-1441209,-2938827,-2085347,-2172148,-2004791,-2295311,-3344519,-2181095,-2964475,-2975697,-2242482,-1958416,-3033347,-2325887,-3270658,-2554177,-2133324,-2933978,-2552801,-1965758,-2548676,-1903654,-863447,-1686326,-1694912,-1301732,-1806261,-2460083,-2753378,-1671857,-3229034,-2341710,-2573559,-1860205,-1867765,-2313689,-2369525,-2041181,-3638224,-2237314,-1939706,-1872065,-3150929,-1761600,-2496180,-3230143,-3207429,-1603808,-2356834,-2242845,-2230698,-2249103,-542286,-2556209,-2077618,-2530161,-2579814,-2104894,-3677357,-2432360,-1110467,-1955033,-2392828,-1450317,-2212348,-2390531,-1579751,-2393821,-2020394,-1927791,-2271513,-1007055,-1539367,-1997191,-769072,-2667660,-2549635,-2378312,-1995905,-3859124,-2628598,-2520514,-2068610,-1914139,-2129753,-2041847,-1372574,-1805602,-1906223,-2142445,-2911781,-2049793,-2401408,-2447336,-1948877,-1968368,-1869256,-1276991,-2381121,-2317363,-2356014,-2560576,-2594222,-2816115,-2122189,-3043574,-2428862,-2170470,-1310776,-2717193,-2293177,-247359,-1852723,-1568031,-1472037,-2650617,-1417502,-2820849,-1654068,-3765921,-2512194,-1561555,-3269359,-2392165,-2285522,-2707638,-2464917,-2049363,-2470099,-2912384,-2113229,-2259416,-2304840,-2095668,4568349,4589157,4356719,4875744,4888492,5131817,4965412,3606836,5026611,3953673,5031211,4781297,5167380,4743715,4822820,4388647,4117060,4460014,4482734,4567149,4434600,5034904,3779152,5052153,4159941,4308770,3799475,4266967,4292723,3125685,4786065,3503623,4392780,4147091,3582350,4116128,4835913,3523666,5266523,4304872,4583347,4647345,3827056,5534309,4377966,3854359,4958057,4294197,4564112,3684676,4200902,4571449,4915547,4177591,4925595,4026418,4307934,4769519,3670976,3485914,4846365,4678015,4860724,4301745,4417399,3646649,4291703,4322043,4843308,5172155,5090020,4406394,4508893,4199917,4723330,3574622,4271993,4172597,4176386,4833942,3891278,4684421,4620629,4637783,4906727,4714961,5334893,3907973,3643563,4281208,3834383,4692434,3939741,4100364,4601556,4725685,4632049,4961558,4097089,4090451,3872928,3351980,4300149,4565839,4814733,4393172,4680221,4331350,4820646,3798175,4505424,4186102,4654698,4157386,4012290,3632108,3776984,4440667,4868699,4651900,4400240,4354472,4363848,4682866,4091542,4126745,4237507,4349268,4264731,3568286,4460666,4716376,5447122,3645036,4463463,3656038,4387141,5049578,4051980,5343434,4435898,4833416,3799768,3340889,4101654,5056792,3791669,4346398,4341071,4464998,4687270,4165992,3689043,5331002,3899041,4164201,4545770,4414062,4444101,5003981,4375972,4578891,4158138,5102687,4203303,4011035,3789744,4093147,5279633,4417352,4523450,4121092,3294882,3859184,3841536,5035793,4721426,5019896,3798549,3664800,4749479,4206390,4373795,5023879,3760423,3694617,4213867,3627176,4938508,4073169,4105705,4083226,4103867,4517401,4281774,4721371,4158552,3605729,4392876,4904435,4281666,4817615,4593611,3907434,4387842,4036664,4051291,4501591,3730859,4698564,4519736,4436064,3667860,3113509,3862687,4064740,3516659,3146726,4761712,3752977,4707388,4214579,3686959,4693684,3749285,3854703,4526692,4209361,3530814,3462970,4150473,3876985,3896331,4480978,3960024,4025881,4702061,3386356,4472702,4241868,4327326,4680432,4953377,4090215,4273158,4778511,4734797,4571818,4293013,4905618,35565,-350467,2186,97086,-130949,588843,-444424,-67312,329929,537886,-318615,-232507,333376,251662,495547,-218087,804637,11290,179175,-96146,-40808,-344678,40397,-113626,222932,-1080063,-309313,424607,-283332,267007,-469197,206059,-76559,-205431,-51110,-87844,11909,63532,435752,585761,-157340,177004,190963,274955,545799,253797,-575149,485829,118494,230373,232139,-57564,-116632,-163488,261138,-494148,86820,-269701,-170433,145162,-832365,-116047,-211903,199697,381590,276131,95355,-489589,388907,-420186,456727,146018,-418723,353621,201329,-394161,-82685,-66910,56108,296503,-289235,-61209,190578,-518537,-17577,-398766,-192059,-467835,-290539,18458,-509299,-1044728,-325362,-418343,-259218,153834,973516,-165134,-277523,487450,-73445,-441703,-381675,329059,135250,-549917,499126,46356,287273,9631,435424,99620,-330344,-348566,-104203,-894279,345722,-341889,-368415,326205,-47721,567661,84154,-839404,-40425,358769,865611,472198,7758,514033,184517,94305,378248,87851,188427,-334855,18791,-539323,-45335,-615872,613378,1242325,207828,-48009,247825,194494,189903,341187,-144431,136683,545431,-444518,140048,-217986,114316,731564,139914,677550,-84285,-464963,155885,-152,67510,-539461,-286435,69358,793377,-246590,378310,-317342,-145261,-470475,-37162,281899,-126491,-100707,-19397,-95264,64603,-3712,-301486,-447722,202359,-845757,-474712,-374708,-285787,-962238,-161788,-277222,123234,349764,-413602,-70336,276357,-4478,47033,-901236,-218035,470917,-190283,35143,-311493,279799,-882252,-526630,104593,1403648,335961,99779,-243662,100672,195390,-658546,-381307,182100,204662,-955479,-284598,-173095,411671,212089,75351,-13664,-267384,102260,-668560,227775,-569253,619532,-42650,367809,-139007,90557,-460,89977,-457656,817739,305364,99119,3076,353341,-107585,-202801,-494778,306670,32487,-29378,60909,225883,-984486,-988294,-1438680,-685927,-1174815,-137198,-258262,-2330360,-1208883,-1920845,-577664,-1340687,-120167,-513752,-1414909,-1396683,-1424722,-1692765,-1799054,-996789,-770482,-691685,-1521855,-268251,-2353929,548163,-2203813,-1644786,-1170028,-613723,-908477,-1712660,-939013,-1886297,-2113536,-2538524,-895885,-1693870,-217482,-1172629,-310531,-1008430,-2285471,-593688,-1263189,-1617512,-1144345,-530308,-664425,-2060280,-990722,-1115103,-793719,-973426,-390227,-1767719,-1536762,-585929,-2449508,577490,11215,-646880,-502684,-382108,-1448698,-1693824,-1675028,-1320692,-490841,-360090,-654158,-1322343,-1606337,-670004,-989249,-1364299,-2271751,-2028818,-1903731,-1029947,-1731867,-1813361,-973766,-939904,-1104063,-1076131,-519481,-1901303,-1727027,-2067453,-1908953,-1242835,-317772,-1857417,-1990842,-1445736,-800501,-539985,-1405446,-1982954,-1903519,-1140968,-1027299,-1245613,-957153,-1073491,-1413577,-1917358,-789493,-2201231,-1002546,-2092797,-1258606,-790218,-831791,-1051904,-1221526,-1422039,-796883,-1409458,-735248,-1687982,-1147740,-1299045,-1947672,-847898,-1679300,-1115326,-1810956,-1693850,-1818143,-817799,-925364,-2243739,-531151,-1896882,-1459206,-1101166,-473567,-775834,-1024881,-64874,-882888,-2215723,-2033406,-1518854,-2106290,-804675,-1835654,-491893,-1535597,-1599840,-1577256,-928396,-2283704,-1185273,-864350,-1929267,-1500537,-207856,-1407969,-1582082,-1871064,-1419465,-1713922,-1048943,-1901114,-1962210,-422294,-927889,-1270602,-1504339,-2248868,-1493434,-2527627,-2185560,-1326460,-1263107,-1834044,-1563270,-1211734,-2533221,-1621993,-343192,-1674719,-2981428,-1418622,-1369981,-997720,-1672014,-1405193,-1599774,-1351225,-1551025,-828618,-598673,-2013400,-1680988,-1084114,-1280549,-1447133,-648786,-1554102,-1332190,-766611,-793582,-1295009,-911186,-1982528,-790006,-1265792,-755667,-1573751,-1059410,-2458510,-1919025,-1921911,-2492370,-1079276,-2374533,-1771880,-1269653,-1845510,-764428,-797378,-2181634,-615886,-554106,-1314049,-746817,-1378528,-1064973,-714051,-1539466,-927949,-2162215,-1195372,-2317441,-1362690,-1261722,-1283153,-497201,-1857721,-987418,-1196876,-1386714,-1309004,-869786,-1323773,-1775355,
};

PI_L2 short int Decoder_Lstm_Kernel[]={
25,114,-24,96,120,-139,-122,-55,59,-145,43,-36,153,18,-17,107,-46,-56,107,98,-34,32,152,-110,18,-47,-44,134,-77,64,-134,-30,51,-144,-42,82,21,-43,-19,-40,48,-110,147,12,-92,141,-127,-9,41,-6,-118,124,86,116,73,-88,-116,-150,135,-37,-30,9,-48,157,-42,144,118,138,139,-140,-96,30,-133,-24,-74,109,32,13,153,66,-78,148,-118,114,-54,-73,-22,41,26,67,-78,-33,7,-37,-36,98,-137,-104,-23,100,-81,143,109,-70,-20,-70,1,87,-99,-31,54,30,-125,-145,-103,22,122,61,-37,-24,150,74,119,-133,116,99,-154,-111,-88,126,4,-33,-94,-107,-69,145,26,-48,49,101,-5,-30,-6,31,-41,-149,-21,-18,-71,-63,-104,-19,127,49,2,-122,-97,101,156,86,-91,42,-75,131,157,90,-135,56,-74,145,-55,14,47,54,-157,-13,-63,49,-131,102,83,-37,29,-79,137,18,-45,-6,80,90,114,-12,-86,79,-67,-1,25,50,7,18,11,-110,149,-135,114,-47,114,155,-30,-61,-49,-94,-83,40,35,-50,143,-111,-60,19,25,-12,58,72,88,-97,141,-74,53,72,79,-23,-103,-72,-16,-109,-69,-48,148,116,-76,-129,39,-38,113,56,41,-101,-89,-8,141,97,150,-111,-54,-120,0,138,63,64,143,-151,-40,-75,58,-71,127,91,103,75,-63,-57,-154,-131,11,142,68,-48,-150,63,42,-7,11,-12,86,-96,-116,40,25,-112,139,-97,41,-136,149,-55,107,10,-75,26,-72,123,70,132,92,-17,-61,-102,90,-132,80,124,-121,-31,-57,120,-115,-134,29,-93,-93,-113,95,-31,-6,-90,-99,-47,-78,89,-143,-83,60,14,-21,-105,-60,71,-132,-53,-33,16,-7,-129,-20,46,-73,-122,-24,110,-9,58,146,-107,134,157,16,-136,93,-145,-136,143,-129,-10,-25,-47,-57,110,-110,88,123,-103,-140,96,60,-87,-123,19,-22,-97,-58,134,47,-39,8,6,-144,-63,149,-20,72,90,66,-20,-152,-138,51,-4,106,154,13,95,67,-106,118,-108,97,0,24,-67,-140,-153,-5,87,-14,-107,32,-135,-93,-120,68,57,132,-51,157,-123,92,52,-44,-138,119,11,127,-89,92,80,-132,37,-120,-49,-48,-68,50,-59,-58,93,65,-147,80,65,-102,-123,-123,74,-103,125,70,2,154,-10,-118,24,-73,-99,91,-90,-144,120,-120,43,17,76,-131,-10,-134,90,150,-123,-124,-42,131,12,-87,-89,39,6,-64,-55,-117,100,-39,67,-31,-106,131,135,16,12,52,-111,-100,-28,-69,41,92,-104,-16,-36,35,-157,133,100,102,-4,-94,11,-100,-75,-60,147,-48,32,-13,-12,52,52,-33,-84,22,87,131,-109,136,-115,-47,-157,-60,78,141,-23,-1,-82,-29,-30,143,105,-131,42,-72,-133,41,-129,-29,-72,7,-14,-83,-96,-105,127,-53,7,44,7,-11,156,-94,154,53,-7,-3,57,-61,-49,125,100,-128,-123,-134,-46,-8,-69,61,72,-134,72,-94,-41,46,-118,-125,-15,-19,38,18,-129,-146,41,-45,-121,-98,-74,-37,77,-120,118,126,-84,-26,61,153,135,-123,40,-125,34,-40,-89,-143,-104,68,142,-129,118,-35,90,148,21,-127,154,81,-12,144,104,-138,-77,1,90,-17,-65,-152,62,-128,-38,-9,-84,-34,-42,-141,24,-98,-140,92,46,120,-19,-12,84,10,-99,-98,-2,12,-22,39,87,-95,1,-145,-57,-34,-32,101,132,49,-155,-158,-76,-36,-37,68,-111,-104,-117,138,94,112,10,122,-59,-40,-52,111,-72,43,59,72,7,0,-30,-1,124,-56,-147,97,-148,-27,153,-72,100,-99,75,17,-5,39,-4,-74,-81,97,-104,-69,-23,-56,-89,-97,4,-138,18,135,-52,-15,152,-138,-40,30,121,-53,3,27,132,-17,14,-43,-64,133,102,-72,77,-60,-74,-134,21,-29,32,-84,-70,-153,-72,-51,12,-122,31,94,3,-27,-133,-55,155,92,37,61,62,142,-34,-100,-80,-20,60,-56,-124,38,-119,-96,-75,127,-99,127,87,-95,-112,82,-75,113,1,-140,136,-89,-149,81,85,141,-141,-8,87,35,-116,22,99,19,89,78,-86,-106,-24,-152,-146,-115,-31,-52,-88,-122,-112,46,73,-136,-97,-102,83,-108,64,71,71,13,68,75,-74,34,-78,-116,77,-128,-147,92,-69,-142,60,-5,102,-109,-125,-149,-83,-95,-135,-143,-68,150,-6,114,111,97,-32,-146,83,-157,-22,77,-47,115,132,55,139,134,141,123,95,-141,138,-133,-149,136,137,155,57,-50,-47,-96,8,47,-45,-61,-100,-68,134,105,-108,-34,93,-7,-113,56,145,87,-15,-131,148,28,40,-113,-148,-139,-50,55,-41,111,156,-61,-156,-42,82,-130,-30,-1,124,-7,-37,84,93,52,-63,68,-129,110,-22,-77,-131,-81,138,-141,-49,-73,109,92,-15,-45,99,29,-40,43,28,-37,-131,76,90,114,61,62,-26,-80,54,-21,-68,14,-67,86,-119,-14,104,-24,-128,-78,-116,-33,-155,-12,-157,156,-44,-108,1,-67,-154,-63,22,147,132,-116,0,133,-2,-120,-143,-31,-19,-88,102,-54,90,-104,47,
};


PI_L2 int Dense_Bias[]= {-92815,};

PI_L2 short int Dense_Kernel[]= {
-118,-53,10,-233,-18,127,-328,60,-26,-44,37,17,-207,58,11,22,-31,-38,-113,-133,24,-200,18,-381,-33,51,-129,74,20,-72,-11,-50,-83,-57,96,29,-164,-67,-113,54,433,25,50,51,-15,21,-74,278,48,-29,4,-33,143,36,5,-10,5,-236,-11,-48,239,71,45,98,-58,47,-66,-14,-34,256,67,12,15,186,-4,32,49,42,-44,5,12,21,-16,-1,163,4,47,217,59,96,-163,-43,58,181,-71,73,135,-33,22,60,20,8,-10,-4,-25,-10,12,5,50,6,39,83,-87,-55,-36,-3,2,84,-20,-10,-42,-4,100,70,11,-27,132,-98,14,-43,-21,0,-50,-178,218,48,46,-5,62,186,70,181,89,137,-188,40,-70,142,-10,-282,49,-29,-110,134,18,-16,-198,-82,0,-302,-39,-5,49,-206,29,-126,-279,143,-253,94,-30,26,-2,-12,4,0,120,-23,-39,-13,185,83,35,-301,25,103,-116,88,96,52,23,-28,-15,67,-2,-106,-33,24,34,54,30,326,5,85,-25,6,3,-60,-8,-2,12,141,-60,-60,-108,-51,-196,184,149,65,43,-62,257,2,32,126,-195,88,91,39,79,29,111,58,0,35,-64,-152,-75,-5,-45,95,74,-43,5,-89,-20,364,61,-33,
};
