-499367,-1837617,-2608841,-1581094,-2375746,-1226950,-1833974,-2676334,-1325340,-2797619,-2145916,-2903547,-1459524,-1604066,-2141087,-808373,-1781167,-3179588,-3649785,-2184066,-2915814,-2803734,-1862032,-1567421,-3405945,-1210741,-2597242,-2489245,-2480395,-181564,-1984462,-2753667,-1279453,-2256835,-2419554,-3722239,-2459803,-2367636,-1526134,-2512609,-2144480,-3167990,-2502429,-1765036,-1636445,-3025840,-2055032,-1959539,-2289455,-2596181,-1919019,-2670773,-3254512,-1357342,-1788005,-1863898,-2632846,-2267291,-2983560,-336496,-2040502,-2874537,-2989991,-2092584,-1906480,-3576155,-1802645,-2571178,-602902,-2422977,-2565048,-2657624,-3440575,-2488244,-1661038,-1429771,-3222959,-2665924,-3437810,-3951976,-2261748,-2942351,-1672355,-2064491,-525094,-3080903,-3219994,-2481911,-2130865,-3594161,-2715075,-797235,-1052230,-3125656,-2533913,-2724013,-1788900,-2529104,-1600380,-2685942,-2852944,-1632042,-1572586,-2550112,-3127006,-1906084,-1163421,-2722066,-1948526,-3006646,-2932365,-2194558,-2890762,-826966,-1094387,-1637322,-1441209,-2938827,-2085347,-2172148,-2004791,-2295311,-3344519,-2181095,-2964475,-2975697,-2242482,-1958416,-3033347,-2325887,-3270658,-2554177,-2133324,-2933978,-2552801,-1965758,-2548676,-1903654,-863447,-1686326,-1694912,-1301732,-1806261,-2460083,-2753378,-1671857,-3229034,-2341710,-2573559,-1860205,-1867765,-2313689,-2369525,-2041181,-3638224,-2237314,-1939706,-1872065,-3150929,-1761600,-2496180,-3230143,-3207429,-1603808,-2356834,-2242845,-2230698,-2249103,-542286,-2556209,-2077618,-2530161,-2579814,-2104894,-3677357,-2432360,-1110467,-1955033,-2392828,-1450317,-2212348,-2390531,-1579751,-2393821,-2020394,-1927791,-2271513,-1007055,-1539367,-1997191,-769072,-2667660,-2549635,-2378312,-1995905,-3859124,-2628598,-2520514,-2068610,-1914139,-2129753,-2041847,-1372574,-1805602,-1906223,-2142445,-2911781,-2049793,-2401408,-2447336,-1948877,-1968368,-1869256,-1276991,-2381121,-2317363,-2356014,-2560576,-2594222,-2816115,-2122189,-3043574,-2428862,-2170470,-1310776,-2717193,-2293177,-247359,-1852723,-1568031,-1472037,-2650617,-1417502,-2820849,-1654068,-3765921,-2512194,-1561555,-3269359,-2392165,-2285522,-2707638,-2464917,-2049363,-2470099,-2912384,-2113229,-2259416,-2304840,-2095668,4568349,4589157,4356719,4875744,4888492,5131817,4965412,3606836,5026611,3953673,5031211,4781297,5167380,4743715,4822820,4388647,4117060,4460014,4482734,4567149,4434600,5034904,3779152,5052153,4159941,4308770,3799475,4266967,4292723,3125685,4786065,3503623,4392780,4147091,3582350,4116128,4835913,3523666,5266523,4304872,4583347,4647345,3827056,5534309,4377966,3854359,4958057,4294197,4564112,3684676,4200902,4571449,4915547,4177591,4925595,4026418,4307934,4769519,3670976,3485914,4846365,4678015,4860724,4301745,4417399,3646649,4291703,4322043,4843308,5172155,5090020,4406394,4508893,4199917,4723330,3574622,4271993,4172597,4176386,4833942,3891278,4684421,4620629,4637783,4906727,4714961,5334893,3907973,3643563,4281208,3834383,4692434,3939741,4100364,4601556,4725685,4632049,4961558,4097089,4090451,3872928,3351980,4300149,4565839,4814733,4393172,4680221,4331350,4820646,3798175,4505424,4186102,4654698,4157386,4012290,3632108,3776984,4440667,4868699,4651900,4400240,4354472,4363848,4682866,4091542,4126745,4237507,4349268,4264731,3568286,4460666,4716376,5447122,3645036,4463463,3656038,4387141,5049578,4051980,5343434,4435898,4833416,3799768,3340889,4101654,5056792,3791669,4346398,4341071,4464998,4687270,4165992,3689043,5331002,3899041,4164201,4545770,4414062,4444101,5003981,4375972,4578891,4158138,5102687,4203303,4011035,3789744,4093147,5279633,4417352,4523450,4121092,3294882,3859184,3841536,5035793,4721426,5019896,3798549,3664800,4749479,4206390,4373795,5023879,3760423,3694617,4213867,3627176,4938508,4073169,4105705,4083226,4103867,4517401,4281774,4721371,4158552,3605729,4392876,4904435,4281666,4817615,4593611,3907434,4387842,4036664,4051291,4501591,3730859,4698564,4519736,4436064,3667860,3113509,3862687,4064740,3516659,3146726,4761712,3752977,4707388,4214579,3686959,4693684,3749285,3854703,4526692,4209361,3530814,3462970,4150473,3876985,3896331,4480978,3960024,4025881,4702061,3386356,4472702,4241868,4327326,4680432,4953377,4090215,4273158,4778511,4734797,4571818,4293013,4905618,35565,-350467,2186,97086,-130949,588843,-444424,-67312,329929,537886,-318615,-232507,333376,251662,495547,-218087,804637,11290,179175,-96146,-40808,-344678,40397,-113626,222932,-1080063,-309313,424607,-283332,267007,-469197,206059,-76559,-205431,-51110,-87844,11909,63532,435752,585761,-157340,177004,190963,274955,545799,253797,-575149,485829,118494,230373,232139,-57564,-116632,-163488,261138,-494148,86820,-269701,-170433,145162,-832365,-116047,-211903,199697,381590,276131,95355,-489589,388907,-420186,456727,146018,-418723,353621,201329,-394161,-82685,-66910,56108,296503,-289235,-61209,190578,-518537,-17577,-398766,-192059,-467835,-290539,18458,-509299,-1044728,-325362,-418343,-259218,153834,973516,-165134,-277523,487450,-73445,-441703,-381675,329059,135250,-549917,499126,46356,287273,9631,435424,99620,-330344,-348566,-104203,-894279,345722,-341889,-368415,326205,-47721,567661,84154,-839404,-40425,358769,865611,472198,7758,514033,184517,94305,378248,87851,188427,-334855,18791,-539323,-45335,-615872,613378,1242325,207828,-48009,247825,194494,189903,341187,-144431,136683,545431,-444518,140048,-217986,114316,731564,139914,677550,-84285,-464963,155885,-152,67510,-539461,-286435,69358,793377,-246590,378310,-317342,-145261,-470475,-37162,281899,-126491,-100707,-19397,-95264,64603,-3712,-301486,-447722,202359,-845757,-474712,-374708,-285787,-962238,-161788,-277222,123234,349764,-413602,-70336,276357,-4478,47033,-901236,-218035,470917,-190283,35143,-311493,279799,-882252,-526630,104593,1403648,335961,99779,-243662,100672,195390,-658546,-381307,182100,204662,-955479,-284598,-173095,411671,212089,75351,-13664,-267384,102260,-668560,227775,-569253,619532,-42650,367809,-139007,90557,-460,89977,-457656,817739,305364,99119,3076,353341,-107585,-202801,-494778,306670,32487,-29378,60909,225883,-984486,-988294,-1438680,-685927,-1174815,-137198,-258262,-2330360,-1208883,-1920845,-577664,-1340687,-120167,-513752,-1414909,-1396683,-1424722,-1692765,-1799054,-996789,-770482,-691685,-1521855,-268251,-2353929,548163,-2203813,-1644786,-1170028,-613723,-908477,-1712660,-939013,-1886297,-2113536,-2538524,-895885,-1693870,-217482,-1172629,-310531,-1008430,-2285471,-593688,-1263189,-1617512,-1144345,-530308,-664425,-2060280,-990722,-1115103,-793719,-973426,-390227,-1767719,-1536762,-585929,-2449508,577490,11215,-646880,-502684,-382108,-1448698,-1693824,-1675028,-1320692,-490841,-360090,-654158,-1322343,-1606337,-670004,-989249,-1364299,-2271751,-2028818,-1903731,-1029947,-1731867,-1813361,-973766,-939904,-1104063,-1076131,-519481,-1901303,-1727027,-2067453,-1908953,-1242835,-317772,-1857417,-1990842,-1445736,-800501,-539985,-1405446,-1982954,-1903519,-1140968,-1027299,-1245613,-957153,-1073491,-1413577,-1917358,-789493,-2201231,-1002546,-2092797,-1258606,-790218,-831791,-1051904,-1221526,-1422039,-796883,-1409458,-735248,-1687982,-1147740,-1299045,-1947672,-847898,-1679300,-1115326,-1810956,-1693850,-1818143,-817799,-925364,-2243739,-531151,-1896882,-1459206,-1101166,-473567,-775834,-1024881,-64874,-882888,-2215723,-2033406,-1518854,-2106290,-804675,-1835654,-491893,-1535597,-1599840,-1577256,-928396,-2283704,-1185273,-864350,-1929267,-1500537,-207856,-1407969,-1582082,-1871064,-1419465,-1713922,-1048943,-1901114,-1962210,-422294,-927889,-1270602,-1504339,-2248868,-1493434,-2527627,-2185560,-1326460,-1263107,-1834044,-1563270,-1211734,-2533221,-1621993,-343192,-1674719,-2981428,-1418622,-1369981,-997720,-1672014,-1405193,-1599774,-1351225,-1551025,-828618,-598673,-2013400,-1680988,-1084114,-1280549,-1447133,-648786,-1554102,-1332190,-766611,-793582,-1295009,-911186,-1982528,-790006,-1265792,-755667,-1573751,-1059410,-2458510,-1919025,-1921911,-2492370,-1079276,-2374533,-1771880,-1269653,-1845510,-764428,-797378,-2181634,-615886,-554106,-1314049,-746817,-1378528,-1064973,-714051,-1539466,-927949,-2162215,-1195372,-2317441,-1362690,-1261722,-1283153,-497201,-1857721,-987418,-1196876,-1386714,-1309004,-869786,-1323773,-1775355,