//scale=2^22(for the bias) int  scale=2^11(others) short int

PI_L2 short int Ingressi[]={
878,813,669,556,470,397,320,235,140,174,374,504,667,857,1045,1181,1133,1035,974,911,773,665,581,508,431,349,253,174,374,504,667,857,1045,1181,1133,1035,974,911,773,665,581,508,431,349,253,218,185,78,5,-45,56,245,431,603,
};

PI_L2 int Encoder_Lstm_Bias[]= {
-8127868,-8479472,-9479755,-8564468,-6962964,-6588573,-7697203,-5373997,-6503429,-7475054,-7780126,-7195993,-4309373,-10082042,-8236884,-7834985,-7243492,-3311297,-7767918,-7477312,-2354979,-6966575,-7064078,160197,-7558832,-2661608,-9142568,-7101972,-7717487,-6249064,-8910340,-7119789,-6693316,-6157140,-9749305,-6551704,-6061542,985289,-6700662,-1249599,-2438166,-4317775,-7618175,-1525708,-8307328,-9778752,-4791154,-7357828,-5835102,-5012994,-5660659,-4771300,-6568989,-5678353,-6024424,-4262279,-10094219,-5883801,-8440966,-5578744,6938792,5365412,5848671,4835941,2117448,1305169,6273633,3581123,1636158,-4548422,2883337,4023291,-2323206,6518831,3653647,1270695,1966869,-6857592,2831509,5154767,-3922503,5268027,4746688,-10149612,3239622,740416,4381260,6692690,4236862,807948,5438813,1682421,8546458,6392780,7642150,6062445,2696988,-7941992,6266676,-8113908,-6427374,-748523,1547100,1255395,3396786,5854077,489475,6529513,2513331,1940252,4525426,2479722,-982220,4162923,1018829,-164646,2909639,2239699,5571155,1161855,-279751,-30428,-3238710,-645307,-3097641,-30663,2190050,-109535,949821,4954007,-1312237,-1475039,1312309,-1449919,-1886260,-145031,-70434,262717,3269463,-1678579,-341390,-3458965,1046986,3249844,-1145424,3478095,-650785,-890162,45451,-4417627,-265314,592042,395988,-490392,653469,779555,-131373,1705353,2307717,7754312,-72620,268430,2386974,1655329,-3792252,-299418,-7449882,-1045465,-624802,2086899,-2733673,-2732074,-942339,1724269,-2032938,-358006,-3102826,1722929,-2024983,-409209,-6524749,1752915,-969631,-8471071,-6138206,-5213121,-7533701,-5671676,-6217794,-5860567,-5960950,-5498862,-4456106,92820,-5782287,-3088608,-6138727,-1351077,-5168086,-4447983,-2735967,-6977826,-5367769,-3128395,-4139202,-6470455,-4297944,-5518927,-6330938,-7363028,-278187,-5917332,-6636215,-5821647,-6706629,-6648175,-5460525,7003966,-6031539,-6189105,-2105383,-7354682,-6649599,-6580667,-6990780,-5806400,-3393720,-6204138,-6445259,-6246172,-5507177,-7334375,-5062391,-5654204,-5853031,-5983469,1346404,-5591138,-6602165,-5423406,
};

PI_L2 short int Encoder_Lstm_Kernel[]={
2052,1694,4340,1730,-114,-709,-1924,-312,20,4217,218,-883,-804,3278,-379,265,-1236,1015,-2500,747,319,-287,-648,659,-204,127,470,385,2612,-2029,-242,-859,207,-1134,224,230,-1278,202,847,3304,125,-2616,182,2903,-353,-759,-4938,965,92,410,-1180,1039,1554,1094,-834,1422,-2788,-998,-2006,2025,605,205,2095,2062,5477,169,-725,374,1149,3281,638,1702,-1631,1446,-367,-1472,-611,461,-1152,-2841,-1724,449,-1309,853,560,-413,271,-5463,122,-2190,-2439,-2757,-6,-384,272,-570,1007,269,-2939,11940,1491,-2774,61,1252,966,-414,-8174,389,68,-90,234,782,870,488,313,2774,-880,-978,-887,893,482,609,2166,-2593,-2669,-1325,-1827,3928,-1727,3480,1289,-32,-5129,1542,-2461,25,16,-5845,-1449,1402,-4609,-1892,-1502,-7231,1187,-6486,1907,-325,197,957,-109,-2661,1536,3127,-256,742,-1015,-6879,1778,5614,-6300,-5087,2316,-3523,3353,1693,3955,1222,4319,-1763,5655,-3939,2513,2217,4478,-2249,-4701,-3099,1340,-2407,-343,6066,7119,10828,-565,1149,-2986,1628,2543,2996,-192,673,-1256,6174,-1121,-1513,-2569,560,1558,-1519,-851,-1713,-276,1440,204,2480,-1047,6,-295,-3661,3032,-993,73,1441,-370,-774,-184,-2196,-4937,5052,-1505,-3958,-68,-1586,-326,-651,-11935,-1249,-2191,1841,-1833,-4159,606,583,-685,845,181,-1384,-3978,253,
};


PI_L2 short int Encoder_Lstm_Recurrent_Kernel[]={
1956,1552,2707,1727,312,-1750,-3141,-3294,603,3417,645,-1244,2777,253,2585,636,-660,-3190,204,339,-621,511,433,-2927,505,971,1549,-2860,750,790,2653,130,-1893,1332,-1754,-2627,699,-271,5532,1605,5635,-839,57,-114,3063,-536,-1490,1632,-1569,-3646,-1250,-3464,1203,-3058,687,2711,-652,-294,6008,-1595,2449,566,-2342,-2420,1077,-609,19,-2512,148,-138,-10855,4658,556,-2340,-353,-225,-3277,1217,46,690,5247,2768,-2662,-412,-254,-749,34,1524,-4593,-2304,4174,-89,-960,413,-3091,-3731,-677,6369,-713,3382,2242,-499,-1514,775,-1934,-1062,-4386,1771,-873,147,691,360,2122,-3028,-835,-560,1490,-295,1522,172,-63,-2461,453,-977,4435,-719,3377,2524,-450,289,102,3379,-235,576,-1834,913,1745,-390,1414,763,-40,-2791,-1666,-674,157,-276,3092,1910,-2633,705,-750,-2395,-1625,2847,1725,3009,-484,-169,2332,-497,2214,-2890,2104,474,1033,65,-69,-2072,-1631,-2365,2146,-3386,1342,-4891,3006,-672,2948,-385,-2631,543,964,-770,-2780,-584,-733,-178,1538,2731,2551,683,-942,-1918,-98,-3140,-1220,-1451,-687,-3458,213,-2176,1649,3039,3394,1989,1809,-703,416,8,-174,-1221,-1363,-150,535,-97,1441,2587,2169,-4436,1200,378,1522,-1362,-843,-132,-258,-1858,-757,-2286,2554,-3556,-185,-341,2839,-2799,1606,2054,241,-2163,-1061,1435,-1634,5144,199,3003,593,-2101,2684,2213,-2322,-3991,-2044,284,-5699,666,5672,618,1387,2563,1960,1709,-2627,850,12862,90,3361,977,1449,3782,2996,7108,1830,4388,5932,1929,-1135,9281,2019,-2678,473,919,-889,-1638,3968,-1001,1871,-4609,4024,-91,1508,3645,1843,1577,-1350,3525,-4256,3663,105,1719,3006,1448,215,2213,-1196,3089,17,-761,1297,1807,2748,-1752,-3649,1909,1998,195,6254,-1890,1732,1141,3172,-2614,1570,542,3198,2988,-2254,610,692,-275,-1802,8445,-1827,2952,-2846,272,-978,2669,776,3204,-267,4314,3117,-611,1704,-2498,3274,-1820,5442,5437,-178,1811,-3821,-366,1007,2724,1231,-760,172,853,2929,2083,462,-5886,-1067,593,1328,-3721,-1396,-1641,401,-274,-1922,-2645,-1494,618,732,239,1991,553,-901,813,-3124,1363,7824,616,-1321,-724,-2085,-2534,-57,-3924,66,1102,3354,608,272,-3550,1175,206,-2110,614,714,459,-1223,-449,-1034,-1594,410,543,-2984,5451,-1788,950,-1116,-3214,31,3604,1621,3462,-432,-447,969,-2721,856,-47,267,741,876,-3358,-1166,-607,-3155,827,-568,-467,4388,-2284,1501,-2192,1688,1694,246,673,573,22,861,2034,-1172,1228,-1675,10434,-1889,1809,1179,1379,-2213,3253,1424,-7574,958,610,1350,709,405,-168,3844,-898,3104,6910,2005,3790,469,1944,-2220,2517,616,2036,21,1830,4667,2227,-1517,-888,3449,-4004,-504,2310,6800,2528,64,-3281,-2054,2709,997,-178,1425,-3944,1269,-883,1755,1114,801,5227,8638,-49,1832,6467,-235,2433,99,6010,1164,4358,-204,216,801,2325,1103,3965,-1566,469,-474,-1495,1570,1119,4668,476,1063,-2937,-1636,1158,4284,743,-3924,2243,98,-746,2697,550,1246,-897,-27,-269,2865,352,-9,754,3448,1466,-1240,-2041,2510,-2031,1495,-535,568,713,375,-1805,479,-1589,2141,4549,2268,295,-742,-2202,1285,-1436,281,4592,656,3458,-5995,176,1337,1067,-1068,5871,-1098,3297,663,3049,3696,-693,5110,454,-1332,-541,-912,-1691,-574,-1692,1120,2697,-2965,147,-189,-625,912,-1136,-801,730,-1290,1779,1193,798,-2396,-3844,778,-455,-2740,221,833,-1732,-352,3473,6235,1120,-710,-3450,2492,3712,6127,2286,1676,-953,-2860,-675,1776,-779,4274,6039,-509,170,665,-3447,306,1281,-2856,1330,803,-2777,-1151,1822,3062,-991,1517,-190,-1297,286,-391,391,-1349,-736,187,800,351,1496,-2326,823,-219,-953,3224,801,-23,334,670,-508,-3602,-2461,-2888,-2959,4269,239,-237,-1292,1893,33,1080,-11,-5,360,-931,285,1363,1672,74,-428,76,7957,-3185,1311,150,-138,-1678,-1003,-1283,-8525,844,-624,-400,2027,141,-484,5792,-176,-464,2026,-112,2461,3563,284,-901,368,994,39,614,-83,3669,-69,-873,-425,-839,-5789,3748,-1156,3136,852,-934,-2026,715,-72,445,-243,-331,145,-874,2283,389,-2505,1810,-1056,-590,1700,1848,9523,347,-712,57,995,270,-915,-153,482,-634,2543,130,-264,-1687,770,751,4592,940,-1898,3403,-904,-7996,146,579,906,4004,-3690,-1017,-1112,1462,726,938,-2358,434,788,-641,-557,-245,-1701,-1162,-359,2149,797,-2752,-2498,-4235,-596,3580,267,3038,1273,-3164,2907,122,1637,1311,-492,1846,1854,2428,3419,-700,1622,-771,1345,5840,1963,-1200,1852,339,2472,407,4110,1237,1982,1742,3082,2246,-952,5995,-113,-7927,-1684,58,-231,1729,-641,-213,12,1520,-1782,4487,-454,-1037,-545,553,-38,-947,7827,288,910,-3731,-750,623,-1333,-1303,-1071,3189,-1272,2747,-344,2111,2095,967,-1899,1511,972,2534,4959,3088,108,-1023,-1048,701,-1787,1649,1870,-322,-2010,992,-3431,2262,3433,-2469,156,1777,-1410,-2427,3342,1955,-517,13059,-429,-2716,-899,-3672,6278,-1793,-704,-3875,2179,1352,1251,-1542,1417,-317,-874,-67,87,-57,1363,-1322,-95,-700,-1061,1002,-133,-1028,-8416,1191,-945,327,2028,2937,425,-260,871,1922,878,1061,1579,188,993,372,2524,-8320,-637,-998,-1810,606,2466,-83,-1824,-522,-376,2736,5661,-1283,-243,1445,243,-951,2551,-456,1115,3504,179,278,-1933,71,476,-1168,-12,-2112,-508,-2732,1781,-190,2178,2057,2312,1710,2768,18,445,-2060,2187,-1475,617,1536,596,-2480,498,1481,-2208,1103,1494,2325,-20,324,-2193,193,1742,-4425,541,1228,645,2946,1316,-96,1933,-2430,2952,-2159,3334,1722,2044,2399,1009,1424,-750,-3024,858,1513,-873,997,-2436,113,4680,-4363,2613,5385,-4914,490,199,-1497,-110,-383,-1943,-1714,-915,-633,4818,963,-1471,390,-1493,-761,-380,-9,1423,-2583,-1616,-2375,-2750,3621,1058,-635,1088,-421,-2244,-264,-451,39,-751,4611,-1264,-4902,-1459,-1173,2658,15,6265,-2140,2458,-87,506,3792,37,-3315,-5147,-1618,-4278,5415,1795,88,-684,1258,1113,-4434,3327,7634,-1842,21,-2315,1254,1277,-444,-713,-1403,-928,-690,-1001,-563,2877,-1079,-3386,-2848,144,-1016,-2706,1377,-426,-1072,-5654,-3404,-347,626,-2068,-104,-28,1014,-4252,-555,-3080,2637,276,-2917,-2960,-336,-63,21,-2092,-806,-270,-2454,-907,-3612,824,-661,-535,-1552,2811,-2136,-102,-415,3937,2759,483,-2468,-1287,-1230,2538,-1052,-1450,1974,-217,2433,-499,744,-1131,-627,2938,109,-663,2130,-2960,2316,498,1485,-2835,-2162,2867,2080,487,-1188,-1708,-3187,-1238,-84,2623,-658,-1281,-1689,-1186,-3360,770,-1694,1312,-1837,-1090,-2480,-6599,-136,5543,-214,-1580,1980,-32,1568,930,-4234,-427,-2225,3372,792,-903,-1962,-298,-717,999,-734,-3350,-1492,2450,1452,-1774,1534,498,-2010,-1756,784,-223,1074,58,2981,-1011,687,2282,1723,-4441,-170,1503,2821,-1721,-5033,-2535,-2354,658,-191,351,-1920,824,-2802,552,2474,957,2497,2553,1922,-3995,1056,-834,271,5720,2367,2228,912,3132,-1592,-559,-5417,184,1472,-18,3303,-5201,-1724,-2629,940,2821,2535,1680,395,107,-2236,116,2006,-1844,23,224,-1061,-1148,2077,3148,-5532,182,3019,-873,-4510,-3417,-616,-2424,-1262,1871,8269,-319,552,-1875,-2047,161,185,-773,3721,1956,2365,505,440,1961,1054,1481,1450,5828,687,2884,-409,-2801,1494,771,1406,30,-4589,-1793,1102,2264,-2582,-1104,-5487,3449,2839,6288,615,525,-949,150,1918,1307,-454,2474,-4680,2039,-348,427,-387,-1619,-906,98,-675,869,243,4073,359,-357,2437,-3593,-1725,995,91,-1458,124,103,67,-3543,-4632,-19,1732,2148,-838,-2020,-710,1919,-4925,-272,-653,-220,1897,-1314,1497,1154,121,-1248,-1437,-2027,-3100,1757,94,2223,-2532,7110,-355,-8959,599,1693,-4042,-6542,447,442,1304,315,-1785,-2070,-205,1618,1030,-229,-17,1461,-217,165,552,489,3030,-1760,-95,933,-643,-855,773,-17,-1116,-393,246,191,1108,-862,-696,-983,-387,-347,-346,244,1269,2658,-697,-1268,4560,977,1650,-498,-905,369,-3071,218,-120,634,-669,930,-522,3287,-700,-894,1008,1878,-1640,-29,3381,3874,6467,2101,-3,2251,-685,-5281,-2683,3758,595,-2,1344,6342,670,478,-91,1783,2395,-748,-1445,772,-76,-983,543,1946,1619,-837,-2694,-2266,802,1529,1618,806,561,-282,-376,3412,96,5705,205,681,342,-1114,440,-890,-3015,1640,-3971,-2155,-2902,-5900,-838,-2626,373,1234,-918,-2650,-1138,-1421,-68,5040,7636,-120,-2182,319,129,-5118,-1587,5317,-3279,-882,-443,861,-980,1744,-2243,-1562,-670,6068,-201,-1526,-506,-235,286,3147,407,-62,1165,-800,7560,1059,1513,395,173,2314,-662,-847,4762,1715,-525,-2282,1274,2214,-1562,-1792,-6397,-1351,674,1257,3355,-1712,1613,-166,-1698,-185,330,-2095,-2213,-354,-752,-2221,691,-6337,-844,1793,2542,6590,-3094,3671,482,2499,-499,-349,1889,-37,125,-1794,2237,-626,-916,1504,680,-971,1509,1027,-768,-126,-614,330,2761,1816,2122,-2744,-309,-1416,-1021,-311,-21,1654,-1678,1773,-1180,3053,1295,-1422,-542,-158,-371,-2191,705,294,6456,1461,1972,-1605,1410,-1053,-3755,-188,599,-176,2121,4312,397,-165,934,-1593,1748,1703,94,-892,872,549,755,678,-2624,1545,-68,419,151,1477,-45,-346,166,1035,-1000,481,908,-1779,-1742,-285,-2015,-1415,500,263,-82,938,-4317,4373,-108,-3474,-289,-1187,118,185,-5171,1688,-762,136,-2211,1012,2742,-1898,-158,1324,-711,-2349,-1311,-2016,4702,809,802,-4429,238,588,304,1313,-3868,1332,3458,-2439,2949,4386,1660,-1023,605,444,-868,1643,1387,-1204,-928,1705,-1532,2191,2251,-2410,1313,1106,2508,1407,-846,256,3192,315,634,3419,-1123,-3591,-1723,2227,-430,352,-2897,3378,3060,-1448,-5990,2120,-958,-2466,-2829,766,4187,-4316,-1765,-575,131,2723,8634,3692,3272,-1700,3217,835,1742,-697,360,1759,371,3334,2049,8179,1040,972,-4793,-270,1263,984,-4526,-2409,-2772,2072,551,1921,4863,-216,-1137,2334,-2187,-68,5042,1434,702,-630,-1705,977,4417,2092,5907,4101,-3578,4583,295,33,264,156,419,259,5905,-966,-1726,-3064,447,2523,-2230,-489,-891,1245,1325,-354,-2815,-1806,-2596,-460,-2838,-1267,-1032,-1350,241,4482,1945,-2353,1029,3662,-118,2599,-123,1812,963,-1811,1995,184,-667,-1572,-936,-1044,-1113,-3902,-321,927,7207,1338,-3236,-785,3076,665,-889,720,-623,1792,765,-1463,-1195,275,-1133,-3748,745,543,1766,-1889,-1634,-294,854,179,138,-807,-1302,-873,2500,-1023,1138,887,-1277,-3245,2464,1597,2460,-189,1514,2156,26,1595,-2243,-1,456,-1063,100,-1811,1756,-1770,-1084,-426,1718,582,-875,466,2556,250,5777,1058,1975,3381,856,-1770,-363,4207,877,560,-5,-1459,-2863,-851,936,1680,3074,-1991,950,3794,3309,-176,-2345,2930,-343,1511,-1453,-626,422,1849,581,-2858,-601,1119,-215,1573,-2795,1305,694,2549,2003,3583,2449,-340,-4181,2007,1327,942,-1234,-2290,5641,432,-4567,-172,-972,-2202,-1928,-1591,-5214,-3909,-852,-483,-698,-1489,-1849,98,-2577,2987,-4075,858,941,140,-3515,-2487,-238,-2388,-1652,1912,4437,-121,-4614,4106,-209,2527,-519,-210,-3769,-4006,-3577,-1664,-1516,398,3818,841,-160,587,-4304,-376,-1520,1652,771,-2765,-1927,2080,728,4412,2467,-206,1288,-744,-6898,981,2918,-2007,-1217,3064,-2962,-2714,-2099,-2310,-3446,3274,-3994,897,-109,2503,998,2171,6248,-1650,3338,-676,-1205,2132,1319,-2275,-3304,4260,1634,-763,2616,4953,1104,-903,171,-262,513,2098,-285,777,-1597,2323,-29,2073,944,273,390,635,-355,-1626,3067,2986,-483,-856,1995,-2467,2389,-42,993,-1980,3012,3843,-1089,259,1201,153,-2439,1489,2174,-52,-5411,2201,392,210,3562,655,3992,-32,-579,-1121,-529,774,-1175,129,1282,6824,122,4617,8507,-1281,-423,-4260,2271,-2224,-2962,1324,-3153,-5147,1101,-497,77,3183,-236,-605,-118,-2309,-444,-2039,-1536,820,1295,-2606,-491,625,-443,2513,-787,-523,-223,-354,2039,1965,632,-1030,-979,902,560,1313,-510,-2444,1941,1477,1641,1028,647,1375,1360,-1264,33,1258,966,-2783,125,-254,-1947,1350,-1584,1292,-866,-1699,-2478,-2927,50,-1520,-515,-787,593,1302,458,-1056,443,-6158,-363,576,-1297,407,2267,-2798,-1537,-747,-748,-1164,3408,-1402,96,-1002,-255,-1836,-148,1982,-1379,-668,1503,685,-513,-2896,2380,-5256,-641,-2095,-3317,1533,-2217,-209,2747,-680,-1748,-2863,3437,-463,-1274,346,4315,-5627,-430,3776,3908,-305,-3113,1033,-1806,2383,-785,-2368,1383,-3486,-2407,297,1483,-243,1712,-6097,-5154,-501,4526,-2030,383,818,1441,1153,2209,904,-3815,-2228,-2896,-131,1434,-350,134,352,-1818,-1874,-2538,227,3968,-1458,3775,-131,575,-7209,-596,-2422,4118,-71,1345,-5211,-6054,-5712,-601,-1652,-259,2158,1311,1008,1909,1755,2481,3517,1382,2837,950,-3988,-884,-3771,-247,1186,1294,1593,-2114,-3409,-468,413,659,-4194,2879,-752,-1290,4264,-2447,861,2536,8188,2383,1226,992,-1960,-1188,-38,-1260,5782,6214,1352,-5132,190,2548,-676,2340,969,-4231,3055,-4392,-3384,2353,2731,-3031,1895,-1978,1230,7584,-981,-1010,-1847,-224,-2016,396,23,-1655,-714,6260,-122,1863,-3869,-1179,1609,1750,-731,-2440,-3110,-520,442,347,-334,-1301,828,210,-3814,34,-1149,-1923,765,448,-36,595,416,-349,-1288,-841,-1367,1785,-1315,-2078,-1368,739,-1485,1423,-164,-38,-438,-719,-6520,-2239,863,-190,3760,262,-1661,-2657,11437,1142,-3025,-2835,-52,-439,-745,1298,-1315,3118,-3423,1430,629,-2148,1534,-239,-3358,-614,2406,716,1559,491,313,-1121,-1675,3521,-122,-1440,1187,3138,1281,1625,390,-2400,-3220,1158,479,2180,663,25,-1829,1524,2905,1006,2522,-2362,-1756,-2969,-716,2125,1698,-872,258,-1879,-356,-8281,-1342,593,-2953,300,-4164,4738,-473,-2755,178,1247,-3128,-582,-2315,4314,1922,-234,-936,-2159,1939,-473,-732,-2438,888,-1497,-20,-1442,-619,3924,-8757,30,-622,1448,2601,1460,-2482,-1337,-1760,-199,1790,-217,-2003,-3216,-614,-1143,44,596,-2231,4115,7044,1577,-203,2798,-1025,7,609,-1924,-4009,4110,-1057,-1198,-1691,-1270,-2618,-751,-5306,3395,-2013,-242,-3129,-1577,-3589,-7493,-1557,-992,5293,488,2031,-5541,-345,462,1375,1002,-1175,1168,-680,-4837,947,-743,321,1792,-2486,826,1302,-1917,-1080,-1218,-2434,-1222,2208,2407,1962,-192,-684,-3829,295,600,1102,3061,5199,2142,1147,-652,302,-826,-2283,319,-1903,-1303,52,-4311,-1510,1758,1302,-323,1692,4128,-1786,-254,771,1299,-859,-443,-93,-263,-4788,2475,118,165,-4589,-709,-1746,3145,-1645,827,316,-624,-1105,-1014,1098,-1880,-497,1376,2965,1666,-436,1431,59,128,-2817,-242,73,2014,2300,-429,-1069,-1186,-2325,-2162,-661,-530,-3012,-468,-2294,1155,362,-263,2624,3391,-962,388,1950,449,-1542,-1668,-2942,-942,17,236,1464,1384,1252,-2392,-2316,3946,-4667,-589,-1826,1112,1661,-52,-1252,-468,-70,1211,1501,-3987,-88,615,2244,-311,-606,-677,-1343,4540,502,-2730,507,-2028,263,3731,-1545,-3727,-3615,6172,-1211,-939,840,-796,5737,-586,2551,-1858,3232,-2233,1604,-1858,2240,4397,1322,5865,-1660,843,-2361,2163,-4752,-793,-1753,-765,-1802,-3389,5247,-4462,-2617,2206,-4899,-3574,-1439,-181,831,-534,689,807,-743,1816,4090,-959,3671,-2039,44,1780,4109,-1713,359,-787,-1662,-2425,1979,-2807,-2915,-1585,2687,-3389,-1918,7478,3809,-3460,2986,3688,-310,-4632,139,2920,-3567,-335,-165,2734,80,636,838,12,-4075,2059,912,743,13532,-808,4030,-160,1134,-1577,-79,2164,-143,-12,2272,-1280,-828,1401,1146,-3001,3513,2817,4917,674,-403,991,4133,-1369,663,-1825,-964,-2039,5493,-745,-921,-128,635,-2393,-2388,746,-431,-4178,1164,-5156,1441,-2424,-54,-138,-2005,388,-319,-2909,615,-440,-1979,-3377,4372,3610,-914,802,-4354,-1287,1001,-2420,-30,-1366,3201,780,377,549,-2979,1840,2484,1293,783,-5507,-1700,-42,2675,-3822,484,1097,-171,308,1783,885,322,-1690,-660,3811,-122,-119,-3556,-1171,943,-2818,-2033,51,2491,5444,3953,-66,-1363,1696,-3852,145,31,1181,-4675,1753,1439,-470,-941,-958,-1233,-3226,-658,2202,-1648,-216,-412,-8,2145,457,-1602,1203,-2681,329,876,-1209,-2220,-395,2646,-135,-2675,-1495,1423,-1830,2785,-483,-1612,1523,-5045,-969,-1546,1868,250,-2460,-4006,-2711,1424,-830,-1474,-3928,1380,1874,-4643,2735,-2557,-2912,-2620,-528,212,-422,-1087,-2229,-863,-5669,-1627,375,1791,-3633,-1714,-1532,-1085,-2710,-4151,2190,326,3564,-4867,-3250,-3402,4214,131,-6216,-2876,-52,-134,582,-1726,-53,-3974,-2266,167,-571,-5354,-184,-4052,-2390,-2736,1017,-31,1328,1243,1283,-4138,-1584,-2452,4093,3101,-1615,248,1808,-1029,-4410,-2883,-1069,-2893,63,-572,-1413,-3525,1536,-1924,-2014,1847,6790,-193,2186,642,-3298,-3154,-1036,-3248,1922,-2250,-5873,849,-3357,4144,3606,3000,878,4,-240,-3914,-8078,-1337,-393,-3756,459,5046,2031,-5057,-3538,1573,-2692,-278,-3426,44,2524,-42,2645,-3282,3238,-1581,7965,915,2328,801,-647,7291,-2807,-1222,-1735,725,-2070,-4038,-174,-1661,-4639,859,-2230,-195,-3064,-518,-1813,-483,-604,-147,-1032,1573,169,1979,3734,4327,2354,-329,-3263,-5867,-919,-1689,-7023,-731,-4704,44,1565,-1630,-236,901,-500,4920,-132,-1155,-3051,-2391,-2727,-1486,-3771,1907,-101,-909,1373,-32,248,-1504,1791,195,42,358,-2468,-176,1098,-461,354,-3575,-1392,-6813,-1715,-1113,-893,-226,-1302,-460,-1097,182,-2859,-4727,2433,1844,-805,-1347,-42,172,-1986,-1508,1221,1035,-1416,990,495,-156,-1539,3282,-3691,-1896,1827,-3387,463,378,1966,3067,-1309,-1472,-5651,-3430,-2521,3326,-3911,-1490,-168,-6469,938,-2571,43,-5743,-641,102,454,-2032,-785,397,1772,2263,-2357,-1954,-2233,279,-2873,-137,3146,-2653,-938,-3601,355,-727,-2991,622,12511,1279,2730,6137,1666,2114,440,3075,-117,2358,-110,788,795,4876,548,1129,56,-325,159,-2606,4169,1977,1372,1781,1410,-2441,-1256,-41,2690,-789,-1078,-2844,1368,-1397,2067,2368,655,-1849,2061,-419,801,-200,2505,-88,651,-1624,-607,-4220,3983,1546,2699,385,1117,79,-242,-3372,617,-3662,1423,5743,1538,-845,-440,-3006,2328,-8608,-1785,2306,433,2321,-608,271,2739,-710,-1546,3313,-5281,-800,1189,574,2420,1584,5711,3537,1491,3367,-312,-710,-188,-1497,4035,-2287,-848,-1972,-684,-481,472,586,-1790,1271,-229,-26,966,526,-2703,-2360,444,-703,-2002,39,1525,-363,-40,3267,3718,1504,-1984,-3683,700,927,7066,1847,675,-1483,-2347,-155,1985,977,2468,1947,719,1931,-1198,-3521,-695,1874,-3471,2223,720,-1978,-1036,148,605,-2205,957,-2347,-3298,-359,297,618,-1235,-307,-1936,4300,1239,1508,-488,3482,-2013,-1955,2273,-2983,1358,-591,1543,-2044,-2491,-856,-1151,-2330,2692,965,1766,-145,1346,-884,582,1689,-1329,672,-3387,833,-299,795,-1376,-1506,1016,4692,-3814,1307,589,616,-389,1240,-306,1071,878,-3972,118,3129,242,2464,3834,-1650,-952,4439,729,1392,2441,490,-289,-468,1,1122,-379,-586,3329,-1237,2485,2989,2400,1954,72,1197,159,-1718,1329,3058,3611,493,-3615,4001,237,1841,-548,232,2032,-3743,-119,1969,730,-1224,1773,-1940,1354,-2871,-2335,-1332,604,-126,2807,3394,-98,1644,-1151,-1547,-4890,1205,-307,3381,195,-2231,278,-454,-2391,642,-1612,-3136,-2280,-597,1375,-4371,-504,-3187,3388,-5668,-4949,642,-4045,5163,4064,-2498,-1739,-1253,152,350,1323,1516,-327,-6619,-3079,3991,-207,640,-524,908,-1487,-1646,-5824,-2751,2019,15,2526,-378,646,10374,-1552,-2699,2674,940,-835,1312,2499,2445,-329,-2028,3542,-3587,-1385,-593,2404,-6037,3029,-5904,-6774,770,-2517,-1001,-4810,202,-717,-6072,-930,-4797,4201,-1715,-6233,-2320,376,-2813,-2293,4667,289,1114,-572,808,5028,3194,347,1636,-855,-2214,-1432,-809,748,-780,1387,-3711,-1635,244,89,-1963,2894,2741,536,1676,1913,1348,694,-491,-4643,-6400,1012,-959,3586,-1379,-1392,-516,-876,2118,787,1120,1781,1688,295,5476,1403,-3479,-74,702,2864,353,1469,2760,566,-2881,-30,1783,-2390,117,792,-1318,1004,-1214,-1123,1749,283,3827,-1286,-383,-1051,8,1578,-197,-2264,-589,346,1053,-96,-2233,1352,-4014,352,-4482,-1223,739,-2146,377,-345,-491,-499,-2317,-1000,-95,-1118,-248,-1754,4672,-2241,-3012,131,-3668,886,-503,-6249,-1001,855,452,-2870,-1053,615,-3988,1308,-3235,-567,985,-3389,-1522,-589,2235,2999,3137,4794,-476,-437,-1955,28,-19,-825,123,-3684,2266,1793,10058,-2309,1293,2104,1228,-1169,-1671,4799,-2381,-161,828,130,-1393,4471,2974,1559,67,4813,3158,2808,4080,-634,-1826,1639,1147,4040,4323,1061,1055,-1292,3187,-15,466,-75,660,3614,2028,2178,1281,-2905,1683,1424,-3593,1352,3442,2375,2694,-1255,208,-1000,-664,1080,1310,3576,310,-3445,2044,2329,2254,3187,-864,-5278,-755,3025,1071,-3874,-1189,-526,23,-4899,1757,-1785,2459,-281,1561,1549,338,3084,-3,365,2360,-1237,2916,-3736,3564,5176,5836,1927,856,-361,-2196,900,3048,-4047,-1587,-2537,1041,881,1418,-928,-751,-1219,222,421,2654,956,-3157,-23,-1023,1424,-5720,-38,-154,2136,2387,-2027,-4927,-3756,1451,429,-6461,545,-414,482,1252,-2378,-4170,527,-100,-844,-1844,-1407,1228,2779,-3524,-4390,-157,3191,1131,-548,-779,3959,-539,-838,911,-1115,1045,-804,-4833,13,-1429,-247,1327,-2918,6782,-378,448,-2232,-2893,973,582,83,1735,4134,-2131,-1983,-336,1115,2096,775,-803,-2252,277,4891,156,-1877,1617,225,275,-321,-3905,1671,1041,2470,3336,2471,1933,-380,-62,39,-504,-541,855,3493,2647,-594,-1124,1321,-1717,590,899,-1764,-7004,2790,4551,2501,1760,1097,298,-648,-1797,1851,3036,2756,1467,-835,-1497,-1714,5434,284,4428,-793,-1779,1150,1162,3696,3332,1686,-1233,2178,-1588,7129,-3586,2150,1539,2795,137,3039,2734,3395,9239,1527,2452,905,-898,-2828,-1224,-706,-2793,-66,-2463,3435,-4266,2436,2983,-1059,-228,933,554,3012,2144,-15,1252,-666,-180,-2255,2492,800,-10380,3614,1335,3017,2500,-4219,-1504,-2920,-546,-2517,-743,3536,2154,2048,-2459,3563,-605,-1017,1870,-193,14,3676,-1556,1376,-3020,-361,394,1646,106,-652,-1994,-850,3105,1733,4368,6499,-1996,4549,-4478,3771,911,-566,-252,-419,-938,-957,-110,6056,3972,1645,-486,-2779,3937,538,-448,-454,-766,2495,1370,-544,2113,62,1686,-1400,1668,-760,-653,2335,-37,6812,-611,298,-539,2997,-364,1778,1178,-7844,1613,-576,-2553,-2682,1684,-559,1053,-7246,-716,2767,3786,2048,3058,-276,-2657,789,-1260,172,-527,-1430,1279,-1208,405,3225,900,-3,-407,5975,-716,-1538,544,2036,-532,608,-2664,2444,-98,-1022,-118,-2684,5549,3133,903,1803,1023,-937,-1100,2837,-4766,757,-2551,1484,1318,1889,5763,3383,-2600,-1161,4748,1443,-948,4683,2112,5440,-922,396,-1424,2740,1462,2491,-2405,-318,1821,-1155,4800,-1111,-2182,-1011,-1167,2,1667,-926,-2275,-810,1318,-267,4916,-1925,2734,-122,-430,388,-2817,112,2337,-691,-5618,1450,4260,-3514,2214,67,1758,-472,-286,2264,-2416,2527,-1186,-869,1983,1718,-1091,-1192,3275,-1781,-964,648,2911,-3432,-946,727,5587,795,-982,431,1695,-700,-1716,-856,3753,-3582,1177,665,-2665,1065,1220,1111,-1892,797,-1202,3379,-3826,1190,1062,-1399,-4036,-129,1316,3049,-393,-76,-640,2217,1156,4112,-2928,-8134,4054,1221,1087,2209,1163,2070,-2687,-4993,93,-1565,2486,38,184,-2658,1962,-987,2398,3618,2825,-3039,401,155,3984,1889,2986,-4988,-1397,81,1936,715,-1216,-2563,-1601,1844,5064,4869,-769,-1072,-698,-932,1338,2804,734,3590,-678,-2334,-1681,529,-27,-2030,600,-1512,2460,-9356,498,1173,5688,2181,1430,-1881,2092,-1953,596,3136,-3959,1368,-3056,3234,-3923,-6028,1414,-1603,1170,-4586,5251,-2589,-1803,-591,2870,-558,2731,-2008,-107,-155,669,89,-1958,-322,-3761,1321,-559,-1515,-2589,-962,-82,-660,4122,212,-3175,575,-3227,-1760,-819,3995,827,-839,2067,-203,2542,-263,70,1633,1613,-211,-111,716,-3640,242,-2684,-6740,191,-1957,1594,-682,-2050,-648,-1021,-4339,100,-2044,1422,-4315,3879,-2109,-1159,-1497,-1653,1289,1510,3801,-1505,-2196,-1396,718,798,1498,-119,612,1839,-3881,6,-1082,-2245,2753,-676,477,672,876,1003,-273,382,5527,-315,1555,-163,91,-1408,1407,-83,390,248,58,-7,177,513,-1002,18,-2259,117,1031,6424,2490,-2190,321,1545,1910,27,-2619,-2692,-356,918,1804,-2441,-1788,2355,2173,-2683,-73,1121,210,1479,1070,838,891,705,593,1248,-140,-1909,365,-2445,-2063,-1706,-3145,937,-982,2998,-2126,769,-139,-2917,1902,590,-1137,-1604,874,-3188,775,-746,-3262,-568,-837,-548,3437,-2676,327,-349,0,1096,-206,4850,-193,571,-166,390,1116,610,-5869,727,-771,-369,-2292,-202,-1317,-1930,-1097,-1483,-385,-3806,-3153,-918,-1603,2947,2391,-2117,-1601,1782,-1055,-162,289,-5041,-3216,-1764,-3488,1129,283,2140,-2303,-452,-1616,6103,-1350,735,0,-2029,436,1503,2085,13688,-2521,-556,3024,328,916,-486,983,795,533,-5930,5283,-1129,-2846,-2022,1022,1227,1644,-4994,-8373,-2296,-2934,1098,-1435,-18,-287,-1880,-1183,-802,1310,-903,-4349,-862,4362,-3591,36,2676,103,899,296,669,1707,1693,1277,-1757,-3911,-6535,-361,-1423,312,-3495,5485,2857,-2765,299,145,-3502,1824,5184,-1384,-377,2970,123,-58,-682,-7695,-2270,1760,-546,1413,-4506,868,182,-2589,3632,315,7853,85,-2169,836,1639,179,-2739,1053,356,5564,423,3990,37,208,-3950,1831,2091,-666,466,1061,-1157,-353,-1037,-2311,-752,956,-1143,-1032,-1163,-2364,355,-379,1566,-4350,171,579,-297,1448,150,1725,-3635,-437,-221,-1091,-578,-3218,848,-916,146,-2204,-3419,-786,-1,1392,3475,-1029,6829,59,-1972,734,681,1688,-2450,-1869,-54,-1013,668,-2974,940,-2268,-2442,-262,-645,-213,-2497,-1425,-2185,-3587,96,-1603,409,583,-521,566,2271,-3322,-2938,1880,-289,-3247,-2242,-1463,-1039,-3887,-1806,-2942,-3275,7286,-922,-282,974,1220,934,-5537,794,1007,-2055,-1089,-1572,-624,-1917,-2450,2473,2572,-661,567,-4145,1313,-1718,2645,-4502,-863,1608,976,425,-2356,972,-2806,-3761,1507,-786,-3258,-4449,3449,-1030,-3191,-1032,764,-232,-4156,-602,-2467,1168,220,-4550,-3092,-4234,3925,3144,711,-2217,2523,658,-2055,675,-5017,1491,-2665,-2728,-3219,-2234,-222,-185,1048,-1859,98,4319,2239,-3094,6213,1738,-355,-1668,-604,-4794,-1885,-864,-7002,1425,-430,876,1072,3257,3064,-1299,-60,-477,-2032,-2913,-1372,-1063,-499,-1532,-1157,-2168,4023,3741,-2150,-1713,-1,2,-265,-290,2837,-743,1184,-202,-420,3632,214,-833,-3045,-878,-331,3051,1160,56,292,-557,-2834,1128,-551,-2835,-484,3894,-783,708,2810,-1860,3164,2351,1772,-90,3183,717,-1729,-2991,2161,1940,750,-2570,-332,-1147,1900,-1115,-4574,-777,-345,-455,3695,-2987,629,6801,4519,1305,-456,1959,516,-1845,-2254,61,782,-846,1238,-3151,-2343,-945,-225,-1892,3560,-1921,-888,-150,-2672,2850,-2458,-1362,2372,-2295,-3904,3188,-1566,-1490,1728,-2701,301,-1015,-1181,537,-1020,-361,1901,-62,-3077,4898,-798,-4236,68,228,-1776,-778,1916,-1389,3398,-472,-1500,1046,-2525,-74,1473,-1800,475,-1125,-82,-2691,871,-1630,914,-2758,-2342,4624,1187,4467,-2372,3859,1749,-722,20,-2302,2421,-2946,-7,-5236,195,-1445,-1718,897,-4986,-1244,-646,2626,-4609,-656,1900,1943,-5033,3384,2823,-963,1080,-2736,1014,-296,3269,-5434,1579,1166,-2780,363,670,1685,-648,-1565,-2123,2707,-1062,-3682,-3738,-2569,-601,-2353,-214,-380,2357,856,1507,994,870,-3765,1547,2346,-3210,1583,881,3563,-2515,1782,-2395,-1166,3775,-1042,-662,-1141,4395,-2776,-502,-847,6492,3611,-584,-433,117,-3076,-492,-2257,325,2103,-881,1176,-9630,5095,845,4887,-1557,3521,1096,-1225,-6800,-2346,109,-2931,-1212,-632,-1285,-3841,904,2597,1676,-2503,-1079,-3603,1976,-3954,1991,-1426,3105,-3350,121,3178,110,92,1007,2151,-1490,-1491,-4598,1672,-4244,-2019,3251,-1368,-2355,6823,-686,-1018,-3956,-1774,-2163,-1402,567,-490,-1731,1689,-899,-332,-2382,1840,2885,-373,-4123,-3263,424,440,-3440,-1555,3390,824,-492,-580,-1586,-3021,-2144,866,-381,-1938,-2695,-1815,-4466,430,-1542,-1066,-2161,276,392,-1126,-2189,4175,56,-460,1263,401,-1492,3362,679,1197,-4325,209,-1387,-424,4553,-3,1321,-582,-1090,-1001,-247,-108,-665,-5038,4786,-41,1221,-379,-380,-2883,-562,2882,-226,-548,-1344,1463,1042,2277,-2998,3323,811,3106,1116,-3372,849,-1444,-54,943,-916,-2772,-3595,2986,60,840,-179,-730,640,-2140,-564,302,1340,341,2620,880,1313,3542,-701,-754,-1314,2067,3977,2597,-3066,-2918,487,4128,1381,-1364,5164,-1687,2570,2272,2019,3457,-3330,-1492,3489,2200,2485,1772,-1505,-1466,1527,924,2293,3127,2928,-648,2015,-4907,2863,3103,-1907,3125,3228,565,205,510,1037,-1763,-2527,1546,1352,-3320,1613,5433,2935,-1542,2213,3853,808,2780,-755,-5219,3210,-133,-6075,2606,292,-4464,-920,3551,5674,-162,-264,-234,-6802,-2578,6087,3739,-3481,133,7861,2364,2367,5451,1593,929,1141,-1468,-1322,-194,1937,580,4286,5612,-351,3278,-1720,3320,-1658,1353,-6781,-3249,1935,-5597,-2231,-3171,554,3312,-7104,-373,-2623,2611,3794,-1053,2176,-2457,6409,-2041,-31,1858,2149,-49,111,-2844,-1840,-639,-3542,-493,-3957,2097,985,903,64,-644,-1755,1356,-3690,484,4484,-376,-1445,-3136,-1385,1089,639,1055,1946,-3642,-3250,1571,3887,623,1799,-4827,-371,1799,-3954,4,995,-1300,-788,522,1339,-721,-78,3065,-2696,-3234,-1461,-412,437,-2086,-727,1016,852,-690,563,2593,-1656,-5164,2743,135,509,10,-498,1196,-782,1076,1993,4166,989,2895,-2000,382,2020,-528,750,-4859,-773,4274,-4265,1192,5211,1433,-470,2212,-1476,211,3075,903,-941,1244,-2152,-1279,-939,1874,1258,-6119,1950,4893,1516,-1679,1310,-199,-1756,-1537,2085,-1818,58,-1623,1298,4417,1083,1693,-296,-412,-365,2931,-1856,-21,1508,2294,1825,-923,947,-1193,1507,-2649,-846,-329,-2802,-394,-5239,1797,-2873,684,-5168,763,-51,-4309,-1061,1539,-4180,-1644,2982,-5687,1242,1347,2602,-5027,-256,2161,3221,4186,2574,-120,-2073,-5048,-1102,2592,-2227,-2378,2198,-3006,2416,-3162,-5081,-1121,1809,-2849,1499,1348,-300,-3485,-2578,4703,1175,-2319,249,-1290,-1876,-445,2683,279,712,-3064,2791,564,-1836,61,-1359,1703,-1645,-1528,-3861,-5970,-667,-2610,-402,2480,4461,-986,-513,-3793,-416,518,-100,3225,1869,-3758,-59,3189,-22,4427,1818,543,-3534,-1974,-4345,-1016,-3470,-4700,2187,-4181,-227,-888,-5631,-5630,2573,-3695,-1560,1845,-1192,-554,-687,-2379,3007,884,1460,-390,6126,-3013,3558,2907,30,448,763,-288,-2522,2005,3656,-2296,-2355,-1011,-1051,264,4154,-2879,335,1254,-266,2672,-2678,-924,2676,31,-479,-2145,2631,1477,655,120,-7884,-5998,3230,-1664,617,-3132,-649,-256,-2337,444,445,7968,-1111,2670,2636,-2665,-1961,-2380,1997,1055,5112,1716,-668,-818,1993,1960,-2727,-117,-1284,-500,-867,1140,754,-194,-1235,194,-2484,3480,-3583,-661,-3474,-6,2206,-1406,-3148,-477,-158,-797,148,1423,-882,-2492,132,-2177,355,220,-1400,-1529,-670,944,386,-1071,802,636,-2750,4484,-598,-201,-827,-1626,1626,-1350,-211,-1562,-5045,3062,-3059,-3790,205,-256,-1135,1447,744,3134,-548,1440,125,-1874,-1772,-1385,-556,5277,2268,1813,-3429,1235,742,-3205,-278,1485,-3929,-183,-1572,-4291,-1250,1620,-1836,-4668,-4246,-5524,-2259,-273,-341,242,-3200,806,-172,535,-351,-4556,610,-1661,-2683,-2120,925,269,-1383,3759,3346,118,-2529,-1924,-507,-3434,-5226,-1386,664,1242,1580,-2538,-4245,1302,-1930,1390,1418,2013,250,50,-2794,-1006,2514,4900,-5769,-689,-1088,2088,-1174,-217,-3737,-1708,844,1148,1966,-3222,88,-2881,621,2380,3933,-4509,1895,-422,-3059,2352,-2675,865,1987,975,834,1307,-6508,3457,-3207,1767,378,2577,920,4076,-2904,-1529,512,-5070,-4726,-299,-2035,-4969,-979,2410,2516,2096,-2480,700,-109,-2319,-872,2688,2529,3007,1320,2049,-987,401,907,446,4359,-2504,178,507,-2847,-3025,-226,-764,270,3599,-424,463,-914,-2755,15,-3886,3048,-1962,-3377,7100,600,2356,879,-1022,1245,4547,66,-635,3284,-964,-3019,-2341,558,-187,-476,-680,-1983,2600,-1631,213,-574,-2324,-3682,1727,-5950,-1340,-2656,-317,-4397,-1899,1344,1874,2018,-2374,284,-821,736,1900,-2251,1813,-528,-462,-3018,-2385,-890,-702,-1596,203,505,-2489,2464,-1123,-565,2241,1592,3717,3342,-481,-1436,-2378,85,-418,1079,-1420,-756,373,-954,-744,432,1195,670,-515,-1555,1979,1538,-4013,-959,-560,-4065,1708,-4590,1007,-1450,2625,-1418,-341,-5208,-1027,-226,-3148,924,1890,-1416,71,-129,-1159,-810,-3425,-3891,1062,3925,-1616,-2369,-544,1424,-1948,1059,2224,-336,-2330,-629,-2296,-292,871,548,3185,-3219,316,-589,-1664,612,2089,23,-3402,1559,2010,-2620,3077,3323,-1784,-1045,3000,1471,2108,-399,1717,1495,57,-274,2307,463,113,-2156,110,-1639,-4778,-5044,323,1355,295,-84,758,127,-5044,1264,-3475,-1301,-5922,-933,-456,1866,-1250,-3400,579,4798,-3474,97,-2032,-5517,36,562,-545,-3055,-4881,7565,3559,-1013,-971,476,-6076,1449,-925,-624,-3550,5179,-417,3800,-1580,3229,487,-5074,88,736,782,-5401,-2543,-818,-1167,2138,2416,-2551,909,-2452,-3305,-5090,-3200,-2949,1166,549,381,614,-5148,-1159,-3496,-1179,1290,-219,-2131,360,1375,-2507,1198,-4293,-450,-560,3338,1153,989,-1857,641,-2088,-1137,-1049,2397,1579,695,-1654,698,-1837,536,-27,-4264,-3200,1658,219,2602,1870,-1601,-1002,-988,-4047,1757,3973,722,759,-945,-602,-818,-189,-4181,-2337,-5022,-3594,-1518,-708,649,-3904,4301,466,-2888,-829,1930,-2778,-1303,451,1274,1952,1448,1817,402,1025,2969,1312,317,1350,-1,-249,2532,623,1038,700,-675,-354,803,-2814,-3021,2571,-235,1707,-1447,-497,-1919,2610,-1039,-1757,454,-1503,226,-578,-201,-1232,2450,-188,1543,-4143,313,806,-1130,1151,-2050,3497,-499,-241,1082,-229,3142,9,-760,419,3214,-1057,-866,-3645,-1283,2471,3002,3963,6575,5773,1628,-2877,-899,-2167,493,3614,-2176,-1293,1487,2841,757,564,3542,-1479,-2378,-5023,-16,5250,415,-310,-4086,1025,2813,-645,-1794,164,-1511,1124,594,-3064,169,2220,-1882,3470,2422,3282,2677,-906,-4265,-224,571,-1266,-1338,745,-1481,4045,-1035,130,-1479,2030,3459,3659,-342,5810,1617,-756,396,-1863,7683,2876,1492,569,-367,-1328,555,-2523,3197,734,-1068,-1753,-1270,-2691,2917,4101,466,1210,-1120,5381,-1457,-1167,1068,-2082,-705,3609,3002,4777,3359,-2187,3901,-884,138,-762,1526,2339,6287,68,4095,-385,-594,-1469,-702,1384,-5111,434,256,339,-1276,-773,647,113,-2831,734,594,1934,-324,6088,-42,455,-3425,-5035,1293,1123,671,-378,92,-110,-2488,-1261,-343,-616,-1946,4387,-1916,-1053,-1604,-1704,2225,2036,-874,-1466,1898,-121,-77,-728,-1557,1545,2616,492,2876,-219,-431,-437,-1312,-2612,-1132,686,3411,-201,3722,-764,1855,-85,-174,-1381,1670,1501,961,-1066,1588,921,636,916,414,1482,-1346,430,-2213,2083,3581,-70,2490,-881,1859,-185,-597,-814,-2263,-2700,5465,792,-727,417,3215,872,-383,-224,3276,3863,940,373,-69,-400,91,89,2854,987,1043,1326,62,-1091,-359,1290,-4384,797,-1285,5426,-474,768,889,-406,2329,-961,1371,-1795,-827,-2235,1887,-308,767,-193,915,6265,-1509,-2375,821,-4971,-2495,-2903,-4965,394,141,925,-481,891,-2212,-1955,188,-538,-3009,454,-204,1404,-5285,-2476,1315,-169,-593,651,-2223,732,-1978,-1831,-2421,-73,-104,507,-572,-2545,-1367,-1763,-697,1773,-3353,458,-6204,-2988,1325,26,133,2420,228,5570,-2019,-1615,-1257,956,79,-2324,-1286,-941,-98,-3217,2024,264,361,1339,-1282,-4227,-890,3539,668,1589,-1457,1039,-4316,-1495,591,-134,-222,1181,-1449,1037,-703,776,-1988,-2165,1052,-1616,-1643,-1929,-4665,-561,-1954,-221,-17,-1181,145,-745,3439,-500,-3088,786,379,-1991,-5029,-4079,4199,-109,-1118,1401,1383,5593,577,-1027,1164,-3574,-1175,-3656,13,-1147,-1820,-979,-857,166,787,-1018,299,2210,1002,658,-82,-1312,-5284,650,-2594,-4353,900,1918,-230,-1118,-168,-4096,3269,-3215,781,2215,-2219,492,1968,-1494,-2029,-2184,1341,-1982,-1208,-2865,-259,-1619,3177,-591,214,-41,3589,-200,-1049,2946,-6089,1273,-4485,483,-3160,787,-3187,-2861,793,-107,-506,-1146,-992,-1792,-228,-505,1974,-385,2272,556,-378,-1967,-1237,-2494,-73,1761,-1179,-1198,-3689,-773,-1286,-27,-741,-1014,1473,2478,-2131,-230,101,537,-488,-1959,-538,-311,-3021,-154,294,-1534,1034,-409,282,-68,1872,209,-1051,987,2820,3154,-5323,-332,4901,-465,1432,291,261,6074,-3771,3096,-2149,2136,3199,-3277,-1931,476,-980,708,-1102,343,-719,1211,582,-850,3194,-3346,-2403,-415,1509,270,-1737,310,3225,1167,-1620,-615,1379,193,45,-124,-791,5424,1167,-72,-4488,2042,-263,1103,-1151,449,1640,2103,1425,-924,-2891,-400,-1767,648,789,-55,311,2833,150,-1008,-1033,4132,-284,-563,415,1702,6,-3450,562,274,332,865,303,-1803,602,209,-4499,3476,148,448,3004,-7963,-2759,1630,752,1473,1794,6734,2464,-3506,-1057,-203,1875,2867,-2546,1336,-4293,2305,-1374,2388,-2519,-821,-684,-2190,-3215,-1652,2120,-3058,291,-4292,3579,-3233,-2176,1052,2738,-7432,1937,1744,1027,-1910,-1852,1502,3460,4231,-3846,2366,1192,-4711,140,3065,-1005,-4069,-1676,1427,1997,1245,1325,-3728,501,20,155,5309,-306,2355,756,-864,-1243,3422,-1946,1086,-2096,-958,-795,2791,945,-416,-2485,438,5323,-737,327,2911,-728,-523,-2500,3165,-1105,-1157,354,-1086,-3475,1194,-814,-801,-536,490,-2169,-850,336,-1029,921,1181,1952,-2592,506,-204,-2915,145,-2431,1821,-3602,-1423,1704,-34,-3356,-1796,1704,1090,-1962,-2436,-145,930,2465,1459,2015,176,-2195,-327,-1670,-480,-2164,-301,779,-2043,4462,-1124,-1348,3796,-1706,-990,613,328,581,813,1587,-2397,2618,35,-1057,1141,1918,917,-714,2495,1701,-758,1097,-742,1052,-1046,458,592,440,-745,518,-856,-408,1409,-1403,-1072,-3080,272,1031,1389,-1733,599,-2840,1756,-26,1812,-216,508,-622,-471,2884,1031,967,3881,2575,3808,-303,3525,-940,2482,3269,-783,-3786,-2776,-3138,-3691,-712,-130,-89,-119,-6887,157,1326,777,-31,1024,412,-893,1034,-242,1594,-1975,1472,3668,1365,932,-2952,1687,-302,1658,-2018,925,2399,-100,840,846,2234,6158,3287,1046,-1663,4623,-4,-720,1578,4353,2402,1138,-443,5,-1199,-531,-120,-4550,804,-3041,1477,-521,-447,3687,2499,2340,366,-2243,-4212,3444,1223,-600,4309,-1946,-952,922,60,-1408,-803,-749,4886,-1802,74,149,-1716,-1279,-553,-1686,3419,-683,-2202,-2067,-303,-406,-1438,-575,-1509,-800,1410,910,518,3920,1679,1583,139,-538,-444,7630,976,-910,-13,668,3658,1693,936,-2874,-1278,2986,2219,182,-153,3010,123,2297,-170,-1246,-3337,217,3220,-248,44,1711,261,1646,-5847,3255,-1429,508,-989,-399,-4804,2269,-4071,-1688,-241,483,-3403,-52,475,135,4143,1637,7189,324,572,2149,-2211,2014,-1271,-1352,4131,-266,-2132,681,-1283,453,-1405,-991,-660,-2923,341,1069,-1043,-1562,936,32,-678,-546,-136,-51,-3014,2310,2346,-984,2570,-610,625,-1222,-602,-1532,-2016,-2292,-1171,274,1854,170,-2380,1357,-935,-1800,-637,1855,-875,-105,-2407,-807,-3010,1286,494,-242,329,-2016,1070,-4662,4105,-3372,1568,730,386,1852,-2094,3122,-1506,2787,973,571,4640,2391,-3537,-4496,-977,-436,1386,-1633,4383,415,1736,-499,-3483,7046,-3946,-1254,-1867,2036,2344,1082,1972,5049,1859,-2002,2265,-1474,-414,-1488,4483,-2542,-245,-1009,348,-5012,77,543,-1576,-392,2760,4790,575,2203,-3202,601,1950,-2280,-1853,2932,867,2681,2437,625,2017,1257,5205,1681,59,-320,1470,2626,-1561,-431,-5243,-4893,4075,1615,1979,-2477,-12,-3461,4369,5109,-1774,4622,-3994,-2858,2740,1779,3883,-22,-970,11768,7119,-3878,2019,-1249,-2910,-1734,-2631,-1575,1695,-2871,-29,-66,2470,-1922,-2623,263,4648,-206,1890,371,-228,-2403,264,-2015,1830,3270,3825,-438,128,917,2793,-576,4013,1799,4219,-1958,-1626,2401,975,-2480,5219,3861,-870,1082,-1363,-3764,-1085,-7564,-1623,1104,3293,1164,4727,-1463,1134,-619,633,780,1940,2348,54,-1995,-707,-1549,575,-461,-2236,-7906,1003,-2518,-348,5218,4225,-119,1203,-3706,823,2406,-163,516,-2247,-279,-797,2881,12,-103,-3390,4086,3593,-2053,-3097,-8797,2628,-2905,-2730,384,4114,-2287,-6334,1729,-375,-185,-2875,-735,1853,-990,1324,1207,-359,-990,1634,4242,-113,-1274,1287,2587,1586,-136,824,3158,-496,696,4806,2096,1484,1287,-837,725,-1369,635,-186,2659,1715,521,421,168,-5850,-33,-1447,-890,78,81,-1203,-1285,1220,2232,-379,-2129,249,-661,2185,254,878,-1993,-405,759,-1229,350,-289,2619,1413,647,698,-1160,-1509,-715,1433,1822,21,-1026,1263,416,1742,289,-828,1332,-1882,-1260,-846,-2855,-5984,-3203,66,-2259,1498,-374,-1638,460,-2799,-756,-2213,2655,3702,-930,-2408,181,-3240,-834,606,-3251,10,-1073,456,825,-557,-2026,1387,-4734,173,106,-6285,446,-165,613,-12,56,-1668,2329,901,-875,-3043,-141,-2264,-5417,-735,-3632,-1291,4122,2329,489,-5468,-1227,-1132,-2603,-1129,-16,-1810,-1755,5715,855,-2809,-2092,-4001,1929,-141,-423,-840,183,-4964,501,-267,-729,81,-2878,-1379,-1425,928,1446,-2561,-4483,-791,652,-971,-1884,2198,-6315,-146,-1766,-545,-750,-4678,-2674,284,1124,2653,-104,1604,1206,1104,385,1303,1838,-225,-1150,2715,-1353,93,-1248,1994,1261,1206,-1405,408,5,-23,80,-368,-1679,388,-202,-4269,-1027,-1,-1851,-275,1246,1129,493,2966,-3320,-226,-1693,415,-4537,427,-3405,-183,-603,448,-910,233,1706,-184,357,1798,1007,2258,-4214,2128,-138,4820,-1695,4063,1317,-3334,1334,3726,-1113,-1272,2853,-734,3150,-172,2197,-1101,-2090,-182,-947,310,3007,-3679,-1126,1523,-452,1053,-42,-3058,29,70,-2984,-227,1381,1663,-1061,841,-779,699,-448,-282,-227,2798,-944,215,717,-870,-535,2374,-2072,376,-876,1510,2690,-104,-1092,773,-1776,-45,-281,-1121,127,405,-1626,428,-1450,-1253,-767,-1206,-1147,432,-323,2030,5322,4153,-1267,408,-1971,-30,959,-229,-3268,-622,-2239,4931,-506,1428,-727,1500,739,-5128,-328,150,-417,474,1263,-969,1926,1622,-3277,-1158,156,-2532,2698,-3817,-446,-670,-624,2587,260,6735,1450,-3415,439,765,1255,-1718,-6269,813,-2565,1598,-2125,-3331,-1795,-3283,-1188,1621,-393,-775,-3618,-2964,-2601,966,4028,-3039,6,1012,-1753,-699,-1432,696,-6301,-1957,-1101,468,-7,1140,-2505,-1515,-1023,4499,938,2200,141,454,464,1135,1532,6015,-725,-1628,6269,-1227,1360,-4642,1459,895,-27,-4571,1630,1888,-2224,-4708,327,398,1349,-7529,-10522,-1291,-1232,1215,-3284,-1103,281,-3721,-79,955,1657,-27,-3602,-483,2027,-5922,-580,-1172,259,1451,165,593,670,1475,1263,-17,-3186,-4122,720,-1713,1146,-3234,901,-3544,-2052,1773,1080,-684,1856,3178,-2018,-613,178,578,3161,106,-8382,-1573,1583,-1069,-31,-3748,391,1012,-2192,4281,292,7186,283,275,-933,2309,-2709,381,-273,2454,1957,-823,4885,-436,1752,-278,-219,1853,-2655,73,2101,1920,761,538,-1477,-902,1349,-135,-1462,-2644,-863,978,1614,-825,-1741,890,1775,275,1114,857,401,-2175,-1220,1150,-1454,-1016,-1844,100,-1077,1524,-698,-2709,-382,1134,520,51,-1945,7453,930,-3335,1308,1600,515,59,-4672,1639,-2341,1004,-2889,-2417,222,343,558,1652,-1145,362,-1254,-863,-3470,-74,-2779,-2163,-629,2515,1679,2390,-556,-1016,-2108,127,-1808,-2029,-1598,-664,4965,1292,-1567,-299,1324,3516,2966,3122,30,895,-457,2756,2580,-278,1583,762,325,-1681,-446,192,593,-1415,-2317,-3078,-1351,-2682,2638,6866,-854,-4034,299,1419,-2532,876,-2871,71,2054,-2797,-299,2495,591,873,-1578,-1595,3130,-877,-597,4237,975,-1145,1731,-2527,-3336,2170,-811,-1607,-952,81,-261,-35,6926,-1132,-155,-6194,-814,5139,-2460,2080,-2271,508,2083,-1099,4352,-1254,1744,14,-5335,-2481,903,351,313,-2087,-3538,2941,420,3480,5637,80,-1520,-4874,2022,2590,-1840,1164,1224,2052,-2977,1323,1827,-2961,-593,1956,-1783,-2390,1954,-336,532,-67,1577,591,-1518,-3249,302,645,-862,-2009,-1022,-741,-1051,-2214,-3122,3649,-107,-1885,2302,-4224,428,-351,638,-1097,680,-12,-2154,1085,986,-650,661,-1341,-223,2099,1597,825,-1566,1823,243,-3245,-204,-3234,-341,2077,157,1129,-1752,-598,-796,406,-56,-3049,-289,3176,912,965,2276,828,1235,-1063,170,-1089,-1897,-420,1430,503,-2881,-915,-323,-758,-225,2447,-1018,-1076,739,2394,-713,-2158,186,-3453,809,72,-2798,2354,720,-597,-311,-17,-291,-2470,866,1243,75,2361,693,5548,-1188,-4401,-1851,2308,57,-373,-2913,848,761,439,41,-59,1592,-2160,-236,-654,2240,170,-74,1592,1152,-255,-32,-1088,-2352,974,-2502,1228,817,1630,-2879,-1080,1799,-1997,-5150,-3027,-1049,647,-2048,-2576,-3440,-493,1685,-568,6028,-661,1801,2474,-2672,2558,1088,1495,-2315,-1351,-3093,-2972,-1013,-823,-1337,2947,-772,-3825,2392,-3821,1021,2631,396,492,1300,2685,-2486,-551,-4073,-957,-2008,-4057,762,-2855,187,-389,-192,-1091,4182,-191,436,2849,1088,-2023,203,-438,-3446,-1891,1817,3496,1784,-1493,-401,-48,-1614,-2556,-873,-664,-2611,1478,-3414,-33,-2511,939,943,-10832,-1194,104,-266,-2131,-866,-454,851,-1263,-2134,-250,-2271,-896,2975,1421,-1351,2234,1998,1442,4706,116,-492,590,562,-1052,-1184,-3308,1910,-3196,-94,596,-569,1853,43,127,-2392,-129,1615,-538,294,-449,418,-1998,713,1926,219,630,402,-2624,513,768,78,582,2032,-670,1548,678,1020,-3529,-2056,7095,3180,-240,-132,-1003,5336,1839,1143,1409,2458,364,1005,2413,692,-228,-2408,-4542,19,-746,316,-1700,-694,-331,-192,-298,1352,-6116,1939,4015,1355,-1626,2472,2958,-170,1755,60,236,2456,-1852,44,-2834,-3593,-1900,2372,-764,-1041,1346,-2313,-812,-2701,-845,-1596,857,-192,1273,-1550,934,-1775,62,-1234,-3705,2628,880,-684,-799,1002,2191,2934,310,-461,3783,1381,-2084,1564,-210,-2545,1279,1553,-1264,1360,994,2150,51,-780,806,-2206,-136,349,-311,-1220,631,1950,-1062,2876,2328,2912,5247,733,-930,1337,-1967,-636,2900,1454,-1234,3372,3527,4038,2403,-1353,4047,3533,-1762,-1486,-406,-1016,-624,-64,1952,-868,288,-1432,-850,378,1824,1181,2589,328,-1082,-1884,1766,1323,8237,2250,1585,575,-274,-567,943,-4198,310,653,-105,-3013,-1415,-815,-259,1596,17,1595,-2552,4108,12,982,-1225,2149,-164,123,755,-72,-203,168,4203,-4188,242,-60,-269,-1695,101,-2065,2610,-713,1712,2122,-2592,-1086,139,562,5544,-777,297,-476,-1118,6758,-914,-495,235,165,792,-790,1963,520,1933,2773,226,-133,2087,-1805,-235,-3670,1017,-80,-245,1947,1999,1243,-363,712,733,98,1126,2144,-180,3104,-13,-1797,-2201,2011,1194,615,5044,-2051,1966,3320,-15,-2140,1384,424,-1287,3121,-4376,1975,-494,-1548,1202,-973,-1185,1233,3558,2817,-1663,-1472,805,-721,-1403,2487,2131,-3351,898,-1822,-3944,1028,1009,-4172,-693,697,2669,-144,1957,-473,-735,-273,24,-1046,-533,1176,1568,3909,-1795,142,-1046,-4056,-1595,3083,-114,582,620,360,-777,-145,1258,1029,1782,429,1502,-664,414,-45,-1134,-1802,1020,2057,-209,602,-133,863,1687,-645,3825,833,106,1754,2,1235,918,-220,-622,1525,-1544,1095,-800,-1201,3766,1085,-4126,179,-2105,956,-1039,-5463,-467,-27,203,-625,-727,-132,63,-1081,1282,-1601,-358,189,-281,-812,-2052,-3685,-4409,-1676,613,-2674,3976,-459,-571,-518,3076,-992,-4325,-557,34,3372,2191,-3209,970,1891,-1606,632,1828,-2166,3438,-1266,417,1334,1941,-1023,-907,-762,-5222,-3497,1817,1444,1351,-921,-6841,-545,-469,-2974,796,-1367,-1230,3644,-1094,-205,-451,2314,21,-184,2711,1207,-143,-2232,2958,759,2662,4154,-1809,-3104,1915,-933,-1178,250,163,1803,501,2939,1517,-1080,2490,1408,670,1273,1280,593,-5811,-2636,-775,-37,1173,-1156,-1465,-326,-2902,156,1728,-5740,-1157,-3036,-1254,-2182,-1637,-826,-1919,-214,-1794,2931,1977,-1569,-359,545,723,3335,1064,-784,-1359,5263,1046,1905,2632,1507,-2790,-3548,1312,-390,-70,98,-91,-846,1679,-1836,-1614,-105,-1870,868,-2605,-2713,501,673,-2100,842,917,-2583,4357,-1573,-1447,-672,-2884,555,402,-3047,-1295,1267,2175,4184,-1395,-1390,568,3758,462,-1341,-1552,1752,3655,-1140,-999,2240,-2735,1003,-2917,2725,2290,3525,1247,2914,-1801,1246,-831,979,-3301,-2087,2545,-858,-475,2184,5421,-431,-493,-1237,-312,-1053,89,-811,455,-202,-2484,264,503,453,-939,-826,2375,-895,1155,-2491,-1890,1351,-907,33,2756,1791,1771,-462,-277,-2187,1739,365,-1446,35,1276,-568,63,972,94,815,-6279,440,1920,-1176,650,-1840,289,7090,228,2496,-1447,790,-2331,-38,-825,414,-2514,83,-2955,362,815,-340,2488,1159,-1305,740,2465,3469,-668,748,-697,-1131,2618,1256,1044,-2954,2360,1258,-3070,-1313,-1173,4142,4715,819,-2995,-1360,-2008,1980,-3114,1997,-2699,-1260,-1452,4127,-1138,3378,1460,2773,-7542,-6071,-2307,-5401,2398,468,-2420,5697,1931,1948,-711,447,-1393,-848,1537,1796,1689,-1022,133,120,-7427,-989,402,1977,2445,19,-773,-1633,705,2182,1266,-256,-542,2140,3869,2926,-84,864,4750,3828,2199,1474,-210,-420,-1436,3892,342,1335,-296,-1,3404,2978,-3279,4743,-1378,1859,-2782,-2110,188,1501,-4850,-4594,557,1632,4193,1366,-2501,2489,-3927,355,1796,1025,-515,-1397,4274,4823,578,-3170,-2354,-590,-144,-1639,2850,-2467,-1705,713,-1110,640,2191,1293,-976,-2414,768,1435,2007,3930,-2326,-1265,-1377,-804,-16,168,-1946,1468,2213,-248,784,2814,127,1018,-1093,3778,1305,-1603,-1147,436,-2024,1044,-4866,1560,-294,-1763,-383,-1608,-36,1045,-911,1619,6516,-1556,-1373,2686,-5950,428,-1836,49,-3259,-612,3209,-1873,-4431,3990,4336,258,264,-742,1850,1895,-717,-184,1437,2031,-69,1471,-1246,1814,-373,-492,1733,-1711,-3340,519,-278,2840,558,36,-3633,-1,205,-440,-783,1638,906,-905,-435,1442,159,-21,-329,-4539,-351,668,2909,-4576,-1272,-440,1667,-184,-1342,2995,-1242,2197,-814,847,2182,864,-1480,-387,-3275,495,-3184,-593,1556,-6715,-2999,-332,2071,1114,1428,-3131,1471,584,-1333,-496,1219,1015,-1065,-2165,-5024,-1041,1466,1105,-3700,3788,3502,2145,-1064,-879,2979,-2003,-3210,95,1087,1818,-447,-2688,1574,-578,21,3195,-516,-6731,3880,316,881,797,176,19,-4262,-3004,-2139,-1298,1894,-1231,1405,-4055,1508,-146,778,1299,-589,-209,-388,-59,1379,2700,2899,-2140,-1215,1265,403,-1301,-2416,-1909,647,2985,1923,1298,1957,-2690,-4113,1631,1723,3034,139,2241,859,-1659,-2006,-2229,1589,1580,1178,24,5244,-7307,2172,-611,4368,659,-3454,-105,3306,-4772,1966,4496,-4412,-3061,1166,-1305,-862,-310,2463,-1444,-315,-3441,1688,-523,-486,-834,-1610,6790,687,-1791,2947,-776,157,1220,-763,4404,-2857,-163,825,-3427,-853,1899,-1595,-692,5909,-1296,-899,813,-1123,1689,2780,3617,-827,-3613,3462,-2474,3996,-1854,1821,2018,1244,227,551,5797,-5453,613,-2877,-4296,317,-597,1702,-1606,-1166,-1058,-1351,-488,-3353,-2796,1346,-7207,-439,-1125,-679,-3294,-2645,1208,1319,45,-902,-130,-444,579,-143,-1550,110,-26,-1231,-4023,-2909,-352,1488,2555,161,210,2447,2224,-365,822,473,-15,144,2363,-1725,781,-1821,-72,-403,6,1321,-561,598,242,-63,31,1240,-1118,458,221,3646,784,-2646,713,-436,403,761,-2489,778,190,328,-842,-28,-2876,-1242,1039,-621,171,868,568,121,-5082,-784,451,-4486,928,1403,-258,-2102,-2217,-5548,-1418,-1231,-1603,2083,217,-2151,1094,-1567,-1261,-103,-1207,-1291,-2261,-269,2025,1371,-3302,-2911,2016,1230,-100,-1598,-1767,-297,-2093,2181,1986,-1281,-5415,-3389,-1650,319,-2612,-1802,1779,1689,-2069,-3756,-1938,-118,-2135,-4094,-2233,332,1631,-3887,-871,-66,-1574,-514,-1751,3556,-92,-1516,493,236,347,-1905,-3475,-7158,-1856,-601,-534,3405,4155,2974,-931,347,-265,2971,-4748,2212,-968,-3622,993,-64,449,1582,3241,4361,4613,-184,2858,1435,146,1939,460,-1316,-367,-2376,-2551,479,-569,1817,-1202,512,-1493,-785,-3383,3,2037,-3244,-1333,-746,2577,-2674,-372,-660,2775,1012,-4977,-1379,-306,4271,931,-2525,1358,635,4506,-3205,-1880,2000,198,-367,2326,936,280,1784,1141,2213,-482,-3324,-25,-38,-423,-2187,-1120,5509,1222,-457,1322,-105,2404,2450,1813,-842,1487,414,-4068,777,239,201,-696,-662,-174,-3226,976,-1711,-1732,-2109,-501,-716,2511,-4098,2411,2014,643,1943,-1260,3035,-2217,-173,157,57,-2057,1035,-520,547,-568,-3104,-738,-1103,-3182,6,-960,-1859,2118,-5104,-2061,501,-10,-3154,-2168,-271,-1419,-2073,698,188,2540,-814,134,96,-1585,-1344,1270,-235,1187,3300,-4721,-1001,-2279,-2353,-1647,-615,-307,-3509,-760,-1370,-538,134,-1763,-1904,-2507,859,-59,-2140,-1487,-2765,-2713,1044,1720,1923,1459,-832,191,-115,-4079,-7190,323,2827,-2906,-3703,-3019,1463,389,6481,34,1131,-1961,-462,-4903,-3589,-6741,113,-1404,-6618,1309,175,4078,-2603,-2083,-2670,1838,510,-290,-4189,-4582,265,3127,-6744,1608,-2165,-3955,198,-1875,5043,1847,-1365,1432,-3114,1680,2314,-493,-1592,-408,-3491,-5950,1068,-838,2122,-475,4037,494,-1796,1492,2613,-1502,-3729,4464,3309,-1830,536,-1998,-927,865,-917,2743,119,2404,1371,-5373,-1236,-2662,-3100,-1581,2497,264,829,1724,-963,-1446,-257,7952,224,-1822,-5097,-1978,-2338,1140,-4419,2481,-1381,-3987,-604,-2139,172,521,904,287,-1790,3360,2450,2331,1204,2623,848,-1585,419,1921,788,-1238,-1984,-1430,-2517,-130,138,-347,4753,-1439,2870,3311,-318,-179,1780,939,-5565,348,955,-1409,4024,-2408,-2854,-4018,-861,-1040,4517,289,-3,-604,-1551,-3261,-1469,826,582,-2172,4728,-294,559,3285,-2063,968,-2451,1286,-931,-1356,-2173,-4075,52,4347,-2230,1225,-5119,970,2093,80,2438,-2415,-6569,2265,-12,-444,1332,-1131,-2510,-2550,1001,-291,-4483,6407,2167,-1702,3463,-6632,212,230,-1404,-2046,-1216,-658,-196,-1937,-556,-376,-693,-1846,-27,163,1015,3842,-2396,1228,-296,546,964,123,116,995,10436,-1057,-5141,-839,-190,94,183,-1843,-1807,3555,-1033,3026,-3509,-2020,-481,-2685,-226,-1362,832,483,-288,788,1640,-5674,-3651,-65,9895,1390,-229,-1335,810,-765,-665,-242,3619,-4433,589,67,-5177,223,1979,329,-1689,624,-2103,493,-3619,1499,-1070,-863,-2666,380,2115,1673,-1037,-3637,-2481,3209,-461,2563,-1124,-3841,6842,-2363,613,1413,732,-302,-1960,-4170,-2902,-2063,3362,415,96,-3352,567,764,690,3668,2928,-1028,-1602,-835,2740,969,3484,-1729,-339,-2015,2282,-2251,-254,4220,186,-4323,5733,3033,-460,-1582,-2723,-792,2838,1854,-4409,2570,-3072,-135,-2422,2037,877,-4226,2568,-796,3573,-5803,-1119,3977,6594,-148,-2837,-1285,-2950,-2346,-1797,1775,-2310,-2069,-756,714,-5481,-5593,3532,-3906,765,-4475,-1357,-198,-1331,1178,1040,1346,-3877,-4065,2145,864,763,-230,-2092,-4640,-2713,-1218,-739,974,-4097,2674,548,-278,4761,-2367,-690,179,-2937,-1160,-829,3025,227,-530,2918,76,1564,996,-982,1547,-1148,374,-2450,1441,-2474,20,-2393,-3276,353,-3660,2244,-812,1427,-738,-1324,-7879,-358,-1053,722,-3049,2407,18,185,-571,-3294,2001,289,-1095,2496,-1057,-1336,1110,2263,1198,405,-42,1114,-2998,2741,-2294,-1714,1598,-38,68,3814,122,41,520,-1669,2537,558,223,2270,-12,-3923,1395,1146,-833,-55,366,-378,-161,21,440,2089,-779,-125,77,6409,692,-2777,8,1009,817,-490,-2312,-1039,1160,3638,1750,738,892,-2107,1808,-1459,190,2211,1268,-3505,1715,1875,8091,1401,-226,3555,-213,-1402,-121,651,1093,1781,-2029,4516,4521,-787,1922,50,476,-2659,-2403,1191,-245,-4006,1,1425,1292,-3343,13,1582,1118,-814,2512,1690,-478,-1541,1613,544,-1300,1504,173,5557,-1449,-2331,-20,1226,-191,-617,-2787,-1605,-799,-3099,-1664,-270,398,1054,-1587,-652,944,1054,-1349,4055,9355,1150,-2740,2,1796,-1647,-514,-2656,1870,611,-4554,5914,1769,-146,1222,-2069,-1206,-1637,-9171,-6363,779,-7789,785,3714,1621,3936,2180,1326,-1519,743,730,3156,725,1440,-1008,397,1292,-2536,-3607,1058,1075,-5021,1601,-2344,-4107,-2674,-6162,-190,-2739,-4639,-1306,-1343,-2274,-2596,1264,-136,-132,-1488,1173,1,-4251,-979,-2484,739,-1606,5302,2281,1649,1474,-515,1679,-156,3758,857,533,-941,1500,-1930,226,1103,1565,-84,699,1027,44,825,5021,-2451,2277,1518,-1929,-4517,-96,-1026,1869,716,-431,289,438,4329,173,652,404,-44,-2030,2361,-4608,-2408,643,6579,4324,-2140,4897,547,3,481,-2871,986,-1153,-636,947,3730,530,-1199,-2058,1302,-2175,226,-363,612,-861,20,-918,1102,-2861,-402,-1034,-1688,-1127,-2314,225,-4178,1296,-4931,-1513,1950,851,-280,-1253,398,-198,-586,274,270,-505,-1508,-675,2812,3829,-4057,920,1131,-2327,-527,-3738,-4495,360,-1346,-2969,1017,780,-253,-872,770,365,-602,-93,811,-1773,944,-1213,-5638,1998,718,485,-568,-1135,-1756,-620,2199,-263,-218,516,-2904,2492,-1608,-3862,1057,-1616,1529,200,1508,-1791,4470,-2854,-1092,1578,-1354,311,-753,-809,599,1041,-702,-6,-3186,-40,-7849,-2974,-17,88,868,-1581,1543,1848,-538,511,83,3460,3743,1331,596,-991,-737,-5960,734,-2152,2263,908,3619,-310,1613,927,790,2845,841,2081,-2902,3564,1706,-843,-45,-612,-1100,1369,-758,498,-1657,-1171,-153,-765,-674,-1118,-984,-343,-602,-1954,510,-2919,-204,-623,3081,367,-1105,-2420,1613,-4638,-1790,1397,3232,15,-855,-440,636,792,904,729,-143,-1834,1836,-2192,1375,-121,-2491,-8594,844,746,-1086,366,2220,-74,745,185,106,249,-480,1747,-1549,-3640,-3836,-96,1964,859,2361,863,4650,-401,3040,2241,-1664,-932,-844,-3051,-2328,1139,1182,-2440,-820,-3810,980,1427,2841,-1431,605,1752,3130,-1342,-1149,3829,-5289,-1245,-2804,-358,-4548,-3253,-2396,-2219,2617,3216,-5549,240,1123,-2575,-1419,3098,3639,970,-2662,-1065,-254,-1591,-588,-2173,-371,953,-952,-2229,-3609,227,-728,839,-1071,-1387,-1953,2477,-874,-1259,-1588,-972,104,-494,1493,104,-262,1391,-69,-395,637,1483,-187,-706,848,860,-769,-678,-673,3391,-8638,-227,2216,-1069,-1238,-959,212,1293,-558,2609,-1717,993,-146,-2662,-248,1227,370,402,-550,469,-1478,2568,993,3719,488,4779,-6,-1078,-26,-1601,1284,4910,-1011,-597,3455,3823,-1,-598,2525,421,589,-6550,-2859,-146,-54,-2196,430,2138,-6557,2306,2988,1267,-2594,1101,498,-813,-666,985,-2351,2575,3754,979,4226,60,-2925,-1216,1717,-836,-623,2458,-315,4179,-2549,243,1370,2973,1159,1178,-776,7265,1396,-837,3517,1459,249,6499,1256,-739,1929,-319,3540,-1926,2293,588,1263,346,-498,-2673,3987,1173,1283,-1430,-2819,1064,426,69,2507,-1073,-562,2172,1721,2302,619,1757,3665,1079,2266,-2339,-2420,4753,3204,260,4932,774,1461,-1647,-1000,-2709,-1981,6089,-790,302,-1759,-439,165,1811,-313,242,-1811,3065,-877,4048,394,-1755,-1493,-5233,-1182,-133,3184,-60,873,2854,-1966,493,73,3791,993,1978,-1975,579,1358,-2016,166,-2005,-729,-604,-94,2284,-932,1639,-3423,-1363,-2714,1012,1610,-1902,1232,-536,-1105,510,-123,-648,3133,-769,4503,-1009,1071,-206,678,554,1773,624,1781,-2253,1239,526,-1042,289,-62,-535,-1567,1437,-243,546,1867,762,489,-910,1358,1307,2416,285,107,-3285,-431,-777,-1377,595,1888,-2898,-166,-1433,2990,2105,-3226,463,916,-2080,2666,1922,-2023,1228,-613,-357,-157,336,949,434,-260,-13,3169,2104,668,737,1937,454,836,-937,431,-494,1314,661,2685,2322,1045,-1187,1402,-135,-874,-3375,1797,1736,-2499,-3208,-2784,226,1189,-2762,2010,1431,449,-3506,-3090,925,-583,267,509,1051,-3539,-1153,1639,1859,927,-550,2031,-4449,-305,-1586,-931,-907,2821,1607,-1191,1961,-2253,-330,-1690,1473,494,1139,-3827,-1955,-439,-2689,2317,1615,3483,1502,-4249,-2111,1771,2124,902,-173,2129,1178,-1291,266,2947,2059,770,-2501,-1963,-2651,-1427,2102,1090,751,-2988,1669,2235,1510,-437,-2975,720,-513,-1120,534,1300,321,-3012,-2593,1856,-2734,2187,-2146,-5938,656,44,-1860,1551,-5559,-756,2995,-2425,2451,-3701,-613,1842,-197,600,761,2825,-2731,-2595,1112,-1122,5617,-3276,-8965,826,-4200,724,-494,657,-205,-134,-2072,-180,-496,-2819,-2564,1771,-316,1378,-28,-2319,-6077,651,-579,-935,-2633,2219,1784,-320,1071,2181,-1633,2162,175,2116,2136,-1757,-747,1476,-4043,-825,732,-1548,-3516,-665,-3386,-1077,2688,-751,-3063,1519,-449,1610,-765,-1167,1760,1379,473,-6939,1498,-1316,-676,1713,3628,4276,-2154,-2333,-2150,2327,186,-1549,-224,2336,2146,505,-510,-373,-844,-1270,-135,163,-1117,-805,-1027,371,-2860,1061,629,-587,-1296,2963,-884,-163,515,-559,711,-2099,-135,-1120,917,-2308,-8,-133,-193,302,1537,-166,1100,1980,556,-1520,268,2102,805,-404,-1370,2633,220,-242,1377,1862,5702,249,-410,866,526,-1735,1475,1669,405,1084,1438,1376,1729,-671,5097,-342,291,1775,-3392,1038,3576,-2921,911,2159,7233,-4616,2235,4337,2854,-1233,490,-267,159,4511,-1283,2954,862,-1393,1933,846,5799,-2800,1344,18,3432,4621,-77,3023,8724,-863,168,-2015,-225,2047,-787,26,1719,4589,-936,7548,3351,936,-1887,799,-910,615,810,-540,1177,906,-1629,1716,4670,5179,3140,-1346,1494,-771,1785,1733,1801,-1647,-2312,3511,266,1154,252,857,-2040,-1901,189,-1602,433,1438,1967,-1837,1367,-1850,1929,2830,687,-905,-1379,-1804,-3396,3841,-3263,-75,-291,-1889,547,-1151,502,2377,5336,2606,1812,2514,-3689,247,-1783,2236,-4234,-2809,5293,1428,-1334,3188,1479,-661,198,151,-245,1262,7255,1255,-1743,-290,-1729,-140,4807,-578,-4365,-1705,-1510,2091,365,458,-3423,435,2207,-58,2579,4621,176,952,-28,-94,1896,1885,1329,-833,-1025,-1703,1389,-320,1097,-1109,-1475,1013,-12,425,-1312,974,-1497,-402,297,-1503,-1694,-3836,-1280,-2647,2053,-143,212,-1651,294,-323,1987,1656,-4628,-1187,-1911,-4586,2862,276,1535,530,-657,1186,-288,1900,2865,2608,3900,-167,1859,-736,-1967,-2403,-1903,-1501,-163,-69,-2069,1239,4017,907,3342,1280,1159,1385,2606,-945,392,1657,-756,3593,-742,-1283,565,-6710,-847,1102,-714,568,-1841,-1721,-1510,1580,346,655,729,-1449,2021,142,239,67,-126,1616,787,542,-131,3886,7706,2967,815,6259,4848,-2341,240,-177,3195,9135,2033,-635,-1593,1946,1354,3029,-124,2654,209,2465,2513,-87,-1217,1678,-1657,-3231,1912,319,1103,-2308,-2865,720,1679,114,804,1301,-3291,984,4520,799,4185,190,4913,254,1447,2967,2186,1509,-167,2222,796,2231,4314,-1014,473,464,2878,-857,874,1867,-501,-1637,-1806,2965,3013,-2274,-1224,733,3852,8527,2786,-551,-2772,-1287,-2062,-3065,2593,3887,-2304,-101,1281,-950,-3119,2345,476,389,535,-2250,176,-2452,-3433,-2434,-440,-958,1154,-1023,-1713,6249,483,-570,5050,221,5130,2192,2415,255,1151,-954,1097,800,-462,875,-1283,-3423,2362,2858,4086,-714,-4105,-1687,-1381,-537,3741,-115,-1475,-1844,-2739,3039,-5408,7678,3710,-833,-2253,5860,-1777,-2331,3116,-1371,-1012,1651,-468,-2230,-2222,-778,733,151,2585,-1730,-564,12,-1754,-1955,36,1893,-3645,3799,-501,-1266,3699,-1474,-701,-2435,-2126,-869,-256,132,-4374,1773,4155,5252,1215,404,-926,1788,-298,-910,-957,-746,31,-1427,-355,-56,128,2536,755,-1543,-865,617,3968,8802,-86,1160,-3278,284,1391,-875,-678,4561,214,-3226,379,2007,34,-559,-984,2724,-834,-306,-1058,-1629,-886,-397,-146,-1692,-485,378,869,-2962,2681,5463,1628,34,3604,674,303,-2180,5410,-1194,472,2665,-777,-1993,2854,415,92,2705,61,1142,-1804,2508,-287,64,-1338,481,1485,-1774,-1182,3240,-817,-721,2136,-5406,2339,146,1141,1716,4661,657,-3699,4105,-657,2676,226,3169,171,0,352,-5966,2750,-2056,-229,277,253,4304,-957,3714,-471,-534,-1688,792,-7676,191,2510,-843,-125,3633,714,-4532,-4986,2362,617,2276,1146,1703,-2304,-1211,149,-955,369,1682,-3314,10,-630,2440,5328,-3285,-812,-2640,-5499,-2325,-261,-4512,-6157,-522,-794,4249,6318,6033,-1562,-1994,-3452,-2858,1989,3268,2976,-2527,2550,1582,-1013,-3760,-1974,784,-3954,480,-394,2427,647,-8653,4616,-2973,-8094,-4803,2451,-3722,402,-1660,-1534,3454,-3206,-676,-1616,-792,136,478,-2735,655,4670,-4515,-4914,-993,-1939,200,-2025,-1258,-3527,835,3822,-443,-4743,1604,5167,-47,1591,2521,332,-908,744,46,1774,1739,-608,2550,-1890,681,3879,218,281,-2943,2252,-155,-184,-1678,692,-4338,1838,1383,1948,1429,-1215,-259,-2051,-226,2806,180,-860,-2694,1311,-3256,2384,268,695,-650,143,5789,-3925,2671,-425,-2413,525,-1696,-2301,1003,91,-249,2339,-3453,1462,-1261,1181,3519,-1474,1147,-1637,579,608,285,-717,3755,380,-312,-3572,-3113,416,313,-708,-735,-140,3854,-2756,-5,-1062,-156,-1004,-1843,154,-451,2158,903,720,2849,-7688,-505,-447,-922,1603,-2049,2485,647,-1972,381,-1517,-572,-578,-1764,-2274,1236,-1063,-1588,183,-919,-1579,-64,-2946,-2518,-1028,-284,-175,87,-2600,-2023,-1052,-1651,5338,-550,127,-3744,-1031,-3269,407,1844,658,-6083,1583,1600,-150,-213,1254,-1834,-3536,-570,-573,655,-6882,1347,-2410,353,-670,17,4378,-2851,-3418,-2885,1038,-1880,1567,1001,1146,-1189,-1688,-798,-5920,-951,-2986,-501,3017,-5969,-1524,2135,206,-2508,-1047,-6087,-2054,1090,8622,-3923,-1113,-6267,-1827,-1218,1474,1419,-1863,-2146,-1909,-7,3363,4398,-3641,-610,1354,4642,-3496,-4634,2807,-2494,-225,-1723,1306,-2112,-2699,-754,-1064,-2225,-798,-3003,-32,2854,2811,-822,791,2753,-75,2955,1441,4603,289,10805,704,1259,1327,-467,1154,-292,-623,-39,-2469,-566,-2647,2728,-1165,477,-313,-3514,949,2066,640,-805,-2785,839,566,9976,1500,669,-402,2057,276,1050,165,2297,1964,-2630,1036,848,-16,-230,2346,212,-2335,-1400,1583,-35,3127,973,-472,-157,-2280,1601,3068,2771,925,-332,-154,-466,252,-762,606,-3707,455,-2337,-2916,-460,318,-1799,-844,898,1226,-2872,-2755,2144,987,-793,2963,-334,1570,-5606,-149,-709,354,493,2714,660,4660,1265,196,199,-1472,480,-2174,-1591,-726,-1898,2993,4440,137,-1198,1646,-748,-1325,369,-5033,697,-345,-2527,-13,1040,-128,1555,-342,753,-3593,-1072,-2304,816,377,-1738,1866,-278,1024,1316,-119,-986,-984,168,-111,867,1236,-1614,672,-869,-2150,397,106,4058,2927,2300,-2670,651,-1710,54,-1613,-493,-4440,-1827,2651,1994,-466,-173,-2139,3409,2060,-6547,1423,1194,-2169,-1706,-438,-2794,456,1415,1925,-3282,3115,936,-2227,2031,816,-1917,2395,-756,-6746,-901,-650,-1736,-66,2001,3613,1509,-1115,1609,-3205,-1699,1174,-96,-5277,-1666,1320,737,1355,3911,-3289,-4827,-5115,4233,-98,-396,-2455,1447,-2159,-120,-1425,1298,-738,-4188,5623,1148,-3494,-867,666,2720,-5011,-3492,1750,479,-404,1725,1059,3800,-257,454,907,-244,-345,-1025,1124,1567,-2238,-7219,1475,43,1333,-1273,1031,2615,-1814,-1165,5614,-8008,3822,-437,5472,-3926,937,-5341,-3075,-1069,1354,-123,1758,-949,-3996,-1088,-327,-1274,727,-8776,3243,265,1968,779,752,-1186,-1102,590,1893,-2283,-594,-671,129,2531,-514,-968,163,-109,-624,703,-748,5504,1489,-3143,1153,-2331,928,3614,2061,1044,9941,-820,3129,493,-3095,1944,1209,-991,-963,-2419,-168,2150,2838,433,-2586,1410,1637,-5052,-900,4196,192,-441,2655,3852,1466,-11,636,554,2472,1121,-231,-649,-150,161,290,861,-3231,557,46,-1757,-1347,-3786,777,-983,26,1991,4066,-281,-2053,1704,-335,1238,-373,2169,-2083,928,-1369,-2002,-48,542,1650,5333,1971,1230,-4116,722,304,369,1308,1684,2158,-256,704,620,-1802,-4689,153,-432,-1130,3215,-1764,-1081,1135,1104,-2489,258,-313,5017,719,1341,1881,3751,1088,2495,-2890,-1267,2054,-993,-2959,285,2386,-5314,553,4809,1076,5205,2350,2714,-963,609,-645,2825,-2691,-1727,-456,1607,-908,2116,1315,-73,245,745,3895,744,-1273,-1603,4293,1456,1760,2686,3136,1325,-899,-212,1698,-2361,-1412,661,1806,-885,1300,1655,-309,-1489,-2704,-3495,-3407,4279,2164,682,-1209,-1074,-1386,728,7174,-1729,836,-2237,-4347,187,1296,-605,-559,-340,2272,4433,-2202,939,1834,-6430,204,-3550,-2194,273,2099,963,2575,-2102,3944,-2487,89,5648,-2927,2216,2624,766,2401,4862,5284,1396,-560,3289,3319,-34,1106,-1471,1430,-1607,-158,4027,-1147,-1777,-1201,1696,-11515,-1361,-1297,-1341,1265,1089,824,-68,-1482,945,-1198,2526,574,2449,-2031,-1219,-1103,1144,431,1712,2208,3531,-706,782,266,-4547,-1580,1011,-5447,1513,-190,1319,806,1942,-895,649,-1090,1778,1452,2031,1045,-971,-111,-10326,40,-4249,-325,-4151,-202,2121,-1782,-1013,-60,-997,891,-1637,-739,632,-833,2070,926,447,1986,-974,2419,697,-198,-343,1409,1506,2381,-100,3457,1725,-1313,1017,-603,-945,1581,16,-991,-300,1104,2389,456,1190,-1162,-1120,-1662,-284,-2618,-3043,843,289,2086,323,2676,-5806,4679,1672,-2567,-97,936,-1381,2883,-411,3584,756,597,-1522,-489,-958,-137,949,-648,1407,-1148,-2923,1375,-1305,1187,7200,1638,-19,2662,3578,2222,-2656,2969,2107,-1078,-1354,-208,1838,255,4748,1682,2153,938,1633,3717,3804,1235,-1294,-418,-4220,4068,-2149,2049,847,2702,-1779,1937,4429,5200,3725,-184,-4141,2108,5105,72,1502,383,-898,-138,2599,3856,3264,-2227,2524,-2897,2538,1469,-486,-2931,1097,4054,-438,-1715,-2715,-79,1802,-40,580,-2215,149,171,2127,2804,1322,1081,-1668,480,1054,-3711,2061,-2878,-664,750,147,-3683,-945,795,831,1135,381,-295,115,-946,-4264,4635,1211,-94,-60,-1272,6592,-2905,-1524,-288,-2058,2281,-1138,1284,3231,-405,-2107,-2646,-313,-3497,1299,-1983,358,2056,-3346,-1956,-2796,6332,3897,1338,-1528,-4149,1159,-408,-691,-1188,-1333,774,-249,-992,417,333,1538,-372,1724,-1061,-546,624,-1376,2006,-1638,1187,4150,-3252,263,1364,-3,-1974,1923,1850,-3428,-550,-678,234,422,2095,-1912,3811,-232,1090,1625,-1311,-539,3372,-1394,-567,700,-2528,4744,690,-33,-630,1645,4790,-2915,-657,3982,491,-2268,2935,2566,567,1451,2347,142,1540,4246,239,-613,1264,2855,635,1432,1704,1710,1159,2303,-471,-534,2292,2232,1901,3971,2713,-4704,-316,-653,-4136,1948,1129,504,3325,-277,132,1305,171,4399,-303,-1126,4226,5855,-38,1007,21,729,1423,-1684,1944,2918,1544,1698,-2764,737,2339,-790,-813,1927,-16,-12,657,139,-787,-7062,-2061,-4138,-5355,-1725,3110,-214,407,-3281,163,40,3437,-2870,-74,-1178,-1595,-2474,-3398,539,1131,-3055,-3861,291,946,71,399,-10341,-5156,420,-2167,2464,-5140,-1983,1918,-1007,-4202,-453,-8049,-1811,-6965,-1430,2454,-988,997,915,1567,-1856,-3784,120,-3674,3472,-3627,-1309,3388,-4708,-1488,758,1656,-3134,1155,-2766,-2339,-1930,982,-2307,-1007,-1915,-186,-1948,3172,1979,-5580,1053,-2286,970,3756,-1603,-2835,148,-918,-270,-1020,581,491,-1982,2272,132,-2475,-5716,-8255,-1293,279,682,-49,-4155,530,-4564,-3526,-4694,-7795,-3842,-362,644,1263,2286,1704,9947,-16,2658,2882,-221,-707,-2637,186,-2139,3463,1680,-2004,-1790,-1303,2138,-70,-803,5165,1312,-96,-635,-2088,-1043,3995,4957,3029,-402,-2732,1619,620,79,-1853,924,2825,36,-1256,645,4012,354,1876,621,563,6081,-3386,-2506,-2104,-3417,-145,254,50,1041,437,-1736,-2088,-2194,475,2100,738,451,352,193,6792,-4925,-1253,-7285,1383,-482,-268,3509,-641,-7522,-4493,4069,157,4500,-2939,-43,2041,-5123,877,706,-1501,-1382,394,179,-216,-1812,1698,941,-2789,-499,668,-1334,-1887,-1037,-1535,-746,-1828,-234,754,-1370,-2103,-3243,-1415,-85,-27,2884,1010,283,-2094,3055,-1080,-2902,-4420,1653,-1683,183,-554,-1148,1507,-2191,274,808,1690,781,-1896,-4695,1014,-1392,1359,1127,-313,-1997,1841,-3513,-1770,-2128,13,2249,-2611,1966,332,858,1562,-5030,-4899,-2587,623,-3963,-3191,3281,-601,1604,-6981,-2749,-2926,1938,1479,1710,-1501,-1567,-644,-798,1051,859,901,2486,1900,1736,-539,2641,1242,1638,-333,-594,-59,827,-6158,3917,-1875,1545,-1090,2908,2042,1803,385,-2874,803,-5368,-3059,3326,-1404,1111,-224,-2365,-214,-1801,2668,-46,684,1175,-2327,-1041,2718,-2844,2389,1088,-1680,-2427,-2229,-2119,-1625,1921,-3464,-1248,-2787,-42,933,824,2197,1700,783,550,-5820,-1560,6182,4577,6667,2992,-4018,-3754,6070,-3017,-2050,-3441,506,-1170,1880,860,-4693,-3708,2269,-2019,757,-1661,-3782,-2088,330,1195,1560,-1442,862,-2811,3766,2938,-2912,4264,-1865,-5056,-473,-470,1123,777,-2431,996,-224,1234,2746,2565,1241,-90,484,3925,1552,-132,-2513,-534,1315,-465,-447,-134,-1560,-1975,-488,611,2305,752,-620,3390,-303,-312,2274,551,1977,517,-2836,850,-3261,-3873,1145,2885,-600,7736,168,-4563,2010,1648,-2130,-1253,-1981,1880,-3666,-1441,-2272,-134,121,-283,-1779,-123,225,-638,-785,768,2337,6501,553,20,662,135,1818,4592,864,141,-4576,-1207,723,-3468,1929,367,892,-181,2152,-2229,-1300,348,152,-3059,470,-1027,598,12527,-577,-3103,4610,179,73,-1054,-193,354,-1084,3072,-723,1315,-499,-3028,671,67,-359,4283,-226,2522,558,-3469,-2031,1618,-578,-2830,-3560,-8,4605,-1384,-376,397,3836,-2328,2836,509,475,-1771,1175,-4471,-135,3164,1025,3926,2809,-740,-90,4718,-707,2629,1270,839,-587,1137,207,-1018,1201,1157,266,-1085,2532,-2932,-5204,795,1714,3273,-5,-289,3924,1411,-3545,-2064,-1787,1698,-1788,-425,-160,-2126,-3476,-647,637,-1770,4159,-3072,-592,-839,-1321,-1528,-3,-1490,1217,-1146,1563,-1014,-119,-2465,-1984,388,408,519,-505,2461,-2925,-3695,-1012,-1432,2161,-2894,2457,-2985,1289,-263,6473,-1126,3953,-6466,1561,-3178,-1329,1493,-458,2339,371,2255,136,4031,2762,1003,-3932,-1628,-1649,-2885,-3100,-873,-1830,158,442,-344,-3862,674,-375,229,-2086,-2219,-1040,-3098,92,1016,-2431,440,77,1273,-715,456,1867,41,-2176,-1161,67,638,982,5775,2843,3877,-40,1610,384,-3770,-2803,-1970,-5252,1287,889,-94,801,835,-1571,971,1702,2643,766,1618,2878,-670,-2325,-8034,62,-1347,1546,-2492,-1472,424,1256,-65,-3096,1946,3012,2039,-1660,3202,307,-341,907,-514,2590,-1349,-192,-2556,1045,-582,153,-1641,719,116,1454,1302,832,-594,1932,-3020,-380,-680,310,-568,-2415,-740,198,88,-517,-973,682,2753,-1501,-522,1139,-1570,1150,-2277,1121,2241,-1307,-704,-3536,3021,524,-994,2919,-182,4109,-2247,1544,-766,-111,446,-985,1006,19,1299,-2178,-862,972,-1161,3039,2485,77,-1565,-1939,-2114,588,1681,1726,93,5145,3039,2366,-234,-1762,1410,4301,-1112,168,-792,2730,5346,4875,84,2997,1161,-1008,1175,-316,-1450,-124,-394,-26,-4014,-664,1951,3184,-2037,-4512,-3376,-4022,2811,-150,701,774,-3094,300,1962,2791,-1246,-1045,-126,-1343,2884,4810,4620,1601,1744,-3630,-2136,2749,-1001,2592,-144,-823,3681,-459,-2544,-1616,1829,4131,-3534,39,2640,-43,6805,4687,6937,-35,-6106,2440,-734,319,1383,2434,-244,1581,-2172,1091,-2392,-2374,94,-3736,-1219,1498,-380,7292,4861,666,1805,-870,5111,249,-4464,2699,1208,2709,717,-3092,4072,2260,1805,2265,4853,2273,781,-940,5007,-1749,6109,-3082,-1154,844,-1051,261,6887,-5423,-1557,1215,2276,3392,1953,242,-1936,-2903,-1643,2396,870,-1447,-4222,456,3345,2879,971,1440,542,530,248,1968,1868,-382,-154,181,-2320,-30,-3412,-1670,130,-4337,-735,-45,-567,1678,-1443,-49,7876,-1641,-490,1604,-3359,-985,-1839,-1480,-359,-1358,-699,681,-20,6270,-2171,2281,575,-986,-991,1614,499,813,-666,309,-667,484,-3697,89,106,7,3642,-905,-239,-1074,-1160,51,-571,1211,45,-469,1759,-178,-189,680,2062,664,212,1563,3754,178,235,3441,-4993,-1558,1194,-3222,-2088,-416,539,1414,4894,1506,-433,525,-2679,1545,-125,237,-34,1681,-3606,-707,1140,448,718,-2850,1983,1826,1213,1471,-308,-540,-510,1265,376,-125,-3482,-865,1317,-32,430,-550,2523,-468,-512,-689,-95,-1270,-803,319,-6144,320,-953,-963,422,-1763,-994,2264,5699,-454,-1236,-385,-966,-1077,4741,1673,-30,651,-470,-934,1181,-6084,1420,-2223,458,-2229,-3323,-1694,5,-3357,724,2490,-1969,-411,-1247,-2816,520,653,-1515,-472,-35,-468,-675,1066,174,1722,-7279,-1326,-389,777,-175,-712,384,-1432,5993,-654,379,-627,-3011,733,-9433,999,749,1503,-1224,1499,-349,631,814,385,488,603,-3484,2506,-564,-5091,-592,1459,-2454,-301,-3648,-7558,232,-666,191,-1577,-3985,-1368,1699,-1575,1314,460,-911,-249,439,1625,-1464,5359,8018,3119,-816,-1139,3397,-1310,3262,-1435,2863,-4401,1093,94,-799,-1622,-3425,-1327,3485,-3546,-2093,-3609,-4280,1612,2679,1809,-146,193,1529,-268,-2689,-153,-119,-1422,1958,-1220,-6405,1393,469,-5351,-3762,-974,-1449,6250,-504,5840,808,-2892,-386,1412,4785,430,942,232,-1691,660,1260,-1406,-699,-1819,-160,1285,-131,-1985,-700,-2160,-2574,670,483,-277,-3022,-281,566,-1179,1583,-1838,514,62,-424,-1288,-1079,1444,-1584,70,-3973,-1184,-529,231,-1612,-1308,-517,-1561,-924,314,-284,245,2060,-1706,6955,265,-932,374,-1395,-340,-773,-13296,-1513,-3179,940,-730,-3526,-1049,622,-1582,1261,-330,-2439,-2055,232,-1696,748,1685,-35,947,2847,-2780,1440,1060,1270,-2553,145,-5820,-1057,-1184,119,-989,1009,-1905,-1590,3096,-2850,802,-1493,1187,899,-633,346,1351,-2495,4623,-3282,3669,411,-2070,-993,-2127,-3193,-2383,5286,-987,-370,-1024,-1589,2348,-14,-1768,244,-705,2151,-1325,-125,2727,1133,-3246,-2364,2940,-370,-546,1495,1065,3251,1298,-1619,-2981,3990,-1008,7403,-661,-1286,1216,422,-922,199,2580,936,-4655,-5205,-776,3387,-4290,797,2911,-864,1732,4213,-581,5670,-2011,-173,-1801,-470,-1177,2566,1332,2744,-3320,-2860,524,-1194,-267,-2544,24,-2254,-6872,-1505,-1114,-9502,2480,109,2670,-1661,1971,-2813,1320,1833,2440,1736,3816,-575,-1957,3067,2600,1377,1075,-6600,1544,669,5562,470,-814,-3142,-2810,677,709,-706,1888,-2139,676,-1606,685,-419,-357,-134,-1566,-320,1300,7754,2731,-4007,879,-2934,-1111,412,762,1288,5317,-347,-13,471,126,-2169,3279,2285,612,-1782,1061,7265,2011,3816,-1324,3448,5938,-3602,-2210,1283,2011,-31,2568,2295,1683,-488,-828,-1222,-1332,1449,1,-757,-961,1304,2092,59,-3457,-913,-990,-1418,133,1496,275,-380,1168,5072,-52,-177,-159,379,-712,960,-397,-2799,1636,1023,-44,-160,-237,263,-597,3482,-1674,460,122,197,-115,1042,-1922,1702,-977,52,-88,34,1176,-3280,1376,-607,148,5070,643,-306,933,-1501,3599,-1881,-4600,465,436,1089,-274,1629,-2329,485,2267,3516,5381,-2870,-2725,1022,350,-379,602,2847,3360,4969,818,145,-838,-4495,156,2568,-1984,-2951,179,-295,1187,17,1241,-405,-238,444,1052,-2575,1964,-2134,1482,1264,-31,1156,2098,-3817,3179,1125,3438,4146,3702,1508,-195,1021,416,265,2307,-2437,49,-7133,-7283,-75,3582,606,1689,2185,-4606,4368,4306,3457,4503,-3940,-3823,4913,2484,1387,1426,-6943,3782,4578,-387,5323,965,-6653,124,2634,646,-3426,-1506,-1739,-352,-544,-1435,-1562,-1688,5926,-1240,3207,1958,188,-331,541,-321,960,4209,-2478,4487,-598,2038,2523,14632,1008,301,3837,-675,2291,2166,-2879,3460,2253,4740,-774,495,668,-3146,-3646,-5440,-1229,694,517,4673,-33,-1282,-41,342,6,501,-3882,3482,1666,-1535,2310,1705,-3624,119,-2043,-5121,1158,-1267,-540,522,-2110,1210,654,-496,2006,638,10,857,-5173,-495,-2278,3541,747,-307,-330,1463,-10,-3354,-1557,-389,3853,-3200,-1147,-898,-903,1926,-2614,4372,792,-416,1006,-895,184,2585,3448,1374,-185,2282,2250,2737,703,-840,777,1190,283,-97,-452,-2721,3642,567,1070,1590,4310,-940,-696,1044,-1089,-130,-1724,2348,889,-930,-317,-1384,-5767,-270,-3864,-61,1375,-32,458,-383,3574,6307,3111,803,922,1581,850,5300,-434,10,-747,-51,2062,711,-222,-3478,3193,-66,968,-437,-3422,2444,2423,-1056,507,3523,6322,315,-785,-1587,1360,2278,-4923,984,-4177,569,2340,-1851,-948,792,-507,-1712,-2577,-23,1597,-2723,-1210,-161,-3705,71,-1121,-3261,-2362,-7420,-4360,-1425,-735,-1585,144,2453,-449,1285,-6062,-1135,-258,-886,-263,-3222,-1667,3111,-1100,2572,-3150,-2171,-6502,-329,5036,4509,-530,-230,-437,1748,209,-2188,1899,825,1272,-3003,2406,-128,1245,5160,378,882,1632,-2947,1741,54,1284,-5917,-2136,190,310,1906,-3532,611,-4179,-1383,-2636,-1250,-2623,3091,127,-828,-3272,-924,2274,-4225,-927,1852,847,-697,4938,-6524,-179,-404,2452,1308,2362,-1042,-2557,-668,3001,-2326,1410,-3351,-1644,-250,789,3595,5325,-84,-1291,350,895,3043,-144,2601,-1475,230,-811,319,219,-503,-4296,-143,-98,1406,524,392,1635,-147,265,3221,3222,-301,522,-124,-5305,348,-4918,903,-144,-1691,-1319,-2437,-1715,330,-1734,920,5141,-1,-2019,1320,-7173,-2904,1046,-1469,-1766,496,1546,755,-4331,5669,658,-549,433,-1287,-998,2202,-722,-270,-951,-421,-15,-2161,-2689,-1521,-247,785,2768,-2608,-4400,-1380,1866,2998,-275,-2335,960,-4047,-2115,-1068,541,-23,928,1200,-1398,-515,1738,1941,564,-1903,-2382,-424,428,-2485,2819,-701,504,-1225,786,1074,-562,761,-1301,434,7,2216,-3364,1374,-8216,113,1042,601,-727,
};

PI_L2 int Decoder_Lstm_Bias[]= {
-8571317,-8776589,-5893812,-9127052,-9136643,-9757962,-9059403,-7813569,-8714654,-7661937,-6702501,-5135372,-7336983,-6728673,-8813518,-6810956,-10151645,-4958376,-4206656,-8549320,-6887991,-10035125,-7942352,-10604617,-7818187,-6085305,-5787803,-5175555,-5109220,-7245034,-9020039,-8257314,-7277902,-5318663,-5053187,-6659807,-9303115,-10668671,-6681492,-6539047,-7214697,-9543128,-9608732,-6969810,-9767739,-10643986,-4957734,-8814113,-7874073,-5600758,-9181124,-5151135,-3965569,-6403826,-9436804,-6416963,-9785397,-5850338,-4397996,-7963127,8012058,2596295,-3201247,4434711,7560253,4902089,5567514,4877940,2552961,1175264,1302082,722196,1664259,-1343472,6283337,1245113,1152305,4576449,6646595,5038305,2413939,2767788,4013610,7953460,3704488,2526076,3998341,3146486,7689899,4725994,5077586,7554706,7302862,3198068,-391078,4447038,1900521,3849902,4467418,6876127,4751952,6057478,6028658,6103042,8033742,4457599,2471211,9050166,4355116,658511,5606262,1196865,-5665738,6264179,4364982,3818586,6212274,1035696,-2109329,2854699,462336,2441571,-1294581,1914489,-2552513,-245893,-916822,-847711,-880160,1216329,-1032013,70609,-2218354,-271208,-2347107,667411,781062,-1925572,-2038185,529770,-352578,-1926,-906073,-2988345,-1162010,1302273,-657223,-524064,475424,1695908,-381282,-2253786,201438,-34023,-34875,577820,108505,1817841,-2170320,-3000277,528023,-1575268,-1224956,2038877,3147713,261539,2264185,2448471,-2301890,-295278,2265366,2848051,-520103,-854296,1832984,322381,-471167,-527024,2050696,-73403,-5584110,-7744772,-6356069,-6079120,-4855251,-2285432,-5675977,-5226584,-5551914,-4127341,-6569431,-5628355,-3866455,-6208023,-4703537,-4405795,-4162099,-6879962,-4000305,-5047507,-3209452,-6672509,-3722549,962968,-6437548,-5949905,-4274119,-7063648,-5327972,-6905266,-4510937,-3627444,-5649414,-6513974,-7498284,-7182745,-5320258,1363995,-4917428,-5421728,-6187980,-2182515,-5060159,-5284919,-4552623,-4312663,-8792650,-6567616,-3666000,-5910135,-1960048,-4382006,-6428066,-6572454,-3674814,-5186634,-2059427,-6915700,-7808333,-3835387,
};

PI_L2 short int Decoder_Lstm_Kernel[]={
-54,155,-1,-122,109,-113,-284,-72,161,54,73,295,306,-190,100,131,195,-135,0,-40,-110,260,-223,73,-43,-80,129,-216,285,309,138,68,43,294,-178,-265,52,143,-232,286,-322,-69,-144,55,79,-238,-191,287,192,193,-126,-162,-86,-208,-47,-176,102,-290,296,159,254,81,-218,-211,-71,-94,-299,-162,-316,-174,226,25,0,71,303,-15,131,24,-254,-45,59,-280,95,-112,-275,137,314,276,-144,-246,299,265,311,-224,-264,78,-295,-276,-96,-176,285,-220,174,-280,-136,134,21,-21,285,64,241,-240,37,-267,148,26,4,195,75,30,-183,99,-227,-220,-209,-209,-278,227,138,-141,8,237,194,-58,-143,78,25,95,-84,259,133,-180,-166,164,225,-255,66,141,194,225,-166,-5,-111,-44,-100,259,-193,-61,180,164,-134,89,-102,-64,67,263,-107,73,-135,287,110,-167,287,13,281,223,-204,192,-120,-115,-134,171,158,285,-297,113,-49,135,-145,-254,29,-27,-67,-31,-17,210,-42,-271,281,227,-3,93,-294,-314,-65,-38,-170,235,0,242,160,79,252,-284,-170,-40,-10,-43,164,143,213,-42,146,-20,54,-270,37,106,226,107,32,-64,283,-219,98,-271,190,-155,239,96,
};


PI_L2 short int Decoder_Lstm_Recurrent_Kernel[]={
-7768,-618,9251,-2286,1880,-1021,-285,-3850,4210,-3523,2590,-5169,-1104,4865,-347,-119,1060,1260,-2030,-239,867,385,-3498,-668,-912,-2159,250,1059,-2517,3787,-3091,2545,-2379,-2677,3401,-228,-4245,-1440,3146,-5808,-2183,-18,2557,-1122,1502,721,2509,-1509,-5671,-2324,6020,-670,230,258,-3291,2345,2788,242,-671,1182,450,-1773,-3657,-1179,5710,-1121,5869,1603,1777,2583,1893,190,-4918,-8600,7180,-2643,-492,6614,-3267,517,-1833,3573,-1567,-1631,-1889,-2528,4728,-957,-2467,1928,3456,1107,-969,-2478,5706,2290,1327,277,-1620,-369,1565,335,-313,1182,-325,672,-6736,6129,-263,3050,-4141,4476,4694,-71,2972,-187,-544,2327,1844,796,-5886,-3568,7764,741,3280,-1613,1304,-580,1660,832,2977,34,-1553,4966,1792,326,-4102,-3338,1033,467,965,1350,-5276,1853,272,1496,-2092,2122,-3452,945,-608,2555,-531,-174,-4250,2577,700,-3034,1570,2843,1106,1041,4570,-1553,-129,-2409,-1312,-4848,-341,-1470,606,-1659,436,1211,-2634,-2356,971,1656,11056,2417,775,259,-2718,916,49,6580,92,-1346,2904,-2481,1224,1130,-3291,-2527,-4445,-827,-742,95,-1751,918,-23,959,1526,-1703,20,198,-2810,781,-628,-1658,1977,1103,-1105,1522,1588,-1227,-1579,-1568,-4092,-749,-806,3316,1261,218,2406,-1843,-1339,1143,217,4987,983,-1929,-141,1259,1174,118,-2344,1643,-3419,2114,-4292,855,2292,-1530,-937,560,2058,4855,2455,814,-2028,-895,755,-4689,-3100,3217,-5361,1201,-1471,2125,-4194,579,1175,1844,3288,1827,-4455,-2337,-1478,-232,-2287,-3521,-2627,60,5904,-9772,-2452,-3091,-2732,163,1905,-2410,-375,-620,-694,961,-2675,-3580,-1590,-2814,-867,-1758,134,2396,-28,-3360,-1681,723,-1849,3464,-247,1517,-1243,-4237,-3077,-221,-343,623,156,-7205,-13095,-8911,-5276,-994,1861,-8251,-1273,-7305,1941,1756,2446,-566,-434,-125,-345,1451,2147,3005,-1092,-311,748,-46,-923,-7180,-5315,9807,-2814,-5324,8521,-4449,-269,1489,-1811,799,-46,1019,7019,662,-2356,-5022,-4553,-3337,-6829,3593,-1632,2619,-375,-6981,-196,2237,-4502,5830,-2100,2989,2520,2267,2018,-398,950,-2976,-720,3320,4544,-782,-363,-3142,1187,-1748,-1970,1993,-2955,-1291,4079,114,6211,-575,1681,1180,2771,-6900,79,1429,893,2297,5441,-1157,216,677,-398,-93,-1690,-99,517,1449,-277,873,-728,1048,-192,3496,-1683,922,-425,-3313,1635,-716,-1754,2979,-6277,3519,2451,-1,1063,-1031,-478,5155,3295,544,48,-3377,-6685,-2451,-8121,250,-225,-2384,-1620,-8790,472,2080,3426,-3566,-875,-1390,-331,-2271,3019,-252,-1113,-1942,-2238,2764,1335,-1327,-247,-1195,900,-3005,1289,-4709,1078,994,-683,88,970,-645,-1291,1463,2358,-3419,-2178,-1094,-147,-82,-3238,-2021,-289,-2760,1539,-2361,-1615,-1766,-3434,-708,-3486,181,-2847,7412,427,-2127,525,-449,1398,179,-6241,-1899,-8489,1960,862,927,-4599,1673,-1258,-3154,2891,-563,-2164,325,-1821,-3057,-6286,-7142,-1938,-2356,635,-4300,529,-5362,-6633,2707,-3641,-3025,1062,-2698,-5671,2461,-6684,-2916,-168,-1353,-1911,-5374,-530,2007,-1813,2121,-1677,-1947,-795,-252,-2377,1535,1831,-289,-2640,2306,8170,-982,2821,-4174,-6626,-5567,579,-6629,1425,-5016,3006,-4040,-2481,2653,5961,-2966,4023,3457,3272,6917,1573,-6055,-496,1210,1082,4245,769,-4533,5864,13926,-4157,908,7883,-4410,1280,6501,-1232,582,5931,-1447,9947,-1806,-5474,2424,2051,-1663,2656,-1611,-1282,-4120,-5636,-123,182,395,-1084,-2112,-2377,-1046,-1637,5961,-3438,-2103,5857,-3143,-4286,-2796,-1029,840,1305,-541,3269,268,-283,1612,11,-1678,5388,1905,4979,5000,-2405,-1351,3489,-2694,-1014,2602,-1551,-3447,3122,-744,811,2514,3089,-346,6255,-1213,558,-791,753,-1768,-2705,-861,-1583,2103,-2675,-3058,3238,-2677,-2104,450,695,3631,-5469,3510,-1179,1706,-2741,-1152,-2173,2359,9843,-900,-932,-1196,-2208,305,-3926,-2730,-1054,-4320,-5687,-2952,-380,-120,6531,-3974,-529,3474,-1504,487,1992,-3097,-2186,-1382,667,4725,-2246,81,200,2181,-309,1137,4693,-5595,-1052,2529,-417,422,5992,-3028,1194,-68,602,-3802,-1004,-2718,1493,-2103,1594,2219,-884,1736,1682,1115,-1536,-369,826,-2707,-3264,-1881,-1478,1932,121,-991,-917,1025,-1652,-1073,-2464,-1516,-3090,-6286,1496,-719,-1178,-2090,-702,-4185,-102,-6076,-3201,-849,3518,-794,552,394,1666,-209,5518,-3412,-3075,-2455,-4694,-2559,-494,-4202,2290,-719,-343,-1162,-2614,-882,254,-1187,-2403,-1610,-1651,-300,-1548,-4873,1462,-4214,-1926,-1377,203,-2109,-324,1424,-2015,228,4625,-2946,696,-3500,3415,-569,303,1368,-905,955,-605,2244,-160,-7487,985,-1911,2856,207,2726,530,-3366,2161,2118,-581,-1293,-2639,-3930,-1803,-115,464,-1505,6465,2101,-533,1100,1098,-1608,-4803,-401,-5449,4713,2461,1585,1799,1868,-19,4425,900,-1376,1207,3272,1260,-663,2886,-576,-2648,310,-1847,921,808,727,-838,-1813,-809,1245,1687,501,-934,377,1302,-604,1576,3272,-1095,1992,730,33,491,546,4134,-362,-276,2340,1234,2760,-586,32,1595,1431,-106,2585,938,-806,1686,-2335,-656,377,3045,743,-66,82,-852,3826,1916,-405,-3478,-326,-198,-2704,1863,888,-1263,444,-327,-1807,437,-1031,1222,1626,-247,-2649,-2954,-1312,1510,-724,-2851,-3162,-118,321,-2770,-1977,1845,-13,-2818,2191,-862,1248,1457,972,432,-1114,-923,-265,468,721,-3619,-1810,-557,-26,-1297,1160,1736,3009,-2143,3489,-565,-834,1115,-1809,816,2969,-175,-1312,521,1009,1660,1756,-709,-2370,487,610,2242,2008,-916,4695,-1314,-2434,4539,555,3492,2346,4949,-3823,2434,-96,-2352,2005,719,710,349,2239,-366,546,-295,-1541,-50,686,1607,1853,3363,1251,1672,-488,-2140,-858,1483,1097,-1413,2129,-524,-1263,-2876,-1250,1260,-232,633,366,6508,3669,165,846,-958,-2572,5036,1624,586,-1089,721,2005,400,764,-2911,-3134,615,-2776,-3852,-419,1999,2793,4625,1499,-3333,800,-371,1818,-3653,-299,1891,-1288,655,2438,499,3402,-3143,807,4769,7267,-131,1578,284,-2671,-3169,-143,-2291,-1560,-550,-4189,-445,-1722,811,259,-1776,-64,-614,2874,3079,1048,199,839,-100,-1505,2293,624,-1022,2524,-2934,424,5297,-6340,1281,11666,-1960,497,-2143,1101,-1586,-2581,1511,-4751,-3024,-1463,-3512,-527,703,884,-2944,-484,2371,3823,795,2878,-3002,-168,-649,2243,1842,634,-736,557,3236,3328,-310,559,-695,-2205,-389,888,-620,2790,3139,-476,988,1478,844,-675,-203,-2395,2031,-2025,915,-1554,530,2909,465,-317,-473,-791,-1084,98,286,1640,-2137,2540,-2332,-4883,-583,-2729,-1007,-1845,-3183,-4834,3302,-2895,1800,-1711,-4302,5778,1343,839,-1349,-763,9467,68,1116,1111,3117,4388,343,-406,174,10,427,204,2897,-6940,-838,506,-2237,2884,3978,1719,2362,1476,-293,5384,-1352,-453,3147,1166,3228,272,57,-681,-5069,2173,1377,2097,2415,-4656,991,2347,-1029,-338,-1030,-222,-401,971,-859,-726,3458,-496,2663,1724,1410,-3250,1322,4880,-2099,916,-706,-1384,-4108,-293,-2292,-99,-2498,-1012,-325,351,-799,3329,-318,3888,366,-414,-1147,398,556,-2567,-4106,1116,-1015,2182,-694,-891,1606,2689,-1418,1754,1492,1004,-556,3137,-348,827,376,-2421,-376,-994,-2023,8366,1434,-510,-5847,1562,464,-6632,2096,4459,472,2260,-1441,8,1465,2807,-7897,-2384,-186,1620,-4378,3902,-876,-664,-3028,214,7201,1641,-1702,1539,-2383,822,110,184,-2252,5302,3532,-4569,-1697,7002,2636,-2355,-800,-928,665,1208,-868,1491,-7427,-49,-1131,650,888,133,1123,-480,-7451,2624,268,1304,-2694,1535,12,2744,-3121,-69,523,-2776,2979,-1082,-2287,-4149,1013,1411,-3854,-1741,-5502,-3811,-228,2853,4933,-5075,1461,287,-1347,1843,202,1743,-20,-2725,3938,187,-3666,1140,929,-7480,-2273,4999,231,584,3589,1356,-515,2793,18,-475,-466,128,-492,-2004,-3381,-566,1096,-1377,1088,-199,-2602,787,1715,-1572,-4099,1048,738,4630,-2678,-2735,-2494,-6186,460,-3745,-598,392,2780,-3290,196,223,228,4153,-1770,4593,-2603,-1264,4271,-1204,1324,2618,4277,3613,2733,2111,638,461,2296,-2035,1893,-3768,4200,-910,-2802,-869,1922,-1667,-2800,2881,-80,1242,964,-297,580,2129,17,-1047,-1826,4031,2208,1901,4403,1588,1997,2946,-5617,1340,2072,-4424,-6176,-702,-658,4489,3339,1060,2645,1415,-259,-1807,-2285,-3562,1727,-2436,4855,-3297,-2111,493,-789,-945,-40,31,-1684,-2236,207,-935,-667,-2008,-7040,2331,-252,524,-809,325,1212,-3006,-2408,-2487,442,-3116,150,-411,245,1264,-5062,594,-2215,-803,2258,-555,12548,1999,-1569,-2145,607,6424,304,5378,-1502,-7152,-200,1733,-26,-2900,2366,386,5307,437,4584,650,2487,6598,382,6372,-3773,1290,-619,1660,-2093,1257,-122,3178,415,679,-826,2068,-582,-521,-3777,311,2188,1256,3651,-5090,4994,-3716,-760,643,2387,-1751,1170,1943,1605,-334,-3157,786,882,783,6825,2666,6692,4754,-6299,-3776,3568,456,848,3304,965,1851,1496,-240,-1594,2916,-1499,-1031,-1843,-3184,-36,-2099,-131,-1402,1320,50,1845,-1385,1478,57,6592,4926,-1658,5290,3482,-1762,3233,846,-2577,-1195,-134,1904,1120,-2057,4005,3285,-216,-2418,3171,-702,-994,-366,-116,784,-2552,-2543,2260,3497,-1039,104,-2409,530,-3402,4283,-404,-717,3026,1270,1889,2838,-998,5447,443,411,-1225,-3816,-1014,755,-1469,-137,7615,5592,1186,5344,281,3750,-806,811,-1817,1483,3114,-94,-669,1808,1789,1576,1523,1109,651,2444,-83,407,2026,-2486,3147,-1652,-1214,-2540,1104,44,3970,360,-1337,1816,789,-567,-614,-596,-2164,910,1515,1066,-1646,4683,2701,-190,1724,1604,3879,327,945,-160,2632,904,2009,-93,-2785,4691,1651,5590,3539,3854,-1770,-1151,1147,-332,-897,2291,-3438,3666,1292,-2293,3623,2546,2079,-1205,-204,3290,172,1383,-1215,4598,447,3113,1429,-89,-3631,-6401,1598,4135,7239,-760,1223,3403,821,-157,-1631,2295,-414,2041,-2742,1314,-1798,-2044,325,2577,3101,4164,-947,1874,1535,2646,-3152,-1212,-1386,-1591,153,-776,-397,-6041,5235,-441,3702,3533,2670,72,3896,2591,-228,-1077,4063,-2827,-1984,-4902,-2790,-6679,-574,-13482,1485,2284,-3341,2431,4599,-1951,-2746,2619,6983,-3028,-5821,2433,6704,-480,2912,-4582,-3488,-3148,2239,2527,-903,2335,4193,4464,-1907,1268,4042,-3612,2639,4623,440,-1514,7317,3071,3777,743,-272,4790,-1008,3938,648,2051,-3335,-2395,-547,-714,3905,2920,-286,-1205,268,-2126,1016,506,-450,1531,1473,-1603,-1498,-2259,-767,-6162,1761,2398,-580,-4345,-476,1968,144,-2824,-1205,388,-2373,901,-1857,-1524,-1344,2085,-4871,4465,94,1474,304,-5225,197,961,-2302,1619,602,-2426,2104,2884,-715,3586,-2466,-2194,-3387,-1628,809,-2416,2648,-278,8690,5786,4033,5497,3366,2267,1899,386,-833,3227,-4045,146,61,-401,783,-4,2408,-2453,2930,-3451,-5677,56,3659,-344,544,-2370,676,-3858,-2000,2439,1392,-1668,826,-1389,1481,-1122,-995,-2191,2039,-99,2193,648,796,1698,520,-688,7969,2767,-1219,-895,-5193,-463,3821,723,-177,2602,2739,-839,5189,-1268,445,-492,-2031,2559,3755,-360,1009,-1116,3395,-1125,182,202,-8306,8196,-3883,-3539,525,-274,2461,65,-3049,-1807,-7710,5854,502,-1454,991,197,-359,4966,3882,523,2956,-5226,-563,-1126,-2488,-3826,-3574,-1597,-1295,2965,781,-978,3589,5671,2283,-923,-739,-1870,1304,1225,167,-8155,-3728,950,1382,3071,2217,137,-5781,3650,5556,7359,2541,1818,-2712,1487,10483,-3277,2715,-6180,-1417,-714,5006,1844,3540,-2987,-2743,-151,1329,-10290,-2362,-493,2609,7282,2719,-5451,-778,1188,-2991,1788,-4577,-2022,-179,-3970,-1420,-875,-879,-1916,2561,1995,3338,-1247,3946,-3061,2720,-1101,321,223,737,-889,-1716,2397,-3551,-191,-895,4773,-2920,4106,-3928,2098,-3040,1285,2657,478,-1725,-1663,-3907,1947,-3378,-928,-5027,-303,-4502,-460,-503,-3390,824,-772,2657,3140,-3054,2943,-1542,-2933,-4504,4973,-1177,-2880,1402,-4652,-1898,7147,100,-451,1309,-1475,3824,2608,6385,6326,-3497,887,4422,-927,-1754,162,4179,-1,-348,-1433,-657,2979,-618,634,-493,764,2699,2113,2803,24,5067,3921,960,-71,892,1080,10766,2873,2880,-834,-1318,-1257,610,18,906,-2454,-766,674,-370,663,-670,-1767,-526,962,1500,2572,-2472,1898,2025,1403,-791,-53,1682,194,4706,2651,6329,1078,961,1392,-2590,-2895,-4894,932,-2519,-1695,1324,-1043,-1556,3308,319,-1895,-381,-3021,-1549,-1495,-6209,-2337,-4009,1394,1259,-2326,1029,-329,-3314,4804,-2622,1811,-3677,21,2809,1498,1371,1920,1341,-6053,-2108,2074,580,104,2618,-4720,648,-773,-4384,-885,2613,-1541,2273,-1121,-1524,-1060,-1311,-1884,-3164,3583,2691,-229,135,-6665,1427,1416,-1810,1090,-3908,3974,-2326,-3935,1569,-2440,-2550,276,4819,-4661,1145,3926,-216,6075,5102,4960,-2299,4853,2887,-1970,4849,-4736,1450,950,-3131,915,7157,-5022,-1439,-2087,-805,65,-45,8046,3737,225,-8491,-3040,11,371,2929,4469,-1712,-3911,10891,1057,4852,-6675,-4073,1213,7995,4147,-5152,1073,817,1153,1468,1537,-1721,-2850,-4169,-412,-2979,1747,1779,-26,3923,-1815,-2172,3375,1087,-32,3908,1716,2208,-2172,449,2982,4316,-1406,-410,-1199,2047,-3330,1033,-5511,1715,5945,1314,1169,-206,-1987,-6492,-527,163,-6031,541,1008,-25,3589,3890,-2570,-761,-2736,-3851,2072,1154,-1011,2698,1850,-3831,585,809,37,-296,219,-2051,1809,-2141,-1418,5303,2427,-622,3533,-7677,314,-1101,-3539,-2796,-2425,2060,233,1178,-1194,149,1167,-581,1506,-939,2719,-524,-1008,-1462,-2894,-3734,1101,-731,-3223,1081,1332,-114,-1679,1280,-5816,64,-1112,-4138,-3449,-1228,-1267,2349,-402,-1312,-2114,-1424,-4948,1624,-3997,-5061,-49,-4337,-1709,-3065,-2991,1564,-1743,5663,-1629,-3907,-817,702,76,96,90,-2934,-5415,1247,-196,854,651,2977,-1053,-578,113,-4393,6375,1430,2479,-4241,-572,6405,1732,-2169,3934,-534,1026,5400,5038,1225,8638,-304,-1584,-399,2492,-190,3654,2798,-535,-1080,3685,-6343,-2374,1738,2852,1192,642,-1461,-1483,2613,1752,-2466,2845,2356,-2689,4090,-4331,1874,4556,439,5864,-2942,3075,2214,1123,3072,360,175,-3475,-139,-6186,1095,-1640,-1743,7034,511,6396,393,2321,5454,1466,-2768,2394,4707,-80,4471,6304,-1434,5477,2965,5210,-3385,0,-374,951,-1538,4921,1151,-2626,-6596,-5718,4114,-3255,-2793,-2444,12499,-638,4211,2601,-5883,7922,1697,-4097,3382,-5265,-4785,6131,-1820,-765,3032,-833,-11866,1593,612,-6102,-1537,1351,1905,1111,-353,1156,5596,-330,1489,-4109,154,-5210,-449,1242,5257,-450,6579,-955,-2819,-3022,1518,-1678,4257,678,2063,4048,2730,-588,-3502,662,-2616,-2147,-3339,2731,-1963,-938,6219,2174,-1579,2305,-7601,-487,1960,4946,-1016,-74,-829,1777,-2221,-1298,-3283,572,-1444,1327,853,-1202,-4672,-1179,2521,-2308,-1409,-3665,-2254,-3876,442,1878,2525,667,1005,-710,-2627,2766,-883,-1222,-1636,2924,1276,831,96,-1003,-2238,2143,-1880,3258,2817,-2343,538,-30,2253,517,-184,-1466,-947,2355,-2731,-1160,274,-2339,1595,5654,-3169,-2313,4403,-1566,-1937,1916,-4508,-3643,-1899,-711,-1665,-2297,-2563,-2674,444,-841,3518,-184,1736,-1391,-629,-3491,-3388,3155,-3364,1270,2693,-1079,69,2043,464,910,-1932,-1669,-8910,1275,3032,1391,-934,1998,-986,-752,-344,-3355,-2352,527,-501,-1018,2305,-3640,-370,-971,524,-324,-1159,2101,3608,-1122,-3079,-2262,167,345,2155,-54,12,2449,-1963,1656,-1530,593,-1357,6591,1988,-189,1435,-5742,1659,4435,490,-1045,3649,4860,-2427,6814,-599,1492,1643,564,-562,-1551,-3605,4076,3877,9103,-3293,-945,3798,-848,1584,1787,1390,-750,545,6287,-207,-1,-537,3849,657,7244,9917,424,8742,-4669,5383,460,6572,3799,-235,223,3234,-2734,2819,-3913,213,-3357,1480,1439,-5208,2849,553,864,1538,-1106,4315,-1574,1971,2159,519,-6017,7565,3227,1562,5156,-6844,-949,-1050,-4526,-85,119,-530,-4739,-415,-5514,1504,-2661,-4427,-2669,2234,-72,79,2927,-250,2073,-2077,1805,-183,-2682,-2039,-6366,-3691,1715,4942,1321,3611,2560,-9624,-7150,1933,-2105,3116,-1872,285,-396,788,2838,-1100,3165,2812,32,878,-2066,-7132,-3284,-1771,-7585,3264,2225,2120,636,6845,1121,-1450,-1435,-1561,-6127,1064,1729,803,-258,3070,1308,1312,3333,1828,-3662,3722,-2664,985,-925,-512,282,-1798,6180,-2496,2321,-484,-359,517,2437,1912,1005,2984,1048,-733,1741,-653,-6272,3909,5469,3033,-2210,-402,-741,-396,-104,-927,965,414,-881,-1107,454,2453,-1055,328,-3153,-1130,-1129,2817,-134,-842,-1768,2857,2921,-5717,807,-411,-1571,-2920,1267,2831,1974,-1270,9090,-4236,476,6195,-4030,855,-796,-1978,648,-394,-4330,-1328,1148,410,1511,233,-4774,-803,771,1252,-482,-1540,520,-1107,1794,715,-4895,-97,-1465,1874,-855,-1077,-94,-2827,-927,1672,-1490,2461,6108,420,1386,-1028,-5241,2638,299,1129,-1778,6265,-2306,787,-2852,-5941,-5905,-3536,195,2070,-863,3082,-1871,-851,6116,-2245,1090,-8664,-63,-841,2851,4440,753,-6708,3626,5896,2540,-12,1646,-1459,-161,3795,-3529,3245,-5191,-877,-1871,4368,729,-1721,-3708,1979,1497,-1803,1928,2016,570,-2690,-888,359,-1636,-7374,405,272,-1429,2211,0,946,688,2691,-3471,3100,905,1739,2353,-3229,2115,421,-1315,339,1259,-873,-114,-999,272,1416,-2335,4278,-1859,1706,385,3575,4485,-475,-4133,707,5707,696,-4687,-718,1327,-12226,5607,2748,-283,-194,1212,-7843,-9960,-561,-1576,-1673,-788,-107,-1280,-2099,2243,-456,357,-2381,-695,-4725,-745,-5472,2203,1183,-13295,2392,1343,-5009,-1766,6486,800,-1203,-5053,-3130,-2297,-2246,2596,-4163,-1353,3946,782,1326,3154,2126,-340,-5265,-4709,-241,-1033,452,951,-1087,2079,-439,5423,-754,2625,110,6406,1381,484,4071,-980,-2114,1471,791,-3012,3529,-199,5345,1445,-3548,4696,84,-16,-1410,-182,1953,-230,-2048,-3366,-741,-2708,2112,-3345,-6005,2219,-740,769,-358,-1726,6592,347,-1039,448,-1237,-1487,-2224,-6905,198,-3442,-2595,2298,-2521,235,413,-4284,-568,-4851,4314,-496,2686,-6961,517,3128,-1750,3552,-1877,-1027,2397,-5227,3287,-6752,-4688,2724,-1010,5068,-5190,-1522,-1792,-3822,-591,-2099,-384,2931,3223,-4024,4918,-2313,1747,-1546,-5885,1075,-4458,-3512,594,-6308,284,-1307,-2750,1456,197,-2997,2853,1595,-2316,2887,2318,11733,-3424,2576,-1413,-6618,1032,-1107,-421,-46,-3002,-2360,-6342,224,-1502,5703,-1276,4379,-2247,2652,594,-1761,-3924,5796,2282,4539,7277,-2300,-6348,-61,7837,-4101,-7583,5134,-2951,3863,3692,849,-597,251,3024,2796,948,-3321,-362,2024,1230,-5526,-1820,-973,-4865,-874,2147,-2508,1200,7772,396,-1838,-1573,-2005,6163,1137,2187,1135,-359,-1208,2068,-2902,-666,1702,-707,2091,-4324,-1811,-544,-285,1885,4005,226,4106,3541,-64,3961,336,-628,5,2317,-637,-215,1410,870,951,936,3241,1579,3402,1597,180,1087,-482,5373,676,-1704,-752,1281,312,-2095,1076,142,-273,-1210,-195,3348,2794,3863,504,2244,1854,-5903,1197,643,3257,-3489,-2146,-2583,1647,-1891,-504,1122,159,-2527,-4107,-3550,1023,701,4028,2717,2214,-504,977,209,6045,554,985,-19,-2758,6133,-2057,-2199,2687,3649,285,-396,1092,-8059,-2591,-778,-874,-243,-126,-953,-1353,470,1342,-4549,2287,1338,-1731,-2127,-1315,-3182,824,938,-2888,665,1014,2239,2492,1645,-1883,-46,-1348,1591,199,-1544,2249,-3293,-758,1431,-1125,-3789,231,-2349,2313,-3163,2709,-192,1000,-2717,903,1719,-7772,3981,883,-1838,-322,-1454,3477,1589,3550,-4107,191,-300,-6318,979,-946,-3128,-1331,195,-5148,-3711,-3675,28,1311,2488,-3669,-4677,633,-1374,11,3871,-2600,-3583,-5949,-1080,2648,868,-1347,687,3892,1381,540,-436,-3662,-108,-827,-9735,-1629,-1413,-1466,-5133,-711,-116,3000,-852,3438,5207,1410,3606,-1041,-3659,2114,1203,2076,1364,-905,-3858,-2209,-2895,4168,-937,-1239,-3245,-1927,-4204,3563,4399,-1338,-1456,772,3546,-2677,-4588,-4515,-1330,-1703,5228,-3859,2240,-2880,898,-1548,5059,2971,-2179,-2324,-904,5218,1188,1775,-643,-316,-3620,913,-1550,-787,6943,-650,2360,-2732,-2939,879,4248,9789,-3231,405,-3906,-25,1939,2505,-5024,-1606,-332,7959,-736,2098,459,585,3043,2481,177,2533,678,-2245,-1369,2245,635,-2882,1762,769,2393,573,1726,2259,-560,72,48,-1166,993,-3094,2495,634,1712,421,3597,-1588,-1460,-1002,-385,283,939,-1168,996,-51,2480,246,-2029,-2236,1529,3983,-18,-1363,2024,1451,196,1162,2113,3598,-1552,-3028,-3478,2852,-120,-802,678,2429,-2519,1785,-2090,-62,-1954,3808,432,-451,1627,3407,-2226,-142,-5123,568,-910,-1394,411,2389,-7812,-1326,-2885,405,766,-3599,1474,673,4003,2091,1824,881,7445,1405,-238,3509,-1034,3215,-1768,1623,-171,-2407,2082,11498,-2306,1060,3781,4671,-2290,-873,614,-207,786,-4623,-716,4544,-1277,-845,-2561,-155,-6047,961,-17,1512,2055,1996,-4794,2120,-9,-612,-755,3839,-826,437,2949,-707,109,892,-1617,-899,-1653,668,2330,-1060,1849,411,-674,2932,-2146,-3005,5673,2694,1828,-1354,3604,507,4248,3232,-9030,1104,1464,-9096,-3099,261,6855,1088,-325,-3255,-1537,-851,1493,1705,-463,-9493,-1761,-7222,1498,-271,4640,4926,2556,4482,957,-1021,-2708,-1674,-5684,1559,1270,171,475,3303,2992,2930,-4521,-1888,1058,-1653,3388,-3517,-1531,-1715,-1219,-351,3146,-3524,1722,-3205,762,-1316,4910,1459,5431,1050,-368,2563,-4531,-1862,4723,4015,554,-1027,-9400,-293,-465,1756,-525,-1000,-499,985,-533,-4117,-1317,-8095,753,379,-2036,-487,4400,1211,-5750,-1308,3499,2639,11935,2596,1159,5332,1959,1236,-2007,-7092,46,-2435,251,-4481,1863,-2009,2272,-709,6410,1304,-1852,5478,-4515,2036,-865,-3695,-4452,3390,3433,3960,3222,-998,650,-492,1814,-1064,-1739,902,-96,-3462,-250,10205,4534,-3204,-1770,-216,-2276,-33,287,2033,1890,1153,-2889,-2095,602,-1299,2896,636,3118,-320,-129,-117,-4042,5544,-5454,-5780,501,555,245,1398,4,1000,615,-547,-1441,-1412,804,5729,-1334,3219,-446,1338,3468,-1407,-430,465,1272,2254,3123,3516,-1562,2515,9947,2177,2886,2306,1719,2921,2308,-1328,-1850,-1505,6926,-1970,1519,7410,-1895,-1033,2012,3911,2614,3039,3573,-665,2859,2794,1492,597,-1004,5260,4633,-621,-860,4826,602,1964,10788,-1676,5736,972,4787,5024,-3431,2242,982,-4860,1778,828,621,4154,2057,1353,4278,-139,299,4039,-3584,1783,1084,1418,-1602,2720,16,544,64,3511,6218,778,4003,1607,947,1173,901,2027,6062,99,3925,-1280,-6830,4568,-1311,2259,-573,-1207,-2036,6841,