-8127868,-8479472,-9479755,-8564468,-6962964,-6588573,-7697203,-5373997,-6503429,-7475054,-7780126,-7195993,-4309373,-10082042,-8236884,-7834985,-7243492,-3311297,-7767918,-7477312,-2354979,-6966575,-7064078,160197,-7558832,-2661608,-9142568,-7101972,-7717487,-6249064,-8910340,-7119789,-6693316,-6157140,-9749305,-6551704,-6061542,985289,-6700662,-1249599,-2438166,-4317775,-7618175,-1525708,-8307328,-9778752,-4791154,-7357828,-5835102,-5012994,-5660659,-4771300,-6568989,-5678353,-6024424,-4262279,-10094219,-5883801,-8440966,-5578744,6938792,5365412,5848671,4835941,2117448,1305169,6273633,3581123,1636158,-4548422,2883337,4023291,-2323206,6518831,3653647,1270695,1966869,-6857592,2831509,5154767,-3922503,5268027,4746688,-10149612,3239622,740416,4381260,6692690,4236862,807948,5438813,1682421,8546458,6392780,7642150,6062445,2696988,-7941992,6266676,-8113908,-6427374,-748523,1547100,1255395,3396786,5854077,489475,6529513,2513331,1940252,4525426,2479722,-982220,4162923,1018829,-164646,2909639,2239699,5571155,1161855,-279751,-30428,-3238710,-645307,-3097641,-30663,2190050,-109535,949821,4954007,-1312237,-1475039,1312309,-1449919,-1886260,-145031,-70434,262717,3269463,-1678579,-341390,-3458965,1046986,3249844,-1145424,3478095,-650785,-890162,45451,-4417627,-265314,592042,395988,-490392,653469,779555,-131373,1705353,2307717,7754312,-72620,268430,2386974,1655329,-3792252,-299418,-7449882,-1045465,-624802,2086899,-2733673,-2732074,-942339,1724269,-2032938,-358006,-3102826,1722929,-2024983,-409209,-6524749,1752915,-969631,-8471071,-6138206,-5213121,-7533701,-5671676,-6217794,-5860567,-5960950,-5498862,-4456106,92820,-5782287,-3088608,-6138727,-1351077,-5168086,-4447983,-2735967,-6977826,-5367769,-3128395,-4139202,-6470455,-4297944,-5518927,-6330938,-7363028,-278187,-5917332,-6636215,-5821647,-6706629,-6648175,-5460525,7003966,-6031539,-6189105,-2105383,-7354682,-6649599,-6580667,-6990780,-5806400,-3393720,-6204138,-6445259,-6246172,-5507177,-7334375,-5062391,-5654204,-5853031,-5983469,1346404,-5591138,-6602165,-5423406,