11647223,10016889,9505648,5187142,10708814,8703097,7641112,11805021,12112074,-2011087,10822433,11975797,-230076,4140879,11966818,5541606,-6466198,-8356040,16207120,3673962,-3294790,6304792,9278096,6531730,6040427,2263344,10977457,7250958,10412509,11287021,11998834,4618710,-1287699,-214243,6436320,8116946,7887847,9713955,12320830,11539332,5225284,16857612,16326175,13957098,7537760,2570872,11602012,13988611,8330245,-4156629,10974367,11668911,7194846,1359725,13607508,20579168,7906779,5705229,12237377,10785895,-506369,580801,14396430,3866420,12687834,16859030,1961920,12456088,7065742,12133391,11728935,3471332,12052960,6463382,1537336,9103457,11414243,18829868,4221392,9088977,5238281,8390749,4105515,11629895,4116916,4628601,1943771,8420408,11746462,13601285,-11071264,-2880308,22753020,9128946,9198690,4342967,6817215,17723136,-5835331,-4041152,11724940,12037681,-1618568,1484376,12093001,12134771,13064416,13526108,16524300,8841257,9796118,1957985,6529802,6108342,19186758,6990874,-2044416,12626214,3997325,8628941,12521164,-454815,4386274,11178813,14333897,11367506,1136234,2672581,16409666,9961459,2034443,18674482,10065594,3210553,3481813,14857662,16205494,10135795,1028156,4036619,-3478911,10953888,4924152,16642365,1414448,10052690,8986826,19786960,-2442571,19356384,15788589,9977829,10082881,12536150,11881397,16645257,8466487,5171763,7689396,13828559,-1918073,6845917,14401598,11019530,13405733,-3833516,17035270,2337349,7208302,15153677,9075857,15145180,13384300,10527871,12722780,3429994,5799107,10224529,11395248,6331528,2769129,4264283,14361401,3002367,5439694,9124920,13835120,4901478,10724099,2908862,2956421,7736291,9707529,13310179,16437406,14814760,10383469,12262871,7420125,5852159,7705170,11569828,5567793,5928973,3722188,8394470,8350527,7902836,-6055739,13977380,5706844,10272647,10207092,9052563,18282772,15145678,9612457,8278716,3875707,2546447,2922651,-405713,-3066194,14159637,10423242,15847490,5067554,8602406,4043197,2572437,6596085,18069432,611595,3834267,102208,10902969,4541991,5978712,7677626,-7512348,12646927,17649008,6677355,11089331,12400668,5948482,5920552,13016199,7107674,9059870,-13309592,-12209530,-1750477,-11396022,-13219644,-12966122,-11801765,-10047785,-13811223,-10258417,-10755107,-13863270,-12141916,-7334436,-9092035,-9661928,-3268476,-4680454,-15126052,-8363459,-9683430,-12530845,-10335056,-11230279,-11521675,-14392245,-12653521,-10267091,848115,-13502440,-15418561,-11075081,-10927091,-11426578,-8039227,-8573954,-12949756,-2447177,-10795612,-8660052,-7063541,-598128,-11681104,-13825885,-13383057,-5068836,-7672512,-1414914,-10666527,-10473620,-11555484,-5924312,-13206249,-11729466,-12246930,-3678420,-9068500,-9224643,-6600158,-7449859,-8776245,-1355347,-14993733,-1057518,-1559106,-156188,-9932719,-12171117,-9957666,-12487174,-12005330,-11607815,-13924110,-11858901,-10967366,-11042249,-6461098,-9469708,-9347227,-16526907,-11067203,-8285801,-12218187,-9759435,-13641143,-11409246,-11740359,-13088040,-10096021,-12098543,-9065798,-9927494,-8897262,-8491451,-13879125,-13666042,-11596689,-1668712,-8007973,-9153109,-5616050,-14962919,-7899007,-11462796,-14445223,-11632864,-11015243,-11037039,-13703353,-8537680,-8090295,-10266628,-14120760,-13079988,-4692280,-11842202,-7364765,-15367480,-15324823,-8113868,-4810536,-12815123,-8651042,-15926259,-15319161,-12861932,-10472980,-11026758,-10230772,-13741033,-11454533,-6139202,-10110210,-15719582,-7669738,-9791640,1537444,-9887596,-7063535,-12244069,-11505828,-12457399,-10330104,-14116613,-12071491,-10771916,-10786971,-8115689,-10795388,-13336690,-12044644,-15187486,-11950867,-10195690,-7324241,-10687230,-14901676,-15084469,-13971427,-16240927,-8601343,-13471625,-12460098,-14745606,-1182928,-7818718,-9506751,-6927528,-14171592,-14080978,-11563247,-6921107,-13096234,-8808705,-15036012,-12076902,-13135118,-7980136,-11203109,-8802471,-12595862,-10611549,-12100684,-5294553,-14357407,-10651502,-13098988,-12149677,-12316405,-12660113,-8180652,-11636299,-12925764,-14025071,-14417612,-1939562,-1486387,-15475946,-11529795,-11879321,-12664147,-7012434,-7925812,-10073081,-12902838,-12659198,-11091064,-8965163,-5296071,-6350015,-8527978,-9911794,-9449379,-12433414,-14558486,-2481976,-12993413,-15538759,-12245398,-13451603,-11479681,-14116507,-9369400,-10064724,-9447260,-11020526,-7523443,-6345576,-12096344,-12446047,-15500294,-2653173,-7680200,-13839814,-9977414,-12821847,-10166743,-3639169,-10276164,-8939890,-12461977,-9788173,-14416992,-10805250,-12219897,-12183166,-9759528,-1878631,-10782077,-13489044,