//scale=2^22(for the bias) int  scale=2^11(others) short int

PI_L2 short int Ingressi[]={
878,813,669,556,470,397,320,235,140,174,374,504,667,857,1045,1181,1133,1035,974,911,773,665,581,508,431,349,253,174,374,504,667,857,1045,1181,1133,1035,974,911,773,665,581,508,431,349,253,218,185,78,5,-45,56,245,431,603,
};

PI_L2 int Encoder_Lstm_Bias[]= {
-2248878,-2872635,-616779,-1405197,-1406319,-3775046,-2104988,-2738857,-1796563,-2155778,-2639874,-2531650,-3176282,337402,-319012,-2176316,-4019205,-2533388,-3484864,-3937564,-1052356,-710546,-896106,-3112819,-3404669,2164651,-1807922,-566474,-3806005,-2447592,-3497278,-3587023,3436020,-2461862,-2769872,-1303077,952761,-108898,-2453500,-1263084,-3433931,-673529,-2350658,-665755,-2828554,-3407932,-2653174,-2102851,-619025,-3983704,-3312587,-3661851,-2756352,-3716044,-1401527,-2550804,2894630,476899,-3565467,-1660901,-1016195,-2280498,241896,-3462570,-1640661,-2586671,3746382,-2477446,-356019,-2535451,-2258942,-3174643,-240882,-445578,-1481372,-2145390,-2941246,-2319629,-2163416,-2420332,-2197096,-1089418,-1417258,-2672318,-2427963,-2677714,-3179853,-2925387,-2717221,-3174195,-927168,-2128329,-2481447,-2071198,-4336476,-421885,-1673933,-2770775,-1172073,-2376125,-1214649,-813212,-2836291,-2576741,-1526771,-1096154,-2911447,-242555,-533013,-2227983,-1909669,-3986874,-2728696,-2279712,-2541619,-2550774,-2497676,-2591007,-1875551,-2961301,-2941858,487747,-2723667,-1961314,-937124,-3304361,4076384,-2203688,-4510509,-3474997,-3499002,-3679195,-1546084,-3479378,-2506689,-3015009,-3046283,1019147,-3018971,-1768983,-2400668,4986126,-2435827,-1265906,-3203116,-3222631,-3932826,-1919658,-2633303,-3144188,5245596,3882657,2872382,2641261,5249575,3831406,2339547,4237579,4620468,3215550,3233753,3664148,3040721,3671254,-755475,4696653,3909791,4993455,4240011,3993375,5053917,1458401,4182502,3801687,4542284,11302,817565,4874863,5258930,5735172,2448925,5560059,-3168472,4306776,4502613,3334545,1148028,1922498,3766400,1831971,3256862,3401028,5145104,2660863,3346379,3596559,4312394,3921986,1477189,3736985,5349621,4734466,3401534,3620127,2850661,3302048,-2945396,3744145,2578695,2905379,3008749,4139712,992003,4506926,4256670,3007030,-27662,3964844,1052213,3675240,4487527,5797863,3914897,1116189,569482,3124333,3339769,4049704,2643368,1506602,2499050,2914014,1828998,1433171,3150524,3092149,3051244,2682943,5148900,3756326,2219568,2833963,985066,4946820,2443137,-212860,3189562,3847945,707791,4973902,1562717,5117622,4497409,4188030,3133666,2267698,3695158,4765224,3022017,3277174,4320872,2797920,3652497,3069246,2889121,4371658,3403004,4198109,2436933,3769529,3989965,642745,4863468,4524904,4207129,4446438,-655965,3301154,2601364,2501421,4884100,4061848,3420778,1363809,4054449,3762616,3160760,747585,4626577,3514557,4867773,-2289460,5019615,3512059,4122893,3773423,4706941,2326359,834364,4572923,-24741,-379630,-353611,871824,-909666,350548,-2260837,484226,557918,245726,634073,-726033,298845,-96688,82660,-152405,351753,1278562,-608235,656078,365904,-1199473,688857,106881,-457253,-677522,801703,-137957,-608984,-26233,745282,-281641,692042,292823,341614,-1025235,-60732,-10350,37188,-608399,1800304,1680189,240560,-523597,-49998,620951,-794501,-912831,1104644,74871,-846896,-324966,35436,-221128,-1819958,-515439,-916266,-847320,-793795,-494588,-1318982,-1010887,928141,1085797,-339126,-891975,745910,-1282667,-710410,-761138,1249571,1982610,2401632,98249,198416,-293271,125905,498223,-650275,-630910,1166543,-1412552,368307,217351,-358977,197808,-172857,-322341,683253,273275,1118058,-161080,-440792,1968324,1508297,-148654,727836,-1099031,-192266,81984,726917,114419,63727,-685743,-2252567,1491263,-775739,-180051,-134403,560805,829291,-72562,396572,-226810,-1083820,-70055,-366220,569902,-1132232,473112,313288,-664092,279002,372170,-236989,1303184,-330477,158491,-333611,-379445,948274,412907,53756,238805,-65428,464068,1169025,448708,-457470,1822601,120646,-605950,143825,-1177600,306396,295140,-266124,-230887,7485,510830,-1681407,-2329439,-455512,-1279625,-1339744,-3704498,-2685234,-3527466,-2000764,-2115862,-1465925,-2423788,-2567174,-551767,-917354,-1804339,-4166296,-2603777,-3199767,-2292111,-996829,-1375922,-1729784,-3541319,-2789813,1316669,-1089323,-1840362,-2439620,-2480431,-3231988,-1885223,4271419,-2351928,-1334226,-685122,183631,-1123589,-2507747,-1570523,-710400,-419290,-1539306,-2371247,-1782809,-3222184,-2504636,-1939068,-1159354,-2455588,-1789096,147692,-2308339,-4268797,-2621074,-2149492,2698444,-1687026,-2648851,-2384432,140188,-1853780,928031,-1960692,-2709494,-1591498,3688906,-2442403,-1330079,-2978528,-1458507,-873762,-3245537,-1819264,-2029569,-2380619,-2580990,-2069743,-3813449,-2725555,-3006434,-2007629,-1179570,-2431516,-1704111,-2620391,-3174099,-3669341,-846910,67482,-1235554,-2008721,-3059766,-2737120,-3117222,491015,-2109149,-2694438,-1854850,-2081603,-1239774,-1397533,-2000928,-1559982,-1796489,-2363109,-2611007,-2386381,-1598489,-2260311,-2105234,-3277343,153751,-2208068,-2821211,-1736214,-2861558,-2831499,-2488921,-1195302,-2772215,733144,-2198592,-1279074,-121463,-271490,2979638,-1954052,-3337003,-3329153,-2366041,-2930971,-817707,-3048390,-1895096,-3872763,-2937735,673156,-2876763,-2945776,-2431922,4511619,-2640897,-1994564,-2956171,-2651247,-2970669,-2176632,-3407228,-2957070,    
};

PI_L2 short int Encoder_Lstm_Kernel[]={
578,100,395,441,-419,-197,930,-1494,-1180,1322,1162,455,-489,-168,-299,953,-411,-2676,-490,709,405,309,633,153,-494,316,-378,-134,-820,-303,234,-19,-606,428,226,-350,-855,1278,-45,-1180,5094,492,-116,-521,-508,-578,249,-404,-112,202,3115,-483,637,141,2910,-353,2041,1018,346,-223,647,169,-65,1013,86,300,613,-1967,285,-1183,2366,3149,-3284,1534,3127,-369,38,1501,1670,648,275,479,-971,-395,-108,88,-189,-545,1096,214,-223,-136,221,-1553,293,-461,508,-1128,1530,-87,-1671,218,59,-545,-3626,935,-521,-228,-342,521,-306,-365,-754,6,-1122,932,1352,-1355,-89,218,-1209,1078,561,100,147,4728,153,538,140,-565,346,247,360,-380,927,-367,-79,-343,-775,-2894,746,380,-338,-1435,240,-334,244,-264,1065,-290,1301,70,138,334,-610,-474,54,-926,123,911,541,190,-33,43,-765,-166,-464,-2689,-368,-214,188,-230,760,361,-1067,-122,688,-344,-218,527,933,415,-1247,1830,715,45,-569,1341,-449,-839,3057,519,-817,157,-48,-601,270,-495,426,-491,2216,-364,844,43,1436,-318,2625,335,222,-1170,-945,-1040,369,1294,-453,-574,-449,-3569,1085,195,1647,2154,-2968,621,3692,-563,60,2259,3142,174,184,49,513,-142,1103,113,-687,11,-37,-2133,-698,-274,42,-1826,92,-177,175,-740,1964,-131,-1711,-510,48,169,-4620,1142,-235,-284,-131,-34,547,-84,-1660,11,-524,202,3662,-116,68,-133,-850,1865,1180,1027,1149,2291,-950,-534,-190,-570,298,-258,-262,298,481,-626,661,813,-194,-2477,34,-78,58,-2204,-275,-314,886,511,1776,-767,49,-738,-2150,-1486,978,635,-1181,-571,-1169,-1848,731,2,898,-1798,2056,-6,-729,-142,25,-651,490,2434,964,-805,-474,3073,2292,-599,1402,0,1166,389,-3628,-745,-26,2055,2567,1935,815,1544,290,-2263,918,132,-473,-637,488,1769,2273,978,33,-142,-760,-280,-1302,-1545,-3038,1414,-1367,-351,2765,107,-2458,-533,742,-836,-3515,657,2275,614,-531,-721,-1275,-2062,1871,282,992,66,-1399,1970,-1105,1166,-2502,1674,453,-1017,-1222,-1023,46,-580,1664,619,1491,156,805,2506,922,1500,1945,92,-1417,228,-498,-25,2066,-1464,172,-644,-1002,1172,-991,-1199,621,-407,247,328,-1271,-931,-1146,-621,-779,-2826,-149,1329,876,1118,3475,353,-1277,1001,-379,379,622,-1342,999,124,-1294,2419,73,-1277,-663,3663,683,1474,-271,-164,-559,1835,-2091,-708,941,529,269,2171,-1389,-664,160,-3665,-310,83,551,285,1679,568,-763,-27,-1146,-7130,-3143,1380,692,735,496,-875,-976,1181,-714,313,-16,413,-201,930,0,2992,-1128,395,-400,2241,355,-1214,5104,-3,-186,-753,-186,-58,-2256,-326,-97,439,4057,1338,401,-401,4196,-212,646,-2349,1049,-1154,-81,-3655,-30,3376,-1421,-830,576,-2744,394,-1841,3183,4572,-5169,-239,2029,-803,13,1892,4442,-35,707,648,-904,-923,834,-308,-205,-1360,1597,1008,-847,77,252,-6583,-822,-1788,980,-1597,525,181,-1316,-719,2025,278,-8486,631,-413,-1508,-53,155,-14,-595,433,-390,-496,-91,3596,-3397,-173,-1275,-464,595,1237,683,629,4021,102,587,516,-687,810,-1004,-275,-241,559,-3402,-581,-1484,829,-4621,-2589,674,754,-1008,-1280,-801,733,-958,342,-908,    
};


PI_L2 short int Encoder_Lstm_Recurrent_Kernel[]={
-89,113,-915,1073,303,-932,-319,-460,1042,-19,-84,-1007,826,421,569,-946,-41,-209,111,55,-608,-644,-1954,-517,-298,-170,1899,-322,-493,-483,-353,369,1069,-552,504,-213,-89,1148,-359,1589,180,755,-1293,504,322,-1293,-708,166,1085,528,-359,-560,-30,-389,123,537,430,-1143,466,-1297,-671,156,246,1772,437,-795,1390,-721,-239,-471,-166,-9,917,-904,-1127,11,543,-502,-70,25,-257,-1773,244,1115,-868,-917,-416,-2162,288,-238,-451,448,-413,-585,384,1519,-10,-814,-15,53,-120,-625,-444,753,34,-2855,-858,674,-579,-1726,-861,-396,-1637,1178,-185,-281,-329,-968,-1065,298,-806,558,-261,1122,927,37,-143,378,1048,-1261,37,-137,-1086,-590,-857,-207,-636,-1011,-239,-1053,-1835,2178,-689,-10,-748,-1026,87,108,1035,856,585,320,646,547,65,-829,-1273,-291,-88,-40,-158,77,921,-1537,-2173,741,164,275,-171,245,-123,32,-171,98,501,882,220,461,-458,1101,-692,183,-2031,-840,1010,-1077,917,-117,-840,1349,-1424,-160,-1293,59,655,-821,745,-737,182,699,-339,224,-130,-388,-660,92,-1627,448,-361,538,-307,219,88,690,331,-426,-519,-860,-1096,-1357,317,-323,270,-341,-1685,1817,567,-919,414,236,-403,-533,-1363,134,357,-302,-492,-1470,759,12,155,725,-1387,-251,336,668,-188,208,-486,-161,-824,-898,202,-7,-629,-1499,-389,-44,778,-838,825,516,4,63,483,10,438,-1570,13,184,-322,-724,-962,-1232,-1435,-932,-1723,-54,-285,-1280,269,-117,863,-869,-703,-468,-144,-166,334,-1285,-635,-1327,-676,-650,0,227,653,-11,162,182,-131,-160,-1231,456,-166,-852,-8,567,119,60,269,9,-851,-1031,597,288,-246,-253,-193,605,391,281,909,540,260,17,-372,-92,653,-636,-187,-167,90,641,80,-41,-224,-93,179,-259,-201,59,538,45,-258,58,239,-242,-205,75,-156,-403,-768,522,-56,443,22,-329,444,-514,-338,-339,131,-76,-7,-744,-42,578,-279,-448,-177,-178,-333,-727,-321,-104,75,19,-40,-173,-485,220,382,168,-209,-980,-79,1351,19,2,-228,930,-321,-570,436,-448,869,778,83,702,64,602,345,-1290,163,315,387,-587,221,-77,283,-257,410,-48,-114,-237,-181,882,583,-331,-261,358,478,-56,-137,-369,12,-92,-269,1089,-125,202,-424,1071,-101,61,-138,584,35,-782,336,-85,377,64,275,1217,-18,-166,-609,-89,37,198,252,384,410,-1036,-201,13,-433,334,-165,-364,615,-488,169,-43,72,-468,287,-173,-1161,-39,861,-1116,-432,102,958,-998,65,1205,-636,-421,723,544,601,789,535,549,193,675,-452,1026,265,-66,-27,-936,379,357,1613,-215,-69,-119,-68,-54,139,583,546,-384,445,-289,141,695,1466,211,-118,-697,1217,-698,-274,548,-24,-623,479,-1537,-926,70,280,-1095,188,565,-195,-242,218,434,-605,-1080,-319,-1613,-499,1156,-573,582,39,84,111,1028,144,-438,260,194,-451,-1297,408,618,-146,-444,-176,-235,-256,-1504,-288,222,337,414,-36,512,-651,-1066,-67,674,-1082,684,779,-8,413,-249,-705,446,143,-769,314,606,157,-119,-187,-150,-189,-430,-398,-804,-300,1957,259,-306,-15,426,361,-90,-79,412,
1255,-414,97,16,-172,-47,325,268,333,-162,495,-287,150,501,-350,-1265,-288,-595,-497,612,120,-606,-277,-105,-102,-683,49,-630,135,-593,87,-207,-620,231,-1103,-895,-460,900,-167,-780,-161,346,-230,-290,166,-729,436,192,435,208,8,-1068,-1030,54,300,-329,111,-753,238,-675,-962,-780,-139,131,808,-359,307,54,-1592,267,534,300,-84,298,-645,10,-5,-839,-97,373,-264,-965,258,67,-720,-40,-196,97,-549,-505,-1279,-622,-437,-1293,-1227,-307,34,-253,299,-346,-678,-709,-900,-128,-480,-811,356,468,304,-1108,-307,-201,-559,-305,16,635,707,-77,39,-142,249,1300,623,558,-315,-106,-1384,387,-610,-32,-603,-197,-596,154,149,-334,-265,220,-552,144,-356,-514,-151,-553,-636,-1021,-27,201,213,529,-613,-632,683,-894,-455,273,-345,471,-114,-233,1259,-700,1446,230,291,-1505,-3,-389,-211,139,360,28,14,-128,15,110,939,1063,-371,-950,316,-342,556,-538,-3,160,-712,-113,-213,-810,180,5,-100,-879,272,71,-535,1207,105,335,-719,-955,572,9,413,1678,-49,-835,916,537,44,123,284,-138,617,740,-137,237,-187,-148,202,283,-270,-108,31,-171,-62,-1087,414,768,-143,327,117,21,-109,249,378,231,-230,-113,-566,-318,-94,-606,318,67,349,-447,697,263,-649,898,-350,171,-130,90,394,744,-309,-461,-299,-52,-649,423,-262,-365,636,641,-8,-316,72,351,-238,-221,-450,988,-58,-73,192,-44,-294,-549,-190,247,-607,67,267,-55,233,349,474,-330,-617,-360,-479,-1032,422,-794,-74,1067,919,-284,-19,-395,-587,-215,559,709,-46,-527,699,4,-204,-208,-12,-510,93,-488,130,-61,383,194,432,323,497,133,-54,-765,-367,36,-417,472,-234,-274,-580,227,180,1157,-10,596,-64,-113,489,211,-234,218,-51,-256,7,-263,-205,116,358,547,304,648,142,-722,389,404,312,224,-433,-465,196,205,-338,348,-121,-483,625,-101,-155,71,252,442,-166,24,82,456,380,-604,-277,-222,93,717,-32,402,-138,707,272,-516,-215,-878,284,149,201,205,187,-169,251,443,-226,-617,32,233,370,-132,98,55,-242,-50,391,-421,-540,521,-57,-9,-281,70,652,-174,-394,651,498,-345,151,-133,632,-180,464,648,-283,561,203,-21,786,143,-861,-63,212,11,224,96,252,-241,530,372,376,588,-280,105,-449,-245,-1068,112,209,-191,224,687,710,146,566,-877,-154,91,-166,-134,-269,387,17,-906,-788,-518,320,-710,243,-571,-394,238,7,-250,-199,-623,251,-523,-785,-580,-151,580,-404,113,-607,-361,-58,-368,-492,159,42,231,-653,890,-372,322,272,348,2,413,39,485,-876,262,-464,-837,489,1452,-151,-210,-768,201,-445,-154,-338,22,-1045,-92,-349,-229,-484,-178,-24,-296,-444,133,-504,-303,177,-501,-499,911,-394,-462,-638,523,-221,-29,-641,-492,323,-612,-499,-703,-745,-797,-1529,-625,74,74,29,-1213,-131,-362,-297,84,756,281,0,-56,46,27,-850,-312,25,-247,-1349,-476,-1531,-533,79,-241,-926,1094,564,225,-499,28,-646,443,-702,-588,619,-390,95,-778,-847,-1373,-746,-259,-383,182,
1409,797,262,819,-74,496,1262,394,1085,571,1217,897,522,3051,347,498,874,714,853,2549,428,-591,1047,366,117,-737,863,135,958,432,1247,1193,-56,1287,-665,364,872,1764,1780,240,1284,-673,1806,128,-59,456,1256,-231,1134,1588,2498,973,554,432,379,1087,1067,-960,1451,-286,-989,447,-578,616,2059,1017,-129,325,1063,442,2051,2248,84,-539,-56,-137,2501,566,574,738,-631,-264,1172,1325,1055,1443,1404,370,445,-100,512,-443,829,361,1099,850,316,713,470,763,615,-571,389,59,-749,-375,1337,421,333,1289,-254,941,-111,1308,345,574,1921,418,1290,-207,851,1713,1606,1973,1016,773,-1532,299,2017,408,1426,1327,-348,1892,871,631,60,1210,1293,388,447,-1223,834,351,240,491,2108,652,1935,589,-452,1189,335,705,237,211,674,140,-673,297,605,-77,303,-104,476,889,-159,-100,-193,1848,-168,398,554,-116,160,-98,388,872,-298,-55,83,-266,1478,-423,-227,249,-115,725,843,15,1022,-120,444,-41,-87,913,-591,-759,427,1028,-133,336,-153,-190,1121,-116,2155,-332,-482,1220,750,-128,-177,-669,233,479,422,54,412,723,551,584,-459,169,1156,614,581,963,1682,-118,-213,-544,1,-345,161,778,1469,-644,-858,797,740,-328,181,193,422,179,737,296,-8,276,-170,487,613,-162,-179,-291,833,466,273,1359,-375,435,-166,1089,543,-865,1890,-862,27,218,159,-26,515,188,730,732,-24,-453,697,374,-212,-528,90,1386,249,126,-14,-107,650,6,1085,1631,-577,-805,479,116,174,-373,422,-1069,64,296,9,-399,-137,18,196,-241,-506,-175,18,304,48,-839,193,54,-75,-139,84,-324,-165,27,121,422,423,-127,312,-384,-42,126,161,83,-56,-676,-842,-231,117,956,4,247,295,347,165,180,646,304,228,-141,194,620,-239,-45,-204,288,-823,309,-305,-73,104,531,-2,-74,-107,-110,57,-577,-69,-703,463,-607,104,-196,-14,-256,621,585,58,-13,-262,158,7,-203,-70,872,903,219,332,-23,-570,-541,-101,143,26,-76,787,351,501,-109,253,-313,-504,222,-251,355,-572,170,450,439,-870,427,-178,213,-307,597,-26,56,-563,-187,-150,-587,23,-591,-266,89,-83,73,-65,-125,-240,161,385,115,531,-35,-123,211,258,184,-625,151,1342,40,19,223,169,-727,721,-337,107,592,1453,276,174,-219,1248,715,1492,884,667,1377,533,981,950,-162,599,1656,489,177,440,770,-172,-789,359,-220,974,-471,1292,635,149,-834,201,-193,-214,-86,-119,1070,-170,798,1254,357,404,591,885,-27,-417,-285,912,255,1089,687,158,121,7,158,523,853,1098,257,1005,1390,44,212,-500,-340,896,1847,-1007,192,1221,-184,179,-44,362,271,420,224,701,473,820,955,-158,-802,1406,1349,960,969,959,470,-638,284,981,-649,492,572,763,926,-129,568,546,-623,860,1221,443,837,234,-405,496,601,898,1843,-1006,1152,173,718,1122,427,1633,121,609,569,438,1216,954,255,-697,-222,-1080,264,1018,216,-302,-86,228,1192,628,116,-271,1001,-490,305,1186,-1511,685,-326,-126,449,-593,216,2234,-211,
-369,392,-477,1099,-70,399,434,-621,1198,161,-258,-52,317,1,1310,-830,-233,1663,410,67,245,-707,263,255,-468,-287,-123,767,208,-733,-230,319,-908,443,453,285,394,-30,559,-544,151,357,-1600,-347,-422,137,754,205,376,-469,640,-158,-334,-471,587,966,-874,-42,723,-120,499,416,-371,544,624,557,-596,-727,195,418,-8,469,-258,-333,-318,-168,130,1004,959,533,-401,-42,-1193,1109,-1642,158,-64,57,898,-340,-869,-1124,571,452,-294,237,525,-774,876,1313,223,-54,37,699,596,-1008,127,1147,331,1751,-43,328,-183,1735,74,-298,533,46,-849,-7,-1227,779,980,758,546,-86,-412,122,368,-727,34,520,300,628,567,721,527,386,-94,-276,466,-367,920,-574,693,748,-249,-682,-350,-61,364,-522,-682,997,-98,-267,-619,129,639,140,-511,66,354,645,657,-1463,-227,413,-149,-709,-525,-912,-1133,691,844,-727,1000,249,876,413,-217,-282,2284,679,-516,842,-723,-393,-521,-466,-265,402,-1632,-396,40,-203,388,977,696,526,185,-248,-90,-735,105,1290,2237,84,-171,131,323,315,450,-1162,708,90,242,-422,1152,175,-286,1109,-109,208,-433,-352,368,-558,1221,-32,-324,-400,-260,395,706,-228,-571,475,-374,-596,-295,12,299,-1151,90,712,-361,-503,1225,367,382,210,336,951,-116,-1445,-109,390,-1111,1547,357,-290,-1340,997,-8,-41,969,952,-364,-324,226,594,83,-296,-508,138,1014,-100,93,-284,-387,-1240,-327,510,20,-15,557,-208,-6,528,-503,915,859,-969,92,269,-770,-532,-128,-686,-289,927,782,-199,-847,-80,472,-225,483,-358,286,362,-138,-206,71,-171,253,448,265,-245,-339,0,-107,169,-983,418,389,-11,-497,1327,-61,108,7,-226,434,-147,-302,423,-848,372,-174,-84,751,503,218,1110,408,-351,-256,-729,-242,-79,1231,631,45,413,-118,473,828,186,-563,257,233,96,-350,60,-332,-20,390,412,23,290,197,347,177,-603,-57,404,-1334,169,112,-331,19,371,-160,26,473,507,-280,684,-386,451,-800,-781,-378,499,-1212,128,457,-1120,-160,-573,219,955,41,127,322,639,-426,738,159,103,-289,-298,685,370,-77,80,671,462,-481,405,-1383,-440,661,6,-140,-1400,649,315,-39,-577,-48,-681,-466,18,135,54,-462,-6,1784,169,-7,278,-353,-494,660,-543,458,-221,-164,488,-1705,439,247,47,-439,604,595,-263,427,618,-22,-349,1306,-444,417,1107,-50,99,-105,100,-1786,526,353,360,207,-428,104,324,182,90,-1212,53,211,-423,-54,-998,-67,-679,-173,-924,232,201,217,14,316,-310,-357,-3,-146,119,61,-457,10,-368,-741,18,183,171,482,745,-609,-230,-202,785,-727,-692,-142,305,-4,-2,635,-217,-667,-298,182,587,729,448,244,-357,-515,693,-356,-404,-255,71,-85,591,339,-54,736,981,-187,191,-316,-931,277,262,471,256,130,252,-278,-406,-900,736,-418,642,70,-210,-41,1029,0,345,178,391,-780,-24,-34,-282,1057,890,-363,-297,-368,820,-138,-88,188,-376,-417,310,-23,221,627,51,393,-262,90,-1271,299,-362,-329,541,-129,-203,-29,981,
-1097,-606,-939,374,748,-54,-127,271,1219,481,-2374,-637,598,423,463,125,168,-1273,409,-60,-91,-746,-860,-758,-7,-1279,-282,630,-58,-1684,30,359,1023,-121,697,1203,-625,-65,232,1197,-117,735,-429,227,-90,657,-43,184,85,70,110,561,-1472,124,-42,1893,1068,2185,1208,603,-38,803,1879,-296,149,59,947,175,1610,229,-281,97,-219,-80,-246,-174,505,-980,-589,221,-297,-39,499,471,-461,215,867,-100,-921,-108,-298,127,482,-414,338,399,-566,279,-376,370,518,-323,-1028,-1408,-206,691,57,-342,-293,25,-76,-250,482,926,-480,-924,-1330,436,-41,-253,-677,482,-427,-744,-225,217,-8,-159,1841,-556,387,257,-187,368,-864,941,-1446,-73,121,-281,127,1560,-1160,-194,-1232,-792,-1089,-446,195,169,372,-904,-217,123,828,-899,209,99,-154,-103,-1405,392,118,39,-1146,-109,529,-1235,462,756,-418,143,-811,-563,759,-404,-143,228,-863,-298,31,716,-612,40,369,-309,945,-458,-1114,1554,15,190,-1032,-26,-135,-639,36,68,-196,-21,802,463,-804,-304,-564,335,-788,1269,-90,539,-1310,304,66,-102,-27,243,-343,96,-249,1106,-680,-802,-195,-173,-999,-35,229,-98,-210,4,691,-854,-1013,493,-705,262,-242,-524,-286,-833,-8,-411,176,-241,684,272,-29,263,150,-553,264,-1934,54,-246,86,-495,-534,122,-725,-1042,449,80,332,1397,-603,291,-206,269,-102,500,-643,28,1914,-584,1454,-675,-1181,-207,366,-649,859,1435,624,-641,46,400,-1003,64,-163,-298,-238,-354,666,-357,-866,28,-1488,-316,163,-436,-673,-317,751,336,-78,-647,-378,-659,513,435,-866,-13,-316,-1159,359,25,234,-155,597,-13,-376,-265,-15,961,49,-191,17,1059,386,390,115,-60,-241,506,655,-504,-434,530,838,-382,-121,157,-718,5,-169,220,-51,-172,364,319,64,-310,-63,-111,32,99,-198,1285,298,201,-9,-372,-9,-160,-344,-230,95,-116,340,160,455,-422,-216,-536,-84,-101,-193,78,395,-211,260,261,246,717,206,-292,-12,49,50,-464,-487,989,553,-108,-125,218,-2,-442,-274,-43,-162,-424,-433,20,-136,-851,-462,599,-249,166,-436,-204,143,43,307,80,480,-714,481,441,-659,40,619,-917,-1452,304,184,-65,-324,278,202,160,-109,-507,-747,-110,458,424,173,11,-6,-67,-395,295,-289,218,-31,-159,-110,653,503,-553,40,669,137,-141,-45,262,64,539,-718,13,355,467,-33,-112,153,55,230,256,84,-265,-574,-662,149,-1221,-306,-136,-651,-91,-114,765,925,74,-719,74,-467,61,-10,-533,354,532,630,-336,32,-43,577,-639,390,281,619,35,-241,-154,-414,933,966,713,245,1145,-107,613,1727,711,687,-73,-44,-156,1112,-462,409,460,154,-44,253,178,297,98,-751,88,67,120,840,107,170,-457,352,-679,594,-789,-350,23,497,88,-148,427,-241,176,-277,-266,-164,-504,-543,783,83,192,618,141,124,430,-419,-568,85,302,-784,-243,-411,309,-103,51,239,1444,136,-144,315,501,607,484,-230,-1121,890,-216,-370,-356,129,-226,-1463,-233,-528,-123,-785,742,-62,-76,-748,-98,-361,-42,-128,-132,
789,-368,199,-395,1564,567,-153,603,615,856,683,-61,1061,-648,-865,171,38,1439,79,-299,-149,80,-1053,321,862,-467,-413,426,1030,914,-409,-918,-564,-574,1348,383,-792,-760,396,376,-360,973,-416,274,294,168,696,646,-454,-268,-1308,-223,519,-272,-437,-76,-1208,392,300,674,857,570,-439,-920,318,384,-525,623,-502,359,30,-194,231,-382,-479,542,155,563,215,250,196,432,-220,149,-44,605,289,456,359,-236,147,446,188,1243,-165,-407,289,859,-230,716,9,1020,447,225,1333,642,80,650,-301,183,553,-340,-39,265,681,81,104,664,-408,571,135,-1329,237,779,-826,-601,-817,0,-413,-72,224,-95,151,138,-243,560,891,-2899,-339,915,417,-550,529,-356,310,203,166,-344,128,374,1064,-413,429,-292,411,65,9,486,1409,214,901,-224,527,-14,1075,-232,-139,521,-183,-388,410,-90,6,442,78,660,1160,-369,706,-21,-134,69,802,365,234,927,600,575,106,542,-1104,906,-428,77,1086,111,836,271,862,-291,-800,-145,1188,-423,-221,433,774,269,-50,-357,-42,129,429,-657,518,348,964,595,440,-74,-764,-912,1022,312,243,-151,894,23,912,852,600,1118,1193,157,267,-578,-121,192,-692,-223,261,717,300,-44,-87,1272,-481,182,534,-17,166,-44,-364,613,2105,657,-93,196,338,457,643,-306,-944,-456,628,-426,1356,808,-205,-174,193,620,-102,507,620,-1313,637,-196,-328,16,168,-469,-297,1220,473,-124,691,646,-90,841,-105,484,38,370,231,-240,-382,794,573,111,-631,216,-324,465,1173,512,-198,163,-128,-315,357,-762,-120,107,-275,-123,-81,-253,-413,532,561,346,194,-13,170,-669,-194,75,930,-10,10,-933,672,-783,383,27,-274,-583,-429,6,-871,-231,709,-126,-127,-170,-689,-23,-272,90,701,308,-119,-435,278,303,410,996,-82,79,536,213,786,-1377,695,-373,745,251,-451,-20,-240,-29,-726,664,-96,834,-304,-117,-351,-505,-1085,710,341,-152,-54,284,-52,-142,-209,714,324,46,415,457,230,-357,-147,682,-330,404,-13,359,468,382,1059,-814,-164,-1033,-149,-621,-1032,-506,-781,-7,-161,-186,-372,63,-512,-249,-154,222,-5,41,364,-265,-648,1193,-238,383,-381,202,780,375,317,-24,-155,-240,569,-216,-394,-670,38,120,-62,-357,-91,707,91,-268,573,391,246,204,616,-124,-167,462,362,-348,726,176,813,-424,-388,-38,186,1065,-34,-336,768,47,-519,402,-112,-49,-264,441,990,567,86,659,-291,227,863,756,-173,198,92,206,20,506,786,480,1125,313,741,418,-137,-279,107,116,841,-157,-112,174,-1001,-424,-227,461,58,-52,-374,142,400,-34,-221,305,-269,631,8,42,1160,-43,-325,522,441,254,563,68,970,512,74,0,-36,-355,-112,576,-39,123,349,615,165,964,178,-1429,-25,475,-171,342,6,-290,671,320,1253,378,-291,698,43,87,425,103,401,156,301,-27,114,519,-231,-256,221,-1071,313,98,819,44,-332,143,-87,103,695,10,-101,380,178,139,723,-2042,615,943,-150,-258,350,1094,476,-117,623,927,113,370,
166,-440,558,532,-270,637,382,638,192,399,225,1126,863,235,276,394,969,619,1138,2012,1450,392,1142,577,-407,47,759,28,-497,471,592,1564,-285,926,676,457,1469,393,-119,-1,606,-582,1808,435,760,1253,-267,428,870,1364,745,2030,935,1412,978,888,600,-281,1002,-642,292,293,693,1722,-236,-434,145,504,449,521,815,368,227,353,508,-144,372,138,451,12,-189,-310,1370,-161,871,217,1004,693,21,1398,195,1414,674,251,1412,83,-530,-322,736,550,544,-198,1065,684,-480,-420,1106,-607,179,111,324,1048,517,401,226,545,988,1064,750,454,982,1141,928,410,606,1765,203,352,1699,815,1452,1742,390,650,326,803,458,-396,1497,585,914,-453,-37,183,348,1141,1096,496,1021,1055,-877,-209,257,-222,-812,860,221,36,-649,-34,-627,339,302,-492,-112,946,438,-301,347,1431,153,529,-915,9,84,505,-867,239,-2198,-1087,-75,-409,612,-241,318,419,369,227,213,494,11,561,-1070,324,53,842,-250,-474,-457,1254,-342,815,-95,1139,863,151,628,-191,522,69,588,-111,-824,-480,-983,-341,412,-568,160,75,-310,-959,-63,43,-165,296,-337,-51,175,294,249,116,-222,-247,103,1240,892,512,366,23,338,761,354,-158,266,319,932,-776,-252,-759,458,11,-909,-394,-267,316,480,-288,40,-682,-329,869,34,41,-147,104,-486,-261,756,139,-458,-529,-200,-547,-673,559,408,324,556,236,-126,874,57,-299,-359,712,189,-438,230,49,-293,1009,-291,-307,-315,799,204,-27,1004,-468,-551,-256,-10,256,-225,-11,-108,31,540,340,-684,292,-395,-59,312,211,58,85,42,-919,-263,-60,-567,-119,-325,228,20,728,69,-108,852,2,-31,-283,-67,-193,-74,-406,459,-487,-232,171,-611,-452,-397,-292,308,31,527,142,359,-674,344,218,-104,-234,-421,-266,115,-1023,-402,-290,-502,-235,-855,-92,-54,-129,-24,78,368,113,95,-300,87,-389,621,-314,345,0,245,-46,-332,980,-46,-298,-169,-142,383,-1057,130,336,526,-71,-18,491,91,-255,-55,89,261,-195,-283,269,-103,54,415,1321,302,434,348,-60,-234,485,-52,-115,-201,-36,-375,332,148,-271,287,-403,-39,-475,367,-465,290,154,-361,-225,-555,-313,-523,-234,264,378,-261,282,475,259,-51,-220,722,509,286,-102,-87,-142,392,-537,252,51,961,868,1027,443,757,-74,-434,351,637,439,343,598,314,452,443,735,-299,356,505,416,-301,-397,765,416,-650,45,400,-451,55,74,-224,239,959,-248,417,457,316,-71,-421,824,636,531,568,-162,714,677,91,-269,188,763,1267,891,399,206,556,-210,432,932,549,30,540,189,-435,-205,391,317,361,108,-109,175,829,223,209,-810,1060,417,-150,-244,259,161,523,571,696,828,-309,-397,-68,828,765,712,756,1304,931,-82,434,-327,492,298,-709,142,-147,-464,784,789,295,-379,264,453,-958,130,514,288,570,251,826,-23,1137,1887,407,433,-347,122,173,203,563,-68,160,421,-281,317,18,861,-45,4,-13,0,339,138,346,-388,478,603,-21,-641,851,125,
-598,-43,-796,821,-1119,108,-619,-185,45,-752,-389,55,-1733,138,235,-540,-278,-89,-66,-94,-665,-537,838,194,-451,409,-165,-533,-655,-100,174,775,-178,-27,-884,-1243,217,339,-602,-288,1041,-979,163,-207,128,-391,-710,-893,-388,-185,1322,-620,-709,-105,-426,230,129,-1173,-422,-594,-1595,-977,-859,471,-553,-720,-1020,-772,94,-484,-183,997,-23,-582,341,-909,-79,-104,-93,-578,-448,-677,-616,301,-325,-421,-67,-102,-91,-319,70,-28,-274,-445,99,-346,-79,-817,70,-1114,234,-1162,231,-246,-839,-886,39,-284,502,-152,-872,395,-376,-154,-488,119,-261,-1121,694,-116,-127,281,-633,-689,1480,790,255,97,-568,92,280,-149,152,-1042,-13,-471,-599,816,528,-175,-130,-480,-67,502,-429,201,327,-498,-760,-804,340,-61,-482,302,-72,523,39,-438,-1003,-31,-969,265,-611,-974,-652,135,378,793,409,185,-246,-600,-291,-2,274,-1319,-748,59,214,488,175,-491,-2150,-289,-412,-1727,-886,-838,-147,-1239,1814,-881,7,-422,-312,475,-701,-1150,-1084,597,331,139,-1177,823,-227,-1218,-831,207,71,-703,252,-243,-523,389,181,-519,-1646,-595,-959,-301,1493,1294,-671,-539,-773,-404,-612,-397,-515,-1187,-720,-262,-691,102,-545,264,549,-158,462,281,-820,-529,377,105,103,-1350,347,147,-880,109,-64,170,628,-158,-1585,-154,493,43,-323,-352,-344,809,60,-159,-361,183,-1094,-1325,96,-70,503,-1040,-2295,-528,-1807,1869,-318,39,397,389,-607,444,-281,-1072,-114,309,-563,-911,363,-422,-299,-898,-52,-26,328,83,498,-783,-595,-428,-283,-205,-530,-109,-975,-270,-129,736,1077,-109,-415,850,830,460,57,27,112,634,27,-548,-298,-423,-173,360,296,76,-143,-360,-407,-633,182,442,221,583,392,878,-139,-252,479,-447,1174,-75,-357,-204,-379,99,651,506,277,-689,-582,-267,897,163,-721,-79,-62,-318,-301,-295,-417,241,-323,-57,-777,43,-341,89,-233,638,-83,990,140,-490,436,-221,214,174,-549,512,-8,-265,7,-119,91,-238,465,305,438,-329,-5,167,-89,429,-180,456,361,-17,278,-103,224,-471,-664,-183,-492,550,150,591,472,213,169,63,656,-157,-298,188,64,270,162,363,21,-190,256,162,-74,867,151,-870,-120,-342,-264,-21,-184,-654,-320,-353,-505,196,-202,323,550,25,562,-281,31,475,-181,424,-595,403,-760,106,-527,-649,-378,178,-306,321,863,245,-676,-781,-947,38,204,376,176,-812,-122,-979,-594,-25,642,39,758,19,6,-115,-414,-1047,-209,-584,-97,-158,841,-1264,-124,-521,-113,-25,-104,-660,-718,-113,-14,-389,88,-737,-1118,-133,-169,-243,-894,-136,234,-480,381,119,-422,-365,10,-564,-726,0,136,238,-223,-197,-65,-138,-76,64,-1221,-463,183,-460,-829,-440,78,-211,-631,-541,-266,23,-643,-238,75,-161,-391,-119,-68,-110,-8,-955,137,563,-172,-402,-141,11,182,496,-494,50,-610,-306,-142,-241,69,-283,-547,-244,-486,-323,-8,-720,-16,71,283,40,124,-664,-1217,-343,-1225,-171,412,-367,-96,150,-792,351,173,-318,-121,148,-374,456,-388,-766,-31,180,-32,-1114,-381,159,-400,-344,-427,101,
-1394,-333,-1052,-676,-1572,-394,47,-974,-989,-196,-1041,761,-1067,-688,1040,-1026,-400,-355,-435,-687,-843,-259,983,-711,-2416,1177,-1263,-511,-208,-840,296,-571,-1189,92,-1487,-717,905,-419,273,-994,-214,-813,-208,248,-1072,-432,-678,646,279,-1122,-511,120,-466,-75,-249,-996,-1261,131,-459,-1479,-15,-1443,-275,382,-1469,-459,1788,-506,-118,-681,-266,-791,7,-104,-582,-712,-173,-1223,-258,-37,181,-542,-1174,-118,71,-779,-160,-1104,-87,-658,1007,-1036,-341,-442,252,-940,-21,-714,208,-933,-534,-663,-628,-731,-406,-408,-196,-447,356,302,-552,-825,601,-338,-637,-2497,-428,85,-196,-545,-717,1037,-1225,-828,-864,-533,62,-491,-47,-514,-1403,-480,195,-529,-50,-64,-331,1000,137,-259,85,-749,-1582,792,-623,-942,-268,-813,-320,-2054,-102,-408,-1905,540,399,97,483,-37,-829,62,-431,346,400,818,-975,132,579,177,7,452,-626,-1906,-349,27,22,-639,-542,758,169,924,592,206,-780,482,-457,469,-741,-370,97,-293,136,617,690,-214,-419,175,295,369,-8,726,173,-69,-839,539,602,108,-659,-69,714,-1954,-799,24,-8,556,-703,-1104,-699,-755,-506,612,257,379,-29,-566,-1534,54,-297,-1109,-477,-1221,261,-911,-401,317,220,445,233,-235,640,975,-1017,58,213,-223,515,-10,1,-791,-597,420,-488,35,570,-9,-455,-985,493,-244,-1018,80,-311,-120,-165,-418,17,-338,-702,482,-349,687,730,1,151,168,-266,105,-883,-367,748,-382,-65,239,319,-598,-187,347,-497,309,183,-567,-31,-474,-1052,53,-793,-316,451,-113,316,-1294,-405,-30,70,58,-1372,-276,-430,-164,654,-91,59,790,105,-96,-73,-683,-36,282,241,30,-133,-282,-153,-365,-645,-302,-115,209,-339,108,-386,570,84,191,-8,286,-22,-619,-151,248,516,-230,-341,695,-256,43,1190,-169,-245,146,-327,-93,-312,-54,-322,-287,141,300,205,-349,-513,30,44,-261,-301,316,164,64,161,733,-471,271,209,84,30,-357,31,-20,-194,-34,44,-228,67,-372,-419,-851,-337,301,294,-328,-648,-221,10,152,-72,-91,10,-186,232,-26,-73,-993,-39,-21,-544,107,346,1042,363,-30,-165,162,142,-561,456,-329,-602,-775,413,-79,-970,14,-891,-92,-1452,400,-57,-1836,361,676,357,156,-510,-395,-399,5,-388,-46,54,-64,326,153,-236,-484,-667,-243,128,68,-352,368,-751,261,-809,-801,-1410,179,-202,-201,-50,-1000,-880,92,-72,-795,948,-1002,134,-246,70,87,-1049,-274,-986,-205,-105,778,-685,-775,392,-613,179,-10,-1086,-314,-685,-900,621,-1195,406,-817,-10,-2,-882,-1051,39,-484,-434,-835,39,571,-165,-269,-157,-15,-833,-822,-964,59,-108,-1933,-329,-532,-417,-756,-835,-458,1258,-1079,-562,-162,51,-177,-694,-283,-963,-935,26,-1149,-626,-650,-698,-594,-272,644,-1039,-206,-523,-1027,-84,-97,13,-507,-379,-413,333,270,-249,-456,-839,-196,-440,-645,-822,-708,107,200,346,-212,-389,-37,-936,-102,-483,-1382,-13,-562,-654,-365,-292,-559,-517,382,-1211,657,-1612,-43,-138,-563,626,-800,-102,-223,152,-73,-52,153,144,541,177,-1173,-442,-759,-500,-901,-1237,-496,173,-460,-1183,-1497,
1518,1165,990,622,-483,-359,733,-801,-387,43,600,-739,1358,106,-342,-143,-996,22,-709,663,1305,362,1853,-537,-612,-417,1090,-215,221,822,861,-220,-1466,506,-74,-1238,831,206,733,-156,609,-876,58,-146,-241,-19,152,-971,678,190,278,-409,1384,-354,874,-392,-569,-1850,781,-236,183,-563,-23,1278,867,-1059,188,-337,-927,-647,39,418,-23,-278,131,315,619,71,-39,-741,90,-1360,342,-533,333,-713,809,1188,229,-167,-269,-14,-61,-1251,-660,-556,927,95,246,1305,-450,16,628,477,-584,-1425,981,729,470,867,-940,106,540,-17,-421,-51,1164,373,239,540,-742,1651,445,16,393,771,-609,-450,177,-82,-76,-993,-157,916,378,-1388,-293,345,-171,-120,436,-14,674,-464,-482,-251,395,220,66,47,-1183,1137,852,230,-366,-439,215,-815,-611,413,-261,-31,1657,934,214,609,-367,-131,-1125,1133,674,-228,-1200,-1683,-72,-254,585,1647,388,372,435,-213,845,782,188,1014,55,-61,991,-428,586,730,764,376,21,623,-1182,196,271,165,-229,-160,271,-443,1318,1853,1231,-735,409,-305,821,-77,-338,-252,-1358,-68,118,-668,834,-738,-579,386,-237,114,-346,-469,-277,-508,316,-224,490,-1148,474,-684,555,-257,818,954,788,287,-157,-797,344,-265,-826,-76,-276,-696,131,1269,71,1722,-135,34,-131,-212,759,346,-233,606,-1367,-668,455,622,-189,-615,144,831,-49,-124,-1126,549,-1280,33,-429,1636,625,-103,-111,-195,-660,-1277,149,913,-767,-1281,-113,275,165,87,724,872,-177,-302,-401,-550,5,319,114,-580,-200,687,-173,236,-611,-184,149,43,199,-300,202,94,-444,546,72,-206,165,-598,79,-652,266,50,-1097,-686,-86,-157,-113,197,-789,-171,46,452,-116,927,197,8,61,-508,-788,161,-234,16,-101,444,-292,-398,215,-158,232,-728,-347,626,-440,13,456,-590,-383,-651,14,-586,-85,-145,-126,352,794,-45,-177,-449,83,675,107,-164,230,-10,-56,-261,54,-293,86,-76,139,-405,-556,43,203,-331,308,-403,342,-118,195,-201,-180,-773,-211,123,-29,-768,2,-506,290,-625,-405,658,35,580,359,-333,520,-80,-23,222,-14,420,-137,-215,690,-30,-61,301,-731,-56,-163,-337,73,-81,232,-583,404,228,184,205,-472,72,-1151,82,-129,-120,-147,304,1375,184,-1508,242,-147,-780,320,409,491,-627,-578,-211,497,782,-266,401,398,-92,591,41,-926,-203,1728,-372,325,957,-201,-23,256,652,360,-253,255,404,366,-795,214,145,-71,-253,405,17,-962,83,940,-776,-455,-808,269,191,-247,-510,129,361,194,157,129,-92,460,180,-500,773,-221,-205,828,-334,-761,75,1035,89,451,-413,-531,-737,48,643,-333,-339,-356,46,-483,354,54,-5,-242,237,-267,-312,248,-176,322,-767,-386,94,-909,208,853,253,-382,781,127,8,-39,87,-270,-405,581,-141,-37,-338,-484,233,576,-585,-217,-598,201,211,-342,-113,-618,41,651,-174,289,-407,237,111,57,-250,-310,448,-703,575,-626,-239,-97,-661,874,-61,-143,-231,-245,762,667,-29,-106,210,-26,135,-45,-439,464,-109,-449,101,564,-334,152,-80,
-148,-131,-1094,-647,1119,-566,68,-636,435,152,-369,-793,65,967,-997,477,-376,-252,-352,-851,45,-998,-2045,-564,1466,-140,477,-290,0,-234,-601,-738,252,-56,-430,-1217,-2619,-337,73,-530,-468,424,-706,-445,-56,-508,-247,-546,-948,298,-870,-1354,-862,-57,292,-318,-775,-411,263,523,-1015,759,378,-143,-698,-1641,703,-328,-1748,99,-286,-463,-368,-9,-748,504,89,-80,311,656,175,-550,-361,838,-1134,-23,-1252,-524,-179,-722,-678,-643,1172,219,-603,486,-524,-841,-135,-26,14,-1123,-501,433,-86,-433,-961,424,-115,-1062,-767,175,-613,-173,97,1546,119,-819,-6,-144,385,-542,311,314,671,-877,-414,770,-572,-1446,-2011,-415,-862,-506,-1460,-45,603,-1408,-595,-611,-1987,475,-850,-605,-640,-563,-306,115,481,218,1856,-35,-76,-35,369,-291,-469,-380,-207,693,448,70,1089,-867,-2237,233,-756,626,-520,-315,-2,193,1145,-275,-82,-485,498,66,1611,256,-566,-957,-913,-69,475,-3551,-453,384,-544,-362,-880,-840,-693,-481,329,17,905,-1426,-483,46,-94,372,48,-388,187,-1436,-619,194,-11,69,195,1064,929,-857,680,-1416,-1532,-14,-869,-618,-266,-36,41,-535,-345,169,1095,295,-321,446,-167,-287,-507,-157,1059,-429,-1012,-281,-326,-869,-214,-773,1073,221,56,-146,162,-540,-25,971,235,486,196,531,922,-492,-462,141,-76,-183,968,642,-708,-279,-286,713,1409,-471,-330,-647,783,-7,808,442,-213,-800,-256,20,-978,-960,-876,-812,468,-102,-259,-825,128,-1148,15,-210,-645,-856,-493,-819,64,122,1007,511,113,867,223,-38,-317,46,462,-102,536,560,-133,-479,-224,252,-661,-192,-627,-284,-537,-316,-361,316,262,-95,1042,1510,683,11,-168,-1259,563,64,28,243,43,-194,-410,533,-26,552,259,-386,-18,194,915,489,56,673,-877,560,169,255,-134,323,647,-97,194,396,319,67,219,434,77,-384,169,-239,315,-237,-300,73,-431,-473,-22,-152,12,155,-453,599,-378,428,269,365,-755,-365,48,-400,116,803,1,836,43,647,67,-206,622,434,590,-219,616,348,-405,95,393,444,457,-1408,367,258,-180,-1229,41,97,534,54,534,-907,-812,937,-176,568,79,743,706,315,-285,569,442,-96,-77,90,-336,329,434,682,20,612,18,698,41,-132,326,-102,-498,46,653,-5,-291,194,470,24,-263,594,-822,-22,-225,63,6,-61,-559,-70,864,785,808,108,495,246,-1308,-597,714,437,338,-417,471,184,530,-1017,-276,285,-131,383,7,37,-449,252,708,442,-255,-1022,-1361,321,-600,-329,-940,467,709,440,-1034,-76,248,-460,-687,-626,-214,682,647,-102,-124,-384,-448,-227,-197,847,-137,-628,876,-2,-177,-1466,377,-47,-1387,1035,-345,-465,204,-1130,-341,211,1333,428,-618,171,426,-981,-415,-132,-76,127,-501,-484,-80,369,-217,66,35,-174,-108,206,14,-788,26,681,288,-303,416,681,86,-932,-840,-174,488,-5,-535,-335,147,-74,-53,719,579,722,-420,-49,-130,-185,1280,481,1924,-240,-694,993,-704,-1034,-412,343,95,53,-434,226,-86,-721,-786,268,-688,255,344,22,420,-925,-320,368,-341,173,
-1112,222,-958,-283,-305,-822,-597,-9,182,-361,-252,-1433,-920,-81,491,-388,609,-813,124,50,-2119,251,-857,-1170,-505,-925,-292,-1280,982,51,-218,-181,280,-1324,-1280,569,-669,1122,149,-305,-306,703,-1263,-1231,-872,-513,-814,1523,306,-49,-72,-25,-450,-405,-29,878,-827,-169,148,892,-84,-909,-575,-88,-325,1564,-665,-414,208,-598,-166,-693,274,-213,-208,-408,-71,416,-5,556,-338,-22,-1147,-332,694,-543,-709,-556,-200,-788,-66,-1817,-1240,-336,207,-56,-1321,-576,-873,-1260,-1575,-826,-1101,-217,-223,-367,-595,-1153,1197,-1084,-560,-484,-1128,265,-1193,-843,-829,-733,-308,-1003,-720,-1535,-1524,-42,-1734,64,-1878,-754,-71,356,292,662,-1234,-331,73,-239,15,-190,-234,-501,-975,-392,-242,139,277,-873,-21,-468,-102,-216,-200,867,-807,-73,569,-136,7,274,-982,102,807,-212,29,-42,-355,-124,584,-211,268,620,-1444,-12,661,153,-1219,-11,477,-405,430,856,-350,693,-132,-1739,-601,-1017,571,-395,438,-927,-440,-870,-81,-712,135,29,-682,-67,129,-65,-98,445,999,9,438,-231,-179,118,-147,496,-501,619,-338,435,624,923,455,-664,-1016,-665,474,-123,-136,-613,760,103,-166,6,-985,202,-297,-417,-119,-228,628,-192,190,-743,-852,174,311,-726,-402,589,504,-579,-819,31,-829,99,-1518,382,252,377,-671,-1033,130,-930,-429,-545,-968,85,-380,924,-999,-376,-249,-1761,-338,-236,54,-1259,85,-659,509,153,791,-163,360,481,168,1288,-864,-753,-569,24,-434,-351,-49,-759,95,501,-706,-384,1108,-187,1008,-1373,-1132,589,831,447,406,-462,-65,88,-291,-339,-377,-268,-399,-94,249,-1104,-71,609,-242,8,-431,197,-57,-73,1358,357,16,334,-394,-946,-39,-437,-622,-94,-204,-413,-878,-393,-217,631,-229,354,102,212,-199,812,1063,733,-167,-684,-303,276,27,72,308,-261,-1021,569,-55,-90,-154,1263,29,177,-291,203,-1136,901,-205,585,274,-421,159,-428,47,-37,159,-62,-657,524,266,-172,478,-182,10,-99,743,-289,342,589,-432,240,-396,-336,-157,-222,245,-149,-73,-315,-24,131,-20,347,328,-761,-455,585,-189,1,-1411,-12,716,-189,-106,-1108,180,300,-138,-2,244,-738,825,97,-7,1299,-1312,67,-61,-142,32,-611,46,266,1152,681,359,247,258,-167,13,205,-379,15,162,-254,-351,-317,-381,-405,157,251,-317,323,49,-619,-419,-506,502,246,-734,538,586,1020,-851,-1113,-34,-171,129,-1046,-56,-200,-500,430,-580,-872,-377,-304,115,-1425,-564,-116,-336,-90,268,-615,-1692,74,63,3,-162,-263,56,223,-329,-1037,39,278,-680,-4,-218,-455,21,-374,535,22,-9,-318,-591,-543,-286,-110,190,-199,-70,99,-275,70,-394,265,-87,-203,-207,-474,-432,-122,-950,241,-543,237,-384,-328,-479,-25,249,-273,808,-485,-401,-198,-243,-155,907,-603,-669,-578,312,-1,-1188,-290,-443,260,-888,-260,-73,-443,-76,-5,65,-416,-346,-197,-742,-133,-231,406,-677,849,-702,-431,63,536,123,-581,-405,-1223,-534,36,-980,-2,45,396,22,276,343,-659,-144,201,-88,14,-552,-620,-73,-845,-581,-396,-57,-86,-458,-62,-192,-185,
-126,403,474,665,1662,675,-548,559,523,85,319,190,-293,807,-89,176,860,937,800,266,74,1561,817,318,1293,467,720,338,807,487,-236,1079,196,-348,1569,703,-634,1028,985,970,1058,1176,1060,771,1002,-75,806,-664,-554,95,757,-644,1222,69,-607,373,882,307,428,831,67,602,-1021,77,836,1334,-2099,221,393,368,789,356,-90,-427,452,582,-392,1244,-464,108,-220,515,1071,421,1242,875,385,965,54,250,576,768,-105,1588,-77,720,316,1077,-278,250,483,2044,901,1116,650,-54,122,796,432,666,158,934,-285,585,896,1050,-130,1210,217,439,652,-1150,1268,684,755,-617,-624,-728,157,519,-99,304,-431,-205,51,1108,641,61,264,671,429,-651,108,121,997,1642,131,397,584,810,-213,-75,475,631,-411,-219,75,49,778,627,-453,112,-285,66,936,-721,16,117,-157,2,1468,1591,1198,-7,-141,1560,310,-949,-40,-1672,-170,-79,628,-970,780,21,720,678,316,413,1306,837,-185,1846,47,-337,1602,53,1301,-448,180,-488,651,275,-127,605,574,1282,32,1164,208,-672,935,336,572,755,1443,876,-231,723,712,433,183,443,1556,357,142,464,-364,1240,28,214,659,22,249,32,-209,67,-1370,-337,1469,471,-137,-72,-86,1016,572,1899,900,282,471,-173,395,8,70,-107,-94,695,1050,63,-61,-62,89,1332,421,-80,128,-177,481,37,-217,344,-480,300,-952,592,1753,197,186,856,378,4,101,302,637,231,760,349,82,-52,708,800,-731,-9,337,1477,-299,858,-257,1193,771,-60,342,-425,669,-77,102,-193,-624,171,-901,-660,181,-33,-245,192,66,453,31,15,-476,-109,290,-302,-139,52,356,198,75,-1298,670,-702,92,-582,-697,105,53,508,-287,-229,132,-277,141,45,514,-385,-796,424,-386,325,704,325,704,-162,-240,625,202,399,158,398,455,720,538,-71,300,-19,94,25,21,-444,-303,-39,-766,298,-129,1216,-674,-234,-215,2,89,-226,-67,166,483,81,37,-453,-1116,200,-112,159,405,356,105,182,160,514,28,68,-591,990,-459,353,410,-54,-245,-761,-792,-242,-533,-378,-613,-163,335,-102,-170,-15,-461,-1067,409,358,533,32,-463,376,64,530,50,-437,289,-190,1188,-641,1716,-429,-170,-328,-412,82,-377,-127,-216,66,736,645,-636,24,-25,-34,580,-110,213,-24,517,23,-171,2,-799,488,171,1048,-370,1045,37,370,-173,326,-204,-170,1335,789,1809,166,-10,596,626,835,499,345,-40,271,-30,429,791,957,-739,721,-64,671,644,973,204,1160,263,350,327,501,-346,-237,481,538,392,135,-348,424,825,-572,-159,745,311,194,-733,390,215,-8,-1519,973,476,-530,835,742,725,-94,846,932,-14,1354,622,368,335,149,-50,214,795,191,-312,859,954,611,679,762,506,534,-155,-72,-244,843,235,215,574,286,1161,508,475,175,-109,550,492,103,514,576,526,1441,294,784,-376,216,828,223,-301,-351,719,-18,1691,354,59,633,-220,1412,-419,-54,393,332,431,-156,1060,337,732,670,385,-472,144,333,376,968,486,926,619,747,
443,1653,120,667,89,803,855,233,695,51,1721,135,318,137,129,-422,911,640,1622,2016,383,-272,1916,410,-837,-304,481,918,171,1022,500,1780,-1514,177,186,730,-548,-841,1027,-698,862,-14,170,-917,-845,1009,-626,816,228,579,686,754,70,1017,-337,-1401,-148,-1058,-387,-1022,602,-18,596,-335,7,903,196,246,485,-238,1396,817,-434,543,381,-593,-728,1243,642,181,739,556,50,-162,545,33,446,1241,-118,1014,-70,-534,-221,621,552,-802,-103,-67,-206,-291,309,717,72,735,385,-389,1991,346,571,727,-195,469,-583,1421,-540,-595,-59,450,54,525,-859,175,1014,556,148,650,-58,-691,-49,-27,919,1272,1546,289,457,945,99,-439,816,-229,2382,-555,-98,386,432,355,1189,-1086,-1131,-671,-2612,-642,-320,619,-1763,818,1036,177,-324,145,609,422,240,68,775,-315,-46,427,1157,630,206,-17,97,471,80,1326,404,1460,-518,103,431,859,1599,-521,-35,408,822,398,571,-136,740,60,740,474,-180,1138,-1065,-408,1070,293,1206,-290,391,687,886,686,2244,-932,572,-558,320,4,39,263,39,27,1916,113,98,642,644,-449,-399,723,794,13,-472,1098,345,105,179,-276,391,213,40,660,557,970,-393,55,362,160,165,-279,-654,-25,412,-111,3,15,330,591,51,-554,-27,-528,911,208,446,724,-744,702,259,696,405,-742,-677,266,732,676,-238,1258,-1338,833,133,390,1244,-215,286,733,1553,-455,1118,139,1072,723,-460,-100,795,171,82,2683,-826,874,350,761,-218,-330,421,-246,-149,645,214,-643,-34,558,174,-242,-182,-566,416,578,-177,-808,203,186,-510,320,-172,-87,-434,86,-912,178,-966,-243,151,-522,-202,-297,543,-279,96,-199,-260,-825,351,458,-65,-435,477,592,-223,506,637,550,93,-711,-158,144,27,-49,-321,-96,63,857,-170,-3,-89,164,18,-461,459,-143,381,265,10,399,-67,109,-4,692,-319,-170,-469,-1134,133,992,368,310,-62,100,269,372,480,152,17,-1127,-189,-816,-2,80,634,126,387,265,-848,504,319,231,-142,-7,-537,1069,-409,27,1090,1041,-158,409,471,-208,146,699,310,-324,4,-219,591,-416,177,145,-232,532,287,324,209,-119,-42,-220,-469,157,-425,622,272,-174,277,-23,-116,-205,1240,16,-46,16,715,13,492,186,67,-189,-335,411,-217,260,145,527,134,1004,554,159,663,198,-328,88,85,173,195,686,579,557,56,-662,-262,255,821,65,590,-98,494,157,296,271,-1368,-78,513,544,-293,-1058,205,52,105,588,151,434,-1065,-42,-327,105,-73,237,445,-221,50,491,97,-62,-1088,823,95,-880,255,554,33,-124,572,737,-802,58,574,-308,295,56,221,353,-215,-649,272,522,990,181,510,345,413,563,-247,133,-512,803,28,-92,44,-115,59,-149,40,-928,-385,869,633,114,1009,632,-171,268,186,277,52,253,-308,464,-3,273,-138,718,582,-159,-7,-1508,-369,275,87,-664,19,339,-1489,243,224,79,217,-64,582,33,-916,-492,198,343,-324,-482,255,243,325,-613,-540,-340,153,658,-304,-392,-291,-604,
619,260,160,-38,2169,41,-75,391,0,198,1079,1362,-947,-1170,659,244,481,358,-118,-695,565,1429,32,214,491,1343,473,-1128,-263,1656,189,23,126,-103,1162,-226,147,-684,-220,1113,-459,-711,635,-723,-84,461,-398,-82,-720,635,-127,-1464,1286,353,-431,-483,-1565,-33,-452,-980,79,1855,86,205,936,-57,593,272,-473,-619,23,204,517,-401,-272,903,-546,293,566,-537,63,113,659,-48,10,-399,-175,83,200,-311,2274,1117,284,621,-210,-351,-765,34,164,34,271,840,158,260,1106,-468,-231,883,-1072,192,162,-307,-361,-424,174,716,367,-166,-185,563,-116,-322,327,-787,988,198,-857,1091,103,-159,507,-358,157,-629,651,-39,281,-1621,53,-112,-346,-539,-580,-378,93,-52,111,-248,122,1075,1828,-102,355,-293,550,-953,-343,-116,468,-177,49,550,278,-972,606,-456,-190,-145,253,98,279,414,936,-117,-533,522,1215,-630,-42,710,96,165,-28,361,-288,-207,882,847,-312,2231,-1236,128,331,602,-1217,-466,-223,-820,744,-294,-216,-228,633,-732,759,-936,417,884,-756,-498,9,368,263,475,640,-327,669,-215,152,277,-318,-134,611,-755,-61,754,197,-565,861,-648,342,287,1084,-419,-829,-673,-646,-100,-183,-714,-306,1159,-93,551,-558,807,-746,408,237,982,489,245,945,-590,976,955,-534,473,-376,751,612,-665,-821,-326,-482,9,948,649,52,400,-1051,159,193,509,1197,-311,316,-69,-218,-372,-132,-815,-178,638,1006,-846,93,675,-390,-235,142,566,581,-523,-299,-485,968,863,498,-752,-250,81,-756,353,597,-206,217,39,698,-151,185,-28,15,125,-917,260,270,-95,-621,417,937,-403,-624,-137,-226,-199,406,-314,880,418,98,-493,28,-217,39,351,-288,-674,694,-695,-116,30,95,35,-484,-76,-276,405,-169,-314,925,185,-28,-354,208,-336,-82,554,233,-872,-37,-342,413,68,56,-448,179,433,52,820,-584,-17,501,-191,-509,-361,-947,205,-348,295,-342,482,-198,179,100,-119,9,128,257,64,-403,-519,-732,-25,88,363,0,-99,425,1077,-13,527,139,-370,3,-302,-287,-1503,547,790,375,-47,1063,-88,-63,614,-525,40,196,-128,46,405,15,419,245,109,-208,-391,355,-395,-743,409,-375,-3,-363,205,-160,-189,1048,221,4,-165,540,323,-566,223,-736,705,200,-890,-242,200,1122,165,589,-121,-448,-157,975,-360,-843,377,461,50,-235,124,-218,420,209,-541,1241,1028,1544,92,321,1169,-57,218,435,325,-154,-42,-178,440,29,540,304,265,459,538,-252,192,880,-916,-141,61,301,-25,-599,-249,-137,342,1040,-203,194,-172,-529,47,4,-325,122,392,-206,166,-911,-674,320,-18,38,649,3,-150,965,-36,523,499,90,-130,1004,-151,-448,30,432,13,-375,-491,-264,254,955,229,162,554,12,754,-661,-703,152,405,736,215,257,-341,1253,-56,779,177,7,410,277,1444,781,-343,1025,-1302,119,118,990,248,-12,231,232,422,544,135,891,85,-1090,838,-341,-686,-603,-256,1057,-224,1489,-89,447,-707,216,101,-251,-641,1092,558,372,-441,-165,369,-163,341,
81,-141,-877,392,807,47,-131,336,2079,216,759,73,-528,725,-263,542,1626,-257,373,1123,-214,-1702,-1263,-110,21,-1657,250,918,625,1136,-503,1551,327,592,556,905,-1212,699,-411,762,765,838,737,-923,608,-114,882,81,567,535,1029,1443,-140,-222,137,505,-94,360,1113,-1176,-671,219,-1211,857,633,-408,-312,-156,-400,570,351,856,-116,-1313,-545,-356,230,273,-888,-351,672,1015,-48,-50,771,-184,284,-407,735,1566,-1554,-810,104,381,1001,1054,-1101,-428,-472,-972,155,622,934,-1,65,-84,-793,1338,-758,-1181,-57,-360,186,-218,451,119,-934,254,-991,494,-300,332,307,1045,181,632,-869,859,478,-150,1285,1126,-37,103,-296,105,618,14,780,-241,-97,-705,-402,350,792,-157,373,71,289,-199,495,467,-336,-44,517,-647,-62,68,441,-626,-550,-673,-1316,-998,-569,951,478,-661,-292,611,-562,642,106,-233,-185,398,-495,107,-508,1281,-830,-146,-521,-295,-44,-372,629,554,-1451,1179,-76,-223,59,-339,553,-346,600,-1020,-362,-531,285,973,-80,-433,3,-1347,-511,422,-442,702,-912,503,-617,-376,-19,758,302,-478,-1479,142,80,-153,-1027,-744,-59,321,579,-736,-323,569,530,22,-689,-224,138,-429,-457,-1327,-114,18,349,-19,-793,-750,494,-112,-1090,-82,-822,-1336,-245,-1175,-319,-242,-587,-541,-626,-1062,941,-1335,-381,-232,-572,-128,356,254,-401,-1202,-166,-719,-645,441,-287,-812,-788,-59,-320,-382,-447,-582,1026,1161,2,-822,272,-483,130,-768,-405,-1130,-310,-22,-1364,-898,274,518,-309,-1403,-219,-1090,-167,-525,-124,512,110,-162,-541,56,329,235,-222,-390,358,-1387,21,384,401,-562,192,-664,-655,-27,497,356,104,105,125,390,6,-826,95,-863,-81,265,43,-780,326,64,188,-332,-295,683,-458,-130,44,343,-219,-287,84,320,-144,-445,123,47,-1056,662,-62,286,-24,625,-89,151,189,-184,-721,123,-147,35,-14,94,189,-382,-159,-181,-211,500,-329,-115,458,142,260,183,-207,44,381,89,141,-68,-542,132,426,207,229,1,-354,143,150,262,-290,582,84,-191,-19,173,292,-64,-225,96,-743,312,551,-451,-295,32,-694,-243,43,-94,19,-383,-414,-487,329,-10,-442,-320,-4,156,-467,-273,56,-80,616,-182,474,170,-276,328,-295,60,-180,42,730,-67,40,584,-349,80,638,36,274,-476,-209,796,412,-64,535,1366,766,691,349,-61,-207,-519,-126,-212,601,135,-161,322,178,-429,-85,-63,-492,-811,213,599,483,293,-64,630,598,839,-18,289,-908,709,129,-259,298,800,439,-560,-27,-207,106,-373,696,292,361,-450,1234,74,48,-275,366,25,255,79,-153,-137,-805,433,745,102,-508,246,-686,-48,232,129,63,-883,646,-35,-214,100,201,198,-201,540,-60,-125,-1060,301,794,-142,69,-1163,-601,-73,534,-168,-58,1169,-847,325,501,97,301,-253,568,911,-374,555,-401,606,-242,-278,-232,308,-269,632,522,-232,-542,-439,-774,550,351,1260,-526,-482,577,283,-748,-176,-98,102,140,-690,638,363,600,823,14,554,622,-29,1229,-1229,-236,127,1024,896,660,18,508,127,
-267,-17,-359,333,-910,-208,-192,-431,-193,-970,283,-126,-486,1095,708,-218,-362,-681,-98,-22,-172,-756,200,85,-223,-60,344,-365,-228,323,210,453,384,773,-433,-713,54,510,-350,-513,1094,-1467,846,-316,-251,-192,-285,-721,118,230,2006,615,518,-30,420,80,798,-511,-388,-557,-1157,-149,180,663,-714,-444,-267,-539,647,-220,934,1047,-201,-111,439,-287,-416,749,212,-489,88,-373,309,173,133,-341,-325,-141,29,489,-320,243,141,-391,537,158,-113,-1070,39,-950,315,-1496,239,-117,-1281,-138,-121,-454,104,-522,-190,68,-378,-253,-366,24,-213,-375,147,62,-113,689,1032,-141,1098,1569,337,196,424,157,771,41,123,40,28,-554,-153,2098,330,-284,-247,31,469,1133,340,277,-410,53,-100,-279,595,250,-1641,248,457,96,250,-1017,-817,465,-132,285,-498,-1040,-536,121,-199,-137,-40,178,-864,-36,-360,-129,151,-462,-1466,-419,-168,277,132,-307,-1031,27,-43,-566,-477,-575,136,-472,1792,423,-56,-17,-627,116,-728,-504,-632,-76,269,444,-309,268,124,-639,-509,-146,335,-111,709,4,0,-92,-543,-250,-895,-927,-347,-43,980,1142,-1004,183,-688,104,-283,404,177,-90,136,96,-1215,171,-326,193,86,-288,1151,1546,-234,177,154,517,357,-1156,209,-557,-521,-115,-343,-620,53,-103,-1520,394,194,-376,-373,-634,-499,290,911,358,177,-59,-1358,-817,118,429,-920,-391,-483,41,-457,1512,-144,452,578,-54,-169,622,619,-968,239,187,-302,-283,-290,-890,-436,-286,-418,-56,5,127,-143,-650,-128,-177,-150,-313,-272,-413,-990,29,-46,221,225,-582,135,673,347,33,-52,318,957,-37,437,-456,-1132,-344,-185,28,-25,478,257,-196,-445,-717,-87,209,-558,512,479,422,349,-21,246,-194,531,334,-1362,22,-40,179,404,462,571,-479,195,-576,42,5,-329,-459,-412,-1319,-305,-294,-387,230,-651,771,-919,88,-607,-302,352,66,104,803,512,-361,116,-526,475,761,445,60,306,-635,-374,-44,96,-516,35,73,451,-363,-32,40,-185,-11,-257,342,-104,-140,188,293,-231,-393,-816,-522,-284,742,201,772,127,340,634,198,707,-115,16,300,-78,407,347,-7,-145,-598,-210,343,453,398,617,-433,-128,134,-261,-124,-497,-175,-330,-7,-147,390,-53,183,269,500,525,-420,75,292,-333,552,-427,-685,-30,-177,-522,-133,859,513,144,196,383,84,-623,-571,-292,389,473,-257,380,-1268,293,-512,-1450,0,141,282,248,148,257,28,-455,-466,428,-1020,171,-188,-259,-462,98,-338,409,74,70,-407,-831,-276,-712,-402,89,-322,-92,445,117,-674,-220,86,148,148,154,258,-9,-240,-56,-134,-4,124,-264,-46,326,-501,122,-213,91,229,-943,148,548,-251,-404,34,-44,151,-910,43,156,282,-240,342,143,-89,-296,-560,-349,-242,95,-938,151,1339,-222,-637,128,240,244,571,-1398,-113,-1242,-71,77,-802,45,196,-482,159,-765,-507,-40,-419,-82,-350,-5,407,-227,717,-372,-100,263,-181,438,-425,176,-2,-592,28,-20,64,-627,252,-92,2179,-254,-676,-157,-89,-743,-766,-497,214,-330,-775,-123,-221,
-813,247,-2031,-573,-393,-166,-1685,313,-363,233,-345,-105,-161,456,962,299,-63,577,-440,-501,-684,-13,64,-422,-101,416,-1374,298,-697,-395,-821,-1554,555,-841,-436,-869,-408,-1251,45,-869,-548,-454,-772,784,-2014,-208,-356,-1059,-1693,-493,-575,-299,-81,-597,172,-1348,-459,-155,-2621,517,110,-854,-1485,-759,-492,-220,-3178,-135,-715,-491,-572,-991,972,-1221,-792,-487,-1441,-164,-1137,-616,418,11,-1672,51,184,-822,-39,631,-599,-425,342,-341,-437,867,-616,-630,-371,-393,-1492,-513,33,-906,-1329,-861,208,204,124,-491,82,-2089,14,-713,-148,358,186,-97,-1144,7,76,-836,192,-2486,-372,-119,-738,-465,1604,-930,-2223,-138,-730,-52,-428,-2199,-939,-213,-1094,150,-637,1357,791,-1382,-350,90,-89,-669,-318,-580,-507,-1312,-165,31,-1041,-130,-156,504,-1177,799,295,-112,100,883,1186,709,369,721,106,1324,-149,-126,-1150,-310,282,151,-53,-967,-110,471,400,2495,234,196,-838,171,228,-535,-138,-802,494,-540,-294,-42,777,-5,355,565,-14,211,-721,58,-44,723,528,-93,-155,-538,-1915,-69,-531,-213,237,-406,-433,103,279,234,-1410,203,-2259,-147,1001,6,641,-1287,-309,-455,-580,305,-1031,-2023,59,-61,-702,420,-100,58,745,763,-391,288,314,-114,311,864,-193,-730,-146,438,-1654,641,537,-186,219,-107,-68,-672,195,-160,43,-2436,170,254,-43,-602,-140,-41,-1164,578,279,-306,650,-375,418,-389,-261,5,-29,114,-533,37,-105,17,-172,-1821,-24,395,-492,-138,10,1090,517,-332,-1,396,775,202,558,-135,-272,-561,-220,388,-356,-1268,-193,-437,-601,549,-281,272,-520,240,-823,603,-1019,-606,696,1137,284,-747,-80,-310,-57,330,560,-889,-931,572,-218,-226,-834,979,737,-112,224,-231,-536,-34,-730,-296,563,-642,481,-415,78,297,120,510,-619,-625,-734,-222,571,690,70,301,1020,434,-1489,167,716,198,-451,216,-294,899,40,-609,-648,37,502,323,-162,82,778,356,289,-847,213,-716,-250,293,610,-424,-125,293,393,666,-81,100,-554,138,-519,456,-886,-994,-134,311,-712,-295,263,-74,-230,151,655,-231,441,376,94,-1217,-409,543,-635,546,-173,-913,-503,232,180,394,173,16,214,-515,-464,873,-991,466,93,-398,310,-711,200,-274,392,-239,-413,-1200,-345,328,115,-333,-22,-298,674,-173,134,-334,-315,-212,-768,123,-1933,-1018,-693,-203,-1612,3,-304,-354,330,32,156,-490,355,-297,140,-207,-11,-745,-1115,-246,-455,-861,-340,152,-479,-111,-325,-304,-1194,187,508,-412,-231,-1070,-34,-920,-455,80,38,18,-896,834,-798,-248,-386,127,-1929,-972,-113,-145,10,-434,-672,-324,-112,-96,-583,72,117,26,-982,-156,112,-455,-2098,128,-588,-836,-544,-512,-112,-2225,-545,492,-935,178,-1307,-993,-409,-387,-1491,-355,99,-732,33,-95,-623,-40,519,-84,-535,-527,81,-372,-907,-809,-1325,155,382,350,-487,-817,359,-640,168,-52,188,-2016,-670,-288,755,29,-389,-485,-1174,-259,109,-833,600,-3170,-1323,-554,-290,-45,1320,136,-1209,195,-481,-322,-274,-2468,-516,-320,-1181,372,-396,214,448,5,-396,625,-16,-174,-234,-575,-1579,-876,
304,271,673,649,-385,133,259,-325,81,170,1,856,-324,468,239,391,926,-127,-189,1512,795,296,384,292,197,-531,472,-206,483,602,449,1051,354,682,142,57,478,1009,-75,-125,1392,-1408,1493,-235,524,385,16,-589,252,1070,1757,1682,983,418,89,1180,762,-560,861,-594,-767,-59,701,653,-246,304,-128,-166,1041,32,1125,1030,-465,632,894,-788,297,822,-220,528,-256,91,1047,223,768,-529,528,271,387,1532,204,491,453,-336,696,465,114,-500,1066,-44,-588,-1693,383,-38,-656,106,318,-618,-185,-188,28,632,841,-355,31,1448,532,26,442,-244,408,1176,1702,-436,623,1638,92,8,969,413,1380,687,446,148,449,-166,344,901,815,-460,-576,-99,475,606,378,316,-54,269,-95,287,-200,637,-176,290,414,160,245,-455,-770,100,-472,-41,-1083,-1582,-593,728,173,-188,84,746,460,699,-84,-572,143,183,-853,-223,-20,-161,91,-382,-23,-516,-539,-352,41,89,-259,-251,1705,-241,-90,116,-142,266,-245,-770,-764,-112,-67,1381,-123,249,318,-567,1193,17,306,-249,117,-250,236,-105,115,-527,-65,-672,-286,9,220,503,-915,219,173,141,-110,470,150,617,404,342,-351,-23,-95,460,319,22,582,1528,-295,-90,199,-154,74,-386,133,-103,47,-225,-439,-313,72,-904,-460,542,120,-224,-498,-51,300,547,789,122,-23,294,-418,-307,287,-512,-187,352,-58,-414,-240,1579,783,68,200,173,129,1072,281,-436,-118,163,278,-179,29,-1067,-271,473,-365,-296,171,93,-489,-303,-9,-695,281,-574,102,-96,137,428,-194,286,174,-608,-35,2,563,31,78,379,-20,380,530,-184,-1000,-75,-94,186,-270,205,624,-591,315,224,244,32,-410,-197,-346,371,119,-67,325,-262,323,279,-496,286,-207,-284,-55,229,767,149,604,-465,-744,-562,-641,-55,-821,-1002,-435,-715,-150,146,-615,410,-517,-271,-277,-370,726,332,-49,194,158,-271,-160,-605,305,1097,-13,344,188,-645,-646,409,469,-653,-75,26,-128,-807,275,527,431,-75,153,452,51,-290,37,373,-65,158,-911,102,-543,521,63,269,24,622,570,-174,609,8,183,902,676,88,208,-90,54,-451,-867,209,815,245,280,-506,-193,12,-418,73,-433,-51,-378,398,292,463,-200,420,121,412,127,-348,596,403,-487,-205,138,-9,130,-282,346,340,899,633,171,347,364,768,-750,214,-483,259,12,182,539,-294,441,356,44,615,604,309,777,-325,482,-126,164,-341,291,-261,31,271,177,-10,322,239,6,-194,74,-347,-314,86,-560,354,615,119,483,616,130,-260,564,466,271,428,753,239,492,-240,290,-366,247,123,162,-44,-179,-185,599,-36,234,205,-828,707,1089,-346,589,-170,1319,1243,-194,174,510,145,296,530,254,398,129,-428,-42,-314,459,164,228,1795,163,-17,759,613,-292,130,-292,-102,-879,-6,265,38,-86,208,230,158,-583,-380,571,242,868,574,434,-244,426,1553,458,114,298,39,-545,236,274,300,-371,15,208,335,-110,177,18,1267,-333,-467,-70,-324,-140,-549,-100,218,-266,-332,167,-153,
-103,212,712,426,643,323,9,644,300,898,343,422,-381,-934,-93,-171,-24,1689,589,-42,248,971,-48,198,251,1277,945,557,1298,-676,-429,-611,502,-168,711,1070,514,-413,783,1202,-201,1764,-80,990,-304,188,479,411,-734,-203,-533,-192,344,141,405,-634,-171,107,381,906,1272,569,-86,930,-38,-366,-46,384,603,170,35,-93,148,389,594,609,413,88,-3,720,358,557,373,-28,-316,664,-427,-68,84,-1175,63,567,120,979,-77,572,202,1130,344,1291,1089,2393,461,-57,1007,140,401,554,646,1298,509,124,278,384,530,-1355,753,270,323,507,315,-901,-159,1301,64,-1417,58,43,-202,200,-384,-375,739,718,106,638,83,-680,-170,283,348,751,-233,-847,282,335,819,394,511,385,-1066,-790,1204,-179,-951,-115,-159,366,1456,435,1139,-9,-745,1832,639,-1002,-282,1283,-202,-69,282,210,169,253,536,-59,1515,-57,806,-978,142,137,316,52,-249,742,297,774,42,174,-209,440,-407,1085,418,242,454,495,346,-15,947,210,1082,-145,-309,637,1002,-544,-78,312,205,46,-86,1528,586,257,21,813,1403,48,545,577,852,743,675,-192,485,432,240,727,50,320,1864,459,326,-448,-117,622,-547,-15,224,30,486,304,-221,578,-773,383,-127,-208,1100,380,48,-78,1533,-559,362,381,786,1297,281,73,-610,-81,450,-784,805,1335,363,-653,490,261,201,1092,-246,-733,-71,-366,-96,12,241,-926,198,761,-10,39,490,901,-298,401,-262,234,74,-477,-257,-431,-39,811,498,852,-1399,281,-9,704,-496,2,-142,-208,173,146,-151,-865,213,199,-26,-120,-133,858,46,753,449,-777,-169,84,-456,96,-564,802,3,1277,81,-480,742,-840,322,-133,-321,135,-266,57,312,-509,846,-312,-106,458,166,-659,96,272,-651,608,-119,28,46,249,397,970,82,-87,-20,-488,322,-99,439,-657,502,206,-642,378,511,274,-410,36,167,-332,365,-10,-479,329,317,361,453,74,-606,335,-400,254,0,1021,216,373,-83,535,222,-201,-189,386,-287,-368,333,95,1017,335,-14,-127,49,-305,39,-344,-754,116,-745,378,278,-981,-307,75,-217,349,157,210,285,-427,1,191,-645,162,28,78,351,133,41,-200,172,-73,-151,-95,251,-96,390,-699,-81,485,132,-65,-360,141,511,-842,-419,172,182,604,-118,-429,-340,-123,190,-260,832,555,-245,949,293,-311,198,388,161,339,871,245,577,168,-398,983,331,-417,802,325,-167,533,165,-79,584,796,269,515,88,82,-50,844,618,1131,831,183,710,269,-616,-299,87,992,1038,-241,119,-505,-169,392,-290,-30,-102,150,-404,-36,53,91,-155,697,507,401,86,9,927,-331,283,401,364,45,380,-194,916,179,-337,-90,293,-225,-79,319,187,348,147,205,164,161,81,-824,-259,123,537,-147,1127,1262,761,-155,725,191,-392,259,126,595,502,-88,33,734,314,-412,457,833,72,-439,202,-331,-373,741,330,20,516,-146,-205,359,249,75,349,118,779,-587,80,-758,631,676,461,536,-227,548,719,449,939,630,-428,521,
-1479,90,-1314,-1718,136,-547,886,-910,-281,-195,-841,-106,-992,-1289,867,-1902,-1353,-1256,-1257,-2631,-562,1407,-357,-1401,-603,1317,-950,-659,41,-1755,-1112,-1797,1336,-683,-1836,-447,885,-623,433,-380,-821,-1118,-1003,-161,-1317,-1121,-544,-411,-343,-738,-1336,-2209,-625,-635,-270,-217,606,870,-538,-839,221,-1285,1225,-1235,-2250,-186,1073,-267,650,-532,-444,-1704,-974,796,-74,-602,-992,-55,69,778,-1672,165,744,670,-2308,278,-872,-639,-1546,-982,922,270,235,-1126,-1242,79,-1076,-285,-1129,-385,-1063,-75,-2283,-1747,-397,698,-1388,-3360,-61,-199,-610,344,-646,-1028,-364,-1276,-424,-744,-663,-2196,-981,-1375,-704,-1187,-1304,-1172,2098,-762,-113,-1985,-749,-1299,-133,-221,-605,-700,-570,-13,-950,-1488,-1647,2359,-883,-1289,-1691,-2643,-896,-522,-195,-732,197,-1506,-134,-1171,126,510,744,-191,425,-31,-14,262,-254,-183,-519,-216,101,12,272,-1119,433,-278,-224,-164,-25,-1158,-444,-428,419,-719,750,-70,-897,187,52,-355,-423,-780,-787,-1009,-525,-25,306,339,-388,-997,299,228,-519,-852,186,-1431,314,-102,-495,492,-1605,-186,234,-585,-721,-384,438,633,-271,-654,-1072,100,-555,321,-82,-55,30,-85,-1009,-345,-669,234,-43,-486,-717,-379,-1,1515,-906,93,-445,785,525,-676,-6,-512,338,236,397,99,-289,-9,-689,200,-300,310,-841,-188,122,233,-55,102,-58,50,418,490,-7,-267,-174,352,579,692,-496,376,-1082,-454,413,507,374,-42,-982,-35,641,-1272,-90,23,114,224,283,-177,-348,-49,-466,-494,-767,-1766,772,-6,-1602,-1111,-600,-125,-400,61,175,-35,-326,202,364,-24,228,-41,22,-597,-9,632,47,455,-132,-216,-139,123,-125,284,1031,168,-67,-108,-301,17,359,-55,179,276,240,435,227,-279,109,397,-355,-163,-294,-262,230,-458,62,767,-515,-123,-61,94,-299,-85,178,771,-831,-140,376,-192,301,-208,-196,-611,-164,92,-36,205,377,-55,169,554,-13,527,-331,-71,349,-96,-450,-824,-78,329,-206,43,-185,-86,-173,-334,-213,55,-109,-365,106,151,-623,-192,-161,-83,-443,200,-174,-27,515,-224,222,410,123,-139,-334,51,333,-518,831,-261,119,-328,660,-447,198,9,308,-69,647,392,20,102,-531,525,34,280,-42,-683,108,936,-194,-358,-628,512,-213,4,-132,127,330,-312,-609,-99,169,109,-652,79,-76,455,-768,-626,-411,-293,-295,-1834,-304,-606,32,-1563,303,-107,29,-290,-1132,65,956,-2095,-236,-183,119,-2100,276,646,-519,-939,271,1415,-183,-841,-508,-1911,-269,-942,1797,-1516,-1431,-455,847,-1427,-833,386,-1073,-1242,-1105,-1352,-397,-1300,49,-91,-513,-188,-1185,-1456,-599,-179,-1139,106,450,412,-438,-1312,80,-515,1203,-942,-1116,-664,1307,-302,-156,152,-1293,-570,-1094,753,-496,-368,-958,484,-1235,894,-1538,4,396,867,-1233,-753,-1132,221,28,-1288,33,-128,47,-360,-321,849,-473,-111,-1261,-536,-586,-475,-2482,-1134,-314,171,-1089,-1905,-534,-627,-10,-661,-211,-1263,-1078,-234,-607,1284,-1148,-382,-1909,-349,160,-526,-709,-775,1924,-804,344,-2907,-55,-210,3,-161,-782,-534,-810,266,-878,-1216,-2414,1903,-555,-1509,-2280,-1985,-1462,111,-1646,-1221,
-482,162,-1334,-341,1111,469,404,1078,124,395,-927,1463,-246,-1606,-519,-504,680,153,1364,-582,227,427,-92,648,704,579,578,1801,-804,-1183,-248,773,506,-444,479,-223,1620,-225,-668,368,330,-143,176,1310,1409,189,151,-227,-159,-483,360,99,254,976,250,-488,389,890,-620,-1474,698,593,1076,-260,81,-1638,603,1231,213,42,-753,-91,439,-693,1122,676,-19,-727,-591,-828,25,-176,2140,200,-987,298,37,237,-342,1100,883,1044,561,411,695,71,395,880,396,-350,-447,736,876,-1072,782,-166,479,5,-870,-223,842,370,261,34,574,-903,-849,1631,1195,859,195,-188,-719,-963,-1106,201,563,712,232,-790,534,577,2051,-330,181,1025,-270,-819,-320,153,272,398,-1594,231,-54,104,-31,97,-245,446,1190,-967,-127,36,571,-42,304,1311,649,403,66,-250,-365,48,-650,31,449,-4,487,-1136,108,-595,-428,552,98,-436,389,-335,-1510,-162,104,-684,-895,-683,-471,17,214,715,-718,798,-19,460,-1047,433,470,-692,1823,405,-368,-418,-301,-902,-851,53,-543,-960,-434,889,-372,351,-1018,-189,666,551,-23,-437,-980,117,591,834,120,-1349,75,238,-794,852,-36,-65,-733,191,264,-51,1772,768,-189,216,-279,548,191,-1102,-743,158,214,448,137,1127,422,976,460,-1039,987,188,-242,-1927,-476,795,-413,-626,839,-438,579,651,575,-1048,333,945,-152,1126,-183,916,-331,-516,342,-360,1700,-783,-1713,-84,-222,-953,403,-305,706,83,679,59,-140,1160,17,-379,-528,-287,736,337,-72,1054,-235,1209,-263,-418,21,-352,-939,220,258,-222,-184,90,800,-189,-140,3,250,482,311,-227,128,2,36,-249,-14,-510,-649,-214,-193,-138,431,430,185,144,347,-238,346,217,447,-19,-132,-421,479,-464,38,-103,-136,-1138,-1141,-315,-144,265,57,196,328,-616,-290,58,250,-269,336,281,-450,-1132,147,-64,103,-45,-68,-600,134,-41,22,143,-105,-444,-497,-367,-76,319,85,-152,-774,189,-408,785,-118,472,-861,30,-381,266,485,-427,233,744,397,279,-118,393,889,-130,-106,946,-182,491,-906,149,133,-288,147,93,1084,190,656,67,602,996,-245,-519,-3,56,344,-43,6,221,-576,-198,-609,392,-120,-343,-400,376,-151,126,-1020,-126,-1123,249,-65,149,243,-69,67,-279,370,-26,-4,816,-59,120,-382,59,-45,259,291,-201,451,-358,-231,-588,26,100,-429,-814,-234,1155,-396,200,-288,164,-222,-1195,169,358,1004,226,-717,-56,721,14,270,-519,-226,-581,-110,283,-1151,-168,659,1295,-522,-395,82,-318,-633,289,658,-45,734,280,838,-263,239,188,-760,109,271,321,748,-222,-102,349,-243,669,1365,30,-114,-1089,1709,398,164,667,-66,67,478,-189,1732,-190,498,-1084,287,377,-404,541,957,312,-180,317,414,328,199,337,-535,-45,763,259,91,-154,1001,1040,446,-620,-723,43,233,-816,204,462,380,-482,1593,-1278,769,320,50,248,-734,755,273,445,392,-92,18,-341,163,186,-671,56,627,156,48,-430,219,-102,554,48,1273,-72,720,-656,23,503,-470,1195,1083,613,301,-280,-501,546,-55,-412,
-960,-1192,390,520,-131,-290,-294,-188,-585,-469,-1759,-1231,-55,-980,-348,-61,-105,-874,-536,-1546,982,67,-93,-873,-940,670,-589,296,-343,-64,276,-784,372,447,29,-440,55,896,-1034,-118,204,-392,-453,709,1860,-980,-234,-1232,-145,-317,-496,-526,-788,-170,126,-923,602,745,-818,-449,788,726,-1940,118,118,-1673,459,190,177,-212,-547,-366,371,-396,-193,96,619,-474,-222,-740,-8,-177,-149,-324,-1986,-368,-903,-567,1468,-906,-839,439,-814,-336,3,-491,342,1037,297,-748,849,1610,-712,551,-465,175,-1328,635,99,210,159,-883,425,-605,542,-570,-713,364,-671,719,-1605,-65,-1963,-850,-292,209,1187,770,151,-511,-1595,-877,452,-1010,-409,270,-627,-261,-838,238,-1240,440,-2064,11,-59,142,-1110,228,28,-1019,834,-1859,-383,374,-1037,-146,-212,529,1451,320,-1371,-512,422,45,-33,-319,289,-503,-660,-614,718,-166,-704,-720,94,-846,-772,-823,-581,-375,324,-99,-579,515,-655,576,-576,-100,-495,169,661,875,-57,848,62,-934,1627,910,17,72,891,-865,-1377,-267,-798,-155,-1477,667,-302,1231,602,189,-861,1272,-933,-105,-966,-7,532,353,164,-836,576,281,-416,237,60,298,-17,-136,358,-30,715,342,-820,-402,-844,-54,1494,367,42,533,-745,-76,70,-136,-111,1624,943,-686,822,-1319,-1150,-181,-172,464,-1254,-352,365,444,34,-566,727,-679,1076,473,-575,316,-643,-31,-714,-175,-1285,700,-454,706,-997,1156,284,-675,-105,-89,-160,-977,353,-481,-225,543,-198,107,-1373,-1254,-419,781,-656,-108,-1132,732,-595,-909,-414,-832,355,154,494,-309,-182,-97,930,750,-501,-611,365,307,144,-420,323,-139,267,323,291,-62,39,-77,-502,-132,67,1457,-505,336,-569,-534,-234,12,184,-177,211,525,595,34,20,-542,-82,-88,-1122,57,121,-207,161,-294,-322,520,-66,241,288,-254,-189,267,-467,-1032,34,-325,141,63,-499,-598,-83,-136,340,-42,-6,-90,0,-129,-297,-267,1129,174,-617,-311,-319,93,-36,-114,-792,-58,214,90,1174,-97,235,74,-120,415,-233,-117,24,-57,256,731,-300,-423,-283,-250,140,-390,-369,47,661,341,2,216,-484,-131,219,54,368,1182,-193,-169,-322,-155,201,-481,515,189,69,124,202,-74,569,-184,-229,633,31,-1,-308,-440,471,-41,-425,451,-476,-455,-453,264,-387,-473,363,-127,195,-548,-687,313,-876,177,-281,-426,309,-200,-1327,-1088,248,-412,-394,-94,65,-514,-436,-239,-582,123,93,14,-1317,102,-1129,-269,-110,-1013,63,18,299,-318,-390,-235,-195,51,826,-292,209,-487,-924,-660,671,-669,-932,-616,-512,453,-82,32,-1199,-116,190,-8,872,-977,-505,-344,188,-476,-361,245,-759,-470,674,349,493,-90,10,-11,-503,-393,-476,-79,15,57,-1126,-490,-1027,-692,-24,-230,-84,302,108,-1207,-347,-41,-530,56,-913,-1008,-25,-813,133,1149,-204,-62,-91,120,-1010,-550,-343,44,-210,-682,278,430,529,-13,-148,-670,-612,329,-820,817,-1042,358,-241,337,-1371,-288,-1510,-28,1336,-490,98,-785,-566,-165,-627,-588,151,-227,683,-359,1067,-237,-347,745,260,-109,191,-443,733,719,-671,544,
375,-271,-330,272,-1119,46,-103,-146,-403,-831,-13,-109,-642,1381,594,-471,29,-1176,153,-163,-489,-1003,508,-372,-258,-1126,140,-622,-144,-191,-82,724,292,502,-911,-580,402,1264,-305,70,1525,-1030,443,-318,-763,-64,-553,-55,-19,685,2045,534,-579,153,134,737,1108,-728,140,-482,-1444,-459,-13,-93,-751,-635,-221,-223,563,-278,244,1363,17,0,143,-72,638,78,-383,-275,-688,-687,12,187,315,-392,-165,-173,-806,279,-310,-174,186,-1213,275,285,-729,-795,99,-703,451,-877,172,524,-1344,-965,-51,-610,372,-143,-836,453,111,-387,-160,526,-215,-568,480,-80,10,1102,268,-7,3797,577,115,176,346,363,130,368,84,362,157,-469,-45,2355,721,-100,-209,262,-689,1238,204,182,183,871,-50,165,621,161,-507,-102,-237,310,701,32,-1378,345,-992,207,-130,-303,-943,436,69,-802,193,273,-789,-127,99,118,241,-82,-874,74,137,163,-106,298,-1201,-504,-173,-712,-333,-780,2,-285,1942,-559,42,-305,-747,209,-698,-126,-610,597,1059,803,-1546,563,135,-495,-1018,-105,180,-258,383,304,-347,1344,-517,-436,-428,-336,-313,330,1101,1448,-237,-159,-30,488,-406,263,456,-673,-738,-160,-1435,-252,-101,593,148,-324,347,336,-249,-510,421,-28,234,-1234,360,-74,-923,198,-127,-127,831,-94,-1419,-521,272,-500,1,-226,-201,607,1183,194,176,625,-519,-849,240,477,-178,-656,511,-358,1601,1204,-568,226,519,86,-243,506,284,-607,-330,165,-465,-948,187,-534,265,-1549,29,107,27,366,350,-193,-108,-180,-1286,-299,-307,331,-386,-350,-105,91,-85,4,-176,500,173,-227,5,76,-26,-285,380,-22,-1410,-319,35,353,-75,132,137,-34,-400,-184,-84,673,-347,687,-657,-281,268,113,399,664,408,406,-1129,103,388,522,564,-187,307,-158,-991,-637,400,255,-395,-420,-260,-239,-44,-68,-349,431,-252,961,-576,-138,-358,93,-62,74,109,66,654,-401,-179,-681,77,376,532,-52,924,-607,-55,-128,96,-49,283,343,-340,-107,-228,-124,-494,-548,59,173,159,83,193,-712,452,-372,243,-846,-471,668,277,1254,233,284,781,233,478,-205,43,389,-18,297,24,360,6,-385,196,86,-578,495,515,-773,125,-18,414,-201,485,-92,244,16,31,317,-260,163,516,384,400,-128,-100,606,139,237,-373,375,183,-27,-588,-636,577,268,651,605,-481,1145,-196,-365,-558,16,256,114,207,-852,332,-322,-1074,-458,564,149,1002,-620,373,-51,124,-261,107,-663,-112,-248,-545,-283,-113,-318,675,757,-24,-416,-655,-508,-482,-450,-84,-35,-307,244,42,-284,-296,126,387,-55,861,1812,193,168,-134,660,-165,-142,-352,38,-342,-397,42,-238,118,-12,-1180,344,24,-2,-319,-102,-413,-33,-1062,-888,2,216,-254,438,115,-142,-371,-493,-304,127,0,-633,159,1380,-31,-582,-204,14,-108,1157,-941,593,-1008,-193,-64,-409,207,358,-408,113,-468,-58,50,29,21,158,9,319,-297,791,-288,-170,356,-271,-94,-195,153,-266,-172,15,485,160,-315,505,69,1629,-119,-988,227,132,219,-1045,-356,312,226,133,-278,192,
-12,-462,-1397,1003,-585,-219,-365,-366,112,119,-887,127,-246,-171,839,-908,-437,-983,-1008,-224,-765,-745,-357,-1048,-984,985,614,-859,393,-14,-411,17,312,1187,-598,-1103,26,145,-437,-88,172,-1294,397,351,986,-345,53,-1397,-124,-133,564,-1080,884,-221,1702,-477,612,-1435,377,-900,-942,-303,-2459,1317,158,-813,-253,-86,43,-786,-711,629,-518,-1136,-625,298,-46,-824,-115,-527,-412,-702,-123,-455,-807,-764,-29,-1083,-7,-1052,-149,633,183,-967,-1159,43,691,-562,436,-610,536,-922,-794,-581,-716,-253,-373,302,-70,-278,-1288,-280,-393,445,-531,-578,29,-1297,-200,-220,-99,845,-1230,-4,832,-169,963,425,-515,-524,-643,-1015,1403,-935,224,-628,-145,180,-117,-559,-512,100,390,178,-109,-619,-268,-708,-347,-213,473,106,-1578,-883,816,832,-583,747,-781,3,-867,487,203,-2069,-299,269,169,-408,7,575,-636,-1129,-1020,-295,487,-1483,1306,1305,898,592,92,-196,-1257,403,47,-319,-1033,-1144,150,-667,224,-966,278,-213,182,277,-23,-497,12,816,90,-77,21,381,257,575,-805,-120,1188,-93,199,21,-363,48,646,21,-923,206,144,-944,652,667,-516,-20,-931,441,1291,-193,138,-392,-214,-60,824,292,-235,-332,528,49,1186,-309,-549,190,14,-27,20,140,-186,360,520,797,631,485,465,-15,-351,222,373,-60,-249,142,-820,774,-218,5,403,-200,-232,-884,-765,-173,1186,352,-932,18,-915,688,-1431,-154,506,-214,-736,-181,708,-271,-372,158,340,-16,699,-194,50,-1114,218,-150,619,159,1359,-791,147,478,-64,73,-670,177,113,-378,85,151,693,217,-415,229,-265,560,304,231,-116,-145,-160,-121,741,125,-203,86,244,404,-692,510,-151,-112,-154,167,-297,113,540,265,40,-551,53,-306,1151,-563,44,-275,-1158,41,548,569,69,-149,-651,274,-15,71,3,308,199,-183,95,-1079,-112,-432,-355,437,-223,-27,-215,-456,-93,558,-94,-23,154,-492,1155,-357,357,-219,-1250,955,-390,-467,-91,-217,-364,172,297,474,760,-26,228,87,3,-376,396,136,196,-897,-239,554,897,-717,-139,-292,-294,361,-12,-309,1135,-117,591,255,-62,-583,-966,218,82,147,28,-136,-26,150,460,-68,-123,466,-125,-119,51,-55,-546,500,-472,21,-575,210,-616,100,-211,475,217,188,73,-101,-84,-56,264,829,-452,-926,-114,154,-1325,-964,-279,226,-1276,444,-318,510,-1098,441,-230,-1151,690,976,116,-475,-683,315,-681,-611,-123,-448,243,486,359,-595,419,0,-168,-569,87,8,262,-1070,-357,-888,641,713,-176,-1960,-588,-50,284,-63,72,-515,135,219,-394,57,-388,-107,323,-706,476,-332,276,-171,269,-471,-1283,-361,-184,-195,807,136,80,-1218,-462,-176,-652,-648,-600,-513,-937,-1471,-693,-154,-819,-1140,190,-148,-1151,-149,301,-683,-808,641,-159,-122,-246,-80,-551,469,623,-315,203,-650,30,-11,49,51,23,-682,196,165,-422,311,-1536,85,-118,-71,653,-1147,211,-1050,-406,527,135,150,-1628,-356,-1499,-235,354,-276,-179,-457,-1608,-76,1373,-141,372,-211,33,46,149,5,403,596,-457,-1017,356,-247,628,-920,-871,469,
620,-944,-317,-80,2445,-166,88,1217,-459,221,844,3158,-972,-1446,99,210,629,1626,1029,477,977,667,986,160,1576,980,1856,-105,30,611,-401,1376,389,357,-58,-756,1212,-273,-257,1246,582,-1388,2041,246,876,504,1343,-935,-410,-286,502,159,2196,1053,52,-839,819,468,-1093,-2009,296,1767,376,748,1028,-2088,-922,151,596,-836,-484,818,435,1017,188,1264,-396,-406,-275,-489,-247,-296,2015,442,-1202,-173,-381,981,-51,1780,1062,1736,722,1204,571,991,-306,156,1954,205,84,144,1741,890,1058,94,543,-455,-1244,785,107,524,909,-1285,516,883,-123,1119,699,1543,212,727,731,-1130,364,-73,651,1846,595,-346,277,1141,1499,-197,751,159,540,568,195,819,-144,-227,-515,-187,834,915,462,708,-110,1335,719,-576,-229,-687,-28,-477,638,434,-40,78,-872,37,-593,-169,84,-81,-156,469,248,-281,426,-414,-352,-502,204,-263,697,-564,-486,-284,-184,-518,-122,13,-1357,-457,118,1921,-204,1753,-60,84,-477,535,-834,-235,137,-479,846,-404,-228,-262,23,221,58,-486,-7,572,-386,73,-150,402,857,132,520,-236,-320,-584,323,845,154,-759,-380,273,-1380,581,690,-1244,-183,410,712,325,1515,276,-948,469,-393,334,821,-133,-1034,-433,599,288,-136,955,306,810,837,-490,304,32,82,-248,-234,1397,-226,189,1078,301,240,537,543,-976,418,-228,-163,588,-28,41,216,731,575,95,894,-937,-525,-109,-31,-518,110,-168,430,575,365,-554,919,1452,-105,-417,-216,429,58,595,757,926,870,2705,-346,-358,443,-660,-906,-422,1188,71,-163,392,1043,-19,-102,145,57,186,116,47,42,566,-287,125,-687,409,-624,-194,-405,-689,730,241,398,262,464,195,339,30,510,231,-240,168,412,438,-83,-335,-285,-822,-1150,-501,-370,1351,-183,154,803,-209,-382,-176,-506,-328,272,363,-232,-1498,282,158,-118,-174,-11,-812,204,12,170,65,-226,-536,-36,-692,135,-9,-58,31,-930,503,108,546,-13,340,-822,299,82,-195,54,-973,81,-319,-138,30,20,150,569,5,655,1022,-602,-53,-665,-424,212,-488,-162,145,887,152,249,-334,333,338,-492,99,-468,177,-85,99,-374,-24,-112,125,155,85,-464,-399,-53,302,-1082,-51,-350,-171,-509,99,-340,60,171,-268,341,-528,467,17,-110,379,-3,-166,-445,-360,585,-121,163,465,986,13,-791,-110,1140,-426,279,-1080,277,752,-65,403,-235,272,-128,345,437,-463,1897,443,-219,-196,954,551,529,343,-105,227,-743,321,-654,587,29,2041,386,394,235,-681,159,-305,-1076,-362,643,382,126,-293,-45,148,881,-180,-272,-163,1023,-72,-91,-24,1,414,814,514,-122,-85,-501,348,871,266,794,-190,448,-311,1374,-165,149,-762,252,543,52,558,651,362,194,914,-331,499,1515,-177,-1280,-470,230,230,90,-98,299,858,1434,333,-210,-86,1043,108,351,813,645,515,2034,177,1041,99,218,-870,-103,502,730,117,542,-146,575,1345,-254,81,979,609,-39,1042,242,-288,297,-206,322,403,1386,235,907,285,234,284,-49,596,748,468,191,904,-59,886,173,904,
1427,-483,-64,-267,1060,-521,-538,-22,-235,464,40,298,-151,-95,57,961,230,869,-255,-1039,-177,649,-664,-312,755,-228,132,171,-753,1022,-967,162,-24,-1259,622,-292,-1328,-559,-80,604,-458,50,-419,-719,-230,-638,-344,-622,-1096,-126,-319,348,110,-478,-1822,-755,-1399,1171,-508,75,-75,1118,382,-398,215,-21,-280,632,-442,-270,483,163,512,385,-733,-273,-503,644,-977,248,735,722,29,-138,-113,-837,-778,-221,172,576,886,-132,13,1799,616,7,-546,670,140,405,-177,713,721,588,1039,487,-484,-99,-172,-41,337,-239,612,-322,236,502,-674,413,-268,-95,-677,-2014,19,-536,411,-480,-1378,-558,-126,-268,175,594,-312,-357,-126,-43,345,-1346,-318,487,-236,-1348,-748,436,-83,561,-585,318,295,154,1721,-97,40,416,1309,-865,110,-596,16,765,-167,-85,-570,-216,-498,174,-271,125,-373,-488,-87,246,594,-453,-421,541,393,-1928,-67,784,-415,-62,-177,114,-196,-1166,848,465,-354,1017,-734,-141,-641,603,-356,-1035,1254,-290,-269,-457,-482,250,-626,-839,-6,-999,-282,1461,-660,-212,-228,403,-34,-1683,319,-787,639,-57,-214,578,-891,-1083,148,-676,487,-616,273,145,-996,416,224,-295,17,-453,289,-519,-1165,-429,-408,-216,204,-115,267,461,-110,418,-173,1028,517,-305,-12,-617,1221,-29,120,-162,-508,421,29,262,1226,-580,597,-77,-46,463,298,-178,231,106,-1371,45,-59,-141,365,-1521,700,-391,-276,-135,50,-218,-103,-408,760,-647,-431,302,-823,57,-504,456,259,173,369,397,-773,959,247,-284,124,-201,-53,-175,450,294,-322,-83,-439,-149,543,-124,77,-247,-181,698,-725,371,-628,137,-437,-152,-520,391,318,-675,-1112,-31,1038,-4,347,-138,423,482,-249,142,-115,-27,428,100,-344,-114,-5,596,-87,-173,-707,97,251,594,459,-588,-149,-466,-281,-438,36,685,-407,-69,-302,-997,225,-402,-277,316,293,257,-649,-243,-633,-501,-410,-157,-956,244,-71,742,287,-179,-146,603,219,206,541,-482,-458,-381,-313,-249,-787,-261,311,1570,97,-303,505,122,408,646,209,975,-517,-665,484,-451,-294,-706,255,286,234,-969,268,-391,-1,355,342,48,378,-147,-147,115,-203,471,217,-79,-412,-40,-613,-125,-7,255,-332,304,-241,498,18,-262,810,-109,-583,-265,681,211,-256,767,-712,-399,262,503,-242,-69,934,40,507,-35,-359,-25,168,-386,-42,-102,49,-38,-591,-438,146,682,155,-640,-271,539,215,-168,-741,81,428,-168,195,296,-282,145,108,295,-765,2,-149,348,-304,-168,-101,494,225,-676,-951,-353,-564,-56,-872,30,308,45,80,-210,-1253,-394,-1247,-81,43,-303,80,-293,-131,184,-481,-1481,-218,672,-101,597,380,116,426,-283,-255,-597,1366,-123,-671,92,240,217,-334,128,520,-234,-531,431,1035,-48,-68,153,69,-86,-306,-441,-59,891,487,1023,112,-441,983,72,616,317,-298,-105,456,-277,403,-107,404,-1094,34,826,-1054,638,114,205,-751,-696,2102,-690,1430,6,-1188,387,65,-298,13,-14,-197,-529,149,247,-80,-793,-116,650,-531,-1088,910,1017,278,248,-322,780,-17,28,
208,1083,-906,-1122,-969,-465,470,-638,-596,671,-634,-360,326,-798,144,598,-1309,-842,-637,-1001,595,775,364,-972,-919,228,-832,-815,-214,-1386,-170,-962,-663,-194,-1504,-779,545,-511,246,-865,-491,-674,-1260,-1342,-1109,-700,-246,-19,-887,-907,-1013,-232,-276,-953,125,-123,-1491,530,235,-156,410,-1021,1526,-97,-658,-841,1101,-164,-982,-494,-712,-1296,-362,-116,-913,-241,-297,-817,-657,-69,453,-198,-772,-932,-1162,-1082,-23,228,-810,-756,-504,-751,-54,-514,-802,-774,-272,-266,-841,1178,-1111,-1647,-1690,-1456,-352,-449,22,-992,466,-299,-735,-954,749,-526,-1831,-1246,121,927,392,467,-751,-160,-456,-668,-1124,-556,-26,-1275,-313,-518,-1306,-180,-643,48,-101,-653,-1848,-25,-226,-654,293,345,-262,-673,-2147,-2382,-427,-132,-354,-341,189,271,-482,-520,351,-208,-113,104,600,224,1908,-47,1571,1554,-868,69,-394,-175,-209,-1084,-452,-647,81,-322,-200,-1337,405,262,618,179,347,-207,232,627,-32,82,-861,-691,-241,204,341,170,-1524,-618,230,-736,-191,542,-1100,-728,59,621,1044,-802,148,490,457,-349,509,-1095,44,-224,303,511,-67,-572,-1311,88,375,-39,-791,-3,546,-60,-2164,-785,-645,399,-84,-664,347,-514,600,-155,487,424,189,1101,-718,-862,-1159,-636,556,-132,102,170,-46,-292,-365,583,246,497,-1175,-668,534,-177,40,-1066,-46,131,-20,-587,-2,241,-1236,216,315,1699,83,434,-461,107,1030,370,871,-710,-770,-1095,26,-224,-74,-232,268,458,-627,-94,-1112,256,-881,591,247,94,1252,-73,-1512,-1444,-42,18,-86,351,-83,445,341,657,-244,-97,-134,213,245,-151,1214,287,-709,257,-157,-400,-133,-125,176,-62,199,257,-824,-532,49,-14,-97,184,-142,2063,54,829,-43,-181,124,192,-9,292,-246,446,155,-386,-64,363,-527,-202,821,-177,-396,151,-77,-643,-805,-369,12,-586,-79,130,236,-794,-60,-231,-197,48,-11,171,155,19,-224,819,79,-242,134,34,-996,-373,134,59,287,189,-530,-203,216,402,-933,-203,247,-269,29,6,108,49,334,169,413,321,-363,-308,15,-514,269,-852,-110,331,-155,-131,5,815,889,86,-449,-202,564,227,-20,-201,379,-694,291,1165,-579,215,-592,-433,-83,51,-274,-643,-45,558,18,-395,-1307,-15,-826,514,657,263,-178,-158,189,-192,-444,-15,-667,-1256,1279,581,176,-192,-406,449,-796,-356,-801,-282,-565,-855,522,-367,1058,-287,295,-281,-167,-49,-132,15,120,-114,-519,460,-835,-662,-442,-453,-602,-156,-337,-274,-471,457,-571,-568,-714,-344,-54,-468,-898,-243,-331,-302,97,-992,-168,-86,-608,-98,-436,-83,-101,293,185,-105,-963,-654,-1217,398,-193,-657,-675,-220,389,-367,-29,-656,748,-503,-1605,383,-362,-182,-506,180,-1279,-556,-434,-156,-1365,-48,364,-160,-803,-501,-445,-676,359,67,-156,583,-492,-573,-44,-315,-246,-80,1166,-349,-953,-797,-782,-330,-562,-1399,-71,-605,-9,-214,-523,-656,-461,-124,10,-638,-1049,-344,254,556,-960,-943,-156,-559,-189,767,-644,-25,423,-631,142,-465,803,58,-774,87,-443,-67,-1029,317,-835,-273,-766,372,-327,163,-843,-1010,-927,-549,-897,-534,
-804,491,-301,-813,423,385,-539,3,-350,377,-1251,-22,79,312,467,1563,354,317,809,851,242,25,-712,376,904,-803,-1079,745,-61,165,-112,-371,167,-288,1405,1046,-1258,-456,342,-313,-143,504,175,-127,-175,376,-144,691,33,429,163,1111,-1058,117,-748,1350,-661,1026,-339,311,792,945,646,-672,-397,911,-1974,103,846,488,333,-483,195,-638,-11,-234,-138,758,873,-248,-332,700,-587,134,259,295,797,71,82,2387,-143,-338,1107,2217,210,240,64,-118,-583,240,391,-302,-752,395,647,933,258,-232,-579,-44,416,704,476,50,241,1256,-215,567,641,282,142,-2817,1191,193,-813,-267,220,-554,813,554,205,923,-385,318,-81,637,593,-419,88,360,982,-839,525,453,417,1379,299,340,98,71,959,-533,-407,34,392,14,192,247,238,-265,-1712,-100,-161,162,379,89,147,347,681,-119,-126,109,-146,195,36,382,-879,122,166,484,-315,-114,1354,119,735,246,657,273,-179,1016,23,-663,-444,-296,635,-274,200,-433,68,-27,-109,422,-1273,103,-300,-699,577,963,-652,-166,-58,-204,295,-165,-461,127,292,39,427,580,-207,-1219,161,39,1142,-159,151,1377,537,-951,-232,486,-275,-212,99,523,-351,7,-893,-214,519,-173,103,495,-16,-405,1067,149,-531,-619,569,-857,-475,425,303,964,-367,-411,92,-175,1078,148,-439,-512,-267,307,599,-217,968,39,-221,-901,2443,-53,1007,-1434,984,-67,-325,435,-327,636,-804,412,-646,114,864,-205,-161,253,-337,841,-287,628,164,1444,21,290,244,-340,-1124,-468,392,129,1091,289,-405,-482,-202,308,-80,-431,-424,56,-196,-307,120,725,-102,-72,-377,-63,528,-403,158,-225,-95,409,679,852,241,-400,258,-813,18,-388,-364,-163,80,-34,178,72,75,-174,307,-341,-292,273,-263,13,595,104,-70,-25,-226,227,-219,1082,-197,594,147,854,18,729,-346,318,517,-468,49,-539,-293,103,-118,25,-289,-179,-276,-62,-667,-476,-1208,1045,332,108,399,119,-60,-94,-34,74,-341,359,-721,1147,-114,-49,-42,367,-658,16,0,557,759,198,-121,-781,-353,75,-96,475,-639,38,-59,-75,425,108,-853,-65,121,160,-225,267,203,-135,137,-88,-27,492,-219,-129,-853,-766,411,-559,97,21,-20,218,-309,-14,-415,-300,-140,-439,-121,326,389,36,-639,-208,977,66,260,-545,1251,-382,482,745,-787,-425,86,-55,53,1031,115,-745,136,495,517,-212,214,316,255,-19,157,-793,-758,768,-81,529,-65,-70,-216,300,196,204,-348,291,195,-289,333,456,196,820,-56,-145,250,266,-135,-153,303,-917,-139,60,477,532,-395,-551,294,160,952,34,401,180,-608,-440,-894,336,863,149,419,118,948,-127,894,16,64,939,794,117,256,351,118,-421,1164,425,9,487,106,-357,-64,227,577,283,321,-238,784,208,-284,396,265,143,-424,1102,1257,237,477,93,561,89,-183,274,-165,664,-461,450,1144,848,691,-128,372,-1341,1059,288,670,385,110,531,194,889,535,-150,-479,152,-388,-438,416,-908,-394,825,-211,-723,526,181,679,1501,540,504,818,-184,
-70,-234,353,-704,583,203,329,547,-278,415,-243,166,-134,-370,-267,1026,191,-363,-74,508,869,129,941,-230,-330,-389,-1203,600,264,-598,275,-985,668,-262,-690,1448,-103,-2041,843,1192,-765,510,-395,420,-708,1175,495,1340,-727,-485,-816,-123,-421,568,-481,491,141,1860,382,1172,1295,-52,1330,-1225,-251,178,-696,876,1189,545,467,-587,-708,585,-245,-804,762,-591,849,-522,54,896,-606,-492,-93,406,330,520,-407,665,-54,-612,126,-319,-32,87,262,708,-703,817,525,682,192,-750,419,1530,653,-52,-614,927,1191,52,580,35,-52,1155,430,1166,188,-282,405,-447,201,-102,-875,-494,1095,-376,464,-12,-366,581,511,816,1173,611,-505,281,83,282,1052,-78,-46,-497,303,324,-256,178,-519,-196,-1284,-839,1176,165,-207,-132,563,918,1091,-956,761,-622,-404,1159,873,-255,47,163,204,294,381,-161,645,740,195,-483,206,-1063,-223,-627,728,-718,1091,328,-1189,463,-176,-441,-309,1313,-528,-21,-77,-14,-376,20,-278,1092,-476,-206,100,-79,-275,-17,156,334,-48,-439,951,-202,-156,-392,-198,55,531,-198,686,266,502,863,-283,-141,219,460,263,-1598,10,-405,1300,-373,171,-217,-62,316,-642,166,85,562,-597,265,-54,-466,830,-344,23,87,338,212,193,205,1030,470,205,-120,31,135,-163,570,-702,28,1257,494,-71,-355,-697,280,650,1222,620,-414,239,110,902,-71,1610,-1128,462,92,235,42,198,-222,374,986,630,-318,-271,168,-429,571,253,535,740,25,-130,-94,-396,586,500,-131,-603,83,562,704,745,372,203,-552,35,687,34,-633,-238,147,-46,-454,183,350,629,172,-415,81,-425,45,-738,231,-257,226,-445,1769,20,243,113,355,-350,-756,260,153,-343,-147,153,-96,100,-53,435,-252,-8,-603,-148,-258,-52,39,421,-242,170,317,292,609,225,138,420,270,140,-179,119,-259,12,480,-470,36,473,318,-517,28,-404,-89,-426,-691,-598,-352,456,156,-14,317,-471,424,104,-704,-448,-252,-292,-97,-305,-165,-255,-176,-346,242,-307,-814,75,-341,974,798,-190,-482,311,294,31,-87,-872,203,-131,964,-183,-399,463,-669,-17,252,272,213,91,-175,-32,-181,-316,496,105,-343,256,-383,-179,-198,392,-126,15,-176,-945,-407,-59,-103,-300,371,306,-438,554,353,-53,325,70,-581,-34,-54,-205,-804,-66,-608,241,-532,372,-96,-109,49,-28,-381,42,-223,-500,562,381,-606,-361,-435,186,-787,-1158,456,-822,-235,-337,564,646,4,-717,791,299,-526,109,-107,-40,205,566,68,159,111,312,565,-509,-57,-226,673,-523,253,-1371,191,-327,1843,115,-130,708,505,272,48,122,97,-60,511,533,-25,143,-28,642,614,-791,-843,1022,215,-679,-535,790,651,-168,229,167,538,-277,227,287,177,-360,-691,114,-255,315,-157,-316,-294,-1389,279,509,417,205,-193,-301,977,-65,575,-172,379,595,-213,290,-149,-681,317,-102,624,84,-840,-351,-997,483,423,15,431,592,245,62,-206,438,251,-225,-280,644,-572,-654,-328,-181,372,-289,133,-267,-31,12,-216,-787,-11,-26,-936,
769,363,270,64,848,336,-89,182,510,757,253,62,289,-1218,-120,672,75,1924,387,208,591,925,-345,183,268,121,-162,428,726,847,-40,-278,-400,-409,1538,687,-842,-1478,736,520,-163,798,153,-47,134,310,342,475,-507,4,-739,-78,278,69,-652,-360,-1206,715,204,224,740,280,-189,-1065,449,860,-486,313,-537,365,-285,68,-227,231,-437,227,-464,95,340,693,492,759,-159,159,-127,95,272,274,270,161,544,149,106,2461,-55,-251,413,602,-96,1166,-448,926,88,358,1550,699,121,479,-326,421,908,98,572,94,206,485,632,421,-467,125,59,-1486,1510,194,-496,-517,-527,-288,-31,-131,658,146,78,173,-306,471,648,-2085,185,286,361,-863,350,-486,126,238,247,-231,19,265,111,-394,368,343,-93,-208,-394,-54,1273,-270,306,-398,277,143,839,-519,-311,1507,-71,-169,773,375,418,-64,-124,1091,1014,-40,602,104,-23,-121,1089,401,23,280,794,601,-100,1013,-1075,-230,237,146,1007,-106,437,352,472,-73,-201,-466,1082,-264,211,225,1163,850,-239,-267,-379,-608,308,-828,211,-58,1222,499,212,89,-1037,-390,385,236,352,-8,460,103,891,131,662,946,982,38,194,-469,0,123,-1162,-496,357,497,7,173,-190,1151,-233,394,242,-275,-88,-47,392,225,1339,994,-200,373,160,104,1168,-370,-1002,-62,159,-352,1248,730,13,-69,957,1080,443,168,-217,-1146,1015,-174,-117,-7,316,-404,-247,854,480,-247,362,803,-38,505,-520,1411,-178,168,157,-447,-297,792,313,503,-630,228,-198,799,551,224,-261,0,61,-518,93,47,120,224,-209,36,-183,676,-531,91,546,-444,-82,-94,65,-850,99,-191,1144,335,839,-569,789,-970,454,966,-770,-666,-128,-227,-127,-884,296,367,54,-9,60,235,-197,-33,735,170,118,-253,-242,218,245,1204,-100,163,321,143,263,-568,285,134,879,148,-158,-71,-636,676,-86,494,-344,-97,-545,355,-533,-528,-481,855,190,77,99,-54,-36,-297,-250,399,-483,-262,142,1270,225,-335,-400,891,-66,-15,-83,742,185,823,291,-1027,-329,-688,-5,-35,-1005,-421,-267,-389,459,-282,-1044,-554,102,183,-4,293,-563,273,-45,-112,-631,517,-164,249,-332,22,-136,-240,162,56,202,-164,210,260,-421,-746,102,-254,-83,-584,-221,459,280,-309,134,-118,203,178,306,-1,-101,201,754,-692,867,637,73,162,-169,-181,107,1192,449,145,1157,444,-78,-76,-149,125,-466,152,679,401,-168,649,-761,541,1266,44,98,0,-482,238,57,514,708,546,481,717,690,353,-298,-327,46,341,1247,252,-406,-86,-958,260,-115,-328,-228,-324,-408,53,20,-172,-901,592,-246,382,151,122,1177,204,-146,223,650,406,236,182,834,796,-313,-24,80,-300,-67,237,552,237,504,548,259,629,247,-1430,180,14,281,234,98,-1127,1074,-138,1338,612,-89,811,120,-92,467,252,409,46,212,235,325,806,152,-382,184,-1215,1062,465,734,72,-720,689,-96,567,519,118,125,87,281,-92,306,-1762,664,741,-731,-929,-12,455,553,364,286,487,75,331,
-45,-466,505,-49,-20,128,587,352,-4,-154,247,-446,-556,1055,-651,-796,700,-545,-745,-33,-361,-523,-214,638,363,-929,950,-1455,146,734,528,556,-52,486,-619,-1196,-414,653,-701,-533,799,-695,441,-172,629,-147,4,-383,-1084,1313,1536,-389,1782,-272,864,-328,14,-380,824,665,-893,122,-903,-111,756,529,-680,-111,490,250,706,653,-642,-496,605,-486,178,316,257,856,372,887,-72,740,938,-183,607,112,44,-1055,-41,1042,-492,-66,479,232,74,217,806,-1142,296,-993,376,-102,-682,592,-355,-70,-263,-935,-695,138,80,-233,-203,2244,769,-131,707,-227,714,-939,1139,-73,363,809,-792,-615,-360,191,1634,-888,179,-434,256,-542,1020,410,298,736,-666,-689,572,1158,223,-281,-193,562,-479,137,652,114,152,24,941,288,617,-628,-467,204,-605,488,-443,-1908,342,742,100,-516,-122,-317,-27,140,497,164,415,752,539,-619,768,-697,-99,-369,-951,384,-490,-307,-142,178,17,-535,1173,217,132,379,458,86,318,-2,-289,64,60,287,1310,-55,542,-881,-195,928,646,876,545,-7,522,-641,497,255,309,-519,83,34,302,233,-781,-490,778,-141,353,298,103,595,664,762,-997,194,18,46,664,-400,-136,964,0,705,-709,-185,-1,105,457,201,170,-115,-594,227,422,-400,-802,826,32,460,-27,-882,401,-213,274,-103,-34,577,279,219,-107,-185,152,112,100,369,311,790,-489,145,309,96,-74,672,-467,333,345,-88,687,-327,-173,-64,385,-65,206,887,500,-531,1087,364,-171,637,769,-434,221,43,830,135,-172,283,-535,-819,-456,-206,736,-307,-15,802,361,-817,-185,-23,-30,661,480,-83,151,-113,429,-1686,506,-2223,-132,457,-195,26,-1705,149,157,-194,252,-72,360,-182,-277,545,-127,-215,-352,132,341,-457,649,57,460,90,-380,-299,-236,-238,-632,-109,72,609,-252,497,-109,-227,-273,-241,-86,-238,80,532,-174,-238,122,221,-585,68,116,8,-104,-410,-2,-52,167,212,-137,-271,-300,492,363,-621,344,-175,-205,78,298,57,-12,142,-507,374,-133,108,282,131,41,-450,-157,39,818,-421,53,13,177,824,276,-175,-259,-300,205,-476,-169,293,1021,11,56,466,-203,-333,-295,149,346,-121,249,-450,-82,329,352,458,-192,177,406,-293,36,252,-580,132,516,235,499,51,-86,-615,787,308,37,461,-170,564,-350,631,-382,-123,-654,712,-343,-371,-219,-410,5,-175,616,90,368,-417,1299,680,711,-116,-389,-465,485,499,-138,-368,-544,72,-299,-90,27,-337,-898,127,-311,0,-658,-34,-1227,-200,218,-314,1090,-391,607,-194,156,56,-64,595,155,-82,300,514,-31,291,658,73,855,-155,-52,-80,-921,374,424,-138,-537,364,-88,631,-481,695,361,165,293,284,183,276,258,-436,-125,1097,-712,-238,-240,705,37,54,575,644,252,236,125,-86,-696,-85,-276,-232,-303,-67,-397,-252,-316,174,146,5,223,-120,278,-379,760,-47,107,-208,897,-319,-1009,-379,324,80,-478,-57,421,106,-491,-142,170,429,-84,-37,430,-312,580,-397,297,-657,592,579,390,-288,
-544,-312,-121,725,-2274,887,495,-480,333,579,-695,-1618,1352,540,219,-2182,-381,-1241,-515,335,-460,-336,622,240,-1144,1197,-697,517,-102,-1072,178,-1016,-1179,441,-555,787,-85,-441,696,-634,807,121,-896,1591,-500,469,-1014,840,299,199,-491,-401,-169,-635,1066,931,1051,-1030,958,577,82,-3352,236,-40,-858,883,802,-689,450,519,-117,-793,-1085,338,774,-1367,145,385,855,310,-488,-763,-475,-133,1720,980,859,-1164,-713,-1495,1295,179,-84,-1349,-50,-450,662,-382,-1287,128,167,-118,-1651,414,-1203,-459,993,-660,-477,402,-628,-278,-1650,1439,673,-1502,1044,-743,-27,-1691,-37,-51,610,598,-291,214,949,-1764,178,55,-1302,-514,-2046,192,-2151,592,-451,-30,21,-379,791,653,553,33,-800,-687,-20,-770,262,-881,-942,-1092,204,489,-1204,1392,683,-59,-1005,412,529,849,410,331,-75,-757,277,-1017,-135,536,-18,-260,234,217,819,550,-845,1084,95,-673,24,20,-928,135,178,605,-464,-1109,787,-1512,646,-230,-355,193,647,1067,-61,843,-395,743,-577,271,-12,546,553,1394,-557,-2166,521,-970,659,145,-67,-451,-233,-71,637,-487,-373,-711,-357,1323,-352,797,875,-311,-1008,793,-242,-823,-304,-1084,-1401,-102,-371,765,935,-584,-334,1517,1150,909,147,-735,-156,-630,388,-974,-1478,358,-819,718,-884,976,-959,-2005,1821,-613,-149,596,-563,274,132,61,772,-496,183,-214,407,-439,869,-830,-14,-38,-2371,1080,-770,44,448,122,-483,-40,605,-694,-620,1357,363,-1179,609,-158,242,-1080,-658,-366,-1526,-739,24,-819,-81,1136,-329,1227,1203,-43,-1074,-450,449,-127,-586,374,-140,-60,-25,-12,-248,-1168,373,-333,985,-42,-735,-42,837,-38,-94,17,47,261,-1029,-325,-313,271,-1384,-549,-1022,-1027,262,373,-1481,-15,1147,536,13,-408,1093,525,-406,-976,-245,-411,-978,-69,632,459,10,692,-123,-1412,397,1,-888,1131,-125,275,74,817,-158,-334,165,-715,660,376,84,1357,177,425,-183,-116,250,-488,154,-1458,40,-217,-90,1232,183,456,-563,403,-369,936,-17,-285,-311,164,-539,-161,59,-772,-245,-254,1152,920,-138,994,1133,685,-637,-567,-459,40,-1302,259,-243,-1084,268,196,-456,192,-357,62,-124,-773,-318,282,678,195,432,-257,1043,-648,1136,-216,664,-1414,532,-110,-1309,562,105,610,-808,33,-285,-559,958,-444,-346,179,-1010,-165,35,-4,-1170,212,191,746,-188,-376,317,843,218,-678,806,-531,321,-590,122,901,-1487,351,-786,-57,-325,1352,385,247,-533,136,513,136,15,-340,-818,-428,1088,-1097,-7,649,58,-875,-127,1297,502,533,928,39,896,443,-123,-340,-973,220,301,1022,59,122,-89,-242,-182,-603,131,28,329,545,512,-430,-892,-9,-359,-140,-552,164,298,35,-681,-28,231,-491,23,-686,-584,439,-1229,307,596,-1112,-1513,32,1516,1131,300,-603,759,268,-27,-974,-1489,-211,-42,-78,-983,-312,-442,-637,624,-544,-925,-183,-525,202,-888,-344,38,-837,31,-916,313,-156,36,-611,-28,-308,-766,-351,1267,-446,533,489,181,406,-683,-234,-798,-34,-218,316,58,-324,300,350,-371,-328,-836,-602,98,-511,-286,-667,
526,108,382,-462,-961,-1046,871,-563,0,-966,535,-191,372,503,144,-792,-428,-532,-943,-282,-929,390,-263,-863,-756,329,1419,-565,348,558,-255,-167,48,-436,-22,-686,1220,30,-329,542,-665,6,-496,304,-939,-423,-990,-1145,1336,76,-419,-148,189,-564,40,304,-453,-904,635,-680,-218,-540,174,-64,180,-75,2771,-938,-626,-412,-260,-641,-805,986,542,-428,237,333,-1280,-660,143,-557,998,-254,403,-360,-732,-642,144,-300,514,29,-1054,-2019,-142,-530,274,-291,529,-895,-534,-126,-204,-578,-1107,-233,-1325,422,436,-218,-424,-1014,-493,-14,-627,-108,-827,-1015,-273,-473,-642,1887,-1823,-212,558,683,-561,-585,44,-390,-797,-1208,-206,-709,-465,-1200,-570,195,51,-805,-1000,706,-510,-50,-110,-1013,343,150,-41,-956,320,430,-149,35,746,2,150,-953,-930,-362,580,723,411,130,471,920,16,-927,-651,476,-631,-266,-427,-1843,-420,154,800,848,357,-59,-209,-385,-676,-94,-47,-218,-47,3,121,-286,-219,1189,288,132,-651,301,-160,-957,882,-36,-447,426,-216,-274,224,511,-660,-172,300,27,-59,371,-577,-1426,-474,127,988,-947,-924,-18,-369,-808,-1034,-330,-283,-57,803,-143,-862,-466,946,-681,-454,-491,561,142,-108,-241,643,799,-181,166,-363,-849,-314,46,-302,-307,376,307,-1076,-143,174,-196,-735,-633,-5,583,56,-957,-101,-490,649,127,228,15,-878,-880,-479,413,-435,711,-1468,-247,-392,524,-222,-174,2,-829,-257,237,500,-482,479,-488,-1125,887,58,-1129,-139,-942,-969,-1413,1052,-418,-5,-339,151,-1079,-175,249,-402,-688,-526,21,-182,102,-159,414,102,-112,203,-425,115,186,212,-1866,-73,-315,114,-405,-105,427,-364,-107,482,-553,208,-802,-80,217,241,1338,-232,-545,164,-522,-112,218,-303,279,-1,505,468,-75,-392,-19,140,-216,-306,-586,-237,162,55,-296,104,-630,-496,-162,88,-96,-442,90,99,26,-229,608,-100,-31,180,-453,-1756,-392,-356,-165,-448,74,891,-13,-340,-567,-714,502,-39,-481,-196,-278,213,-354,-83,-850,225,-1741,61,173,-281,157,500,496,-969,-94,-908,-220,2117,543,180,-566,-27,-36,541,168,198,-571,-395,511,531,389,30,-417,39,-200,385,205,36,-574,-362,-284,87,382,1142,332,531,1126,-83,-497,-104,121,-40,-1267,525,-579,-95,1203,252,280,-512,195,192,-107,-1380,-120,16,-579,-364,-60,111,-355,-239,-253,-630,-68,17,-860,-47,72,-235,95,505,-107,-935,-233,-13,-46,-362,121,1299,44,194,202,4,-452,23,103,357,-1430,1072,-578,-51,459,-90,838,-420,-623,-590,-321,-645,-951,1731,33,100,-128,-225,-18,25,334,-401,319,501,168,340,318,266,-400,-710,233,1937,-653,-701,-500,-277,242,-501,-26,-295,-273,-219,-833,-349,-506,-483,46,200,87,-888,-294,-53,-286,99,565,362,113,-828,-75,-360,116,-92,-60,123,216,-104,-597,121,-491,254,-122,-438,-382,-150,-159,-57,-197,289,-790,-654,-686,-1338,-818,-14,641,-240,1679,-104,-723,548,-446,-367,-764,277,-808,-808,306,404,-17,97,578,-1021,405,-356,-535,246,224,-252,-193,419,-122,211,202,-1101,-1045,
