-2409876,-4038196,-3495263,-2327575,-3484449,-3162447,-3439427,-3421433,-3123116,-2573683,-1940439,-2988493,-3514137,-3305063,-3433400,-1705318,-3002698,-1593598,-353334,-1752992,-844776,-2748846,-3405287,-4177780,-2770604,-2600628,-2404930,-3245319,-746721,-1265540,-3613409,-4528465,-4557930,-2930349,-2014057,-991795,-3297158,-2692505,-3652791,-3409491,-1903267,-2755701,-2071049,-1728431,-2540386,-3560541,-557309,-3845681,-2618784,-4494940,-2529110,-2386675,-3067425,-2162472,-2897456,-3037235,-3057162,-356081,-1918365,-202341,-4030780,-2392029,-2773220,-3568398,-1999911,-3196141,-3939825,-3341773,-2827971,-2960468,-1106846,-1471833,-1267586,-4025584,-2986682,-838944,-1893258,-2204150,-4675869,-2925121,-3959828,-2252171,-2656064,-3512217,-1987975,-1924359,-2606445,-3690334,985577,-904156,-1969050,-3872164,-4292815,-3382893,-4184922,-2784127,-2977434,-3808439,-3345069,-2751319,-3489879,-1002423,-2657633,-1466822,-2186667,-1354513,-903098,-1961752,-3325051,-1239218,-4043617,-5223449,-942364,-1813749,-2922555,-3143098,-3832326,-1969785,-3025231,-1627304,-3748445,-2848601,-2580906,-1670944,-3100035,-1327807,-2708756,-3400832,-3388998,-2290411,-3977368,-2690376,-4123312,-4479430,-4393161,-653360,-3447853,-3385309,-349846,-1560786,-1496408,-4890154,-4797965,-3629987,-3229202,-2099044,-434918,-4817041,-2364868,-2689134,5354871,5179289,4047217,3276665,5435785,3800712,5498920,5284770,4931791,4773215,4641211,4252470,5589594,4780618,5216894,3868060,5047768,3139082,2495238,3974369,4653273,5332504,5281021,6237755,4515846,3838380,3403123,3695992,4129614,5448248,5306055,4632318,5361425,4794510,4102088,2872783,4582206,3798106,5356581,4084307,3733469,4143305,4364025,3494784,4752127,3333124,5296149,5671956,3654800,4658417,3689039,5756815,4841681,5186437,3943115,4223021,4854083,4524699,5554498,2178514,3019106,4606600,4306348,4789141,4888434,6210745,5834478,5203965,4414574,3328011,3886689,3045279,3124788,4239009,4176057,4676205,4476163,4005030,3823901,6507256,5488986,5202801,4632971,5226345,3569504,4851176,4603669,4325781,-691102,4017199,3614543,4016536,5308478,2685842,5055828,3505567,3800218,4192561,4410284,4475212,4024206,3984595,4126006,2220274,4236830,5129885,3552093,3532311,4845846,3803806,4066386,4996707,3360329,3749623,4290364,4779509,4367370,4030734,5917347,1740541,4874100,4689278,4085474,3091679,4214899,3401955,5900782,4395738,4937620,4515842,3743136,4663305,4402092,4198200,5267311,3742931,4751429,5110897,4079059,2037920,654754,6747922,5268884,5022097,3327328,1301865,3742271,5311459,5277828,4666700,278047,-438339,-74919,-53744,-1042884,-43809,-45017,217729,-661392,-50078,161344,-111499,164213,108554,186498,-237086,350780,-1041315,386849,466986,-531788,896620,-737765,-384544,-311451,-1256043,428352,-41231,55842,592037,264574,-52031,60323,783358,-886192,-123505,-1199296,-478431,392840,145776,-693757,-55575,442004,-409380,-711145,-656507,-466109,526367,-115836,-109116,962901,459208,61468,1001744,484872,-452266,-506137,-1864308,197525,-403475,-231669,-1503044,281647,-1054314,-201536,143048,388041,485115,-77213,-947737,1004871,-1114577,-1240425,185165,135476,121393,-506648,441580,-870837,353108,-1154221,123581,-378253,1495885,-187038,400755,-402238,-491337,-674940,479235,792740,-280391,1379551,-333907,-134593,587765,-230127,154650,-146165,145697,-356636,216021,-333872,922465,1248692,1230493,-632847,492246,225730,31382,826361,-864459,-911595,365571,340295,795325,408706,-316426,-1024381,-1016108,421591,-177944,162557,-181992,-27853,-991920,435360,-171938,-951750,1290780,293572,732015,528600,-84042,192766,-647686,-1209954,-469660,-134057,-1739757,-9,476442,1111520,214000,313868,-221190,-825489,584752,374430,492384,-1496297,-1078374,-1241408,-2373917,-1206924,-2255224,-987450,-1358047,-1824382,-629676,-1376940,-2091457,-1475456,-1551746,-1250394,-590609,-1347327,-3190932,-1473938,-1895409,-1464951,-1465114,-373206,-1238239,-1420479,-772208,-3278747,-941885,-338179,-1700395,-330743,-1621348,-1024511,-229724,-1542958,-1668765,-549213,-1445874,-989016,-1287813,-1897955,-1087426,-705799,213600,-220443,-1753096,-1133708,-1280761,-1920675,-1062084,-2369149,-769401,-718465,-552048,-2229156,-467882,-975474,-126483,-703825,395420,-1834187,-422070,-1324569,-1749954,-314734,-1221691,-572538,-1100509,-220848,-1101262,-1255770,-3243028,-3244456,343902,-1867276,-1166122,-860334,-2014753,-2513682,-1699857,-271767,486579,-1801011,-756551,-1557637,-759449,-1265678,-1909068,-164558,-1937916,-774235,-947710,316785,-2839162,-720387,-4120474,-1715472,-2246646,-2055114,-1169200,-3211987,-765063,-1976616,-1638534,-987430,-390669,-2010160,-511146,443802,-77989,-2282361,-1588276,-1090088,-1263353,-1540672,-495397,-1850583,-1130604,-1208966,-1064743,-369159,-1200581,-2253442,-1136347,-736796,-1821926,-367784,-1577601,-1788441,-1582340,-1143483,-1924829,-861706,-2541940,-919482,-162045,-293858,-1441411,-29196,-4038512,-1485694,370580,-2091683,145295,-2321364,-3035877,-915352,-820054,-656823,-1188406,