-2248878,-2872635,-616779,-1405197,-1406319,-3775046,-2104988,-2738857,-1796563,-2155778,-2639874,-2531650,-3176282,337402,-319012,-2176316,-4019205,-2533388,-3484864,-3937564,-1052356,-710546,-896106,-3112819,-3404669,2164651,-1807922,-566474,-3806005,-2447592,-3497278,-3587023,3436020,-2461862,-2769872,-1303077,952761,-108898,-2453500,-1263084,-3433931,-673529,-2350658,-665755,-2828554,-3407932,-2653174,-2102851,-619025,-3983704,-3312587,-3661851,-2756352,-3716044,-1401527,-2550804,2894630,476899,-3565467,-1660901,-1016195,-2280498,241896,-3462570,-1640661,-2586671,3746382,-2477446,-356019,-2535451,-2258942,-3174643,-240882,-445578,-1481372,-2145390,-2941246,-2319629,-2163416,-2420332,-2197096,-1089418,-1417258,-2672318,-2427963,-2677714,-3179853,-2925387,-2717221,-3174195,-927168,-2128329,-2481447,-2071198,-4336476,-421885,-1673933,-2770775,-1172073,-2376125,-1214649,-813212,-2836291,-2576741,-1526771,-1096154,-2911447,-242555,-533013,-2227983,-1909669,-3986874,-2728696,-2279712,-2541619,-2550774,-2497676,-2591007,-1875551,-2961301,-2941858,487747,-2723667,-1961314,-937124,-3304361,4076384,-2203688,-4510509,-3474997,-3499002,-3679195,-1546084,-3479378,-2506689,-3015009,-3046283,1019147,-3018971,-1768983,-2400668,4986126,-2435827,-1265906,-3203116,-3222631,-3932826,-1919658,-2633303,-3144188,5245596,3882657,2872382,2641261,5249575,3831406,2339547,4237579,4620468,3215550,3233753,3664148,3040721,3671254,-755475,4696653,3909791,4993455,4240011,3993375,5053917,1458401,4182502,3801687,4542284,11302,817565,4874863,5258930,5735172,2448925,5560059,-3168472,4306776,4502613,3334545,1148028,1922498,3766400,1831971,3256862,3401028,5145104,2660863,3346379,3596559,4312394,3921986,1477189,3736985,5349621,4734466,3401534,3620127,2850661,3302048,-2945396,3744145,2578695,2905379,3008749,4139712,992003,4506926,4256670,3007030,-27662,3964844,1052213,3675240,4487527,5797863,3914897,1116189,569482,3124333,3339769,4049704,2643368,1506602,2499050,2914014,1828998,1433171,3150524,3092149,3051244,2682943,5148900,3756326,2219568,2833963,985066,4946820,2443137,-212860,3189562,3847945,707791,4973902,1562717,5117622,4497409,4188030,3133666,2267698,3695158,4765224,3022017,3277174,4320872,2797920,3652497,3069246,2889121,4371658,3403004,4198109,2436933,3769529,3989965,642745,4863468,4524904,4207129,4446438,-655965,3301154,2601364,2501421,4884100,4061848,3420778,1363809,4054449,3762616,3160760,747585,4626577,3514557,4867773,-2289460,5019615,3512059,4122893,3773423,4706941,2326359,834364,4572923,-24741,-379630,-353611,871824,-909666,350548,-2260837,484226,557918,245726,634073,-726033,298845,-96688,82660,-152405,351753,1278562,-608235,656078,365904,-1199473,688857,106881,-457253,-677522,801703,-137957,-608984,-26233,745282,-281641,692042,292823,341614,-1025235,-60732,-10350,37188,-608399,1800304,1680189,240560,-523597,-49998,620951,-794501,-912831,1104644,74871,-846896,-324966,35436,-221128,-1819958,-515439,-916266,-847320,-793795,-494588,-1318982,-1010887,928141,1085797,-339126,-891975,745910,-1282667,-710410,-761138,1249571,1982610,2401632,98249,198416,-293271,125905,498223,-650275,-630910,1166543,-1412552,368307,217351,-358977,197808,-172857,-322341,683253,273275,1118058,-161080,-440792,1968324,1508297,-148654,727836,-1099031,-192266,81984,726917,114419,63727,-685743,-2252567,1491263,-775739,-180051,-134403,560805,829291,-72562,396572,-226810,-1083820,-70055,-366220,569902,-1132232,473112,313288,-664092,279002,372170,-236989,1303184,-330477,158491,-333611,-379445,948274,412907,53756,238805,-65428,464068,1169025,448708,-457470,1822601,120646,-605950,143825,-1177600,306396,295140,-266124,-230887,7485,510830,-1681407,-2329439,-455512,-1279625,-1339744,-3704498,-2685234,-3527466,-2000764,-2115862,-1465925,-2423788,-2567174,-551767,-917354,-1804339,-4166296,-2603777,-3199767,-2292111,-996829,-1375922,-1729784,-3541319,-2789813,1316669,-1089323,-1840362,-2439620,-2480431,-3231988,-1885223,4271419,-2351928,-1334226,-685122,183631,-1123589,-2507747,-1570523,-710400,-419290,-1539306,-2371247,-1782809,-3222184,-2504636,-1939068,-1159354,-2455588,-1789096,147692,-2308339,-4268797,-2621074,-2149492,2698444,-1687026,-2648851,-2384432,140188,-1853780,928031,-1960692,-2709494,-1591498,3688906,-2442403,-1330079,-2978528,-1458507,-873762,-3245537,-1819264,-2029569,-2380619,-2580990,-2069743,-3813449,-2725555,-3006434,-2007629,-1179570,-2431516,-1704111,-2620391,-3174099,-3669341,-846910,67482,-1235554,-2008721,-3059766,-2737120,-3117222,491015,-2109149,-2694438,-1854850,-2081603,-1239774,-1397533,-2000928,-1559982,-1796489,-2363109,-2611007,-2386381,-1598489,-2260311,-2105234,-3277343,153751,-2208068,-2821211,-1736214,-2861558,-2831499,-2488921,-1195302,-2772215,733144,-2198592,-1279074,-121463,-271490,2979638,-1954052,-3337003,-3329153,-2366041,-2930971,-817707,-3048390,-1895096,-3872763,-2937735,673156,-2876763,-2945776,-2431922,4511619,-2640897,-1994564,-2956171,-2651247,-2970669,-2176632,-3407228,-2957070,