PI_L2 short int Ingressi[]={
1756,1626,1339,1113,941,795,640,471,280,349,748,1009,1335,1714,2090,2363,2266,2070,1948,1823,1547,1331,1162,1016,863,698,506,349,748,1009,1335,1714,2090,2363,2266,2070,1948,1823,1547,1331,1162,1016,863,698,506,436,371,156,10,-90,113,491,863,1207,
};


PI_L2 int Encoder_Gru_Bias1[]= {
2481429,-1163037,6939737,-3854706,-671621,-17601768,-1040161,-14006027,4865781,4867746,2473410,7927213,-5431448,-3044380,2420361,12324741,10795118,-12649971,6192221,437888,-6588492,2217340,-17610458,-5436294,5949540,7384914,3199214,4289381,-10205713,1370515,6944614,7157448,7916586,1604150,13770487,3087439,-13980860,374610,-4087944,2384938,1183510,7626435,1842499,341951,3458122,4327148,-7515446,4692854,9904626,8458073,-1280075,-4044651,7138641,4150944,-9561093,6886505,-5268519,3079707,-3681363,5847895,-6669964,-7334548,7772488,11210222,-843333,-12539536,-1591734,-10247009,9389527,-2644384,-3038569,6370677,4777258,5713521,-8196351,-5104715,4063152,6256852,-7276926,9997729,3362065,11127448,8801359,-2469772,5915701,-768925,7352122,-7387935,6066519,10298726,-1192504,-4011618,-51534,16074907,4035217,8812673,6317482,11065626,7851730,571914,-3836438,-4804891,4111842,-6316588,-4686959,12554928,3734244,-535425,11766456,1627304,-5951504,9769102,2314455,-1132208,6740070,-3972176,-6056785,-4953937,4320530,-1564238,-2841897,5284135,-109534,6746280,4091830,-3630168,7943218,5111087,-4078249,-40307,-775881,-9265336,3088941,1583298,-5722903,-3885696,3699543,630273,5312796,-934123,-2564658,-2095679,-1913574,-5520653,-6065375,7721295,11337468,3323815,545158,-1971522,5923895,-703372,-9707777,2295409,7307372,3616236,6853713,810006,-5306447,6874571,-18556628,2633344,-884501,-8091296,434024,-11212944,11104984,-3709991,19407,3436352,12783282,5426165,-3395356,11560884,-5752113,-1701028,630558,1470876,6952621,-2645211,8239718,3045701,-1012922,3037130,817790,2756976,-2091453,-3505742,1527710,12106559,10074929,6579026,3960596,11691320,-1036973,4251905,1599814,-1623455,-324216,-493118,-7629886,-7307888,-46086,-7143518,-5344705,-3560583,-5221650,-3115874,-942351,-10107123,-11215350,-10237095,-5748757,-7452195,-6144172,-6299201,-3569426,-3341024,-10530985,-6597225,-5739956,-4885886,1609995,-5737977,-8956937,-5306674,-4900409,-7079299,-5543471,-6500678,-3908242,-8282387,-6619541,-5781148,-3541161,-6685275,-2194153,-4725725,-5214468,-4027872,-9615978,-4580007,-8718435,-3076510,-6691713,-7215788,-2889378,-9904499,-8348120,-8738502,-8859315,-3726358,-11561194,-13077596,-4573957,-9595691,-6173883,-1987629,-4355272,-7113857,-8276728,-4111658,-8185714,-9393241,-5642575,-2534304,-6806876,-6300821,-9424188,-7781691,-4341131,-10529214,-9826889,-9117212,-5128914,-6727236,-5929451,-7792240,-5122142,-3095289,-7166771,-7340305,-3133643,-7012332,-4681966,-7339666,-8894902,-3044039,-7273517,-593155,-7038742,-3718261,-11036537,-2563801,-4076581,-9190961,-5859482,-4689018,-5541073,-6287184,-3341631,-6360150,-5235037,-5103060,-5707068,-711836,-6842737,-6372530,-7443666,-7976152,-2362026,-7363724,-10873118,-6696583,-3824024,-3241970,-5316398,-8243642,-8700607,-7058427,-9334579,-6869289,-6518164,-8112912,-10467925,-8593296,-10437379,-9892671,-4992728,-1870390,-8994336,-5761229,-6161293,-8123818,-5787129,-7160384,-8256258,-7996328,-4982246,-3295014,-5069883,-7731916,-7428817,-3314591,-5391728,-7794030,-7538738,-7909953,-5120826,-8386064,-4218682,-2819644,-1488796,-8555785,-8622974,-7658459,-7882126,-4427710,-2692771,-8382119,-2802367,-6412998,-5594156,-8763770,-7535815,-136745,-2091389,-7864774,-7136587,-7770455,-4539456,-5132986,-6813506,-7003326,-3879861,-7054203,-7988481,-8176848,-8054614,-5365883,-3016317,-192201,-4940083,-8819181,-6776361,-7439378,-8853002,2893859,-7658920,-7959386,-11087532,-9281850,-8767015,-3328515,-5465910,-8764316,-8411533,-11047865,-6280321,-7452730,
};

PI_L2 short int Encoder_Gru_Kernel1[]={
-1125,-1463,1650,-428,-1,-1472,-519,-1131,2376,-520,-86,-50,-355,1354,-495,640,-2373,-1021,-874,-482,438,1999,-2500,1924,-563,318,1859,-937,-1389,149,-1287,-1308,-1334,-1245,-810,-608,-893,1169,268,497,-1201,-966,-260,1138,3348,-1993,-1702,-324,-527,-975,-1843,1617,-706,-355,-2167,-585,429,1069,912,-557,-413,-1714,296,-1091,-304,-1761,-332,-2107,-1278,-1729,-573,-283,721,551,-1250,1171,-575,-1191,-415,-635,-891,20,1404,2,-1039,-1183,-203,-817,-466,485,-1697,1241,-711,-759,-744,-1859,965,-1071,885,-695,-279,9,-2658,-1782,-649,204,-880,672,-178,-949,-1153,1115,-306,-1374,208,-232,-1926,-213,-808,-1169,-863,-1022,2356,174,-863,-816,-460,-1279,-503,-2319,-1153,-1549,-672,-556,1299,-452,-124,-1323,-550,-970,3851,-997,77,1081,-1125,344,-120,-1516,756,820,-2303,316,-731,-1078,-109,-388,4098,1298,-82,-1337,-1279,-1734,2626,-571,-1497,-1404,562,-1474,-1214,-1131,-413,-152,-1976,-30,688,-1052,-364,-929,68,213,-330,15,-228,1047,-736,309,-1324,2306,-640,-666,-246,-752,-121,-998,212,1552,-237,1007,-951,-467,-614,-414,1966,-41,-1559,-656,1054,528,378,-405,-1228,-428,-602,124,1717,-237,231,1915,-1201,985,1236,605,402,1628,1625,-73,389,-302,-530,1167,1640,-346,-658,2415,2222,-338,-368,-461,775,1907,-1081,2832,1653,-1870,-1589,584,56,77,-1270,-719,-1239,1344,596,-712,583,-112,1100,1552,-1128,1839,-1054,214,-1344,976,13,945,1087,1863,-447,-264,996,803,-262,-243,482,694,1626,1165,52,2694,-1039,1567,667,452,1073,-261,982,1399,-864,1999,-1204,2049,-1167,2608,2670,-2037,-1300,2300,-1329,-781,469,-220,-1339,-17,-1074,2902,1213,1357,-116,-86,1312,32,-799,-645,1544,1078,-1266,483,1224,454,1485,-363,-351,-1427,-3,-155,-749,-1058,-85,-1511,1032,544,1679,-243,1212,-110,268,-521,1961,1505,-1079,355,-11,243,-306,562,-1422,-2559,2145,1130,-2117,-1374,2106,1119,388,2188,-1643,1002,538,-182,1484,-1693,-380,-920,-509,294,1900,-662,1375,-737,1922,711,-388,-1692,-439,-650,-1261,1155,-82,-924,1368,2227,1967,189,992,-473,-764,-1686,1345,-1013,-1667,-577,783,2053,1403,-838,-848,677,-194,649,
};

PI_L2 short int Encoder_Gru_Recurrent_Kernel1[]={
1490,-1391,1491,-1634,1124,-1150,-912,-685,1258,391,-659,424,3024,913,-834,979,1637,-889,-342,-1115,1055,27,-1568,-864,8,926,-167,-1004,1324,-1735,175,101,2002,1275,733,1699,-1551,-1077,-7,1099,214,282,324,-3879,-982,-136,-2158,-356,466,-2846,-237,314,-1014,227,-877,-534,527,1066,541,105,-170,131,255,326,1325,-2580,-313,400,-1034,51,-2264,-1306,161,-541,698,234,332,-365,-246,214,-633,400,1473,71,417,1272,-37,1834,59,1141,-1429,181,-518,1011,490,-124,-3198,1230,2537,-467,-1450,-148,59,-887,-614,659,-346,486,678,810,-852,2224,-862,-1266,344,1269,-124,-43,-272,355,796,1018,255,741,-61,1053,-1049,-806,494,-2346,-682,-592,-304,-1284,108,1337,486,-202,538,-2592,1472,-52,431,124,-194,373,3140,-218,761,199,-1018,-1609,-985,1307,-407,690,1051,1666,2040,-456,-1240,478,-1199,-983,-140,-2612,1678,-1506,-571,-1781,667,886,1020,229,-237,1044,487,-107,-112,202,1430,-352,-724,1158,828,-957,668,769,396,-241,1590,-1070,-956,172,198,780,-3472,534,-2835,-298,-399,-1086,-95,-4,-102,101,-1134,-155,167,-624,-900,709,438,373,-721,-102,367,382,109,-1229,-191,-2911,-1378,660,-6,-649,724,84,1279,525,-545,-517,-1408,-291,-292,-1844,-746,-73,253,-971,-394,342,191,371,1104,-588,385,-926,398,-1446,-374,1739,-1457,-46,34,-623,-360,710,729,484,-1607,374,758,-781,-920,381,652,441,-718,732,-691,868,312,-260,-970,1451,387,523,-280,-240,-653,-147,22,-603,-225,127,-70,-106,-284,110,-179,-8,-1081,513,98,395,1863,482,1366,258,143,831,555,1241,1089,-198,-760,174,211,-194,-11,-1483,133,-131,-586,-24,-57,1175,278,-602,306,913,-599,1174,-398,78,-158,-1031,6,42,101,-336,-402,-1856,-625,255,-512,-1222,836,523,-1277,1233,43,522,23,785,-1517,326,556,-147,-1399,191,-118,9,-723,309,396,180,284,230,-22,-152,1273,-233,224,249,633,-501,171,-4,519,-1577,-727,122,1022,-309,471,-338,-98,21,101,105,-782,563,-458,-260,163,42,381,-1409,1829,-97,-863,363,-636,-536,-119,1063,-132,-29,
1339,1295,-92,1331,-174,1775,-75,-95,-418,1286,176,99,-681,81,604,-1558,-348,1058,-1214,288,-319,-315,1659,-877,615,-1924,105,-879,287,-955,1329,1651,761,908,-583,-30,156,-464,566,149,-68,6,1652,1422,-290,1567,1253,933,1521,-690,664,26,192,340,-426,670,-1130,-1195,-351,210,671,-213,-12,-1413,160,1225,3511,1056,2531,511,731,-108,940,-1026,1167,249,201,352,1299,-276,665,-216,-33,1460,-886,870,-144,-256,-724,-800,661,124,674,-465,195,750,-864,65,-624,-2233,171,369,-839,404,-1811,-308,144,1908,140,665,258,-1766,1621,441,73,-1690,-1079,96,-58,558,155,-214,407,-373,-15,1234,638,671,0,-685,-171,-266,-413,2638,1198,-42,217,868,-165,1132,160,318,-758,-5,1199,358,-560,1553,-141,-1298,338,-2404,335,-1217,-591,485,-1232,-1405,-1136,-929,745,1835,807,550,-215,1587,-1167,1253,109,26,-746,-18,-32,1484,-133,771,1118,243,1014,-306,-1967,-957,2987,785,803,144,-500,-475,-131,-1605,-1379,-197,-51,-649,-688,-1098,1298,-544,337,78,-442,-723,644,-1016,213,-350,-106,-2705,-795,454,-739,-1045,119,1182,223,-1097,-1564,-601,-11,1,-1234,484,379,-863,457,-227,-177,134,359,81,-714,32,-709,587,-659,31,104,459,-576,120,330,411,-524,108,1037,264,-422,534,550,-815,167,308,-21,1245,-692,117,190,-682,-501,611,287,-332,-1145,-404,-745,-332,94,-102,-106,-782,-609,-1111,-283,936,-337,-983,410,-670,1063,-154,-83,-384,-909,-83,-1059,679,-192,-2017,285,-651,253,-229,927,-68,-47,465,-385,354,-858,-1310,-769,-404,-1581,-611,-849,-567,628,-29,160,325,352,-1879,-234,883,199,-384,-972,-177,-131,-705,-167,-829,-1460,881,144,152,-414,-203,182,231,14,-57,4,-137,-560,-628,-537,-828,-30,-272,-1116,683,-623,-426,550,197,-589,385,-559,-2222,67,-516,-566,1,-570,658,-163,-1289,-5,-48,-786,-264,-428,-225,-795,169,-873,1015,484,542,-373,226,-309,824,-621,-920,-197,268,828,169,-1042,219,-524,132,-72,793,-696,-2233,693,-244,1608,-1077,-294,-1259,-377,745,-1599,-1492,-689,427,
-514,1535,-2709,1035,-1102,1405,812,632,1259,-6,-119,114,1297,-795,-123,-1896,-2530,661,-371,84,-230,2619,1863,513,-214,160,2160,127,1437,71,-1273,-28,-1249,-500,-142,-630,1249,520,9,-572,-243,-396,465,3798,3286,-330,2567,-153,626,261,849,934,131,-29,1375,298,-200,-152,951,-194,1485,723,-285,-557,-1,1600,994,1492,-232,309,2557,71,737,-707,2224,-676,-353,-856,1637,-354,125,-211,630,902,-176,1172,-860,-192,-56,-300,-382,855,9,-66,-451,912,2644,-483,-530,-242,379,1204,-1676,1095,-152,-384,-58,1499,-418,288,291,-1458,1001,-354,-1265,-132,635,-9,-473,665,-428,-251,446,-809,221,1924,-403,-435,841,-1071,-309,1541,-327,1755,1929,383,-673,-219,-434,2813,1064,292,182,1666,2131,-496,-1171,-175,296,67,-525,-1067,1292,342,112,171,1261,-33,-1223,-659,1828,213,3329,1621,-153,1847,-3508,1604,-230,-44,-89,50,1912,437,879,474,1308,-429,147,930,-171,-260,2308,-159,1272,-536,847,2864,-457,286,68,-282,-325,-764,415,-825,2448,2587,2391,-3,447,-115,1142,228,364,-25,604,34,1698,292,974,417,131,717,384,597,633,306,226,211,646,343,160,825,-10,400,297,328,230,-156,-146,-357,736,-858,43,512,-26,1425,627,758,-20,-121,744,343,4,-93,237,775,154,538,387,662,29,312,-15,179,730,432,666,28,-62,-192,939,-237,-34,64,282,923,751,1095,825,970,-225,651,51,-254,-129,676,-815,-753,220,-319,1600,5,354,253,199,1406,-288,87,-703,295,919,76,-341,1285,894,-9,0,182,96,2,-224,65,-84,-300,-164,419,-297,-200,774,544,782,-405,943,1053,421,-19,-419,473,391,-250,207,645,122,26,1474,427,479,-971,269,-31,316,108,343,-256,323,188,-487,759,858,131,1001,287,-346,-135,402,860,388,943,12,-60,147,-17,-266,-364,857,478,-46,-473,215,-350,-459,391,6,-706,629,365,-684,-738,119,620,330,344,-186,171,229,-69,589,240,-561,117,200,606,632,639,183,1017,-343,826,487,668,311,190,596,294,683,1385,396,279,
1456,-692,404,-1380,-2091,1138,995,-1340,-2631,955,-59,637,1744,-360,309,1039,2437,327,1034,453,-1148,-1319,-674,-1190,84,-235,-1587,287,-1027,400,1085,-2,623,43,-29,1936,257,-3211,-1631,16,962,105,2047,464,-628,785,-262,337,638,1137,789,-949,97,-112,-719,828,680,-39,72,688,-302,-976,1586,508,917,442,728,-330,206,-1097,702,645,-120,58,-1483,-4124,449,448,190,-48,-467,700,-1903,439,-331,-1396,1559,-2767,922,196,242,-279,709,130,985,1639,1598,-369,-583,530,772,-95,1585,2287,-439,957,712,-376,87,1951,942,517,804,152,274,242,919,-1403,289,444,-145,-489,-479,1891,537,-1041,2248,1098,1129,1862,529,253,307,-370,-1124,698,504,-1640,420,274,-2299,318,-962,-2662,1124,-587,993,-842,-91,-719,3122,-474,74,-670,532,-399,-1248,-107,-917,628,-342,-1002,-576,778,870,-452,1176,-556,-97,213,361,-2524,715,1373,-724,65,1436,1303,451,898,48,-1410,-1886,-228,-428,-508,95,-824,357,3683,1237,1260,-38,743,921,-174,-799,-766,-7,-296,456,175,-1029,-292,224,1062,1089,831,-629,84,1083,255,-1411,-281,1090,-809,642,92,415,559,-345,-516,-347,73,49,-419,-1771,1213,-324,558,15,1241,916,-74,-466,115,-961,1410,-19,-408,1068,-302,1414,-907,195,168,693,1093,204,1041,-577,-304,-49,647,-20,438,-1079,-445,952,-62,189,-464,-246,127,485,-15,881,-537,420,-432,826,-515,652,965,-434,-991,-153,-497,-303,119,-41,247,-1263,402,-582,1216,304,255,30,30,-408,236,797,-264,-709,-729,-129,255,406,-378,-830,-576,492,409,-359,210,255,-142,269,789,-347,-1146,-82,250,-960,-1390,149,-1291,-534,518,127,-216,362,-141,568,-33,1543,1058,706,-2242,99,-273,211,385,604,-1321,715,-214,-11,39,-827,135,836,-306,-367,-296,61,349,-100,941,-767,-157,31,-875,1640,415,-609,460,-697,859,851,584,-900,1684,-168,621,-615,347,186,42,64,276,-116,283,-418,374,2,837,849,1073,-937,379,-499,-340,1157,1361,677,-1304,202,1027,498,386,824,-109,-460,1776,644,-2087,399,-83,
1320,-707,-297,595,-1469,2508,1121,605,-429,155,1481,-1166,1217,-1240,-572,-846,940,411,350,116,576,-1295,651,-1433,-346,64,-1495,-416,-1023,975,24,-714,114,-1214,-865,2530,1637,-2694,-1967,762,732,-1444,1026,-2130,-2091,878,-999,-346,-1080,1084,251,-438,765,417,839,-233,1036,343,-348,-1109,335,-1261,311,182,901,185,-335,902,-1537,-1268,-216,802,301,-1333,745,-1479,-593,-362,533,-1118,-1285,297,-258,1797,427,853,826,465,219,292,10,455,1992,-630,-887,-476,-1642,-905,-2452,-59,1319,-102,-177,1120,-634,-148,18,-641,-498,1951,798,-14,-1997,-296,-1373,1701,1675,972,431,1037,742,-505,-2012,-759,-692,-183,1017,-34,2477,1144,1526,305,473,-878,-1736,2636,1573,-341,-407,-839,-70,-31,-599,-1425,-15,-376,306,-1881,460,115,3030,-1093,1197,630,-330,-1470,-1004,1102,-918,-9,-465,-1926,-2180,2231,-91,-464,-394,-129,-600,623,-725,-1632,1677,-737,-1144,625,-1543,604,180,1492,1682,-1409,-1254,216,16,-1083,166,-1074,-883,1552,1679,572,111,885,667,-451,-1943,545,-865,536,1699,874,94,278,117,1032,-398,1540,958,287,1070,1517,-318,-581,-170,1212,955,-108,2584,-194,46,-536,-667,2324,-736,-248,1103,1242,991,947,412,402,1331,-752,36,560,-24,566,1127,-79,13,-497,556,1233,133,213,-14,-281,607,460,46,-38,2155,-701,-384,747,248,-1055,163,-157,-96,-243,2728,-197,346,-279,47,67,1400,1074,611,782,799,-481,44,836,-71,308,556,433,2,592,976,44,1142,-162,152,1130,-993,234,182,-817,543,-57,-554,2562,452,-283,1277,-447,-526,367,1170,1400,811,-540,411,18,131,1020,-564,879,1057,293,140,-533,676,1125,358,-108,658,91,1661,1097,533,-176,1131,1147,92,418,293,-836,-245,336,733,-214,502,1428,-75,126,-349,-381,1770,1417,513,406,1392,1306,-389,913,1317,2477,-447,349,626,275,35,379,1125,-697,955,1128,1191,629,1868,225,1006,298,-1200,329,50,317,10,1172,-1025,-147,1104,-273,601,33,218,303,-661,2011,120,-278,543,-32,-511,398,994,1228,1046,543,-1069,-325,956,967,-71,1343,
2540,949,-824,92,-2087,167,-202,202,-666,-106,-857,744,1699,-1225,242,102,1505,811,82,-104,-1280,-1460,723,-3104,576,-570,-1607,-528,-42,-454,993,1374,511,701,-127,1508,-712,-1870,-2590,-373,313,849,172,-301,-2366,2113,-82,-435,737,343,635,-1093,686,516,-1620,883,-1367,9,-1456,-121,684,-435,868,-19,165,277,2524,368,474,1143,415,969,7,258,417,-2622,738,843,-1160,41,1137,-274,-790,-142,-384,-237,984,-1824,651,-80,548,-735,289,-344,191,1059,-1040,14,-1001,694,-1566,-2287,575,698,-658,-484,1736,-959,-130,222,1834,7,-1,602,458,794,579,-965,-64,-180,189,2436,-1844,97,-473,1792,334,552,-119,1955,279,-409,101,481,648,85,-1085,936,-158,-324,-3892,893,201,-1940,-243,-771,-185,28,-19,-1325,2883,-1552,625,299,-192,-1699,-3907,-10,-156,480,336,1491,-2568,-461,442,472,-565,-175,209,278,-489,277,494,1996,-809,-279,768,1522,208,-695,-471,45,455,653,281,-692,430,-1956,204,860,426,861,222,390,-703,-1128,-186,836,-1082,-36,73,637,-1378,325,214,1330,305,-135,-940,554,1534,10,1052,-272,-127,-1036,-1632,-330,697,397,-1371,-678,261,-607,964,-723,-1508,-421,1334,-794,-424,483,-296,-121,-358,-759,-378,810,45,-1020,1590,-535,602,709,416,-270,623,363,1099,288,410,641,279,789,-347,370,-1029,-1547,936,-808,632,-399,-924,677,115,249,680,-468,782,1147,134,-1557,696,933,-853,-1575,-24,29,428,-336,762,-803,18,437,-1106,7,206,-380,0,-1623,309,-230,1339,-764,-1009,1379,658,-122,975,393,542,-782,904,826,1286,-331,50,43,377,1126,-594,-1240,312,483,-949,-585,617,-911,171,624,312,1252,438,1179,749,261,123,699,583,-835,-239,120,114,764,-403,-969,607,359,-292,-62,78,583,1496,312,535,81,375,1091,-827,-1122,234,264,-602,-213,216,-1102,403,-514,-1564,675,-64,1043,229,1683,-883,977,-1458,942,-247,444,-86,-921,548,1054,1455,1210,1010,1,1118,853,-1015,-579,-335,298,389,949,1062,441,152,569,666,289,445,-771,-320,1277,1403,-297,1681,-37,
1581,969,-759,10,-616,1275,539,449,-885,533,483,-316,396,-1718,242,-1148,996,802,166,158,882,-1043,1160,-1602,253,-444,-1942,-446,-278,576,886,1462,757,594,-148,2649,273,-2477,-1342,470,841,709,1047,-416,-2652,1486,456,38,-46,436,797,-1394,394,72,713,455,727,93,-1600,-30,-235,-59,565,583,826,1274,1552,571,1081,578,45,886,-676,-569,977,-2264,523,1370,194,700,-111,0,-1517,754,450,766,365,-959,863,768,484,347,1159,242,714,285,-2270,-869,-1013,-333,-233,250,573,1531,-223,692,887,-187,198,986,537,-382,691,649,-184,-526,596,-618,272,349,870,-53,-2932,-220,-324,1045,902,1200,400,331,1080,37,1025,1059,-422,828,333,366,655,129,-3667,1009,449,-1292,1119,459,1453,-601,105,-287,2200,-1219,995,215,100,-492,-1703,-1064,363,1095,471,-723,-2079,610,214,866,932,1328,444,779,-256,-841,846,1677,-1338,-225,485,1435,517,-107,47,-1005,561,-844,478,-257,500,-2171,393,61,-263,1384,-309,540,-472,-589,-596,-626,-384,600,108,-149,-857,-95,404,1414,-160,-668,-1668,137,-1120,539,40,-549,243,-1258,294,-340,-606,627,-487,-52,-70,150,810,-282,-195,705,247,359,-413,455,-469,220,-373,544,593,-285,-315,-306,91,-313,302,888,851,197,119,251,-130,353,-93,-162,271,-409,-211,-293,-254,-830,-118,335,-225,86,-831,77,78,-318,-69,-351,691,-192,-392,-1110,568,804,-1066,-1244,29,-357,649,-42,486,261,-848,-38,-475,-212,-324,-141,415,-533,664,-240,-45,-175,-434,357,135,103,-148,-69,-647,562,796,1,46,-403,133,-241,726,568,-351,-1872,-248,366,-1518,-417,6,-814,-29,138,9,198,314,1303,138,-253,-849,159,152,409,232,25,289,368,1090,-535,150,-454,4,-83,-415,376,152,-222,458,552,617,536,-592,-408,891,45,257,23,189,483,-346,-304,146,-277,-363,633,-176,448,266,43,-698,235,-306,356,-294,-195,-152,1589,-96,298,255,990,396,336,-479,-237,-352,-551,-292,545,-46,-1404,369,711,869,-526,-230,151,-356,1213,263,-1209,143,-107,
-1442,-384,608,-1719,-618,-134,-86,-1037,1817,-1127,186,-608,1119,226,-505,-411,-1658,-609,412,-79,552,835,581,2917,-30,43,2911,-493,-324,-561,110,-2238,-3332,-84,991,-1172,663,74,-928,476,-170,162,312,1423,1119,-1304,741,-796,-1495,-605,-452,-246,-1011,-847,-441,-367,551,1502,259,-948,605,-1051,-2062,77,-965,503,-2323,-470,-1917,-1384,-427,-185,-823,1161,-1432,112,-341,-798,422,569,79,494,-958,-1243,1065,-2640,-1306,-985,-584,123,-533,-770,-971,182,-813,230,2839,184,1260,-586,762,-635,-57,582,-980,581,-582,-191,24,-1456,-1190,175,-678,-226,-1339,1851,-127,-532,680,-1079,-1035,213,512,-517,-290,-4069,-1410,-1209,38,791,-179,-890,-504,-2834,1208,-667,-878,-791,311,741,484,-1653,-494,-276,419,166,-2712,-767,832,214,-3259,998,-812,505,-44,-677,1110,1390,85,-5,614,41,2758,-114,-942,246,-1286,243,126,-250,1256,-487,-320,-1210,-796,-1204,537,-750,-1108,1081,2054,1806,-2302,120,-1298,20,332,860,2,-335,-992,755,185,-577,794,1651,-620,2239,281,-1785,187,871,996,-325,-709,-360,-880,744,315,300,1352,-733,832,-521,-176,330,-1514,-670,322,-602,1074,598,-163,1818,144,399,-585,206,264,-990,247,2,1279,11,176,595,-374,1181,1089,-237,317,-14,-536,479,-780,368,128,-4,407,189,-102,-63,-200,429,-4,-171,502,-164,84,155,364,-447,617,418,-656,-708,-999,-187,531,-208,210,692,-657,-332,1078,2261,-237,186,-635,492,-122,-244,1430,357,-383,684,-47,1082,119,225,-481,-440,1735,416,90,430,-272,-80,-354,927,-224,-524,-1083,-938,907,347,-423,-7,-912,-828,-311,1986,1064,-676,714,614,755,2064,750,-618,-164,124,-490,-625,894,37,1433,264,-625,-193,342,833,441,1429,193,317,198,978,-15,-820,1054,259,-519,2383,-773,-83,-27,181,-257,1848,-37,-597,-496,-211,-240,27,-125,333,-492,163,305,3,1210,88,-240,-402,35,-406,-267,333,729,-106,99,-908,239,461,25,-75,372,4,357,653,969,-336,555,57,650,1573,66,206,-219,-641,-525,165,-241,-1756,-330,785,-569,-78,
322,-1749,1825,-925,647,-785,-1056,-1970,-244,16,-84,-74,-1762,-1456,272,-72,2523,-304,17,-712,-1722,-2346,-1025,92,371,773,-697,-147,-1569,529,1020,715,-355,-358,881,865,-697,-847,-881,816,-439,-2,-109,-4047,-2609,537,-2207,-531,-107,347,-1657,-2779,785,312,-279,-165,974,1567,-3921,14,-2474,-2037,-453,1019,-1099,-695,-2745,-1649,286,-1052,-3828,-549,894,-20,-1829,-865,267,393,-1171,466,-1182,1003,-607,-1107,-259,-446,609,166,579,1054,46,-833,476,1300,-79,-1561,-3701,428,236,16,206,-636,1676,-888,-459,548,253,-1645,606,-375,-736,653,-1936,127,-191,21,-683,-530,259,-147,-86,-860,-2116,744,618,-1668,538,257,-483,848,35,-1509,521,-1982,-1214,-705,867,-979,249,-2646,-4813,-577,-281,-2244,-1263,1127,822,-567,-1415,-1930,1127,805,-1612,72,285,-279,-1825,249,488,257,-1387,-220,-5045,-980,298,-666,2668,-2406,-102,73,785,-109,-622,265,-3207,-1264,-2362,387,271,-1031,524,467,-1416,-773,-932,-597,-606,-1224,20,973,1000,262,355,515,-824,555,-2827,-2582,-2280,-309,-357,-250,-243,-473,-436,-534,-462,101,-1171,-903,-561,1,-599,-999,-277,-1149,-146,-434,445,-1011,411,-337,-67,-295,172,301,217,533,-529,352,-398,593,-958,340,347,-1099,690,-630,-379,-674,-1136,612,444,464,-32,589,-158,-609,-15,-378,-608,-624,-582,-980,-262,-512,-445,-438,-730,168,-154,-406,-191,77,-268,-362,-134,-751,-379,-951,-1033,-210,-13,-811,13,-53,-22,13,721,185,-135,-158,-466,-47,422,-789,27,-479,-266,-246,484,-103,-153,357,-128,-1128,-60,-72,-1443,-234,-49,-460,466,-850,-446,-162,-147,-557,35,-1,-353,-80,-974,308,-769,-653,-651,431,371,-367,-199,-230,-713,-841,-1079,-564,-1627,-690,-530,1266,480,88,-410,429,-210,-292,-715,-531,278,-40,-1107,-482,-387,0,217,-132,-872,132,-974,-98,-599,-367,-73,-571,230,778,-1336,-902,-99,-224,-429,937,23,-779,-769,512,55,-679,512,288,247,-272,-1148,668,427,-744,-509,-13,37,-629,194,-573,-94,-520,-5,-448,-445,-1475,-23,-775,-648,-308,-345,-3,-292,-1069,134,-2122,-261,-56,
14,932,-1007,3110,-1992,2992,2016,-250,144,623,1499,-429,1641,-809,1022,-1278,-813,2343,195,820,333,-302,2672,-2076,191,-950,-1261,-1450,-1027,70,103,550,-1274,621,-894,655,2271,-840,-1235,566,1024,295,3062,2659,-413,674,1354,449,-50,-482,337,-240,-445,291,827,1691,-1174,458,196,-51,186,-947,-453,434,1602,2868,2660,304,-204,-617,1799,1689,49,-942,-418,-1166,-80,-30,2592,184,-315,408,-1292,1940,330,-1659,355,-3226,924,550,117,1632,1107,-740,184,430,1786,-310,-1899,-458,1898,-513,-628,2247,-1043,294,2326,2025,-409,1996,1285,117,454,63,-1689,-395,384,-1474,-4,229,454,357,959,-612,-828,-859,611,1211,2002,885,1096,989,842,694,554,1958,668,-1089,611,2721,-982,-134,219,-1220,2353,189,-822,-952,610,101,1270,-1191,1645,95,719,-617,-1411,-542,-674,812,1473,-1487,724,1682,-869,2433,-707,1521,703,1281,-187,-1612,1070,941,783,1100,1122,2005,548,1911,490,-769,667,-199,-36,-411,100,-281,131,-533,-14,1623,1051,-563,305,31,1050,714,1452,177,571,-304,-298,21,-261,1206,181,-1237,-5,1306,1393,576,48,-100,139,-141,-621,-723,35,854,-34,1352,-443,293,770,178,-633,263,559,-94,-213,684,1570,249,-293,692,-390,809,-792,-59,1145,-409,340,663,583,-291,-563,1002,243,1052,-546,-425,1448,1043,-942,156,170,-345,265,242,890,-435,-1,560,480,-190,343,-711,1146,792,671,138,628,341,468,-697,-169,383,375,115,193,452,1210,130,399,557,-166,-567,710,-587,29,-334,1346,-93,-526,482,247,299,322,49,-512,-136,307,-140,497,-612,324,-793,77,1013,-796,-331,246,38,917,-389,-442,-311,-9,-349,110,324,-153,801,1969,-306,72,1000,550,-139,-282,139,-114,2050,464,-1021,236,73,-163,-285,-64,725,542,-424,-393,149,-198,1114,1,378,391,125,-454,111,1096,-169,710,86,-532,172,-435,-129,598,538,761,165,-1274,397,133,-339,-44,799,-259,798,-684,-506,-326,719,963,1094,159,-54,792,93,380,1264,546,-806,217,1043,1374,205,1026,-457,-308,1103,384,-836,471,-24,
-2159,415,303,1312,761,3288,1989,1404,-318,429,722,-41,1203,228,829,577,-1385,2275,-28,1802,-283,-529,2726,-210,-140,-429,-163,-845,-63,521,-837,-734,-2041,451,24,-1721,2576,-594,-792,-445,120,213,1201,2370,869,-974,1758,165,-879,-1235,-776,-854,-597,86,-49,-226,-975,140,2033,-26,1483,-2380,-844,-490,1135,2801,499,-770,-313,-19,2338,-90,-320,255,-1161,-195,-205,-387,2822,-460,9,-692,-645,1755,-250,-1873,-518,-730,-86,130,498,1371,701,248,-297,-527,2670,-85,-1117,768,2959,-1456,-497,859,-458,1053,-64,214,-558,1540,267,-96,-1000,516,-1714,426,592,-1171,248,859,-848,-143,1797,-1823,-689,-1240,94,-163,2110,1344,743,1490,920,-426,587,229,2126,206,-106,3838,-1701,-222,531,-937,1293,-456,-2383,-1301,-416,-183,-674,1392,2286,-232,627,-214,-820,1743,789,408,979,-449,1702,2800,-1819,2003,-1955,-579,413,1012,349,-1811,125,-944,3320,2547,-567,-3,205,2675,161,-472,-65,254,-209,796,-169,-237,-61,334,-482,1192,746,-79,1802,1050,1855,404,1088,-624,844,1226,697,992,77,858,125,650,-860,1450,1640,523,1386,-652,-377,-226,-968,866,-61,680,1154,1888,967,-32,810,-416,23,309,1242,222,-598,-209,772,670,-535,767,265,1540,709,274,1852,63,716,-231,1745,391,-1013,918,794,325,173,-744,1175,1470,803,119,698,-55,527,314,758,-202,1409,925,446,797,600,739,637,379,293,1209,131,6,2329,1405,58,523,74,-315,381,80,584,720,-71,26,581,849,924,-564,497,-397,2037,-291,352,49,61,179,-344,583,723,238,-580,1119,694,-678,414,634,-14,486,270,547,928,521,646,697,434,731,595,896,999,-116,-547,-663,1180,222,1192,641,1069,2016,-391,892,-2,2104,1008,853,232,616,-165,-234,-340,608,638,643,-244,567,-269,706,-163,781,321,1737,417,12,71,427,220,113,643,423,1032,-112,329,913,139,-233,-556,138,154,455,438,-224,1689,435,33,198,-149,749,544,1337,369,342,2254,-760,1206,1073,1955,-971,423,-71,1019,115,1254,-467,608,693,915,1117,-225,749,
-1048,-1,427,1288,-1048,809,1440,-2197,11,846,754,145,-1601,-1771,383,620,820,-52,448,1006,-1498,62,-21,-3136,668,62,-280,703,-1561,478,-174,-536,-881,242,688,456,221,-1978,-915,-260,596,550,1300,1169,500,-6,-451,211,-159,71,-369,-915,-653,-594,-270,676,-1507,-441,507,493,-1416,-853,756,271,883,668,690,-1661,6,492,392,1804,1042,-423,-2020,-1096,676,482,969,717,254,840,-1256,1821,296,-1412,828,-2210,-100,1221,51,679,502,1076,1412,909,2597,452,-2399,-93,740,-937,63,-372,-1858,1499,1155,-399,535,1736,520,-840,-586,58,-678,-460,-701,-1069,-175,652,-377,500,-440,-545,150,-281,2790,272,-145,798,935,-708,305,932,449,169,2371,-1896,543,1660,-3586,-280,-888,-1323,270,502,-249,-1374,-30,-1247,2257,-689,400,724,-50,85,-961,-13,-772,544,-2109,-2533,432,940,-1277,990,39,835,41,981,820,-1843,374,1292,312,40,184,1257,1614,528,229,-283,1599,-925,357,600,-359,-1103,108,2470,-549,1189,1412,124,766,-1278,1085,1195,755,496,58,236,-301,-176,-393,527,-488,-401,163,22,168,575,369,-238,738,-886,-1573,71,-858,804,-342,196,762,-138,422,-360,-1107,224,-310,212,-1311,-66,-567,237,23,-445,-157,925,392,29,-521,-72,111,368,311,-674,138,254,225,141,-1327,-965,-755,4,-1173,369,-48,141,-162,466,-17,-998,-266,198,383,-304,-25,-1078,1351,-1161,843,-484,618,-358,-552,-153,-43,544,-33,-76,1075,316,172,-709,361,460,288,330,803,-161,435,-105,530,-169,-537,5,-251,302,-684,234,-617,-1106,140,-80,-538,-344,-126,-552,371,196,-903,-1064,-52,-298,-398,-657,502,-544,651,-330,-85,-334,89,-2,285,-705,-102,858,127,-80,-87,374,-176,904,337,-758,-801,819,-327,555,-235,-312,-608,-245,-21,-36,-436,-290,-328,-369,-440,1334,123,-564,1325,133,-1052,42,44,190,-611,-365,-610,-147,1213,159,-492,-478,475,-317,313,364,-1167,277,-582,-683,-301,454,3,561,-186,119,-22,-573,-283,209,580,222,220,370,101,398,230,-150,-232,-196,143,-2049,337,-211,
-1665,-362,770,-552,1703,-1801,-1916,-202,678,-997,-376,-959,183,-198,-1163,2437,-2020,-2413,573,-1982,371,750,-2899,384,547,1033,871,-297,-55,382,-746,-1906,-90,-110,762,-1634,-2458,1794,569,-900,-995,-260,-1571,391,2336,-1915,-1827,-1906,-977,-1033,-1564,531,87,-648,-201,-1197,-653,721,-465,-25,-890,-1100,-1137,-596,-2845,-2876,-1389,-1459,-823,1047,-1983,214,-335,-724,-1654,1586,-633,-450,-2402,123,346,976,1619,-927,828,-639,-167,988,-1606,374,-179,-688,-1249,663,-605,-375,-969,1174,833,1476,-1157,-845,-1891,-4044,-75,99,-1196,-447,-191,-1970,-1916,298,-2096,-575,-883,930,-1417,703,-431,-1037,130,1634,435,-1375,-1796,-203,-1203,-1052,-1908,-2040,-71,-1561,-761,321,40,-324,-199,108,-643,-1417,2917,-81,-399,500,-2510,-69,-176,-513,-48,1053,-2025,-132,-1540,1902,-269,-130,1560,197,-1073,-269,-2124,-1503,991,-1751,-741,-1062,-197,326,-835,63,337,-843,-1325,-1185,184,-1514,-903,-509,-228,28,-168,670,415,-197,834,-166,-974,4107,-233,-575,-246,-1264,-1002,-138,-2590,-275,-1916,1209,-1356,925,-272,39,1100,706,-38,879,-812,1052,1473,-1142,-207,-97,443,-591,395,303,-335,784,-764,-348,-71,273,1558,323,133,-325,736,189,269,-857,665,-1555,-566,-331,442,-1158,97,-547,601,992,-1175,130,-640,97,-371,-459,234,-1358,-719,-1332,-732,418,-608,-426,-202,-1308,333,1079,750,-396,-914,232,985,58,-41,1379,-740,549,-816,440,152,780,231,-956,673,1211,192,366,440,190,-432,365,625,495,1696,-514,-17,407,-692,1450,-922,219,176,290,721,144,-420,315,-339,1035,498,344,-555,793,397,708,-389,562,31,-492,636,604,409,-1356,571,391,-265,631,619,-254,108,836,1033,-794,-1469,721,-521,-460,22,-428,690,75,-56,165,-548,779,141,419,219,145,593,-202,-641,231,773,215,119,-824,1105,886,-882,447,1050,692,-828,-482,-1140,254,494,-680,357,-784,926,84,814,324,1024,-416,-363,-66,355,-101,-285,-1061,319,279,-327,-187,-257,-600,445,988,842,439,-625,-507,989,3231,-766,-1518,-1399,-185,427,670,51,-1186,-115,956,674,-668,
883,-719,-142,-134,115,-37,532,-2356,-215,-204,451,-2447,1120,475,-685,1976,2759,-496,2056,-286,-2836,-1253,-1190,-1828,-584,3004,-1606,425,-1104,1715,773,372,1274,-141,65,1471,-461,-1498,-1756,-311,135,-27,583,-3226,-2155,1263,-2959,-1403,-452,1014,-1207,-3349,281,-432,822,-470,770,79,-1406,738,-4358,-1999,2702,1152,-601,-960,287,-1704,-949,-1816,218,1692,184,-2760,-1834,-2795,36,443,-2002,137,-3364,927,365,204,447,475,559,-837,394,1918,-76,-1685,656,1263,-34,-374,-2601,1177,1885,-594,-1197,-350,1364,164,-854,984,838,-471,-202,1191,735,2544,-2055,-39,-272,1875,44,-726,-590,-417,-397,-1379,-669,1112,-1068,-1486,2506,300,209,-118,734,5,1158,-471,-1002,1129,225,-2377,1271,-1721,-250,-492,-864,-1375,-1155,276,3739,-2528,-1589,-1026,3666,-1208,650,358,128,1321,-299,678,-1000,316,-3502,-4865,-2951,-862,-95,-1542,3530,-549,50,569,325,-2116,803,422,-1473,-297,-1123,-31,831,-131,-260,1784,20,349,333,-1569,140,-1346,-146,983,1008,600,252,2294,-428,-76,-4696,-489,-2019,419,-963,624,488,-116,-387,-193,-1256,594,1873,353,505,1727,-1100,-1472,-109,823,1550,-508,1148,-870,903,-785,-911,284,-764,490,444,89,-960,-100,-312,246,1469,-302,157,-1173,-503,-1076,-306,-790,419,-162,-188,2173,277,643,155,104,1345,1382,-782,-431,-213,-955,-540,1254,-1610,-280,1825,740,276,-734,-487,10,-1060,-821,-226,-1243,404,-32,-618,-222,-266,-132,-1070,-307,28,-536,867,21,-648,134,1212,199,308,-1152,-321,760,-103,829,408,32,-1190,710,-638,-262,237,312,802,-1778,-202,180,424,-674,-58,-225,-130,-655,-78,-390,-970,819,-903,585,-219,-1879,-195,-205,-86,-293,-69,-433,-285,423,1127,47,-1548,42,-740,-1261,-184,-2755,544,49,207,-916,-96,-239,323,164,-565,-2118,-822,-387,-388,-71,-11,-303,-273,576,-336,255,34,-528,684,343,-181,-938,79,-264,593,62,75,-25,-267,386,980,-804,-749,503,-108,1567,-1441,919,-1307,-902,-542,-386,304,617,-73,-288,-653,1150,-590,-179,-1437,-382,-27,-372,-362,-304,-685,1112,-1029,-610,-43,-1036,-269,-1334,
-489,29,202,-257,1060,-143,104,1126,1251,-549,-443,64,-968,2746,-597,1210,-1628,315,-232,184,1308,1377,212,3264,-643,551,1714,-344,1257,-321,-857,-1040,-19,-453,-470,-1059,446,2466,2124,686,-713,-607,-301,177,1809,-1375,810,-30,-681,-408,359,1380,-266,-358,221,-409,683,552,1457,-334,931,1050,-60,-914,501,430,276,466,-695,517,-167,-1027,96,-79,505,2086,-374,-1120,157,-807,52,-546,1092,-705,30,626,-811,2151,-369,-72,-784,678,-227,-574,-349,-258,329,84,1713,-127,425,978,-1782,266,1108,-264,-430,1043,-395,-313,-324,408,545,-712,755,-9,297,843,-224,367,-263,-497,1451,138,-48,40,-997,-565,-509,-1450,-648,9,-677,-212,1357,-434,-746,458,-518,-324,2736,-464,350,1707,-596,126,449,210,756,1013,-1587,756,-327,-344,-301,155,3674,971,851,-234,811,647,1499,-312,547,-227,216,-429,-281,-336,-458,831,54,-370,1287,503,589,-755,-366,-148,5,493,189,654,564,167,476,2462,-439,-67,18,-1056,-152,-924,-130,310,930,326,190,-608,-196,-154,581,-283,-60,-654,176,116,742,89,-423,-56,58,868,157,284,581,-129,-195,-110,-141,224,-143,-98,209,388,232,-54,-61,-23,678,79,151,-418,149,95,91,299,71,144,173,230,233,-634,-333,260,-242,-324,-281,-116,-164,122,-331,-162,51,-405,1233,613,23,234,-70,241,-131,404,-497,286,-119,702,-222,461,766,254,-361,-417,365,15,-155,383,-728,76,-383,-307,851,-460,372,224,81,237,-304,263,-271,600,-391,308,264,-314,-234,180,-101,-185,173,-6,-217,-479,-57,61,-33,564,-323,-367,341,871,-55,-416,543,925,-148,902,-127,574,72,409,-74,-458,-159,338,502,-235,4,-523,-322,13,329,-981,-468,441,301,23,154,434,-175,156,262,76,-457,-332,250,51,580,-75,-66,-537,177,297,-382,424,-117,692,112,442,291,-567,-66,246,-408,-885,898,270,-290,-561,106,123,209,-746,-709,289,-195,-175,-536,-264,527,445,609,-113,88,-438,-160,258,-474,-1,-5,62,-32,407,614,-328,-301,1621,-282,-26,
1114,-1489,749,-2333,1485,-2123,-249,776,637,-367,-1188,737,-700,1740,594,2703,1996,-1776,443,-643,1465,-2873,-2239,-426,600,1020,-1413,1235,-288,986,1468,-468,4582,278,883,1621,-1931,303,886,69,-1385,148,-1566,-2968,-1229,75,-1344,-1215,57,-157,-212,387,-8,-52,52,-1188,1646,-54,679,283,-549,428,1004,-13,-162,-3528,-128,-1235,720,1352,-1091,-172,-160,694,-503,2198,218,163,-2201,301,890,520,2176,-1617,536,312,84,1152,-1659,-647,-291,-485,-1413,642,212,591,-2115,575,683,910,-1478,706,611,-1789,295,-402,-919,-886,765,-1460,38,3267,-450,-343,2359,1472,-1383,-242,870,-4,1032,1319,492,1610,-274,-532,-329,-563,-2672,-748,-449,-1666,-1009,-738,42,-1150,1568,634,145,-1908,486,511,626,-533,-2295,60,3366,1619,-186,637,-403,360,-143,691,-340,1296,306,857,242,128,-2781,664,-766,-2226,1451,-2245,1789,-854,-38,-699,35,780,-2350,-1720,1432,224,-2194,-567,59,-1812,-1088,1683,190,1239,222,280,369,-95,392,-388,-323,-775,-1021,553,-738,93,-636,-1288,-2605,919,633,-657,-1290,626,-945,-255,-734,-69,-1088,-625,-2375,-327,754,-168,-350,463,-42,26,1093,-491,-1574,-522,295,-865,-340,151,-55,-405,45,-69,95,-112,-880,588,246,-329,-105,-2221,-277,233,53,152,-387,-279,343,971,-700,-1241,-33,149,-461,-460,-342,-660,-206,-723,-174,218,625,-414,-220,-45,-755,79,-928,563,-618,233,-1044,-1283,-326,-1489,-633,-1420,-415,-351,365,-524,259,381,-605,-345,-1697,-740,-135,35,-331,-720,492,135,-733,-544,-753,460,483,-1024,-16,-308,802,2,-361,-904,-652,159,660,396,-102,-651,-354,-605,684,-677,-2105,-677,-1155,-687,-245,964,420,113,-190,-321,425,-192,-537,-239,-1588,370,-555,-841,52,-401,-234,-1422,-706,423,-1075,-783,-108,-356,-7,-225,-1675,130,116,96,58,-1308,-494,-2027,-184,-79,25,312,-645,318,-752,328,12,-221,444,-70,1065,68,-315,-159,-769,-743,241,-834,-148,-1049,-428,57,64,-370,-149,293,-1204,161,345,479,-609,-495,-394,-2153,-313,-809,245,-360,-550,-158,-596,524,-16,-747,-1561,-759,-1319,3,
982,-564,-1154,-1472,277,136,-1311,1771,-1325,11,35,-817,-955,368,-700,-1810,1624,-505,1245,-1135,-649,-2062,-895,-770,-527,1045,-1107,-516,-21,-38,1994,540,-338,-243,-296,1931,-496,-1287,-1156,562,-773,-476,-2234,-3268,-2806,1144,-753,-1187,362,-1642,224,-1747,-282,-1086,711,-756,66,464,-1823,715,-521,779,717,619,-453,-469,-2780,455,-970,60,-921,19,-1528,-951,1812,-1634,-8,76,-1854,-958,-513,-364,-890,-857,759,764,-695,-299,817,792,460,-272,-832,287,59,-1885,-3585,101,-743,304,-1633,353,1183,-28,1362,-127,-781,-1454,161,142,485,-227,-185,794,501,1157,1064,1419,-991,-220,287,-284,-1774,438,-1476,873,170,-176,-1115,342,428,554,-8,-970,-3057,-530,-1280,1681,-177,-2862,-2042,100,-1195,-1384,-1119,-1090,1119,-217,-140,-89,576,344,-497,59,-1059,622,-611,-1115,1470,-175,129,-1284,-2685,-357,950,-1453,2820,-719,156,351,-233,-1066,1257,-366,-2170,97,-1343,-647,224,-1663,-362,-232,-1962,-820,41,-942,-83,-1636,156,-2902,-366,155,-867,824,-813,-738,-1761,-2452,-1796,516,790,-52,543,133,-190,-50,-56,193,-293,863,409,1248,-603,-412,-412,8,1614,-419,1079,-956,-403,-544,-1350,427,-623,828,554,242,-301,-5,607,1056,2458,613,597,1302,-918,-1199,1139,-1044,586,123,209,549,633,434,172,293,126,350,442,429,1253,1084,-305,685,-42,168,590,413,271,-165,1091,334,-285,-648,617,-693,862,371,-841,255,300,505,-1344,-45,294,885,-106,764,571,551,1894,660,816,455,446,-946,-419,67,429,-247,342,465,314,1212,413,-272,832,119,-623,608,1285,730,232,386,407,737,1027,87,-825,-122,1229,803,1169,-1306,381,546,1026,-69,333,545,1203,908,845,-168,352,1021,920,-794,1498,-541,1869,-135,-607,316,1058,872,611,-1267,675,425,686,1090,949,200,1435,1192,231,498,718,-419,-1948,728,1153,248,1949,-907,39,24,-1225,867,1029,456,814,-559,895,1065,627,588,-119,-303,-819,501,38,1337,932,1089,522,267,26,-79,-496,387,-210,103,869,-267,556,164,449,1508,967,669,-477,936,1004,2319,1426,788,
-775,-776,1661,-283,40,239,53,1452,2181,-672,470,-115,274,2044,0,175,-2331,0,58,-572,1621,734,973,2234,-283,-612,1630,-1247,801,-411,-1053,-1272,-839,-160,-113,-1053,1005,2193,1572,255,-195,-898,1034,972,1870,-1275,754,-237,-1057,-754,321,1642,-449,-210,330,-442,976,961,1612,-256,736,538,-1333,-649,254,618,-215,339,-493,-986,-583,-1387,74,-48,336,1813,-443,-1172,1656,-302,-896,17,2334,28,554,104,6,1965,-219,-156,-448,664,-370,10,-532,150,1575,-89,919,-1118,449,657,-1435,683,-149,-215,-256,954,-225,-420,-430,611,44,-541,170,342,-135,196,-21,-703,115,-196,1733,-531,-415,-1435,-1029,-742,162,-1452,-246,31,-533,-306,1574,-191,81,-371,-29,-55,2363,-1210,160,2205,539,237,-222,-673,1087,1177,-2654,-544,-499,173,17,276,4344,396,-315,-225,1036,-134,1775,463,-374,957,-19,20,-241,-265,68,586,171,-1118,1065,-97,499,-829,-917,965,565,232,256,622,-567,-211,-102,2748,-390,-1030,-376,-545,-342,-1102,-29,740,-270,1587,142,160,-32,64,716,88,457,-1144,-281,271,1138,521,-321,140,537,1283,-329,878,264,-72,307,-682,264,536,-26,1490,-389,474,621,200,448,-317,304,-57,1139,-274,207,456,72,71,390,251,-293,196,-613,-10,-277,116,18,24,124,191,430,295,275,-310,609,90,828,585,-18,429,-45,98,-193,-355,-42,-330,-201,732,-614,106,-225,791,-142,188,358,499,59,589,-885,159,188,65,992,-161,549,281,37,630,-500,186,-601,-171,-343,252,595,64,438,-291,25,190,-64,426,-433,-569,-49,193,-646,214,91,-237,-29,888,1096,-656,1121,217,117,546,-130,72,245,379,357,-198,187,-226,882,-636,-380,-357,27,-181,172,-550,517,553,-208,481,-140,-69,524,813,342,532,-464,-20,314,-113,558,1036,-29,-689,-181,112,-396,201,795,-82,438,-181,236,10,690,-710,-36,-280,822,307,-80,-616,-133,-368,597,-443,-664,-17,228,-276,123,-689,745,141,498,195,250,-97,-69,785,-76,-243,137,-507,-360,468,174,-1000,-155,1299,-517,637,
-970,-1338,-227,-4,406,1422,549,1585,675,-653,-215,-607,1633,2269,323,577,491,1712,-43,13,-171,-594,-143,155,-535,1191,-1056,-1032,234,110,-1010,-2861,-278,-703,-678,502,1575,-535,352,-228,144,226,441,-2792,-1625,-1747,-275,-237,-1664,-15,304,-591,-1676,-473,27,-590,1586,28,246,-253,736,80,-317,-537,1659,407,-1044,784,-1788,-894,-259,-663,-473,173,286,-295,334,244,204,-126,-365,-1146,1657,162,-375,-1457,244,345,556,306,279,552,-913,-401,-282,-349,-1695,128,270,1122,1294,560,-382,2204,898,356,86,109,-552,2032,1031,1854,118,243,379,1043,1790,-308,40,501,312,220,643,538,-870,-2109,-813,-476,1483,850,401,920,73,-2286,-2665,-564,512,982,-27,-1207,1208,-122,1807,-142,-704,-450,1421,-1691,-145,-606,-95,1876,663,34,828,-111,506,1409,971,735,839,-376,-1260,1252,509,-1464,863,-1511,258,311,-144,-1003,565,-3202,1376,1010,-656,-1423,-1089,92,389,622,-2024,1163,-918,-162,1136,-568,458,-730,126,1087,282,1461,648,1133,-1063,-431,-1090,-868,1429,120,-1236,596,342,392,80,914,1704,1172,696,2373,-237,913,-424,192,1028,-510,1255,153,516,-154,-776,350,-250,1193,755,-232,253,438,1055,929,641,-88,43,616,-110,-1176,-334,678,766,158,-249,266,548,669,218,498,573,1689,812,-784,1765,-727,-214,1248,-184,-253,23,505,1041,701,735,1215,542,-242,731,780,626,114,1686,1313,690,-246,-708,186,-130,31,-119,295,131,185,977,479,637,1587,561,912,101,498,999,-670,-1683,223,32,540,1272,268,949,733,-257,425,2178,180,1430,-557,418,526,-81,489,225,1262,2778,1788,289,2028,122,379,110,416,801,317,874,371,1133,-210,728,797,-121,-1060,-538,14,1085,-187,726,795,1040,160,-9,50,-141,-20,1443,-234,-85,42,1275,-19,742,1351,941,-647,-1253,548,399,448,934,1328,-311,168,999,578,667,758,828,-437,-278,495,-866,355,223,-342,574,353,-323,156,1070,421,-41,533,1152,-35,-346,2629,373,-830,-44,-1067,134,-317,1119,735,-393,577,671,-1202,130,664,-627,1155,
1104,1330,-199,129,-817,804,200,-492,-1000,591,101,-946,777,-2759,10,-1416,1380,957,148,49,-234,-1380,1607,-2400,195,-412,-963,-353,-164,151,978,171,-375,478,-679,1243,448,-1831,-1683,175,1096,1,644,109,-2209,533,-34,108,-353,540,212,-1629,173,290,479,509,80,-9,-1758,-27,-939,-1101,615,186,66,901,447,-526,466,-503,942,450,197,-263,27,-2546,400,676,103,731,-1027,411,-1136,654,-510,123,588,-613,256,55,730,-175,841,-335,535,99,-1738,-996,-1262,-557,-741,-115,1700,1118,-543,458,722,-1097,96,791,1068,-729,-923,534,-900,-69,-359,-766,-284,371,-466,-933,-2152,-36,-141,45,869,304,741,1004,337,-518,448,190,-669,1351,-261,-504,455,642,-2695,387,-474,-1527,300,433,-849,-662,-656,-112,2145,-1480,1094,-643,-22,-942,-2118,-576,852,413,-110,-1523,-1854,330,421,949,247,1367,412,211,224,-1469,816,798,-1430,824,428,584,248,134,-290,-1221,147,-1112,124,-537,-724,-1957,434,269,44,879,147,-925,222,-1011,-753,-566,-287,819,154,-348,-906,-307,-38,349,324,-1130,-1463,671,-122,117,-511,-943,120,-938,77,-489,-561,277,-126,280,-695,-1087,54,-502,-382,176,-425,-506,-552,706,-269,678,-270,344,-135,63,-551,-289,390,13,314,1119,10,-153,-117,612,53,472,-586,-630,729,430,-424,977,-844,-403,-280,-98,251,-706,-442,-311,23,-446,853,-1492,577,-818,-992,-365,217,1016,-943,-422,140,-75,227,492,235,209,-670,-77,60,-250,-9,-699,-265,-426,790,-263,650,145,-352,-333,180,-322,-234,-741,-174,-734,269,196,-139,-414,337,-460,69,683,-404,-1654,-783,743,-825,-1772,-417,-596,-453,-67,-343,184,-511,552,625,189,-379,202,-566,-661,918,-255,233,520,868,-934,251,-703,470,-251,-462,-818,328,-872,298,288,-463,294,-95,-678,-1181,141,-798,-259,1125,277,464,-560,-570,-357,-245,477,-893,212,39,516,-451,-84,550,415,381,124,-308,673,-52,-383,100,840,829,497,-270,-295,-371,-589,-948,567,17,-1849,364,281,792,277,321,-895,-477,645,756,-1626,474,-322,
-3628,-572,-1200,1749,-404,894,1870,-531,252,708,1732,-429,715,-228,-719,-1155,-1391,1265,-1272,1040,-1200,1269,1534,523,-551,-441,1416,225,120,-141,-450,-540,-2552,-122,1106,-1837,1208,523,250,-543,-647,-1092,-242,2963,472,-623,503,261,-136,59,-2204,-138,-1238,-928,616,136,-1425,-384,359,850,-706,-18,-1634,249,-32,1092,-460,292,-1265,387,1914,1072,-1161,824,-483,489,-934,-449,802,-601,384,-133,-2240,698,812,-1623,-638,-1302,30,482,-215,607,40,-154,-677,881,3699,-367,-191,-685,1171,-379,-559,-787,-699,383,-1211,-400,-355,-380,-1225,-235,268,90,-1477,-436,-1388,-895,-73,-172,-1171,55,-12,-967,-163,-1942,1035,-416,536,28,-313,2116,602,-332,1577,-204,1657,-1876,-718,3235,233,-377,-204,2132,321,-435,-3151,-1904,-640,-596,-289,927,814,-100,494,236,140,575,-536,124,-931,-1497,1815,1417,-2370,607,-1646,180,-218,1174,217,-1424,120,-539,333,-918,-407,929,-146,1592,241,3,-688,-417,-690,964,-1152,1285,-131,322,-990,951,969,-263,541,1447,1553,1420,2874,56,511,645,2028,-343,-1158,290,-117,-938,368,633,1380,311,185,-939,-486,29,358,-378,-457,-361,1921,606,734,1505,-240,-222,651,61,1281,-530,375,142,-94,-481,-131,564,475,800,832,-8,191,-60,-8,-1024,810,-724,-80,-268,-246,380,38,-68,-601,134,23,852,421,469,620,160,-442,331,1436,-533,-536,214,305,364,-383,-109,561,2358,-710,90,499,673,-212,-606,-123,-501,-577,-438,1707,136,299,-297,-78,16,473,274,915,-642,1384,-161,-281,-850,-1156,227,-1164,-362,295,-204,-805,223,638,228,-457,317,-182,-640,-551,1634,512,829,1468,72,-136,449,-213,-457,-186,-543,-658,-768,169,25,1870,1293,0,758,297,588,-88,1275,708,72,-590,-463,-451,-907,600,31,-61,513,-17,-523,235,-18,435,491,982,147,-225,-128,369,248,556,-293,611,-783,301,-1823,806,103,889,445,523,-26,823,237,-113,1263,443,-340,-290,-242,-269,-458,526,547,733,14,809,-260,152,1335,505,2669,-142,313,94,-293,89,61,-462,597,-91,-167,833,96,
-1748,1348,278,534,202,-956,306,524,2170,847,-581,555,785,1371,-539,-806,-2890,-453,-504,601,-829,3844,-1524,3,-324,-829,1329,373,-893,-1279,-1025,-143,-1967,159,589,-2879,-130,1078,1448,-664,-321,-339,53,2689,2356,-1154,540,936,820,-1308,-823,1835,-1619,-1207,-1521,237,-3004,-1952,-609,963,599,-1568,-1591,-948,-775,-287,-814,-305,-154,361,2458,646,99,1593,-727,-569,-442,-875,-437,-542,1852,-1140,1034,582,-3,-1199,-530,-1977,-837,-2204,-604,70,-1099,-776,-771,848,1549,-1076,1198,-370,63,-455,-945,-1363,-803,-1065,-1105,1507,618,-167,-529,-570,643,-595,-476,-1866,-958,-601,-337,-691,-1619,905,226,-877,146,81,-894,-323,-138,-1028,-1196,-575,-828,-479,2447,-1504,-344,1472,-1186,1926,2381,-88,628,2889,31,-441,-2906,963,-602,-647,-2497,-159,-193,-286,-826,1019,1209,-790,-709,-1153,520,1195,2319,386,-956,-489,-1888,344,-364,-624,-1362,702,-1129,-695,735,705,632,-522,57,-152,-752,-882,-50,677,-793,926,-112,2001,-664,-1418,-410,-547,261,-268,373,1049,1607,2461,2542,-732,83,268,2269,311,-1043,-170,-202,45,-201,622,630,-1568,784,780,-193,1070,1033,139,-387,250,1222,1521,1564,1175,-327,-1028,457,-79,756,-601,1074,28,991,-166,98,-78,505,193,530,159,915,-67,-885,-596,-561,-212,45,208,620,394,1574,310,-187,726,512,-801,301,627,87,401,397,139,96,96,427,135,-124,868,165,148,568,256,29,621,1511,1076,12,956,-264,-186,547,-277,1421,99,364,532,-145,-490,619,443,-99,-19,1599,-573,991,256,273,-317,-42,1017,1066,389,-1402,-230,768,285,-643,1071,-48,-233,-479,738,1451,-280,2421,600,-434,1065,-584,-457,-185,379,-127,-540,-2,560,1460,246,215,31,1019,1553,806,227,-272,1465,374,844,-294,-308,2126,714,52,-708,687,-2,1082,-756,756,288,498,-183,344,676,-957,-137,1059,347,7,-106,-11,-547,1291,586,331,-70,453,910,569,222,-150,1304,870,-497,120,914,483,358,619,599,-350,-482,980,-562,-549,537,803,1591,-231,361,588,-317,626,95,705,791,796,789,685,187,
-2284,-1780,-221,-658,-48,787,-107,1856,1994,-934,415,-992,1003,720,-671,-742,-3261,-299,-660,-581,1094,391,2239,2352,-1606,385,2754,-1187,572,-670,-1045,-2330,-2078,-939,223,-1732,2002,-67,946,-432,181,-99,-406,881,800,-2869,209,-535,-2164,-546,-1905,-445,-1058,-225,828,-937,1497,480,1343,-1206,-782,-704,-2206,-272,-539,916,-4785,-416,-3019,-1519,-312,-1167,-244,704,-604,1324,96,-1348,680,263,-2186,-624,125,149,1129,-1743,-611,1345,-271,-688,-328,103,-580,-1432,-1341,-1394,2263,-1727,2065,-869,1619,-128,-1343,141,-306,314,-964,-712,-26,-555,-1128,102,-2075,-375,-1730,303,-237,-154,177,-1364,-158,-1638,781,-927,-1301,-2486,-1852,-1386,779,-150,5,947,101,-3157,-84,723,-5,-2637,153,356,2707,-1670,829,994,221,-239,-2465,-3153,-251,870,-2449,832,-237,169,-36,-586,2022,966,877,-96,209,-3265,2993,-63,-1524,440,-1694,-299,-627,-482,306,-2188,413,-2625,394,-1570,-629,-1555,-1849,1384,265,1278,-2506,-1504,-1296,-367,-424,3129,315,-963,-1940,274,130,-595,391,2691,-933,1743,62,-795,113,983,1604,158,895,-2088,-724,539,1872,1144,1101,1008,523,464,-438,1148,1065,-907,1087,-608,1476,-21,-506,2406,-734,1080,1223,1012,453,-772,586,-256,1546,201,-154,329,-374,-447,1078,546,-503,512,-642,862,-474,-21,-494,323,487,1062,493,-444,915,-356,-253,515,1740,285,703,546,401,-575,1658,102,150,-1366,-1139,-498,-658,85,-835,2903,-342,171,244,903,-143,799,-1671,551,279,465,1641,-181,1730,324,171,1486,-654,968,103,47,99,372,787,809,693,-389,605,401,-218,-103,764,-1404,1023,33,-656,163,41,-1266,-631,3341,1626,208,937,704,789,1466,793,-91,-555,386,-534,1,1022,-407,1292,-516,-964,-211,532,641,449,-403,-219,1347,-180,1138,210,-879,907,-582,394,1536,-729,307,1379,-32,464,2281,394,-520,-672,635,-766,674,398,107,625,-104,-1335,662,1286,-1170,269,-1407,1277,-308,555,363,42,-90,131,-658,-442,1,577,126,-23,121,1147,315,-380,167,-9,-409,-26,1626,1,-24,979,-620,-333,790,26,-1383,-906,1732,-699,1239,
1225,-154,1235,-911,388,-1505,-1497,-72,-1782,-1517,-1138,1205,-3123,-1517,-194,205,1245,-669,-145,-1557,355,-824,-1534,-1555,1105,311,-1021,-94,1147,210,28,1037,1693,810,-347,1125,-1765,970,489,-649,-3141,-12,-3660,-547,259,884,763,-99,371,-136,1140,-440,899,385,422,-898,927,-1060,-1947,77,383,2065,70,-492,-746,-1951,-1109,653,1477,2915,-1206,-1873,-1179,24,617,-584,286,-170,-2507,-221,1444,-249,1663,-1697,-38,-98,-1663,2610,-1237,365,904,-684,-1147,771,104,-1283,-1105,1624,-1633,1136,-1612,1079,1168,-2326,2239,-1331,-1422,-527,-100,-2169,-626,-1662,735,496,2119,1476,928,1857,-16,-3,2244,1913,167,1278,745,1566,-49,-120,-3125,661,-105,-203,-1337,-700,48,-925,-2172,549,-1078,-2250,-588,966,-552,-649,-1227,0,1356,2168,1529,-607,-503,920,-2264,2111,128,-446,103,-908,-359,-1005,394,2642,-1905,-1639,2637,-414,1258,-776,75,-364,207,1090,-276,-588,-1804,-1101,-1330,-509,847,-2787,505,416,-1258,-2293,1141,2194,-1040,-768,-552,-365,139,-937,-413,-490,-1594,-1128,1676,-665,436,767,146,161,-2038,811,124,574,839,-101,-1275,-116,-806,-558,607,1290,583,-308,440,454,-1826,187,-555,-919,681,279,-300,417,-277,67,304,740,1518,205,75,361,-19,156,258,-1742,628,702,-391,294,381,-574,288,1167,287,873,-277,684,218,173,560,-21,-28,-479,-569,240,-305,104,-1033,1628,1158,-250,1395,1240,925,852,-793,205,995,-610,1675,99,919,392,666,213,451,-236,252,-66,-354,151,-959,918,636,235,865,-553,-230,253,-1417,25,-328,-826,1069,-163,310,1159,542,1475,1474,158,569,40,-37,838,49,685,1553,211,1840,-147,-2042,1695,687,-339,467,691,214,-444,1130,836,-1857,449,1169,897,-107,1989,-46,893,-896,-323,393,298,651,653,-95,1663,-378,-191,752,-1434,664,205,630,-336,170,-143,540,-270,544,-135,67,571,-325,1619,766,218,258,-74,-1007,993,477,412,-1170,-431,407,-233,-618,-932,212,124,1884,1255,778,-15,-171,-69,540,-98,-375,-51,100,721,-968,1331,625,306,-330,220,281,97,1288,534,1293,863,1166,-484,
225,-344,-1960,-966,-651,-619,-1072,909,-2075,234,264,-456,165,2437,596,-1225,1349,351,-520,-133,-421,-1916,936,84,227,-224,-887,78,1442,-167,548,306,-946,716,629,-700,1225,-211,1486,-559,475,410,-433,-949,-1414,787,246,94,-107,119,-708,-1262,-458,66,-185,-381,-375,-1850,281,336,512,1356,217,802,-736,221,-1150,975,164,82,-558,-12,-1639,1188,-252,-671,848,384,1200,652,928,-714,-432,-1046,-302,-1573,3,-159,128,-1010,835,-1280,809,448,376,-389,-60,-152,335,18,1411,1031,1404,254,717,764,223,-864,240,-518,354,-715,1094,757,571,-1864,458,-230,417,-935,-985,19,-216,300,661,-1018,-996,-152,125,1496,568,89,464,-1791,-22,-1821,63,1353,751,-56,-2653,566,221,-555,-752,-132,-280,465,-1451,-1091,560,1322,-722,-629,16,665,-213,-939,1520,191,1398,1998,-2254,-801,390,-116,-106,-1797,513,-110,83,106,-1088,-710,-1245,-517,214,170,-614,-809,-1407,301,-2729,1741,-790,1067,3,-2488,574,557,-87,225,707,1996,-1002,2078,-62,-2074,110,-1206,-46,-115,-397,-279,-217,-223,-8,-871,-763,98,-611,-688,-307,-254,-375,-1170,18,-144,854,-490,-584,-401,249,-1302,-118,-394,160,-750,-426,-73,-24,243,-591,595,-43,-239,-5,193,-449,-455,-214,146,-33,141,-809,409,-178,-613,401,-28,1317,-276,-63,828,594,-38,-575,-384,-505,223,-414,241,-708,453,125,-3,188,-668,84,-1818,-1136,-1030,430,-523,81,471,401,-419,-903,236,-427,-100,-983,-197,-1125,-50,102,-1615,1412,-424,247,-436,-467,203,231,192,-271,98,3,222,-268,-436,-818,-420,-420,205,43,-387,329,-530,-371,-294,642,595,-487,-19,336,-41,153,297,134,-95,-533,67,-40,92,-219,171,-585,153,908,460,-266,107,-611,541,-70,-32,278,-187,-474,-31,-445,-79,137,-153,-131,908,-789,-1521,-461,-1263,-628,-773,345,-310,35,-11,-974,983,-543,479,459,168,-376,-245,-754,73,749,847,-200,-492,-116,391,1082,286,789,718,-164,-546,-516,-831,-69,192,-727,-605,217,-817,642,-513,183,-376,-872,-198,-221,-1009,-711,219,-836,-235,
-92,-958,403,-2030,1568,-675,-1490,1233,1627,-242,-378,965,-501,2331,-504,800,-85,-123,257,-1194,252,-136,-1080,2066,749,684,-4,238,1002,-306,-404,-72,1919,353,-385,953,-1816,34,138,-615,-1829,-394,-874,-2120,-781,24,563,-1205,1314,-1669,-158,2141,-202,-484,627,-949,2138,1633,-1046,681,1633,3364,-1099,-432,-1757,-1246,-488,1972,-328,1337,-1467,-1928,185,300,2490,972,-768,-557,-2300,-905,1093,-173,1576,-1615,924,919,-1327,844,-1418,-151,-721,-308,-1026,208,-478,1583,-2741,187,513,1303,-2747,1635,-1614,-932,278,-1340,-1650,-637,-305,-2013,-101,956,-220,-662,692,623,-694,693,210,12,1788,1712,1521,185,78,950,-1413,-1110,-2598,-1818,-1131,-863,-1375,577,-343,-1086,-1557,1484,-1529,-2359,1740,410,346,1131,-683,-816,3131,1481,269,272,-1482,-881,128,1205,-1030,1267,526,-1000,-34,-493,1079,594,-1289,-1277,265,-147,1017,1057,-586,-975,-795,1960,79,-225,-561,-2004,-747,-1172,61,-2249,313,403,2034,1065,325,-753,464,1120,-624,-2176,453,-1723,-1135,-496,-780,-1230,-572,-467,-1469,635,312,507,595,385,4,491,163,-815,1462,-105,-822,-826,208,1195,-816,-16,1283,110,934,-965,-927,-300,570,-65,-197,565,501,-244,485,537,78,-360,-767,141,292,339,718,-892,-177,-26,172,391,484,760,679,-43,96,-383,-488,331,280,1068,-516,-357,544,-1185,-97,439,346,-1084,774,229,731,-5,52,1099,699,1095,-713,-495,408,-275,578,-865,-486,229,10,-342,1703,-279,-404,-558,390,-119,-220,860,-166,-490,401,-355,-933,87,-662,292,488,516,1104,50,1469,-256,867,612,-85,244,719,-2,-239,650,120,469,1117,1174,-168,-703,112,1469,380,481,-226,735,-351,-165,464,458,-913,-13,339,315,287,-378,-15,-142,-495,-74,-1276,-122,-26,-954,177,626,179,402,-276,-1182,611,422,-350,27,226,-419,1585,-207,200,20,-685,888,3236,-260,-229,-50,797,-433,1165,740,-879,-84,156,1045,-60,-1275,-247,-441,1090,-126,847,571,1002,249,-1033,279,-48,125,176,894,548,-1014,51,272,-30,139,-195,-619,-993,814,222,-471,-44,553,929,-299,
-333,1317,580,1271,-1003,853,1121,1323,735,-274,772,760,2404,1017,-30,-515,-2518,245,-1386,1081,-39,1724,1026,675,-306,-1421,156,-89,1067,-268,-886,451,-268,373,-1814,-698,611,1901,346,-773,980,-206,570,4127,1593,-205,2407,799,548,-93,1390,1387,-349,598,191,710,-716,-504,412,-324,1209,1410,-1171,-1028,769,1048,3395,1981,682,-62,2230,104,1174,584,627,1768,-54,-888,1562,-565,635,-1196,-187,200,-902,-6,-198,84,-3,-1973,345,588,632,-2067,126,1221,2510,-1496,-392,-296,106,652,-1795,628,82,-776,126,2274,-950,-282,355,-253,1143,206,-463,-1506,-628,-339,-368,207,-285,-329,2088,-142,-965,255,283,-170,630,-1327,-248,185,-39,3104,2777,-547,-800,603,-672,3297,1974,248,810,1645,1645,-928,-1055,-272,-718,-559,-1207,-719,1596,-1367,-327,-59,1079,-811,-371,-55,2714,514,3653,105,-909,1809,-1907,2090,194,194,-564,2418,271,676,1960,-58,2833,-292,289,113,-1144,-1107,2300,1327,-161,271,523,1352,24,-2055,-681,-4,-297,-1500,267,122,2609,1622,2565,503,-148,-276,626,552,159,-52,1411,-1140,302,476,-369,-258,256,1112,609,270,-442,698,-405,754,45,1033,-201,-57,336,-270,-245,-482,14,6,-175,-607,503,246,-15,1148,480,1179,-244,808,1102,-293,153,28,-1145,-427,-106,1167,-755,-595,837,542,308,449,722,-119,716,586,589,-521,962,141,-459,-194,726,-168,373,1359,19,321,294,-446,-116,725,93,-726,-254,283,337,-298,142,-370,855,291,-315,607,182,266,-420,-420,-537,557,953,-266,-81,242,1099,180,-817,-137,542,-501,-1407,-546,-368,204,52,1086,-535,484,287,-731,-798,-498,359,852,174,-503,-427,269,-15,-272,410,-124,607,423,319,233,986,-1554,-244,495,-43,-197,202,-173,-187,200,-340,-141,841,877,243,-829,-11,354,-573,-436,1464,681,-178,-1036,244,118,-200,-379,179,616,-611,-719,425,460,-1262,528,-502,1,195,1194,-450,-1239,-389,-250,738,-335,308,1392,497,33,-315,764,-2,650,416,661,777,480,764,-843,-277,254,196,-294,-135,-661,740,909,47,-892,421,429,
1171,56,52,-2875,2645,-3147,-2366,382,120,888,316,-160,-4602,-751,-1733,-1346,606,-2871,-566,-2066,-80,-1023,-2650,853,1314,-3,1189,2810,688,-521,-202,1458,1857,815,526,689,-2402,592,709,-1328,-2562,282,-3562,-1514,-697,1186,-452,-1709,812,-22,-180,-1436,1866,530,668,-505,-122,-789,-1519,1138,-485,1064,248,-1151,-2770,-2121,-1041,-201,329,2269,-2466,-1074,-1160,-556,2111,733,-437,185,-4872,-379,568,-633,-157,-1671,-224,2596,-1542,2410,-1781,-406,47,-1886,-690,365,-477,-1558,-3800,450,645,559,-3631,-733,-517,-3501,795,-1735,-1886,-2868,-110,-2546,-3372,-2011,-531,376,1097,217,-489,1154,-340,-886,-344,-548,-2414,-387,663,4583,827,169,-4151,-1955,-98,-362,-863,495,1246,-1618,-3233,16,-769,-2762,-349,433,-1655,1826,-979,-970,817,1172,-993,-1255,-491,-236,-3057,530,-381,840,641,-2625,-1146,-1845,-832,-50,-1341,-2171,733,-1250,-692,-132,289,327,-206,1380,-93,416,-742,-2688,-2923,-1169,1723,-4416,-1636,-985,2354,-827,1561,692,-853,429,73,-1017,-204,-1251,-1510,-1037,-1832,-2269,-548,-3636,-539,1787,-444,161,355,451,-86,-245,-301,615,-715,-138,-947,-1206,998,553,-281,-337,822,365,-52,268,100,-313,594,-357,-522,698,437,444,258,293,-44,-308,-1219,-102,-300,-1066,851,-646,-712,-198,-853,-409,-270,318,1351,769,207,511,3,346,78,-133,-941,51,534,-439,-155,133,406,91,-108,-230,-616,-796,-254,467,-228,49,-375,166,-486,-37,-131,-85,-87,1102,-103,-306,1171,-177,-489,-436,-1027,351,-884,-491,-811,-181,132,-785,-206,-53,-663,-63,-308,-212,163,-350,-46,-284,6,959,565,-234,-28,-88,-355,994,-52,-735,731,91,-320,-395,498,176,461,772,146,-196,21,-1168,-897,102,-375,0,-5,-463,153,1286,893,-122,-137,-1152,71,1062,-341,-36,-329,262,429,128,4,188,937,43,-614,172,-498,-12,416,-34,1114,-128,-1214,1244,958,-375,877,-641,-237,-342,914,-252,-140,98,618,85,-27,214,-132,-343,13,-11,893,-177,710,-579,-117,-583,-631,-493,711,-149,-455,-355,-157,274,65,821,-101,-641,99,192,442,-29,-278,958,412,56,
548,-1560,2006,-251,817,-349,91,-537,1483,-671,732,-869,474,-1827,-422,1309,-385,-1213,1910,-697,1284,-90,-1580,-2009,93,1481,395,-58,-1698,520,-663,-1477,141,-546,192,741,-2058,-2708,-2971,263,-1215,-57,4,-1573,-342,-1511,-2287,-1618,-729,-1401,-1828,-491,-427,129,174,-474,905,378,-1144,-530,-1458,-2836,-1115,7,-1197,-1351,-2129,-1675,-1321,-304,-72,306,-337,-360,-733,-1299,-272,-314,-1890,582,-649,514,521,225,113,-306,-209,1006,-902,677,-157,1591,145,59,-566,-383,-1116,713,268,-167,-1993,-1925,-769,-2351,-1459,-48,-1293,-1827,-284,-1240,-29,1167,-3472,-64,-820,895,-1733,1072,-261,-1250,-451,1043,-630,-679,-1857,-1367,1099,-686,-1131,-973,336,-1143,-223,-243,-431,1568,-12,-1765,707,-749,22,-1432,-363,-1689,-2225,-105,1430,-1854,261,1091,-755,-1731,591,1403,95,-690,464,1473,-1276,357,-3213,-4101,-932,-245,-963,-1806,1408,672,-286,710,567,-687,-16,-1192,-1149,-45,-1749,-1244,895,187,1548,1419,423,-470,1156,-1165,-700,-581,515,-424,-231,-440,-470,-18,54,-900,-1820,2447,-1088,916,-27,731,537,791,440,1109,-328,726,1412,507,294,211,228,-938,-74,298,1218,367,563,-269,550,355,523,1923,-713,177,1056,1546,284,-49,671,-1096,589,-729,308,-248,433,-189,1118,371,-302,425,-620,1957,1125,-90,-44,-208,304,111,654,-764,738,-948,-109,-343,-548,-39,406,-473,4,-112,1732,-174,-276,52,381,168,-769,1360,519,688,-170,47,845,1292,158,291,669,62,467,456,1347,983,1683,-223,-168,341,-452,725,-480,-489,578,536,596,296,1125,56,766,542,-449,239,1007,350,1035,428,-177,235,9,-264,161,1043,1336,-655,544,-221,987,1612,461,-165,66,783,1040,483,378,978,210,-663,248,-528,670,-109,-75,-565,-478,1290,-133,1172,391,114,-463,-408,996,1732,1532,332,769,37,714,757,-284,1970,-126,857,-367,336,687,-134,-338,-581,414,697,2151,147,810,-241,764,-389,-75,-388,908,47,-99,-144,544,12,161,-121,191,-239,443,931,714,521,-987,245,1010,1469,-882,-35,-428,-134,203,1097,-275,-947,917,1274,1181,350,
746,257,-1570,-208,688,-155,-876,-16,-1555,323,497,-107,-2237,-1131,-850,-2432,1218,-725,-620,44,-1460,-1767,-490,-1924,315,-1031,-1166,915,-235,-284,952,2056,-71,727,724,113,-35,-1013,238,-918,-218,284,-1112,-769,-2054,1778,-146,672,548,398,-415,-1103,433,304,203,388,-1611,-1493,-1174,507,-590,423,1106,287,-1573,-599,-978,173,1260,1417,-343,575,-828,584,362,-842,133,408,-816,-138,783,209,-1695,-532,-123,417,-45,-263,-325,-51,842,-1727,89,-48,231,-258,-2690,202,-2694,493,-916,-116,1338,-1040,-235,-356,-272,-1471,387,-780,-961,-2704,-235,732,292,-1168,126,195,370,-571,-665,-289,-2255,1036,788,1193,536,556,-956,871,14,-116,316,41,-939,-1662,-298,501,145,-595,-2126,396,-666,-706,-539,-912,96,1761,-1228,-1355,1583,1233,-1357,-545,91,690,-1352,-2166,144,71,36,394,-1983,-10,68,-132,-706,-252,730,458,-323,394,-454,-15,-1201,-251,-1669,561,254,-1436,-1868,-437,824,-66,13,552,-128,-2262,101,35,271,276,-115,1401,-645,-1080,640,-2427,653,560,-657,337,249,-147,-70,74,352,-296,-1093,-591,-778,-967,675,-476,93,-1012,167,242,-739,-38,443,302,159,-1608,48,-506,512,394,-310,-24,-59,95,-975,322,-73,-59,324,-37,-111,-112,-728,-277,-305,-174,496,-193,310,-559,-359,-193,524,53,-415,592,65,-393,-737,-37,-280,194,25,-123,-171,-176,523,-218,213,-431,-220,-479,-932,-614,737,-903,708,828,359,-3,782,-262,-441,-26,-1360,-25,-779,161,-311,-808,1385,-505,669,-571,710,-20,-59,-742,-501,-510,-63,-175,-75,354,-574,-178,68,-123,289,-169,375,390,-316,-969,-122,408,-176,-294,-102,-20,249,58,59,-829,-715,92,-485,0,-216,344,-93,1617,947,949,-45,1128,-335,475,-112,-655,-51,-612,-166,-261,-791,-461,403,-141,-716,-501,-279,-377,-85,188,202,-444,323,-307,284,-254,524,605,-714,-491,-28,40,299,331,-708,-487,477,503,-142,359,41,78,1066,-170,235,494,-370,-370,-728,-231,894,311,-554,170,-78,16,381,815,96,-407,370,-15,3,519,126,-55,341,-93,
-208,949,1067,1755,-415,1645,1190,-1740,1899,1114,-306,-190,1693,2111,350,449,-1538,1513,-526,638,1298,1612,1366,435,90,-651,666,408,70,-758,-97,237,-146,10,182,-725,1490,1261,945,80,1019,-886,1581,1556,1797,-80,1012,657,579,712,688,1976,152,-1104,-354,383,-1649,-479,1331,-326,767,-116,316,50,568,989,3518,1031,1180,-465,944,-184,697,-461,-343,1249,-609,-129,1856,-172,487,49,524,1077,-615,66,-602,-1240,121,-1279,249,1011,2228,-560,-1042,260,2731,-2020,704,-955,2348,-483,-924,1397,-112,751,554,1567,-495,1189,54,-262,389,187,-214,-1717,-207,-291,-1595,337,491,252,1989,-111,-210,-237,577,759,2144,-622,-18,86,144,1011,3006,1425,900,265,-230,2295,2103,90,553,1171,1575,262,-1142,-421,-391,1087,-661,-861,653,-881,-532,535,707,271,184,254,768,960,2345,2351,-944,1839,-302,875,-311,313,-855,1013,447,708,1709,1525,1348,931,156,2254,-320,-458,2266,1221,144,178,880,1960,-827,330,690,-449,-155,63,219,-223,1443,1660,1469,-107,-690,-1082,987,-609,-688,-1354,-17,-1117,181,-328,129,-1988,-1154,-434,1,425,-568,327,-1350,827,-413,-52,-977,-701,-300,-1218,-183,103,-652,477,-424,-378,187,-443,-451,-245,-1024,729,-671,266,33,261,-257,-406,-793,325,-1288,-393,-730,404,-102,507,370,774,-99,-481,401,305,140,-530,-143,-377,-168,-547,-213,-976,720,-203,-794,14,720,-845,-473,-218,455,-403,-577,-237,-1949,-795,-1181,-501,657,-909,-46,-759,-490,-1450,-423,-86,-1004,311,92,-403,-142,274,-1213,-90,372,-671,-988,-981,-425,-813,-580,505,599,-412,-693,-781,1020,-440,-561,-413,538,-216,-1115,-282,-1017,-479,-344,-1009,-928,-97,-680,-185,340,-43,-453,356,-807,-426,281,-141,-151,-289,-813,-901,-633,-149,-1400,-838,14,-1294,-1038,-529,215,290,444,-23,163,-473,1517,-293,-170,-494,677,170,-788,-660,-710,-841,-979,-887,-65,-1218,713,-290,-332,-666,-924,89,-240,-409,-884,-689,-581,-421,-578,-536,-712,985,744,-852,454,380,-766,812,-945,712,-195,-126,249,-440,-10,-239,-2,960,-930,-544,
2163,-592,-1447,-2237,1143,-194,-1959,761,-1056,-1001,-105,-748,-1989,1571,749,527,2539,-90,-758,-1433,794,-1676,-261,1039,-133,472,-26,-1033,503,-517,-9,1538,2360,-99,-63,433,398,1070,2250,-435,-940,384,-1454,-3464,-1136,2492,-24,-1464,-1086,-1267,604,-337,1063,727,1193,-1083,1440,-41,564,-627,649,2128,795,185,255,-857,-1635,1129,322,815,-1816,-2047,-801,-270,1685,557,697,719,-715,985,634,-52,680,-503,418,990,772,1591,310,931,100,-872,1069,445,111,-1807,-4032,776,573,615,291,687,131,664,1165,-56,662,-860,673,-176,-604,699,1712,229,1575,-815,2130,1118,617,23,655,320,48,928,43,902,-1915,796,-416,-1986,-172,-116,68,-1753,-1474,-1615,-530,1790,626,-3811,-274,327,723,-570,373,460,3026,405,35,-685,25,1004,-1879,217,1307,510,623,-669,557,-499,1209,1882,-1807,-7,1501,-950,-566,-1102,207,-1097,330,661,182,-321,-488,-1206,-1125,-364,-680,-1439,-385,690,-2121,1589,-184,-497,1818,-598,287,-392,-745,-548,-405,2310,-2392,-117,-1059,-2268,-1693,-765,12,-1654,-220,439,975,-1203,-2386,-891,-267,-1247,-921,488,-965,1031,-120,-538,1543,-1028,881,-347,-1459,-2090,-1510,-359,13,536,760,236,140,-846,-393,102,-518,-212,648,-874,-980,-1300,-342,-327,-1451,-639,-1562,23,-444,-1373,-834,-961,-105,-1108,-558,-1037,-1701,104,-1998,-221,-1095,-95,-561,54,-832,-242,-853,261,-94,-1855,-1035,-628,-1286,449,-455,-405,-152,-381,-831,-736,-197,-222,-1254,-308,-416,-218,-91,-703,-192,33,-373,-1453,-116,-7,252,-659,-1716,-361,-269,515,474,-423,79,1003,-1598,-30,1166,-258,360,-393,-275,-63,216,-916,-1093,-1212,-558,352,290,-573,-345,21,-81,-1841,34,638,15,406,-341,-637,-984,-838,-1069,109,-180,-289,141,-958,-930,668,-405,-1153,536,-767,-252,-103,-649,701,-181,-193,439,243,-775,123,338,-1275,-541,524,-123,-749,-889,-1045,-451,663,-1621,242,1559,-1213,-86,-816,621,-1558,-33,497,112,-561,-1708,29,653,-271,-1191,-81,-557,-1712,60,-364,-419,298,-1033,-812,-1464,-362,247,-953,334,-241,-330,249,11,-716,-700,-63,-1554,-773,
913,-1939,3091,720,1234,-2235,-649,-1661,524,240,-1038,-63,345,1852,-1645,2542,2395,-2958,-993,-1130,598,-960,-2345,747,213,390,-242,-79,11,-2202,1221,-703,3679,416,491,1940,-1181,393,14,171,-136,731,240,-3738,-462,146,-3361,-482,-421,-977,-330,-461,-678,-462,-2875,-900,1100,-503,426,192,-1111,-2589,-591,-666,-569,-3032,-110,-2248,-919,-232,-2458,-2587,-1348,93,-1559,1158,-122,353,-1501,-17,-29,-200,768,-87,-857,407,-67,1146,-1113,-286,-219,-346,-1382,715,647,-1100,-2882,-62,913,-751,-237,-1710,2155,-1931,463,152,-642,-1578,842,-752,-1817,2776,-324,-356,1573,-948,-1278,265,705,-378,591,446,-930,1367,470,-348,-583,-760,-981,-710,-130,-3234,-724,-2325,334,723,62,-35,194,-2539,640,-74,-468,-1876,-1571,-351,3771,996,-418,988,77,-297,-2455,-136,-616,35,643,-563,867,-400,-5037,742,-2087,-1918,716,-3306,3247,-2657,-170,-1557,-211,1998,-1496,-739,-1956,411,-1660,-588,-1024,149,990,65,-1646,1665,-108,289,-793,-1620,-83,-950,-49,-646,-886,-29,-764,1894,-2364,-1134,-2412,-1019,-979,-716,-1120,-727,-549,-294,-766,802,-1247,-283,-1254,-1136,-614,103,17,-566,-1153,69,-140,-608,-2378,-1185,-418,-845,-223,-38,-20,-603,586,450,-1018,-1374,-732,956,509,-654,-452,-1069,277,-441,617,690,-216,-372,-1738,-429,562,-856,-580,-672,-84,1287,-1074,776,741,-406,-246,106,-1558,109,359,373,-300,-460,-547,314,-930,-217,-1261,-1237,-830,-1149,-303,320,-968,-512,590,43,288,818,-515,-501,-1860,-800,-954,-712,-493,-2198,564,-61,-252,-536,-637,144,560,-837,-1209,112,64,603,739,303,1033,216,1614,418,44,-483,-553,-795,-264,-1484,-583,-486,-1223,-1520,183,444,-267,174,-337,171,-480,-834,-337,-136,-1594,-421,-398,-359,-488,-356,1,-1495,-604,-425,-811,-980,423,-125,-1135,595,-669,-370,263,182,-1540,-1367,-933,-3698,-1139,177,-616,-562,-506,-82,14,-587,25,75,201,-630,898,-401,-178,-57,-549,12,475,145,74,-1138,-40,-855,-508,-252,271,-315,-717,-442,67,388,-1280,273,-256,-123,-366,31,1123,-1159,-1741,-265,-660,-211,173,-1087,-808,-1518,218,-1140,
754,237,1318,-233,897,500,482,1005,1829,2,-247,117,2013,1673,157,763,-704,287,-508,-704,1426,2111,249,2265,471,1265,797,-584,1525,-516,-540,-197,1373,7,-1081,433,178,1851,1272,698,508,-1136,1084,859,720,-963,732,-629,292,-725,1446,2326,75,493,1171,377,1780,1991,1329,-414,452,1262,435,-472,750,-49,1868,1343,202,166,-191,-99,1538,-666,1939,1920,-773,-54,281,-558,428,386,1347,-27,269,1610,404,1868,-209,817,-705,621,-3,-46,-171,549,-1013,-252,851,-95,-403,440,-853,654,1171,102,-28,1821,-247,474,702,1355,1504,-870,957,201,472,857,-247,685,1098,-274,985,578,-123,1360,-191,-78,528,-1971,-969,-133,-1227,1197,2223,1000,-666,477,-664,-226,3042,591,1012,1863,751,1038,1709,533,1238,2006,-1365,-1032,420,469,-268,-456,1587,475,-13,-715,818,780,638,-234,696,268,789,1280,-799,-699,-344,1540,1068,1613,933,388,2223,-51,196,299,192,-1128,1517,684,353,-560,807,2939,-680,-1313,217,-115,-13,-1324,35,-343,-378,1386,258,547,-252,-570,384,-882,-612,-305,-346,-933,570,-916,-392,-813,-82,399,-220,705,-212,-79,-278,-7,-188,-471,-1162,75,447,738,521,504,-190,273,301,324,375,-868,526,71,-496,87,-1114,-104,-525,252,562,-996,-725,234,-450,-408,-1119,-633,-982,230,-33,-280,-772,-491,334,472,-470,239,-685,-583,-631,-49,-904,-545,194,275,-480,790,-574,217,-445,270,-1931,-1411,-419,38,-666,-375,-705,-14,1055,-147,548,-1,401,98,-798,808,-463,194,-189,138,-158,-598,-798,552,-324,-374,-50,-23,-94,-406,-1046,462,-111,158,-776,-125,111,-56,-1118,-287,598,44,-656,-420,-321,-540,61,602,558,-65,305,740,-322,-684,-19,-911,-1082,-1127,167,-803,97,-792,-43,-450,301,584,-964,464,364,-1385,-521,525,52,-1242,761,-435,205,-1776,337,594,-124,54,62,-174,-335,-576,132,-815,-1193,-669,-135,-747,743,-394,-756,-337,-24,808,-1100,-150,-317,-497,-602,109,194,-304,860,-123,-378,320,753,275,-889,-689,-721,527,-143,-319,149,450,-355,373,-130,-1034,-583,339,
394,-1253,-541,-2049,901,-886,-751,1148,-1457,408,-142,-453,-605,-747,-403,-1202,847,-498,93,207,-690,-2089,-1376,-481,352,264,-716,476,-556,-205,1148,-235,-595,-318,433,80,-733,-1844,-1549,-821,-297,399,-1382,-2751,-3448,557,-876,77,-318,119,-1751,-2170,510,530,-365,154,490,-322,-2302,86,-814,-800,-198,71,-945,-1043,-2858,-524,-263,-320,-715,-826,-943,31,-460,-1860,-192,373,-1450,-238,-729,-346,-843,-969,-306,-390,-20,-57,295,-689,865,-667,343,-605,28,-416,-1662,-422,1218,-125,-1600,-303,1731,-1314,658,-201,94,-1237,-568,-1483,-621,-73,-1108,564,-369,-232,-417,1180,191,-876,-585,-708,-2186,-224,-26,-332,538,-126,-1018,844,620,-753,1091,-1474,-2950,-433,-1450,21,294,-1031,-2298,-197,-418,-2197,-1331,-928,-56,-35,-870,-1011,376,866,-761,-157,377,404,-1630,-755,656,500,-834,278,-3191,-925,338,-1474,-109,-1352,596,724,-272,-780,-782,-714,-2264,-1516,-553,-88,-240,-1635,-284,371,-2287,-1384,-1416,124,-509,-2996,576,-631,-50,295,2,1030,-580,550,-1792,-1624,-1206,-243,-435,662,111,68,426,98,-402,233,-1324,-291,549,-279,-13,-493,-600,-373,883,-500,666,-962,274,-1161,386,-137,-609,-119,-116,31,162,-389,659,236,-134,141,-81,-456,503,-573,415,-553,-121,41,-752,1071,-585,-73,391,71,946,-510,977,-78,-228,273,319,468,-382,-274,236,-537,826,327,813,247,-651,-232,-83,-1009,-274,-237,-1364,25,656,-770,184,870,428,642,373,459,654,-56,219,769,-271,-143,-121,339,100,-63,1232,-772,-169,175,-7,488,780,-591,65,368,-225,-498,-261,147,466,-279,-236,-549,1049,-84,-390,794,724,866,-40,-684,725,-253,492,-183,-225,84,-318,326,-254,-312,33,329,458,539,1080,223,551,-116,-759,307,-67,854,135,-910,667,-790,336,-48,610,-144,511,1159,-799,313,-148,-485,-867,-803,-43,116,-184,-963,127,670,-355,1096,1292,464,-469,437,-419,1073,783,1241,252,-1090,404,680,732,205,117,-223,-361,419,-522,-516,-389,303,-1218,-248,562,425,657,-535,-230,210,-137,-561,-541,-825,-711,417,110,221,
130,556,-993,1659,-1166,3233,894,212,-65,239,407,438,-1396,-1988,-533,-2061,-1305,2642,660,1135,-1444,-275,2417,-762,-651,-223,-466,711,-2566,945,-585,806,-2106,-143,302,-1948,1830,-1291,-1135,-82,1038,477,1750,2724,-211,452,1919,1211,262,1780,-513,-523,1133,1277,957,1456,-2701,-701,154,-310,201,-664,1786,256,-20,2952,118,684,1965,-1179,3147,1632,103,276,-1391,-997,689,562,1839,712,912,-392,-1286,1020,-559,-692,746,-1032,1984,-990,477,-298,1088,512,-368,-197,1366,-1087,-1711,-10,2494,-234,-494,2220,-43,204,1449,386,557,1248,1290,-3079,63,883,-557,-945,862,-81,314,414,-1805,-1051,452,-577,221,-563,1269,1475,662,1449,1557,1223,1213,1318,-1498,-402,1076,85,496,3947,-1843,-830,-1038,18,1209,-759,-2012,-594,-1366,-218,636,1217,1995,-1171,1315,-579,-1475,-214,-633,835,1467,357,770,2636,210,1860,-550,900,963,2491,-617,-2251,-725,841,325,1422,-475,1577,605,1190,-768,-352,1178,31,-640,968,-690,-928,-156,23,683,2211,1370,425,612,-502,1592,-823,1940,-99,570,2060,362,-425,-201,-376,562,354,-381,701,1579,-533,-44,-566,-316,-78,1040,-216,949,891,1328,2238,766,-305,362,-286,989,-8,-620,163,1525,1269,1129,68,255,885,-465,166,642,633,370,-433,849,972,413,768,105,-20,869,893,649,-1537,1869,-492,322,231,-95,-400,156,192,1477,-445,-25,993,179,-546,1045,-553,2101,337,27,164,-175,324,1807,-442,-155,427,16,23,645,445,1208,384,1437,50,-148,580,193,-273,-288,534,1285,-372,-403,1166,-384,-579,-87,-35,-580,-487,-702,42,-1026,-177,354,539,316,372,119,667,313,-91,1033,282,-558,-149,527,615,224,544,-36,297,172,1031,538,736,78,1077,-257,936,-197,3238,946,-349,917,1420,107,139,233,-631,-272,288,523,-636,1125,1922,107,1438,1047,1157,643,0,-82,-79,578,48,815,-420,-207,909,-1116,484,786,-192,183,1204,-110,-226,-90,812,914,836,-660,-130,144,1055,1537,-373,429,-741,1335,1041,1354,851,1403,-1199,-274,2256,702,-255,1024,-199,535,2471,566,738,493,752,
1763,914,292,-151,-251,-547,-76,-1421,-925,1082,-791,551,-1241,110,388,-613,2533,681,773,1295,-869,-815,-769,-231,1409,1182,-1372,1818,0,734,812,1460,1426,810,467,1895,-789,-203,-44,919,1386,801,322,-771,-1684,1662,-772,1372,2005,539,1737,-927,454,-802,-264,387,234,434,-633,687,532,225,2774,234,1001,-889,2526,545,2694,1732,32,1456,-124,-139,-549,-488,547,1162,-607,-34,2326,486,-584,180,421,883,1188,-540,111,276,156,-723,-346,858,1111,989,-1083,470,-455,949,-548,-396,1769,485,1363,212,666,-528,1089,1235,1003,-703,1216,-52,1704,987,928,-356,252,1116,919,1493,-1765,1701,1711,2954,469,1568,-577,1344,-95,-713,10,1678,-697,-766,-375,2362,235,-430,-1604,1410,-900,-1,-465,-133,1116,2275,-403,-238,2608,1695,94,928,-306,-18,-2088,13,592,-54,-82,2952,-2743,-626,2167,-1246,1689,-331,46,-219,344,1163,563,2664,-549,1068,-428,1027,1028,-809,-179,-246,808,1924,655,570,251,-3016,-111,2009,2151,-173,366,975,402,-1211,807,-3676,-911,1,-656,164,-1736,-650,-956,821,865,539,-1007,-1566,-1021,-1555,-286,-61,434,-377,-596,596,615,165,-830,-32,566,-2196,413,-499,-428,-1053,-1273,610,155,958,-1176,135,-445,-842,-1163,-32,-539,-691,-274,162,192,307,215,139,465,-837,-711,-417,-911,299,-1209,194,-225,-447,-1280,-390,-513,-688,43,133,-203,641,249,660,438,-226,698,-811,284,-1447,705,-573,-235,-614,-48,-885,786,-191,-156,-213,-2162,-191,-1365,-574,-136,115,790,-452,-376,25,-747,-315,-476,253,-619,11,961,458,-234,-199,91,777,-538,-130,315,-60,74,688,271,-1449,-2659,22,-1168,-749,86,-1126,-284,428,397,-195,-108,236,-844,170,-1282,328,90,470,378,204,-346,150,8,-587,637,-1044,173,747,-396,-248,551,-719,1089,491,-891,497,-672,-1397,-216,1144,164,-303,673,-875,299,-314,-230,1157,291,195,-1081,1028,-1131,591,-583,251,-108,634,69,-125,-899,1201,1153,-6,-408,560,-997,4,-1189,14,-175,-1160,-111,-1446,688,-2381,151,-418,-836,143,455,-598,-133,1271,772,-749,738,-1290,
-3152,-139,-1015,1098,-555,-447,1296,-1264,1508,484,1967,-376,1924,427,-849,-1864,-2428,313,-1540,851,-646,3252,-234,-13,-214,-1363,794,260,333,-923,-322,-623,-2663,226,-449,-1935,1235,-1072,-1091,669,1099,-958,-756,2053,1051,-779,-843,1195,-495,-826,-1711,735,-2095,-1048,-799,266,-970,442,800,541,-2059,-589,-1368,498,536,119,-1664,144,-2236,92,1113,2212,71,7,173,-509,-976,-699,3,-69,-242,800,-1694,1037,95,-1312,-76,-2996,499,1178,-553,941,-154,-224,-281,-312,2893,-782,-1364,-548,-380,-252,-1360,-2189,-1090,406,-610,-13,-439,478,-634,-1947,150,-332,-2398,-250,-1883,-974,-576,-662,-659,-518,-2218,-642,151,-847,1098,-1208,736,130,-124,84,59,-685,2154,95,546,-1643,19,2201,-381,103,150,1844,-315,250,-3635,-1474,495,7,-542,266,-125,1056,-1322,267,251,359,-654,561,-1267,-2448,2131,493,-2242,-135,-3332,-350,-57,907,-193,-715,-360,-1203,28,344,177,270,70,1292,482,-1008,-141,-964,-1133,1345,-1333,1697,-158,164,-658,245,1146,-47,1194,197,101,609,3926,51,874,300,2668,333,-1612,-455,-610,-153,-744,667,1284,496,475,612,-204,318,-236,429,-2071,-699,1100,511,-392,1337,539,-390,341,54,-61,-774,457,-802,611,395,510,-14,-31,995,1593,-355,1198,0,815,223,240,-447,-99,614,-69,493,171,255,-529,674,392,720,233,-5,340,556,282,524,566,-219,-396,-206,-412,378,707,-188,-1284,901,-224,1224,1218,1275,161,531,-1404,295,-433,21,1163,52,95,980,-42,-50,-22,139,-544,-720,1825,281,568,-88,-509,524,-1273,-313,-151,263,-1612,610,-946,800,-498,224,48,-613,-901,235,1142,-459,2855,-937,117,84,-608,136,-438,-104,30,-539,301,-352,2235,1000,593,-654,276,1389,217,1514,-477,182,279,386,-137,-52,1787,144,424,-370,-63,-64,558,-441,-246,-312,446,-1019,-662,-24,571,266,1145,-996,100,-111,-286,-1804,939,-831,882,-532,241,-133,281,-918,381,687,598,-734,2,445,847,432,508,102,25,-398,1171,680,-93,1102,765,2243,-28,391,-260,323,465,1029,-653,244,-36,365,1098,431,
-20,-464,2107,-856,427,-1219,-959,-612,835,-1516,-838,-1438,-2801,526,-621,1358,-651,557,2366,-1197,-859,-167,-1570,2371,224,-780,3542,-656,-2424,-1597,-909,-713,-1328,-1951,421,211,833,-567,1520,637,463,-811,1970,361,535,-1730,-1490,-889,-1173,-901,-2941,16,133,-127,-3323,-495,-166,400,-564,-1626,-2587,-5356,2328,743,-348,1515,-220,-2139,-343,-1089,-1316,-1439,-448,913,-4412,-1247,-546,294,-273,168,-811,-113,2618,-342,-1023,-1379,346,-960,723,83,-605,-530,-81,-778,-1600,-598,-552,-937,814,671,1471,-2682,994,403,-606,1083,259,125,493,1260,-123,-406,-1005,-692,-246,-208,-378,-998,697,-561,-1885,-1324,-867,-1288,656,-882,-205,-347,689,1303,-581,-2228,-333,-4902,-349,-1017,561,-150,53,-1488,1486,-2365,578,2052,-1644,907,-579,-1506,-51,-602,-1343,1814,-1911,-350,219,-983,1665,224,905,168,-953,8,418,522,-1648,-2295,-1218,-2390,-1271,-998,-187,-593,-2818,652,470,661,-2369,-121,-824,41,1940,1445,-2737,1539,-1332,-76,-60,442,-999,389,1079,1149,1149,206,421,1033,-2361,-1227,-290,-2256,720,1348,203,-2122,235,-555,-330,3265,1483,1367,1215,493,672,-1979,709,1309,355,-187,628,796,1689,2059,1073,-645,1075,521,1389,856,152,-573,468,1649,1564,522,909,955,243,657,1087,293,1196,835,68,1295,-668,1818,1490,604,1746,436,1409,-306,2022,1439,-783,812,1323,-39,-391,959,1840,-363,26,2093,-1091,-928,-1170,295,1536,424,1237,-342,102,13,2309,1510,945,1331,47,1034,1452,540,-978,756,584,813,608,2414,1745,1109,-28,182,964,662,1099,-278,-145,294,-27,3201,653,-885,-293,-367,111,592,529,-28,1525,-350,402,2063,1541,740,295,387,944,-1039,1785,487,118,1838,-1708,-2950,1722,229,544,1090,-632,3014,1230,1234,722,1418,-1947,130,755,1958,470,45,284,713,2030,1034,297,63,-161,-129,-8,1821,712,148,428,-360,257,-47,-74,646,-176,2532,956,1195,-29,752,-942,-633,2043,726,241,1002,1545,74,380,16,438,-1274,-182,1156,567,309,812,-221,1261,9,1103,79,1172,-287,1502,1070,825,355,802,363,113,-561,2005,1698,-557,-332,
133,435,-1369,1751,-678,968,914,-1374,-1274,113,115,-631,2393,-741,295,-888,961,564,-82,1093,-1525,-1275,983,-1888,239,-639,-1465,-402,-1276,-436,1273,620,-1202,157,714,189,547,-2549,-1313,537,961,380,842,592,-1148,609,130,321,136,354,-254,-1703,208,411,-306,423,-571,-104,-1246,-506,-622,-1405,539,877,117,894,-145,-269,314,-1865,1235,541,112,-116,-1294,-2682,136,739,1161,582,-608,371,-1980,433,-298,-910,942,-2796,504,-638,877,-512,-289,-73,330,236,-14,-514,-304,-161,263,-559,1976,822,-474,805,724,400,543,844,539,680,132,533,-1408,-195,-726,-1821,-214,-574,41,-270,-1109,-131,55,-1286,660,362,931,1539,311,-691,643,-449,-765,663,943,-344,200,1291,-2354,22,273,-2243,1128,-201,-549,-720,-918,-619,2115,-173,411,-570,373,48,-2115,-519,-209,355,55,-440,-771,552,-495,845,-372,737,164,216,-42,-1160,-223,-87,-970,997,777,589,-248,578,-773,-378,-728,-289,-621,-152,-52,-2139,-37,104,109,383,225,644,191,444,276,-935,570,-400,-561,0,-476,-23,-25,120,-11,-286,-1304,432,-45,101,-642,-517,493,-238,-485,256,-672,372,143,-184,-434,-861,-250,-199,62,-147,-314,-430,-238,-878,-316,222,55,-288,57,-162,-127,-800,-46,201,-109,297,-295,-1039,-242,44,11,121,76,-105,-70,241,-317,120,-443,-5,-209,166,192,-714,78,183,47,-467,330,-425,-549,-735,-388,-630,410,369,217,-62,542,127,36,557,331,484,-585,-46,185,-269,47,-1237,-331,-202,232,-25,258,166,156,-866,-396,156,-526,400,-112,-409,288,-484,140,176,129,-354,65,229,-351,-306,31,271,-270,-654,-364,-1008,246,168,-403,-140,-326,274,582,-33,-1057,-125,-110,12,648,248,399,1070,213,-218,-8,-250,269,-886,-644,-376,-368,-540,463,-56,-462,-331,-390,85,-404,-258,97,-496,659,-432,-660,-431,-562,-315,-497,927,-504,-68,216,175,-526,-125,587,999,-33,-164,-9,243,485,-508,-457,670,-193,444,-489,-270,40,-609,-317,811,29,-589,335,424,190,181,443,103,-437,265,677,-1611,151,-641,
365,1209,-1260,1891,-1645,1432,1485,1064,-836,438,-401,250,646,416,590,-1573,188,2581,-1669,1675,-859,-1543,3746,-448,-251,-1059,-310,-924,-118,-1107,115,822,-1284,499,105,-468,2707,-824,114,-340,1397,153,1518,1285,-566,1342,2015,545,-54,260,651,-682,-295,301,54,733,-957,247,953,-351,2065,538,-703,200,1895,2594,2322,1410,-104,-611,932,298,-482,-21,447,-377,275,384,2010,-27,1034,-1111,-1591,954,-197,-1431,567,-2268,458,-539,473,416,11,-383,411,62,1601,-699,-1487,-586,2087,-876,612,2113,-490,350,711,834,-39,394,951,-446,708,346,-249,-795,585,-1393,175,793,227,-519,582,73,-150,192,276,730,909,2222,462,1319,414,-188,431,-938,1117,455,-16,2198,-1333,332,-226,-555,1861,-119,-1835,-1137,-82,-846,574,882,1254,-751,-390,-352,-1499,41,1037,669,2841,1433,456,1572,-471,2255,-1694,-493,742,-327,-621,-536,411,257,889,2625,714,506,-529,1023,-160,-162,-491,320,-252,993,704,-1690,448,108,-375,980,1242,311,1137,844,2482,-80,956,-863,228,-314,-428,1026,-158,461,194,-685,-610,1231,1465,-437,959,974,40,-818,-285,251,679,220,-56,-193,-340,-649,634,5,-249,-339,984,412,-717,690,1232,258,-462,2366,-234,1375,-373,-697,1345,-515,802,-1021,-320,-375,-268,569,368,374,427,-470,601,1337,475,647,211,-194,675,-107,771,-90,-20,334,718,-103,916,26,309,243,-463,466,36,512,1514,111,-356,-623,-439,-99,-669,-138,796,797,-1274,402,-13,-1335,836,-988,71,-528,1049,-595,-610,100,-693,-118,746,255,500,-7,692,476,750,-41,256,-342,-389,595,-785,640,395,244,114,74,806,548,43,633,656,214,100,929,1561,605,725,867,208,1027,715,1378,188,1809,-167,1068,-846,71,117,-186,-66,610,1363,-14,-8,-361,-230,458,485,-122,592,271,-781,-310,386,-334,-548,-298,-882,0,-644,639,-869,626,-243,-4,-425,34,67,457,79,222,1150,182,396,554,-641,197,658,881,-64,-463,783,-132,541,1258,983,-1827,76,462,631,142,875,-668,-81,2069,495,14,131,1115,
599,751,1328,984,-376,1156,497,538,1953,-44,-263,210,1640,1515,500,1740,-557,1172,247,-79,2123,1685,1425,1969,-551,290,1136,-332,766,-819,-666,-403,1440,-699,-703,596,944,2335,1383,848,1315,-959,658,1069,1421,-220,609,-443,-118,-295,1597,2099,-556,-485,53,-158,927,1477,1657,-604,768,1520,1945,-540,1238,932,2458,1197,7,232,163,538,788,-579,1147,1329,325,-642,1081,-396,341,60,1212,644,214,1183,110,172,-341,458,-684,614,-307,-89,-129,-326,527,-596,202,108,894,869,-1240,1628,585,111,-135,1465,-476,798,1149,582,1585,-587,942,24,919,-21,-839,877,1193,-257,1527,1065,-3,884,-512,-162,819,-1594,-490,230,-870,1050,2575,811,221,885,-211,-3,2815,-201,893,2413,723,906,740,-27,1339,1585,-384,-770,103,46,-39,-550,2178,738,108,-145,944,27,1414,246,683,864,627,1000,-994,-490,-132,1161,1222,699,1590,1120,1720,-398,276,998,627,-409,885,1629,856,30,1315,2599,-308,-369,-45,-663,211,-2016,933,-366,642,1336,562,387,-269,-719,383,-358,-418,-771,318,-66,1306,-109,-289,-551,-304,91,302,151,-428,-193,-473,432,-711,394,-1388,545,541,161,214,-247,-700,974,-88,40,501,-392,653,181,-607,350,-700,422,354,-405,858,-550,-709,427,-567,143,-934,122,-317,402,661,76,-50,-5,-355,597,-565,563,218,-225,-474,242,268,-376,156,381,-177,-66,438,589,-226,298,-501,-943,-401,-342,-857,-83,-506,274,141,106,835,50,434,-729,-219,276,-728,597,-410,598,3,-281,-366,223,-320,-374,-310,-295,-166,-708,-498,464,360,470,-1142,100,601,224,-1213,-625,398,139,-522,283,-550,139,-61,153,-44,-712,27,91,-269,-120,-371,-2435,-683,-826,466,-404,-83,-425,260,-799,22,492,-784,568,293,-940,-1071,297,-224,-733,730,-249,-577,-632,560,489,621,197,681,52,-442,-425,49,-1609,-815,-567,-469,-1137,376,-347,-492,-809,197,537,-747,-269,-797,-40,-192,-221,52,-935,534,615,-491,-261,784,-146,-620,-58,-725,39,-21,-69,254,307,-273,16,91,126,-505,-312,
-778,621,208,-730,649,-430,300,-444,1124,39,-47,-3,-708,1079,-496,453,-1187,-762,922,409,-21,2077,-291,3520,-93,-169,2117,283,585,-703,173,-125,-904,-914,-137,164,106,1732,440,159,86,-908,185,727,2281,-338,-132,379,534,66,870,-57,-40,357,-64,22,1090,12,987,-625,-108,-476,1135,-384,-831,61,-1347,-1318,-128,-1111,1043,-425,-385,59,-610,600,-587,-388,266,-640,-162,-239,-1396,167,-1167,1188,-515,616,214,-826,-593,-1149,181,-866,-668,-59,1592,-437,843,364,630,785,-162,-343,312,-113,-415,-1001,-278,-162,-359,-893,-165,-267,429,-147,-408,703,50,-216,-953,-1683,923,-317,516,-425,445,-209,179,-951,-487,-359,-646,-353,529,673,-1275,-182,-774,302,2412,-328,255,609,957,-396,-924,10,-381,1252,-2063,466,-142,-1560,-309,-112,2235,125,343,-295,-208,-1069,2724,193,81,-68,477,885,-591,-594,-239,-170,-120,444,-803,174,528,-1041,-358,1313,-187,838,-289,-598,139,324,28,1915,-627,-253,-92,-394,168,-719,1530,-91,1072,587,533,-13,261,0,387,-492,-263,-713,91,373,1504,-20,-30,254,-977,89,212,656,282,-167,-139,148,-64,192,-646,1237,20,225,14,155,-1410,477,558,1048,294,-309,450,173,-553,696,-213,442,-1072,606,479,-1079,-1105,517,-121,450,-886,401,-934,-181,495,-549,-30,393,1435,256,542,252,300,-829,350,-740,-212,-53,-4,355,-506,423,991,627,-107,343,-365,838,253,64,-270,207,585,275,-306,-125,727,-325,1,1924,-956,370,-1537,241,-519,190,228,-945,-1368,82,105,-594,-130,-557,-947,-395,-705,174,-154,287,37,173,839,598,-457,-812,756,-89,-387,-291,32,245,-168,-196,-162,-163,-455,-773,-293,-575,-161,-2220,13,-1145,385,-589,529,-78,249,-597,686,643,-726,-479,505,-176,-809,4,-1024,-1187,935,899,-971,493,605,-50,-30,177,-595,104,425,-866,642,-1386,-1281,-192,-974,-315,873,37,-1265,-576,119,638,-140,-114,-512,-1521,-569,285,124,-910,148,687,-587,213,497,-137,-214,-548,-180,-24,-158,-282,393,332,147,-64,-730,411,-6,-162,
443,-679,2448,-2297,-920,257,440,604,1917,-190,-900,-182,789,-532,668,1275,390,647,1176,215,-567,2417,-1149,177,-648,-577,1419,61,-571,-188,-500,-1798,-1149,-792,1298,515,400,51,-1150,208,263,-547,-1739,-605,2178,-1507,-833,-461,-671,-302,-621,597,-1468,-1486,157,-1016,956,1549,216,18,-257,972,4323,650,336,68,-1981,52,-551,-761,227,759,1479,447,-749,394,657,1294,-1364,426,812,320,-367,-1139,537,-2077,80,-1273,1104,1733,-700,-461,-1709,94,318,1933,1025,-773,980,1200,-358,505,1554,1436,34,-26,-720,-546,1021,987,878,-176,-317,-739,360,1993,2420,-1202,583,192,-889,136,-938,2533,175,-1666,336,177,295,1519,171,1113,-344,-1190,-1232,130,-634,-454,762,-486,1818,-514,914,1299,122,494,-639,408,-14,217,1158,2018,-138,-187,1288,-251,477,-171,-1027,1277,-487,-358,1587,260,1317,-1714,1026,-947,-814,924,1126,-393,299,-75,343,-588,673,-576,-710,-166,763,477,-783,280,-2031,214,1647,730,445,1218,978,668,1633,947,1046,-229,-287,7,341,-352,-894,945,1560,-649,214,-475,-145,879,2408,-155,1892,445,-1452,1279,319,1663,980,-1248,996,-543,1537,357,-2032,849,1096,825,905,1137,-642,330,1573,1879,2918,-300,935,-961,-633,1962,2487,-124,-413,511,1028,53,1017,1708,722,-235,179,2107,-422,35,1796,390,-398,-277,-125,583,-249,1699,425,403,-1073,1829,-168,-809,114,512,-105,122,-174,1227,572,310,92,1208,143,1110,-714,464,-69,1231,402,-259,1753,1323,373,2820,884,1569,-809,75,392,933,670,685,1746,692,769,-145,-1095,104,-274,-1063,-684,676,-140,1120,424,-200,-597,-1,705,-229,1782,-533,-161,11,802,128,525,971,2070,-748,514,-477,2317,491,-255,-201,1910,510,575,652,-802,823,1391,799,637,25,1193,351,701,1614,-1000,96,-59,-258,949,2916,-540,-1135,-772,427,681,1121,345,157,717,1373,-43,-17,1762,271,-110,523,886,-128,-1030,879,1186,1080,-22,651,-605,-744,890,973,794,-353,694,-134,43,891,1507,675,431,2336,123,1857,-94,781,1231,1837,-591,239,1107,818,-279,250,
1636,854,-99,-1402,-527,1294,-1246,2864,-1043,-759,-251,293,-1135,-1202,1314,554,2074,1008,1097,-582,1058,-3970,2734,431,91,1062,-2254,-487,964,363,305,1096,2681,63,-28,1541,488,-2281,1102,310,-793,745,1111,-2449,-983,1527,2292,-1221,1511,1362,1924,637,2021,978,1006,773,2423,665,2475,-496,2422,1530,2313,-39,1153,732,1042,1096,1147,12,-1075,-502,-716,-697,1708,-569,514,660,2330,423,72,-208,980,4,-736,1331,654,2137,544,-89,756,740,957,1270,4,575,-3308,1766,-330,1275,1203,952,386,1497,1518,-110,894,-1001,32,-635,876,1714,292,716,2148,2098,2210,656,457,1153,2175,28,923,487,-581,605,32,452,514,849,165,1038,171,468,-2433,196,1089,1239,580,-554,649,221,335,-2370,2211,660,2645,477,157,-1127,1822,-332,937,-1042,1034,-1109,-1292,514,555,172,1873,1858,-1916,1764,1358,2238,2778,557,278,-229,733,1827,1315,882,1275,-558,-171,-379,661,-214,-281,1714,-663,919,2193,-488,1898,-545,611,1077,602,-52,-795,197,-828,-20,-1366,-1135,-1373,192,-908,-120,-1511,68,553,196,-188,-992,-80,-307,-688,664,-252,-1227,-200,-1191,-579,263,1111,92,-2952,-1741,526,-2200,-438,1333,-639,-706,-245,460,-1359,-318,-468,-604,-356,-855,-40,-689,-313,-99,-827,-224,-218,909,354,46,-373,-389,-122,-1011,-155,142,-46,-1145,-277,252,-422,-376,423,-368,122,-757,-814,-274,-440,-400,382,-186,-63,-80,1215,-683,155,-442,-1285,-3571,386,-574,131,33,188,-518,-313,-65,-1505,-984,-642,-698,-611,-521,65,137,-1858,221,-647,568,1098,399,823,-148,-698,-174,1516,528,-58,-213,679,-302,511,-52,632,66,-78,-216,-1900,540,334,-1056,-4,310,-744,-711,442,956,-604,-1074,-1991,-1239,405,-1074,-606,-2204,-390,-1975,-8,-74,454,-511,-19,438,-2954,-359,-337,-206,-103,-520,-998,1250,-1038,-2036,-54,-134,190,-232,-432,-239,-552,921,-554,-587,-74,1852,300,55,-1326,-35,-781,-138,-539,55,-158,-2006,-42,376,-44,175,-311,-662,-836,-5,-544,764,-1427,-637,-94,-2054,-1045,-377,358,-586,-436,-343,-1131,-102,-317,-1065,-1297,185,-768,-628,
1384,-1055,-374,-2096,2107,-1746,-1860,958,-1627,-775,-184,-459,-1327,-715,-144,1489,2236,-1303,-855,-1835,-287,-1806,-782,1306,-491,1144,474,-609,1282,-409,895,1120,1967,306,189,341,-327,-205,676,-1569,-1150,678,-1508,-2728,-820,1769,-444,-2338,-1499,-248,-838,-1051,1307,638,792,-1089,1862,-183,-253,-1499,296,694,-1394,592,-465,-738,-2438,132,95,1378,-1977,-2152,-1034,-674,1629,-319,224,504,-2117,630,571,14,-320,-1510,404,984,229,1272,326,873,464,-806,848,-573,128,-1090,-2840,446,3315,701,-1739,92,1532,-838,460,730,363,-1897,78,-1508,-615,1441,533,131,1802,-836,1018,1364,382,-49,554,726,-354,-659,-633,1036,-1247,734,-1722,-1249,324,78,495,-1816,-1193,-1438,-1321,744,78,-3144,-1961,135,957,-1792,-1191,40,1824,260,-165,-798,-528,854,-1592,937,1718,-252,-1701,-944,-87,-60,888,891,-2353,-1228,633,-865,-537,-965,854,-316,253,2120,936,-1501,-818,-3095,-796,-123,-493,-2551,821,1561,-1977,-283,-134,149,1994,-1971,44,-171,-1573,-140,-364,652,-1645,-954,-100,-1373,-1090,-301,-77,-862,281,1359,1036,352,-954,-696,-1272,-585,-22,379,1058,786,-717,68,1063,-215,-99,-458,-1245,-1181,-590,517,556,150,637,569,802,-791,-275,-654,-27,349,-80,-1059,315,-753,-641,-461,-811,-267,-1255,127,-283,-248,-426,-338,115,-760,-562,-795,-2309,288,-891,-700,-801,-372,-1260,537,-635,-30,-126,155,-326,-953,-40,-633,-1091,132,-1356,-552,2,44,-765,-431,400,427,-748,243,-1306,-159,-354,-687,-198,-506,-342,-576,440,-49,6,-560,-383,-89,236,-114,481,-137,507,1293,48,-34,1256,-442,1385,-341,-72,-377,963,-316,-833,-747,-375,4,-287,-912,334,404,594,-1050,167,753,-783,1284,656,121,-685,-1561,94,2032,307,-201,-139,-386,-417,1161,-472,-585,463,-532,1030,709,495,695,312,114,31,89,-576,-222,1098,-632,-705,341,-829,-211,-817,-1009,-132,789,-912,740,1072,-110,72,378,55,-983,-81,-69,104,-376,-624,-280,1126,-196,-762,-259,-622,-85,-217,-609,720,-836,-1124,-183,-723,356,1115,-569,360,-230,14,338,-323,-837,-75,-26,-807,-746,
1913,934,-632,1909,-796,574,28,-80,-1013,471,470,1272,-1091,202,801,162,527,1746,254,668,-238,-675,1131,-1959,1442,-1538,-1179,-941,-151,-1370,282,3274,1470,146,785,530,565,-1003,608,29,167,573,2174,1638,184,2653,651,693,2337,78,725,-381,1608,250,-1452,764,-2144,129,412,737,872,793,557,63,1495,412,2291,1167,2627,1084,455,-428,557,-893,352,-462,557,1335,557,16,1989,-50,-558,910,-365,1105,72,-1075,260,373,388,526,765,1233,673,1224,-1815,1306,-1549,-415,377,-1289,24,900,-1532,-443,172,769,363,2140,-564,-1257,1900,356,-288,-1538,-443,-1855,702,964,923,1225,-432,62,-841,1794,1388,1531,-67,1125,-108,-824,155,1430,1163,-1038,922,1217,143,1334,-1012,788,-1405,-139,904,779,1066,1538,636,-1375,1726,-2823,428,-236,688,-1132,-2866,-752,-1084,-60,901,2273,-606,-152,-381,507,-525,336,413,442,-414,838,-329,2111,569,1975,305,684,1249,-210,-979,-1368,1020,1371,988,323,177,-1611,272,1546,860,227,196,126,-237,-618,1675,-940,-58,421,-542,-499,-938,404,824,1627,620,-608,-873,616,46,-131,757,256,84,-798,-1370,-183,388,460,-1077,-97,711,-1870,820,-181,-1744,-1177,1488,323,-1286,1013,-1469,100,-860,-420,749,190,-320,-334,784,-805,482,-73,580,-190,-29,354,759,-71,1167,702,750,1536,-705,-117,-400,299,277,28,827,-486,-1970,689,456,535,478,265,492,980,393,-663,700,1329,295,-2357,50,-734,2023,-441,683,-665,-1117,159,-1522,861,-105,-1447,1017,-1053,1015,-276,1234,-96,-459,-484,718,517,-423,561,-135,-698,329,887,328,-994,244,-354,-211,914,328,-700,990,1403,-953,258,-5,-468,-694,329,458,17,-544,661,-279,1090,-941,596,579,2271,289,11,-438,495,-236,-738,-559,-932,-532,366,-1227,1644,-92,-452,924,113,-1306,505,-560,-1945,1042,-169,191,-234,204,-527,301,96,-420,16,275,-182,-278,400,313,611,-635,653,205,449,-473,392,1466,884,738,-2,-293,-661,1269,265,355,502,466,10,-253,1769,714,-1530,288,855,346,-46,93,-1272,-394,1576,1235,-933,1254,542,
1357,1150,-937,2235,-1031,1599,1218,-510,-1027,404,517,-1449,1093,-75,474,-1457,1407,1185,-348,763,-504,-1175,2136,-1782,-86,-1187,-1347,-1245,-513,-643,1084,167,-232,364,-623,846,1601,-961,-607,-241,1544,195,2331,1505,-1037,867,273,390,-321,558,441,-1854,-286,-12,272,590,-867,-154,-331,-361,-322,-1135,78,558,2065,1546,1780,-110,393,-452,1369,1261,-635,-733,-1077,-1420,646,830,1995,898,-1082,289,-1794,2131,222,-713,1234,-2367,956,-281,476,-16,1419,-678,812,-373,847,-1292,-1733,-999,1979,-799,961,1698,-26,1052,939,900,-208,1624,1403,13,272,236,-750,-1089,-143,-1425,129,174,377,-888,-253,-203,-1232,-964,852,916,1864,1331,739,135,620,403,-74,1705,1745,-1153,799,2258,-1800,270,-556,-1755,1456,-50,16,-1007,-79,639,1925,-934,1146,-354,125,-849,-708,57,914,248,578,-1449,-377,1390,-73,1494,812,481,441,43,-354,-1700,475,595,-145,1794,902,989,-510,1725,38,-1066,-488,-351,239,-239,38,-1044,249,53,-123,1182,433,502,904,488,333,-344,420,-185,876,-585,-913,346,-97,165,32,-864,-1215,1073,804,545,-174,-314,462,-544,-14,-160,-408,626,380,759,-1418,-607,357,-867,-420,-40,-494,-391,-663,793,1226,397,-598,1593,-738,720,-1351,7,808,-98,217,461,-692,-994,-281,514,355,582,-295,-577,469,228,-813,1100,43,-99,151,-223,109,-1200,-208,-151,411,-676,870,-1271,930,-428,97,-250,442,758,243,-678,-92,-390,-264,36,282,277,-389,-363,-148,294,361,-848,-50,434,488,-364,1026,-344,-88,-509,51,-74,-763,-24,-774,-644,196,-1,2,416,325,-448,226,527,-1019,-1219,-371,739,-309,-938,329,-733,93,-526,-1,218,100,888,1474,-146,-518,1124,203,-101,-187,-267,656,2197,330,-588,297,-1133,422,-13,-1010,-25,965,-422,-560,184,205,122,93,-853,-395,1288,-2,-71,1175,-490,-775,-225,-1054,103,-808,393,-1213,-300,602,86,-576,-688,600,487,151,735,-151,682,-200,-101,-847,169,700,203,358,-101,-182,-622,-569,845,756,-1567,171,591,588,451,593,-486,-345,960,735,-1303,207,-19,
1257,-817,918,-2501,645,-661,-1427,1961,-407,-860,-930,-444,114,796,-257,-189,1188,309,458,-1408,323,-1414,146,1928,-274,339,1100,-777,1601,-379,87,817,-6,-96,470,-306,245,-58,787,-1035,-724,-297,-2227,-3125,-1597,340,220,-1536,-897,-1427,-701,-645,236,842,665,-1609,1499,527,-616,-548,449,1009,45,-350,-844,-329,-2387,722,77,92,-1673,-1733,-925,583,1857,-55,312,-262,-1456,-87,399,-266,842,-2200,414,308,-543,2248,342,21,400,-898,-355,-529,-469,-416,-3175,20,2324,506,-1297,582,302,392,1495,-297,-1130,-1715,151,-695,-498,-173,38,167,1421,1079,1282,902,297,-86,214,63,-1149,1057,375,252,-1734,-1096,-827,72,70,583,-884,-1561,-1457,-1326,-1422,1638,-321,-2485,111,132,231,198,-839,-225,758,1617,-184,-696,-715,1523,-718,66,96,329,-145,352,1811,-352,965,2302,-2077,-649,2479,-533,-510,-954,-271,-1222,-655,1879,859,-166,-1268,-1040,-1031,-481,-328,-834,274,402,-1373,1158,-323,-2,1255,-721,-74,-940,-902,-657,-1685,-408,-792,757,-1661,-2109,-1767,213,601,724,379,53,1067,-627,-90,392,-401,-394,684,-583,-529,463,-257,524,959,33,1130,-1066,-424,-1475,-600,731,-281,435,1181,-93,581,369,651,906,1077,-15,-116,231,-81,-983,570,-544,-478,35,293,416,588,371,287,-501,21,157,982,541,876,-147,383,-782,-13,-31,-182,310,371,841,339,544,-52,-504,879,496,-525,-221,-1093,0,748,324,-297,-172,307,379,-1062,11,-447,-61,226,97,123,53,305,-1099,235,-325,487,-153,-759,73,65,1086,758,-121,725,-100,209,290,865,98,135,-257,-317,1015,499,-147,88,517,680,1074,306,-93,562,238,82,143,94,271,-69,464,-418,186,528,-206,-54,599,1476,-90,-349,-1404,-242,226,1153,0,226,-278,354,239,602,982,-432,413,624,765,-468,479,541,-1357,-549,92,-652,80,766,585,-410,697,295,236,1001,1379,-399,-407,534,-23,193,1349,105,-198,1134,124,1096,260,721,178,-284,-409,-534,-516,14,-58,273,-436,-545,512,140,503,77,91,-117,487,714,-650,550,1353,5,-479,
-1216,441,951,3880,-1101,2026,2245,-691,275,644,504,236,1370,-564,149,-874,-1127,2203,675,1737,-43,-326,1805,-663,195,-732,289,-205,-502,111,-1121,-534,-1545,550,-83,-2125,1803,-275,235,-52,1353,146,1856,2603,527,-1188,279,2916,295,-769,-334,300,-1775,263,36,545,-2080,-487,1511,-237,1,-934,20,-563,798,2328,2501,147,-298,-599,1589,87,573,195,-1587,128,966,-66,3148,757,52,-40,-543,2353,-406,-1998,-120,-2016,293,-215,180,1138,477,644,241,-261,3668,-30,-1889,174,3985,-562,-421,1536,-251,1268,1092,1176,358,1906,789,-1748,-599,10,-911,-965,269,-784,1003,309,-679,44,1080,-1158,-228,-1425,329,206,3112,1300,246,1381,-94,1223,1164,482,2693,-277,956,3188,5,-376,47,327,1713,-911,-1886,417,-79,-741,281,1287,1646,-212,578,-270,87,709,356,663,715,-175,1718,2464,-221,1671,-527,-246,-60,567,796,-356,-363,-126,1713,2612,1022,645,95,3465,690,332,122,-59,-1032,1322,320,500,592,532,-359,992,1551,505,1302,1887,2145,1659,1384,-1035,963,428,448,65,-924,-333,598,-129,-109,411,1120,-245,547,-556,148,210,-1096,320,-538,972,361,790,-5,-135,468,-344,-739,-63,-55,667,-347,893,1419,583,-27,1742,-564,1168,1373,508,573,98,978,-216,-238,31,178,327,-277,540,102,-118,1331,821,588,73,0,-14,769,60,890,-240,243,1268,535,492,-47,407,1136,-247,1260,144,-27,366,1130,210,-416,-42,-734,1,-272,204,228,-166,-513,513,-48,-724,542,-219,389,-319,1019,-89,-236,136,-608,300,-51,468,383,-128,-228,849,-280,452,401,466,-445,435,277,-684,761,611,192,400,797,324,-415,847,-737,-591,334,-776,-73,220,1086,1254,479,-473,-569,1195,-311,1580,-101,-494,275,-216,-367,160,-1173,215,585,-34,-215,72,345,-494,-132,-446,263,1270,654,-180,940,-185,-607,885,-577,74,-290,-1259,-1235,-320,247,-984,-502,-27,361,73,-136,1338,128,-421,-100,611,71,818,-76,386,-15,-165,206,-817,562,832,1585,27,229,206,-157,-102,-96,-319,252,628,363,976,948,180,
-238,1042,-931,1721,-582,1229,1146,-764,-638,1449,186,353,1014,9,191,-1186,147,812,-486,1185,319,188,549,-319,826,-1238,-968,-479,-38,-1663,-389,958,-44,170,-535,125,-58,-404,-933,-67,598,-201,2068,2843,210,1206,1182,983,1180,54,1224,-189,-222,-340,-390,1255,-1626,-487,332,104,25,459,5,-443,1454,1665,3106,725,824,-1015,1240,1214,-262,-1109,-306,-392,277,1005,1179,-103,-17,524,-2330,1609,-3,-49,510,-2104,-42,61,340,-122,306,-669,537,1359,781,-874,-2519,-1615,777,-697,-139,1547,-1165,-767,295,1831,942,2113,307,-1057,1043,123,-1178,-1563,-1124,-1987,371,-360,-125,-765,705,76,-233,711,1652,637,571,-279,194,-14,563,2229,1662,536,758,-74,-426,2850,-1576,-253,-1217,-473,1734,-56,-483,754,-698,35,698,-2329,465,-536,-624,91,-1675,-828,-533,133,1078,155,1091,544,-858,1699,-91,848,294,505,-78,-968,291,1232,322,1885,2010,1070,1372,511,-511,-1674,2231,-584,392,-804,-667,-751,25,393,-1019,770,1450,-429,1110,-1871,1946,-554,683,807,-761,578,448,-517,-316,542,-165,90,-1025,-326,-543,-753,-341,190,424,-263,-855,-107,-1286,144,51,-398,81,-204,992,-455,-1342,754,318,771,-1544,461,-700,655,-501,-340,-309,2109,-14,-180,991,-270,566,-214,-194,-687,643,861,-419,-157,-532,240,-459,876,187,-856,-862,-35,1161,915,806,-216,-614,-69,-946,20,668,-273,-113,21,-299,-736,455,1540,-597,146,185,-615,729,-812,-51,-95,413,208,-674,961,-434,-685,451,-886,-339,-304,2418,-218,-620,-434,-817,632,140,-825,130,-559,-421,72,-768,-721,290,-526,-258,97,394,-1012,-1017,107,657,-1127,176,-521,-230,367,-228,-318,-122,556,883,-363,438,264,540,-828,-349,290,346,951,501,-939,-505,-1919,123,42,308,998,-490,-722,55,-307,-917,187,-427,-81,-1011,769,230,-685,91,184,-455,-526,645,-8,-30,-621,-1126,400,356,1579,-288,807,144,-9,-491,-277,231,428,231,-299,-532,182,508,-87,-371,-72,-276,-685,468,1462,253,-1065,77,341,311,-155,210,-881,-368,2142,270,-1305,553,-532,
