7955598,4497226,8858524,11817358,841476,18268640,14632770,10359639,4278744,4066145,2699934,6860217,12550263,7516602,13066598,1082130,2269845,11662822,9097868,15459617,9040933,3172430,15142570,4185882,9750520,1750528,5019506,7953154,9705307,8610090,3219782,1856553,2309176,11360823,10416034,6096006,11611022,6174362,11365682,10531009,8337838,14328037,10008710,5484453,7409437,15231252,7317502,9973611,2547750,3229336,3837250,14427300,5071153,3438170,8623531,7626206,11300846,10665449,10053931,11292140,2195617,11295816,3722027,6734266,16239397,10686280,6792951,15713635,4872543,7483537,10980447,622732,8495411,8723510,2929383,6640835,12350767,6934912,10254148,9212199,9224062,12198813,2704945,15497084,6534422,5239627,13588266,10418669,5868442,7849697,10069968,15352260,3962229,10578876,4708121,3599140,5583572,11960682,10239688,5304539,8752547,8291005,3125846,4799671,1616246,8621054,13125928,13178834,8524317,15184562,14150177,3552796,11122374,4493153,7830884,10235271,548771,9454575,6590081,7206765,8003081,10989191,6491132,5454342,12111148,14618642,9781147,4398778,10519267,7565695,3112810,6053853,4182028,1696472,7959454,10906563,12416185,5283238,11385470,11892437,6905039,11123142,-181775,1601647,6950239,14693366,10277219,4027966,11236004,10345667,5897470,3880342,11643023,8625566,7017249,6077733,-304912,10984678,5095388,15171362,14236393,8084290,11720173,14916581,194178,6802467,5012276,5689473,13477832,3640665,8716033,10580109,6675438,4056027,5403646,11378383,7702334,14598130,4403815,11329545,9586884,4883767,5021036,4465089,12146570,3758148,707531,9628003,11638787,6889738,7088602,7841762,5039381,8252644,14874587,9288486,6628741,9351631,5534064,6830461,-1226788,-9630109,-6584666,-3883417,-3774382,-2218238,-3226871,-4296112,-190001,-7381344,-5557151,-7663245,-3267783,-5078139,-4428164,-8662632,-7696437,-707746,-6123534,-5648339,-8107103,-5441589,1874640,-6388432,-9287354,-8874755,-4269551,-5778570,-2027681,-5613218,-10570144,-5544109,-6643098,-7597743,-6352768,-6801841,-1475959,-3077990,-6552539,-4364460,-4759991,-7936975,-6373193,-9525007,-2719493,-3843742,-5312177,-9024233,-1902819,-4895065,-9298111,-5517817,-8092337,-4004366,-2373946,-1613626,-2651508,-3804651,-3091898,-7129897,-5809952,-2546827,-5319061,-10483936,-3489260,-2308795,-3252586,-3310090,-4796693,-6099419,-5933834,-9089948,-5708638,-8940684,-1508875,-5503784,-5376254,-4918868,-3013256,-3622926,-9046244,-8651514,-7148477,-2309583,-5600259,-5313500,-8423249,-4252791,-9862822,-5550029,-7980403,-4272764,-7849965,-7765352,-7678247,-9422588,-4827639,-7769461,-9072565,-5268201,-2192804,-5597205,-5957580,-2294512,-3237051,-7156817,-6682180,-5202668,-6096419,-4352975,-3360240,-7752924,-6141348,-3614861,-4447452,-905559,-1656753,-2286201,-7476678,-2100772,-4550272,-4727270,-7470870,-6850658,-7068620,-4024160,-4502083,-4220452,-4901967,-5888409,-3814825,-2652772,-6262279,-4432393,-4031121,-2616505,-8164527,-6356349,-2834506,-3521449,-3783324,-4738042,-4028881,-5088985,-2636149,-9530987,-2641233,-3689097,-5411190,-6636421,-5567667,-1016086,-1439756,-6791833,-8688866,-5446908,-2791201,-7987813,-2039938,-8448342,-287633,-7159612,-3272017,-4759565,-1388994,-3560816,-4807730,-6068520,-10126199,-8628046,-5280369,-5899798,-2776415,-6487724,-1554853,-3229002,-4479546,-7963186,-8705360,-2158786,-11153690,-6017579,-5203292,-8710989,-9706091,-5298925,-2436761,-2812927,-4112219,-6952636,-8884731,-5804445,-6553766,-4984412,-3102387,-8846069,-7288024,-5757344,-2706802,-4194604,