PI_L2 short int Ingressi[]={
1756,1626,1339,1113,941,795,640,471,280,349,748,1009,1335,1714,2090,2363,2266,2070,1948,1823,1547,1331,1162,1016,863,698,506,349,748,1009,1335,1714,2090,2363,2266,2070,1948,1823,1547,1331,1162,1016,863,698,506,436,371,156,10,-90,113,491,863,1207,
};


PI_L2 int Encoder_Gru_Bias1[]= {
4476894,6961082,-22039682,-3193627,-1244851,24208186,9239237,20013094,21317804,-2619170,20715832,3454554,8647274,19028174,-1342039,6765466,14305213,4909440,15038245,21317512,10856857,22949162,28954798,16780100,-6986225,20710706,4046018,3180882,15706976,3335410,9986607,-4394726,13698923,14671738,-9188073,18123976,10133492,16055166,270080,419879,-1627295,-2566645,10796395,21875582,1318633,-6481813,-2041867,1431674,10956993,-566412,11081678,-825532,-2847776,-24577546,7900294,-1618337,4030669,-7479384,18306202,9056326,-18029752,-21557348,-7078538,-11621858,-20336196,-7078497,-18881774,-21556254,-19583482,-18861370,-8430367,-18212610,-20631704,-20550964,-17807460,-24168004,-6932472,-27824424,-15912130,15327,-23098192,-20047910,-17043084,-17321532,-14516870,-18812196,-13038419,-19955668,-25257516,-23214814,-19872080,-12753491,-16418755,-4401344,-18054140,-4707929,-13827636,-22187292,-16914874,-13991368,-18594930,-18514356,-8735606,-15920556,-24000308,-14398551,-12089496,-26346012,-20999566,-19198686,-16780482,-9643482,-17896194,-15368417,-17007224,-24163524,-24720086,-20493548,-22889166,-19417046,
};

PI_L2 short int Encoder_Gru_Kernel1[]={
-913,-868,6664,-1704,-1022,24837,473,1347,-1316,-1434,-136,-4134,1434,3320,-9594,-5770,1895,2110,-1451,-6781,-1397,1190,-2572,-1069,4496,-6670,-3975,3803,2095,1427,2679,7055,598,2614,112,3986,494,481,1873,2928,-4754,3000,375,4351,302,-131,8723,-5,-110,-1561,52,2653,205,6499,-534,1036,5171,-3113,4050,1802,126,2674,3908,502,-3342,2973,-2477,-15523,-3460,605,-16219,-225,561,10572,-1096,-165,4943,6062,3574,13518,-1322,-3517,-1178,-1509,-1626,11697,9839,-3948,159,-204,-6574,167,-1427,11597,-619,3078,1004,1115,-5949,7248,471,11078,9414,1702,2815,826,-3315,-5258,-749,-3687,-16244,3155,-2123,3557,-3645,-1959,-3200,-5701,3594,-17660,
};

PI_L2 short int Encoder_Gru_Recurrent_Kernel1[]={
-4090,-2074,-2558,292,-971,-3056,1166,-765,1155,-2534,-290,1595,-4440,1122,1578,-10946,2029,-2770,-126,1468,1604,3952,-2164,430,-7951,-2184,3502,1643,-5983,304,3462,-3970,-2013,1219,1018,2854,-7656,242,-2067,-1236,5778,-2675,2228,996,2976,5822,-866,3013,832,866,-859,-2040,-2573,2608,6786,2476,-2821,1793,-872,-1735,-230,-2965,-2058,136,2752,-2305,-612,-4084,-1188,258,-437,161,-663,465,-30,767,-1766,-1013,797,-244,-1479,3106,-91,-1640,2069,4937,-798,382,830,1377,1870,-1034,-1243,511,-1118,-951,-224,3594,644,114,-1434,-4006,-321,-1748,2534,-2061,-2079,-1754,-241,-1051,77,-2002,-1219,-654,-2152,202,-4130,1001,1151,-2981,
8530,7016,5214,-1906,6326,2436,-2007,-617,-2842,6099,330,-771,6879,-1294,-657,11616,-4058,235,1716,2292,-7178,3463,2437,-137,1405,-3964,2579,2676,3137,-2468,383,1633,3220,-694,852,168,9948,2956,-1815,-2100,477,1489,-3251,-996,-2629,-6655,-1668,-312,3185,-2319,-3917,210,5098,2694,-1835,-4190,4089,-3001,203,1070,-170,-1272,94,-2198,1292,1946,50,445,1829,-2350,-1473,-1511,2428,3247,1526,-3030,1732,-788,-648,-1395,85,2266,401,3012,1113,1867,3568,-198,-724,-2511,156,1598,-393,-1920,-639,3749,726,-729,1173,387,4020,2353,-538,5240,-910,-628,7805,1715,-196,2086,1199,2551,395,1613,-72,1267,-448,-1121,-880,3253,
1503,-322,2375,-3187,543,-2167,475,325,-224,-993,357,-5337,-597,-685,117,-1921,1864,2368,296,66,1450,1064,1628,248,-16195,2260,-577,-8126,-1768,-6502,55,-17545,-869,120,4450,-451,-3397,3559,-10117,-9163,2572,1063,1781,4883,-1562,-3989,-10758,-4462,-1125,269,-39,713,-910,715,1971,-1890,-2150,-763,-1258,1399,-841,598,-1665,219,1600,442,14,238,-2004,448,1331,-734,349,-477,-520,-319,-306,-4085,-665,-26,-121,1159,2006,-1837,169,-1387,-60,-484,1729,-453,-2290,-967,-883,-250,-488,-1971,1098,742,-1513,866,-177,-1566,629,-320,-449,695,-1399,-2122,-493,-673,1702,-327,627,-1112,-360,-338,1183,-38,281,-2910,
7470,308,-5915,4342,1151,-3651,6644,-2670,60,-37,-2081,-2405,-1376,-1718,1845,5921,5209,-5591,987,1620,6769,4898,-1418,38,-2323,-3507,3857,134,1275,-2148,-5965,-6794,-2097,189,971,-1966,1928,-6695,-4663,-9363,67,7042,6243,4087,2312,668,-7443,-4585,-2364,10362,-1915,-3565,10787,-3819,-607,-794,-3833,4784,-2915,-6649,-1681,1554,-1916,-703,-960,190,-1130,-1805,-6815,114,-824,3322,-3861,4399,1108,-673,-3527,-889,-141,588,514,3379,2660,89,-784,352,2657,92,-803,743,-2803,1145,-984,1425,1051,858,3109,4469,499,-149,1197,1678,-1562,952,2094,937,-1915,-1615,4218,-727,648,134,-518,1473,3404,1645,585,-627,2331,-1849,
-4039,-522,-722,3080,12291,-1542,2029,-4569,-1658,-5623,-698,-3140,1370,-101,1059,1152,627,-1911,2784,1906,4507,-279,-28,-221,-3792,978,-3723,-4453,-6068,-1651,2858,-1523,1132,-1080,-171,-771,-3512,-2630,-111,85,7286,376,-1678,-588,-5364,-924,-4584,-3398,-2570,-1570,352,666,-241,2511,173,-228,-3767,-1775,-1809,-346,2341,-436,-4336,1362,2593,-320,-538,-1613,-27,610,-1891,-596,2414,108,-557,-189,-2371,-555,1286,47,-2361,1550,131,1435,2486,3399,-666,-778,3965,-166,-1589,2433,104,624,-2312,-2425,-294,1371,878,-1828,2757,401,292,4048,2012,1770,2901,809,-2449,-1482,-782,2225,-405,-952,-1050,1478,565,1445,2244,-2336,
995,-979,8393,8505,684,-7176,1912,-900,-564,2595,30,8878,-163,-5516,6254,502,-45,7274,-31,761,4045,-2090,-3989,-2236,4319,-6310,3105,9317,8224,964,-1624,-2023,-2225,-1117,8568,-4421,6490,4333,-2242,6394,8383,5190,-2573,-133,8477,-586,-4234,11286,2451,-1628,-1499,9083,10415,6146,187,-665,-3945,3117,-3357,1308,677,2160,1553,822,1107,1426,257,4237,207,-671,-530,-246,2125,-5,2069,1240,2863,-1319,-880,594,-3095,758,5340,1928,1390,1735,5866,250,-835,-3434,-3841,-247,-783,-1070,1578,2107,1466,591,739,1381,-400,1165,-20,606,6328,3139,498,561,273,2011,-3383,-1032,2063,5266,353,1992,284,3661,-809,1182,
-7207,-6270,783,-1085,-2812,1352,-1783,-1447,403,-9219,-167,-1,-6394,-3978,1291,225,-1577,3552,-1019,1260,4836,2673,204,1023,-3448,1399,-4747,-2906,-4619,-1281,2218,474,-5316,1770,7715,3151,-9760,7385,608,2077,-415,774,-570,-1882,696,4376,-950,2055,-711,-3368,-360,-2122,-6899,4565,3595,3006,-1286,2730,2153,524,2989,-735,911,2896,294,1985,604,-640,2675,4244,-1947,-2733,2819,-1799,-1139,-231,1360,778,2174,-1029,-2533,-1552,-436,-2462,536,1341,282,616,4839,1514,1510,-2904,701,-369,2562,-1630,3968,1767,-1325,-259,1843,-634,622,-834,175,2951,2368,-5654,-417,4231,1145,-272,1108,1509,1324,-456,1025,-918,1595,-34,
-65,-839,6551,10003,-2373,-3750,-553,-3947,9,2934,-3558,2582,431,-3221,4304,-4068,-2726,3142,-364,-1877,-1023,-2429,-3034,-1448,1105,-2727,3376,4638,470,4365,-493,-946,-3388,-2767,4756,-6591,483,293,-3174,-1390,1831,-2556,-3301,-719,2036,2868,679,630,0,-813,-881,-1935,1801,6383,13,2627,-838,3406,-2895,-4895,-1239,-1052,-445,940,1604,-203,-319,1942,66,427,-240,3560,-1129,-158,-1575,5719,1007,3878,2205,-39,1643,2212,2616,-117,1800,2072,1667,-17,820,-510,-179,-802,132,978,-2790,-5024,-563,590,1617,535,-479,1817,994,2201,595,751,-1040,1812,-1748,817,1415,-2884,-207,679,1345,192,-137,-966,1759,547,
781,2366,3240,4014,-2416,-7786,-462,-2837,3176,9082,44,2740,-3040,-2957,-1159,4576,5441,2511,-1416,-2901,-668,1860,3050,3678,-5091,1047,3996,7118,44,1395,2,-4928,2417,-2894,2847,-2750,1894,3104,-298,-4935,358,-3337,-3024,-2289,2352,-4166,-2032,-3213,4003,-1718,-127,-2142,1068,2055,-1316,-928,5973,-902,-39,2859,-57,515,3210,1501,-4653,3932,1969,-2222,-421,-479,-1531,1652,-1309,-1108,246,-3657,852,-1608,-181,1107,1993,1958,-2027,2106,-817,-148,3168,2678,-2590,2938,121,-1457,-1079,113,4192,1500,2883,-2059,864,-793,-410,338,-42,-350,-523,1082,465,367,611,3327,-685,4965,-721,1974,-1335,-435,-206,-1110,1941,-1171,
11846,5769,-2692,-1245,24,-137,3339,-2332,-2779,9222,893,6453,5080,-1164,-2963,5359,2842,-5721,1712,-2555,-179,4486,175,19,1557,1594,5911,6010,4324,198,-2039,-847,2282,-621,3449,-13,6523,-6247,-969,-1631,-4138,181,3793,155,539,1022,-4448,1822,34,5607,939,-5903,13485,-1654,741,-325,7486,-4188,579,-7005,1325,-300,-175,-994,-3068,687,1851,-2872,-3746,-679,-1700,847,-251,1205,3046,1003,-2687,-747,45,-242,1150,1928,213,448,-1181,19,-848,1584,-1292,1607,503,2257,1060,-182,1445,453,1762,1049,0,-279,-1396,1136,-832,-3608,-548,-179,-2035,390,1959,1439,-3167,429,18,257,360,35,-164,-2336,871,-1504,
-2448,-816,2839,5010,-2087,-3420,-560,-1356,1640,2962,3029,39,1334,-2886,5498,-6425,332,1700,-1833,-2819,-835,-195,605,315,1408,2086,390,4818,-1659,1477,391,-4434,1700,-3999,2181,-4577,-759,-2328,-2137,-2296,1172,-5019,-1612,55,730,-3234,2252,409,420,2134,2110,-2377,88,2004,-659,-1009,-2698,1472,-1940,1663,-775,1981,749,861,847,-1382,-1258,-1284,-1660,-443,2163,1413,-1386,-2150,-1985,1967,2337,-94,3718,1309,1058,-2002,-1244,561,721,-102,1582,1898,-523,864,3430,692,-246,2672,-1014,-1979,2187,-840,-2099,5068,-461,-269,1517,-265,-1478,133,-2612,2505,-2009,-1851,112,-1280,61,3085,-818,1310,-1716,158,72,-4343,
8026,730,-1341,-39,-1029,305,-256,-508,-1200,3380,-513,6739,461,-6781,-2210,-353,1021,-498,-137,-63,-3194,7010,1226,-286,-3377,-1557,8375,1408,8632,-236,-3512,450,-1532,1424,2126,-787,-1048,1421,-11467,-4058,-2681,-452,3368,4081,-1168,1060,277,-2697,2800,10051,-1706,-3490,9998,-2080,-1228,-989,5027,-6724,780,-6190,17,-581,-1582,-119,-731,1624,-264,-1828,-578,-524,419,1073,735,-1798,1889,3464,-287,-2835,1323,557,-1619,-800,1872,-54,1139,277,2443,-2988,-1519,1845,1102,1060,1779,1050,1400,478,4325,435,-215,1216,-3065,-3368,-336,-4754,-346,2172,-1525,-1546,401,-306,-1935,1544,1139,3437,-1968,-1991,958,-3259,-2624,-604,
3187,-3273,3223,-1542,8250,-102,1505,1218,-160,-3101,125,-330,24927,-767,-2470,-4360,183,-1016,4379,1700,4158,724,-1754,-1364,-4045,1730,-2748,-119,425,3445,-818,-1295,-2627,722,-2251,-5573,761,-9470,-4278,2865,3738,2799,1213,2458,-5849,182,-3025,-1317,-1662,848,2716,-1936,5765,-163,-5720,-1518,802,-3553,-1007,377,1151,1960,1550,1400,3218,-3192,2427,-2288,-2082,-2443,345,5084,2465,1959,1239,1897,-2368,749,-72,242,-822,1768,363,994,-522,2123,1117,-1468,351,440,-2109,-163,-1795,-530,-680,-3112,-440,-514,-2507,-803,-83,66,-932,439,696,-363,714,2715,1976,-927,2011,96,111,3326,1152,-1735,-433,-2429,935,-909,
1655,-185,-2681,2092,-586,739,4133,1740,1158,1978,-487,7357,4723,10027,-7847,-2967,-6307,167,447,108,-2092,-2946,-1481,6,-6906,299,12,1429,4004,8438,-630,-5985,5622,17,638,-3228,-1279,-1675,1129,2093,3201,-5593,1844,2856,3105,3689,5321,4284,-2365,227,276,-6122,-2902,-7459,-4597,4509,3542,-10739,247,3103,-5392,-976,-4023,384,-1744,447,-811,2737,-1526,677,3385,2054,-2267,-446,-3617,443,-343,-1357,-517,1055,1629,-1477,-206,2903,-605,-2971,-56,2203,2044,1979,-980,761,1672,1672,-4477,-2385,577,-2376,-3176,2088,-1363,-6457,391,628,-1484,611,-2121,-3078,553,-1512,4317,-1370,1519,-1316,-633,109,-2712,-120,-2776,-1175,
96,-2801,2681,-4718,1481,4738,-3247,2682,2199,-1863,63,3630,8369,5467,5273,-4051,-2464,339,-246,-803,-2005,-1301,-2369,-1126,2975,-190,-8688,-1565,-1816,2675,1295,4719,-6814,-1330,1628,3950,-2366,1247,16,9004,2893,-383,-494,-490,351,478,-5479,5302,-5819,-5152,-1330,-984,6459,302,7232,250,4778,-6335,652,3620,1716,-49,-268,-84,393,157,-3101,2062,2799,-1238,-1422,-1685,6622,-4030,956,-1976,2689,417,-43,445,82,-1122,181,217,-883,176,-2391,-2130,-433,43,2969,1252,-2306,-755,-664,1000,-3576,-496,-2576,-1452,-7134,2108,90,2861,-3454,-742,-2660,3794,-5673,85,1180,10,4311,-3753,-1317,-2745,350,978,-286,1180,
2084,1074,1542,2686,-334,-3058,-2184,-1341,3768,639,355,-2078,-4050,-558,-1628,-7322,1105,805,0,-214,-406,2484,1783,-797,147,176,1940,3423,-2765,1766,-1648,-1915,-2143,325,4365,-4313,-918,2802,-1824,1800,-4888,-883,-2561,1068,-1278,1915,-1854,-1780,-266,3015,652,-1804,-4217,-1457,-4368,-8487,-4085,8033,-482,-368,849,4738,239,-1533,-2920,1498,-773,1898,-1708,-1124,-128,-59,-2782,-1325,-3190,841,56,1190,-384,1094,-1551,-379,4873,-4675,1060,-2776,157,-878,561,613,-2284,-2201,-3783,-856,718,-1897,2814,1736,1141,363,-2251,3160,-332,-2115,284,2600,-4863,-862,2086,715,-1838,-1696,-509,1127,2014,-1051,622,921,-1374,630,
1971,-2563,-250,2693,3815,-1337,4062,-1515,-2128,2954,-3225,885,4576,1901,-1279,1806,-1682,1259,-1572,854,1536,-623,-2140,-1214,9176,-645,5144,7176,4487,4978,-697,6676,-3027,-1195,-1194,-982,3547,-3920,23,4820,785,-110,-456,1449,3998,-1897,8190,4739,-4547,-1209,-229,3754,2915,-3234,1493,1283,5915,3517,-364,558,-2442,1069,3394,-2558,2872,-1615,241,3541,1023,-60,230,2146,-1489,1449,4036,809,3446,3887,125,-3550,-3321,-1739,1717,-3334,1277,40,2605,2858,-1094,1184,4899,5174,-1486,-289,-2752,-309,-978,2173,2364,2669,1461,-1846,154,-2726,2504,1619,930,-26,338,-1069,-463,-1854,1455,85,2825,1087,-4451,-151,-2729,341,
-1242,-1032,-153,-2952,-1157,-2118,441,214,1367,714,400,-1389,-2346,-1966,806,2756,1525,-1,-39,77,-654,1460,1908,1448,-6511,-1924,1022,-4595,1110,-4949,1978,-6220,-215,453,-581,397,-2097,-205,-5604,-7949,-2180,1009,2215,3537,266,-2437,-6755,-1324,2345,782,252,-7712,-2688,102,-405,-7174,753,917,-1360,-190,352,324,-2332,269,1426,-1012,-538,-1808,334,1811,232,960,-2438,-1930,-2829,584,-634,-2373,-53,838,-1689,198,1443,-2242,-905,-1186,-143,-1138,-1549,1516,-1009,-1139,-16,-100,-1779,-3125,1112,-1478,-2879,1705,-369,-4336,-341,-855,-3842,-331,-2414,-552,-901,-938,-320,-752,-855,-2765,438,279,-989,-1277,-397,-3774,
-4201,-1940,-6386,-351,417,3291,853,809,667,-670,3186,-4920,-924,2232,87,6616,-186,-45,1508,2429,943,-3202,-1615,-2674,5487,-2463,-2519,-2842,1266,-1005,-463,2397,4354,895,-7071,2349,-2566,-1443,2163,3944,138,4253,-1083,-604,1176,-3478,1771,5041,-1720,-885,-1830,4973,-1046,-9718,517,-1487,-380,2269,-2870,717,1064,-857,-1170,-125,420,1516,3471,1387,1320,-1209,941,-1106,621,-836,-400,-1616,-2481,-3542,-701,-670,101,-1763,-349,-248,3028,-5520,-1297,2394,-739,393,-771,1702,1820,-120,-528,-219,2323,922,2378,-197,-1648,-4754,-1268,-294,2331,1513,1548,-3427,1306,1745,-915,-2156,290,-1125,1771,537,-359,1285,-2168,1215,
455,-785,821,4903,797,1390,3271,483,-1904,302,747,4860,624,-1328,1733,-8,-3369,4979,-972,280,370,-1238,-1782,-2697,7827,-3252,8,1225,4165,2178,-3073,8970,-2776,943,1023,-2846,-1300,-3249,-645,3891,2908,2652,1097,-1998,5355,3624,5967,6463,-815,523,-1222,-501,2822,-282,-1112,4911,651,2453,-919,-1004,-656,-686,1119,-641,-972,2560,-481,4434,722,-727,3334,227,-1214,110,-544,-1033,-1773,4742,-2551,134,3062,1495,-2402,-353,2390,-2676,0,-210,-2418,-913,1107,2314,714,-2349,954,2519,-1315,-1616,2263,-1508,782,1174,-1054,-650,2913,2037,901,-1867,-1062,2307,4866,-496,309,1530,903,-684,611,1555,971,2059,
9598,1353,-1697,-628,5777,-533,-246,1105,-1251,8952,4674,5470,6397,-1377,-2437,12257,-716,-2877,1605,-79,-468,3576,1655,-1712,1165,-1941,5961,3971,2950,217,126,866,-1770,463,-406,-4449,6366,-4142,-1827,-966,767,2684,1812,-2573,-1058,92,-3398,-1176,-110,6542,3045,97,8525,-4959,-896,-2656,2979,-5081,-1529,-6641,-2782,-277,-1933,-884,-1169,2723,1410,636,-2397,-2131,310,-1675,-1507,-3616,-1046,4949,393,-316,-1844,-2223,-2547,-1072,2019,-1878,-2231,1047,-3877,-1963,152,-1948,-1637,1938,-3437,-612,-1981,-1395,-938,-1841,-2618,706,-5008,1374,22,-2518,-1154,1330,-4069,2008,3382,426,-1947,-430,-3780,527,1227,-1743,-796,-339,-2049,-1364,
-171,-2261,435,-421,-483,5671,683,621,520,-374,-451,-7294,2926,5056,3924,-3265,-2695,-1705,959,-1795,-2764,-1136,-3281,-326,-1196,2450,-984,-1535,-3687,-2115,1851,-3947,288,1034,-3679,5503,-1557,793,2299,643,-982,1558,-1485,2202,-3921,1454,-2218,-1769,-1115,-2171,21,-5865,2135,-1666,1598,-6656,-1197,-3425,3004,662,1809,420,-2155,-177,3386,-6263,-1490,-951,629,-1169,-941,-981,1275,1497,824,-2326,-3087,2036,-2018,-3024,3190,-780,-3864,613,1029,3260,-4293,-2354,656,4917,-1055,-2389,2355,-3025,-2748,-5617,2989,525,-305,-287,-3595,988,-1579,5774,1704,-397,-1455,-962,-584,-1820,-754,-2790,2083,-595,-229,-532,-472,-483,-1044,-473,
736,-2392,6706,6117,5155,-2300,901,-1082,-1169,-1071,-2847,-1702,2394,3784,10690,3041,-2991,3040,-893,-1213,-149,-4602,-14664,-2853,-1710,-1331,1188,3782,435,3326,-2275,864,-4474,-1567,1759,-450,145,712,-1871,304,2346,5095,-1378,2973,-379,284,2925,-105,259,-2291,3179,271,3717,4084,1303,-450,-356,3538,-885,-4719,26,-1194,-1037,2522,3695,5202,2009,3641,78,3573,1706,-946,-497,2854,-1373,2788,2476,-563,3863,4672,275,1743,36,182,665,2199,3360,-2987,966,-1127,-2386,-4524,-1483,11722,-5435,-1644,-1388,569,4942,1035,-1534,2271,2545,4443,-265,2914,1418,2204,852,795,3534,-348,2180,-2119,1680,1910,224,91,984,2454,
3771,1883,2759,-1967,419,4086,3001,1597,490,1037,-3692,-87,-3435,1102,-1533,765,-4562,1319,-522,2660,1093,-1553,-2733,-4497,527,-3778,2599,375,-1042,2031,-3055,682,-4447,2761,3643,-298,-1451,2607,4778,3348,3376,-467,1302,868,3103,4068,7050,1459,696,-3696,-1749,1272,-1132,-181,2353,1787,-3716,4926,153,-1475,-1119,525,-2273,130,-432,727,24,3974,-1022,1246,1365,616,-1427,-345,-1721,-897,-2840,2830,-2282,-1677,2576,-717,1943,-609,788,-3308,-2534,-2243,-888,1987,-2339,-964,1368,247,-370,-679,566,184,2650,-2465,-1590,-363,-294,-773,415,-470,-571,-2616,614,2010,1538,1867,-110,-1730,975,1926,-962,107,-418,4988,
6621,2182,621,-2312,-3162,-122,2749,-1599,-27,7867,-1996,3163,-3693,47,-878,858,-2117,679,978,-830,5464,1727,-3842,-1899,694,-2978,5850,3276,2305,3418,3007,-611,-528,809,3993,-6722,-6806,9524,-2163,1842,-1663,2207,814,-959,849,-2325,-306,3904,-3650,1774,741,-7249,2854,1911,4718,-3190,6686,-579,3472,-4250,3233,-294,4687,1582,-7,2681,4131,1046,-730,1465,-3877,-3614,-1743,-2075,4060,2348,13,1662,397,-1320,1516,-1216,518,-446,-3405,3223,4946,-1922,-1445,-78,-696,4495,-1134,-354,5166,3194,-1516,-2667,-3701,2285,966,-738,-559,-4288,1292,-540,768,3474,-1059,1152,-444,862,4753,5371,-1333,-3129,-2691,2700,2417,305,
-4598,-1448,-6709,-5494,-1259,-1596,5395,-2471,1137,-3225,-2698,-4857,-2579,-1394,301,-2037,1592,-4376,1797,343,1121,3225,533,2399,-7586,-1455,-5036,-7260,-1718,-1964,1149,-3591,4019,1714,-4549,1233,-2812,2109,423,-2866,-1634,-2226,42,7322,-5613,-1373,-2149,-3352,-1116,-398,-1164,-3396,-378,-3660,2850,-206,-1906,-7485,917,-895,1603,-32,-1818,-712,3671,-2308,368,-1992,-2865,1352,-2745,744,2276,1914,-1304,-1044,-1468,-3939,-3212,-3934,-1894,-541,3082,208,-890,1326,-2679,-1008,3852,879,-2905,403,5010,-3323,138,-5659,1407,2708,-1885,-1920,-1178,-4820,-3701,1626,-191,-300,-2235,2278,668,-392,-2418,-2110,824,309,-398,2727,800,2415,-4522,-314,
1330,683,-3404,-107,-1475,2296,1357,-760,-862,-4528,-1352,5571,65,486,866,933,623,-4147,61,-994,3172,2584,-677,1444,286,-488,2019,-4271,187,306,-2800,3163,-3662,634,957,8702,4262,-1503,3271,-317,5402,3626,3555,2458,-3474,5216,-23,-1891,3226,4125,-651,-1649,-687,3369,847,4767,-359,-541,997,-3669,-197,-31,-2493,294,-3062,-2421,-384,-3461,-3408,-1153,-253,1013,-1217,-587,1888,-969,-4046,-2414,-264,13,-459,819,-2208,-366,-1428,-960,-1698,-1021,-1191,1572,-369,-239,-437,1342,-4,-5097,2087,44,532,-2507,-901,-1859,-523,-2777,-2497,-1863,-3075,-1517,-1085,-93,-1476,-186,-2002,-3264,-1205,653,1167,-3939,-2262,-1744,
-5406,19,1968,-1547,-5835,8498,-5283,1706,-348,-518,-87,1901,4978,5658,1544,7824,-1177,2221,-1099,-2060,-11593,-3203,-589,-346,1393,1381,309,-86,2805,2265,3472,3934,2497,-347,-2352,6140,4601,264,2824,2991,-5513,-51,87,2372,1156,-2197,4045,1719,1691,-3730,57,2790,2533,736,-393,1721,3761,-4025,-174,2562,1703,-1460,-1225,-1012,-2653,-3283,-465,2408,3971,-2508,650,-1120,-1911,-275,1108,-3170,972,2163,-2292,-914,2562,-2936,-1652,179,-1410,-596,-5648,74,-229,1033,3177,-1706,2097,-244,-2066,-2315,102,-29,1566,-1289,-1633,3301,735,1784,-1715,-3015,-120,2084,-2107,-1040,3429,4011,-1913,-2935,353,11,74,-1139,-1500,1179,
1559,427,621,1455,-2604,-1273,3095,-3200,-971,5858,-3291,5976,-1554,1346,-1620,-2880,-220,131,2129,-1073,5803,5835,851,283,391,-5,4607,3369,9353,4065,-1141,2966,-3492,-717,1334,-5324,-3553,-64,-3590,-1180,629,-3611,2928,-1571,5223,4712,-1980,1094,-1201,6865,-1860,-2347,-740,2141,3513,7405,5962,-2737,3954,-4535,-391,-419,2898,-2910,-3391,-3232,1438,-872,-854,-36,981,-101,-2681,-1020,755,542,103,-1771,-850,-120,-3794,2322,2375,-1130,-3087,1839,85,182,-141,-1657,-805,-1583,-1971,735,-205,4243,-264,2636,-1719,2169,-727,-3888,-102,-1268,917,-1104,-514,-1329,-2238,-908,2055,-3077,1123,1805,-2109,445,-2934,-866,-1624,44,
7209,-3180,-2360,723,1500,-3301,4133,-1548,1199,-3727,-1200,-2040,-5172,-1367,-1073,-5919,75,-1482,988,-808,6195,4371,-1291,-2330,-2427,-3457,-39,-1262,-2621,-177,-2688,-3282,-8407,3309,2215,-271,-8996,-1254,-2011,-106,5010,580,4445,2660,-1825,3412,-3696,2419,-3345,6591,-2411,-7109,1942,-784,3160,-5731,-1884,4034,2355,-4221,-1795,2210,-704,1067,-139,-635,1478,71,-3225,-42,562,1625,-2029,1268,497,2688,-3127,-2787,2477,101,3217,2858,5227,-1116,-73,-1100,18,-2091,-1364,-204,-1096,1017,-687,1792,186,-234,1015,1671,-1397,1023,1656,-758,-737,-1211,1894,2002,-1902,-1678,1372,-499,944,986,-433,-1249,-1979,-1148,-824,1545,-114,-1243,
-5133,-2224,-9931,-1093,3325,342,3571,-3048,949,-925,3240,2942,3008,-2156,3827,-6561,2222,-2201,1032,-2102,5454,3513,2918,-184,6378,1842,-7225,-1801,1701,-7323,-350,2175,-1110,-2473,-736,144,-2905,-5491,1344,5973,1923,2414,977,-2334,919,854,-2113,7543,-3699,-45,931,-1955,3156,-5258,-614,3939,-5191,4316,528,-169,-1202,3466,1368,-1476,-193,-93,-3662,-2017,-2741,-76,2245,2736,709,-4609,-3556,506,652,262,-1100,1448,-4376,-3160,-3268,194,-2747,-3710,411,-701,-2624,-982,-260,4191,-1032,1747,-3055,2233,-2727,-3400,-4235,1943,-1249,-96,1220,-6051,-2994,2038,-4330,-714,-1163,1752,-1917,1251,1036,362,-70,-761,-1127,415,-887,-2149,
1676,-415,-533,-1094,1946,-7921,2500,-1266,358,3929,925,-2645,4114,1135,789,-9379,456,-2802,828,750,4191,783,1416,515,-12081,-710,264,1065,-1792,740,765,-3226,-4276,310,-1233,-2869,-4751,-659,-92,2261,793,7400,3623,-1624,-3097,154,-3358,3206,-3962,1704,-331,-6320,-1096,-872,978,-2880,-927,-523,-123,414,2255,1726,-959,-359,421,-2034,-96,50,-1182,-2655,1699,-831,619,1487,-2556,-484,28,5669,410,16,-2293,-151,212,-1258,-545,-1990,2999,229,1216,106,-605,-1176,-1883,912,-2098,-2781,794,-1885,-3906,2793,-1841,-2667,-250,-86,3017,-809,-1638,1836,1838,-2053,-867,-717,562,1067,-1498,531,-1154,1837,-2605,-2260,
194,3172,-1818,-367,-2186,-2882,-198,-362,-7,7762,-919,-3120,-2473,-3368,-511,2681,2201,-710,988,-5154,-2601,-3,3653,2993,858,6384,-1319,-210,-4490,-2873,668,-5753,503,-1349,1083,-2080,458,-821,17,-3343,-3663,-4087,-1472,4625,2495,-6136,-437,-5731,2723,2050,1190,-710,-1599,-65,-1836,-4984,-3237,-1090,-629,-140,2112,3630,-324,1965,-1221,-3779,-595,-3615,-775,2190,-1106,-1089,-3706,461,-789,2529,-798,-3832,725,-725,-55,-10,-2151,-1584,-1792,2351,3418,-328,-1177,-1232,2149,-1473,1498,-2103,-2535,-1230,529,-1633,-488,-32,-1269,-150,895,-2427,-2554,-1347,-3437,-1094,-899,305,-273,-810,-5418,-3706,-2291,-688,665,-19,-2777,-1393,
-3955,1222,-488,-5295,-1333,424,-1576,174,3103,-3932,263,-2868,-840,330,-2261,-2198,4012,-2913,1372,-1557,594,2259,3296,2768,-3954,5504,-3924,-1538,-34,-142,1553,-9186,2144,1959,291,1407,-2385,-397,-4364,-1453,-4991,4228,72,-1979,-1532,-4716,-5214,-1045,1277,-463,2904,-1625,-6140,-4730,-1188,-4423,-2977,634,-1254,981,981,1000,-274,373,-3902,4515,151,-1682,-675,2374,1106,369,122,-551,-5076,1817,1464,711,2196,1200,13,-376,-1496,-2971,810,-3141,1494,118,-376,1414,-636,-2579,-1695,1504,-1871,-823,-459,-1159,-2298,365,-274,2741,143,-220,-2266,493,-1842,-25,1798,-2025,326,-783,107,1407,801,-1378,-170,-311,-636,-1784,
-1609,-482,2274,633,-1225,4962,-602,279,-980,-712,-447,6000,578,1738,-1020,4000,-4899,4674,-983,408,-2896,-1633,-921,-2068,5994,-5623,-3188,-784,-415,4491,333,5824,70,-1257,-3764,293,-428,1465,8348,7271,-510,1918,-1713,-2674,-2898,1305,3796,3026,3394,-885,-372,1985,-142,-1653,-1932,680,-756,-5871,807,-484,-1080,-621,1475,612,1438,738,511,2500,875,203,-336,554,356,-801,1259,1990,-1091,434,-736,-129,295,99,-1179,2890,1003,-179,-4678,166,211,156,1369,1517,3209,304,211,2001,-1,-1418,2276,-451,917,1357,916,508,299,659,2670,-1324,-621,1445,575,1825,425,1353,-1151,168,1494,1200,1713,4119,
3056,-620,1767,1430,814,-2281,2454,-2811,-1698,1523,-1066,-5864,-1938,-7397,2980,3346,2205,2974,1065,1023,1555,-928,-1923,-688,-256,-4557,2427,1061,11971,-2862,680,1952,3438,-1156,2748,-11088,1291,380,-3169,4422,148,2515,-1498,-1547,6296,-2575,3260,543,-1629,-1604,-243,4591,3076,7344,610,6491,-4962,5843,-2894,-2631,2744,1022,4968,-1224,-1053,2014,-1421,-1733,-1570,1518,-2056,1375,3216,3238,-265,-2048,667,2652,-1153,126,-3449,1676,-446,-2545,619,2305,5566,-1267,1475,56,-1468,3201,4236,-1910,6629,1142,-225,2421,3648,-909,440,3691,-2423,1193,3544,-845,7116,1147,2031,2498,-1349,2485,101,10700,863,-216,807,594,3795,6498,
1040,-382,-4223,-778,-2074,-3175,7499,-3152,-1130,-166,-2979,7206,-8788,322,-4964,-2297,823,-627,-1652,-1986,10383,5981,-3541,-207,-3787,-2125,2389,683,-765,5287,502,-3023,-4210,2009,45,155,-6884,-225,-139,-2559,-666,-1147,2488,2608,3687,3993,-3857,2331,-2272,7501,-606,-9721,-2491,-4100,7124,-1454,68,2689,-697,-10012,1095,-399,1581,4076,-2414,1207,3443,-3019,-4471,2271,-3392,1205,3063,-1947,123,3613,-2891,-2674,441,-518,881,864,255,590,1842,1617,1935,-543,2824,3166,-2289,2684,-915,268,405,-1418,623,2131,186,2490,1087,-3516,-619,581,5990,3798,898,-4334,1180,-1725,-1064,1375,3279,4314,-2727,1991,-1758,-2290,2945,-499,
-3268,-489,1487,2480,5672,-1286,2611,1527,-375,2265,218,-4492,4808,5060,3277,4759,-1533,-4211,254,-722,180,-4618,-2823,-518,1120,-1216,-3097,1893,-906,542,-2471,1650,-51,-956,-3441,5964,1723,-201,-2423,4221,510,4205,-2550,-2463,-1159,-2120,-3265,2711,-848,-7117,259,730,4091,-823,-2176,-3228,2749,4869,-2173,3090,-1341,2293,2216,1331,4748,3206,-396,-247,1006,1928,-3518,-1321,1770,1798,-719,-1402,2486,1755,-417,1210,2146,116,-2912,1971,2259,882,2674,-175,-1871,591,-878,1967,969,574,382,2118,-2440,278,2545,-4056,-1448,5575,-230,4296,835,3194,4369,4169,308,499,-1718,477,844,2813,114,-2235,1858,1588,1228,-592,
-879,508,-5633,-3775,2824,92,30,1010,-919,2719,658,-2414,4194,656,-7398,2281,1241,-7642,-6,594,-214,-109,572,2622,-1216,8687,-1073,-83,-16288,-4199,511,-3892,-661,1232,-3951,6819,-1763,-3614,2993,-3483,-3108,-2129,2294,3028,-12106,-80,-5591,-2626,3592,307,825,1813,-1692,-3271,-5116,-7297,-2992,-2105,2369,1439,-830,2962,-1979,427,66,-2336,-150,-44,-339,-1469,3576,670,-1705,745,-1141,-1553,-1224,-6689,200,-189,-2269,2208,355,1414,1855,-235,227,2235,4339,3138,2179,-1211,-1904,95,-3651,-2002,2050,413,-2383,-2704,-261,-2254,-351,1740,395,1506,-2372,145,2244,-1324,1331,-3145,-2128,-6585,3995,4060,-1406,262,-3492,-2305,
-3760,-528,4679,5682,3566,-4172,-3044,1105,-882,632,134,5532,-2569,1955,2609,-576,-2222,-430,-2777,3564,-3192,-4390,-1473,-220,4232,-802,4530,3148,3203,208,646,5658,2072,-239,-267,-862,4307,1357,573,-3196,-98,-6611,296,-1073,2569,-5642,7542,3625,4727,-2171,-274,7368,-3630,4003,2783,2837,1702,3448,-983,675,66,2369,2226,-1704,-2676,983,-121,1207,1773,1602,887,-905,-216,1311,672,-2848,3649,-2801,1686,-302,644,-151,2470,307,-452,1144,4020,1949,1428,-972,1916,683,6028,-614,4646,1517,438,2471,5319,-1109,-125,-553,821,-625,4165,1450,5360,-4262,2990,-1528,199,-4711,-4046,4118,-2035,-129,-3328,3150,-3043,1272,
14815,4125,-2375,-4460,-1636,613,242,-524,847,16022,268,5302,2439,1838,1240,4649,1076,-10000,2222,-1030,703,-1810,-277,-139,-199,3078,2655,-2135,4468,-1494,-3891,-1465,-1146,-909,-697,135,6140,206,953,-2960,-3477,741,1426,-1512,2820,-266,-3218,-691,-3797,3932,-525,-7102,7833,-5448,3468,-5514,5124,-9334,-1449,-4347,-188,2802,-309,-674,-1174,1114,2508,-905,-549,-743,1025,-347,-782,-10,500,2499,150,1621,-1840,432,581,2202,3118,44,-934,1494,-3012,-2169,-402,-446,-1359,-3120,-4130,1038,2968,-1365,-1169,1301,-1469,213,-3517,-3511,-258,-1382,-2721,1436,-6687,376,1267,-2911,-296,-2879,2341,174,2368,-421,-1456,395,-683,518,
-3012,-1742,-2296,3521,900,491,442,-51,472,-1312,961,4481,-380,-225,3224,-932,-1413,340,-821,-2540,1627,756,-2246,190,6443,-516,1939,1400,-309,1699,2881,7480,-2357,-1140,3476,1700,-3594,1405,3410,4391,2241,2718,-2831,-3888,4394,3330,7007,4726,-230,-362,492,1425,-6452,2164,528,6215,-490,9061,2596,772,-234,-1259,4486,896,1001,670,640,-2993,48,-186,1441,619,2712,207,497,-288,717,2808,1089,512,-657,-114,-1802,1324,614,4384,269,-147,-356,487,4022,-332,311,-1024,2304,1587,-884,-2654,652,245,-1526,769,1124,-900,2279,-1099,1250,-2366,677,2892,-1032,467,1862,3542,-1830,-206,-519,-1815,1804,1729,
322,-625,-291,4777,82,1930,1175,772,1384,910,-2264,2150,1817,-2880,3753,-2312,-2438,2864,-987,-678,-1203,-2611,-2102,-1840,13085,-5001,1708,3241,1276,-41,-1794,14080,-3668,-1641,1255,-2790,3336,317,5726,5068,2985,803,-2404,-389,3535,2992,6485,2993,-1172,-2562,-1165,9135,1450,-2087,-1468,2362,-1048,7853,-3114,755,953,-856,-60,857,-4168,-3646,-649,-733,-1622,-256,515,382,-25,-2781,1487,1114,-1811,-1300,-282,-929,431,-2612,380,-1275,762,292,975,3128,975,2947,1281,1745,-768,-1328,1344,-1389,2372,1699,768,-527,-1191,185,-1275,-3957,1696,2272,-168,-4859,-1673,1179,-2010,599,1585,-558,-1366,1011,1541,559,-4412,1345,
-832,-2434,-393,4478,4590,-2171,-1649,-1030,885,-1001,1060,-3410,2997,4000,1385,-499,191,-5780,2478,-591,-2187,-1223,-5155,1829,-4519,1162,-1990,-1393,-4250,-408,2182,-3173,-3454,-260,-2233,1534,-2452,-4210,-872,-1452,2728,-3207,-414,2740,-5103,-1572,-3463,-1714,-190,1498,3705,-3216,1554,667,-60,-1988,168,-4392,-848,-7607,1072,906,-2280,-1852,850,435,480,517,2491,-445,-46,-1198,1464,-324,864,-211,-857,-2216,2789,3611,1495,4225,-1464,288,454,3208,-2617,-4814,1034,-117,-1476,-7221,289,2863,-8057,-1477,-436,420,1414,-859,-568,662,2598,1973,1297,-1449,179,1377,-52,2426,3130,-2163,-1474,-3421,-1453,905,5172,-723,555,606,
4749,832,-64,-1536,-1721,2165,1877,-419,-47,2176,-629,1614,-236,5516,-8254,5672,-2323,-4796,690,991,377,2132,-779,-3227,-1786,-659,-295,-723,-3658,848,-2666,1987,-1405,2916,2310,797,-3109,-2061,1660,3588,-1496,-56,6534,-2103,-7196,5233,-4281,3019,-3558,3522,-330,-4660,4589,1181,3279,-3696,440,-2692,2875,-5047,1434,1187,-1380,759,1360,-2245,2104,751,-1574,1820,1540,1685,-2102,101,2507,4438,-1804,1960,1171,-599,3677,-3270,3713,-3876,-1049,1632,-1296,656,1527,2829,-1120,653,-1270,1442,-142,-1785,788,3250,1077,621,1094,-2711,-87,1629,-276,1457,-1193,1911,53,-4514,2340,530,2199,-1272,1518,1949,879,2022,1693,-919,
5578,-1771,2335,35,2975,-2505,2266,-3041,378,-2949,-3094,-4592,-206,-746,-775,-4292,1735,-2813,2540,1326,7590,2414,-3632,-738,802,831,-487,1526,-5877,-2406,-2979,-2183,-7156,17,4716,-2296,-7015,-1102,-1424,1540,1714,843,1296,2873,-3882,5215,-4447,-6435,-3404,6484,-1920,-3194,3736,5577,3924,-1258,-3946,-5130,-1488,-3984,-570,2296,-2559,-292,646,-733,446,1900,-3189,1158,-2547,252,3013,176,-2888,-376,-1808,-3797,-1913,347,-1862,3661,4376,-3618,-918,-845,-1644,-343,1489,-717,-4450,-105,-4702,-96,-602,-3147,1689,3703,-1339,2418,-2634,-3579,-3074,673,-2920,1567,-1751,256,421,-935,2088,-3051,1473,-2646,365,3925,1858,1071,-3174,-415,
3097,269,-205,4111,-1080,719,869,-253,-572,4767,-1212,4199,-1787,-115,-2313,1044,-3600,-876,-476,218,63,-1806,-1700,-2175,3656,-6091,6942,3673,8750,3288,-2599,3263,-623,-1019,5937,-1925,1065,6249,3882,4525,-469,-905,-1369,-2819,6478,7581,21649,5813,967,-547,-620,-6236,5156,1841,509,5183,3632,28,3706,-712,-678,-789,2020,-808,698,376,226,1791,-1659,-533,-2539,995,-135,1526,944,1950,1514,3523,-254,-284,631,323,-710,2567,133,314,-1274,664,541,-698,-1070,1530,2836,-598,985,1873,302,-404,2396,1182,-135,2018,307,66,744,-378,1075,1912,-1378,400,90,1740,439,4556,-1586,-671,2515,3222,1261,3251,
-2437,-2360,3574,2586,-4522,-1686,-436,-3226,948,-5690,-1975,-201,-2930,-676,3975,-4282,-509,-505,-929,-2581,-20,1866,935,-1608,389,-15,3987,8434,6795,7501,1836,3139,-3237,74,6397,-6884,42,6594,-9484,785,1824,-4633,-2707,-1628,7386,1916,-1583,8958,-2166,-1086,-1639,-6879,-5147,-1941,2471,-801,830,5703,2515,-2575,2091,-60,5615,1121,-2188,1124,-680,1493,798,748,-488,61,-1712,-1767,-123,-672,1854,2132,-4211,1559,665,1729,-2092,-3605,-534,2079,1613,2122,-4731,-419,2258,622,801,-139,906,1943,-33,-923,425,1639,-1436,3032,-132,-292,-300,3255,-2203,215,-1484,4892,3634,917,1719,1606,1995,-2922,416,1690,-1843,201,
-7665,-4495,-7047,-4404,3969,-340,2244,80,2485,-11798,754,-400,-676,-950,-1509,-9720,-146,-666,168,520,4591,185,1664,4,2829,950,-4981,-5572,-3601,-4621,1651,674,-2366,2514,-2658,3792,-6723,-2717,2693,2920,5661,-1111,2493,2479,-2881,4643,-19,1017,-8472,1651,1780,-1768,-4759,-5649,2113,888,-7367,5408,2936,-552,396,52,-170,-578,2027,-3412,-127,-3566,-1509,-2600,2195,-934,-353,-2197,-1810,2280,-1599,-2451,-961,837,-1727,-4498,92,-1272,-1397,-1048,-922,387,116,873,-122,1076,-2692,1216,-4321,-2476,-1121,325,-3957,-909,-2761,-2694,1859,-4303,-1728,-322,-5585,-167,-2507,-2331,-118,-2241,498,-475,-1537,807,138,-817,-2632,-2745,
-503,-4132,740,1310,1172,-899,2604,-1006,929,-5390,-4220,3605,-2585,-1649,2468,-2650,-2112,1304,324,-74,-484,1750,657,2071,-1595,-2377,-6257,-4783,-3403,-2402,4727,2611,-1491,-1885,6911,132,-7945,3412,-1722,4413,2304,-2122,-1948,-3073,1220,3681,-893,-126,333,-4618,-114,-3569,-2332,2697,1205,-512,1883,517,1071,-271,2300,-2634,1751,1335,-1147,8647,-2155,-342,756,2626,-1959,4706,1941,572,3320,2931,-2868,-852,3680,-1081,-844,2276,-1973,-517,3210,2287,1781,-192,1816,2919,-1432,4306,5385,2190,6661,-1260,247,-624,-2043,393,-2418,2435,-3962,-2703,2184,5599,2293,729,-2490,1961,-72,3801,1516,6334,520,298,-1915,2892,-726,138,
-322,-136,5686,8889,-1076,-3446,364,-6978,-111,3198,-1095,1847,-239,-2288,5109,-3996,-1318,2738,-3053,-2478,-1629,-2637,-1888,-664,-569,-417,2128,3966,-973,756,145,-1517,-1699,-3630,4324,-3857,535,-273,-1232,-939,2020,-2765,-3039,48,1670,1164,1256,65,543,-735,-2425,280,1356,5534,54,1344,-1265,2195,-1295,-4723,-1086,712,1223,413,352,-1222,-270,1048,-29,-526,716,619,-2,225,1225,3063,3358,1634,1262,1731,648,1827,439,-392,-1,1284,2069,85,932,-1683,1085,1248,1898,1203,833,890,213,444,-245,507,427,2862,2062,1698,1398,-926,-13,2054,-1345,519,611,-181,-886,1333,590,32,-467,-398,713,-1736,
-1424,-890,1319,-59,562,-3814,2628,-311,1034,-608,-124,-4044,2314,-2555,1594,-5247,3277,-201,1010,-841,1548,1444,2075,652,-5675,2635,-543,-2197,-5156,-2495,-646,-6820,-1335,805,-1417,552,-1227,-2209,-2715,-5204,-171,4875,1085,2232,-4265,-3898,-3856,-4884,1183,963,676,-5291,-2088,1830,-2456,-5439,-3401,1153,-141,939,-570,582,-2865,1433,328,-1591,-522,709,998,-122,2819,-1149,-72,-1328,-855,493,-69,-1835,-322,386,555,-533,1298,-1862,787,-1449,661,123,-748,-45,479,-1832,-919,306,-3483,-2500,-42,-924,-6032,267,-135,-3126,-479,-782,1693,-1218,-5547,624,227,-728,64,-1930,1863,-2382,459,1767,-1197,-2096,16,-2517,
-6370,584,-281,2184,-4031,-622,-2352,3008,2600,1919,-644,-1446,-13634,1018,3048,-2852,41,3279,-3018,2409,-3763,-1518,-226,-1523,-2972,-2883,-331,-4496,-3130,-2089,475,-1464,1294,2576,-4091,54,-2230,10290,1983,-1891,-2373,-1103,-2049,-2422,391,-2594,6128,11,1376,-4041,339,2787,-10690,1926,387,2383,-1829,414,2013,4855,1033,-1128,-1186,-188,1125,-222,-746,548,2541,2442,498,-3973,-2475,894,-555,948,1549,1290,-601,165,-565,-168,125,-823,395,2864,1303,-1687,2396,-1182,2209,-1343,901,-662,779,-219,308,2461,425,521,-687,134,-53,174,570,-1667,312,451,-409,-930,-882,236,-377,-1129,-269,-196,714,2286,3156,620,
-1662,-317,443,3149,-183,2466,118,-325,-737,2110,-733,4849,209,767,-1053,1521,-1454,3297,-631,363,-1916,-1907,-1727,-1026,10773,-3254,-742,3606,1625,3765,604,11462,40,-1617,-1445,-566,-450,472,7315,9280,-1146,-1478,-607,-3666,4458,453,13597,3561,627,-748,-24,732,-2065,-218,-640,3239,-303,1157,-897,-379,22,-755,1548,141,329,961,-1038,1230,1531,118,-1041,15,1106,-334,149,1220,658,1833,-121,-114,-967,56,-2239,1102,341,827,14,-717,-2138,162,1911,637,558,-362,729,1512,-531,-319,1390,-147,-831,-139,-1095,-216,484,370,1337,973,222,550,-734,552,-277,1717,624,439,-68,1468,370,3549,
-5957,-3632,-622,4641,-3668,-8674,-1447,-2251,1360,-1918,129,-516,-8316,-2143,-1125,-1602,2259,378,-1994,2227,849,1955,566,-1533,-5713,-1606,2591,2485,-596,-341,3090,-5351,1302,3570,327,-2389,-2979,2130,-2748,-5893,-1370,-1520,106,554,-1065,-1701,-1622,-2371,1429,1845,452,-897,-1375,-4365,3489,-325,-2468,-1392,1914,-5458,-140,-789,-1863,642,329,4846,920,262,231,2720,-4304,-1462,1807,-153,-500,3413,-291,-3065,-180,633,-271,1080,50,50,-951,3586,5634,-966,757,-3711,241,700,227,-787,1144,317,221,-520,211,813,2566,-68,-362,-2542,3124,2739,3014,-1675,794,2431,-2719,2498,-992,2608,2050,-665,-541,-768,2536,-969,
972,-12,3343,-3847,-5715,-502,-867,-2533,592,-768,-1844,4415,-3685,-562,-2159,5312,447,-4153,1048,-1134,3099,6368,750,2644,5678,3308,3373,4505,-2228,2371,-1996,4573,-2759,2252,4605,217,824,1916,-6106,-1618,-4275,-2986,2596,-1713,-4760,854,-492,260,-864,7812,-1799,-2193,6631,-1818,797,-1250,-632,9429,4221,-9084,344,656,2997,-827,-1430,871,2720,-912,187,-11,-307,144,907,64,983,-207,-423,-3096,-1314,-389,1693,-197,2911,-2130,763,-480,2392,-1364,-2428,-2689,-166,-1145,-946,-32,457,2614,1194,588,3247,169,-337,-2426,415,-1058,-2293,3608,-3763,-2549,1601,-70,-1845,-402,-16,-435,2260,-1018,-1156,-936,-757,-1392,
-7136,-246,1609,5822,-1617,-505,-3212,-830,358,-3427,-1746,-4242,-425,2614,343,2508,586,-2018,427,1853,347,-4620,-104,1465,-3294,2503,1697,-84,-4675,1103,1842,-4600,2050,846,-3282,4954,-685,-2284,-1851,1558,-3478,-1801,1114,5835,-1749,-1155,-1632,-3698,-1044,-2256,-1716,1285,3149,-2279,-1591,-3973,-8123,-1305,-727,1886,288,-2454,-6876,1363,3560,-508,-2794,-880,218,1186,-2300,1994,-1822,4142,-3392,-372,-353,3781,593,-536,1218,749,-624,797,-1896,589,-3810,8,923,1115,-1754,76,1535,-711,2128,-3920,-643,771,513,-188,-2010,1420,-1482,2850,-2424,-2965,-1426,4469,-852,-4349,906,-1872,-1881,-6561,2322,-650,-1190,919,3799,-1029,
116,-606,-4505,4002,2787,-6271,1790,-3909,2748,6669,-912,-664,-941,-3233,1176,178,968,-2253,-588,4,2952,362,-332,-338,-6019,-685,-3854,-2446,-3016,-2110,-901,-7980,-1684,2746,-2716,-571,-3364,-1656,-2744,-6028,-1555,3597,-232,1771,-2195,-1323,-4563,-3526,-306,2926,324,-5055,5214,-2912,-2157,-4862,-2207,-5554,-226,-1643,-901,2269,-2229,926,3912,175,373,-1908,-2601,-869,-2851,1501,-1962,1672,590,2340,-2237,-2885,734,261,-1761,1453,2515,264,-1167,2173,286,-1044,672,1353,-2728,1820,702,1028,-43,-2100,1671,1566,-2276,-1333,598,-593,-2063,1172,700,-1323,-363,2697,2331,-2695,-1073,-1177,-74,3055,415,1467,-381,858,2839,-1454,
-1512,-1604,6455,-706,4525,449,793,577,74,3675,-1798,314,4295,5545,2370,-2183,-2866,-825,2942,295,-1435,-3855,-2147,794,-3358,3070,1169,2336,197,1903,-3299,2732,-1124,2130,2194,3791,1253,-1512,2793,-2174,1347,-4896,-535,3488,-2099,3547,1996,-1525,-1653,-3337,-1604,-3758,6357,8683,-895,-652,2828,-1800,1619,5777,-1931,-878,-6254,704,3393,-7412,1699,-2044,-2063,-2708,-1390,659,947,-1298,149,-2826,-317,-2970,-1464,-744,-2818,816,-416,1259,-3040,2009,-3869,1474,-1010,2907,-2006,780,-2800,2059,-2287,-3201,636,-106,-3232,1626,-801,-3493,126,2947,-2897,2619,-1771,1596,-452,-486,-881,-2864,566,-5144,633,-443,-2448,1518,33,829,
21,-995,6099,9628,-173,-3195,132,-5465,-191,3948,-3150,2912,530,-1499,5499,-2077,-1811,1412,-83,-1320,-326,-3246,-2075,-711,653,-978,2848,4884,835,4539,-209,-719,-2013,-2715,4333,-5967,921,479,-2396,-1695,1955,-2859,-2016,418,1056,1850,1148,286,235,-2443,-532,203,2626,5942,345,2038,209,3308,-3559,-1429,-641,4,916,1615,909,-858,428,1158,-426,-218,300,737,82,824,-571,4121,1310,1692,1615,996,197,786,2872,-1227,-106,602,1805,1840,1750,-619,1164,1682,1846,1097,-815,-1657,353,-652,-391,2088,-44,1964,471,1289,2340,2322,1955,414,-1177,880,1260,-403,-206,1242,-108,205,-1998,128,1624,53,
};

PI_L2 int Encoder_Gru_Bias2[]= {
603486,1240644,6251143,-1129896,86931,-3961150,1204573,-14006695,592355,-942646,-2087399,-113439,209552,32860,803037,-3612643,-2294816,1270888,668850,-2425936,-2454895,702343,1362167,-851007,1751969,4190097,-134238,1223672,-1176742,60450,-1877678,737228,-1397538,2074233,-234274,-2186804,671876,1864660,-822498,-427149,-1062730,-845449,-3081433,1371688,404408,-1327239,-2340574,-2152880,-644910,305192,-5030248,828828,781715,-4743399,-60917,-674299,-689481,-335545,-248350,-6830870,
};

PI_L2 short int Encoder_Gru_Kernel2[]={
-1959,1737,-5878,-3485,373,990,1562,-2938,310,-2024,-1628,-3167,-1185,-494,2112,-2075,660,-2141,656,2863,-2127,1235,-20,1541,-1765,-1029,-2097,3049,-2786,-2772,-890,-1495,-1558,-2045,3788,4354,-3141,3122,-1106,1217,-1369,2739,1928,-923,-1341,-2890,2624,-959,-1350,807,-1920,-2207,2003,5729,-1506,-3271,985,-1560,720,-2138,
};

PI_L2 short int Encoder_Gru_Recurrent_Kernel2[]={
-2685,2003,-2539,-1371,-2011,-26,-433,1295,4654,-520,364,56,-2804,-3250,1405,566,-4801,1672,-857,-2371,-859,-2427,-3167,1729,-2694,1711,-600,2469,679,-1018,-2391,-1968,3995,-346,-85,-463,-2178,-632,-1423,2648,598,-142,1519,2167,-174,-2597,-2730,238,-3434,-420,1591,-869,1436,433,459,153,351,-3012,-2708,-793,
221,-2239,-1239,3097,3256,93,-2295,-1162,-3711,1254,943,2188,5111,1854,-1538,-69,2293,-892,627,632,2841,1345,2032,-2079,762,469,1228,-2641,-195,2826,4095,676,99,-1570,1057,921,1742,1475,32,-2374,-980,-1940,-558,-418,467,1750,2210,-1204,2771,2734,5,-138,-3470,118,70,1713,-2494,2533,2179,-368,
1955,1975,-1676,1404,2143,-1626,3090,4054,2348,-628,-355,3388,-1581,-2078,1497,1695,-2206,1491,-1774,-112,911,-172,-225,349,-4824,2528,178,-390,-4184,-1356,840,-2730,1910,1446,1512,-2133,710,1625,6953,-2450,162,1582,-2308,-1299,-1474,848,-5444,-1625,1064,2456,-638,2083,-461,1309,2140,-3317,2702,2616,1640,-4532,
244,-1207,-1373,-4074,951,-321,3357,1026,-751,-1005,1948,-2614,-3207,-1621,2785,-1148,-5094,-882,-2364,-2274,-1140,1447,-13,-1591,586,2750,-2922,-426,707,-648,1143,-1158,2202,1729,-245,283,-964,1224,-720,-838,2474,2640,-765,663,200,419,-2677,-713,2232,4322,2075,-3215,-21,717,126,42,177,868,228,2087,
804,-3161,-536,-197,-2694,855,937,-1470,445,-1247,-709,-2303,146,-308,117,764,1144,-2016,3723,2229,-2014,76,1287,506,-1012,-894,-1018,-3601,1106,-1055,520,-1890,3983,-1598,-1893,-3016,-977,-1672,3320,-23,-1404,-3614,3132,4546,-1892,1236,1087,-191,1038,9,526,-2530,-892,2130,1495,-2186,22,1052,4674,-138,
306,830,5287,-1707,-365,2534,1347,-1186,-588,211,1079,2275,-956,-486,-362,2413,6773,-94,2158,5364,1190,-8440,1683,818,1789,-791,-2452,-4685,-719,-520,512,2172,-581,708,773,1561,850,3,2613,3681,1421,-489,246,-3114,-1871,820,-1103,-2230,-939,403,-1190,1576,-272,211,4130,-760,-4185,1558,1303,1510,
754,-1007,-342,342,-2283,-1837,-1476,53,4050,288,83,1053,-3736,-3218,-1430,1063,7,1525,-355,301,764,-2727,-823,892,627,-285,2773,149,681,-1,-3348,734,2045,2927,864,1403,-301,-3546,1516,266,-2985,1456,-1617,568,-1044,-1024,917,2302,-2296,-2429,1053,629,968,-10,3541,1217,552,-817,-2629,-512,
9,2083,708,-459,273,2649,-376,2326,-1863,-5304,988,-2695,-834,4003,2695,4152,1865,611,-1124,-165,-6432,1016,4410,1014,-3376,386,-3076,1830,-748,-1106,-3841,1794,-853,1365,2329,2208,-1038,178,-769,1069,-2858,-2344,-1194,-2458,507,-761,-1615,83,-2108,-1796,1220,81,1111,1342,-1105,-822,3728,-155,1370,2028,
-1272,4247,-1166,-828,-2505,-1437,-3431,-27,1559,2703,2563,2111,-825,2087,-887,-845,1344,-1619,1388,615,1910,586,38,-1511,-1886,-269,-746,1238,-2559,-399,1274,-412,629,2109,209,-1919,-2725,3809,-310,582,1096,-699,-581,2422,-2690,-2966,-755,-1003,-5603,-715,-361,-1956,1531,-472,-1981,-424,-1298,-554,-520,-484,
-1342,2903,1339,-2316,908,-1955,88,1376,-1861,-1183,2341,5,2529,-2970,339,-2702,-526,722,-1913,-532,174,-524,-1881,-2707,1039,3377,-784,144,466,735,5123,2010,-439,1613,564,364,544,591,-2275,667,-567,2753,-218,1468,-1070,-457,615,-41,1351,4593,2581,-864,-1961,-1866,-818,1322,-1759,-827,-1747,-2592,
-3735,1179,339,-5256,751,2108,1092,1204,-1308,-3110,2318,-4142,-1083,2149,2977,-577,1894,635,1226,2586,-1532,2147,3997,580,-3649,-1355,-3122,4025,-3722,-4755,-61,756,-1885,-757,1619,1763,-5162,3487,-418,696,-534,3707,1171,1308,-2015,-3800,-1698,-401,-1389,-2871,-1690,2818,2448,1756,-3411,-4157,2136,-1486,728,-59,
-1986,795,-847,-144,-678,-61,504,2073,2505,658,1889,-4822,-268,-156,-362,-1467,273,613,-3608,-1878,2425,-199,-3085,-832,-1178,-681,225,-648,65,-1788,1512,886,-569,3163,1772,-2411,1545,1290,2609,47,85,119,-167,-1739,-1337,-197,-1669,-652,1176,4908,1941,277,-2500,515,-341,404,1708,-924,-1493,-104,
73,-1916,-208,-429,5920,-2594,1797,-1679,-2012,-1338,-419,-1444,1979,-3454,-1615,-2289,-997,-3602,913,-821,-1523,3943,992,-1557,839,-541,-232,-1103,1148,1175,2613,3206,-32,-1693,-3,-991,354,-684,-1139,320,-1640,1713,130,826,-2825,-472,-1262,352,3432,3404,-215,165,-278,911,1341,-490,1313,457,1327,466,
357,-3108,1180,-1306,274,-2093,-1261,3629,-1087,858,-285,597,2567,-3654,-1073,-2037,569,4332,1017,1877,5537,1990,566,-1821,1996,3313,-2304,-695,1328,621,3616,2850,-2235,-636,1936,1130,2480,-823,-2071,-2299,1969,554,242,5272,2058,-1071,-570,-2340,2091,246,1129,1220,-1885,-582,-95,211,-1267,-453,-3598,-567,
-455,31,545,-1128,-2230,-2010,-189,-370,407,1822,-270,2050,3951,2677,-527,4011,1211,482,-5,175,1335,-2213,159,1398,487,-1403,3618,1927,-1627,-1337,-43,718,855,-2900,-269,2148,-2258,-3132,-1654,-350,-6404,-364,413,401,-1865,-1685,2416,-856,4824,-2993,-2474,2647,-2434,-996,3817,-880,-1999,-134,-2336,-431,
-1057,-1068,377,257,-1243,-853,190,887,437,1295,733,-551,-3580,1971,1277,1286,2559,-279,-3301,-5773,-2014,765,-1315,-4890,-365,-3133,743,4097,-1195,-1224,146,-1350,-4057,6779,-1333,1731,-309,-421,-1422,259,-1411,799,-2191,-1689,-757,-966,-881,1631,-3108,-2180,-383,-280,631,-610,-175,611,-1131,-2692,-1230,590,
2107,-2678,155,1209,-1472,484,-282,1442,-1338,1505,873,-136,639,-1893,1834,1047,252,1781,-348,348,2393,-1033,13,-402,2343,-926,695,166,5474,1399,1383,-272,98,1899,-1662,-632,4541,-3373,-2978,85,1209,-448,451,-75,3402,1818,-999,4195,3268,-1,2054,732,-1608,248,-658,3717,378,868,-673,1936,
-2063,1538,-2984,-146,2201,3371,-274,-3565,564,-1250,1274,1094,-584,-2836,-43,-481,203,1456,-204,-1291,-1467,2326,210,-1153,-4400,1708,-729,453,-5906,-593,-2435,-4478,-332,365,1106,-727,-934,3882,1233,-746,-704,643,-1135,-1733,-7,-2133,-7790,-4530,-2014,3224,-883,-779,1642,1072,1405,-1103,348,1503,-1265,-3990,
2328,-555,302,2796,-1002,-783,60,-886,-1904,1928,-1220,2412,-385,-2754,-2941,2140,2341,724,3425,1556,-731,-443,1164,2013,1009,2002,1877,-1827,2175,2069,-1402,-163,-711,-316,577,275,3804,-3559,476,469,2373,-4655,552,-940,3009,3349,2198,1765,1694,2470,355,-2606,-1926,863,-468,3290,764,1847,206,294,
2649,-5035,265,4894,-1159,565,-1091,366,-1083,3114,887,4310,-137,-3443,-491,2279,-298,908,-2199,-765,1579,-2570,-3086,-780,5134,1221,1685,-2211,4855,4950,4017,-1107,1117,4299,-2369,-2510,6568,-4295,-4336,-4571,2868,-1236,-2281,-580,2465,4303,1469,3545,1227,2247,889,897,-2067,-1009,688,4166,-3816,-316,-1513,-2046,
-1512,2544,-1180,626,3262,7153,1480,1503,-2129,-532,314,-697,4492,-4471,71,-308,289,1482,1335,1099,-455,699,-436,-4930,-613,-1082,-1859,1404,-1663,305,1711,60,-1029,-951,-984,-630,-832,-952,-638,-910,-150,281,-1442,-1771,-921,57,-2279,-4227,826,1533,-149,-156,-2063,440,-1114,-324,-968,-133,3660,-2258,
519,-1178,836,329,-223,-911,-23,-1143,-2359,2161,225,1427,2064,-1136,948,2490,2533,734,2773,-1615,-345,-1553,-345,3094,-14,1933,83,1587,-35,1140,710,1631,-2372,-453,943,4550,881,-3152,-4441,1961,1466,2661,-101,2847,338,36,4,510,1362,-2260,-1025,1067,1008,-357,1043,2491,-1621,10,-3787,-951,
-1208,-409,-229,-692,-223,940,-844,-1403,-3057,-2282,-4571,-1309,-58,-1204,-294,-267,2099,1680,364,-842,304,-1659,-775,3816,-775,1877,-936,2489,1678,2757,-1837,2619,-2588,342,1182,4109,1580,312,-3786,-189,405,1520,-1187,2366,3689,-1817,-311,-959,-166,-2658,-2038,1266,1356,874,-3791,176,-1745,-1907,-2564,-6536,
-1173,-987,1479,890,-1490,-1457,-99,-348,-1556,-660,329,1074,-584,552,1506,3451,295,1223,-2032,-626,3891,-1149,-2647,3486,3995,-2435,-748,-1138,3400,3299,-2439,451,1649,1623,-208,-430,477,-1143,-148,1532,3228,-1331,-1400,-1561,1884,1115,2275,2492,64,925,1584,409,-440,-1168,845,2734,-113,1646,-2760,2810,
1699,-335,-1674,-896,-296,1861,2372,1471,2416,1785,1418,373,-1922,-2175,1167,-364,2453,2238,387,372,-753,-1155,-6876,-873,-4695,1728,-849,994,-973,285,1771,-847,1301,2123,1206,-1684,45,3413,-589,1128,100,2420,-209,-1764,268,-2981,-2411,-2592,-181,4752,1070,2201,-726,15,1779,-2569,724,1461,-5882,-767,
-1976,27,-1070,-2838,-664,5700,-826,-16,1536,-2947,-778,428,-258,-1293,-81,8064,1153,-1391,976,-1249,-96,-1869,-617,1502,-4553,-483,809,174,-2518,-1197,-3129,-1335,582,-423,701,-245,-4188,-634,2089,4756,-1026,-1851,-1726,-2039,-2502,2726,-68,-2511,-2502,547,1013,-1068,2075,780,3928,-1980,3970,1079,-302,2471,
-1332,379,117,-125,6689,2617,-656,2475,1067,-5408,-578,-3364,-614,4,-552,301,-883,1270,-3420,-1587,-1661,-1147,-256,744,1207,867,-5699,-322,-57,487,-2843,-981,2574,57,1912,2782,-1700,-378,-2675,3742,-2052,407,-2357,-1439,-2238,-1136,-2502,-4591,-1543,-444,4254,-593,3313,1984,-1812,-13,2991,1775,1273,1888,
-1128,2971,758,2565,1302,-1445,-4312,-1004,-1322,1954,-1795,3319,1501,4285,-4117,-152,2905,298,700,2749,3267,161,914,4299,-327,-1915,1572,-625,1767,1075,1403,-637,-1849,-706,41,1160,1012,-2878,-223,-888,964,-1526,2637,2089,-905,-26,3266,-869,-909,-1481,-113,-902,-2369,-2182,-610,1976,-2293,973,54,-490,
1719,-1905,-820,-1280,-645,2489,2808,1844,3691,-596,1112,-428,-169,-3037,4114,91,-3344,144,-3554,-747,-3894,-152,-3186,-1914,756,4752,-795,165,-2829,-1180,-1607,354,2902,-159,-879,-1258,-1692,-1092,439,1385,-607,-280,-3398,-1008,372,-1488,-288,363,-32,4237,558,572,522,-1310,237,-433,140,266,-1455,-200,
810,-1909,-1471,-948,2191,1764,4874,1426,2579,-614,1292,-1742,-3114,-3690,848,-567,-4435,931,-1332,-1872,-4187,-1551,-1800,-535,-1461,4436,-707,0,498,-2689,-958,-474,3115,1827,-202,554,-1274,709,-2437,-1217,324,2854,523,1683,-525,-486,-2986,-2234,453,2974,2642,-371,1629,1337,612,-345,2369,476,-537,581,
-698,-3405,-969,-978,449,1068,4659,1726,-1986,-5432,-87,-2596,211,-3195,949,5,-195,1953,996,-1150,-4603,-2676,-136,308,-916,967,648,-467,-333,2663,-2093,279,766,-600,536,-1452,-944,-2994,-887,-1689,-2131,2829,7,1985,-898,3259,-1441,1711,1811,505,1211,894,1261,158,2545,-887,2555,-625,1308,-1374,
455,2411,287,-47,2286,-91,928,1891,3483,-1406,-289,698,-2256,-886,1763,-3151,2509,-716,418,134,-2134,-3923,645,136,-916,2765,-327,1668,-717,1151,491,-5931,2684,1039,537,-545,-882,1656,-1337,-487,-590,1918,-2292,2707,2150,-2714,-2421,-629,-181,2005,1354,-1352,2343,429,-1138,-3978,-2611,490,-2153,-208,
-3883,955,123,-2075,-182,-3342,-1406,724,-829,1893,2449,999,1055,3920,985,-1346,-1959,-605,789,-251,385,2581,2582,-4371,-1217,116,17,3295,-1016,-558,2386,-3590,-2958,-346,1390,761,-1973,1610,2720,-1212,1894,686,49,2606,-1917,-831,-853,-782,-594,-2133,156,655,-1655,95,-3382,-1708,-811,2206,518,-1676,
-1663,1789,-2545,-4246,1084,4546,2390,745,760,-3362,-564,-4487,2028,2149,2282,-1314,-3393,-272,2275,1635,-1837,1534,928,-525,-3573,-876,-1831,2162,-3328,-4429,-2691,706,-979,-1593,202,-479,-5061,4711,3425,1707,-2475,2179,2509,1309,-2101,-3826,-2997,-1284,-744,-2635,-869,247,572,1110,-605,-4570,2249,-1020,1666,799,
990,-1025,326,-879,1791,2579,-1403,-3618,680,280,-399,-1691,1304,1256,-5387,2195,4741,-1044,1525,1184,801,-390,-3281,395,-275,-4000,1006,-2513,973,48,-2161,4297,-2681,-2523,-2134,2258,-1568,293,-1468,3781,-18,-846,-165,2392,526,-1151,3671,-474,-62,-2743,-1238,997,1707,166,1273,-2683,-1267,-399,-2405,-137,
1346,-275,1091,679,599,-788,97,-499,766,802,771,1291,-344,1452,-1903,683,1089,1093,-341,-1245,237,-6029,-1953,67,3043,-1329,-5305,-2565,2487,304,194,1476,2322,1783,-2928,-6828,-439,58,1801,-1373,78,-839,-1496,-2303,-1753,631,789,4297,21,1357,-4,-1861,1725,1289,1415,1298,-3009,-1192,-1312,616,
3562,-159,-1973,-1639,-1102,1510,2733,2255,4866,-1975,93,-2754,-3335,-3913,1316,-794,-2692,91,-1491,241,-2822,-2142,-5362,745,-2204,2717,-88,1140,379,-718,-1864,-690,4323,3262,-263,-2177,-3366,-796,-114,1108,1354,227,-300,1889,-489,472,-1248,1592,-166,3852,1816,-1018,-71,-67,818,-1181,-81,-1494,-1554,591,
2421,-3348,-2490,956,2983,-2754,-1202,-466,-339,1053,-2193,-1350,1545,-2056,-124,-220,1824,-1785,1132,632,-1747,1585,1073,1036,-1226,1572,221,-207,-278,801,1434,61,-2688,238,1725,6374,2445,1409,-2464,-2392,1036,1480,1099,2134,2441,1205,443,-1553,1742,-453,-2479,-566,-172,1306,-962,2117,434,1128,4092,-259,
-535,526,3069,-747,2434,-922,-1463,-832,47,-940,-2533,-1461,1605,-688,-1055,1182,56,12,-937,537,3580,2858,1552,-3005,2979,-5442,1329,-300,3952,-838,986,1105,-1680,-2128,1919,1642,-211,1704,-1469,1066,438,-272,-1851,3036,552,754,2153,1193,-1633,-3072,2050,-603,-1779,-692,-2192,-2301,-945,1183,2968,996,
-295,1448,1254,-639,-2636,-1612,-2828,53,-1352,1221,880,1779,169,2521,-1665,2092,-1546,1690,343,-700,4241,-3075,1539,-970,2675,-3925,749,616,737,262,-321,2067,500,-78,-2444,-1341,439,-3676,-996,-3932,-352,-1739,-288,1284,938,1713,3311,1868,-2116,-1638,-1411,62,-1357,-938,-748,536,322,-722,-4000,717,
-461,5534,881,-1405,-892,3157,2521,10,-1327,1882,-251,782,3254,-2216,4585,-2872,694,2457,-2306,381,-702,99,-2571,-2161,2045,916,-1241,186,-531,-878,2144,137,-223,2013,-1431,-1277,-1263,-347,1513,1181,1364,-111,-1603,-441,1766,-1261,-386,-398,2101,2458,-678,1471,-1606,-142,-1118,464,-3440,-1244,-1687,-1049,
2695,-2490,-239,1811,516,4575,-2819,6598,2080,885,795,3259,1017,920,-4416,2308,1703,177,2303,-784,-730,-1443,-1689,-2500,2484,-251,1496,-705,2443,2159,-863,-2923,622,343,-2467,-1859,4522,-3141,186,2850,-1923,-3785,464,-2475,-3090,-4138,-906,2649,863,-3176,2062,-2554,659,95,3171,5230,-2782,229,-2330,5815,
974,-2441,2126,2371,-56,-819,114,285,-206,1600,1367,3474,658,-568,-492,1756,-345,1275,-930,-2192,2630,-1370,-1931,-706,4517,684,1724,-3106,3902,2115,2782,330,2399,2970,-1090,-2148,4436,-3319,-140,-3590,1299,-178,1665,-2062,868,3547,2245,1996,1891,242,2273,-171,-2021,-2082,757,4167,-3375,-744,-338,981,
285,1890,1267,-480,384,-2650,-464,-1788,-2501,-1326,-2639,-897,498,-610,1164,-1299,-145,-1070,-530,-3070,790,2918,-1427,3440,1235,2472,2293,1737,-1065,-1875,-347,-4188,1488,-1433,49,709,868,725,-445,-2983,319,1275,768,3200,-4063,-373,-1819,1713,-1422,-285,-1430,1121,1714,552,-3115,-3588,-775,-2108,369,-1493,
-234,1024,2050,-1614,-1153,-1738,3253,817,-89,-728,-2144,-501,-1032,-1431,2976,-410,524,2071,-3772,-600,29,-3126,-1079,2777,415,2905,1008,2551,-2413,-1307,1095,251,-1659,14,709,73,-1227,-3848,-4215,-2044,373,1799,-1784,3238,-2121,993,1252,-1846,1615,368,-1071,525,-2306,-1453,-1336,-760,1105,-4072,-2602,-45,
-3151,-429,-54,-1950,-182,272,2373,1580,2250,-180,1196,-1703,-1705,-1913,2173,121,-4371,962,-2789,-1928,-3066,-230,84,-481,1237,2506,-305,883,-627,-1906,-502,940,2515,2242,142,-1357,-3990,-348,-2599,-1810,-1398,1524,-343,1010,-1282,-4517,-1861,-1205,2910,910,1712,-509,1386,326,199,-1194,883,-1782,2542,-627,
1307,865,-145,204,-890,4719,-1913,2385,-613,-1437,4530,-27,30,2362,-2940,-4565,4381,-2340,-2789,-1031,-1159,4006,-6309,2550,630,-433,-297,119,-358,1083,-1625,2480,810,674,-1617,1559,574,-1534,-1736,162,41,2015,65,-2562,-273,1054,-781,0,960,824,1152,151,1825,116,-715,-1024,-843,168,-5827,4863,
1139,1190,6332,-698,-1911,2146,1351,665,1346,-69,2178,88,-2993,-1178,2126,1438,-109,-1671,-2371,-2015,-2285,540,879,1618,3522,-3046,-2209,-27,-1335,1876,-3505,1869,1345,-104,944,1436,1538,-460,-1696,1991,1022,435,-1181,-3375,1815,576,-3249,-2413,-1821,1225,-1110,-308,3387,-2916,50,-1927,-965,3455,-2811,-253,
986,-1351,-68,-743,619,4522,4036,724,2458,-2705,621,-924,-1951,-985,-1848,839,-2272,818,1833,1302,-4568,-27,-3718,2543,-2,206,-98,11,-351,287,-648,570,2250,-975,-714,1835,404,-1341,-278,-1070,-4855,2198,580,-558,-1069,-1921,-2671,-180,1377,-781,807,207,1052,126,4611,-1774,1205,87,-813,-1279,
-1343,-3406,-554,255,-199,2088,706,540,1973,-380,2495,-2365,-1035,-628,-666,3303,1511,612,-901,-73,-1304,596,-667,516,-2242,-2152,3645,-624,-1967,-240,905,745,1610,1142,441,1196,-152,290,1422,-2153,-1882,3190,1304,-2321,-5980,55,-1748,3362,-957,-3150,1371,-290,-1910,-85,1206,-407,684,402,-350,146,
-2820,1342,1579,-4007,-543,3280,-233,951,-971,-3443,80,-2462,-1905,4163,2324,210,909,-575,-207,1892,-1073,512,4583,-129,-1602,-1549,-2441,2496,-1559,-2624,-1308,1890,-698,136,540,629,-4065,1406,-1162,1048,260,269,-1127,-1670,-1125,-1097,-467,1173,-1003,-2688,1460,2143,3856,176,-2517,-2278,1069,-1758,2175,-168,
277,2242,-975,34,3602,-1266,282,1796,1092,317,-164,-2420,-2064,-901,-1909,-3836,-703,-153,1795,2003,-447,-1259,3006,112,-3006,352,439,451,-712,-733,-1348,-2546,45,512,2869,1356,1263,35,1951,1069,-3216,-63,201,3719,913,-1076,-3878,-2899,439,1511,3431,-3833,998,1246,-596,-1605,986,-121,3350,-1547,
-100,450,608,1612,-741,300,-1914,-210,2017,1894,436,2775,-2908,3045,265,1245,3713,173,644,533,1558,-352,1844,1612,-1986,-523,164,-379,2356,-1976,-3900,-3525,-574,-703,-782,-1073,1957,917,1856,1524,3050,-1387,2456,-3064,4167,131,2424,-1984,-3061,-1193,-1546,-211,1628,629,-360,1553,1287,773,-1932,2148,
-617,-589,3132,-1157,-2770,1174,-1305,-1717,-2025,1850,508,-1697,1233,1736,-2036,899,2281,-1629,3992,947,-1515,-1655,106,1337,4118,-2450,301,733,2582,-1855,-817,745,-1874,-359,-2011,-60,-177,-1969,-3813,791,-823,-1175,2976,4488,1484,-1035,6620,4553,-1969,-3587,1007,-4757,-520,32,-1320,2780,1416,-2925,-2113,2785,
-1597,964,-691,-2786,-1840,-21,-592,1657,1573,-1934,-534,-320,-5484,-1093,-2292,802,-382,-92,-24,505,621,-496,-657,-2907,-2497,-601,-1311,1559,1068,-1946,-3320,1353,2849,1307,811,-1407,-1441,880,1504,1563,725,-699,-2360,-784,-617,-972,-1620,1371,-6500,574,749,-154,5304,192,-1718,-254,2729,-820,-2188,-460,
884,156,1550,-703,668,2164,1814,2246,172,1082,1805,-306,-1175,-1487,1608,6,-3438,-460,-3405,-1973,-3011,-3820,372,239,105,4698,-241,291,-207,-2207,-769,997,870,283,601,59,-780,-474,880,73,303,1113,-1651,1527,143,-232,-688,-365,985,3659,1340,205,9,-1022,885,-4443,-1237,-655,-3120,934,
-1357,1259,-1179,-577,-1289,-1733,-1833,-1968,-1097,907,-1273,-2740,-584,2979,2391,-468,-1475,-1726,284,-2103,180,632,2724,-167,-1195,-5147,-1773,1334,1762,-2406,-1530,-590,-2618,359,1407,3368,910,-845,-1078,-60,828,-2589,1983,1576,524,1899,1158,1346,-1431,-3661,-1123,-2143,-2037,734,-514,-131,-2763,-1890,-1294,2139,
-553,-872,-1894,-1212,389,-457,987,537,1692,1787,486,-2469,-1020,-2299,3252,-2803,-2778,-1640,1165,451,-2433,1356,515,-3150,89,-737,-2675,71,-794,-654,1029,-828,-1750,1526,1733,-1415,-213,1882,-398,2437,83,795,-1509,3106,599,-1779,-3398,-1804,-1311,2179,-56,-1691,903,1912,1408,-461,387,1457,1028,-4181,
2524,246,-64,-2456,1212,51,-647,-1722,-1854,-2327,1005,288,548,-152,1411,-2758,-421,-750,-600,1105,-134,944,664,2022,758,425,2551,2339,-485,-631,-832,975,-2478,673,1340,2925,-810,-3566,-3594,1912,492,-3392,-2026,315,-47,1271,1494,-3446,-79,-2383,678,-918,587,-459,-1052,1247,1647,-2444,379,3441,
-2239,1228,1498,-3034,1693,2005,1836,-4785,1793,-3160,-1659,-4146,-1181,1199,2715,-6536,-619,-1868,888,2513,-3781,885,3634,1774,-1907,1453,-2920,6262,-4901,-1912,-1899,-3603,-976,-1720,2490,1398,-2775,2034,-250,1096,-4680,-2323,751,981,194,-2359,-2927,-985,-1741,1642,-1749,-2955,2135,689,-1530,-2336,2853,-3140,103,1909,
};