14145053,13352301,16242340,9998187,11380736,8310710,12883606,13875308,17204140,11202206,16240488,14341801,8644463,3699921,10864127,8345902,18880752,10290324,10931118,17431332,15373791,18374236,10982475,10330038,18225364,17336998,15541049,15386492,14785580,14784329,10310186,15575240,7848895,9904785,16495696,13836768,17582826,18881618,16019544,5625490,17043424,17900734,18815140,14522668,9142326,12099006,3127966,18138480,11386372,6972919,12808117,17201846,8279914,17515892,12202789,18266846,15999657,11971456,17304606,13080790,11231484,16017907,16787076,14026127,13939963,22359016,11493591,15831584,15348885,12310251,9328002,16320180,15266153,13915395,11586652,15663165,16246573,16110409,19052138,12367734,15586793,19929102,8528909,19013110,10355511,9102045,15439159,18422184,18534758,12461495,16744750,15858644,18235268,19060054,10826630,8968663,7782892,16296128,14401821,16513728,14380390,4380312,10404211,14117496,10939308,4875529,16216428,9565310,14399988,16127815,13887159,14168372,10298363,5864451,11886140,7671394,19234210,12869812,12824685,7959979,17750272,16779456,13107007,11568808,15918577,15946752,12834234,10236699,18824738,6280063,16524884,19502424,13771097,13058547,13365515,17109832,16860944,14034472,5038283,10179379,9814376,15588000,11604780,17143224,11131878,8842635,9539464,13048605,11834241,21564692,9878691,14848036,17014146,10605941,3889894,12766652,21093032,11869371,15798800,6502139,15570200,14691864,16403757,11212187,10908146,18394636,15696502,10770057,11631065,9024779,7700737,21018948,10657053,18075816,18767076,14887466,10667561,7703809,15026477,17176882,17469956,15529559,16530951,3491128,14085253,11318398,7162529,14203656,9325268,18573018,15267280,9433718,20324594,12342045,13810584,16135912,22709490,15302303,13184330,11762850,11604097,16221421,9329774,5048735,12784882,21151468,14954276,15385289,13264027,18850710,18885652,13548038,13276714,13388668,19151042,13146611,14139553,15502163,18709804,3662824,15589472,14066095,17218568,10464160,12272838,11365897,19561766,15169307,8120988,11430160,3147004,16880374,8536861,15249047,12301305,15021942,18452086,6399885,14345744,16651588,15097294,12542223,11357182,12590096,9443897,12287622,15269982,18570828,19680392,13327639,-11466520,-9709276,-4451253,-10190312,-10381422,-10756609,-7855657,-6872466,-5923592,-8798220,-6124395,-10880398,-5462993,746028,-9061794,-7212568,-1983161,-8494319,-15139986,-9623434,-9400666,-9252384,-6851397,-8204625,-16503855,-10955931,-13291140,-8079328,-3648965,-15254664,-12105650,-13810115,-3799418,-10694503,-7152659,-12669398,-15213628,-6459103,-11188500,-12976630,-7153026,-3314048,-13869141,-11903377,-12466802,-2978865,-10947596,-9477586,-14398634,-11428997,-9920187,-10036846,-10133402,-7138338,-18344852,-9772573,-8108695,-10929225,-12224926,-10515328,-11095208,-2646434,-10666077,-7877256,-10869196,-12771126,-5185521,-18364262,-8317749,-12276328,-12870978,-10740656,-6659018,-13890480,-10471881,-7527654,-10241255,-9424145,-6138404,-14887269,-12298231,-9987899,-5141848,-12571087,-13177984,-11603564,-10090458,-8870663,-8735096,-4816880,-4088705,-5665494,-10051566,-11523840,-11334096,-8819556,-10094032,-11179666,-7181072,-9439184,-10902025,-11633253,-12866193,-10320749,-13308832,-11354893,-12151518,-9223873,-12724929,-17360010,-8540203,-10745985,-8990625,-8068459,-11443729,-9754638,-3365319,-14373571,-11974995,-5291128,-3979600,-9744600,-10595877,-13434814,-8665713,-12964890,-13846772,-8605969,-12398985,-7531678,-13093834,-7815696,-12042918,-8735618,-8509344,-10667975,-3526774,-11410992,-6739048,-13727032,-11845678,-7397526,-11042516,-8241630,-7584333,-10821469,-14708941,-2787907,-13686069,-13415965,-10632049,-10521296,-12966549,-9945494,-11040035,-8590781,-11592155,-16006971,-10221759,-8371467,-8044113,-10589228,-9058660,-11411579,-8373306,-9926610,-12877862,-10683761,-9395443,-14308289,-11058654,-9541066,-14080748,-8548257,-10086217,-11869744,-8586250,-2868459,-9694090,-7793556,-7684489,-8322281,-10382489,-12873654,-12862309,-9935105,-11055118,-8155823,-10884881,-9802676,-12111063,-8891585,-16008200,-12126090,-10332576,-4250169,-1931357,-6612558,-11099012,-7217345,-6270387,-5228465,-7376948,-12551637,-8923215,-10264256,-12003853,-10860072,-4402380,-9737932,-6804193,-13747055,-9443896,-10505477,-10399785,-8189777,-11653426,-9212361,-11832555,-13834948,-12171910,-12569020,-2630958,-9846612,-11428396,-5349679,-6915532,-8136688,-12124013,-11295212,1901452,-11439301,-6222051,-8483274,-8204883,-11721673,-9853682,191770,-8858600,-7780637,-11465328,-9571179,-10921991,-12901093,-12062741,-7595061,-11690349,-11446780,-8143158,-12430332,