PI_L2 short int Ingressi[]={
1756,1626,1339,1113,941,795,640,471,280,349,748,1009,1335,1714,2090,2363,2266,2070,1948,1823,1547,1331,1162,1016,863,698,506,349,748,1009,1335,1714,2090,2363,2266,2070,1948,1823,1547,1331,1162,1016,863,698,506,436,371,156,10,-90,113,491,863,1207,
};


PI_L2 int Encoder_Gru_Bias1[]= {
15005816,-5806110,10108321,11073475,-8510854,13896448,12518118,-990795,3322199,6049376,390329,-1544504,1307244,2628968,-2837644,10167395,9691725,21264792,5632393,15306556,334653,-13057239,17544052,8630429,5759504,9808179,696031,16986314,9278350,-529835,13059477,15063990,16104068,-87085,13745154,2710488,-4006809,3425553,-15152044,-872029,689324,21294846,-955825,9915940,7318722,11718917,989888,-3179513,11958543,-4784352,7879865,7139686,8915213,-4526605,-6201129,-4500924,13337229,21399882,14028549,18185222,735575,-2288256,9143334,3060714,3963162,8460408,16221300,983756,-954346,16495191,2010720,8269222,3670475,16874778,17878208,18648946,13693232,25141242,1903414,5587666,709232,15450882,-6692306,14207298,21499044,7230405,7865119,6112392,-14779453,-7396264,8764580,5154559,14749071,-6224267,7579068,9559525,-1740687,6187070,456923,-2838583,-17074426,-17461122,-21366624,-13468573,-16261136,-17293040,-17207038,-18745378,-14645104,-23602026,-16193056,-14397452,-21127960,-14447365,-14469285,-18147000,-8641882,-21618294,-14234778,-22387812,-19513762,-22271526,1023287,-11862610,-21454766,6168034,-10210382,-19196572,-18777102,-15215502,-5158254,-14093785,-13878914,-18592074,-13108794,-768996,-17139630,-13861792,-14212153,-5751124,-19770142,-21097010,-11220044,-19361334,-18000752,-10626383,-15367893,-11616504,-10190956,-8697055,-14612369,-18101190,-7611869,-17015090,-8940121,-13072220,-16546407,-19056070,-24183792,-16907364,-11163532,-13285267,-20140714,-12602882,-14776822,-16823910,-19108578,-10920634,-13588979,-16015543,-4809567,-18363274,-13824192,-14759422,-19673684,-13883646,-18105276,-7642212,-7535599,-20899198,-12381989,-16537915,-15274448,-16980378,-17584956,-20641316,-13175446,-21804372,-3444860,-10260013,-15738923,-21390156,-28778190,-12641825,-10714349,-21260502,-15023633,-16817288,-16213626,-22651394,
};

PI_L2 short int Encoder_Gru_Kernel1[]={
49,3405,138,95,-696,-1708,1274,-310,668,-254,-103,1403,-1833,-3308,1660,-1056,-3200,3294,-4201,-1442,3149,1227,-9977,-3351,721,1171,4141,-3340,471,-1337,-2215,2308,-550,7228,847,-315,-26,-5530,2529,1476,359,-1097,1737,1202,3582,588,-137,821,1989,-5738,1726,-29,723,-3701,3828,-3478,4574,1175,-1601,332,3370,-709,516,2437,2538,2188,-430,7122,2016,1705,2769,-553,-701,-546,-2315,-218,-881,19317,381,1848,3081,2555,2404,1672,-3231,-709,1126,-476,6802,-545,-408,3911,3019,7051,-984,1015,789,1346,-6002,-1300,-11196,-2539,687,-10531,1691,-1428,1944,2130,-873,567,2522,-819,-1727,1875,-1227,-2009,4335,-2864,-6170,973,-437,2994,11098,-5678,154,8073,4217,-1330,-698,741,3015,-3619,1130,-2904,2855,5302,-409,-1057,-1053,2799,-4026,-585,-218,-1984,-2999,-10338,3823,-531,1784,11297,-2246,-3864,1570,8844,-492,1506,-212,-3241,-3850,-1406,1728,-2706,471,1925,-2391,-18222,-1067,4028,1336,5338,-761,-877,-2419,-7451,2755,-3569,-787,267,207,-15318,4609,-1425,-1851,-10148,8890,-3666,528,-4126,-906,7318,-1294,41,-5539,-4299,1751,-2287,-298,4385,-2151,-2381,
};

PI_L2 short int Encoder_Gru_Recurrent_Kernel1[]={
2667,-195,731,3251,-1015,-533,256,-3992,-3717,981,-1457,-2838,-5730,-4533,823,-917,557,294,611,699,-294,-3882,2428,165,692,2532,544,1669,1384,-2854,1460,995,193,662,4962,-617,-2566,302,-4953,-758,817,889,-297,856,10,4809,-2514,-1235,1320,-3419,-1955,-967,834,-2027,-2264,-3697,-431,5816,-1953,2481,547,-466,391,-1208,2184,3390,-1396,-137,-890,2160,-507,-2190,26,1083,436,447,-1509,1975,447,2831,-1835,180,-1611,4328,1678,153,-719,-1306,-3877,539,-866,807,1012,501,1078,158,-4236,-2104,-5835,-1362,-2406,-1837,52,-3116,-1048,-757,357,-896,-881,-1309,-1851,-582,-2506,-590,-1186,-1670,-942,-1297,752,395,586,-1697,-1284,-508,8,563,-2955,-1362,480,-470,572,-2044,-2165,-470,-2623,-801,-716,-865,-664,-2682,642,821,-1036,1028,-1507,-1534,-1699,-2271,-369,-2211,-460,-538,-1273,-2315,-656,1338,597,-775,1548,-2472,-903,-493,187,388,-1274,97,-1508,-2178,-4426,-1021,-725,-954,1142,-1607,-517,119,497,-566,249,-779,-1747,-1710,-1850,-3292,-2705,-1148,-460,-1,-875,-1273,-1028,-298,-487,-2337,-1712,469,-1150,-1098,-936,-1002,
-1406,-1845,-3149,-2230,1641,1436,-3033,-7781,4714,5926,3893,-924,1063,7675,3037,1854,-4468,-1782,-1287,4749,289,-2292,-1373,-272,-3135,-1447,34,-1755,3851,9846,-217,-3600,-567,573,-2125,-216,7711,3071,1004,3481,3910,-1404,-5400,-543,739,319,-3569,15306,210,3896,6707,2864,-3958,2153,-917,2715,-2161,-2108,1200,5641,-1843,1114,-2273,-1433,-2859,797,1816,-3889,722,-2971,-2059,5242,3078,-2300,-3415,-2171,-813,-879,11976,-5460,3496,-1102,-307,-6286,-3663,-2061,5023,2947,-3187,-2093,5262,-1812,-5550,-2362,4664,-259,3602,4082,-5559,5214,736,-937,-1746,-259,1866,-282,-1237,-1194,232,-1552,-516,-168,332,0,-3417,-305,241,-3458,-336,-2932,-556,4530,-247,-87,490,-1129,-88,-3126,-356,-1352,107,-1202,-1537,689,497,82,-2370,-285,-3304,-82,17,-2604,1131,-542,138,1190,1090,-2375,3516,458,-2111,-697,-2282,-430,-2581,-761,-1610,91,-917,-3892,-42,193,-1407,809,4137,-131,-872,596,787,-1964,-172,-1702,522,90,-5213,-678,272,-1746,-1016,-430,1010,-2066,-1907,-320,493,-1120,1532,-2621,3921,-728,-1129,-3698,675,-2502,113,-145,-126,-1432,-2297,461,
740,-1685,-2703,578,-2915,-444,-1550,2309,-1354,-673,-1755,467,-2728,-2269,2525,1898,742,3686,939,-569,-148,-288,2089,294,-545,-277,-1358,-1184,-3343,-2854,-1151,-93,1296,4580,-608,1096,-4484,1357,-5890,-4718,-3181,-1030,-1918,-671,-2214,-662,2314,2971,-996,-2978,4525,-690,6041,-6478,-3197,-339,-2458,-170,733,2166,-1479,-1769,3302,-3408,996,-48,2705,-1619,2364,-496,-2196,920,2964,-521,1566,2629,-1714,1966,-700,-2400,-1164,798,-3854,1241,-2305,1015,3742,-853,-5219,-3397,2175,-678,3535,-1679,2314,2146,-999,-1899,3905,-277,-3546,-2735,-3720,-653,-3477,-451,-805,1400,-240,-1352,-1328,-480,-2119,2450,-3483,-287,-1579,-3052,-482,258,-2408,-4530,-611,-95,-2947,-2374,-4244,-1634,-259,-3250,-4166,-2717,-242,-1474,-2206,-2161,-787,-325,-3731,-1974,-58,-617,-2666,-2102,1354,-1530,-2115,-2209,1452,-1521,2410,-1113,-3305,-1691,-1751,-3526,-2421,-3960,472,-665,-5006,-4297,-1588,-2468,-6454,-573,16,-3347,-324,856,-1148,-1884,100,-4273,178,2636,259,-4999,-717,-1174,-2653,-4898,-3210,-4011,-507,-86,1206,304,-4555,-3588,-1492,-3640,199,-389,-2792,-481,245,211,-865,-2016,
874,1894,3098,4888,3726,179,-652,6130,-5606,683,-5413,2846,2434,-455,1020,-1922,869,1966,-25,-691,2657,4898,-864,2597,2451,-3334,-181,612,-4189,-8227,-4317,-3433,-1140,-1442,-3979,-323,-7603,3086,-1429,1385,-2957,423,-45,-453,1103,2816,2161,-826,-3776,1050,-24,177,269,-2342,6147,2528,596,-4995,1993,-143,-5232,-643,1012,-4432,-3856,-1009,3678,2756,342,-1048,3780,1699,170,1853,-3653,-530,-386,-2046,-7755,-1367,2612,798,-131,-2974,1758,702,-415,3413,-5457,-1411,612,1322,192,3678,1125,-1385,4274,743,-208,5874,-371,608,-3733,1977,1902,-2286,495,921,-565,-3612,1602,2290,-1280,120,-2531,-1381,-621,-4600,-398,-450,-314,-211,578,295,-939,222,666,-2184,-672,-1641,-2077,-680,830,-1264,60,2174,-2280,-1677,1094,1145,-569,-1636,687,-3255,-1946,541,1842,667,356,2052,-800,-610,-1711,1877,-267,-436,-2324,-2348,-1855,-1318,-2586,-678,-482,-2745,839,-2838,-2028,-643,1285,1056,-278,-1730,882,1627,-3452,-794,-362,-2613,-372,-126,1042,-1167,-1407,103,-1102,3074,325,-1213,1817,-1530,92,-1246,-4297,1818,-853,-5290,560,-1639,821,-1728,
-363,-6816,916,1140,3186,4190,1152,2318,-977,-1983,-4060,-1322,-3337,-2216,-4827,1050,3743,654,4690,1358,-2754,1829,-886,3104,-44,127,2686,-639,-634,1460,1433,-216,-61,-5954,-1266,721,448,3302,713,-1034,-233,643,-33,-543,-1799,365,-597,-2576,-3463,-1976,-4669,119,847,-529,-6101,-832,353,1724,209,914,-3341,202,1027,-626,-3540,252,-1442,912,-2879,-1291,-1784,-1461,274,916,644,756,-1168,426,-1736,-3251,-4372,-2395,-4801,-857,1334,1146,-1652,-3094,105,-2634,-3206,-1101,-2297,-5904,733,-2286,-1070,-2179,-1431,852,-936,-9,-1526,2288,-2017,-882,682,-1289,-972,-877,-516,-1674,-2361,1133,-1204,274,-397,1416,154,-2046,-1251,-2173,-572,-595,914,-1167,-878,-447,-477,-414,-2026,-884,-53,377,-175,-826,-637,226,-743,486,-1413,2,-962,-405,510,1457,-251,-1027,-1038,1441,484,-638,-1620,71,374,1091,-545,-1245,-2201,-2090,-4145,-1891,-341,-605,-2579,-2889,-1818,-2901,1649,514,-830,-414,-225,-406,-1972,-2543,1286,1358,-1454,-1604,-221,-805,1156,-1256,666,991,-283,681,-1357,-665,303,-1001,-1802,-200,-1428,-1424,299,178,253,4,
1564,559,-3538,-1570,-44,1257,3404,-1930,1366,-1098,3500,798,1335,-2949,-2751,-1444,2338,1515,-2528,-1368,-1085,-934,1465,-2529,-272,77,2011,-4093,38,454,2746,1386,1135,4324,2387,-1200,843,1261,3114,-2276,980,436,1819,56,-4075,-1709,1213,547,-1521,-309,2741,-542,-517,144,-1010,-1465,621,-1513,1005,344,-2044,2919,379,-94,-785,-546,-1645,1089,-781,1327,-2168,-1440,530,-2333,7833,278,-2290,-33,3155,-466,893,-957,1385,-72,-1669,-1185,-2852,1175,725,994,762,-1932,750,-6257,550,-336,-938,-3968,4997,-3341,2428,2579,-756,3033,-988,531,3015,4314,570,3281,4312,442,845,2060,2925,-3,2593,1627,408,826,-909,2109,1159,-569,721,2394,5170,-1286,3290,1285,-28,4330,1164,1532,3493,342,-354,-458,725,-634,374,522,-2242,-553,1244,1088,623,2305,2093,434,1138,1147,978,493,498,650,356,-1193,-637,446,1019,3646,2619,1470,-2069,1748,1317,-37,2002,1877,-2845,-114,679,1778,4332,-869,573,3212,4836,-1379,-426,1807,-1250,-775,-1426,473,3042,2327,2009,2103,1307,-3264,-1612,-1688,323,-352,1188,3295,2121,497,
-536,4908,-1006,800,4067,444,4353,8522,-4609,-1677,790,2139,5121,-3980,216,1870,4081,-1234,-3522,602,4155,1897,1695,-2319,-261,1884,-218,216,1528,-7723,2098,3594,1738,3910,1019,-3433,-3681,-493,2589,-296,-1266,1006,3838,-469,2209,2252,7086,-3389,-2476,-68,1941,64,-3824,46,5920,1164,2207,-2407,-616,-2703,4730,1757,4137,1553,-1834,1604,1716,-737,1406,-22,4389,4086,1087,2146,339,3509,470,-1126,-4823,3320,837,3365,4118,-176,400,-475,2840,3320,1506,4920,1652,1038,12530,1638,-6101,969,1801,-2077,6394,-2055,138,-96,718,-23,1821,735,685,-199,888,-194,129,1525,1234,-86,1165,-72,-85,-144,1985,190,550,-1061,1060,-1388,-1224,1385,1633,1147,-444,1176,1694,597,508,-474,1142,126,516,215,4656,317,-1320,-1363,2309,1172,-677,-1274,1394,3077,-710,719,-2076,-1130,1812,329,472,1927,-36,1741,-2760,549,1636,2271,694,-130,72,-127,-550,1359,-566,1526,115,-806,1546,181,2419,-2323,474,582,797,-299,-1800,3723,1725,678,-767,3639,1492,-193,782,-903,1652,-1407,-3822,-52,1293,-648,1233,-899,2239,-381,
1644,2373,3747,776,668,-799,708,6322,-2599,3509,-3859,5868,162,-3469,4014,1290,671,-1015,-1397,-2427,2846,244,208,-1765,855,1490,393,2272,-2542,-3809,-1193,1823,3013,12,3032,796,-2204,30,-4517,201,-2418,253,1967,2248,-3190,546,3007,-4172,437,-4296,-245,-1281,1514,402,146,2206,-1413,-1933,288,-3880,1654,-308,665,-2200,974,2413,-556,4078,4084,14,2779,-1103,-4038,-790,-2044,2936,-789,736,-4078,2623,-3295,1645,4705,-611,926,1150,-1440,-3347,-1164,662,3169,1146,4609,3176,173,2366,695,-1909,3514,-861,450,1187,-2107,786,495,-2488,1359,3679,285,-1615,-1407,-501,58,206,-1384,641,1238,184,1492,4966,1813,1367,553,4054,1210,937,606,-310,833,-696,322,-3303,630,-1332,-1231,-675,1647,-806,2378,1454,1063,12,2524,1080,-2751,1255,-451,995,-864,-2423,441,2489,-504,1860,2149,583,2898,1887,88,823,1563,59,-889,-3175,-88,289,2751,1854,-3426,573,-383,-967,1529,43,3288,1039,868,-2372,-776,817,-1260,441,1429,-345,38,-609,-384,2280,1203,2397,-1200,-2999,-1815,479,1164,-813,203,147,-568,-473,
-2317,-2829,-100,-2630,-938,2955,-3473,-6213,87,-78,550,-4379,-25,3783,-1245,300,-1025,-1891,1038,2062,-1952,716,-394,-930,-1283,-112,-2242,-318,848,6514,-653,849,-2616,-4761,-2930,3702,151,3604,2264,-654,7310,-555,-3417,-1301,1668,5,-1083,1579,1223,1119,-2308,18,1947,1316,-4266,2802,-584,1765,-1597,-2186,-3562,-3423,-1129,-2090,946,943,1427,-4278,-742,448,-1184,2874,1664,446,-808,-509,2236,-1189,-15,-1741,-1515,975,-2067,-477,-1228,331,2672,174,-4834,6418,-1163,965,-1876,-3269,3954,703,92,-3,-2611,3632,875,-82,-572,-1811,303,-685,-1454,-75,179,569,-177,2454,-265,1825,-746,1245,-86,-1850,1321,-991,1647,-466,-1078,-1812,1673,-202,-2450,-1155,1175,2167,728,2840,152,-524,1297,-590,-2424,1663,-3152,-730,-183,263,-2099,-308,1093,78,518,-611,2030,1476,-586,1478,-2578,-1173,-1129,230,-1543,-1115,257,-236,-1176,872,593,-391,1376,-874,-2610,-646,532,-287,473,1066,-232,665,-548,-1734,1101,182,-618,-1141,360,183,94,64,-1622,741,656,538,-1500,507,118,883,957,-1508,-629,-444,-1205,-357,-838,-298,
911,-273,-2524,2294,467,2070,-176,-1130,184,-4985,1082,-3,-939,-2832,754,-198,3822,440,135,-452,-601,-7,2353,128,-5,194,3395,-281,632,-3176,475,-1016,-487,363,249,-885,-1456,-2282,1248,-3586,-1327,219,2106,541,-3469,-913,-958,-425,1581,-1474,977,2653,2548,-1148,-2990,-2098,-257,-2712,1167,-3818,3414,2610,-226,1782,-52,-2209,-1773,-452,751,-576,-5030,-5662,1254,895,6276,-64,-2648,2003,-670,-622,-2584,-2256,-477,4069,-421,477,-4298,-3610,4782,-3030,1001,697,-541,-6564,-3143,0,-571,-615,5528,-430,1854,2270,3584,2191,1536,-313,-214,1659,1732,2176,1429,584,426,10,2144,676,-187,2955,571,918,-197,-627,162,565,1057,-261,1092,685,2658,1416,-1640,-193,930,-1439,1239,893,1557,-345,624,3018,792,801,1993,1807,957,1161,1541,-909,-931,-3026,-701,-957,2750,-323,2201,-608,1116,1721,1933,1023,870,-129,2156,885,1914,916,2108,2555,-1702,-1846,342,3088,296,1536,1531,522,1139,1841,-140,328,327,2483,54,-1603,-178,1360,-665,-525,-2287,-2450,1276,4103,-1441,1562,-163,1078,-1137,112,-496,893,
1129,4134,-2554,944,2293,1377,385,-1562,7025,4228,4640,1911,4574,3881,1339,334,-2788,167,-3089,-3112,1533,-1340,736,-1657,-2397,-1447,1337,-3541,143,2132,-5296,485,129,7754,-483,-2497,5545,-7237,1486,2749,-2056,-1372,2532,1542,116,1289,963,8539,1770,217,3656,935,-2062,1832,3558,-1628,178,-1330,-312,2842,4056,109,-2740,2496,1329,-332,2940,1614,4847,-3009,714,3810,2738,-362,-965,424,-1211,3549,4662,290,4396,-2569,-671,1691,-2577,-1202,1356,6072,3852,-1562,5105,-789,-3641,2023,-2734,3222,1830,5378,5209,-2746,1009,1324,-618,410,-2478,-1076,-2823,1875,1346,390,456,349,1642,675,537,1015,287,-125,-2194,-982,155,2791,307,-775,2193,-317,-416,621,489,171,1107,-1062,-265,1058,-1007,-365,936,-2550,-4877,1383,-1741,-691,510,1987,-2532,674,130,1798,2335,563,2446,3699,1111,1092,675,37,0,156,-415,2488,-307,-626,1191,270,-553,1572,1472,1416,-1019,-149,82,-734,775,-11,880,207,911,-276,1636,949,1720,-1303,2365,-121,-182,320,316,671,-2880,2000,20,-24,1863,-2025,866,1356,-99,-729,-97,1158,
962,3215,2361,1267,1986,-3132,-1393,4374,526,-318,589,4692,5085,-2295,2804,1682,-1882,-2956,-1261,-3150,3408,1821,-906,783,954,244,703,1606,-4036,-6321,1613,3240,1464,3423,-1027,454,-1660,-2636,417,287,-4201,-1397,2375,1275,2187,1060,2150,2521,-799,-2744,3313,-145,-842,58,5525,1391,-1021,-691,-648,-2645,4327,-2700,3790,718,1980,-1439,4579,-731,2211,1721,4983,-564,1299,2625,-466,891,2617,1848,-1687,2705,2610,-629,1388,1133,-318,1212,2760,4460,-1806,3038,1813,731,1438,2241,-1863,1422,3922,-1960,5438,-1543,-2274,-1322,-1357,-755,486,1451,-908,-1021,-1631,1693,-177,-1573,338,199,982,-710,-1158,-576,-430,-2102,-728,-876,-57,-2667,-1062,1215,-1791,2954,-2188,-2761,100,-1582,-328,-56,773,-327,2822,-2862,-44,1000,963,1328,2442,1776,-1646,1418,-117,960,879,-847,11,484,1638,-402,-653,416,436,-844,-14,1144,-338,1274,-3591,-161,-391,754,1386,638,-1196,-100,-2070,-2574,1322,-608,-422,-1052,238,-1324,-735,-24,2660,-1273,1036,528,1500,-1263,737,-257,969,110,1027,195,-2072,2990,-943,1529,1900,-1671,-1241,-1503,
-1522,-193,-708,-178,-1009,3185,-3843,2170,-753,95,4006,-3273,1435,-1007,294,1251,-779,386,148,8258,-3616,3108,-3025,545,-3390,-1824,-4314,1709,1672,971,885,-1096,-4399,-113,110,18,-3084,6430,450,-3616,2214,108,-3260,-780,1774,-178,2209,1811,-1576,4807,1480,523,3640,-881,-2900,4471,-3037,-557,3480,-743,-3315,-2997,-311,-3359,-1563,684,773,-5593,-2274,-1286,-2151,1163,2660,-1007,-625,-487,-1009,-2831,1021,-5675,2966,1361,-3501,-3059,-734,2229,850,1827,-2735,-392,-3218,-648,-689,-517,2667,-4920,4462,-4016,-3142,4504,-1361,309,3140,838,1457,102,1566,-12,-591,-1481,3535,1765,-951,264,-1516,2572,1248,-2006,2523,-1979,133,1685,757,1195,-548,-765,-3975,1801,-978,-2506,104,-88,560,-1150,1919,-1583,-1162,1464,805,1803,1085,-701,871,-1980,1680,306,816,-705,169,1442,-1476,-3847,-1434,-110,-1919,-1263,-2078,-545,-109,-1067,-383,1753,-3488,-3470,-715,-1135,-236,-607,556,696,444,927,460,103,232,-125,1381,-3016,-184,149,857,1903,-2950,358,36,-1452,742,-2649,-57,-570,-796,-482,-607,-901,-1867,-1897,-2248,-957,-1707,663,
-1326,-3423,3515,-2232,-1980,1450,233,-3472,-2509,48,720,-1494,984,-1878,4521,-936,-3178,2365,479,1513,-1893,646,400,-318,62,269,-853,1181,-1920,-235,1530,1977,441,-4250,3532,1765,160,5339,-1901,-1150,999,648,-896,-1739,-4252,-956,3369,-2676,1441,1404,-3265,-426,860,-669,686,3347,-1410,1115,1852,778,-3375,-1931,1453,-6790,3704,831,124,-812,1446,552,-2543,-156,1144,-472,-1566,201,112,-1459,-2793,1018,-4259,1703,-1944,-779,2229,51,792,-3626,-6691,4497,1310,334,-1340,-2401,5488,-258,12,-2013,-7732,4208,-1165,-441,-2450,221,-395,3216,-323,-214,-396,-2489,-752,-28,-3132,-588,-1528,1310,-1866,-3670,1529,900,-3776,-3191,-1302,328,-341,-263,-2153,-1008,-1688,-854,-1448,-1662,-2149,-1993,-642,-1818,-3561,-499,-2883,-1878,991,-874,-3396,1367,-2719,32,-128,-2240,-1307,54,-892,2474,-1864,-925,-2329,-2263,-201,-4288,1932,-2207,-4192,69,263,-878,690,-586,-1158,-2407,1197,-377,-4112,-1065,-957,144,-7228,614,6,-1017,-1652,-1009,-1940,-727,-1457,119,-261,-2377,-462,61,-1790,-237,-1406,-2588,781,-269,-1814,-84,-837,-2748,-659,594,
1583,1569,-373,4027,3308,-3360,362,-837,2537,-777,2076,2358,-2260,-451,1132,4674,913,1905,1152,-2550,-1475,-3884,-1242,3437,-878,1208,5295,977,-1272,-8520,-1628,-291,4477,-2463,3581,-664,2019,-2066,487,-4499,-1761,-1633,1551,1392,-4091,2004,-351,5228,4160,3718,194,466,857,-2338,-2675,-4171,183,-3506,2308,-526,4424,4009,-6488,-2038,305,-1118,-3337,-113,4263,-2650,-2000,-3709,-1542,1518,-2239,-2199,1310,-424,2915,-2007,3023,3375,-1236,-1961,-406,-99,1453,-1259,3913,-3890,5767,-639,-1617,-4664,-583,-812,-772,-1104,2196,2133,-808,-264,-958,58,-2113,2581,760,1603,-881,1825,-216,3473,-68,-224,-1648,-1501,2537,-1217,-1018,-940,3883,-3166,1237,2418,-934,-179,-1146,2686,607,-277,-3012,-608,-898,-2682,2062,-916,-134,1708,-2097,38,256,1348,2629,3200,-204,627,-1536,900,-478,-2719,-433,-1178,490,-299,131,1228,2352,6473,3269,3226,1001,3884,-152,-1731,338,-250,527,754,-349,-1326,905,-1374,337,904,-154,1761,-945,-2857,-1376,-704,-61,117,-3089,328,1108,-491,-2304,-784,-748,-2585,480,441,128,693,89,-1021,-2689,1215,-1309,-2646,
-1692,-2478,4205,-4632,-1921,2793,-1876,-860,-3343,-1369,-2830,431,-3568,1506,957,-2917,6707,2539,1226,2710,649,2867,1032,38,961,-929,-958,-1637,-431,159,1080,-111,-3700,-8162,-1396,-598,-900,5708,-183,-1561,1035,318,481,-378,-5005,-2854,2037,-1476,1714,1295,-7080,-2226,4207,-1680,-3396,4720,-1481,2108,467,637,-4225,-1860,-1501,-4581,394,-871,-10,84,1868,11,-1762,61,-2886,-316,-1821,-205,-2826,-3368,312,-1287,-6883,-2010,1354,-1909,2331,2437,1894,-5891,-3091,-2509,-1504,2341,159,-1276,2623,-2680,1925,-5247,2190,1602,155,-1825,927,756,-1694,-2958,661,-2019,-1520,685,-1196,-338,-2526,864,-3839,-1799,-693,-267,2701,-3357,-2481,-420,1051,-1428,2690,-494,-2724,97,-34,-2032,-749,165,-1517,-2241,-1406,-2299,-1592,1069,-1573,1227,1585,-1575,-1208,-1321,-660,1046,412,-1954,-2114,1062,-1434,-165,-394,-735,762,-1609,-454,-2447,1185,-3671,-1526,-1410,1706,-2796,-1462,-2019,-3222,-1447,1428,-133,-1230,344,1252,-839,748,-900,1248,-2085,-165,987,-443,1061,-475,1071,595,-777,258,1094,-73,805,37,-2349,-537,773,-830,-998,-2665,1299,-1025,-518,
3364,869,-1254,3156,-1344,-289,-456,-3007,-4329,-2389,-8609,1158,-2141,-3299,384,-1060,5876,1858,1721,-3556,-274,-1412,-262,3388,1251,660,-375,3831,1303,-1194,442,-3619,-1553,1832,1359,-442,-2898,822,67,-4392,355,584,-3393,330,-4299,683,-3878,-2607,-2698,-6774,-1400,3839,4998,-2846,-1787,-2249,563,1389,-2137,1074,-1705,-769,989,-1463,-1055,1838,-1774,2069,57,-684,-263,-1222,-426,2710,4131,2553,-397,-2463,-5775,341,-3353,-2599,-1749,2952,2500,3898,-3343,-2166,1081,-2160,-1621,-1815,1637,-4146,461,1115,-2554,-2404,4146,-256,-1366,-1140,-1582,2753,-2072,3286,267,1082,1779,9,-2818,-1467,-73,1445,1323,-2126,256,3598,2178,671,-1131,-3997,741,226,2,-230,524,-960,-860,-268,344,-1067,-957,-393,-1998,-508,-210,2012,-920,3685,-1297,-208,595,822,-1657,-2803,-918,3710,1624,76,1766,-294,1122,-361,3321,-1409,-2102,2766,486,2196,-815,-32,238,814,528,-1388,-1709,1240,-1244,-1602,-1656,-432,1335,-1962,-1627,2224,-869,-101,3331,-1528,-1320,346,2161,-1750,-1071,-1059,1927,-2312,-1559,-1645,2508,-503,-2681,-499,-1173,-1175,70,-201,1076,-1314,
7768,293,-1047,2235,-61,-1780,-576,-336,857,-2969,627,2515,2322,-618,-3168,731,-254,-454,-1000,323,-178,1931,4,-670,-1133,-298,1282,-1345,748,323,163,-2057,-1400,-58,503,-875,-991,3251,3790,-609,42,-2564,1582,-210,-2242,-1302,1426,600,-2698,-652,97,3487,2388,1740,-132,2870,-407,-3981,668,-2483,1818,1856,201,-1185,-218,-4165,-975,668,-2011,-240,-736,-2201,1097,2081,2622,-464,633,-1057,-562,-2424,96,917,410,-4402,-1308,934,1412,197,4353,966,-1048,-147,-4101,-1141,-5814,859,135,-2920,4228,-5014,3688,-7,1069,7115,-2763,3629,543,2963,534,3406,-732,-1705,2927,-1952,2157,-796,999,4204,-663,878,1669,-1337,2590,3094,184,4056,880,1226,357,694,1517,-940,903,1398,471,965,-1625,575,481,1982,540,1059,671,-728,1377,2319,-3297,3459,5686,1131,-914,708,3904,-210,-607,516,1083,1397,1769,2203,2684,3147,987,255,2727,1130,1096,-57,-2481,1253,4579,80,550,-160,3485,104,-1513,-542,-112,373,1285,677,-307,1617,2742,4516,-67,186,-2438,517,1515,4306,2512,836,2080,573,-920,-1153,-242,2023,
-5326,3007,-2704,-1524,2232,1039,-1346,-2427,4893,2019,8429,-4980,2217,2650,2618,3783,-5134,1658,-808,2429,-1618,-3441,533,-544,-2729,-4124,1059,-226,2059,5308,165,1670,3587,4841,2643,2360,3650,-1750,2710,2805,2579,-740,-3870,-2557,3472,-253,2298,9348,3142,5315,6337,-4402,-4029,2695,2222,-1452,-2012,-5969,-934,1173,1479,276,782,2325,439,2140,-204,-2367,4873,89,-968,1587,3145,-1230,-787,1175,-3573,236,7781,330,4618,-3916,-1694,1087,-2312,656,4575,3421,1170,1730,3778,1404,275,1285,4743,1099,-2256,6963,-602,44,3335,508,459,-2774,-1758,-2768,1251,-1071,334,200,3873,-2220,1207,2643,1181,3632,-2076,-1066,670,1626,-3,1030,890,-1507,-1340,-1935,3069,-505,551,1635,-1770,783,3397,664,273,-2850,875,-2199,373,292,1004,852,-1130,-1286,1464,1512,3300,-2282,-1945,595,1436,-722,-2269,1441,1466,1713,-626,-2519,-1312,2399,3407,454,-1335,-847,-1277,994,947,-1486,1921,465,-1125,-605,857,-750,-656,-2893,2390,5690,-917,1354,-1170,-2636,1341,-255,-1841,-3151,694,1207,-56,2011,1899,634,1771,1490,857,-1205,2596,2992,2303,1065,
903,2262,-5397,4019,1302,-399,2531,885,1932,2520,1635,277,2507,-4512,2661,1954,5364,665,2342,-228,102,-1579,166,2431,-3385,-1580,965,1023,-543,-2350,-5354,-250,2507,5380,1593,-1173,672,2821,-245,-761,-3492,1580,1682,1088,-1536,2375,-873,-1360,-471,431,5269,1345,864,799,-20,-3026,-769,-885,2290,4753,423,5131,-1687,-553,-2529,2574,787,-453,-389,248,-224,548,1780,-858,1899,2703,-1729,804,3590,-1967,3323,1996,-303,-1297,-2593,-3450,-239,3170,-524,-5149,1200,-1950,4928,1193,-114,2345,-1921,-1260,4057,-277,-4689,-1550,-507,1542,1424,-237,-392,-1587,-258,385,339,-1154,-3910,2025,1682,-885,-1924,1658,1312,-2500,624,276,1165,3479,-3315,-1485,-2758,-1156,3706,15,-2151,1094,-1395,-633,-1885,-1940,-1910,990,312,22,-475,821,1887,1668,2911,-3476,-3183,-1874,-969,-2335,-1602,-2776,1044,-1042,-1314,-1944,352,3177,1030,562,-111,-386,1542,-38,-502,-1824,566,148,-2919,-1483,727,-1038,1275,-1141,358,950,-1108,-1477,608,-287,-919,2114,-2891,-945,-958,735,-1724,-1726,-3096,-2111,402,-728,-1708,-1613,-2431,-2607,-3548,-3988,-2409,-2388,
140,-1228,-900,1807,284,27,-1978,-3802,-506,1563,872,432,-1210,146,-5420,-95,6831,-329,4004,-4621,3253,-3142,573,3515,3248,2943,-1473,-2654,1145,51,657,-2463,1128,1674,-926,1101,2525,-1910,2860,979,576,-1829,183,1075,-450,2531,-4588,-3576,-2046,2378,1151,628,1638,1578,-3485,-4551,2513,86,-3836,-993,-2491,1347,-2546,3941,-3932,-442,-2354,3053,-1957,216,-2619,-1234,-1125,1249,1276,190,-993,-560,-979,347,2262,-6517,-3735,2045,-1639,-262,-2823,-943,3108,-2593,-1859,1467,3740,-644,-299,1479,-48,1769,2504,-1110,-578,1897,1812,577,-310,-772,-1034,-1332,823,2516,-1734,-836,-690,-1256,2030,-765,2181,-79,-2241,2027,1849,-298,607,-135,2360,162,-675,1155,1523,794,53,1193,884,-892,-18,694,1582,2134,2167,894,-839,2042,-1302,1097,1708,-1195,-1759,1526,229,-2185,338,2056,1175,-12,2848,2005,-680,-549,190,410,517,-2862,2684,2280,1286,-1283,1433,-1274,-1803,188,908,1950,-1852,-2241,4591,651,-1169,1753,875,-1187,-1800,3012,273,-3824,964,4712,31,913,1318,-1062,1684,3107,-879,1929,1572,-444,-483,1322,2921,602,
-422,-7058,-2705,-508,1487,3911,26,-640,220,-831,1112,-4058,-5583,71,1746,147,-413,2508,-6,1086,402,-1172,3258,-622,-2285,777,654,-185,389,6403,807,-849,4030,5790,-309,-46,-2144,990,1920,-3050,-887,1229,-732,-537,-1630,-499,-1669,3560,-592,1818,250,-881,1416,1771,-6849,-3036,-2896,3046,1502,3120,-593,-711,2123,-69,-4124,1335,258,-885,-4468,2027,-6732,-1209,4445,-365,5701,740,-1811,1388,724,-2153,-776,-1638,-4837,1996,391,1103,-2008,-559,1164,449,-5360,144,-1829,-10502,-118,-365,-4118,868,-4530,276,1523,930,1004,-2047,-1711,345,142,-276,-1118,824,309,-1920,-2178,1124,-1156,1581,-827,2198,-1468,-857,-2569,-2493,1145,-3314,-370,-81,1130,-1050,293,-648,-935,1405,-555,99,1261,-338,-1365,-660,-3337,-1589,636,1099,-2672,11,-1729,-60,-463,-1960,-1384,-824,-1614,-1015,-425,-947,-1105,-2031,-95,-2212,-1075,-280,15,-1986,-1297,-35,-2187,-1374,-978,-2538,281,127,-252,61,25,677,-7,-2270,-1530,1444,-1303,-3664,-1001,-506,22,345,-924,-3463,-65,-4,-1141,-1551,-1209,-3354,875,-2054,145,191,173,-1416,-240,1518,
-2244,2652,-660,-1813,3623,-2455,-663,2983,1050,3617,4851,2294,6769,5082,3479,1033,-520,-5459,-3880,-337,4900,1227,-2001,-3284,-1865,-288,-1262,-3053,-29,-3449,-2640,292,-1567,-357,-2440,-959,2666,-2477,2668,2364,940,-1095,107,-1333,3462,-747,1982,2113,2045,5560,3113,-1943,-5647,1701,5611,2363,566,-3018,-831,-255,-1319,-967,-1018,-1056,-764,627,1530,4808,-261,133,5577,4899,-58,686,-2276,260,2621,-323,101,81,5429,-74,1721,340,-2621,-5054,-534,1937,-2259,708,2685,2103,3968,6630,-528,-705,4226,3328,2581,1125,3345,-1135,2453,590,2817,-416,28,203,-619,-965,1920,122,1561,-2216,-141,-989,-2465,-670,268,-781,-1296,3948,-321,1795,-1440,939,218,143,-2558,879,633,-356,411,517,-159,-411,2393,408,3805,-1023,166,-3238,848,1490,-743,997,1276,-1155,126,-2662,-1656,534,1357,-400,-662,1326,126,-1729,-438,-57,-348,-59,-1047,1972,561,3766,525,-523,231,-549,1814,318,256,2419,-1265,-1372,-3054,6157,1110,1659,-339,316,9,610,-2705,-65,-337,14,1363,-599,-1715,-851,366,-290,1390,1984,-6,-523,-19,780,
3665,-1106,-1157,7572,-191,-679,-53,3499,702,343,-572,1112,3874,434,-1429,-1104,-1402,-2919,-3075,-63,1835,2194,-994,4949,691,-1311,-2307,-1557,-2605,937,-3464,-2896,1425,1624,842,1728,845,-246,1507,-1355,-1577,-748,-172,206,-3437,4200,2587,-278,-2762,-603,1651,2492,-785,1879,-2543,3268,-838,-2715,606,238,-3916,74,1071,-2201,-1436,-189,59,1236,-761,-371,-1241,2380,1045,227,13,-761,-1265,-3369,376,-3409,3186,-1206,1418,-2553,-673,-1583,-1521,3510,-2277,-1046,552,-82,1307,-2123,1730,-264,4064,-1675,8163,3502,2857,1207,562,296,1465,1453,-364,4817,148,879,2131,2881,1724,-1093,418,2358,3845,-1582,-2797,5720,1344,1379,2948,1669,-1238,1630,73,-290,555,2477,1245,-218,2266,4402,3133,1879,-1338,1787,-1346,-3471,1797,868,-355,-1314,2268,1316,1040,2030,933,834,1396,2896,2648,1770,-1915,-289,-692,-103,-2607,374,3135,-1069,117,-674,1127,-666,658,-237,2697,2012,5094,269,118,1731,465,1933,20,1138,2124,-1031,4118,5147,-3826,1661,2666,7506,-1271,1716,5056,1313,-1717,2472,-705,1291,2918,-874,2133,-300,971,-134,
-1509,-980,-1311,-1574,201,-1731,2763,-4368,8599,2528,536,1439,-2052,5968,-582,2087,-2095,-853,-481,-518,-4157,-3174,-1277,-192,1939,2352,1719,-1877,4388,6056,2427,956,2384,-3804,1841,-480,6857,-5551,1970,3245,577,-797,925,459,-275,421,1989,-3145,2730,3981,-1066,-597,-1765,7050,-20,-1682,4455,-685,207,-2187,2520,4216,-5827,6098,48,-2416,-2746,7954,-231,-2505,2652,2467,-4072,-3902,-1820,-4293,253,176,8486,1524,-1854,3001,3113,-782,863,-1986,-139,-1682,4119,2490,90,50,-6788,726,-561,4125,-4742,4712,-336,242,1159,101,1317,1192,752,-750,2700,5235,2805,925,-394,785,2399,1264,1524,-128,156,354,121,3960,2374,144,-1322,-621,2152,-381,2608,1171,2178,426,-976,-5,988,1141,681,693,368,1173,813,-1924,1666,1266,1832,1318,-149,-287,-400,147,-259,-441,2427,1480,-331,1060,-79,4893,813,3592,342,894,3406,1702,1197,1899,1870,1609,2531,2805,625,-164,2548,65,-1413,-1356,2049,-875,738,-2263,2296,1132,1688,1885,1498,3274,687,1240,60,1362,1670,632,-3123,1162,2915,1435,-1478,2419,1524,-1459,1629,1249,
-1339,5383,786,-2335,3844,-1493,133,-199,2037,2524,5420,1098,6366,3976,521,964,-3522,-3174,-1834,-1002,2608,1572,1780,-7612,-1343,-2569,205,-3459,-867,1929,-3754,3771,63,-1688,-3150,-1126,2308,-3267,3997,5162,1114,349,1461,-3883,2603,-2128,2350,2621,1448,6950,1858,-1748,-4695,4598,5771,4682,-1708,-1404,-2402,101,1737,661,-3183,753,1274,-1609,3181,-1810,2567,2062,5470,5251,206,-1194,-6589,-2098,1188,3960,2929,2864,1825,859,4273,-1132,-3003,-1609,2434,1518,-109,1440,3385,3781,1421,6380,-902,-1809,4054,1959,719,339,328,-322,936,-1233,2210,-1374,-1452,128,-1196,876,-591,711,786,-538,498,-3538,212,-1626,-1983,1412,676,1626,-421,1041,-903,-60,595,604,-1811,2280,295,512,-1360,492,-1782,53,596,-1624,1172,-1297,834,-1379,615,2726,635,-2427,356,1224,332,-1433,-1371,2308,199,523,-1559,902,1213,-81,1364,1053,1092,1159,1643,3113,1143,2633,1188,-1373,-136,-1840,1491,-7,2407,729,786,-271,-296,3567,820,3070,-79,-1240,-511,-922,-2024,-509,-817,83,1838,-836,-558,1071,2170,-273,1491,1773,55,450,-244,1437,
787,5012,-470,-481,2072,109,1287,2429,432,-141,3393,3715,4575,-2545,399,-205,-1289,-1221,-1824,-337,717,1494,899,-3631,-1360,-465,108,-1613,-193,-6377,-2393,1424,-981,547,-970,-2382,416,-1759,-2160,2813,-2769,651,1845,569,-1387,-327,4384,1332,2453,5525,3453,-677,-5203,925,6468,338,1068,-3309,806,-3351,5233,2792,-1261,875,1177,155,1749,-882,2449,-1547,5331,921,-1792,-934,-1742,-1182,-636,1105,-1378,2468,-568,2587,5324,512,-3185,-110,64,740,130,-946,2084,2708,2713,5836,-2799,-1165,5450,-1305,7481,-727,847,3178,136,-668,1268,291,-927,-775,-933,1926,-1224,-451,2039,-1764,-1012,-1360,544,682,-1358,1104,1499,3169,771,-1219,-2165,388,1898,1415,-1719,-1594,1208,711,-380,-6,716,1182,1203,-1484,2335,-112,-2594,-94,78,-229,400,-958,921,288,-1186,-888,-1318,404,538,88,-790,-863,184,256,1836,2351,1903,920,-212,657,-304,2117,708,63,-1622,-964,1403,647,-986,1173,2403,-109,-1684,-478,265,2573,-727,365,1190,249,-723,-217,-898,-451,451,360,-603,-1510,-310,1242,2530,225,318,567,-792,-733,
-1579,-1474,590,2434,-1519,132,-2629,-191,-1625,-480,-5867,4215,-628,-2481,-2207,-613,3198,-2397,3823,-1215,-1229,-318,-4317,5131,-533,-1005,-2848,3393,670,-3516,1493,3007,-1967,-1281,829,-1294,-1941,1359,-1719,-2513,186,141,-2829,2131,-207,-508,-2906,-866,-2737,-1775,3966,373,3025,-3521,66,-1339,2875,2417,-1392,-377,-3928,-1647,-3312,926,-2923,761,149,3425,-3559,-1310,-461,891,-1832,2598,937,970,-390,-5150,-532,-896,2909,-220,-1594,1532,-2122,2603,-777,3665,-4477,-2276,-2156,971,2825,-5192,2590,-391,477,-2853,-2515,609,-3542,872,-1267,-360,-1166,-2826,-877,-1331,488,-2937,978,2752,3287,810,595,-2445,997,-5423,568,3440,-67,8,815,-2406,1509,-1293,486,-510,543,1547,2434,1588,821,1421,-992,-32,1702,1942,1021,2658,-172,476,-2441,554,1698,-2927,-1211,849,75,1690,-1249,-403,-754,-283,701,2136,832,-882,-2469,-536,1233,-2172,-721,361,2086,-3964,409,1240,1569,1308,788,266,1851,-2214,-2089,-383,-164,174,644,-3467,231,-389,2391,-2113,-1084,2345,584,314,2488,276,2185,1164,-1125,-85,-3026,99,1215,2790,3060,-140,
-313,-4015,-5651,2095,193,-1339,-1002,1034,982,950,2146,522,3657,466,1661,3809,1944,788,916,3469,-446,-806,-2015,3648,-907,1345,-1196,-1487,10424,2653,1383,-1843,-2351,7254,-1047,-1737,3997,-1623,2078,-2024,-806,559,-1888,107,-4518,4035,-2424,339,-740,1241,808,4723,394,386,-457,-2446,1945,-1789,-2854,3262,-384,1128,174,281,-936,3272,469,172,438,2053,-612,1004,6812,-77,3219,2940,-1748,761,5076,-2463,2662,-1608,-2077,4200,-2644,-3109,-3385,2883,3438,-4629,895,-2766,-740,-4008,7,911,-498,1593,4130,622,-1166,-315,575,5109,1903,-258,-1558,1786,1158,220,-178,-1677,-1157,178,2168,205,2449,598,2268,1514,1136,2180,374,2772,512,810,-1609,2515,1741,448,359,815,1505,1082,363,-549,65,-367,951,4349,90,-246,102,-1661,1078,-319,-1078,278,-41,-1681,405,1167,2082,1940,134,-544,994,701,-924,-204,-144,-1049,3125,-725,2234,-589,2378,1198,-1936,939,-346,-805,334,-551,1515,1767,-1459,671,1091,-499,-1586,1856,879,-3348,141,267,-1275,-173,-1021,2012,2232,856,-1184,-146,-2254,-1373,441,-926,60,1327,
703,1410,-1690,566,-639,-3847,-857,-1295,1377,2084,35,-858,1009,1842,-298,-1391,-917,151,-631,183,-1798,2065,-1734,535,-151,264,-1401,-281,972,3362,2231,-755,-4208,3134,-2194,50,1434,-2594,1239,-1641,1044,-421,1322,1578,4044,-374,-1311,4176,-3895,-1852,3967,1160,-4711,729,359,-1106,502,-1592,-4134,-548,-382,-449,211,2217,2746,-1675,-2829,2749,219,-1942,509,3203,3467,-325,-353,-1143,-407,2087,5731,-1124,5513,-431,-1573,1055,-629,-952,-1066,935,1028,-289,2042,-3688,404,-978,-40,2275,-1427,3417,3938,-3204,508,-61,4616,1506,-1225,1037,451,242,761,1336,3,1893,2237,-1988,1091,-428,869,1238,1820,882,-1279,3813,-728,508,634,305,-1103,-1373,979,2735,538,1909,-1787,753,1531,1481,1194,1761,1368,1434,1205,1170,-21,2163,857,-143,230,935,3522,-125,2418,-761,1772,-919,174,-2090,941,2980,573,158,-33,1534,98,1549,2640,3174,-189,3187,-2077,289,-1077,-1390,259,286,1897,471,613,193,-363,527,2875,2417,1082,226,2761,1607,419,425,1041,1849,1248,3290,788,778,1957,472,-468,-530,-338,-553,
-1523,6894,-285,-3322,2423,-3007,1557,910,2428,1901,7340,439,5825,-1094,2946,510,-2243,-2979,-4343,1188,4074,-2051,1093,-4846,-407,-2423,337,-2162,386,-2897,-2618,4569,-1245,3410,914,-552,1546,-2176,2338,1932,-297,-1907,380,-459,1467,-3296,954,5650,1304,2293,4139,-1317,-3119,-193,8198,2154,-3134,322,-3443,-912,1532,-914,-2366,126,2842,-2250,609,-2789,2303,2001,701,3624,-1196,-1012,-4454,-2543,971,239,2795,1863,4496,691,2988,-3906,-3883,-760,3869,3414,-248,3050,3999,2260,4070,6817,-780,-1097,4895,1027,1739,-861,1775,-24,1085,-562,1450,-609,-191,-61,712,-296,662,416,2810,311,-194,-45,1035,1860,-463,371,1738,1957,-541,-2818,-2254,-1460,1107,1270,-1011,131,360,-1151,428,127,723,-674,1827,-1994,1585,1499,-551,1050,713,518,412,-657,1488,1732,1864,123,295,1093,-2736,1321,-671,2258,406,-1113,-1330,2105,2338,2229,-724,2529,-2117,2726,849,755,-414,69,-984,1562,-1242,1466,989,-1743,174,778,-1176,2627,1048,-505,890,502,-3148,-684,962,1445,91,-50,1457,1390,897,-86,1588,2647,280,1855,1431,692,
997,4437,4466,295,3003,-1160,4769,4020,3367,678,-2619,1498,-257,-1834,49,-362,-1545,845,477,-35,1898,2429,1423,-1281,-1163,-1265,2551,172,-3946,-8630,-457,1277,983,-372,996,-1050,-2637,-1175,1249,-2304,-4114,-352,4595,1801,3104,-238,2349,-3521,-307,-2840,-5744,-1386,-222,16,1383,-3112,-1292,2615,712,2994,3303,3735,5144,286,2521,-1020,-2553,-831,-1462,-2612,-1037,3097,-2362,1191,-1093,-340,1672,2263,-1624,-3571,1498,5088,3963,-407,313,-241,43,1246,3139,-3465,-3241,1394,-5517,2755,-1769,3816,-1997,-233,-102,-1100,-554,1093,-2752,-1678,981,-2156,-1117,995,-1090,-1193,1678,260,775,-2199,-863,1413,-1258,1317,-1538,-776,-1323,-1684,38,551,-2067,-325,216,1524,-5588,925,-312,-724,-374,1365,1516,2389,-1854,-2919,4661,-4279,-1889,-1129,390,673,44,-1831,-860,3775,-483,-1978,1276,1827,750,373,-1600,-1712,59,827,3469,2410,-1466,3151,-5398,-3629,-1734,2029,1461,-2838,282,-1338,197,447,-119,1167,2077,-2312,164,1706,3179,858,935,2071,858,2693,118,-892,-19,-1402,645,-3058,-2037,-3349,2642,-372,631,626,1350,-3971,1548,-364,
458,6458,-1449,-585,-465,-1519,1452,1793,-338,-1350,3852,2434,2356,300,2221,528,-980,-1103,-1892,-3995,882,-2540,2372,-1910,1453,1920,3150,-1649,2416,-641,2800,2652,-1182,4209,-299,-2918,2381,-2738,188,-1475,-1207,979,1674,792,-651,-190,859,-1505,3176,-7,-57,-1049,-3319,2801,5105,-2627,3266,-567,3171,-1173,2274,2744,-2348,2855,380,1326,245,2346,2759,1436,4682,-806,-847,-125,-3,-1626,-848,4706,581,3410,-80,3730,2026,676,-4028,-2966,-1495,1245,4982,-2123,697,1417,3335,4423,-724,-1592,-1610,1741,1844,-3178,198,517,800,-1924,1289,1832,-1139,1070,-146,1025,1098,998,122,107,1250,1473,692,1468,924,2768,514,-2442,1403,2123,115,2272,795,2856,698,25,1926,231,704,784,297,258,1236,2136,2723,1363,-2065,-2283,1038,1504,1209,-2775,1162,1959,-362,-796,148,286,-435,390,-81,375,644,2372,-309,-912,1244,610,-386,650,-155,2268,1654,-2151,357,910,-243,-249,908,265,545,-1414,439,3024,1657,-531,-438,-855,682,-127,-1565,-2521,-601,90,683,2461,-1152,-1323,1847,402,-305,1307,662,930,912,342,
-575,-230,3604,2627,-1996,-1633,616,-2229,-2867,-5411,1703,5112,-890,-3965,-924,492,3267,408,3563,-8412,-1588,-1566,-829,5012,2110,3355,3671,1998,-5240,-4123,1923,-83,-2336,-5784,2505,-1883,-948,1929,839,-3039,-4720,419,2637,-100,-3622,-1221,3972,-6087,-290,4624,-4581,-3736,5414,-2306,-2824,3636,1690,-1644,1115,-3288,1259,235,-3825,-839,-585,-2160,-874,-607,1443,726,200,-6123,-4776,1183,60,-2275,-2370,-669,-5315,-1991,-495,1034,-417,-224,1490,1197,-1063,-1441,3326,-1612,-1368,785,-5053,-2668,-116,-1872,3252,-7938,2021,-958,-2142,-696,-774,779,-1513,-730,1899,3080,224,756,553,117,0,-592,253,-1043,553,-882,-2094,177,-1923,1918,-863,1232,1121,-439,-1439,1204,-4888,-415,-752,-794,-597,-1531,-1344,-1637,240,3562,-2132,-928,-3000,1127,-1720,3709,1104,167,1024,1301,-306,1,2385,392,-428,2538,2080,-1464,-658,-327,-1443,-28,-1437,-1007,4471,1364,1460,-1530,529,-81,212,1030,-1464,-1114,-4075,-282,465,1023,268,-500,-1278,-1217,2560,1935,630,-259,3863,3407,-1042,2472,210,2503,1575,4388,1209,2829,-2265,1951,-1509,3452,2025,-728,
41,-5695,-749,-77,204,4100,-2317,1272,1661,-3499,-1277,-904,-58,3366,-5206,-1115,1042,-454,459,187,-2320,2598,-4640,509,-1197,-1323,-1703,-868,1208,5990,2296,-6562,-3375,-1320,-1075,2028,3974,2684,604,-2280,-193,-495,-5998,43,-715,1463,-877,3452,-1242,869,-1093,1456,2683,2561,-6840,-1462,-3334,-161,-12,1693,-5934,-3570,548,-1675,-962,1531,2067,550,-2915,1344,-419,-4350,2496,300,-331,800,-1712,-1606,881,-3602,-2155,-5687,-5527,-1460,-242,838,-891,-846,-408,20,-2679,-3336,-5497,-4167,123,-3653,-177,2358,-3938,561,2166,2631,-2483,3944,-1395,-2231,1501,-680,321,-630,1218,-1332,338,-668,-1199,-68,1550,1210,-677,-2767,-978,71,-163,-1529,2168,-194,411,401,424,-2408,-1414,-575,1826,558,1740,216,716,-2776,-2116,1022,2194,-465,-3217,-1506,196,1954,-1177,-2237,-1564,675,-1113,-282,-21,-1020,-2499,-925,149,-1309,-1680,-3632,-553,1053,-2117,353,-1665,-3777,-2529,-1443,-789,1092,-1443,1604,-639,2943,-3800,200,-192,-3408,-2239,-1328,706,-806,-173,-2135,-53,-2960,-1379,-435,-1908,-1266,-126,-1020,-1147,-106,-743,-1431,-273,222,-836,699,
221,5605,-3871,-2365,718,-4012,-848,476,1383,3248,9000,3177,3758,1135,7738,1147,-623,888,-5368,-360,1211,-793,2033,-4744,-2005,-158,541,-1480,785,-1329,-39,2211,-1402,6663,1105,-3281,1486,-4181,1329,957,-573,274,2459,-38,-1258,-2257,-202,57,2897,2518,3158,1707,-2089,1689,4731,1216,-1916,-1714,1953,-2036,4194,1416,410,1907,1425,-235,385,-1455,3253,-714,1033,825,2370,-2395,-2049,659,-923,2250,1380,1729,2778,3018,2101,-2715,-2375,-664,823,3411,1353,895,4557,648,3841,3786,154,-120,2853,1227,1998,-452,651,-1247,-634,-1805,1362,624,663,1922,-622,1220,3096,-917,1424,194,-568,482,-404,1666,-374,975,1173,2179,-992,941,-3105,-241,2434,1744,-245,68,55,2151,-397,-1186,1638,314,199,854,2150,374,2711,97,1799,871,465,998,1367,1044,516,-1170,-608,-359,28,1770,-521,-387,1090,2263,42,-1663,275,1177,-1193,-561,27,2156,3691,397,2614,2078,-1343,-426,-17,578,781,-1060,-162,1126,242,3593,1394,3663,6,1381,-1237,-485,1063,-712,708,-520,-881,-1084,1469,781,354,-448,1176,1997,-1457,-212,
1627,45,-1373,-1710,-3012,-4486,-2286,-3043,1954,2138,-1104,471,1221,1642,-638,-915,1249,561,-1582,-3997,2286,-3796,-418,-340,-219,1707,1189,1869,-577,3226,-692,-1198,-860,4884,2506,-2064,2968,-2087,-1567,-1160,-2146,1055,1683,2150,166,1487,-2835,3862,-53,-2016,3618,599,735,-596,2180,-1071,-387,141,-4840,7527,2684,-254,-2696,5193,2922,-644,-976,5452,1550,1243,2658,677,2723,-613,-2831,3349,-1696,361,6453,-682,3228,-1852,2222,302,717,-97,503,904,-616,-3393,3361,-1209,-4296,577,1171,579,937,7876,-942,-2947,-642,-4630,2438,126,667,-745,-1102,-3209,1358,-183,-1716,2380,417,-4175,604,-2031,2990,-1016,2406,-936,195,-228,807,-1672,-15,142,-234,1625,69,2181,360,2298,-1361,866,-1105,660,1580,-415,1381,-522,-844,-369,-381,630,1155,299,-967,228,1974,-497,1301,-1043,289,392,491,722,-2056,1938,-653,-232,3142,-777,70,693,2991,389,487,2111,-3231,530,-22,-744,-502,793,-486,1020,-1083,799,1585,1130,-1366,3161,-738,-457,-867,952,-40,-25,752,80,-578,1536,-1208,-1033,3678,-728,-273,-449,473,-562,
207,1808,-1212,1749,76,811,700,1364,-3922,-68,-2258,3303,1380,-1146,-754,-1180,5140,311,561,-2000,3277,3225,890,-4,2106,-697,2842,-1829,-941,-1189,1325,-184,-1916,-417,-998,-2141,-671,-4405,2344,-1096,-905,-1027,328,-606,-2982,-4171,3208,1896,-1367,-2135,281,-1886,-1933,1642,-1034,-413,-1555,-1257,1617,1751,-817,-1613,172,-2138,-675,1773,1532,3036,838,1204,-633,458,398,-2161,2887,-544,-213,-1843,-695,1368,142,-951,1338,3279,-2449,16,1223,-225,3257,-1023,202,-1975,4733,-1887,1146,-1085,3196,1116,7926,-5774,-804,-409,-1080,1753,2196,1324,2865,3384,503,2074,1336,2024,-492,2214,-921,-369,973,-490,726,3043,428,1754,1916,-836,-88,-633,1074,496,1233,1408,-1063,2140,3374,427,2099,318,-3049,1544,2469,1612,-172,-407,1336,32,924,-3399,1716,3965,2679,-34,2041,305,1749,1829,1188,-541,-300,-671,-844,2016,-2546,2422,666,2827,-481,-2581,-860,2147,224,-919,-2016,-945,365,508,371,1398,2840,3574,5204,-2849,-1397,1543,3430,-3570,-770,620,4986,1854,1838,1705,4711,-2695,-4506,-1503,-787,-1970,2368,3139,3999,1711,
180,4806,-445,-808,517,-1714,446,-652,458,821,3517,2506,3464,-992,2520,-380,-319,698,-4461,-2114,659,-3374,1664,-6188,-1022,-1396,1143,-667,1212,-3337,-1428,-710,-2383,5351,264,-735,681,-2390,-2011,212,66,-203,2204,701,560,-602,-1521,2871,212,2,110,-534,-4740,-31,5238,-2150,-970,-1105,-285,-1783,6324,2308,-1297,2528,5591,-199,-955,953,4781,-880,1101,1315,-536,-226,-3484,-732,70,1839,2408,3884,-480,2099,4735,-1006,-2453,-2092,1228,-503,2530,-1161,4486,1424,2682,4632,-1576,406,406,1479,3521,-712,-938,612,1587,-460,2079,-532,-2143,872,38,1612,-446,1973,3307,-1342,778,379,1331,2113,849,1500,2402,1782,389,-175,-1954,439,2318,271,151,492,883,1761,-1062,-760,-162,1295,1021,-340,986,1712,-1278,179,2158,909,-530,-1550,1213,1193,178,-1241,-143,-570,951,258,302,150,864,2393,1911,583,2657,1183,-404,896,3060,2445,82,4216,548,-502,1312,-551,-92,492,1949,121,1183,1473,462,3176,-8,1175,-49,1171,-1230,-217,232,469,1215,92,-194,975,480,1405,2750,750,781,87,986,955,
149,-1645,4293,905,-1481,-308,-736,-2190,-2328,-1958,2868,-2480,-2567,-2774,-4617,-1582,-1513,460,4091,-1410,-3004,237,477,698,2197,1524,691,-1283,-1902,2170,282,4132,4726,-4785,-944,4015,-3205,501,1459,-527,523,-1285,2953,-1722,749,-1543,310,-2499,172,1241,-273,-915,957,-1073,-3791,-367,294,1918,311,-3101,-2718,-2889,1555,-2591,-2333,1916,533,-795,-4052,-3294,3124,828,-15,-1868,2722,-2294,-483,2490,-2812,-5211,2183,2954,-1653,358,1020,502,-988,-4253,-2269,4213,-1471,-1829,-2070,-5634,4137,-736,-2243,-3540,-3846,2823,-811,-2847,-1584,-1202,79,3088,752,-24,-285,-3831,2623,-1000,-1619,728,-888,154,-2836,1316,-3250,970,-1531,-2352,-2024,1548,-1006,-388,-188,-2210,228,535,-627,-968,-1171,980,-476,-256,-977,623,-1180,-2612,1939,-2577,-2079,90,1499,125,-805,1084,1742,-1172,1215,-1687,-1098,-470,-834,1721,-1655,-3881,270,-1449,-1669,-1301,-401,1186,-976,-2062,473,-4679,2504,754,-1074,-2005,442,-1533,-767,-1690,2724,806,-1144,-2821,42,-1651,-785,-1270,-2459,-824,1635,-658,187,-688,-1911,-1524,1897,-1995,-3806,161,934,-840,-628,971,
578,533,6408,722,-2499,977,-1026,1224,-4054,-5771,-3974,672,-3956,-130,-2451,-5306,-659,-2106,1184,-9072,-1206,841,0,1723,4344,2769,2325,-659,-7573,-6153,1704,1807,-1336,-9220,-2812,2737,-3259,-108,-3997,-1780,-1410,-2147,3461,3067,-697,-4073,3904,-3683,-975,-4248,-7013,-3830,551,-3724,-1969,255,1446,1839,1118,-768,1731,-1280,-279,-2633,2618,-1780,-1388,3904,1233,-2395,227,-4288,-8800,212,-1932,-3311,2008,-80,-8546,1070,-4107,2491,1557,-505,4124,4374,-393,-5334,654,694,-4278,2406,-2781,-196,657,310,1786,-6503,482,-802,-1293,-284,-1708,670,-2284,-1831,-600,1466,9,-1697,-1666,115,1522,-317,624,1474,573,-2272,-1665,1326,-506,-335,-60,-59,1816,206,-1146,1682,-2448,-1448,-166,-1461,40,64,-992,458,-1171,-692,1323,-1634,-2624,-2325,1027,1915,-983,-1224,1776,1384,-1252,840,5278,3216,-1627,516,1917,-2095,1265,-2333,-756,3,-815,-1246,170,-2493,584,-752,926,-630,3616,18,203,-341,-1897,-580,-312,-476,3197,-1518,-161,-840,2178,-2529,857,-2094,1801,2561,952,2285,-1707,186,1634,-255,218,5043,-211,1483,-1218,1954,-78,654,
-1359,-1096,1399,1007,1873,-805,-935,1700,1355,-358,-1400,242,1527,7534,-2182,2095,-496,-383,-894,-531,1597,3930,-3839,2282,679,-468,722,2747,-1914,5327,300,-353,-2159,-5259,-1998,294,4539,-706,1255,5450,-490,-142,-1836,1,-1071,-1875,430,2010,-882,2204,-4009,-977,-1128,3349,1837,6912,295,-2262,-227,2425,-5729,-2200,-2204,-2281,-1107,-2962,887,542,1331,-3096,2430,1733,583,1483,-4258,708,1714,-891,657,-605,-2498,-1225,1462,-1188,2352,823,2931,-44,-2245,-1216,267,701,-4204,1865,552,-1260,2277,3833,-685,-15,978,787,-1213,-429,-973,-472,1821,789,1401,-1353,-2047,321,-1829,-457,-2282,3065,1134,179,-573,-3747,1922,1963,-312,-2479,2549,-569,183,1654,-1970,-2311,-1154,20,1836,-1536,408,2150,712,693,-681,1447,1398,-594,272,-1799,-4065,3906,1643,445,1007,3551,1265,1768,-2424,855,-614,-2338,-1321,1372,-1628,-1053,-1229,-1171,3,-290,377,-714,-1683,-84,2684,1113,-1761,597,-1567,1715,-5610,1438,1497,-1730,-1385,3248,1906,-919,1447,1173,683,2071,116,1294,1455,1068,100,-1788,894,1527,-577,-1624,-165,-1423,447,-1924,
81,5323,1009,-1049,840,-1636,755,156,2288,3046,1765,1843,3210,3814,-778,2806,-554,-2374,-3957,280,1834,-1142,922,-5670,-997,-430,-757,-1002,508,190,-1190,2026,-991,-2756,-545,-1987,1941,-1970,814,2892,-425,386,892,-481,1735,-1032,1798,625,4460,3607,-243,-750,-3348,3157,6000,3866,1050,1063,-731,299,4746,3427,-2122,2215,2953,-2629,2837,-404,4511,1308,4267,1731,-3995,-235,-2923,-571,779,1488,-283,4224,-785,1574,3734,375,1532,-1768,303,125,627,868,3145,1201,575,6863,-1527,-168,2856,1900,905,-863,271,1244,-2240,-494,1466,380,-2049,137,685,1159,-1814,1047,3335,-367,-254,-223,593,-357,1391,738,198,-503,238,-199,-1609,624,665,1690,-574,773,2575,2005,489,315,-831,1094,2869,-1270,649,1945,-2430,-1003,1925,-174,-687,-2137,607,1477,-772,-924,-443,432,1898,-163,-2,1139,237,2397,955,1123,3502,1398,-289,-89,3805,1953,1064,1514,-1743,-713,2337,1285,-1303,749,1082,1405,96,-454,1437,3288,-559,1112,349,986,-633,303,-821,-383,233,-764,-1297,-214,-1742,1098,923,204,72,131,968,-382,
-34,2600,3269,-1894,877,-142,-2811,-1754,-1468,-542,-2283,-1659,1440,-1677,793,-2037,-5685,-3532,-2414,-614,2506,1189,1279,-5002,-378,515,-539,1798,-3128,-4950,-604,1341,-1269,-3439,-2276,-682,-5515,87,-382,1176,-541,912,1263,-1501,339,-1220,1757,1504,217,-805,-154,-500,-799,-1324,1678,-40,-1643,-1263,1185,-3680,1659,-3307,2033,-2882,-517,-1023,-385,-5055,-788,-409,-651,-919,-1012,2304,1182,974,304,3181,-7885,2337,-761,-1260,1023,694,1689,586,-1780,884,-490,2546,-430,1477,3961,2489,239,-2307,1875,-1735,-2725,-1482,2413,-84,-1001,-3918,1102,1082,-804,-1293,-980,220,1057,-3065,1172,735,443,-398,-3393,1502,-780,0,-410,-533,-294,-339,-895,-646,1261,587,1012,534,1424,360,-437,-431,-1643,1464,711,-1426,-2433,429,-3030,-1247,1039,-90,-2969,-626,2516,212,-597,215,-881,588,-1401,537,211,-2619,-108,616,855,2048,-627,947,-2933,1293,-2109,1620,-1619,-1281,1488,-985,-1239,1158,1359,2877,-347,-775,743,2745,1985,-959,439,-743,192,1209,-1373,-2107,-506,-1559,-2438,1370,-765,-1589,393,-1641,-533,1993,1081,-342,176,9,
57,2925,-5028,417,1256,-212,268,-365,4150,698,704,440,-2628,4958,-2753,1257,-2085,-3044,-2644,-2187,907,-4941,-3342,1671,-1019,1396,-3050,1579,579,3172,-1578,-307,2632,3044,516,-4099,1890,-4873,-692,3312,-1875,-337,-4258,-755,-1632,1763,-5406,178,-62,1141,5339,2052,729,-2728,-546,-4590,-205,3341,3221,4462,3537,4436,-5495,5428,-1612,349,189,314,2950,-2535,1434,-1236,2018,450,-2308,-18,-3675,1224,7153,2649,4312,-606,-4028,-708,602,-2398,-2452,632,1989,-4869,2780,-398,-1373,1992,-1785,-524,-205,2803,-398,-2214,266,330,-2575,1201,558,-859,-1830,566,1881,-2180,461,385,1387,-191,-211,1028,152,-1577,1263,371,-540,1490,-1249,-3136,-721,213,-91,2432,543,410,495,1357,1308,2076,-2309,1011,1471,-1219,-1827,1579,-1742,-664,173,1374,317,-920,732,-1028,-601,609,574,-427,-2137,1271,1049,2087,2882,2143,0,-1128,-396,2147,3055,1544,1235,211,1754,1483,-622,-685,221,870,-885,624,-3792,694,-552,857,-380,-1021,-1848,-1762,-368,-1918,-1636,-843,876,1178,807,-1079,243,489,888,-993,1268,3427,1683,17,2990,1188,
-236,395,-4884,1115,-590,-508,2159,-6910,1793,3441,567,-5582,-2300,-306,2040,-2248,-864,294,674,2119,-1791,-5041,1993,-2487,-170,1145,-234,1347,2355,3696,1188,364,2264,3068,1841,1674,-348,243,-2141,98,1720,836,-71,355,319,-2207,-113,1044,1117,-792,1290,-650,797,1391,759,-2494,-1821,2162,-920,4586,1255,514,292,809,2578,1678,-2508,610,-342,2465,-983,1003,3187,494,-41,114,-1907,2055,3363,1108,432,-958,-2133,2505,-273,494,1463,-238,1691,-1193,1094,-799,-913,1224,1293,475,-3610,4021,-6436,-1736,-1576,-840,1806,-1936,-1663,1740,-429,-1378,191,-1584,-1535,-1072,-1888,-1358,-834,-569,-557,1331,102,1540,-146,-1211,-2214,1238,647,-282,-1327,-372,678,1360,990,457,-767,1229,-429,-1355,-1589,-459,-1042,-4081,1554,2019,-1285,-666,-1131,-2520,-1793,-1446,-289,-1856,-1657,-1369,-554,-2710,-1378,880,-1339,24,2904,-2138,1355,-219,102,-1974,-1815,1671,422,-931,-2839,-2464,-815,-45,970,-1584,289,-302,-258,1292,304,-500,-2354,-2441,-769,-2606,-597,-938,-160,-2971,-806,-1035,-1140,1214,-670,-3273,-909,548,-1357,-1272,-673,1452,
-434,1663,-484,-565,2039,-877,103,1931,1481,717,3746,1410,-1271,2638,857,4443,-729,-1909,-737,-3380,-1022,-3259,579,2495,-545,-249,-1078,-152,1395,-2007,-2841,-82,438,2458,-2594,-1877,2220,-4088,3911,3734,-1705,496,-1910,1559,3483,86,-2323,681,1127,-1972,414,-1956,-3822,2201,3623,-3068,3186,-1778,-346,-1968,1441,11,-400,3605,-37,-63,-934,-2384,620,346,2558,1153,-634,615,369,257,778,4076,831,1704,1601,4335,3276,-163,-1646,-1828,-2556,1792,4589,3667,-753,-938,2640,4836,-2814,2934,-1527,-1121,4537,-871,253,767,1556,-752,418,1104,1226,376,-370,2396,183,-381,929,-1419,2206,-926,1307,-3427,-2561,1729,2542,6850,-81,1730,45,723,348,80,-96,-55,1132,-1686,2119,792,-375,1053,429,1471,3180,502,-2225,-395,2121,963,675,-1780,1385,2264,29,279,-953,2192,644,154,271,-356,1868,1617,-1660,1951,-153,1691,1266,154,-175,2083,2464,2858,857,207,857,-1288,1021,-1310,392,-1555,-137,1551,533,2094,-54,3251,824,1012,1290,704,-589,-1199,772,140,-889,1777,1522,1194,798,1562,1097,759,107,431,
1341,6658,-1066,1802,3640,-3747,2120,7037,2836,1431,-2447,786,2076,114,3325,1575,-651,-448,-5603,53,1415,1934,-2077,925,1090,-3316,2829,1365,-1373,-3809,-2605,-2164,-904,7014,2809,-899,-1245,-3925,1711,-2563,-2180,-908,1416,1813,-3665,-1347,1804,3303,2313,-2448,5169,618,-4160,1471,4922,-3497,-1401,-5160,1921,-328,6479,-120,1743,674,479,-1200,664,-1942,108,-1593,-3710,463,2426,1462,1972,819,-3361,3419,2204,2011,5195,2362,3697,-854,47,492,1147,5468,4998,-713,5281,-3547,1271,5167,-2829,950,923,5478,3077,-1622,692,780,1565,284,181,2335,-2659,882,-47,-1815,561,1598,2505,-2086,1494,-1788,2432,1412,3646,3334,3052,2588,1174,3272,1790,473,-776,-837,1285,1612,1370,-3331,1500,819,-933,1961,-1607,-891,231,2401,646,706,3859,1052,-2944,-324,-504,2391,1580,-51,1713,1500,403,754,739,-1226,2348,4357,1764,4745,313,1863,-1708,-1175,1784,2282,647,4102,-1928,-1522,1445,-1484,3583,-171,3879,1104,-122,-189,2497,685,1732,-847,-993,1975,1408,3962,-122,1229,-436,-65,-1107,1578,-124,2007,2100,-468,-2330,-2104,-20,-306,
-192,5184,2151,2885,4955,74,3629,7791,2395,-600,-1369,3330,3156,1436,3018,1702,993,-1718,-4655,-183,2849,2192,-1043,-2203,84,-2303,6872,-1299,-2005,-3567,-4595,-2238,4064,4293,-43,-2951,2430,-1801,2088,4185,-2426,-419,5223,1074,1533,-71,3160,3276,947,-1457,-865,77,-3713,2522,3740,-3176,551,-2710,1295,3142,2368,3383,1819,3134,-1866,166,1379,2362,1902,-1809,1773,-87,-1352,274,-493,-717,745,1091,-355,-700,1266,-3887,1643,-1243,2199,869,2392,230,7326,-647,2442,1690,-281,4746,-3563,1753,1751,4681,1220,-2206,1433,868,-734,1015,1685,3,-1277,-3031,11,807,1111,-1788,1230,30,-1946,450,1232,3212,154,-315,-1205,-872,1339,-426,-2546,232,2137,1549,-3854,1254,2133,-1950,269,-808,1118,2191,-1494,-1128,3096,1189,-328,59,4487,-371,1437,-209,1052,3399,-1413,-33,189,610,-181,1125,1714,1102,-76,2820,-1587,1038,1059,383,407,-2793,1551,1091,282,73,-38,-1674,3065,-2719,242,-445,1744,-839,754,-254,2253,2511,-358,615,428,-1886,1809,2135,1266,1681,160,-346,-729,-3602,1414,1048,2174,-3919,863,-1517,478,-2993,
1537,-1867,4483,1683,-5804,1388,474,-1752,-2033,88,-4367,-67,-7461,-6431,-171,818,824,2783,3035,195,-3879,-335,-365,2056,939,602,-732,2428,734,381,2760,1088,4115,-2608,2406,250,-8742,2162,-2704,-3885,17,847,704,744,-3352,1808,-1210,-8840,-2882,-3792,-5126,935,2707,-3845,-7863,-2994,-547,3600,1797,-94,1630,2321,2844,1428,1321,2874,-3884,-1354,-1883,1398,-3830,-3359,-419,1146,2924,619,-1662,730,-4260,979,-6967,1055,-2937,1947,3135,1885,-2666,-8735,-3314,-472,-3089,-623,343,-4449,1708,1424,-4745,-4809,-2599,1064,-1553,-1289,-2279,-1624,-2513,2174,417,4,-427,-492,-911,-1507,-2949,423,-561,1023,-1762,2674,-319,1111,-1783,-3812,-447,538,-1148,-837,-2004,238,177,-1442,-1423,-744,164,230,374,-1700,-1421,-108,-3105,-1996,-719,1115,-1390,-1438,936,1079,-2104,-23,-184,-1893,452,-1059,-1248,-1877,505,-773,-1214,1607,-689,588,-2552,-728,-931,-905,-2696,-567,-1590,-1002,-387,-941,-2155,-1534,474,-106,-1106,187,-266,-1496,-800,-2516,-1315,-827,-1881,-1445,-618,-404,199,-2227,-1937,-2994,-1023,-189,-2205,-24,-3290,-744,-1801,-1194,-884,-374,
-1349,-3599,-879,-1319,-1804,2469,-1733,-2376,-1813,-265,395,-2550,-2183,1445,1153,-2386,-1593,2620,1050,7867,-1527,1910,1815,-605,-1554,-446,-3284,-527,3764,5480,1089,445,-1212,1906,-3367,2977,83,4727,-2387,243,4521,1653,-2960,-2827,198,-511,-2203,-236,-684,-1614,1070,1106,446,-550,-436,1993,-4107,257,-1712,3453,-8180,-4983,1887,-2425,904,-19,394,-178,-1490,977,832,127,3883,85,-1474,1918,-639,-640,1818,-889,-259,-2000,-2599,3688,-1092,1571,479,-2473,-7505,-945,226,-1515,-3459,-1349,5233,-2085,-1282,4615,-5892,6091,-1902,404,-1203,280,357,636,-943,-702,-379,-591,1004,714,-769,648,-707,2872,-659,-1003,1683,-1789,-2868,84,840,-424,-1178,892,-2077,-686,454,822,1174,-117,-1052,-589,713,-1465,718,-3406,-691,-2007,4370,-3258,-1023,-1915,1901,-624,-980,-1990,111,-1299,-3097,-1911,216,-2073,-2260,-2045,-1506,-4581,4063,-2878,-613,86,-506,-1677,16,-1675,-2460,-2122,-131,-1302,-354,1632,1285,-727,-1114,-1624,-102,-523,-843,-1404,1131,242,40,-1132,-80,-1755,-584,-2109,966,-1086,116,-3272,-463,-2511,386,-391,-1026,-807,-1171,-507,
318,2586,740,2404,4419,815,-2703,7944,-2612,-3879,-4132,2177,1667,-798,-1310,-2932,4067,649,-527,-4090,3013,5547,-2832,1233,4303,-3196,1644,906,-3716,-3327,-2294,-2340,349,-1091,-4235,3312,-3057,646,2987,-2845,-1444,-1440,-1910,-77,-827,-1589,743,752,-3237,-2104,683,3677,217,-312,1214,2132,-274,-1461,268,-1184,-671,-2532,508,-2693,-2015,-770,1498,2970,-4004,-612,-1633,-2055,-96,2232,3085,660,29,-374,-8489,-180,843,-1652,1769,-1387,-2063,3341,-1115,278,2584,-481,-1202,-113,4907,-988,-655,-1597,2733,-3215,6772,2159,2469,2152,-506,2340,-193,2419,1412,2542,78,1028,-1400,2052,2351,769,350,-146,489,2440,-656,2066,727,241,698,2615,-483,572,1955,-1901,1520,1898,-1350,-909,-110,660,643,1287,-257,2475,1892,3449,-528,1210,1529,377,-982,-746,649,3508,1182,1024,-560,1743,2457,1861,1622,915,-1029,2491,-1854,2031,1042,2785,1069,26,1172,-241,-137,1226,-630,68,-589,1340,1142,826,1123,1476,-929,2038,2060,-233,22,2025,1144,981,1727,1693,-160,-537,1035,1398,2129,2372,-2528,2345,958,-628,-599,186,577,-1415,
1536,-4054,453,6047,-2379,384,2749,-320,577,-1162,-1966,489,-368,-1098,-2094,608,1971,-3125,503,-1848,-921,1058,147,7011,1034,-1141,-632,487,-1426,-272,-975,-5199,661,340,-799,-348,-275,1286,1921,-1811,861,-1067,-1131,-94,-2328,3618,569,-485,-2503,-2697,-24,1234,2902,573,-3427,-632,-698,-2477,2524,-1477,-2205,984,2047,-2070,-1682,1574,-1654,747,-1689,-992,-2778,-2115,698,1312,7420,-318,-783,-3084,-1359,-1633,-1497,-1367,-1934,1689,-1393,410,-752,298,470,-1692,-251,-1749,-203,-6213,183,679,-801,-1031,3630,1603,2649,-114,2943,2026,-285,2927,-1661,1686,-1032,2829,1021,412,-1703,-1358,2271,-40,992,1833,254,1353,759,1438,1667,3267,529,814,1056,1641,749,1362,1040,-591,1426,2850,1454,649,-1882,3787,-2001,-3184,292,603,-802,-315,-1204,75,522,1525,1470,1021,-535,829,2795,937,258,-1261,-1315,1492,-21,2699,569,442,399,-741,607,-2189,-1489,723,683,167,2287,-1821,770,-1629,1697,2536,-2136,1708,443,-5117,1778,3038,-1845,2543,3062,3070,-1734,-1607,1649,-587,523,1998,-1541,1031,2206,-1258,260,-519,-113,1271,
-453,694,1814,2143,-265,1978,-995,-2637,-993,-1722,-4457,-2007,-5685,-444,397,883,-353,1636,2058,1649,-64,5075,-133,540,1313,1142,3759,1280,-198,3964,922,-2030,2554,-7420,123,1772,-3908,4869,3644,-2015,168,80,-1061,-1651,-3091,-2125,840,-4592,222,-239,-4035,1079,3645,2301,-4453,218,-2733,4194,1872,3576,-1765,3500,-151,-1200,-1531,-296,-4143,-1292,-3039,1088,-5721,-1702,-150,-128,2471,-672,-1319,230,-5705,-1299,-6926,-457,-1548,1314,3456,525,-1824,-4385,1969,3747,-2495,354,-2252,-489,1607,-837,-1010,-339,-4931,2722,-284,595,-340,-1123,817,2050,2637,285,-638,33,305,-2336,-2112,1607,-1987,2479,-3008,2652,-674,2147,-2299,-3654,692,480,-1387,-114,-386,-1119,-1970,43,-1183,451,251,-470,-181,-1007,-2403,1068,-1987,-1090,114,2436,291,-2027,735,180,-1386,-534,-1337,-988,-1682,2195,-768,-1524,-354,171,-348,2194,2617,-1406,-1323,1208,98,-450,-2203,40,-1909,-890,612,-50,-1843,765,483,-218,-566,1633,1882,1357,231,23,-1175,-750,-1716,-1617,170,-341,-2,-1629,-1104,-1711,525,-216,27,1700,-1933,-993,-1615,517,479,170,
804,5281,-5026,-233,4230,-775,420,2051,308,-3292,-836,4656,2680,748,2020,-2511,430,-3711,772,-4597,0,-1568,648,756,-1082,2446,6063,-975,-1781,-5061,86,-1687,3645,4019,2163,-4234,2148,-6065,3701,-819,-5003,642,4997,2336,-1310,975,1638,-6987,-2279,1008,93,713,-2400,-725,-2226,-143,-1021,2079,2393,-113,939,4908,-1363,2060,1419,524,-461,485,1031,-2284,593,-5160,-1967,58,774,1807,-1973,1711,-1313,2656,2269,-4472,-2175,2779,3122,1897,-2580,274,6610,-1590,238,-514,-1452,1349,-4119,913,3187,3546,6120,-5548,36,453,508,-33,-330,23,-431,2278,1670,2325,385,1112,2302,360,549,-20,1479,-686,402,3751,-1408,-2887,1097,534,187,513,-282,1815,1211,1252,357,-1274,-398,-849,-456,-828,540,-334,-2114,168,-654,-45,-1248,4203,-1226,1860,695,671,439,-1506,2177,2449,-528,682,1533,3805,-100,4918,-1019,3644,3126,-921,2628,70,1669,1510,1533,2160,-1564,-1012,183,-438,-1863,1269,1070,-1270,-910,459,233,1575,-449,-2944,732,-1527,1458,1187,-388,1438,-982,-155,2555,2065,197,-281,1418,808,401,-1306,1130,1988,
-946,-4715,991,-1840,1013,1713,-2133,-2977,1003,1,2139,-2280,1189,2700,-3622,-354,521,338,1925,3332,706,1626,572,-777,-618,2343,-3677,-1967,1565,6436,3074,499,-1993,-5166,395,3229,65,4074,352,-1282,1533,490,-4220,-1764,-2761,-469,-627,-3281,-1134,5649,881,-1515,4458,948,-4076,2035,-2315,5118,867,3380,-4573,-1557,-148,-1559,-3930,1445,-1398,-133,-3913,-419,-1783,1752,719,0,-1789,653,520,-698,53,-4055,-518,-1125,-3105,155,-1036,-381,-1109,-1325,-1140,-109,-2413,345,-2739,-3060,3067,-2942,1006,-431,-4795,1224,-62,2166,245,-991,131,-1503,1753,2072,-526,-732,2543,450,-1619,1081,-476,3691,-743,-1977,1514,-2675,-1377,-1869,-819,-36,1888,-1235,-686,1757,-1670,-801,-1088,-407,-1799,-1350,1450,-1595,106,1896,281,-2714,722,1576,-1197,1091,524,203,105,-2014,-400,6,1151,1332,-1142,-364,-1669,-177,-968,-1015,2479,-1315,-1413,-376,498,334,-2062,-1245,-1633,-2450,733,1128,-3327,-237,-110,-332,-629,234,-256,-512,-389,-1067,-819,834,297,-2975,-1659,-305,1238,-1412,-148,793,632,5,687,-636,129,712,-64,782,-387,1267,
-785,-2151,-2163,-26,676,-1427,638,-5086,2942,2524,4421,-192,-593,4825,-2505,603,213,-306,462,-608,-1833,-2658,2786,418,-34,2772,1541,-2316,4910,6078,3369,-956,1222,-813,969,-322,6049,-5233,-2043,457,1254,-842,4362,479,425,1435,-2723,-3076,725,4561,-1506,-627,134,1844,-3167,-4282,5517,1503,-579,3776,847,3380,-9524,3678,-2277,-669,-2164,6117,-1661,1482,702,498,-2790,-919,-366,-2003,-878,439,6541,1043,1104,563,-2447,4210,445,-2812,-1570,-2351,5744,-2574,-2141,-1919,-4271,-296,693,-71,-1776,7253,-3945,-2241,1172,2564,2317,-2001,-831,-1572,-348,-892,473,-200,-394,349,331,-1035,1124,-704,309,-2944,-1946,256,-116,237,-1611,-2587,2423,505,754,-398,817,209,1299,960,588,949,24,970,2026,2659,664,249,-1403,-307,-1344,1248,1316,-353,-95,-173,-950,-1419,-1262,288,2239,-535,-209,2198,1634,2130,-498,-791,1176,50,3679,1549,1030,-86,1101,955,-132,-1874,1816,203,-691,1144,-453,-1492,-1696,1762,2154,90,-210,-655,-1181,-2799,-1429,-2305,-6,1838,1151,-451,-1428,-211,1158,14,234,1877,741,1483,2203,780,
-1230,2306,-1473,2423,2264,-140,1798,-1266,2046,-5264,1091,-119,4949,-133,-2207,1902,-3171,1087,1837,482,562,69,-2259,-479,-1221,-978,362,-2236,3203,3265,-522,-1629,-821,5139,2506,-1489,749,2551,3863,-758,1840,-1176,2721,-1128,98,137,1220,-1620,-1044,1002,1378,-1409,-118,3438,1790,3040,-2104,-4574,-739,-2852,-1499,1729,977,-364,-618,-2679,-1824,-89,-2651,2355,125,-1051,451,-232,2711,1406,1839,-535,50,-1147,609,1058,-1186,-1015,-2053,2217,881,903,5127,1214,2365,-229,-1061,-1158,-2713,80,-45,-309,2593,-1856,2068,-2492,3621,1223,713,2805,325,1351,-1921,6319,-845,747,1566,-231,4411,1930,2820,3344,3795,-3095,-450,-2199,4404,1674,599,446,3666,482,-675,710,4820,1382,4052,1478,810,2335,-259,2953,1631,5719,-997,-134,1572,-408,244,-1131,2096,3189,2854,3885,-1555,360,5255,1125,0,180,236,1858,-1309,2930,5263,2917,979,591,4012,-159,1333,6817,347,1344,2913,-1972,-1281,-365,4190,-1545,-1113,1002,3230,-1179,602,4398,1799,4686,950,2401,-736,-218,2731,2869,4473,5557,-1495,2958,2938,-1816,-2981,109,-958,2320,
1971,1725,5797,1521,-370,-230,606,-275,-1568,-3016,-3879,4507,-2345,-1062,2505,1160,-2681,1873,-577,-7170,-1062,2998,553,981,4619,928,7435,-1543,-1110,-5680,-1911,-2304,-1702,-7314,-285,704,-2922,-2009,1711,-2160,-907,2018,3793,-1498,-967,1035,-777,-8840,602,-948,-8874,1963,3670,1128,-608,941,1756,2723,6295,1424,926,2195,-5190,-331,-1108,-701,-1056,776,-1546,1296,54,-5476,-5062,24,-529,-3069,909,-1714,-10777,2106,-6617,-1063,249,2183,4618,1744,-2775,-2224,7946,-3497,-3265,-1060,647,239,550,-177,1638,-3011,81,536,2609,-818,1420,614,-781,1337,143,1869,-1738,3294,-3135,-240,1764,889,-1210,619,791,2742,549,-371,2673,937,1113,2110,-997,830,2617,757,-2242,265,202,1466,-736,-1857,2498,121,1161,1440,2791,-170,-781,1254,1554,1928,-1143,-1575,417,1953,-3130,371,-3317,2138,1950,1285,1149,-1049,949,5105,1310,1484,2538,-13,-116,-845,1262,833,747,-375,696,447,2546,-2631,-371,834,3866,33,774,1973,-1356,-1352,169,901,-589,2787,747,-1977,-3077,-308,2041,-945,-2492,571,1797,2697,2082,2144,-1687,1207,-2816,514,
-418,-3607,3199,-1270,-1514,2693,1230,-2815,621,1226,1257,-3224,3492,5456,1421,-1692,-2930,-1511,-2057,1265,2127,1159,955,-671,3021,3017,-238,182,-2450,7043,-3214,94,70,2947,-2064,3132,3327,840,-638,3525,1960,-2400,-748,-1690,-3433,-367,-59,3154,2048,1374,-4970,1036,-3420,467,-2139,1390,-1495,-952,-858,5482,-1192,-3132,-450,-284,2801,918,2649,1282,313,-609,334,1435,385,-1502,77,-219,-230,92,-1227,1056,458,-6541,395,1395,1856,982,1115,-1270,57,1706,-1144,-706,-806,-3366,3283,-937,1828,1989,-2494,2240,1618,3486,340,-4918,1136,-193,-417,1342,2868,-3870,644,-294,-632,-620,-4050,1679,-1667,-2478,-2413,2985,2009,1062,-2355,-2781,1150,-644,1247,1046,-268,633,-1390,-772,-796,435,-423,-327,-2035,-1955,-964,-2781,894,-305,-1817,-2542,-3191,2746,-4,37,1043,1065,2807,1820,-3243,2838,-1042,-1356,-185,-2167,-907,-1329,-3043,-624,226,-1057,-398,172,1183,-3665,1730,-1180,-3265,1783,-1291,471,-7227,-743,992,899,-3230,121,32,-564,1645,-2843,1011,-716,1379,2916,-773,617,-1666,-937,406,-1686,-1836,-1653,2024,0,1619,991,
-135,-2650,101,-141,-3751,4380,-888,36,-2051,-4423,1023,-4267,-5354,-6303,-7222,2035,1066,5638,3677,488,-1967,-1880,-2483,2767,-722,1914,-4708,-129,2795,386,4284,86,135,436,-2442,2314,-3865,2867,-500,-7497,1499,-1851,-3858,-1625,-2321,1027,-790,-1077,-3433,-4061,-1726,2023,3233,-3903,-11495,-2784,266,-233,894,-7754,3651,-1088,3874,1224,1226,2699,-931,-6156,-3933,939,-3154,-4234,1581,878,3230,331,475,-1369,-3429,-2936,-2652,-213,-2508,787,225,1576,-3267,-3600,-3507,5101,-7129,-2784,353,-6509,59,-1505,-2993,-7668,288,1833,1717,-178,-751,1530,-996,1609,702,-787,1317,-27,-1735,-523,-1123,246,1867,1205,756,3554,-800,0,3473,-6335,-304,-432,-901,-930,-1063,-1713,2021,-923,-985,1259,768,792,704,-922,707,-2270,-2017,753,-1568,677,-2249,-115,272,3259,-3334,-1547,-422,-612,-728,-1905,-1690,-1254,-2793,-2799,887,-359,-1523,-620,1215,534,1083,651,-3054,-1965,-611,-1996,269,529,-2293,-322,-1060,993,-2841,-109,-1305,-1436,-1860,-3672,-2416,395,-846,-2450,-299,-1311,-303,-589,-3523,-1752,397,-1294,1329,-1265,-971,688,373,-3011,-722,903,
-253,-3088,334,-151,490,1633,-3977,-4251,3429,-1120,1359,-2620,296,1209,1093,-29,-4102,-726,-1005,1744,-1678,613,-746,-630,-52,-1690,2426,-3371,564,4048,-122,-3100,-1013,1196,419,1313,1567,2971,2000,-1683,3118,-1268,-585,168,2785,-243,-849,722,-866,2688,1782,2715,2383,-382,-4324,458,773,-1910,-552,-1721,-3085,-674,602,582,-2428,437,-716,434,-1481,-67,-2281,-36,1031,-2814,1531,-1819,-384,-2243,3949,-5434,2710,-4453,-878,-2760,-3456,131,-445,1942,195,3772,-1202,1514,-4831,-5729,4010,-1169,-75,278,-3198,4610,1197,535,3438,1129,705,1967,-1070,-154,-965,-131,2219,1934,-1953,824,-96,1295,1578,1695,-675,537,2103,2557,496,1060,1403,-649,-952,282,367,186,-1140,2124,212,1068,25,-750,-625,-1951,-198,-4205,1702,595,68,949,2596,964,-70,-1969,720,1735,446,2424,-202,-231,-1603,-333,719,-744,1929,767,1937,679,-1373,-21,1404,1449,235,913,1309,1887,1759,983,-136,87,1156,-445,903,-253,-1923,-1917,2108,2885,-708,-795,1289,1598,2009,1417,-1106,-666,-791,1609,3655,-1894,1421,859,1676,-89,-829,2467,
518,-371,-878,-2029,1355,1840,-468,234,-4273,375,1957,-1655,-1141,-6474,2432,521,322,3781,2338,2348,434,915,2870,-271,-1664,-446,-2257,246,-2245,-4690,-88,-721,-400,1853,-36,774,-5492,2553,-1946,-1910,-1466,1475,1133,-990,-46,3210,-3998,6810,-939,-1816,5324,1715,3771,-6435,2599,-353,-2551,-1334,1014,2127,-2319,-3334,505,-1280,-201,1131,3138,-720,156,-342,-314,-773,2536,-526,-511,2412,-2578,2739,2514,-830,905,-760,-3460,-1565,-666,1780,2334,2262,-7377,-1251,2269,-2952,2943,-748,-469,-1274,2469,-2425,-875,2366,-2483,-2245,-3368,631,88,-514,714,-4791,-1066,-2114,-244,-1718,-950,-1127,-1390,-1941,-2503,-4200,-2896,-6457,-235,661,-77,-1972,-1017,336,-3788,-1216,-3330,-3312,-2862,1761,-1927,-1673,1001,-1401,-802,-4117,-1456,-1045,-374,-2730,-595,-3585,-1486,2017,-1709,-2458,-2530,367,-3351,-2391,-96,-3643,-2795,-4924,-1973,-1548,-1197,-2177,-4016,-1586,-4384,-1973,-2315,-1699,-334,-3695,-757,1168,-967,-2366,160,1194,-5043,-61,-1252,-1566,-3103,1259,-1266,-2939,-4062,-3913,465,-1666,-1252,-887,-1683,-3070,-3586,-2596,-2160,-1761,-1182,-3473,169,-653,-3864,-3601,
960,6006,2457,2068,1272,-3987,504,6421,-4972,206,-1993,4141,1693,-4896,-396,370,1979,-1558,-1400,-603,1596,2979,-2206,895,-527,953,175,1761,-2925,-9488,-865,1517,1578,-1092,623,-2929,-3473,-133,423,1925,-2724,-912,1024,3104,2141,1346,-74,-3415,-934,-3255,1742,-30,244,-1903,5369,241,-512,600,-249,-3232,-325,723,590,-308,-41,8,1543,-743,593,815,2108,-511,-339,2501,-1865,737,-412,-1230,-4240,4386,-724,645,5278,-1910,-562,-150,927,303,-752,2380,1074,2601,8460,4089,-1976,2367,-692,-4552,5936,-1604,-3663,146,-2009,-121,70,-1444,1006,-398,-192,-1077,-3107,-1303,-1419,-1071,1892,-1044,-1832,-372,1232,734,1562,-91,-7,1168,-1532,327,1060,-755,-495,-428,-1018,-428,556,548,-1140,-26,1302,809,459,2918,-770,203,1870,-953,-2304,-684,-1437,634,299,-34,39,-1138,719,940,821,722,-764,2469,-655,16,693,-73,-240,-634,-558,-705,361,2215,-1743,-310,-1063,-2390,1188,-1068,1431,1908,-888,-1228,1247,1457,-251,2069,-227,1352,-380,2586,-1013,-742,318,1039,1434,1861,-3028,-237,-799,-1044,-1673,-839,228,-882,
-477,3370,-405,339,5638,-2464,-2382,-1129,175,1875,107,2062,6227,1984,-552,-702,-3649,-7285,-2172,-1150,534,3920,-322,-784,1931,-1453,2161,324,-1835,-361,-2995,-2974,-917,588,943,-1731,1196,-2227,3009,6115,1760,541,2873,471,5706,774,245,-6239,-3044,2683,4758,-943,-1676,3242,11360,4199,2132,-697,-2446,4889,-6053,1073,-1735,-646,-3460,-1761,1777,2257,1002,1094,4783,608,-2222,-329,-2116,-2922,381,-131,-1157,1680,5300,-3220,-399,-1333,-38,-676,2468,5731,5564,638,2035,4785,-867,5899,-402,995,5031,7009,-749,-774,907,-235,4429,-2853,1040,-1713,-48,2275,1117,534,-1260,3073,1256,-278,2299,352,84,-955,1487,-1069,-894,537,145,-214,-71,471,3004,508,-1504,1464,3380,2310,-193,3361,-588,1346,1361,1991,3786,346,-868,868,1807,656,370,-2031,2679,155,2066,337,-558,47,2073,315,719,1917,-1844,-1399,577,2587,4782,2226,420,2630,1735,740,738,2111,1942,-1162,3131,751,471,6,1706,698,-1895,2650,1548,4616,4866,381,459,3076,-1378,3246,693,-536,4035,-47,1790,4883,515,2062,1948,2316,464,3507,-1066,1978,
-2127,1147,-34,291,2824,247,767,3342,2632,-621,1490,1233,5746,5167,76,-790,-246,-969,-806,-64,2006,2764,-840,-651,-466,-1910,2189,-824,-486,-71,-2062,-1509,-1736,821,-3046,529,5069,738,7623,2727,-460,-1323,286,-853,-953,-885,2258,2630,-966,2118,-455,466,-1660,4644,2907,3747,-397,-5418,340,-1601,-1444,-462,-1017,830,-2157,-2093,406,321,567,-2717,555,2060,851,-1829,-440,-1054,979,-1420,-864,-3361,1594,-1258,2579,-4054,-2409,-2266,931,2195,2507,-378,717,433,1847,1113,-980,-604,4765,1313,6965,2304,2503,2405,558,2301,2933,-430,384,2281,1098,1532,2423,1642,1585,1377,-1172,-243,2050,46,-1746,-1154,783,2104,100,1075,115,583,1439,672,-861,1721,-436,1767,2711,1127,1502,1074,1124,1092,1420,1809,514,-738,1964,123,352,-364,1740,3699,1008,1792,112,1209,2154,3419,-822,756,-123,1421,-205,953,1483,3361,1475,598,802,1633,1594,1122,3020,547,493,743,-6,1785,2354,629,624,1391,1153,2034,1073,3332,3154,2600,1625,2216,1544,1274,2391,2902,1178,-525,2331,352,1357,-1464,1839,739,1119,1379,
-188,-1005,-1986,-1502,-496,2013,-5289,1211,664,-3631,1545,-807,2999,1072,-1959,-1028,-297,-823,3474,2912,1618,2619,-1475,1662,-3711,-1227,-4520,-976,858,-592,1152,80,-2246,-5673,-235,1753,-1407,6595,1350,-860,2197,256,-3582,-2538,-2085,-2728,1422,443,-3527,1793,-3354,1119,2823,940,-1312,5926,-1991,1540,964,-1370,-5327,-2472,-1154,-3703,55,771,3060,-2979,-3059,1901,-1841,2048,1329,820,-1316,-724,-447,-2001,-457,-3228,-1594,-504,-459,-2209,-1031,641,555,-1348,-2483,636,-2763,2014,-501,-869,1244,-4964,2237,-4689,-2847,2521,-739,-1114,-1557,357,-287,581,-608,415,-1500,-412,-490,-250,-1261,2008,436,-475,-87,1302,74,-1801,224,-685,-1,2078,-1379,-933,-679,2485,20,-2113,-1998,556,-244,267,1674,-2312,-1712,1265,-449,956,919,422,300,-3368,1878,1720,102,-616,-449,2471,-767,-1010,-1497,-1165,-774,404,-1515,-2177,2183,-278,-244,-1389,-171,-1364,459,-2987,-2248,-490,1292,-187,-238,61,-511,91,182,-427,-67,-2772,104,32,-1909,-962,2259,-447,471,275,1013,561,-1791,913,1950,-1296,-457,286,-2515,-533,-493,1377,66,-15,
-452,6324,1207,-456,2459,-2134,222,3012,345,1298,651,2204,7248,645,955,-1838,-1931,-2320,-1749,-189,3803,1415,503,-3728,-813,-824,-735,-1559,-513,-6060,-2322,1903,-2621,187,-1796,-1774,-847,-358,1616,2527,287,-1033,1201,1140,2878,-755,287,817,73,-707,441,-1223,-2964,179,7377,3689,-1152,414,-1229,-1421,1119,-1609,68,-347,3324,-1092,1286,-2892,1860,-389,4360,1585,-1825,-115,-5086,49,807,1561,-1795,2989,786,1334,3837,-888,-1003,-1260,1570,3189,-563,-285,2516,2882,3819,8895,-62,-740,3744,-1316,3514,-122,211,664,-778,-201,3979,-320,-299,190,358,-285,-511,1853,2262,-808,-443,-846,179,-1766,1067,385,2510,3283,-322,1388,-157,-132,360,1794,-95,1261,180,956,-3,-419,-1053,1256,1425,-1030,3677,367,-207,-1048,1436,-252,343,-556,1492,133,-221,-171,-166,482,278,769,604,1168,-548,70,1660,-975,1089,-519,-348,637,1185,1199,745,1280,214,-521,965,-1099,341,-163,1413,521,453,178,545,3737,77,1537,-747,1965,-1301,945,264,-1772,1032,1055,322,2190,-315,1121,1907,120,188,735,134,-506,
593,4409,152,567,2839,-1073,1674,1770,2627,3348,288,3666,2974,-216,5716,2440,-1510,581,-4394,-2119,2755,-2445,2917,-532,1339,-1808,4698,-105,684,-1030,-4215,-807,112,3254,-93,-702,282,-2728,2837,126,-1992,602,1651,-453,-1816,869,621,864,2439,3407,1296,-1024,1479,3891,2917,321,948,-640,35,3264,2428,2275,219,1946,3018,-1300,-524,887,-1901,-181,-2741,634,-169,578,-977,436,614,1837,-428,4116,-1596,-737,2126,-294,-1463,-1338,5,1221,3038,-18,300,1667,-1136,5703,-1491,2315,2894,3334,3119,-1096,498,1856,1885,-1724,1403,-470,1147,121,1132,3483,-1339,-835,170,406,-471,32,-537,2195,-506,240,-87,201,524,626,-880,-152,1356,2204,-108,-809,2136,655,349,-1041,129,419,2201,-2840,2095,1445,-2009,1226,2125,1329,750,287,2150,1994,1241,-325,513,1256,701,627,526,-896,492,1424,1819,3371,1647,1341,-1701,1496,1434,2163,176,2378,1753,-293,-46,-262,-55,1471,2473,812,520,1153,1311,2065,-787,-501,271,1208,1496,-3176,-143,802,-1693,651,-588,-1086,2607,445,1319,-256,597,1379,-287,-1350,
-746,490,-551,-1380,2332,-1416,-847,-4686,6114,5075,3145,-3,-353,6555,1535,1749,-3934,-1469,-2193,-3622,1565,-4188,1037,-3124,642,-303,1217,-1217,-910,4868,-3529,117,-735,-1610,578,76,6240,-3003,1406,6166,-2860,344,1874,-750,3463,-915,472,2227,1821,5639,-1847,-2864,-1436,6403,4162,-780,1168,-3338,-2368,4537,-1171,679,-3479,1078,-1009,-1651,-1574,2652,992,-3917,3324,578,-2695,-1884,-2094,-1900,833,1187,4650,180,1212,667,-1042,-476,-1397,-1271,109,-739,6549,-223,1885,1221,-6340,3128,998,1679,-1814,9295,-3084,-1447,-801,317,1447,-153,423,-1453,-43,1893,511,-1164,-953,3494,779,-2949,1473,615,310,890,-2165,-1129,527,2109,42,880,974,557,1291,352,-1551,2707,1379,2118,-2021,1213,-1909,1765,1823,1284,-155,-447,444,-891,1018,3573,-778,-244,869,-180,1792,805,257,730,-271,429,-835,824,-706,1311,646,-504,933,-392,1347,2609,2225,1770,1765,1376,-160,-464,2822,-3853,-959,565,-1053,780,-758,-545,-1257,3327,583,847,-1053,959,265,1092,-95,847,1905,720,-3281,912,2670,526,2537,2586,2552,-1638,-242,2185,
-318,2920,3658,-2086,2751,-886,910,3230,254,2050,3542,226,4602,4692,-939,997,-1551,-307,-4193,766,1633,1866,844,-4214,-1121,-1576,-1317,-2310,-1852,4037,-3024,2256,-3309,3426,-1618,-2414,3975,-1931,-93,1517,1282,925,59,1478,1659,-405,4364,1616,1612,3186,2826,-2143,-3523,3633,3270,4426,388,-1088,-1592,4887,-1554,-867,2224,-357,-30,-979,4993,79,-2811,-617,6754,4038,-1910,519,-2511,-882,3150,1356,617,3021,2182,5302,6434,-3131,1056,-941,4445,455,-1275,2221,3,1576,2113,4524,-1183,-458,5432,-563,-3233,-616,214,583,93,-1202,830,-953,774,353,-572,-89,398,-1840,761,971,53,-815,845,178,-1432,-802,-592,3364,532,-382,-2391,936,123,-2438,-1542,-544,1109,786,-466,1503,-1317,562,1140,-2488,1867,730,-1148,887,2056,-2454,395,-775,1324,1356,-560,403,931,-971,1694,-610,303,-665,-1165,-3470,-614,-1277,-293,1739,-1500,-1296,433,2174,310,1564,1830,1053,995,-820,174,-768,1297,-1505,-563,853,626,3328,2533,2397,52,797,2034,-505,109,-454,1996,969,-121,-1150,1516,1900,1118,-889,543,467,-70,-596,
-1624,-2143,745,1224,725,2660,-2730,-85,3209,149,839,-2395,1564,1489,1361,-408,-1328,43,-1435,4223,2233,2042,-1930,-1714,1073,-1588,-1038,-998,-821,6904,-1455,-1191,-846,1687,-1786,3313,3777,4436,1796,622,2205,-111,-2796,-3305,257,1,6086,3314,1571,-1353,2830,2292,640,4780,2326,1775,-719,-402,-269,1920,-4822,-1997,2045,-3032,1346,815,2813,-2379,429,-142,-59,4117,3873,-2841,1538,1802,2745,323,2301,-2163,2884,-2355,-3322,-3827,181,2764,5222,3127,-4458,2413,3887,909,-3726,-984,5042,2061,-297,3320,-1802,4993,1086,-498,2094,2836,-128,-1262,-1178,453,-1415,-558,934,-754,-1590,1911,-1683,2691,60,99,2661,-328,-2039,-3122,533,-1029,399,-658,-2293,-1476,-1883,1004,-981,-323,-619,-387,295,-707,-2642,-2072,-867,-2895,-66,-300,-2427,-1701,-1821,-1278,-1116,-806,-88,1674,-541,912,-2491,-942,-982,-2145,-3146,-1752,777,65,-2191,654,-606,-2234,-715,269,-1301,-4802,559,-1103,67,-1048,786,150,-495,-1321,293,-1731,-1540,-299,797,-2403,-1340,-887,-1644,-340,132,155,34,-592,800,-638,1160,-1359,-312,-1125,-1157,-3024,-774,-1033,
372,-3159,5880,-17,-3612,710,1107,-3557,-593,-3206,421,2705,-4468,3704,-5714,-668,2671,-1168,2056,-5450,-3899,-6063,3359,1383,3425,6212,779,-705,-1018,-1374,4645,1629,45,-4619,1092,-670,-62,-1362,-5117,-1602,-1176,667,2808,-495,341,-800,2949,-8683,2008,1846,-12427,-4366,3483,-1049,-6661,1111,3073,753,-416,118,2037,1736,-3462,-76,117,-2969,-4367,2590,-658,-1727,4218,-4384,-15495,-512,-1840,-1409,-265,-2139,-1865,702,-4937,4267,-2433,2836,2502,984,-3378,-6626,-52,-3555,-4647,1434,-5702,-2048,981,-1649,444,-2773,-4052,-2422,743,2361,-360,-1320,-1135,-375,-768,2139,980,-425,-571,25,92,297,772,1417,2370,-3110,-3612,-776,-1960,-81,-953,-2227,492,877,1211,1153,-2753,-2117,-321,1132,-878,-1077,1090,-499,250,485,384,-4492,-2706,798,-463,322,637,-792,976,-925,-1735,-761,2688,-71,-1498,-62,683,-1161,-726,542,-99,-477,-298,-2092,3415,103,-221,411,1212,-1992,743,250,430,-240,-3249,-610,-860,-1075,540,-168,-175,-1829,3070,-339,1554,1457,935,2578,1636,2905,-490,464,-973,814,3107,2025,-141,442,1617,2867,-2191,-727,
699,1611,476,50,-2242,-698,-53,-488,-5700,1026,-2036,-658,-2313,-3101,1473,-1833,89,549,-1540,219,2300,-1439,1780,-2496,644,1408,572,150,-1119,-5076,2336,908,-184,272,498,986,-7760,-240,-4523,-1895,-947,-1192,1836,231,912,-785,-977,142,-1375,-4318,-1339,-2968,2801,-6209,-958,-12,-1277,5395,-89,2387,945,-891,763,-1785,2173,1711,958,-368,1415,1079,-745,-1889,-678,1885,1939,1308,124,2157,-5323,4239,-1605,-96,1602,2686,11,-215,826,-1940,-995,95,-93,1942,2921,762,671,-493,1228,-2373,-3317,-1183,-1542,-870,1253,-2294,-973,1274,-171,-1444,-739,833,-615,-589,-2013,-415,-852,-1523,-1350,-483,478,-102,884,-3014,-454,-95,-609,288,-3288,432,-325,-409,-241,-1595,-1241,846,-495,-800,-2230,-2055,-1370,-2747,-1068,1494,1139,244,-691,-2493,-2391,-617,-1364,-3737,-1605,-1851,991,-1986,-158,-272,-56,-954,2182,519,370,623,-2418,-2698,-2344,1156,-1033,-1537,-572,-893,262,-544,1871,1274,155,378,190,1177,1628,-738,-2775,543,-2282,-362,-1631,-3352,-1481,-2987,-1808,-1009,-2135,1614,-2240,-2713,10,1522,-2981,-436,-755,-656,
2447,2691,-920,3755,-2347,688,-288,500,-4545,-3552,-3122,-24,-1317,-6601,-39,-2053,-593,1217,272,-2037,-1848,483,-15,575,2357,1503,529,-1204,-2085,-3066,2244,-2932,-2486,-288,1202,-410,-4075,1053,-194,-7734,-881,-562,1204,-866,-596,1475,103,-3317,-6129,-3226,399,4126,2468,-1984,-2714,441,-48,-1468,-1096,-2454,1118,-279,5334,-2197,-2684,-4201,815,-312,-2656,3108,-3238,-4738,1503,1574,4413,-876,-1036,-1482,-6366,-2143,-1604,-3684,-1778,-458,2,2008,-3461,1620,-105,-1665,-2247,-212,-749,-5520,-121,-390,-903,-5334,2606,806,3275,-2848,2696,5292,-307,6067,3920,-287,-1918,3238,-1137,163,-1713,792,3124,875,-932,5362,495,728,830,-2366,-59,5475,-1526,979,2094,1644,3014,-344,2065,3182,-1759,2431,-717,2019,-1533,341,-1263,1452,454,1218,1438,-1485,1590,2236,1516,1434,623,375,-2564,1384,4218,-2478,-1112,-2426,-801,2482,678,2740,673,704,1175,-1841,290,390,-1761,2479,-635,-353,3108,872,1332,-939,948,965,-1009,1753,-3029,-1752,1748,988,-1594,1449,1282,885,-564,-2294,-789,-1866,-764,1212,-142,1416,2029,-978,-2076,47,-2097,1954,
2058,-1834,-645,1043,-1386,-1162,361,801,-2668,-4007,-622,1251,99,-3082,-2039,-2829,2155,-292,1826,-2215,-1153,26,-13,5765,771,2034,2119,-1377,1476,-2787,4305,1209,-2820,870,141,1474,-1354,184,-513,-3556,-259,-1057,-475,-16,-3536,829,-851,-2874,-2827,-1177,315,2951,-1302,-3475,-4269,-1514,2106,-368,-720,-3320,-296,-1494,-767,1449,-2915,209,-68,1241,-3184,-264,-689,-2117,275,2322,4485,2383,-1355,-5712,-1017,-1433,763,375,799,543,-2123,1452,-2496,-913,232,-2443,-3452,-672,230,-6197,589,-2586,376,-7247,8522,306,-212,1424,-640,3326,-829,1476,1371,1615,1117,591,2218,660,2442,720,3670,-402,1292,-361,-2337,3075,2077,409,53,975,865,-177,717,-2707,2398,650,-61,510,-786,278,-262,116,2904,1426,949,2550,-941,1181,-646,124,2282,-104,59,835,1221,2500,1545,-487,761,1441,1536,-1295,1325,-1169,-1920,608,1945,-1365,-372,-720,-1325,-1209,2581,655,1191,-88,-2143,3019,-1352,-397,324,939,705,-438,-740,-2402,936,2829,1795,-2169,-1602,-90,-37,1670,-1541,402,2939,417,-600,-257,-786,-117,-559,4144,809,360,
525,839,-3446,2623,1827,-1786,2296,1504,5198,3754,3174,425,-440,2573,-1968,6220,1353,-2453,-2426,-1066,586,-5362,-166,68,-172,-467,-86,1311,3204,3696,-1186,-341,1783,1110,-2039,-1695,3133,-5365,870,5033,-2703,285,-511,-1317,2522,3154,-404,870,2879,2254,2059,-1008,-3607,2054,1304,-4393,1497,-3685,334,1846,951,6845,-2762,3781,-2163,-532,-1481,1768,10,-1175,3087,1224,-908,-229,576,268,319,920,5673,127,2866,-588,453,-28,475,-2189,290,2038,1859,-719,327,-2457,-1037,1547,-2531,2038,-985,4410,382,-778,1605,2292,702,1881,2294,-205,55,574,-210,83,180,208,-1198,-2550,2428,-480,617,-922,-972,806,-467,2980,-178,-1440,1160,721,1521,1250,-749,330,587,1195,421,749,1392,1518,1193,1144,2448,-368,-39,-196,2319,-575,-558,-324,752,2690,-1122,-301,-1228,435,397,-158,-615,2307,429,1050,-1403,911,1881,1256,445,216,6,2061,1317,238,-2041,1600,1981,-1171,767,1720,-533,-580,114,3750,1252,1210,1219,1104,-791,2146,-120,708,-1670,-743,2270,331,-1618,359,1256,815,1496,808,551,-2170,-389,-358,
-673,-4841,-2465,-2789,6553,94,-170,-3900,-3793,-3219,3696,213,5464,-2123,1988,-6051,-1793,42,-3452,1129,-1152,3872,910,-2924,2506,234,3407,-973,-3095,-1213,-948,-6293,-2248,-4176,2494,-91,4025,-1094,3430,319,3341,2474,-2319,-444,1231,-1571,-903,-251,3336,10483,967,-9,-254,1208,4746,2406,-1430,-3233,-2334,2043,-4106,-2866,-4901,-5684,-5179,449,1673,4837,-1179,1610,10,-4331,2296,-1726,-3110,395,-3361,-4591,862,-1395,940,-5226,1365,-2494,-5833,1361,312,-299,2468,-1394,2508,969,129,-3731,3469,-4808,4419,2106,-1986,-2503,-1766,-2480,3499,-4217,525,1205,-813,-846,-805,2104,1869,3688,346,1087,1174,1756,2703,1916,3680,-2856,2216,1910,-1029,-5884,2444,-156,2555,3035,1024,586,-343,-1290,-1812,1664,269,599,4893,4788,613,1583,-1312,-110,312,1179,1384,-1359,2855,-1309,-1137,4301,-518,-220,-724,3476,-53,1580,-1601,3006,2317,1462,1896,-475,-1589,5202,-692,255,-2995,1583,511,2711,1992,1369,894,-2579,-778,-1011,964,180,-6529,1457,2525,683,1957,2036,2268,-2044,321,3264,-673,765,-352,1152,319,-883,2707,4559,3251,4506,1537,1287,
-147,-2140,1751,-2765,1048,961,-832,1880,1273,2104,670,-3120,-5218,1050,-238,794,-1649,-1615,1881,2220,-1590,-2045,-1129,-1549,-468,-566,48,-1272,-689,3242,-273,829,1329,-3161,1127,658,-560,5852,62,1729,768,-1053,-2013,1157,1931,68,1052,2217,1256,2259,2590,850,-859,-647,-760,487,1599,3425,-559,-4353,-889,-2331,1671,-3686,-844,2586,5135,-5616,-1131,320,-912,2148,344,227,-3819,-1334,2183,-1406,946,291,449,3718,-219,-897,-656,1232,2453,3034,-6162,3925,-55,-1512,-1346,-2544,1427,-2096,756,2069,-2656,2276,-225,-1864,-3235,3353,-610,-1638,55,-2807,410,-406,-393,-1466,525,1073,-4056,-1136,-316,-1126,-1355,-2473,-1106,1117,274,-2509,-525,-861,-35,-3210,-892,-1713,-1026,-2408,-1924,-2496,91,-212,-2787,-3228,-1392,-1658,-1767,-674,-1847,-1672,419,-1016,482,-2476,-13,-409,-254,-1860,-1898,349,548,2131,-635,-5548,-4548,-1667,-2124,500,-1805,111,-332,-3557,-3398,-2108,-618,535,-598,-522,-2048,259,-2471,-351,370,-3047,-3185,-1878,-2689,-3800,-302,-1319,-567,-1544,-101,1629,-2227,-1714,721,-2992,-2464,-1197,-1615,874,1455,1500,1280,-1752,
-2380,949,-9,-967,3629,397,-237,3060,3708,1053,3869,4250,6777,6982,-360,528,-593,-1650,-1234,283,1771,1463,-1069,-868,1028,-1169,724,-1525,470,189,-1851,524,-3075,-1110,-1424,-157,7259,148,3633,3579,-805,-340,-512,-1315,1983,-959,2815,2050,-72,3776,2566,-1065,-354,3387,4986,4655,1520,-3259,956,1011,-3856,-80,-767,-731,-1493,-4329,3459,257,-173,-851,2151,1194,-933,-1122,-3868,-696,1234,-3105,934,-1052,956,-4365,2091,-4414,-1372,-164,1922,3939,2930,-517,3513,2150,-995,-286,-902,-1253,4984,3521,4048,945,1970,2407,1614,2091,1714,-2044,234,497,-742,-531,1696,953,1922,1193,78,873,1300,-1394,207,-1937,-746,3780,-130,189,958,270,3277,-123,-1158,471,915,804,247,1257,579,425,1168,2125,3351,897,112,-919,1682,1216,494,-567,2753,-744,317,2216,-665,890,1554,3127,-3,955,-117,2083,26,42,2882,1534,-492,601,2276,813,907,1211,2882,1357,1798,539,288,112,1236,-497,-476,98,-962,1365,1864,2645,2465,2039,-461,1158,-76,-167,3773,1079,5,-462,973,1919,3618,125,2772,2639,25,797,
-305,492,2689,1087,-2515,1069,23,-214,-4598,-637,-2984,2654,-3330,-5449,-1276,-2101,2880,-696,3182,-6837,-363,-1922,331,1332,2783,1323,1302,2526,-3068,-6008,201,-2128,2500,-2363,1189,-309,-5625,511,-4259,-797,-2268,1225,3678,2466,-1223,-633,-986,-5248,-2533,-3331,-2411,-752,1400,-5411,-4582,-2629,1183,2866,-1079,-1855,3166,4039,1925,327,1261,1311,-2304,4721,-1068,537,409,-3683,-2105,394,1816,1306,-187,-487,-4055,1192,-4498,990,-649,1258,2455,349,-93,-5837,699,-1691,-3012,2593,3079,-649,-1183,2096,96,-4998,778,-1142,97,-939,-180,-686,-1749,177,-258,386,-264,-118,-3019,-536,-471,-621,-591,-2480,777,720,1593,237,222,-4593,579,1312,-210,-900,767,768,-1885,-831,-1012,-154,-1953,-1405,184,-186,1441,1108,1275,-2013,-2616,1275,-1095,1386,-15,-1101,-666,205,-1953,-2687,1248,-1054,701,-510,3559,453,-651,3829,-545,1529,1668,-1785,168,174,-529,-2357,-36,-700,-2870,1218,-2365,3054,286,-2037,1404,3117,618,1308,-612,-1685,-2559,3174,1001,-1044,-161,2794,-909,1270,-1338,-3412,3906,1347,-2040,259,329,-801,71,669,2933,-1588,
-95,-79,1447,372,2991,17,-2603,-952,412,10,-1279,2158,1392,-55,-740,1483,-7690,-4941,-2057,628,1625,1911,152,-2801,1497,-2505,2410,-994,-2107,2493,-2876,-4573,-1560,-5795,2297,-1566,2017,-135,-544,2805,891,498,1915,2185,2841,309,-1195,-1158,-1752,2756,810,-2154,332,1988,4974,2922,295,249,-642,7056,-8917,2915,-3519,-1963,-701,-5589,1140,1252,484,2027,2589,-2914,-2588,321,-3765,-1257,378,1601,789,-1445,-444,-4966,-1769,-3374,-115,758,-199,2777,3371,-336,-142,-14,-3373,-624,1311,393,704,7749,-2770,-1275,-517,-2486,858,-1104,1255,-2851,1220,923,-1606,2942,-906,1187,-1055,358,-200,-589,-731,-1664,-89,113,-4317,5029,415,-606,666,26,2035,-517,-1411,1417,2437,-120,834,376,-2084,1099,69,689,262,1440,714,-872,2058,-1150,1338,-58,3067,-525,-825,1514,-1984,1626,1394,1821,2986,3156,-630,718,541,-1774,4081,-1020,8,-239,3903,1307,-3033,2401,2635,-807,3542,241,1168,82,-637,888,665,3617,-244,2668,4938,-59,738,2316,-1806,-1260,528,504,2014,2293,1519,4236,1183,1151,5317,1629,1662,3049,-1664,523,
-176,5306,-416,500,1246,1753,1674,5626,-2315,-2399,-873,1363,4121,-954,-2705,-409,3485,-1175,69,-5758,1729,2010,2588,190,144,1157,1781,922,-2473,-2598,550,2992,-889,-20,-207,484,-763,-3005,2175,-416,-2932,787,2157,2124,2154,-1130,921,-8305,-814,-1094,-2594,329,1904,362,1526,-419,1441,1733,-2396,-1928,4143,1077,2422,3159,568,-1386,-526,3085,-3500,1926,-1794,-2384,-3597,1701,1964,207,169,2073,-5776,4373,1077,-1843,2123,3072,477,963,-5193,-1985,7275,1956,-4671,1412,4106,1000,-7499,1264,-1004,-2807,4761,-7072,1337,2396,-325,-2086,-72,655,1185,-621,1117,2822,184,-811,948,189,2730,-1431,1895,3778,-1205,954,410,-2281,-398,-1422,-1573,873,1103,1996,-1606,1222,861,-131,-1221,750,-321,844,2718,337,3486,695,-1404,2679,-1495,97,-205,-951,549,315,279,-221,-618,-217,1900,1372,-945,1693,91,2225,-1079,2086,149,-1676,-1395,-827,-899,1461,1104,615,-1734,275,851,168,28,-369,841,-576,-1461,1321,1131,2077,-100,2406,2051,993,1962,2370,-1358,2220,-380,1353,-163,3446,658,4329,2334,160,1030,-123,1223,-921,
-1799,1568,606,1475,8036,207,-889,2992,2836,3188,773,1359,5251,9974,3553,-2646,-1063,-2633,-1617,562,7182,1976,-2683,-423,251,-3315,854,782,-1083,29,-3680,-2236,974,2021,-1313,2385,3166,-2530,5505,8615,-598,-1485,-848,-851,1325,-2011,6567,4885,-434,183,791,558,-2054,4395,4255,5250,-1515,-6699,1095,-2968,-2505,-2388,-1747,-2206,-2605,-1256,4565,-2584,3689,-3455,2100,6379,1655,-124,-1854,-803,1493,-2662,-1047,-1029,2198,-1625,2108,-3197,-2413,-809,4076,1557,-118,-789,2833,417,3466,2163,-238,-2071,7199,4594,5299,3302,2781,2109,-483,287,2568,-248,118,2694,3213,-698,1417,1620,1774,442,-1375,1862,-374,-3494,491,214,-733,2850,-1575,115,-1169,-2194,2211,476,-1454,1208,-2083,468,2132,385,1553,-825,-6,2706,-1401,488,646,284,-741,-1371,-567,-332,1960,1053,-12,1238,-91,-114,-1716,3467,2179,1212,-1076,2675,-1641,2061,2,12,295,1577,-173,758,933,1261,3054,176,-816,3237,-851,2860,-3684,-1011,854,2390,1914,2749,1205,307,2277,2643,-910,2887,1796,1512,1529,1119,1826,-1777,-2102,1234,640,-712,2382,-1,2216,-1022,
3248,-1377,-1814,-2105,-4516,204,-2371,-206,-1608,1147,-2156,-679,-4628,-7739,373,-2573,2307,2995,-645,3062,-2330,-861,804,2868,159,2951,-492,1175,413,-1889,4083,389,-372,2110,3396,-378,-6875,1225,-2267,-6536,1544,490,-263,1184,1130,242,-948,-1614,-2353,-2668,5828,-159,3476,-2841,-811,-4422,-678,3138,-2456,650,-55,-1278,-560,-48,-2886,1256,-212,-219,-2977,2260,-4724,-1983,-1117,1768,7340,1663,-317,-1932,-801,-540,661,-1981,-482,-1344,1548,3217,-764,707,-3401,923,-2031,-291,4583,-6905,195,48,-2117,-4129,2194,166,-304,-679,1269,176,-2540,2030,2262,-563,-1654,1068,2387,-46,1036,971,3552,-605,-2236,-169,460,955,-3334,-1382,-835,275,555,-1681,2097,-2249,1511,-359,361,-357,-186,2164,-2263,-1293,-922,-1794,1203,-539,-85,926,-1248,-195,1357,-1531,-673,-1369,-1363,-1077,1280,-1105,-2139,-2031,1825,-245,697,-263,617,-544,526,144,-2020,885,-3144,1136,-1129,-938,-1466,-812,181,397,2156,-722,-563,-2065,-1058,1855,-821,-1914,2771,-3622,-439,293,-1731,-2193,723,-1480,-1672,-1872,1823,898,-238,-1308,-907,1682,-781,3161,-382,1604,
-1100,467,1748,448,1364,-12,-3256,-1422,-2014,-1071,-774,279,2122,4831,-658,-1664,-3278,-2550,-270,-177,2602,2769,-2682,-849,1534,124,-1669,2843,-300,672,-1564,-1446,-3260,-3362,-1431,525,-614,1338,33,3216,1419,1674,-2509,-515,4066,960,-1118,3101,-1026,3114,-1934,-1859,1230,-7,2509,5044,164,985,-3027,1448,-2774,-4392,-1796,-3161,-795,-1699,1424,-1904,-1014,-331,909,883,2235,-230,-5376,-782,1277,-152,-2846,-1318,1970,-1644,-3150,-637,-31,9,1149,2396,-2258,-846,15,1097,-1633,3619,961,-1836,2615,3176,-3532,1450,1140,-686,3459,-1739,2331,-961,967,-2687,-1182,-79,-262,1552,-1899,-2148,-1859,1258,268,-4453,-303,-2480,610,682,2150,-852,2203,2573,-1002,2240,-1274,-343,2009,1574,2692,-80,-475,837,1219,-1462,-1125,3057,-543,-647,2980,-1750,-1296,696,3532,-1337,1071,1884,-1438,-94,-837,77,70,1310,-3679,-974,-288,-2033,2431,318,916,-2750,2237,-981,-862,1098,1838,2132,2245,867,-601,1860,-5912,792,-65,-2595,-99,353,386,2009,975,1046,1585,263,-1895,-880,3267,2246,351,2897,657,251,1560,-276,701,-49,629,1506,
339,6011,-718,478,3002,-162,1525,3032,1011,1759,2107,1443,-413,561,1675,50,-1599,138,-3417,-2299,132,-150,165,-747,283,-1186,2976,-285,398,-3813,-3254,-3236,-821,6508,-1459,-2786,-182,-3481,2736,885,-2689,-229,2692,1192,889,-1964,1215,1090,837,1789,2672,-857,-4232,-641,5057,-3898,4261,-4405,1932,-970,6434,2582,-1284,6033,-1254,-1046,165,22,-1171,-1527,-49,-1469,-2735,78,-562,-670,-2407,2971,-656,2137,3482,1334,153,-469,1737,-912,-5553,5345,7732,-324,3640,-2127,359,3302,-3255,1042,-321,1661,6574,-905,1861,2585,1900,-1535,1676,-348,-98,1188,1154,-236,1307,-487,1386,-796,-878,-992,1504,924,-1765,577,1259,1455,710,-283,1644,642,1860,1463,320,-524,317,-762,401,-756,-1669,2529,-334,-1277,1961,4083,-1768,-161,4300,1362,-802,1159,2130,1868,-219,412,1156,-821,-48,1198,1479,1438,758,-326,-1501,2113,1146,-169,218,616,-109,2535,2003,2564,809,389,29,-398,1697,-226,2770,962,151,855,1660,2824,-81,527,204,384,1799,583,881,-634,-1165,319,-317,1122,756,1509,2117,86,1794,198,1289,-692,
-2887,-1080,-1838,-959,-1629,2699,-2753,1898,-1938,-2564,-1471,-473,1325,618,-1028,-2505,305,21,-1181,3349,1524,5840,-536,-882,-899,-494,-3463,-1692,2178,811,1658,729,-3806,-2669,-2034,3440,-822,2913,2469,-953,1907,-787,-4003,-2253,-1180,-734,1008,-3772,-2007,320,-3729,850,4818,1407,-1309,4437,-563,-77,-748,-3565,-5570,-2870,-1070,-3138,98,-1542,1375,-1774,-2787,386,-228,501,1720,-1120,-331,-968,-985,-2663,-5207,-3050,-2218,-2608,444,-858,-1709,779,-2392,416,-2110,3159,-2330,403,1931,217,1853,-3479,1180,-4231,1361,6442,651,2510,2537,-1655,832,1443,164,2397,-112,2230,-1315,1350,-726,3016,-101,-319,-550,131,1542,778,2887,2088,-455,1058,1175,-175,-2027,-1212,312,523,-152,1647,-1236,2301,1259,-1677,-167,2514,1214,451,1802,1224,-653,-1804,1528,2105,-291,147,-725,1538,682,770,443,-888,-2605,-1038,-1735,120,1405,-346,165,147,1629,-486,-1144,1360,-1233,197,596,-1496,487,2134,1477,-316,1952,-503,-378,-690,1296,1169,116,1976,2477,1875,1581,878,254,316,896,2797,564,-545,1470,-121,-379,563,-1345,63,-2439,118,
613,-8346,-924,1247,-2194,4480,1099,3544,-697,-933,-4924,291,-7903,-848,-4603,-711,2577,3339,2269,2,-4700,162,1248,4262,-134,655,487,1098,-306,456,1667,-1168,4164,-1199,-122,681,-3389,3295,-2002,-3690,-134,1181,512,-938,-2882,625,2054,-1291,63,-3222,-1705,1500,3497,-3080,-10509,-1993,-53,898,2927,2815,-884,-1430,406,-2093,-3249,778,833,-3099,-2437,953,-4334,-1881,-318,572,5830,901,-1619,-2043,-1332,-1760,-3069,341,-5284,1043,4313,2006,-1604,-2564,-172,-1857,-3365,-2920,-2823,-8566,50,-752,-3949,-840,-1612,-380,-1277,-57,64,1878,-2306,-1200,-1051,-1668,-841,-1001,-311,-2153,-3026,727,1070,300,243,143,-631,209,-2430,-4467,297,-463,1822,339,-584,-658,835,-2469,-811,-1310,-1231,-636,-540,-410,-1390,-426,-3283,-758,224,-262,-2784,684,-225,728,-1598,-352,-514,504,-856,-419,-602,-602,-784,-1636,-561,-4378,-1445,-477,-4125,-1567,1115,242,-3044,-3019,-2276,-4209,-924,-827,231,-347,607,255,-1002,-2332,-1038,-46,-1990,-2258,667,-3310,-524,-1083,1214,-1282,-732,-336,-2506,-463,-446,-2588,-1450,-1211,-2512,-1480,23,-1085,-445,224,
-413,4632,-1215,-784,-640,-2225,-1535,-391,1704,2539,5900,1417,5600,5550,-1443,659,-1613,-3733,-2032,-364,-95,-2069,-189,-3060,-869,657,-1525,-1134,2380,1866,-1109,1714,-3346,46,-221,-1098,7393,-2527,2143,6644,1658,-582,-2721,-1397,5139,-439,-1761,-658,176,4996,1710,-1647,-2778,4044,6240,1826,528,-940,-1377,44,2587,348,-1853,1184,2078,-2116,-1130,-174,-1890,-1113,5358,2737,-818,-474,-3948,-1271,1372,563,3096,3467,3844,1929,2551,-180,-2211,-1756,-406,1715,3989,-16,3006,-1190,255,9764,-260,-968,1585,3812,2071,-451,426,516,1384,-631,2344,-408,145,1211,349,1723,586,1621,2158,-1078,1603,-1172,1143,-1533,1399,948,4284,2948,-557,1155,514,369,817,2690,-111,1210,1737,2513,261,683,93,525,2115,1170,2383,1689,294,-528,2590,3141,-328,-1121,1879,1208,1015,160,-118,862,1272,2076,918,1262,275,2121,317,1560,2125,1100,2066,986,3016,1887,1700,2773,1261,-69,376,240,-170,130,465,2097,-976,287,797,3525,1253,2533,1150,896,497,1350,-527,-133,2700,1656,110,3462,2034,1172,2312,2472,547,1152,575,-276,
2291,-2318,-1113,972,-122,-204,3311,5471,-1599,-1407,-2549,3329,4169,-4719,1607,-2662,3064,1309,-1104,-3751,3083,2788,2493,-657,1575,-794,5241,-611,-2402,-9510,-3763,346,4757,4747,2504,-2671,-843,-5882,-1065,-1444,-3748,1202,1694,-297,-4250,-292,2754,-2184,1449,-1560,579,82,-1797,-2616,1734,-944,-113,-4062,1925,-819,-903,2473,976,1807,1534,-341,-29,3929,2272,979,-516,-3959,-43,670,2582,321,-1225,2585,-2743,6197,-3323,-8588,1228,2111,370,-351,-2260,-4194,3333,-3503,-896,3180,854,271,-6574,-1783,288,3692,5474,-5684,118,3064,1823,1313,-103,-1112,-769,682,-417,2407,1265,-627,-241,-39,-784,-715,1770,1979,1741,1480,-2728,-1663,-132,-608,-629,495,2011,2059,654,1783,730,-626,-896,-3176,-1294,160,353,-1719,772,2579,-1049,1282,2687,2458,-985,993,854,1912,-2205,33,166,2072,417,350,1554,-1004,172,525,-836,1889,155,-1371,870,-1443,-1125,1976,676,599,-1146,992,1166,-658,683,942,4605,-1386,431,2356,-1070,2540,-1246,-1562,356,-889,1572,1568,-17,4006,-1763,599,1662,-911,-2276,3259,2665,-1815,448,1075,969,1157,
-820,307,-282,-958,-2311,3305,1652,3886,-1899,-2029,352,-986,-1529,-846,-48,1628,-539,223,-469,3041,-2254,1132,85,-737,-2494,-137,-927,2168,775,-2476,629,1757,2532,1261,-1303,747,-2020,858,-1061,-1838,476,548,-2079,-767,-1769,776,411,2886,2616,-2880,-1552,1719,714,-3075,-2582,522,-3479,-1275,1178,-1626,2249,-2148,4724,-2309,4745,4282,3017,-4493,1645,-737,-2190,-573,1179,740,4607,3562,-2522,2397,-2986,2174,-1926,6876,3156,1237,1414,805,1591,-1685,-2519,2575,-1341,-4114,2713,-2080,-1428,-1050,-1023,-9848,3043,655,955,-1115,-2373,552,190,-45,-1513,1068,-865,805,546,-1059,1188,1762,-3211,-389,-896,-730,-720,1177,912,-37,569,2124,-508,-414,636,-719,522,-1709,-2748,-3438,1435,-2177,1699,-1737,-751,-2198,-589,-902,-293,843,-1257,-447,-459,-870,1271,-2128,-1981,-1282,-825,-602,-1205,647,265,-523,76,-183,-934,-1125,-3347,-717,-1717,-472,-2389,-314,1086,-1868,-130,984,-3359,1342,1052,-812,-404,1119,907,-1912,551,-936,-5664,-2588,-266,-492,-76,-3171,-354,-477,-3428,-1235,287,-4073,340,-2659,-2159,-1525,-316,-460,33,-2176,
1513,-1100,-132,873,-1620,-2257,1760,-3710,831,3165,-1067,77,-3747,359,-661,2483,1313,3360,1030,-1528,670,-220,-654,1694,618,440,1217,31,2034,2031,833,-1746,557,-135,1875,-2657,1074,-2323,-2872,-3227,-1825,-224,1184,2617,-1115,3516,-3396,2203,978,-1510,656,821,967,-611,-13,-4224,1244,1204,-86,2383,2206,4815,-4990,1856,677,1070,-131,3636,3672,223,274,846,1232,2469,-551,1623,-1038,2547,2505,1736,-1647,2814,-457,2797,1918,-4567,838,-2790,1980,-713,1953,847,-3589,1563,-138,2271,-2115,4092,-1366,-1739,-2332,-1084,398,-784,210,-1246,-1335,-1255,1247,-598,-2670,-1647,-1923,11,1145,373,33,-3942,-223,3217,819,-1910,191,-568,-682,-472,-2315,-278,1909,-776,-1146,-1565,2156,-76,-2132,441,136,-1877,-672,-700,-775,-146,181,-506,958,1059,-2224,-2195,-403,-715,1587,-1900,284,-932,185,149,597,366,-179,-2196,435,-419,2594,97,146,846,751,3267,-1040,-849,-1788,-203,264,-853,-390,2547,1830,249,1624,-1161,-1671,-1267,-2171,-2849,-1103,1619,1092,-574,-1634,1301,887,368,-2298,894,-2138,-1156,-1479,857,-960,-229,
-210,-1093,1462,-3309,-1513,-363,-156,1124,-892,-308,-2340,-1479,422,4581,-380,-2198,5797,-3582,-419,3816,1663,2698,-996,-3585,-1763,739,-4761,-1196,2028,15,1611,3759,-5570,-1330,-2243,-1380,2519,4354,1262,855,5152,1024,-3709,284,-3330,-1193,-2539,8958,-3827,4210,-2966,1902,-44,2800,3876,4197,-757,-1358,-3630,-708,-1652,-2774,4091,-3191,5257,-2659,1849,-313,-1843,-20,-4626,2757,774,85,-3800,171,1648,-4909,643,109,-3698,1838,1956,-4217,-1904,805,4494,1676,-6044,3786,722,3354,4245,-5356,-875,-3146,720,-2910,-2026,564,-1255,-1192,-3173,1297,1925,-459,-44,-5277,-1627,664,-1448,1028,-777,1466,-1308,-36,619,-1805,3144,-1585,-312,2956,-1252,545,2498,1907,-673,-1148,3175,-521,583,2447,-1155,1633,-3475,811,701,979,580,3069,2162,-390,-1108,-1360,3208,1227,2309,-1889,420,2357,-3005,-1166,2791,-668,-2653,1252,843,2109,-2459,-2558,516,902,1121,402,5153,-27,-1146,106,2490,2116,970,894,621,-158,-4194,2573,-919,1152,412,1041,480,4970,2400,2454,2229,-152,1390,-114,2088,3044,-1496,-2991,-1313,-878,-265,-982,1143,999,-973,-895,
1405,6560,-2095,-3981,3348,-2860,1185,1937,-420,1071,6327,795,7176,370,5004,652,-1680,-770,-4339,86,3394,2,680,-5375,-1094,-4140,-224,-1316,-1110,-5279,-6942,328,-1011,5957,417,80,-1910,-1327,1307,903,-1725,-858,-221,-759,1427,-3316,2277,2498,558,3236,5048,-935,-5317,-1430,5108,161,-1552,-1609,-480,-2460,2177,488,1112,176,2758,-485,306,-4781,2048,1882,128,882,3306,-1006,-2991,-2440,426,572,-101,-67,3189,1211,4079,-2179,-2617,340,650,2021,-457,830,4505,2524,6699,6104,-1889,197,6239,-353,2520,-1004,682,-600,617,418,2042,652,3206,1251,763,1684,1896,2505,2751,321,-506,943,658,1181,-2963,-993,-1067,2072,-712,-299,-2924,-1454,2403,-221,-652,-970,-298,-95,98,337,1442,-511,874,-1061,1774,1907,-145,129,640,-501,-414,389,2983,883,3045,1211,-752,-881,-1828,1559,-310,626,104,-1019,-447,1136,2057,-54,-1346,3576,591,1105,976,1285,1025,2369,-2183,1636,-400,1072,1095,400,1757,1223,-9,2954,-497,3084,232,2581,-2196,-1504,2289,-723,-269,-347,701,-1176,-14,-776,-137,-352,640,808,810,1831,
268,-2913,-1522,1225,-1230,-1606,-1801,737,2839,-188,1233,3398,2038,838,-521,1611,1365,2459,-635,-1407,-1007,-683,-239,1858,447,-520,2563,-861,-200,5792,-317,-794,-856,1996,57,-569,6567,368,1731,-1451,1908,-813,-12,718,-693,-950,-1740,-36,1001,3264,268,663,2310,1188,-2706,354,1719,1963,-1178,3297,-1512,4007,-2430,2125,-66,-4475,80,6547,1377,636,-13,1284,2820,-667,-4874,-870,994,-3588,8678,-3035,3649,578,-3220,-2351,-3843,724,-420,780,3466,-2137,2788,42,-6409,-2920,1051,1845,1033,3437,-106,-1156,-1739,-916,1360,2281,-78,837,1810,-1371,-583,51,-1265,3945,-775,-1927,-137,-1765,812,840,-720,-2020,220,1089,-334,-1663,-312,307,-37,-400,-43,-357,-179,909,-1012,1071,-765,-223,312,2071,606,-2865,2129,568,897,416,2879,1675,-1063,776,1716,896,281,-1557,2133,83,-1792,2173,-1080,767,1187,-1048,3034,2071,451,1465,2790,-907,-1090,1672,-1262,-460,407,-760,-635,-1820,-1163,-160,-1558,-1727,-1076,1894,1879,3673,152,521,-103,2817,-882,191,1515,-1546,-865,3406,933,1614,630,781,295,1230,-1747,1595,
