16288852,15594051,22001896,4140931,25983108,18788228,14474705,18094552,18751492,8884525,18361640,16363538,13509278,18430060,14398445,19148812,17784978,8414555,17377856,21506208,24388748,13963460,-728176,8558396,16747460,10573159,22340424,22394942,18223030,16393822,7089996,18813416,21246468,17799300,22120866,14008916,18072792,11014761,24560854,12001515,13743084,15284195,26425250,13933559,5484366,13217760,14567078,13863255,17339308,13884573,15573943,1423256,21853510,24162818,20357822,26742782,22122616,3739575,10420701,16500503,23039406,14944617,5735507,18338134,15401628,11747363,22766190,20463342,26346982,20632036,11887507,22523082,15177550,17445500,21426416,16611250,8220336,21647676,25309656,13563544,8766525,12127700,16557184,22275984,15668161,17245414,26397546,10702261,15921309,19075648,26101362,12648762,17249432,19547260,5469045,8837884,25141672,29607706,30179926,12854070,-17240778,-11704968,-17787878,-19063350,-20982058,-13227398,-15420459,-16167226,-12526498,-17117124,-12064766,-19236926,-16607891,-11612019,-13253007,-14954644,-7802000,-21613256,-22535270,-15463331,-12915768,-18547444,-16615559,-16780360,-14833471,-9129172,-17699826,-13969025,-16517142,-17871886,-15892440,-11216926,-14054106,-13437852,-22741294,-10578271,-19951260,-9676228,-19623470,-12165541,-15967598,-16999230,-14313748,-10912164,-10882738,-18025130,-10477152,-12517422,-23862806,-20829308,-9091604,-3444879,-9828861,-13312796,-8438140,-23440532,-14708047,-11935231,-17731154,-17736522,-26405352,-16057289,-19348938,-21125160,-24269248,-28255542,-19294048,-12070371,-19882606,-22188226,-11933328,-20530988,-15200300,-20922124,-19229440,-17876644,-19599758,-4488256,-8971066,-18836980,-12428457,-20074944,-15424715,-20490372,-18218496,-21618754,-16156922,-14522364,-8930080,-16399565,-11301671,-15273430,-17364600,-11038996,-8390936,-19315586,-21109706,-19652768,-6344254,-13872068,