15005816,-5806110,10108321,11073475,-8510854,13896448,12518118,-990795,3322199,6049376,390329,-1544504,1307244,2628968,-2837644,10167395,9691725,21264792,5632393,15306556,334653,-13057239,17544052,8630429,5759504,9808179,696031,16986314,9278350,-529835,13059477,15063990,16104068,-87085,13745154,2710488,-4006809,3425553,-15152044,-872029,689324,21294846,-955825,9915940,7318722,11718917,989888,-3179513,11958543,-4784352,7879865,7139686,8915213,-4526605,-6201129,-4500924,13337229,21399882,14028549,18185222,735575,-2288256,9143334,3060714,3963162,8460408,16221300,983756,-954346,16495191,2010720,8269222,3670475,16874778,17878208,18648946,13693232,25141242,1903414,5587666,709232,15450882,-6692306,14207298,21499044,7230405,7865119,6112392,-14779453,-7396264,8764580,5154559,14749071,-6224267,7579068,9559525,-1740687,6187070,456923,-2838583,-17074426,-17461122,-21366624,-13468573,-16261136,-17293040,-17207038,-18745378,-14645104,-23602026,-16193056,-14397452,-21127960,-14447365,-14469285,-18147000,-8641882,-21618294,-14234778,-22387812,-19513762,-22271526,1023287,-11862610,-21454766,6168034,-10210382,-19196572,-18777102,-15215502,-5158254,-14093785,-13878914,-18592074,-13108794,-768996,-17139630,-13861792,-14212153,-5751124,-19770142,-21097010,-11220044,-19361334,-18000752,-10626383,-15367893,-11616504,-10190956,-8697055,-14612369,-18101190,-7611869,-17015090,-8940121,-13072220,-16546407,-19056070,-24183792,-16907364,-11163532,-13285267,-20140714,-12602882,-14776822,-16823910,-19108578,-10920634,-13588979,-16015543,-4809567,-18363274,-13824192,-14759422,-19673684,-13883646,-18105276,-7642212,-7535599,-20899198,-12381989,-16537915,-15274448,-16980378,-17584956,-20641316,-13175446,-21804372,-3444860,-10260013,-15738923,-21390156,-28778190,-12641825,-10714349,-21260502,-15023633,-16817288,-16213626,-22651394,