//scale=2^22(for the bias) int  scale=2^11(others) short int

PI_L2 short int Ingressi[]={
878,813,669,556,470,397,320,235,140,174,374,504,667,857,1045,1181,1133,1035,974,911,773,665,581,508,431,349,253,174,374,504,667,857,1045,1181,1133,1035,974,911,773,665,581,508,431,349,253,218,185,78,5,-45,56,245,431,603,
};

PI_L2 int Encoder_Lstm_Bias[]= {
-3562088,-3971842,-2042185,-2073418,-2582575,-3494890,-3277344,-2483060,-2477056,-1615531,-2902837,-2603406,-2700392,-1786414,-2885349,-1345293,-3434065,-2664496,-1657546,-1928701,-1991468,-1868037,-1683707,-1289104,-2897335,-2868196,-2559800,-3609016,-2766577,-1974660,-2240771,229346,-3145468,-2385477,-1814835,-1358456,294096,-2615303,-6038,-2066235,-208922,-2206073,-218298,-3303672,-2276692,-1880706,-3316308,-1913194,-2907522,-2115161,-2902129,-2816113,-2440225,-3347283,-2833527,-4174362,-2474184,-1650308,-2460672,-440484,-1717621,-2228929,-3708690,-2379426,-2865928,-2586748,320831,-2257163,-2119270,-2238710,-1262515,-3499971,-2223606,-2021092,-2771640,-2424213,-1409358,1883687,-4106800,-2469796,-4208518,-1851492,-2540817,-1967287,-1691374,-2267064,-1147651,-1645780,-1987432,-3069923,-2630831,-2331577,-1264905,-2264451,-2129109,-1977318,4172827,-3923184,-3036659,-2419063,-3052178,-3588453,-2991462,-3113208,-2882853,-1951134,-3010709,-1315694,-2530663,-2681688,-1817380,-2805963,-2417708,-1740561,-2714096,2827835,-1904311,-2893716,-3488858,554796,-2065531,-2475301,-1511702,-2316122,-2495608,-735235,-1952767,-1718540,-3260706,-2486793,-2362726,-2423964,-3248736,5406308,-2937654,1245411,-3179537,657795,1468616,-648408,-2080135,-3227874,-2226798,-1979841,-2829940,-2996191,-2090576,-3900340,-2999209,-1915018,-1901734,-3172819,405851,-2634558,-1488973,-1445122,-1943443,-2293782,-1774186,-2443760,-2550293,-3508780,-3250874,-539692,-2456011,-2365748,-2945233,-3422558,-2760648,-2306396,-2518180,-2494082,-1624148,-2050121,-619471,-2872246,-2082264,-2754559,-3259409,-2323643,2014067,992860,-2451428,-2902600,-2403131,-1313501,-2961303,-1033580,-1576410,1607136,-1838777,-1882835,-3128707,-1879655,-2513297,-2078098,-3260989,-948564,-2127303,-1541656,4983494,4118717,3007001,3041206,2585060,3172067,2144381,4964116,5861540,2954049,3307525,4249007,3130095,3954345,4356574,37835,4795440,4246172,1309458,3592101,4376375,2899867,3564683,3039653,5032319,2470719,2645075,3998701,4497112,2354499,3040963,-171098,4784831,3499558,3893623,5298546,-1899228,3492215,1880285,3577609,3073926,3082422,-442047,4424633,4240979,3534510,2038908,2928138,4590653,3415632,3399892,3472475,3014944,3294271,4171523,1877355,3660092,3666999,3896433,-760600,3109555,2438649,3544816,3947771,2556716,4010322,-255990,2894751,1257631,4615226,201495,2211114,3673896,5400862,1599129,2122319,4153537,657279,3661191,1266058,3516627,3017056,4024652,1628698,570210,2443944,1991508,4714488,-515404,3274974,-285233,1979420,4990583,3962635,2648232,3833857,-1631431,3928863,3571702,3835882,5124228,3215597,3886578,3876583,3239751,3761966,2689015,5404905,3315460,3079164,4745454,4903070,4183820,3765307,2649613,-2324298,3653435,4031848,3496838,-348625,4226388,2157549,4618960,3118472,3877839,-1177830,3314765,4140932,3348395,4329904,4844815,4116679,4147841,-2059367,2506818,116079,3766717,115626,1381167,1519391,4874211,4327611,3113937,3917906,5790233,3185842,3407407,3632327,3280303,1132408,4139300,3316521,3560247,2994140,-580852,2005232,1666534,916719,5529709,2448434,4052189,4006465,2566945,2980218,3831725,4092248,4979449,3986952,2404513,1422446,4401121,4629384,5191421,2924698,366308,4162569,5009475,4419539,5168727,2665075,-2771537,-592944,3081793,3432808,3285296,4186204,3471312,3452404,3819021,-154324,3669172,3468918,2540076,-336086,1196658,2897821,4581852,-217756,1809420,4617986,21307,121142,-1541222,-362878,251540,-164357,-63462,-277888,-750604,-924860,648835,-197772,-1092237,1160279,-796710,21076,433737,-222073,346308,-229043,-179923,-403419,47776,102520,-729617,388245,-351944,1084393,645559,-318996,71401,-1254564,-318021,380051,-320243,37490,2280634,2890,-212154,1376725,1537105,-1740260,633073,1033375,2163755,-1462455,-1082504,49499,-1161077,-468309,-1370628,-252564,-531372,-585163,434188,591232,439209,283146,-649219,-24371,2227592,-835652,-260471,692783,-149650,-217753,406879,95242,2073696,2121883,1073810,12431,144452,33888,457674,1767590,131409,803948,450104,-273296,644395,-273582,1223614,709407,290106,17040,-277503,-825571,379542,699486,-109538,593052,486566,923715,-539258,-710006,-922001,-222503,-1068118,-586474,-50382,409788,-196905,1186115,193896,-473308,570347,200083,-274261,393622,-211197,215981,1262506,811276,740737,164097,334447,121737,290833,-321450,-203309,404931,-797636,158775,122346,497696,187146,211957,-218473,734172,282934,-471194,184042,-749394,64789,-910717,125367,-69433,411435,-223527,-102968,570359,-75666,-514920,1915051,-375199,45446,-783852,-165056,-470691,1495174,-574391,1098312,89845,-1023165,2430717,-375106,-505443,-193442,-332337,747342,215375,954361,2024575,1438402,323225,8682,558328,339435,-1745119,658180,-52109,584144,-1104468,486843,979732,184952,-394448,-122065,-406777,534925,299515,75810,-700552,-390968,-1209713,-242984,-401476,391973,265977,-738998,-376587,1509842,1598096,346026,497642,707622,932632,171529,243992,-426538,-1048084,-1579560,-2014908,-2157867,-2227508,-3082139,-964480,-1034331,-1470523,-3258960,-2294783,-2288253,-1571159,-2576740,-1926219,-3049926,-2849256,-2396702,-1863431,-1626294,-2295043,-1654468,-1967136,-3151095,-2884506,-2770774,-2151298,-1434861,-1907590,-2819801,362328,-2012563,-1374390,-1378927,-1657697,483202,-2322263,-1044394,-1391962,-2256072,-1719678,-789063,-694869,-1145108,-2459885,-2470094,-2003725,-2643045,-1762634,-1112354,-1647050,-2249498,-2756922,-2197117,-4211520,-2381386,-1368607,-2045526,-1592916,-2009240,-1253112,-3014053,-2321311,-2073584,-1640663,-428271,-3237196,414401,-3009831,-1538499,-3303472,-1512940,-1586740,-2429262,-1371384,-1937876,934766,-3319918,-2523289,-2851375,-2518165,-1760444,-1786409,-2461615,-2493723,-817122,-863284,-2420778,-2973698,-3012355,-2440654,-1926779,-1752618,-2550861,-922392,2608930,-2329688,-2925468,-2261680,-1714909,-3251562,-2180889,-2716815,-2704078,-1484782,-2781436,-877897,-2999674,-2517263,-2379405,-1601115,-2692817,-948861,-2930165,2470863,-1626074,-3338517,-3685529,-233848,-1727062,-2341250,-1539110,-1901145,-2406777,-1563963,-3234422,-1034808,-3150487,-279626,-1126912,-2984091,-2058948,3714060,-1967515,1179381,-1991358,-501652,311175,-958287,-1875321,-2408223,-2053628,-2518949,-1219272,-2724605,-2238267,-2389801,-2840301,-2319240,-1591897,-3101631,-1707267,-2623101,-1495293,-1332226,-2282987,-2127495,-888329,-2153410,-2254748,-1334445,-3808544,-2352128,-2407077,-2129692,-1315143,-3098429,-2358008,-2182265,-2082261,-1233216,-1722227,-1309638,-819079,-1538514,-2350677,-181837,-2107163,-2523986,1456447,312633,-2794715,-2371453,-2223701,-1959783,-3246770,-2121140,-1177787,1047963,-1024617,-1586241,-1984344,-2602299,-2933826,-2070412,-1467058,-843966,-2503167,-2069833,
};

PI_L2 short int Encoder_Lstm_Kernel[]={
469,-327,-1919,-483,-401,160,222,127,1579,-453,222,541,83,1666,443,10,-596,396,-1742,-190,643,105,158,317,-880,-28,-250,1658,2353,-264,-2107,359,799,-50,-240,-441,1805,-227,-902,-63,-2296,-673,236,466,2994,1350,1075,-632,-2163,-63,1209,23,-210,-613,670,364,-2332,426,380,697,5123,433,-50,-249,-512,69,126,1735,-6770,-1152,-1347,137,88,-24,-592,-3420,597,-560,19,-1434,843,966,2122,576,2785,272,-754,236,-27,-1282,0,569,625,2771,-536,155,-41,-570,-352,-546,176,14,379,376,-280,301,-31,511,-232,-610,531,573,-41,92,-164,1398,755,-256,-290,-510,1062,-244,-145,211,476,266,899,-324,-96,20,352,221,-174,-179,616,-5115,874,207,880,617,125,319,119,-15,3357,331,-79,46,-90,767,-2,79,988,840,710,4178,83,-368,942,9,1089,-1146,-730,-2918,-721,917,587,-35,-652,-224,944,326,-44,-948,1051,-281,-348,677,169,-190,185,206,-354,843,-257,-2618,-24,783,755,741,798,353,-60,861,573,-144,320,280,-590,406,-788,-106,-2133,-268,-422,-97,335,-86,1463,-789,-96,1151,3,3133,-11,-571,-1092,453,-1815,773,469,-402,159,401,-1554,234,-10,283,1940,-438,-1295,1175,208,653,739,367,2007,-1056,398,105,-2786,-268,1343,-1193,1219,553,604,-605,-2738,-607,237,-475,-142,-136,-382,275,-1822,-55,695,-279,3850,-23,271,-407,-143,-685,-1018,5245,-6073,-1473,-1516,130,424,18,-393,-3711,-18,-462,43,-1397,177,1382,2567,-184,3521,-347,580,-368,387,-255,-302,1390,276,363,-256,775,-276,-903,-373,-281,-547,463,331,257,87,-198,-101,810,-417,-703,1317,61,-301,-231,562,205,619,261,-780,-1566,-612,-231,-51,-132,1499,-273,764,247,-107,-240,-127,320,101,-722,190,-2260,367,-588,383,-420,-640,699,-36,-543,1842,378,-177,-377,-393,1500,-1130,169,305,-233,343,2766,235,-560,382,-247,1088,-619,43,-3498,-16,919,402,-254,-848,547,876,1591,-728,-111,1849,14,95,38,160,-582,1210,60,-201,2303,22,-2146,-309,198,824,1141,328,135,243,2242,333,370,-57,63,-1309,60,25,203,2153,446,-1293,-767,-1076,64,61,1734,732,-988,-1186,-62,-188,-1915,47,-312,-1658,697,-696,183,202,1800,16,-1630,-884,-252,419,-1795,-1115,-2471,157,523,1129,268,2484,-1191,-1435,-642,-2340,1201,2498,69,759,1011,693,326,573,796,603,-44,-333,-132,866,835,-673,521,750,-2604,228,2491,639,137,1905,1122,2372,1913,-1984,16,-2571,1046,-805,4,-1028,-2249,178,-3306,658,1298,319,1175,-680,-1942,2007,-955,1784,1640,-2545,-170,1863,-2600,557,-380,224,1465,3681,303,-251,194,503,526,-92,932,-322,953,-1128,-609,858,-1041,510,352,-1333,568,546,-3370,1340,532,500,2386,439,1001,1328,-31,-617,-2718,842,-1538,-155,54,-34,973,32,3911,1709,3080,-605,2469,-2573,-1958,1431,-497,641,-392,-173,-1786,1096,-1224,-970,2280,-1162,-845,-1419,91,-2392,1620,-1252,-2190,420,-929,-785,247,424,-2346,-1166,-980,269,464,-1463,-1788,706,-594,915,269,2334,-979,-387,-705,-70,1840,3047,2595,-111,-813,-176,1607,-827,-563,-1071,2749,-75,1132,1129,1893,-1458,-984,-217,2280,-1686,-1452,1154,1539,-1479,23,-752,665,587,-14,4835,-913,412,464,112,2763,297,53,-5347,-1250,-704,1291,-153,-441,-45,-746,-4972,-170,25,3241,4101,-574,-999,-265,-2022,439,724,1445,318,-537,116,1065,-3424,-652,184,2311,5143,2684,1975,-853,-6533,-745,-1077,-640,60,-1272,161,328,-1676,276,801,60,5830,444,-1316,-2333,-150,105,-392,3945,-4200,-6678,-1034,-546,1815,-1669,-1004,-3389,-1185,569,-458,-1090,-612,3529,2432,470,493,-222,-357,1826,196,-1280,434,217,568,-1245,-85,375,376,89,-746,-15,364,539,1380,1584,-67,-678,-642,1586,-1414,342,610,481,-474,-90,622,180,866,-1181,-946,-912,-869,-422,1058,-51,1748,573,1397,1539,1613,-760,-1391,-583,-1517,60,-791,-2821,-365,-212,971,473,-289,-41,386,186,5429,848,-460,337,995,1335,-2400,-1124,-1562,-1002,-9,3880,11,-7,1584,-359,-372,186,717,-5927,-2446,1004,-4238,-1345,-239,1162,973,1706,-669,-3,594,559,-733,420,700,-570,370,-136,-472,971,-796,-2998,1027,-524,1169,1399,708,548,-305,570,8,220,-1160,457,-145,1208,
};



PI_L2 int Decoder_Lstm_Bias[]= {
-1169538,-1803250,-4576609,-717096,-2540186,-1708059,-3114207,-2601322,-1692033,-2831613,-3469350,-3339915,-3778593,-2789890,-3620029,-3257865,-3938487,-2155370,-3980258,-1402315,-2862789,-1847244,-3004578,-2915275,-2025096,-2717457,-2736016,-1874556,-875717,-3573120,-3645147,-4027875,-1363226,-1392660,-2492094,-3022696,-3462831,-2337194,-2841089,-2140493,-4221597,-2220734,-3879573,-2773619,-1715470,-1050012,-2788831,-2330236,-1850369,-1528069,278307,-3080730,-1228087,-1788717,-3247507,-3878771,-2960734,-1726653,-2048988,-4588414,-1642310,-3878654,-2736176,-2925348,-3415422,-2176655,-2571826,-4201292,-2059433,-1845944,-3557946,-1931122,-2404853,-1347394,-2047804,-2161501,-3492258,-3469201,-4610173,-3565280,-3938612,-2046067,-3076615,-3838056,-1804759,-2711622,-4196135,-2637365,-3989307,-2074178,-3677606,-3860771,-1045048,-2358115,-1796559,-2570180,-5091896,-2175308,-1499928,-2519929,-720139,-4917650,-1961214,-3247821,-3127579,-3819552,-3296729,-2460976,-3686620,-3047994,-528592,-1879880,-2463935,-2402266,-1981239,-5284213,-3455225,-2647559,-2688693,-3676304,366529,-4456148,-1490873,-1548034,-2493665,-4809178,-3928980,-3878630,-4208585,-799555,-3543617,-3903401,-368824,-4390293,-5232619,-3088953,-2113848,-5013976,-3592758,-2836136,-3466567,-1410701,-1768673,-2860442,-1721166,-4007671,-2296926,-2776559,-2999967,-4018506,-2525604,-4093835,394699,-3153501,-4035115,-2959762,-3172688,-4329788,-1303356,-2066442,-2484334,-1705982,-1425776,-1554400,-4257463,-1411999,-3127286,-4039305,-2406073,-3275168,-1327756,-1397305,-407219,-1104433,-2908017,-3498950,-1975673,-2877703,-2527635,-3428935,-3778345,-5067054,-1598321,-3764761,-1442396,-4009651,-3566461,-1364301,-3521455,-3969802,-1326101,-2775362,-1883941,-3221549,-4044174,-3469896,-2568857,-3546663,-3141218,-2658733,4999401,3925666,4991512,3155875,3935269,3729639,3280829,5006422,3162318,3995413,4319719,5102541,4438854,3099594,5504831,5075712,3452171,5088356,5246035,4193310,4667013,3668574,4069749,5277904,2960939,4673617,4762163,4682994,4480960,3997851,4753900,4986159,4801461,4078902,2974939,4305802,5372476,3886405,4071379,3908391,4190725,3345712,4519550,4126953,2341215,5853600,4521200,3513972,2873084,3142688,3247364,5051671,6095059,3279187,4645217,3753704,4998436,5073747,3701559,5444617,4587076,4494275,4702205,5026877,5489755,4696320,4617383,4936051,5250983,3254751,4538830,4237258,5235932,4984565,4023979,5083376,3914779,5656282,5254356,4200652,4717744,4052747,3360558,4948301,5345793,4222068,3023072,3536656,4691707,3609378,4621858,4583852,3757311,2898925,3980550,2739368,6247086,3172258,3860935,3229427,3533199,4984983,4389612,4605906,5115072,4040840,3966092,4704136,4373396,4293713,3547458,4218312,4764633,4590657,5012567,6365229,4974761,4626249,5343325,5089072,3816828,4494741,4051642,2269511,4410885,5580373,3916136,4086036,4561626,1128677,5059495,4680993,4978465,6272947,5267388,4179714,4114295,4969660,5407533,4185783,6174647,4263200,1683687,3721147,2513114,3954401,3726876,5081768,5102327,5360229,3556212,5089517,4458028,5609852,4201704,5014237,4243415,4394074,3171394,3352126,3927637,4478190,5714359,4795827,4351984,5783950,6511482,5754501,4549889,3941780,1978349,398742,3723380,3816663,4852284,1201350,3491130,5629903,3605657,4689032,4627138,5248450,4172777,4122769,3719370,4344881,5285771,4316634,4969412,4070275,2973392,4161921,5124698,5377746,3996913,4037836,4338801,4221903,4501593,4126482,674707,-596728,138289,332285,-226056,-41689,41266,315357,358532,450726,151891,508561,49617,696949,-1048989,-257434,-286461,689616,-533006,-541200,201550,58550,438033,68645,689234,-527660,-1023551,-12722,-1099840,130626,362152,-452281,898260,-260857,307400,269658,-632952,-445271,1145056,-96551,-506040,413409,31767,-46647,-414345,-217983,129217,-1039112,753100,393585,-1523210,-580289,-47387,-498656,-76979,27468,-569505,-649973,-30809,-467212,-1133611,28224,785477,-1003256,854376,-85291,749923,-35290,-968954,-1127553,-647229,-211501,593708,737815,-1088491,-577007,-475572,-173281,411804,-102917,142312,-649164,55212,-529323,-618015,-969298,546363,-380113,29757,401786,379795,179145,-581445,-326652,-227458,166735,-390891,-985577,645510,163062,223031,157773,408457,-226319,-171204,189786,530136,585657,389487,209367,-957675,77773,89206,1217257,1173489,-270482,464510,-677400,-172943,-140875,-234290,395252,-220540,-676655,-196276,-485916,-62562,786871,-592305,-956763,213868,232229,125657,-221722,-292968,644377,154450,81491,599870,142607,-66316,645844,-34075,582960,-674063,-47694,-278941,72296,-159334,-103478,-558938,-984543,1492617,1098626,-60626,-1108888,29200,296768,-615487,1025916,-1580,883113,897519,-1659047,-999882,-367271,302042,767990,130209,-25193,156598,1110355,275647,-930129,52888,1503527,314459,309488,-932354,325600,211370,97150,998471,-107538,-816984,686773,390484,-444655,-115718,-368570,712151,-1078805,-502671,524085,-583076,-879542,297069,-414618,-270338,538275,-161649,-1417711,-237719,-952059,-1640142,-1832687,-1878551,-94923,-2986532,-2468662,-2240634,-1425575,-1323745,-2917274,-1167209,-203366,-2299927,-905833,-1233456,-1249367,-1657961,-1417784,-2145833,-614571,-2071544,-547436,-834731,-668032,-1790670,-1838261,575191,-983137,-1705816,-1474169,-2201285,-940413,98329,-1236426,-1300605,-628509,-875806,-1732351,-1360440,-929309,-2447988,-735612,191799,-402297,-3009207,-1868296,363251,-1702646,-516369,-1360123,-665867,-1790796,-1247698,-760191,-2426195,-490990,-1283062,-1843898,-983887,-2228141,-838588,-978126,-893493,-759096,-1238947,-2976061,-2219444,-1789641,-1113689,-814023,-1667382,-1836547,-1256740,-916430,-751837,-1601236,-1871193,-1078240,-1846375,-1868566,34334,-1102732,-2166564,-935048,-1242261,-1573448,-1326922,-1473947,-882333,-1587794,-441239,-2030045,853481,-2634734,-974911,-2366155,-1329558,-322259,-1106053,-1535007,-263482,-1653220,-2629187,-611652,-927676,-844403,-856048,-1422737,-1397473,-573028,-644707,138580,-1771418,-2258424,-658878,-1802624,-1265509,-219054,-1640390,-1398970,-1866140,-380876,-1244640,-3053286,-2052556,-2789719,-917159,-1480018,-814146,1659539,-1296865,-1279078,-691176,-721714,-404509,-1150913,97136,-1286068,-1379331,-1614527,-3567812,-2716354,-704979,-1032855,-213895,-1436383,-1411253,-1307797,540278,-1021156,-1490936,-1410570,-1951046,-2067211,-1457772,-2275497,-1263576,-790762,-1392147,-504159,-2147044,-583619,-910635,-852284,-664920,-1157877,-1987458,-1803781,-997699,-1533049,-1849523,-1494541,-2200979,-848171,-1534083,-1360279,-1218814,-1147653,-363147,-2188947,-1378632,-1199536,-678380,-1151241,-769583,-2091688,-1620713,-1247432,-306025,-37168,-301259,-859778,-1415536,-988886,-1334343,-2094335,
};

PI_L2 short int Decoder_Lstm_Kernel[]={
-117,131,-159,82,31,-56,-120,159,104,154,-27,-75,70,150,99,12,-156,97,-2,-59,-173,56,-143,8,-6,26,121,-53,155,134,-41,40,14,-122,-172,125,16,-137,56,-30,67,103,-97,-88,-51,138,4,48,-50,-156,-74,-122,-163,147,163,-81,156,-164,-80,9,87,146,68,-28,29,-40,18,35,159,-136,-26,-26,32,15,-112,56,-128,67,98,67,-39,-14,-88,58,90,167,-76,130,-136,65,-69,80,76,123,-12,-70,-162,-9,-162,-55,-168,-72,30,143,-38,21,37,161,-159,146,-169,11,-112,5,119,-51,-8,88,-40,164,36,-164,-19,135,105,-7,-111,20,-117,151,63,-11,-29,-88,18,-1,58,-122,62,-1,24,19,36,23,50,93,-151,78,-105,-119,32,17,-149,40,173,96,-120,-137,78,112,147,124,-134,2,30,-129,-131,-67,-106,19,108,91,-57,-167,80,8,-105,-132,-91,30,27,-151,-26,-13,-160,9,116,158,154,-61,-158,-10,117,78,-142,147,-32,136,-97,-127,26,-24,136,57,64,-40,172,-5,9,-142,-161,-86,26,-167,85,-82,52,114,140,-3,-140,47,-112,-128,79,176,-55,167,-39,169,-108,113,-157,62,-28,-37,99,-85,-165,28,72,-58,-163,-31,28,-50,135,-81,-60,-166,125,-71,163,117,-104,-134,80,-164,-40,-13,-104,-21,-140,-163,-47,163,122,45,159,28,43,49,-129,-72,132,-102,16,118,138,-63,112,112,111,-15,9,95,-125,-71,137,97,-165,55,-127,-160,164,-90,-61,-155,162,106,-42,102,94,-136,-161,176,-13,72,21,-78,81,60,-131,37,-49,140,64,-85,28,140,-19,126,32,-85,-57,40,100,80,-116,66,-21,139,-57,169,3,-73,127,-108,151,159,-82,84,-48,-99,-77,151,166,29,-159,101,161,76,-4,25,18,43,-112,-169,47,103,121,-163,-84,-95,-87,120,23,-102,-113,3,-142,167,-101,-68,-137,109,49,-63,149,-176,-112,129,30,0,-175,21,141,134,168,-16,7,-66,-135,-10,-81,-14,38,43,175,-147,-164,174,-131,-69,62,-65,74,52,52,28,72,-16,-57,94,84,90,-66,5,89,52,96,53,-40,-75,73,145,173,-135,74,84,68,-5,-171,72,141,-159,-95,153,-69,-115,-158,99,20,105,158,111,101,-8,121,-107,-142,-91,53,-33,-43,64,-150,-53,-85,105,40,-126,-147,-14,41,98,125,-45,18,-159,-153,87,112,-29,30,-168,34,155,29,65,115,-94,85,-146,86,119,165,-116,-17,-166,-37,135,149,112,-95,55,-64,-161,155,165,118,-28,-85,47,133,-100,-67,-55,-125,23,99,-91,-139,-150,37,-134,-172,-173,-136,-105,133,74,14,-91,162,8,-172,-60,11,-119,59,-85,-58,145,-129,132,13,68,91,92,92,135,-87,-74,-129,-42,-72,53,-69,11,97,-112,151,139,-100,31,23,-69,133,-90,-79,-1,159,-139,-7,160,140,-173,-88,136,-106,-102,-127,3,120,42,163,67,-135,156,-152,-153,81,22,141,-47,4,44,-137,-98,116,-153,144,130,-63,152,42,86,-164,-6,65,135,138,-67,155,-159,-95,-91,6,162,77,-107,-3,38,21,131,71,-90,17,-52,-88,94,-160,-130,39,-150,-52,118,65,20,-27,-106,34,-60,-102,146,98,114,77,151,125,-166,-78,107,-46,81,96,131,-130,88,161,-68,148,16,120,144,-76,40,159,122,-50,162,168,-107,104,-27,123,-139,132,92,88,-15,142,-165,-10,173,-114,-32,141,-14,10,-104,134,79,167,106,-44,110,26,-25,12,17,118,-56,91,-111,136,-120,-136,-167,-91,-110,149,-167,39,-72,6,-98,-138,-50,-129,141,58,-38,4,56,107,-95,76,165,-3,-105,-13,-101,40,-160,3,169,161,89,-121,-140,37,30,2,-134,-154,-9,-95,79,175,-169,53,146,-60,22,-120,154,38,138,-74,133,33,171,80,-59,10,-95,101,-129,84,-60,-168,171,-35,6,28,141,-37,45,8,-4,-60,-155,18,-148,176,-150,-90,113,-157,86,152,-117,-135,-95,104,20,6,104,-20,2,0,-42,79,78,-123,141,-154,64,
};


PI_L2 int Dense_Bias[]= {183253,};

PI_L2 short int Dense_Kernel[]= {
91,-61,179,168,-27,-67,200,53,26,-84,-98,20,-48,-166,-192,-8,98,187,-14,-78,-27,21,12,18,-179,80,-4,-118,-6,-59,-705,0,-147,-141,-1,-155,61,-26,45,-4,-342,-135,52,-71,-16,331,483,-2,-14,-11,120,-50,-360,-49,-17,-231,11,102,-139,-148,127,30,140,139,127,-204,-43,432,-74,17,109,19,41,37,111,-30,58,-145,224,47,-85,57,-29,18,504,-110,-119,43,75,6,169,91,-60,46,12,-49,283,-71,-31,-101,25,464,-4,70,-29,-32,7,-21,-46,34,21,18,-56,3,73,-95,-45,-25,183,-11,139,160,86,161,115,-244,-54,115,78,-153,72,-24,29,180,166,-100,-128,2,-186,3,36,-74,-26,109,-71,90,-36,-223,-213,-32,31,-177,64,226,22,143,-21,-185,19,-42,98,172,370,-279,-96,-35,191,67,-22,-160,-6,199,-34,42,-94,251,-18,22,155,33,-18,-52,224,22,55,-41,-210,45,22,-56,15,-41,330,251,126,7,-48,3,5,30,
};
