1119189,1444547,-1188133,1171414,-1692429,-507667,255261,-294495,-1668619,-1937996,2647473,-88058,-532917,-62091,-452428,-617332,-38938,-770573,416198,-478600,-33829,2125986,-5403372,75530,2193431,500138,-2848383,1064053,1096803,655785,-895459,-454985,-313810,-765817,-363701,382060,68856,-223798,505920,2302140,417123,-82138,-645687,-1352282,420119,-167614,1208330,4174929,-602199,2402446,308443,-726986,-683821,318126,877426,-611778,-353654,-311619,-749903,90652,-905228,528646,-938126,-537704,-1959159,-882492,168567,-1965367,-666333,-581527,2441307,92423,647408,1650730,-462419,1307682,865278,-1588581,1668308,-750509,-38780,103990,-1651065,1217179,517519,175552,213214,1801222,-1287868,1342387,-369665,438159,585424,-1230530,-2018609,122429,243168,-781180,263008,-38761,452597,743517,-66435,505776,-585744,577648,76909,1894833,907710,-1904057,-154731,-415298,-272430,-2742540,727536,-273835,-1318657,-772073,-522296,69351,582111,-292920,625342,369997,-615251,-1914760,524359,-480561,-702898,565145,270555,-2038659,-225618,-220915,-930238,252609,3801679,-1227614,-119708,-708021,-165852,-447456,247646,2604727,1125517,-180336,329169,-65815,-618223,-1070260,